~o
<STREAMINFO> 1 39
<VECSIZE> 39<NULLD><MFCC_D_A_Z_0><DIAGC>
~h "a"
<BEGINHMM>
<NUMSTATES> 5
<STATE> 2
<MEAN> 39
 2.987721e+00 -3.260494e+00 -1.937616e+00 -2.657843e-01 -6.138437e-01 -8.899023e-01 7.890466e-01 2.665135e+00 7.078719e-01 -1.360421e+00 -2.028798e+00 -4.952002e-01 5.632073e+00 8.567651e-02 -7.569911e-02 -5.141803e-02 8.831678e-03 -3.371228e-02 1.511527e-02 1.977138e-02 6.005987e-02 3.853240e-02 -5.161583e-02 -3.934043e-02 -2.346776e-03 1.096631e-02 -1.097502e-02 4.943828e-02 3.601176e-02 1.150931e-02 -1.950352e-03 1.199153e-02 -1.947478e-02 -4.836809e-02 -1.387106e-02 2.458357e-02 3.142653e-02 -4.590411e-03 -5.162565e-02
<VARIANCE> 39
 3.581046e+01 4.878595e+01 5.579494e+01 5.320020e+01 6.391644e+01 5.679696e+01 5.582801e+01 5.468070e+01 7.104981e+01 5.239079e+01 4.401305e+01 2.890775e+01 1.052457e+02 8.424827e-01 1.219560e+00 1.241374e+00 1.341209e+00 1.529659e+00 1.325560e+00 1.387100e+00 1.417502e+00 1.504206e+00 1.180015e+00 1.082234e+00 7.467525e-01 2.127125e+00 8.730871e-02 1.195876e-01 1.158542e-01 1.427212e-01 1.644147e-01 1.484624e-01 1.581912e-01 1.636696e-01 1.689090e-01 1.371293e-01 1.301815e-01 9.033813e-02 1.894508e-01
<GCONST> 1.005191e+02
<STATE> 3
<MEAN> 39
 3.110928e+00 -3.279143e+00 -1.951540e+00 -2.938246e-01 -7.198436e-01 -8.224243e-01 7.416278e-01 2.600373e+00 7.261189e-01 -1.393497e+00 -1.994639e+00 -5.562230e-01 5.481438e+00 4.177744e-02 7.978331e-02 5.172541e-02 4.764007e-02 -1.601954e-02 3.106218e-02 -2.064406e-02 -6.231401e-02 -1.981528e-02 -4.580156e-03 4.443292e-02 -5.587404e-03 -1.511718e-01 -2.051277e-02 5.125785e-02 3.226705e-02 1.327777e-02 1.222401e-02 4.448609e-03 -1.749947e-02 -4.378111e-02 -1.925093e-02 1.772667e-02 2.854547e-02 -2.762656e-03 -5.176359e-02
<VARIANCE> 39
 3.481615e+01 4.720658e+01 5.538229e+01 5.124689e+01 6.417610e+01 5.547988e+01 5.469546e+01 5.304113e+01 7.189739e+01 5.242799e+01 4.296173e+01 2.876246e+01 1.092758e+02 8.568081e-01 1.127424e+00 1.164109e+00 1.273001e+00 1.416847e+00 1.309946e+00 1.383238e+00 1.337132e+00 1.536601e+00 1.156346e+00 1.050208e+00 7.313976e-01 1.985716e+00 8.322186e-02 1.159260e-01 1.111179e-01 1.431012e-01 1.566015e-01 1.434393e-01 1.515111e-01 1.547885e-01 1.677284e-01 1.351995e-01 1.264245e-01 8.759064e-02 1.734904e-01
<GCONST> 9.944794e+01
<STATE> 4
<MEAN> 39
 2.953943e+00 -3.020411e+00 -1.908599e+00 -1.703895e-01 -4.340853e-01 -6.776830e-01 5.924052e-01 2.167397e+00 6.325400e-01 -1.586999e+00 -1.879442e+00 -6.400223e-01 4.322803e+00 -5.811665e-02 2.169640e-01 1.298836e-01 8.684339e-02 3.478017e-02 3.323952e-02 -3.036063e-02 -1.407592e-01 -7.673907e-02 3.482259e-02 1.223122e-01 -1.378862e-03 -3.320709e-01 -2.452166e-02 2.685098e-02 1.044375e-02 -2.574042e-03 1.059781e-02 -3.747712e-03 -6.676916e-03 -1.606481e-02 -9.734332e-03 1.162318e-02 1.176073e-02 -1.112136e-03 -1.154767e-02
<VARIANCE> 39
 3.640656e+01 4.431911e+01 5.493528e+01 4.955518e+01 6.339832e+01 5.207134e+01 5.261169e+01 4.878372e+01 7.518024e+01 5.344982e+01 4.154471e+01 2.864290e+01 1.190834e+02 8.679092e-01 1.014677e+00 1.061075e+00 1.158273e+00 1.236575e+00 1.233534e+00 1.267300e+00 1.219789e+00 1.538669e+00 1.111783e+00 9.639850e-01 6.876851e-01 1.747574e+00 7.827907e-02 1.018230e-01 9.982326e-02 1.300776e-01 1.369785e-01 1.321723e-01 1.396849e-01 1.414357e-01 1.623861e-01 1.295151e-01 1.135468e-01 8.186460e-02 1.449648e-01
<GCONST> 9.712296e+01
<TRANSP> 5
 0.000000e+00 1.000000e+00 0.000000e+00 0.000000e+00 0.000000e+00
 0.000000e+00 5.179691e-01 4.820309e-01 0.000000e+00 0.000000e+00
 0.000000e+00 0.000000e+00 5.104097e-01 4.895904e-01 0.000000e+00
 0.000000e+00 0.000000e+00 0.000000e+00 6.368036e-01 3.631964e-01
 0.000000e+00 0.000000e+00 0.000000e+00 0.000000e+00 0.000000e+00
<ENDHMM>
~h "b"
<BEGINHMM>
<NUMSTATES> 5
<STATE> 2
<MEAN> 39
 3.758204e+00 2.430524e-01 -1.003289e+00 -7.150594e-01 -1.312875e-01 -3.892891e-01 -1.212141e+00 -9.437100e-01 -6.621186e-01 5.019130e-01 -2.196269e+00 -1.929400e-01 3.955660e+00 4.983481e-02 2.873286e-01 -1.079870e-01 -7.610387e-02 4.057443e-02 4.534616e-02 -1.572817e-01 -1.428566e-01 -1.929747e-01 -1.381478e-01 1.454903e-02 3.280874e-02 -3.468879e-02 -3.766867e-03 -6.386141e-03 4.620872e-02 -1.662736e-02 -3.652985e-02 -2.968786e-02 1.471286e-02 2.049079e-02 2.109659e-02 -9.840904e-03 4.913589e-02 -1.230790e-02 2.283902e-02
<VARIANCE> 39
 3.515115e+01 5.790215e+01 7.206612e+01 8.404385e+01 5.364254e+01 5.095308e+01 4.895629e+01 5.513773e+01 5.302132e+01 5.226820e+01 5.175364e+01 3.507041e+01 8.186515e+01 7.448952e-01 1.262386e+00 1.455097e+00 2.767129e+00 1.574804e+00 1.347546e+00 1.464113e+00 8.766119e-01 1.400041e+00 1.150089e+00 1.199741e+00 1.000745e+00 1.729371e+00 6.385681e-02 1.196336e-01 1.318396e-01 2.957855e-01 1.517763e-01 1.698661e-01 1.703258e-01 1.300186e-01 1.662378e-01 1.372608e-01 1.289679e-01 1.109654e-01 1.493837e-01
<GCONST> 1.016798e+02
<STATE> 3
<MEAN> 39
 3.494754e+00 1.029681e+00 -7.393342e-01 -7.381741e-01 -2.472064e-01 -1.891515e-01 -1.382681e+00 -1.254429e+00 -7.848384e-01 -1.667059e-01 -1.343958e+00 -6.889904e-02 3.575280e+00 4.880643e-02 1.556623e-01 1.485532e-02 1.217629e-02 3.643327e-02 -4.182198e-03 -2.314036e-02 -6.858623e-02 -5.146794e-02 -1.105246e-01 1.291943e-01 -1.612626e-02 -2.182381e-02 1.744589e-02 -4.992183e-02 3.450504e-02 -7.988450e-04 -3.173518e-02 -4.196209e-02 2.453445e-02 3.551716e-02 1.661404e-02 2.051995e-02 3.432268e-03 -1.884188e-02 3.557060e-02
<VARIANCE> 39
 3.335421e+01 5.543958e+01 7.784252e+01 7.905114e+01 5.347869e+01 5.345928e+01 4.874937e+01 4.779747e+01 5.227004e+01 4.645214e+01 4.375389e+01 3.701791e+01 8.418206e+01 7.134065e-01 1.413150e+00 1.342010e+00 2.088078e+00 1.499380e+00 1.233858e+00 1.336295e+00 9.135994e-01 1.323748e+00 1.097094e+00 9.264249e-01 8.960114e-01 1.669796e+00 5.871533e-02 1.260808e-01 1.327464e-01 2.320908e-01 1.490320e-01 1.558420e-01 1.602415e-01 1.152930e-01 1.394243e-01 1.190035e-01 1.116152e-01 1.027099e-01 1.410222e-01
<GCONST> 9.914114e+01
<STATE> 4
<MEAN> 39
 3.873435e+00 1.442380e+00 -9.125969e-02 1.332173e-01 2.969965e-01 -3.765995e-01 -9.205737e-01 -1.637177e+00 -8.356436e-01 -2.588764e-01 -7.045841e-01 -4.711475e-02 2.936837e+00 6.672654e-02 3.483052e-03 3.368027e-02 1.015997e-01 2.889113e-03 -5.869311e-02 9.875952e-03 9.365191e-03 -6.573678e-03 1.041447e-02 8.115072e-02 -6.524595e-02 3.855699e-02 -2.187955e-03 -6.865949e-02 -2.353220e-03 -8.765367e-03 -4.084124e-02 -1.576107e-02 1.359365e-04 3.697345e-02 1.388494e-02 3.580417e-02 -2.340788e-02 -2.258510e-02 4.458444e-02
<VARIANCE> 39
 3.474729e+01 4.884989e+01 7.653004e+01 7.211920e+01 5.681736e+01 4.836389e+01 4.940355e+01 4.412565e+01 5.536960e+01 4.411592e+01 3.617306e+01 3.257167e+01 7.896345e+01 6.658182e-01 1.425894e+00 1.225447e+00 1.556513e+00 1.398398e+00 1.152582e+00 1.185473e+00 1.017422e+00 1.257240e+00 1.002180e+00 8.139894e-01 7.305608e-01 1.596690e+00 5.629938e-02 1.060972e-01 1.235144e-01 1.671876e-01 1.379625e-01 1.293570e-01 1.452051e-01 1.121323e-01 1.269342e-01 1.099134e-01 9.940403e-02 7.715062e-02 1.257141e-01
<GCONST> 9.565456e+01
<TRANSP> 5
 0.000000e+00 1.000000e+00 0.000000e+00 0.000000e+00 0.000000e+00
 0.000000e+00 5.714676e-01 4.285324e-01 0.000000e+00 0.000000e+00
 0.000000e+00 0.000000e+00 5.360313e-01 4.639686e-01 0.000000e+00
 0.000000e+00 0.000000e+00 0.000000e+00 6.402020e-01 3.597979e-01
 0.000000e+00 0.000000e+00 0.000000e+00 0.000000e+00 0.000000e+00
<ENDHMM>
~h "c"
<BEGINHMM>
<NUMSTATES> 5
<STATE> 2
<MEAN> 39
 -2.290436e+00 2.944906e+00 1.716735e+00 -2.604147e+00 -5.500123e-01 -1.547930e+00 -2.744433e+00 -1.150262e+00 3.633486e-01 9.902388e-01 5.925158e-01 -1.480241e+00 2.668350e+00 -1.760178e-01 1.423113e-03 5.555558e-02 -2.953503e-01 -2.895926e-01 -1.623611e-02 4.078269e-03 1.873378e-01 2.409251e-01 9.906309e-02 -1.126325e-01 -2.540432e-01 1.093759e+00 7.703804e-02 -7.518388e-04 -4.368529e-03 3.983087e-03 -1.641406e-02 2.817215e-02 1.096193e-02 -3.576717e-02 -4.320690e-03 4.194522e-03 -7.605569e-03 4.043106e-04 2.131157e-02
<VARIANCE> 39
 1.460098e+02 5.565837e+01 6.968384e+01 6.493305e+01 6.697347e+01 5.131999e+01 8.721198e+01 7.686729e+01 5.852589e+01 5.022142e+01 4.915019e+01 2.964090e+01 1.661973e+02 5.421169e+00 1.730821e+00 2.025720e+00 2.333113e+00 2.084879e+00 2.037851e+00 2.570302e+00 2.246234e+00 2.525103e+00 1.703034e+00 1.431945e+00 1.013037e+00 5.074070e+00 6.255088e-01 1.850285e-01 1.852556e-01 2.474718e-01 2.393973e-01 2.444367e-01 2.918068e-01 2.356599e-01 2.425373e-01 2.171298e-01 1.633363e-01 1.366195e-01 4.857569e-01
<GCONST> 1.186574e+02
<STATE> 3
<MEAN> 39
 -1.234374e+00 1.212924e+00 8.957922e-01 -3.052080e+00 -1.699224e+00 -6.940093e-01 -8.152259e-01 9.004897e-01 1.670210e+00 5.423014e-01 -4.908302e-01 -2.068754e+00 7.119956e+00 2.121477e-01 -2.800433e-01 -1.857198e-01 -2.118230e-01 -2.138828e-01 9.009845e-02 1.614475e-01 7.792525e-02 7.720313e-02 4.846282e-02 -4.909435e-02 -1.555347e-01 6.783736e-01 1.050258e-01 -1.955058e-02 -3.655729e-02 3.623234e-02 7.285296e-03 -1.019109e-02 -1.716222e-02 -7.799490e-02 -5.929401e-02 -3.931503e-02 -6.629144e-03 4.964955e-02 -7.749331e-02
<VARIANCE> 39
 1.369031e+02 8.988943e+01 8.612081e+01 5.824341e+01 6.700154e+01 5.693936e+01 6.817521e+01 8.163986e+01 7.462485e+01 5.406120e+01 6.351609e+01 3.152498e+01 1.144245e+02 4.175533e+00 2.447786e+00 1.802885e+00 2.062261e+00 1.574632e+00 2.053866e+00 2.005499e+00 2.172715e+00 2.459651e+00 1.713815e+00 1.580276e+00 1.091372e+00 3.019989e+00 4.549521e-01 2.202549e-01 1.584886e-01 2.087383e-01 1.874285e-01 2.024890e-01 2.292274e-01 2.365970e-01 2.501382e-01 1.985621e-01 1.810171e-01 1.429672e-01 3.052892e-01
<GCONST> 1.167651e+02
<STATE> 4
<MEAN> 39
 3.885755e+00 -2.491496e+00 -2.022746e+00 -2.312099e+00 -1.052270e+00 2.477577e-01 -1.928071e+00 1.934773e+00 4.296628e+00 6.879472e-01 -1.255973e+00 -1.884141e+00 1.028837e+01 1.371073e-01 -5.022901e-02 -1.113558e-01 3.891638e-02 -1.885630e-01 -9.391991e-02 1.548188e-01 1.879410e-02 -1.460409e-01 -4.607994e-02 5.454605e-02 7.705980e-02 4.059947e-01 -3.363389e-03 4.540168e-02 2.109161e-02 3.963009e-02 2.499048e-02 -1.163142e-02 -3.438574e-02 -2.694986e-02 -6.080184e-02 4.007400e-03 2.016529e-02 4.102125e-02 -9.396569e-02
<VARIANCE> 39
 1.256730e+02 1.004971e+02 8.018575e+01 6.395124e+01 6.834487e+01 9.006113e+01 8.642182e+01 7.551271e+01 9.605019e+01 6.406184e+01 7.102402e+01 3.207249e+01 1.261285e+02 3.075872e+00 2.477795e+00 1.572726e+00 1.713433e+00 1.550951e+00 2.596902e+00 1.770899e+00 1.814709e+00 1.812034e+00 1.321796e+00 1.603601e+00 9.443632e-01 3.965518e+00 3.306969e-01 2.140922e-01 1.267936e-01 2.058738e-01 1.861789e-01 2.598198e-01 2.360664e-01 1.910784e-01 2.260206e-01 1.501230e-01 1.669419e-01 1.126406e-01 3.473308e-01
<GCONST> 1.158783e+02
<TRANSP> 5
 0.000000e+00 1.000000e+00 0.000000e+00 0.000000e+00 0.000000e+00
 0.000000e+00 8.668252e-01 1.331748e-01 0.000000e+00 0.000000e+00
 0.000000e+00 0.000000e+00 7.172432e-01 2.827568e-01 0.000000e+00
 0.000000e+00 0.000000e+00 0.000000e+00 8.682184e-01 1.317816e-01
 0.000000e+00 0.000000e+00 0.000000e+00 0.000000e+00 0.000000e+00
<ENDHMM>
~h "d"
<BEGINHMM>
<NUMSTATES> 5
<STATE> 2
<MEAN> 39
 3.055699e+00 -2.813981e-01 6.163567e-01 1.186926e+00 -4.753565e-01 -2.255599e+00 4.049506e-01 1.305387e+00 2.030269e-01 -7.958874e-01 -1.146459e+00 -1.101647e-01 3.671607e+00 -5.024760e-02 8.774905e-02 4.933583e-02 3.699392e-02 4.148740e-02 -1.742091e-01 -1.042951e-01 1.053358e-01 5.943170e-02 3.980281e-02 1.071625e-01 3.385065e-02 -3.993964e-02 -3.536375e-02 -1.265792e-02 -9.740906e-03 -6.018583e-02 -1.108819e-02 1.222005e-02 -3.836494e-02 -5.301549e-02 -1.007167e-02 1.345295e-02 -5.816774e-03 -1.011303e-02 4.097701e-02
<VARIANCE> 39
 3.397831e+01 4.608457e+01 4.947445e+01 4.626829e+01 5.042024e+01 6.041315e+01 6.633189e+01 5.363375e+01 5.482964e+01 4.460950e+01 4.244438e+01 2.701583e+01 8.153339e+01 7.463395e-01 1.104523e+00 1.053630e+00 1.215400e+00 1.267055e+00 1.450129e+00 1.557138e+00 1.374415e+00 1.310593e+00 1.101537e+00 1.011462e+00 6.925713e-01 1.506476e+00 8.586578e-02 1.177064e-01 9.805276e-02 1.464454e-01 1.561611e-01 1.893351e-01 1.766594e-01 1.592574e-01 1.379584e-01 1.311439e-01 1.165857e-01 8.967514e-02 1.722066e-01
<GCONST> 9.779819e+01
<STATE> 3
<MEAN> 39
 2.742971e+00 -9.592716e-02 7.155896e-01 1.000232e+00 -4.041578e-01 -2.780133e+00 -1.865136e-01 1.267957e+00 1.541811e-01 -7.822242e-01 -1.012202e+00 -1.046302e-01 3.892964e+00 -1.158692e-01 4.943455e-02 1.113767e-02 -9.988925e-02 -1.278384e-02 -1.060449e-01 -1.938809e-01 -4.921117e-02 2.693089e-02 7.698637e-02 9.056915e-02 1.257521e-02 3.008932e-02 -1.776262e-02 -3.505505e-03 -8.417325e-03 -4.777259e-02 -1.471353e-02 4.545945e-02 -1.284206e-02 -5.415899e-02 -1.211756e-02 1.566619e-02 -4.285926e-03 -1.158839e-02 1.374973e-02
<VARIANCE> 39
 3.203708e+01 4.226462e+01 4.749654e+01 4.403281e+01 5.147380e+01 6.063340e+01 7.147028e+01 5.149384e+01 5.405651e+01 4.503867e+01 4.203865e+01 2.689379e+01 8.661190e+01 7.488192e-01 1.017039e+00 1.084766e+00 1.235214e+00 1.306403e+00 1.491070e+00 1.593931e+00 1.335852e+00 1.291824e+00 1.091994e+00 1.020705e+00 7.079129e-01 1.661815e+00 8.174980e-02 1.146079e-01 9.758422e-02 1.367276e-01 1.543353e-01 1.818223e-01 1.867755e-01 1.544561e-01 1.412441e-01 1.308843e-01 1.177183e-01 8.884031e-02 1.633025e-01
<GCONST> 9.758017e+01
<STATE> 4
<MEAN> 39
 2.207622e+00 7.679021e-02 8.504358e-01 5.839354e-01 -4.460444e-01 -2.723981e+00 -1.044878e+00 5.648395e-01 -3.130142e-01 -7.695969e-01 -9.818823e-01 -4.601003e-01 3.788842e+00 -1.214574e-01 4.180076e-02 -2.060231e-02 -1.182043e-01 -3.866284e-02 3.356643e-02 -1.358544e-01 -1.493212e-01 -4.905703e-02 7.640094e-02 1.178932e-01 1.761505e-02 -2.772179e-02 -4.402433e-03 -2.759097e-03 2.090137e-03 -1.727035e-02 -1.190323e-02 4.249905e-02 2.020358e-02 -1.495778e-02 -3.388917e-03 3.390624e-03 3.213306e-03 3.988557e-04 -6.348063e-03
<VARIANCE> 39
 2.702845e+01 3.719098e+01 4.874667e+01 3.742768e+01 4.895877e+01 5.311871e+01 6.829565e+01 4.706752e+01 5.240879e+01 4.215121e+01 4.268983e+01 2.633684e+01 8.062437e+01 6.724177e-01 8.186570e-01 1.030839e+00 1.030168e+00 1.247429e+00 1.256195e+00 1.496615e+00 1.165276e+00 1.232078e+00 1.019551e+00 9.467093e-01 6.428888e-01 1.324426e+00 6.504488e-02 9.145456e-02 8.850817e-02 1.078308e-01 1.349637e-01 1.425339e-01 1.723947e-01 1.283868e-01 1.368252e-01 1.164678e-01 1.118673e-01 8.192503e-02 1.159445e-01
<GCONST> 9.310991e+01
<TRANSP> 5
 0.000000e+00 1.000000e+00 0.000000e+00 0.000000e+00 0.000000e+00
 0.000000e+00 5.405377e-01 4.594623e-01 0.000000e+00 0.000000e+00
 0.000000e+00 0.000000e+00 5.350448e-01 4.649552e-01 0.000000e+00
 0.000000e+00 0.000000e+00 0.000000e+00 6.809385e-01 3.190615e-01
 0.000000e+00 0.000000e+00 0.000000e+00 0.000000e+00 0.000000e+00
<ENDHMM>
~h "e"
<BEGINHMM>
<NUMSTATES> 5
<STATE> 2
<MEAN> 39
 5.551139e-01 1.431582e+00 7.599879e+00 -3.302673e+00 -8.466978e+00 -3.089982e+00 -3.688399e-02 -2.202643e+00 -1.597432e+00 2.374399e+00 7.718858e-01 -1.410339e-01 6.084510e+00 -4.651182e-02 7.997145e-03 1.491135e-01 -1.677070e-01 -3.193715e-01 -9.962107e-02 2.737660e-02 -6.344107e-02 1.294733e-02 1.101490e-01 5.962609e-02 1.490329e-02 3.217736e-02 -1.972355e-02 -6.060982e-03 -6.037989e-02 4.652753e-02 1.085099e-01 2.907501e-02 -6.135586e-03 3.549835e-02 3.591774e-02 -2.935828e-02 -1.486311e-02 -5.785601e-03 -6.554752e-02
<VARIANCE> 39
 3.270398e+01 5.092513e+01 6.210975e+01 6.466185e+01 8.691780e+01 6.025918e+01 5.177145e+01 6.442798e+01 6.816394e+01 4.405653e+01 4.188116e+01 2.879779e+01 9.672085e+01 7.470942e-01 1.030843e+00 1.203864e+00 1.869000e+00 2.196775e+00 1.428720e+00 1.419561e+00 1.598337e+00 1.401759e+00 1.142339e+00 8.299094e-01 7.580476e-01 2.088904e+00 8.255731e-02 1.094000e-01 9.693803e-02 1.603216e-01 2.042939e-01 1.719100e-01 1.524079e-01 1.730981e-01 1.452931e-01 1.385391e-01 1.007265e-01 9.782486e-02 1.556848e-01
<GCONST> 1.007596e+02
<STATE> 3
<MEAN> 39
 2.131276e-01 1.379738e+00 7.428141e+00 -3.484877e+00 -8.659698e+00 -3.217924e+00 1.470926e-01 -2.144962e+00 -1.362214e+00 2.545269e+00 8.379946e-01 -1.795116e-01 5.578427e+00 -7.626313e-02 -1.078151e-02 -1.020211e-01 7.676521e-02 1.171377e-01 -6.043595e-02 1.490218e-02 7.855000e-02 6.378684e-02 -2.154907e-02 3.896708e-02 -1.523029e-02 -2.567787e-01 -5.774068e-03 -3.117607e-03 -5.755543e-02 5.107299e-02 9.836469e-02 2.627619e-02 -1.009832e-02 2.714061e-02 1.709167e-02 -3.344229e-02 -1.116025e-02 -8.069434e-03 -4.851804e-02
<VARIANCE> 39
 3.274907e+01 4.543526e+01 6.160823e+01 6.591272e+01 8.971507e+01 5.721203e+01 4.904354e+01 6.541419e+01 6.636545e+01 4.385381e+01 4.182851e+01 2.713731e+01 1.131324e+02 6.615313e-01 9.519123e-01 1.038824e+00 1.739116e+00 1.757586e+00 1.353624e+00 1.320219e+00 1.491784e+00 1.293326e+00 1.159145e+00 7.424911e-01 7.244325e-01 1.746945e+00 7.595062e-02 1.010887e-01 9.622484e-02 1.519852e-01 1.853068e-01 1.621759e-01 1.448446e-01 1.657804e-01 1.419080e-01 1.328977e-01 9.018679e-02 9.087656e-02 1.538769e-01
<GCONST> 9.868862e+01
<STATE> 4
<MEAN> 39
 -2.587760e-01 1.312609e+00 6.282875e+00 -2.565373e+00 -7.630944e+00 -3.651508e+00 3.638967e-01 -1.717020e+00 -1.357375e+00 2.390680e+00 1.263383e+00 -2.752477e-01 3.433371e+00 -8.692941e-02 -2.560639e-02 -2.988408e-01 2.370152e-01 4.157367e-01 8.526573e-02 6.862190e-02 1.519588e-01 4.967062e-02 -1.286925e-01 1.707711e-02 -1.460166e-02 -4.201697e-01 1.026353e-02 -8.018305e-03 -3.981080e-02 1.151853e-02 3.468487e-02 2.637609e-02 -1.250388e-02 1.740519e-03 9.036882e-03 -1.674034e-02 -1.579003e-02 4.097364e-03 2.290807e-02
<VARIANCE> 39
 3.268758e+01 3.679269e+01 5.348378e+01 5.991885e+01 8.603609e+01 5.023470e+01 4.577768e+01 5.882219e+01 5.959290e+01 3.927921e+01 3.923629e+01 2.523510e+01 1.325314e+02 6.900904e-01 8.406665e-01 9.445332e-01 1.365726e+00 1.493893e+00 1.202965e+00 1.143734e+00 1.267375e+00 1.192269e+00 1.018027e+00 7.010688e-01 6.252514e-01 1.581278e+00 7.055166e-02 8.413741e-02 8.628707e-02 1.277963e-01 1.423900e-01 1.334794e-01 1.336996e-01 1.425288e-01 1.360302e-01 1.114098e-01 7.909828e-02 7.722849e-02 1.491767e-01
<GCONST> 9.440172e+01
<TRANSP> 5
 0.000000e+00 1.000000e+00 0.000000e+00 0.000000e+00 0.000000e+00
 0.000000e+00 6.332339e-01 3.667661e-01 0.000000e+00 0.000000e+00
 0.000000e+00 0.000000e+00 6.098703e-01 3.901297e-01 0.000000e+00
 0.000000e+00 0.000000e+00 0.000000e+00 7.463877e-01 2.536123e-01
 0.000000e+00 0.000000e+00 0.000000e+00 0.000000e+00 0.000000e+00
<ENDHMM>
~h "g"
<BEGINHMM>
<NUMSTATES> 5
<STATE> 2
<MEAN> 39
 1.699191e+00 3.063285e+00 7.858136e+00 -4.030776e+00 -6.089615e+00 -1.949348e+00 -9.431557e-01 -2.469888e+00 2.057908e-01 2.876791e+00 -3.300563e-01 -9.915086e-01 7.872063e+00 -3.577159e-02 3.348363e-02 3.323703e-01 -2.186929e-01 -3.618161e-01 -3.149686e-02 -9.555988e-02 -2.181033e-01 -5.873023e-02 2.484197e-01 4.934496e-02 5.919922e-02 1.988675e-01 2.435963e-02 -2.885158e-02 -5.669424e-02 3.496344e-02 2.248750e-02 -1.633385e-03 1.955603e-02 2.988427e-02 -1.826876e-03 -2.923917e-02 -2.126545e-02 9.407648e-03 -1.753903e-02
<VARIANCE> 39
 4.654948e+01 7.047807e+01 8.861082e+01 8.432524e+01 8.697705e+01 5.377917e+01 8.274584e+01 8.260014e+01 8.032738e+01 5.437706e+01 4.702535e+01 3.730756e+01 5.593082e+01 9.231106e-01 1.535789e+00 2.265961e+00 2.397130e+00 3.213658e+00 1.737651e+00 2.034257e+00 2.064774e+00 2.058345e+00 1.439872e+00 1.338680e+00 1.117051e+00 2.106883e+00 9.503872e-02 1.489096e-01 2.037898e-01 2.776797e-01 3.489654e-01 2.140616e-01 2.359751e-01 2.439980e-01 2.346987e-01 1.642817e-01 1.580282e-01 1.375671e-01 2.177379e-01
<GCONST> 1.120913e+02
<STATE> 3
<MEAN> 39
 1.722573e+00 1.742186e+00 8.099608e+00 -4.354243e+00 -7.731637e+00 -2.018397e+00 -8.074200e-01 -3.335489e+00 -1.004010e+00 3.983918e+00 -9.947389e-02 -8.879316e-01 8.392735e+00 7.813507e-02 -5.927432e-02 6.630772e-03 7.661477e-03 -2.332276e-01 -4.395510e-02 2.576937e-02 -2.239415e-02 -1.128390e-01 5.599993e-02 2.679958e-02 5.042526e-02 -8.377317e-03 9.424720e-03 2.132679e-03 -8.135458e-02 6.688700e-02 1.019150e-01 4.768660e-03 3.124216e-02 6.832527e-02 1.073548e-02 -6.477208e-02 -1.277478e-02 3.990046e-03 -8.546967e-02
<VARIANCE> 39
 4.258416e+01 4.870256e+01 9.088462e+01 8.340624e+01 8.507555e+01 5.518042e+01 7.386944e+01 8.186183e+01 8.183791e+01 5.416414e+01 4.967603e+01 3.435886e+01 5.504312e+01 8.107149e-01 1.161111e+00 1.740654e+00 2.109167e+00 2.852688e+00 1.586516e+00 1.776801e+00 1.846486e+00 1.789998e+00 1.287963e+00 1.098937e+00 9.173830e-01 1.833717e+00 8.472130e-02 1.175338e-01 1.638977e-01 2.261540e-01 3.018075e-01 1.924460e-01 2.133144e-01 2.101923e-01 2.211237e-01 1.545955e-01 1.322691e-01 1.150609e-01 1.857110e-01
<GCONST> 1.075443e+02
<STATE> 4
<MEAN> 39
 1.914904e+00 1.227139e+00 8.017793e+00 -3.533437e+00 -8.027236e+00 -2.256602e+00 -5.564179e-01 -2.405186e+00 -2.687178e+00 3.556433e+00 2.008861e-01 -7.080890e-01 7.232095e+00 7.420972e-02 -3.184329e-02 -2.439119e-01 1.847082e-01 1.450117e-01 -5.146841e-05 1.218914e-01 1.306344e-01 3.202742e-02 -1.257629e-01 2.035679e-02 7.223859e-02 -3.089047e-01 -1.377274e-02 -4.614571e-03 -4.437071e-02 3.014701e-02 6.525681e-02 3.684583e-03 6.938317e-03 1.849989e-02 3.570720e-02 -3.501780e-02 -4.712529e-03 2.461048e-03 -3.925372e-02
<VARIANCE> 39
 3.665088e+01 3.483469e+01 7.284137e+01 6.103345e+01 6.225135e+01 4.855402e+01 5.461422e+01 6.035493e+01 7.036966e+01 4.627828e+01 4.384776e+01 3.036846e+01 5.210344e+01 6.128967e-01 8.001033e-01 1.146461e+00 1.453938e+00 1.757129e+00 1.214827e+00 1.238573e+00 1.467518e+00 1.326132e+00 1.095247e+00 8.582745e-01 6.962863e-01 1.375740e+00 5.977618e-02 8.110987e-02 1.062163e-01 1.474227e-01 1.987077e-01 1.372129e-01 1.475438e-01 1.648755e-01 1.573437e-01 1.279716e-01 1.046578e-01 8.804798e-02 1.292512e-01
<GCONST> 9.646842e+01
<TRANSP> 5
 0.000000e+00 1.000000e+00 0.000000e+00 0.000000e+00 0.000000e+00
 0.000000e+00 8.420064e-01 1.579936e-01 0.000000e+00 0.000000e+00
 0.000000e+00 0.000000e+00 7.550575e-01 2.449425e-01 0.000000e+00
 0.000000e+00 0.000000e+00 0.000000e+00 8.202101e-01 1.797899e-01
 0.000000e+00 0.000000e+00 0.000000e+00 0.000000e+00 0.000000e+00
<ENDHMM>
~h "h"
<BEGINHMM>
<NUMSTATES> 5
<STATE> 2
<MEAN> 39
 4.982122e+00 1.354884e+00 -3.276185e+00 -2.900511e+00 7.621362e-01 2.448753e-01 -4.125682e+00 -3.162073e+00 -2.614741e+00 -4.284635e-01 -1.032277e+00 -3.261486e-02 4.975029e+00 1.403417e-01 1.237075e-01 -1.277426e-01 -3.066958e-02 1.685461e-01 1.938263e-01 1.322907e-01 9.526899e-02 -3.534560e-02 -9.294528e-02 9.045666e-03 -2.979789e-02 -2.529865e-01 -3.641566e-02 -3.581902e-02 5.878874e-02 5.178603e-02 9.501823e-03 -1.198473e-02 3.528246e-02 6.415050e-02 3.753161e-02 -5.983140e-03 3.930109e-03 -3.072007e-02 -3.563615e-03
<VARIANCE> 39
 3.466627e+01 4.556875e+01 6.921088e+01 6.924853e+01 4.189983e+01 3.975775e+01 4.814417e+01 3.300256e+01 5.158778e+01 4.176178e+01 3.477225e+01 3.272442e+01 6.139685e+01 4.672267e-01 7.699733e-01 9.452778e-01 1.093226e+00 9.374537e-01 9.501442e-01 9.437280e-01 6.999869e-01 1.040133e+00 8.976778e-01 8.093649e-01 8.915444e-01 7.279624e-01 3.819255e-02 6.897771e-02 6.717482e-02 1.034836e-01 1.038472e-01 9.808990e-02 1.033185e-01 7.967234e-02 1.329235e-01 1.038788e-01 9.428602e-02 1.056314e-01 4.010182e-02
<GCONST> 8.650085e+01
<STATE> 3
<MEAN> 39
 4.702236e+00 1.324943e+00 -2.935196e+00 -2.032819e+00 1.615235e+00 9.070562e-01 -3.263001e+00 -2.300373e+00 -2.537176e+00 -4.579104e-01 -8.093590e-01 -4.975334e-01 3.676639e+00 -8.066317e-02 2.804171e-02 4.993643e-02 1.289523e-01 2.708697e-01 2.098373e-01 1.859863e-01 2.487606e-01 6.085126e-02 -8.810227e-02 7.537455e-02 -4.505094e-02 -2.476077e-01 -4.383951e-02 -5.703517e-02 3.303792e-02 3.120799e-02 5.927077e-03 -1.389582e-02 2.628595e-02 3.147077e-02 7.832360e-03 -5.655388e-03 4.635948e-03 -6.072442e-04 2.010834e-02
<VARIANCE> 39
 3.511892e+01 5.325897e+01 7.476132e+01 5.825365e+01 4.810592e+01 3.814927e+01 5.009789e+01 3.191347e+01 4.841712e+01 4.213684e+01 3.731682e+01 2.733198e+01 6.228571e+01 5.242638e-01 8.821040e-01 9.067082e-01 1.102195e+00 1.045151e+00 7.344313e-01 8.590379e-01 7.513681e-01 1.095102e+00 8.521382e-01 8.367114e-01 7.628275e-01 6.574113e-01 3.649431e-02 7.229412e-02 6.839664e-02 1.064296e-01 1.022922e-01 7.837655e-02 9.358980e-02 8.085328e-02 1.233119e-01 9.245197e-02 9.479634e-02 8.626275e-02 3.670421e-02
<GCONST> 8.559464e+01
<STATE> 4
<MEAN> 39
 3.057810e+00 1.765525e+00 -2.192831e+00 -1.750952e+00 1.672553e+00 1.336875e+00 -8.602514e-01 -1.403061e+00 -2.274251e+00 -1.051270e+00 -4.706129e-01 -1.247829e-01 1.124366e+00 -7.120908e-02 -7.085470e-02 -2.054893e-02 7.813818e-02 7.817314e-02 9.278204e-02 1.012447e-01 1.008224e-01 4.576799e-02 -1.833776e-02 4.154097e-02 -1.360434e-03 -7.081948e-02 1.025609e-03 -2.217708e-02 9.740543e-03 4.228265e-03 -2.221658e-02 -1.359931e-02 -7.437357e-03 4.510283e-03 7.739844e-03 -5.759464e-04 -1.185235e-02 -2.605226e-03 2.594183e-02
<VARIANCE> 39
 2.883430e+01 3.598277e+01 4.728999e+01 3.705896e+01 4.090100e+01 3.577869e+01 3.357667e+01 2.709699e+01 3.374452e+01 3.307398e+01 2.820600e+01 2.168347e+01 4.158756e+01 3.880776e-01 5.886854e-01 6.342155e-01 7.210213e-01 7.856268e-01 5.616708e-01 6.610317e-01 6.340432e-01 7.099940e-01 7.011601e-01 5.893275e-01 4.317348e-01 3.789153e-01 2.866485e-02 5.388363e-02 5.300701e-02 7.135196e-02 8.769051e-02 6.222535e-02 7.100616e-02 7.595338e-02 7.843992e-02 8.067825e-02 6.903327e-02 5.464540e-02 2.746093e-02
<GCONST> 7.364880e+01
<TRANSP> 5
 0.000000e+00 1.000000e+00 0.000000e+00 0.000000e+00 0.000000e+00
 0.000000e+00 7.584178e-01 2.415822e-01 0.000000e+00 0.000000e+00
 0.000000e+00 0.000000e+00 6.671548e-01 3.328452e-01 0.000000e+00
 0.000000e+00 0.000000e+00 0.000000e+00 9.239559e-01 7.604408e-02
 0.000000e+00 0.000000e+00 0.000000e+00 0.000000e+00 0.000000e+00
<ENDHMM>
~h "i"
<BEGINHMM>
<NUMSTATES> 5
<STATE> 2
<MEAN> 39
 -2.556328e-01 3.744228e+00 5.559148e+00 -2.026588e+00 -2.838013e+00 -6.956634e-01 -1.226610e+00 -3.421747e+00 -9.466019e-01 4.587792e-01 2.327254e-01 7.547659e-01 3.786466e+00 -1.247953e-01 2.395168e-01 2.646306e-01 -1.470763e-01 -5.240342e-02 -1.165599e-03 -1.372703e-01 -2.273298e-01 -6.242925e-02 4.275313e-02 -1.117506e-02 1.692356e-02 1.948346e-03 1.059876e-02 -2.277560e-02 -3.598092e-02 2.149655e-02 1.447694e-02 -2.116981e-02 1.366495e-02 3.411120e-02 -2.665613e-03 -4.262296e-03 -2.326923e-02 -1.129600e-02 -4.019280e-03
<VARIANCE> 39
 4.826314e+01 6.914902e+01 9.096854e+01 8.082117e+01 6.176943e+01 6.032410e+01 6.692410e+01 6.152710e+01 6.409287e+01 4.808442e+01 4.373949e+01 3.235118e+01 8.471205e+01 1.196651e+00 1.438613e+00 1.887801e+00 2.175963e+00 1.520717e+00 1.325812e+00 1.653267e+00 1.558711e+00 1.534647e+00 1.147642e+00 1.170755e+00 9.294645e-01 1.900157e+00 1.089686e-01 1.358685e-01 1.621407e-01 2.108377e-01 1.700363e-01 1.381131e-01 1.713497e-01 1.626758e-01 1.579450e-01 1.334711e-01 1.329564e-01 1.106957e-01 1.440552e-01
<GCONST> 1.049271e+02
<STATE> 3
<MEAN> 39
 -1.310730e-01 3.723294e+00 5.936673e+00 -1.589625e+00 -2.860999e+00 -8.636991e-01 -1.131504e+00 -3.635942e+00 -1.615943e+00 4.742028e-01 1.749135e-01 4.550207e-01 3.085418e+00 -5.991843e-02 3.760567e-02 5.482075e-02 7.619939e-02 5.935565e-02 -1.134953e-02 6.075202e-02 -2.846044e-02 -8.246743e-02 -1.179466e-03 1.567760e-02 -3.963589e-02 -1.166030e-01 -7.049038e-04 -4.895466e-02 -4.916505e-02 2.294773e-02 2.384426e-02 -1.266242e-02 1.893491e-02 5.099854e-02 2.253466e-02 -8.280737e-04 -9.216620e-04 -6.403976e-03 -6.738191e-03
<VARIANCE> 39
 4.353156e+01 6.001286e+01 8.478709e+01 7.603777e+01 5.879493e+01 5.483785e+01 5.998383e+01 6.015141e+01 6.104145e+01 4.543997e+01 4.538343e+01 3.103224e+01 8.860809e+01 1.138709e+00 1.408264e+00 1.754412e+00 1.976182e+00 1.481146e+00 1.166969e+00 1.421957e+00 1.505048e+00 1.346649e+00 1.032986e+00 1.040489e+00 8.079089e-01 1.977994e+00 1.023747e-01 1.258345e-01 1.426844e-01 1.899267e-01 1.647636e-01 1.258139e-01 1.604178e-01 1.502785e-01 1.456499e-01 1.240319e-01 1.185817e-01 1.006604e-01 1.467570e-01
<GCONST> 1.021881e+02
<STATE> 4
<MEAN> 39
 -6.878205e-01 3.052558e+00 5.616730e+00 4.783691e-02 -1.781214e+00 -5.485779e-01 -5.403786e-01 -3.352703e+00 -2.470675e+00 3.162998e-02 4.690516e-01 1.085633e-01 9.769965e-01 -6.154091e-02 -7.707969e-02 -1.264390e-01 1.094200e-01 1.380689e-01 -3.386403e-02 1.023434e-01 9.643360e-02 1.731001e-02 -8.849439e-03 6.093645e-02 -1.618882e-02 -1.599235e-01 -5.804620e-03 -2.961172e-02 -2.492023e-02 -2.626329e-02 -9.096754e-03 -1.808376e-02 -1.723760e-02 2.346027e-02 2.757647e-02 1.436814e-02 2.493939e-03 6.746221e-03 3.713387e-02
<VARIANCE> 39
 4.752235e+01 5.047280e+01 7.863217e+01 6.336429e+01 5.600401e+01 4.579523e+01 4.907647e+01 5.193343e+01 5.653000e+01 4.411335e+01 4.101316e+01 2.845433e+01 1.156564e+02 1.128412e+00 1.214495e+00 1.449664e+00 1.433246e+00 1.281669e+00 9.873266e-01 1.164399e+00 1.227550e+00 1.164825e+00 9.340351e-01 8.715925e-01 6.803385e-01 1.926629e+00 1.020086e-01 1.044505e-01 1.213291e-01 1.368926e-01 1.411739e-01 1.114341e-01 1.364959e-01 1.273551e-01 1.267394e-01 1.077482e-01 9.717911e-02 8.376542e-02 1.691442e-01
<GCONST> 9.743198e+01
<TRANSP> 5
 0.000000e+00 1.000000e+00 0.000000e+00 0.000000e+00 0.000000e+00
 0.000000e+00 6.090403e-01 3.909597e-01 0.000000e+00 0.000000e+00
 0.000000e+00 0.000000e+00 5.517142e-01 4.482858e-01 0.000000e+00
 0.000000e+00 0.000000e+00 0.000000e+00 6.701514e-01 3.298486e-01
 0.000000e+00 0.000000e+00 0.000000e+00 0.000000e+00 0.000000e+00
<ENDHMM>
~h "j"
<BEGINHMM>
<NUMSTATES> 5
<STATE> 2
<MEAN> 39
 1.717422e+00 -4.404026e+00 -2.144455e+00 -1.732774e-01 1.423241e-02 -5.486487e-02 4.391238e+00 3.471377e+00 6.966175e-01 -1.956860e+00 -3.611440e+00 1.310316e-01 8.177148e+00 -2.473214e-01 4.145677e-01 2.447894e-01 -4.938149e-02 -1.910280e-01 -1.607171e-01 8.020884e-02 1.780273e-02 -2.151130e-01 6.292288e-02 3.188175e-01 -5.435184e-02 -7.041734e-02 -3.693397e-02 -7.742611e-03 2.208366e-02 -5.460865e-02 -1.746914e-02 -2.097796e-02 -4.658423e-02 -3.386063e-03 7.922634e-04 1.943879e-02 4.899745e-02 -1.982290e-02 3.234891e-02
<VARIANCE> 39
 3.625657e+01 4.674203e+01 3.551604e+01 3.860541e+01 5.908204e+01 2.882526e+01 3.841159e+01 3.536555e+01 5.281139e+01 3.637096e+01 4.097293e+01 2.386090e+01 6.822811e+01 1.363634e+00 9.691935e-01 9.194410e-01 9.931770e-01 2.077270e+00 1.021373e+00 8.060243e-01 9.734503e-01 1.194769e+00 8.317574e-01 1.131428e+00 6.569778e-01 1.603258e+00 1.762571e-01 9.988710e-02 9.212514e-02 1.586139e-01 2.426033e-01 1.488097e-01 9.097780e-02 9.926501e-02 1.092012e-01 9.888538e-02 1.149648e-01 1.012454e-01 1.356264e-01
<GCONST> 9.325199e+01
<STATE> 3
<MEAN> 39
 2.944987e-01 -2.977288e+00 -7.680593e-01 -1.204550e+00 -8.184977e-01 -1.053050e+00 3.885912e+00 3.466570e+00 -4.454711e-01 -2.028021e+00 -1.953456e+00 -3.531351e-01 8.267434e+00 -3.287810e-01 3.493398e-01 3.421872e-01 -1.866215e-01 -2.199474e-01 -2.450652e-01 -4.897460e-02 7.170931e-02 -1.713394e-01 1.032116e-01 4.131420e-01 -4.405728e-02 5.898994e-02 1.450108e-02 -2.705946e-02 2.454729e-02 -1.794750e-02 -2.424342e-02 -1.244113e-02 -3.950075e-02 2.690143e-03 2.211726e-02 2.503259e-02 -1.109768e-03 8.443600e-04 4.226717e-02
<VARIANCE> 39
 4.948629e+01 5.217827e+01 3.777222e+01 3.506908e+01 5.420203e+01 3.150997e+01 3.883970e+01 3.603492e+01 5.100409e+01 3.550603e+01 4.314576e+01 2.435047e+01 5.262283e+01 2.186291e+00 1.283456e+00 1.019418e+00 1.135354e+00 2.292581e+00 1.172038e+00 9.200744e-01 9.839582e-01 1.276481e+00 8.530651e-01 1.140273e+00 7.992682e-01 1.318992e+00 2.644376e-01 1.297871e-01 1.127987e-01 1.532654e-01 2.799318e-01 1.491521e-01 1.039159e-01 1.184988e-01 1.319345e-01 1.079993e-01 1.387885e-01 1.098851e-01 1.203405e-01
<GCONST> 9.661308e+01
<STATE> 4
<MEAN> 39
 -1.657718e+00 -4.490334e-01 2.310091e+00 -2.764369e+00 -2.672237e+00 -2.811464e+00 2.400743e+00 3.557960e+00 -1.306551e+00 -1.350276e+00 1.148477e+00 -9.054552e-01 8.950688e+00 1.637034e-01 -2.455581e-02 1.190460e-01 -1.018481e-01 -2.365572e-01 -1.695247e-01 -2.943667e-01 6.049475e-02 1.259457e-01 1.645053e-01 9.924569e-02 -2.379435e-02 1.279650e-01 7.965475e-02 -4.284193e-02 -5.412950e-02 3.126010e-02 2.889382e-02 3.333255e-02 -2.533680e-02 -2.016992e-02 1.551820e-02 -2.894727e-03 -5.714828e-02 -4.533435e-03 -3.237893e-02
<VARIANCE> 39
 7.400616e+01 4.962917e+01 4.115212e+01 3.618552e+01 5.500531e+01 4.138044e+01 5.218894e+01 4.309372e+01 5.816558e+01 4.243520e+01 4.921568e+01 3.163637e+01 3.895831e+01 3.175851e+00 1.906889e+00 1.400173e+00 1.463032e+00 2.560310e+00 1.286715e+00 1.422044e+00 1.458677e+00 1.297688e+00 1.097074e+00 1.540617e+00 9.369798e-01 1.047856e+00 3.749805e-01 1.869414e-01 1.432929e-01 1.530645e-01 3.369761e-01 1.514561e-01 1.534785e-01 1.712647e-01 1.487040e-01 1.398105e-01 1.795915e-01 1.211644e-01 9.836169e-02
<GCONST> 1.035601e+02
<TRANSP> 5
 0.000000e+00 1.000000e+00 0.000000e+00 0.000000e+00 0.000000e+00
 0.000000e+00 7.009455e-01 2.990545e-01 0.000000e+00 0.000000e+00
 0.000000e+00 0.000000e+00 7.107825e-01 2.892175e-01 0.000000e+00
 0.000000e+00 0.000000e+00 0.000000e+00 9.063329e-01 9.366718e-02
 0.000000e+00 0.000000e+00 0.000000e+00 0.000000e+00 0.000000e+00
<ENDHMM>
~h "k"
<BEGINHMM>
<NUMSTATES> 5
<STATE> 2
<MEAN> 39
 7.335542e-01 -4.499935e-01 -2.293129e-01 1.567409e+00 -1.760911e+00 -2.889037e+00 1.875613e-01 -1.942861e+00 -2.006427e-01 1.744601e+00 3.407806e-01 -5.624545e-01 -1.241103e+00 2.052065e-01 -3.354094e-01 -7.540849e-01 3.454346e-03 4.599511e-01 -6.162467e-02 1.289270e-02 2.388229e-01 2.114937e-01 2.526520e-03 -7.015865e-04 -1.029565e-02 1.979888e-01 4.515780e-02 4.611332e-03 -3.325953e-02 -1.051590e-01 2.135932e-02 2.444539e-02 -2.432292e-02 4.876940e-02 -1.181428e-02 2.379968e-03 -2.370745e-02 1.365807e-02 2.162791e-01
<VARIANCE> 39
 4.583928e+01 6.182359e+01 9.776539e+01 6.321686e+01 9.337145e+01 7.730960e+01 6.351691e+01 6.450365e+01 5.610587e+01 4.306954e+01 4.126013e+01 2.886201e+01 7.587904e+01 1.252053e+00 1.658083e+00 2.476875e+00 2.347576e+00 2.295062e+00 2.707156e+00 1.838671e+00 2.004590e+00 1.510336e+00 1.358552e+00 1.391670e+00 8.011342e-01 2.782819e+00 1.310136e-01 2.021424e-01 2.428291e-01 2.619573e-01 2.694312e-01 3.154262e-01 2.053695e-01 2.005618e-01 1.595846e-01 1.648559e-01 1.784499e-01 1.039056e-01 2.378835e-01
<GCONST> 1.111302e+02
<STATE> 3
<MEAN> 39
 1.449732e+00 -1.430735e+00 -2.963841e+00 7.779090e-01 4.196876e-01 -2.814292e+00 1.589651e-01 -5.043960e-01 5.642666e-01 1.942216e+00 2.920503e-01 -2.810002e-01 3.435846e-01 3.560881e-01 -2.102858e-01 -5.684904e-01 -2.345072e-01 3.164064e-01 3.393234e-02 -9.179621e-02 2.917039e-01 1.591332e-01 -5.522817e-02 -8.411376e-02 -9.945503e-03 7.084835e-01 3.526641e-02 6.031404e-02 1.129340e-01 -7.741389e-02 -8.225048e-02 5.120683e-02 -1.017058e-02 -2.835326e-02 -4.073885e-02 -3.188517e-02 -2.746364e-02 -1.602300e-02 9.033082e-02
<VARIANCE> 39
 5.538665e+01 6.590462e+01 1.052169e+02 8.196194e+01 9.221739e+01 8.544622e+01 7.151642e+01 7.253321e+01 5.842837e+01 4.419388e+01 4.562216e+01 2.913632e+01 8.790257e+01 1.476088e+00 1.883104e+00 2.613676e+00 2.694955e+00 2.463320e+00 3.215373e+00 2.017458e+00 2.086430e+00 1.578666e+00 1.517629e+00 1.689171e+00 8.475858e-01 3.060359e+00 1.561773e-01 2.110886e-01 2.524738e-01 3.245060e-01 2.827253e-01 3.690736e-01 2.486545e-01 2.240748e-01 1.715468e-01 1.660045e-01 2.073652e-01 1.091065e-01 2.881250e-01
<GCONST> 1.151720e+02
<STATE> 4
<MEAN> 39
 2.855968e+00 -9.242571e-01 -3.863267e+00 -5.824487e-01 1.188304e+00 -2.203791e+00 -2.678470e-01 -1.669506e-01 3.796850e-01 1.718098e+00 4.245041e-01 -7.795007e-02 2.392822e+00 3.473003e-01 -4.145354e-02 -1.895027e-01 -2.929528e-01 -2.923650e-02 1.775869e-01 -8.083895e-02 1.029877e-01 1.877316e-02 -9.986148e-02 -1.066143e-01 -9.035524e-02 6.115813e-01 -4.732536e-03 1.944097e-02 9.809273e-02 -1.751420e-02 -8.294046e-02 4.794056e-02 4.678969e-05 -4.291274e-02 -2.702031e-02 -1.152815e-02 -2.995877e-02 -2.299407e-02 -1.674502e-02
<VARIANCE> 39
 5.138703e+01 5.504045e+01 8.479982e+01 7.682106e+01 7.942812e+01 7.355980e+01 6.632500e+01 6.916183e+01 5.937193e+01 4.770876e+01 4.857572e+01 2.876830e+01 9.856644e+01 1.228855e+00 1.516071e+00 1.728893e+00 2.165997e+00 1.843655e+00 2.230234e+00 1.682446e+00 1.814304e+00 1.549417e+00 1.535674e+00 1.540045e+00 8.883182e-01 2.679789e+00 1.264582e-01 1.579330e-01 1.821524e-01 2.683060e-01 2.439139e-01 2.609668e-01 2.034350e-01 2.174794e-01 1.673654e-01 1.658466e-01 1.758233e-01 1.068091e-01 2.483570e-01
<GCONST> 1.101743e+02
<TRANSP> 5
 0.000000e+00 1.000000e+00 0.000000e+00 0.000000e+00 0.000000e+00
 0.000000e+00 6.158395e-01 3.841605e-01 0.000000e+00 0.000000e+00
 0.000000e+00 0.000000e+00 6.357298e-01 3.642702e-01 0.000000e+00
 0.000000e+00 0.000000e+00 0.000000e+00 6.084712e-01 3.915288e-01
 0.000000e+00 0.000000e+00 0.000000e+00 0.000000e+00 0.000000e+00
<ENDHMM>
~h "l"
<BEGINHMM>
<NUMSTATES> 5
<STATE> 2
<MEAN> 39
 3.962462e+00 -1.734052e+00 -1.344123e-01 -3.642245e+00 -2.133188e+00 -7.641777e-01 -4.452411e+00 -4.877230e-01 4.625178e+00 6.519907e-01 -2.520629e+00 -2.128307e+00 8.262076e+00 7.394920e-02 -1.419578e-01 9.764275e-02 -2.465942e-02 -1.701597e-01 -2.708550e-01 -2.447344e-01 3.323555e-01 3.088290e-01 2.663025e-02 -2.591345e-01 -4.025568e-02 3.958499e-01 -4.901071e-02 2.888363e-02 2.985190e-02 2.245743e-02 1.172699e-04 2.190602e-02 4.256153e-02 -1.732372e-02 -6.151108e-02 -5.005076e-03 1.202578e-02 3.030936e-02 -1.133601e-02
<VARIANCE> 39
 4.071650e+01 7.949937e+01 1.011226e+02 6.415002e+01 7.420756e+01 7.078881e+01 8.124631e+01 7.434578e+01 1.221923e+02 6.393153e+01 5.460300e+01 3.267213e+01 1.005416e+02 1.185892e+00 2.140761e+00 2.636107e+00 1.893626e+00 1.893463e+00 2.281495e+00 2.706647e+00 1.696357e+00 3.018255e+00 1.621127e+00 1.684222e+00 1.103117e+00 3.306656e+00 1.260465e-01 2.099566e-01 2.503672e-01 1.861938e-01 2.273459e-01 2.896396e-01 2.924752e-01 2.213980e-01 2.597880e-01 1.821086e-01 1.921723e-01 1.284787e-01 2.662406e-01
<GCONST> 1.155695e+02
<STATE> 3
<MEAN> 39
 3.139857e+00 -1.083377e+00 8.443124e-01 -3.484288e+00 -2.830161e+00 -2.431597e+00 -3.960108e+00 8.337305e-01 3.262460e+00 2.897602e-01 -2.992554e+00 -1.596602e+00 8.540288e+00 -4.852336e-02 5.403838e-02 7.076032e-02 3.642287e-02 -1.153163e-01 -1.180353e-01 1.073013e-01 8.973764e-02 -3.056650e-02 3.768463e-02 -4.971270e-02 1.507353e-02 1.021323e-01 -2.308701e-02 2.984465e-02 -8.232038e-06 1.626598e-02 1.426428e-02 3.371883e-02 4.829066e-02 -5.541610e-02 -4.647271e-02 4.377560e-03 3.882441e-02 2.382340e-03 -5.002313e-02
<VARIANCE> 39
 3.717221e+01 7.663822e+01 1.156099e+02 6.900201e+01 6.731166e+01 5.738856e+01 9.219781e+01 7.635083e+01 1.053964e+02 6.415525e+01 4.892932e+01 3.748739e+01 7.392726e+01 9.603671e-01 1.449801e+00 2.582807e+00 1.693650e+00 1.962726e+00 2.031430e+00 2.407462e+00 1.896596e+00 2.027638e+00 1.523227e+00 1.340075e+00 1.083814e+00 2.408057e+00 9.882087e-02 1.457632e-01 2.266423e-01 1.691978e-01 2.148501e-01 2.482850e-01 2.867225e-01 2.335930e-01 2.015852e-01 1.785114e-01 1.518922e-01 1.324429e-01 2.275422e-01
<GCONST> 1.116124e+02
<STATE> 4
<MEAN> 39
 2.544508e+00 -2.105491e-01 1.519230e+00 -2.971673e+00 -3.807760e+00 -2.652021e+00 -1.841866e+00 -2.626066e-01 1.213782e+00 4.147584e-01 -2.284128e+00 -1.052786e+00 8.074553e+00 -1.184952e-01 6.537213e-02 1.029871e-01 4.562241e-02 -8.856433e-02 3.022056e-02 1.358450e-01 -6.121561e-02 -1.854705e-01 2.008329e-02 5.294698e-02 6.772149e-02 -3.351464e-02 -1.256837e-02 1.599849e-02 -8.719094e-03 2.012987e-02 3.105995e-02 2.330023e-02 3.569070e-04 -2.200908e-02 -7.059792e-03 -1.367357e-02 1.820528e-02 1.295968e-02 -4.262387e-02
<VARIANCE> 39
 3.885068e+01 6.452871e+01 1.097794e+02 5.899975e+01 6.366922e+01 5.632372e+01 8.151030e+01 7.971174e+01 8.116138e+01 6.245675e+01 4.810729e+01 3.508775e+01 6.678268e+01 1.032431e+00 1.350453e+00 2.282834e+00 1.464666e+00 1.760011e+00 1.917105e+00 2.119326e+00 1.793405e+00 1.871248e+00 1.434133e+00 1.211707e+00 8.426762e-01 1.945528e+00 1.034821e-01 1.331013e-01 1.887443e-01 1.394582e-01 1.871085e-01 2.123863e-01 2.400590e-01 2.206070e-01 1.926081e-01 1.626911e-01 1.334379e-01 1.036891e-01 1.998478e-01
<GCONST> 1.077323e+02
<TRANSP> 5
 0.000000e+00 1.000000e+00 0.000000e+00 0.000000e+00 0.000000e+00
 0.000000e+00 8.173484e-01 1.826516e-01 0.000000e+00 0.000000e+00
 0.000000e+00 0.000000e+00 7.904679e-01 2.095320e-01 0.000000e+00
 0.000000e+00 0.000000e+00 0.000000e+00 8.789340e-01 1.210661e-01
 0.000000e+00 0.000000e+00 0.000000e+00 0.000000e+00 0.000000e+00
<ENDHMM>
~h "m"
<BEGINHMM>
<NUMSTATES> 5
<STATE> 2
<MEAN> 39
 4.903621e+00 -1.450858e+00 1.013645e-01 -4.789072e-01 4.392577e-01 2.478472e-02 -2.679056e+00 -1.932499e+00 -1.370850e+00 -1.021971e+00 -2.593687e+00 -2.293451e+00 6.113123e+00 4.050776e-01 -3.140027e-01 -1.557163e-01 -8.252109e-02 -7.556317e-02 -1.832192e-01 -2.765196e-01 7.710151e-02 1.325884e-01 1.039331e-01 -1.343224e-01 -2.500047e-01 5.550573e-01 -5.457559e-02 -2.452427e-02 -1.274642e-02 -3.410741e-02 6.846386e-03 -8.350871e-03 2.132912e-02 4.986607e-02 1.520567e-02 -2.419483e-02 1.521782e-02 4.421660e-02 -3.944671e-03
<VARIANCE> 39
 3.940576e+01 5.059485e+01 7.231371e+01 6.695079e+01 6.808296e+01 6.074599e+01 6.875969e+01 6.654382e+01 6.716911e+01 5.122559e+01 4.762868e+01 3.416008e+01 6.105528e+01 1.251421e+00 1.463808e+00 1.774674e+00 2.436731e+00 1.676955e+00 1.913300e+00 2.096226e+00 2.225441e+00 2.141813e+00 1.706282e+00 1.318284e+00 1.066812e+00 2.915570e+00 1.297084e-01 1.504795e-01 1.664194e-01 2.589823e-01 1.726569e-01 2.024858e-01 2.338319e-01 2.717821e-01 1.810842e-01 1.928121e-01 1.440993e-01 1.261037e-01 1.808906e-01
<GCONST> 1.093855e+02
<STATE> 3
<MEAN> 39
 5.532896e+00 -2.729915e+00 -2.937569e-01 -8.179421e-01 2.547317e-01 -8.709027e-01 -3.337059e+00 -1.315961e+00 -1.449743e+00 -9.746038e-01 -2.721568e+00 -2.598009e+00 7.819936e+00 1.309886e-01 -2.096756e-01 -1.301357e-01 -1.272257e-01 9.368334e-03 -1.131915e-01 -7.684881e-02 1.185923e-01 4.825549e-02 -8.668128e-02 -4.287928e-02 -2.068821e-02 2.990905e-01 -7.442935e-02 3.278603e-02 1.535518e-02 -2.358009e-02 7.895911e-03 3.592746e-02 5.419597e-02 7.413630e-03 -1.635472e-02 -4.246894e-02 9.944577e-03 6.101438e-02 -3.687331e-02
<VARIANCE> 39
 3.323948e+01 4.325951e+01 6.962009e+01 6.346980e+01 7.228503e+01 6.486984e+01 6.812265e+01 6.736784e+01 6.645765e+01 5.950493e+01 4.766606e+01 3.636409e+01 5.024053e+01 1.054504e+00 1.411888e+00 1.722620e+00 2.397973e+00 1.669120e+00 1.577470e+00 2.131444e+00 2.270542e+00 1.910622e+00 1.917972e+00 1.234937e+00 1.151614e+00 1.765777e+00 9.709843e-02 1.390116e-01 1.663994e-01 2.397800e-01 1.720702e-01 1.781058e-01 2.356569e-01 2.877478e-01 1.701280e-01 2.279813e-01 1.484426e-01 1.323059e-01 1.496428e-01
<GCONST> 1.076821e+02
<STATE> 4
<MEAN> 39
 5.342869e+00 -3.916027e+00 -6.085674e-01 -8.192665e-01 6.370476e-01 -2.215619e+00 -2.603294e+00 -8.737957e-01 -1.919757e+00 -2.562275e+00 -3.133286e+00 -1.484996e+00 9.770150e+00 -4.356230e-02 -2.571791e-03 -8.123241e-02 -7.776444e-02 5.675559e-02 3.508211e-02 1.264805e-01 1.324027e-01 4.056915e-02 -1.270529e-01 -1.813573e-02 9.660012e-02 5.713360e-02 -3.025123e-02 2.954690e-02 2.253981e-02 1.278516e-02 -1.010248e-02 2.211627e-02 2.888807e-02 -1.980706e-02 -6.466935e-03 1.086493e-02 5.130620e-03 2.344050e-02 -3.009360e-02
<VARIANCE> 39
 3.407950e+01 4.544685e+01 7.939794e+01 6.749364e+01 8.563971e+01 6.629510e+01 6.601722e+01 7.016164e+01 8.553341e+01 7.320868e+01 4.421210e+01 3.990756e+01 5.401596e+01 1.004092e+00 1.284683e+00 1.513062e+00 2.141192e+00 1.630015e+00 1.391405e+00 1.890076e+00 2.332242e+00 1.979684e+00 2.073781e+00 1.121177e+00 1.111851e+00 1.568284e+00 8.931538e-02 1.245157e-01 1.475446e-01 2.044049e-01 1.597826e-01 1.512992e-01 1.946661e-01 2.808377e-01 2.004033e-01 2.671781e-01 1.308461e-01 1.193995e-01 1.432359e-01
<GCONST> 1.070575e+02
<TRANSP> 5
 0.000000e+00 1.000000e+00 0.000000e+00 0.000000e+00 0.000000e+00
 0.000000e+00 6.879949e-01 3.120051e-01 0.000000e+00 0.000000e+00
 0.000000e+00 0.000000e+00 6.952206e-01 3.047794e-01 0.000000e+00
 0.000000e+00 0.000000e+00 0.000000e+00 8.824432e-01 1.175568e-01
 0.000000e+00 0.000000e+00 0.000000e+00 0.000000e+00 0.000000e+00
<ENDHMM>
~h "n"
<BEGINHMM>
<NUMSTATES> 5
<STATE> 2
<MEAN> 39
 3.130200e+00 -1.932573e+00 -7.657626e-01 3.353391e-01 8.367153e-01 -1.045002e+00 -3.737290e-01 5.643898e-01 -1.525681e+00 -2.631728e+00 -2.959981e+00 -4.540431e-01 5.599402e+00 7.913271e-02 8.834770e-02 1.634602e-01 1.398558e-01 5.315789e-02 -6.383882e-02 -6.227180e-02 -4.967469e-02 -1.537769e-01 -1.947384e-01 -9.840330e-02 1.565033e-02 -1.351732e-01 -1.777381e-03 2.242140e-02 7.561530e-04 -2.753308e-02 -2.563656e-02 1.099643e-02 -3.400854e-04 -9.851349e-03 2.122024e-02 2.891127e-02 1.976176e-02 -7.839632e-03 -2.959984e-02
<VARIANCE> 39
 3.319649e+01 4.015654e+01 4.881146e+01 4.801539e+01 4.635570e+01 4.969253e+01 4.954689e+01 4.703637e+01 6.535704e+01 5.288426e+01 3.865549e+01 2.802507e+01 8.745222e+01 6.608946e-01 9.915519e-01 1.138612e+00 1.174804e+00 1.021234e+00 1.151415e+00 9.792497e-01 1.335945e+00 1.223974e+00 1.056458e+00 8.478476e-01 7.480404e-01 1.277743e+00 6.636886e-02 9.820003e-02 9.231458e-02 1.346457e-01 1.068756e-01 1.253703e-01 1.157775e-01 1.461234e-01 1.445888e-01 1.242727e-01 9.944382e-02 8.666346e-02 1.170681e-01
<GCONST> 9.334960e+01
<STATE> 3
<MEAN> 39
 3.438541e+00 -1.734803e+00 -3.504414e-01 4.627269e-01 8.393650e-01 -1.312068e+00 -6.746559e-01 4.037785e-01 -1.874657e+00 -3.152484e+00 -3.313585e+00 -4.803973e-01 5.353905e+00 4.323374e-02 1.310254e-01 1.317300e-01 7.928004e-02 -8.156353e-03 -2.391587e-02 -4.507292e-02 -4.771555e-02 -7.096021e-02 -8.419591e-02 -3.409256e-02 -4.513568e-03 -2.220799e-01 -1.987793e-02 1.004041e-02 -1.326621e-02 -3.335332e-02 -2.107512e-02 1.882520e-02 9.145623e-03 -1.550767e-03 2.727297e-02 4.702321e-02 2.891147e-02 -9.936215e-03 -1.789580e-02
<VARIANCE> 39
 2.895990e+01 4.063588e+01 4.432858e+01 4.444063e+01 4.436605e+01 4.763679e+01 4.544491e+01 4.919822e+01 6.388526e+01 5.079125e+01 3.711867e+01 2.759207e+01 7.995909e+01 5.687918e-01 9.404656e-01 1.027722e+00 1.124205e+00 1.008188e+00 1.128507e+00 9.344504e-01 1.304400e+00 1.202072e+00 1.038368e+00 7.939250e-01 7.100571e-01 1.034007e+00 5.759162e-02 9.326646e-02 8.367418e-02 1.241037e-01 9.674627e-02 1.209492e-01 1.017989e-01 1.415752e-01 1.330902e-01 1.178766e-01 9.332432e-02 8.179378e-02 9.590716e-02
<GCONST> 9.077141e+01
<STATE> 4
<MEAN> 39
 3.390656e+00 -1.662176e+00 -4.448398e-01 1.712419e-01 8.274407e-01 -1.685605e+00 -1.304604e+00 9.602837e-02 -2.269400e+00 -3.988108e+00 -3.791159e+00 -8.119546e-01 4.886827e+00 -3.287069e-02 1.236349e-01 9.324796e-02 2.205146e-02 -5.169339e-02 2.937929e-02 1.449670e-02 -1.789344e-02 1.728865e-02 7.911251e-02 8.579129e-02 -4.410920e-03 -2.472215e-01 -2.511855e-02 -2.181939e-03 -4.326513e-03 -1.815464e-02 -7.320623e-03 1.298138e-02 1.450686e-02 1.654661e-03 1.596314e-02 4.318576e-02 3.270874e-02 -1.731607e-03 -1.241035e-03
<VARIANCE> 39
 2.710079e+01 3.798803e+01 3.989760e+01 4.090962e+01 4.297387e+01 4.504861e+01 4.006538e+01 4.930757e+01 6.152264e+01 4.721558e+01 3.404627e+01 2.698512e+01 7.416821e+01 5.536636e-01 8.878145e-01 8.634143e-01 1.063779e+00 9.562828e-01 1.073127e+00 8.420725e-01 1.228694e+00 1.173790e+00 1.000977e+00 7.360286e-01 6.322265e-01 9.766697e-01 5.250705e-02 8.628248e-02 7.360344e-02 1.128421e-01 9.369570e-02 1.182824e-01 9.416568e-02 1.376835e-01 1.271187e-01 1.130965e-01 8.771282e-02 7.408196e-02 8.585326e-02
<GCONST> 8.814026e+01
<TRANSP> 5
 0.000000e+00 1.000000e+00 0.000000e+00 0.000000e+00 0.000000e+00
 0.000000e+00 5.576125e-01 4.423875e-01 0.000000e+00 0.000000e+00
 0.000000e+00 0.000000e+00 5.741714e-01 4.258287e-01 0.000000e+00
 0.000000e+00 0.000000e+00 0.000000e+00 7.601793e-01 2.398207e-01
 0.000000e+00 0.000000e+00 0.000000e+00 0.000000e+00 0.000000e+00
<ENDHMM>
~h "o"
<BEGINHMM>
<NUMSTATES> 5
<STATE> 2
<MEAN> 39
 4.043849e+00 -1.360238e+00 -2.713726e+00 -1.143966e+00 1.996033e-01 6.489776e-01 -2.699032e-01 -2.522221e-01 2.468079e-01 1.744469e+00 8.020800e-01 -5.506620e-01 7.542195e-01 5.429462e-01 1.315624e-01 -3.221714e-01 -1.484687e-01 6.090593e-02 1.173617e-02 -3.512003e-01 -1.093597e-01 -2.683495e-02 1.112296e-01 -1.079967e-01 -2.057430e-01 4.995592e-01 -8.041816e-03 2.188838e-02 1.995641e-02 1.269880e-03 -6.912341e-04 -5.837758e-02 -4.479870e-02 -3.874968e-03 2.417324e-02 -3.037016e-02 -5.252050e-02 -1.025819e-02 6.864797e-02
<VARIANCE> 39
 5.234689e+01 4.539995e+01 7.716624e+01 7.642722e+01 5.509063e+01 6.078727e+01 6.549145e+01 5.053104e+01 5.705021e+01 4.279641e+01 4.240972e+01 2.445263e+01 1.162554e+02 1.146305e+00 1.334838e+00 1.642651e+00 1.868282e+00 1.486368e+00 1.780808e+00 1.754950e+00 1.210992e+00 1.713304e+00 1.254687e+00 1.251754e+00 7.752059e-01 2.816205e+00 1.102551e-01 1.291273e-01 1.621724e-01 2.090518e-01 1.739872e-01 1.999793e-01 1.976309e-01 1.539361e-01 1.853603e-01 1.525873e-01 1.582877e-01 9.959907e-02 2.117658e-01
<GCONST> 1.051439e+02
<STATE> 3
<MEAN> 39
 5.723452e+00 -5.193876e-01 -4.317626e+00 -1.921222e+00 7.474033e-01 6.369233e-01 -1.705989e+00 -5.075939e-01 7.016622e-01 1.988269e+00 2.635420e-01 -1.158153e+00 2.507230e+00 3.817148e-01 4.332735e-02 -2.887258e-01 -1.134784e-01 3.887557e-02 -1.406071e-01 -3.959044e-01 -4.742311e-02 1.067397e-01 3.750783e-02 -2.913232e-01 -1.624863e-01 7.713004e-01 -9.785889e-02 -3.007448e-02 8.728310e-02 6.056841e-02 -4.468115e-03 -5.849010e-02 2.025396e-02 2.747882e-02 1.141003e-02 -4.343320e-02 -3.404043e-02 3.247515e-02 -3.161862e-02
<VARIANCE> 39
 5.106959e+01 3.589996e+01 7.758611e+01 7.644790e+01 5.471906e+01 5.750838e+01 6.053897e+01 4.585497e+01 5.635121e+01 4.509493e+01 4.484392e+01 2.736288e+01 9.506032e+01 1.454102e+00 1.385951e+00 2.020619e+00 2.468229e+00 1.858574e+00 1.917233e+00 1.734250e+00 1.207366e+00 1.825467e+00 1.320346e+00 1.360137e+00 8.602296e-01 3.568357e+00 1.237371e-01 1.330195e-01 1.938285e-01 2.406985e-01 1.862785e-01 2.215978e-01 1.847613e-01 1.403747e-01 2.050373e-01 1.737681e-01 1.826269e-01 1.159431e-01 2.072601e-01
<GCONST> 1.072208e+02
<STATE> 4
<MEAN> 39
 5.699737e+00 -6.420338e-01 -5.310095e+00 -1.924314e+00 1.677495e+00 1.136396e-01 -3.139396e+00 -1.126916e+00 9.678313e-01 1.390103e+00 -1.091758e+00 -9.901634e-01 4.898026e+00 -6.332398e-02 -1.186710e-01 1.143449e-01 1.309665e-01 2.685240e-03 -2.350549e-01 -1.749656e-01 1.746541e-02 5.123962e-02 -1.723514e-01 -2.959144e-01 -3.981205e-02 5.234143e-01 -8.650518e-02 -5.140060e-03 1.219551e-01 6.792377e-02 -1.972469e-02 -2.260820e-02 6.223164e-02 1.697504e-02 -4.157772e-02 -5.511870e-02 3.418192e-02 2.549581e-02 -1.219697e-01
<VARIANCE> 39
 4.568044e+01 3.074594e+01 6.230572e+01 6.512061e+01 5.400112e+01 4.665973e+01 5.824758e+01 3.882320e+01 6.523418e+01 5.119814e+01 4.237290e+01 3.392397e+01 7.807310e+01 1.127412e+00 1.111767e+00 2.049225e+00 2.244323e+00 1.876314e+00 1.615101e+00 1.500346e+00 1.093672e+00 1.703467e+00 1.264772e+00 1.405172e+00 1.043652e+00 2.705065e+00 1.087588e-01 1.232061e-01 1.854884e-01 2.102530e-01 1.933564e-01 1.863940e-01 1.633303e-01 1.214141e-01 2.130172e-01 1.647898e-01 1.827853e-01 1.386678e-01 2.039694e-01
<GCONST> 1.046170e+02
<TRANSP> 5
 0.000000e+00 1.000000e+00 0.000000e+00 0.000000e+00 0.000000e+00
 0.000000e+00 5.533012e-01 4.466988e-01 0.000000e+00 0.000000e+00
 0.000000e+00 0.000000e+00 5.785125e-01 4.214874e-01 0.000000e+00
 0.000000e+00 0.000000e+00 0.000000e+00 7.425582e-01 2.574418e-01
 0.000000e+00 0.000000e+00 0.000000e+00 0.000000e+00 0.000000e+00
<ENDHMM>
~h "p"
<BEGINHMM>
<NUMSTATES> 5
<STATE> 2
<MEAN> 39
 -4.840645e-01 -2.700718e+00 -3.538419e+00 3.227802e+00 -2.351693e-01 8.474314e-01 1.412769e+00 1.127241e+00 1.448087e+00 2.741606e-01 1.051770e+00 -7.922900e-01 -1.158964e+00 2.186353e-02 -2.216389e-01 6.080466e-03 2.506546e-01 1.082967e-01 1.041625e-01 2.200808e-01 1.303591e-01 1.335869e-01 9.661986e-02 1.478918e-01 3.460536e-02 -3.403938e-01 3.341619e-02 1.249874e-02 4.131261e-02 -5.680370e-02 -2.226420e-02 -5.588655e-02 -8.605981e-03 1.857845e-02 -4.778763e-03 -6.412795e-03 -1.893761e-02 1.502031e-02 1.394415e-01
<VARIANCE> 39
 8.844070e+01 8.337296e+01 4.435568e+01 5.620108e+01 6.073864e+01 6.332473e+01 4.436558e+01 4.219175e+01 5.124623e+01 4.428481e+01 3.461884e+01 2.524944e+01 1.141653e+02 9.668435e-01 9.811561e-01 9.151881e-01 1.038578e+00 1.278696e+00 1.005133e+00 9.495038e-01 8.014743e-01 1.169913e+00 7.734048e-01 8.642102e-01 6.017756e-01 2.437405e+00 1.121762e-01 1.067884e-01 9.433451e-02 1.190008e-01 1.442800e-01 1.306929e-01 1.299376e-01 9.975809e-02 1.320978e-01 1.027871e-01 1.060858e-01 7.255795e-02 2.078237e-01
<GCONST> 9.547516e+01
<STATE> 3
<MEAN> 39
 -1.605368e-01 -3.938244e+00 -3.164908e+00 3.476957e+00 2.591871e-01 1.598960e+00 2.386383e+00 1.980154e+00 2.078136e+00 6.136410e-01 1.367867e+00 -4.021927e-01 -2.663176e+00 8.503678e-02 -1.269450e-01 1.012486e-01 1.432988e-01 6.002587e-02 -5.382356e-02 1.656781e-01 1.602851e-01 1.318551e-01 7.631540e-02 1.132134e-01 3.518338e-02 -9.896727e-03 3.041606e-02 2.375463e-02 3.058195e-02 -9.379120e-02 -3.484065e-02 -6.715722e-02 -3.985485e-02 9.391662e-03 -1.151652e-02 -3.000591e-02 -4.376201e-02 3.044709e-03 1.841481e-01
<VARIANCE> 39
 9.166878e+01 5.815931e+01 4.587066e+01 5.190378e+01 5.741662e+01 5.646395e+01 4.317910e+01 3.843581e+01 5.500670e+01 4.416401e+01 3.206215e+01 2.320742e+01 1.247509e+02 1.322014e+00 1.245516e+00 1.093371e+00 1.147669e+00 1.390135e+00 1.234006e+00 1.029957e+00 9.001875e-01 1.285392e+00 8.329529e-01 9.074696e-01 6.215138e-01 3.550857e+00 1.319115e-01 1.169999e-01 1.122912e-01 1.265758e-01 1.657619e-01 1.486807e-01 1.334004e-01 1.033324e-01 1.439941e-01 1.172182e-01 1.084736e-01 7.793444e-02 2.394776e-01
<GCONST> 9.802214e+01
<STATE> 4
<MEAN> 39
 8.274894e-01 -4.877511e+00 -2.644960e+00 4.142324e+00 1.316274e+00 1.498450e+00 3.088376e+00 2.830264e+00 1.620510e+00 4.631775e-01 1.225015e+00 1.661840e-01 -1.886550e+00 2.194412e-01 -3.225801e-02 1.454994e-03 -1.006723e-01 -5.385344e-02 -1.754650e-01 -2.551087e-02 6.636169e-02 -2.543158e-02 -1.304250e-01 -1.012191e-01 3.437424e-02 5.827624e-01 1.469023e-02 1.625046e-02 -4.414170e-03 -8.499304e-02 -4.045979e-02 -1.566734e-02 -5.065000e-02 -3.349201e-03 -3.906307e-02 -4.127118e-02 -3.984331e-02 -8.143859e-03 5.074325e-02
<VARIANCE> 39
 9.292067e+01 5.108376e+01 5.110930e+01 6.327750e+01 6.328302e+01 5.786314e+01 4.310463e+01 3.479645e+01 6.912283e+01 4.717704e+01 3.510920e+01 2.521818e+01 1.995540e+02 1.993069e+00 1.324063e+00 1.322367e+00 1.681722e+00 1.587276e+00 1.819688e+00 1.101460e+00 8.896537e-01 1.586599e+00 1.096475e+00 1.013870e+00 6.420571e-01 6.525520e+00 1.797722e-01 1.245710e-01 1.332430e-01 1.711324e-01 1.776888e-01 1.916395e-01 1.237487e-01 1.045294e-01 1.765996e-01 1.268826e-01 1.148613e-01 8.490937e-02 5.269529e-01
<GCONST> 1.043481e+02
<TRANSP> 5
 0.000000e+00 1.000000e+00 0.000000e+00 0.000000e+00 0.000000e+00
 0.000000e+00 5.237465e-01 4.762535e-01 0.000000e+00 0.000000e+00
 0.000000e+00 0.000000e+00 5.124650e-01 4.875351e-01 0.000000e+00
 0.000000e+00 0.000000e+00 0.000000e+00 7.392849e-01 2.607151e-01
 0.000000e+00 0.000000e+00 0.000000e+00 0.000000e+00 0.000000e+00
<ENDHMM>
~h "r"
<BEGINHMM>
<NUMSTATES> 5
<STATE> 2
<MEAN> 39
 -7.840822e-01 -2.119120e+00 -9.631631e-01 1.947499e+00 -1.726640e-01 1.004407e+00 9.900146e-01 1.872341e+00 1.350602e+00 2.249110e-01 1.316337e+00 6.996695e-01 -1.142892e+00 -1.199672e-02 1.283405e-02 1.226579e-01 5.389396e-02 6.380244e-02 6.933323e-02 -4.951666e-02 4.041026e-02 1.899447e-02 -1.046395e-02 5.867830e-02 1.748106e-02 -1.773465e-01 2.374622e-02 9.492728e-03 1.265852e-02 -4.328351e-02 -3.627592e-03 -3.247581e-02 -2.084597e-02 -2.167404e-02 -2.172217e-02 -3.871127e-03 -2.907772e-02 -3.027436e-02 3.776252e-02
<VARIANCE> 39
 7.265933e+01 4.404047e+01 5.446153e+01 5.965222e+01 7.324567e+01 5.695255e+01 5.202522e+01 4.636491e+01 5.209743e+01 4.550063e+01 4.385799e+01 2.588981e+01 2.312935e+02 1.080024e+00 8.466464e-01 1.031581e+00 9.484089e-01 1.415214e+00 1.155534e+00 1.030125e+00 1.040982e+00 1.134009e+00 1.020940e+00 8.807435e-01 5.857806e-01 1.874952e+00 9.660900e-02 8.546802e-02 9.306281e-02 1.053679e-01 1.487790e-01 1.233313e-01 1.242255e-01 1.200216e-01 1.280042e-01 1.149767e-01 9.833197e-02 7.548206e-02 1.393365e-01
<GCONST> 9.605311e+01
<STATE> 3
<MEAN> 39
 -4.310022e-02 -2.170350e+00 -7.793151e-01 1.590085e+00 -3.170924e-01 6.818886e-01 6.430407e-01 1.871159e+00 1.444258e+00 1.084930e-01 8.567410e-01 6.263598e-01 4.985154e-02 5.434071e-02 7.118514e-03 1.616250e-01 -5.235127e-02 6.393161e-03 -3.975408e-02 -9.776885e-02 -4.802557e-02 -4.870228e-02 -3.541733e-02 -1.794545e-02 -4.312048e-02 -7.895401e-03 2.656433e-02 1.037400e-02 1.908989e-02 -5.680168e-02 -1.718710e-02 -3.321238e-02 -1.266323e-02 -2.903975e-02 -2.611155e-02 4.076973e-05 -3.635593e-02 -2.012061e-02 4.345024e-02
<VARIANCE> 39
 6.531298e+01 4.379798e+01 5.554214e+01 5.747024e+01 7.402799e+01 5.836238e+01 5.435996e+01 4.735515e+01 5.224224e+01 4.390996e+01 4.324693e+01 2.469470e+01 2.163622e+02 1.006173e+00 9.199932e-01 1.179543e+00 9.979972e-01 1.531453e+00 1.193585e+00 1.140419e+00 1.029453e+00 1.172107e+00 1.063061e+00 9.406504e-01 6.174079e-01 2.182921e+00 9.752105e-02 9.238737e-02 1.003905e-01 1.113413e-01 1.599274e-01 1.354361e-01 1.327417e-01 1.208075e-01 1.283263e-01 1.202713e-01 1.071789e-01 8.044330e-02 1.663913e-01
<GCONST> 9.743749e+01
<STATE> 4
<MEAN> 39
 2.788134e-01 -2.192813e+00 -4.589538e-01 1.134298e+00 -3.742537e-01 3.012963e-01 3.165346e-01 1.705814e+00 1.399058e+00 -8.007053e-02 5.226672e-01 4.807621e-01 7.638186e-01 1.318742e-01 -9.677419e-03 1.899874e-01 -1.763703e-01 -9.068848e-02 -1.363873e-01 -1.239525e-01 -1.030214e-01 -9.824820e-02 -3.219150e-02 -1.225917e-01 -5.975899e-02 2.242462e-01 1.841698e-02 1.821974e-02 6.534731e-03 -3.696154e-02 -2.777681e-02 -1.548983e-02 -2.475478e-03 -2.362884e-02 -2.053220e-02 4.325490e-03 -3.370660e-02 -4.383963e-03 3.108558e-02
<VARIANCE> 39
 6.059777e+01 4.535494e+01 5.765515e+01 5.385963e+01 7.104451e+01 5.558167e+01 5.610793e+01 5.010832e+01 5.432034e+01 4.461166e+01 4.757248e+01 2.398099e+01 2.175264e+02 1.140947e+00 1.084313e+00 1.347182e+00 1.131811e+00 1.780967e+00 1.232234e+00 1.322143e+00 1.103020e+00 1.270388e+00 1.092169e+00 1.099802e+00 6.616724e-01 3.217819e+00 1.133885e-01 9.803510e-02 1.125077e-01 1.139928e-01 1.660084e-01 1.413349e-01 1.413552e-01 1.276158e-01 1.368252e-01 1.223256e-01 1.227255e-01 8.515196e-02 2.349232e-01
<GCONST> 1.003274e+02
<TRANSP> 5
 0.000000e+00 1.000000e+00 0.000000e+00 0.000000e+00 0.000000e+00
 0.000000e+00 4.997407e-01 5.002592e-01 0.000000e+00 0.000000e+00
 0.000000e+00 0.000000e+00 4.561003e-01 5.438997e-01 0.000000e+00
 0.000000e+00 0.000000e+00 0.000000e+00 5.464535e-01 4.535464e-01
 0.000000e+00 0.000000e+00 0.000000e+00 0.000000e+00 0.000000e+00
<ENDHMM>
~h "s"
<BEGINHMM>
<NUMSTATES> 5
<STATE> 2
<MEAN> 39
 -7.996942e+00 7.461384e+00 -1.091786e+00 1.482014e+00 -1.214961e+00 -5.311273e+00 2.106903e+00 -1.449916e+00 5.326236e-02 9.603692e-01 1.478429e+00 7.800380e-02 5.039730e+00 -8.666282e-01 5.021135e-01 -2.608151e-01 2.109671e-01 3.342567e-01 -2.208909e-01 1.899046e-01 1.131578e-02 1.376375e-02 5.911309e-03 1.348906e-01 -6.310470e-02 -3.353002e-03 7.152764e-02 -7.446341e-02 9.911108e-03 -2.778719e-02 -3.271308e-02 5.108466e-02 -3.651833e-02 1.296721e-02 -6.210761e-03 -1.139324e-02 -2.115224e-02 -5.025108e-03 1.260678e-02
<VARIANCE> 39
 1.444045e+02 7.065426e+01 9.237613e+01 7.535732e+01 8.232312e+01 7.083451e+01 7.787788e+01 6.043408e+01 5.832649e+01 6.004706e+01 4.729589e+01 3.781157e+01 4.526243e+01 3.756664e+00 2.167773e+00 2.023368e+00 2.467420e+00 2.106907e+00 1.787464e+00 1.767076e+00 1.796786e+00 1.680258e+00 1.523597e+00 1.507584e+00 1.025417e+00 1.057433e+00 3.149035e-01 1.970879e-01 1.876761e-01 2.484708e-01 2.003146e-01 1.772608e-01 1.869825e-01 1.939365e-01 1.831551e-01 1.745012e-01 1.739278e-01 1.246939e-01 9.176009e-02
<GCONST> 1.118013e+02
<STATE> 3
<MEAN> 39
 -8.348760e+00 7.399499e+00 -2.090657e+00 1.568817e+00 6.019853e-02 -5.416217e+00 1.757270e+00 -1.052291e+00 -1.003092e-01 4.650954e-01 1.403076e+00 2.622651e-02 5.209804e+00 1.028687e-01 -9.614805e-02 -4.925411e-02 -1.062959e-01 7.318401e-02 5.855435e-02 -6.809933e-02 2.139517e-02 -9.780960e-03 -6.029604e-02 -4.454862e-02 -3.715387e-02 4.682474e-02 1.432844e-01 -7.556986e-02 2.587877e-02 -4.176904e-02 -4.050477e-02 4.698813e-02 -3.894788e-02 -7.372662e-03 -6.697143e-03 -1.226350e-03 -2.813803e-02 3.129051e-03 2.132138e-03
<VARIANCE> 39
 1.414661e+02 6.001375e+01 9.419860e+01 7.462788e+01 8.529886e+01 7.002528e+01 7.089816e+01 6.537754e+01 5.422409e+01 5.594659e+01 4.881936e+01 3.727182e+01 3.867800e+01 4.288650e+00 2.019190e+00 2.167325e+00 2.787962e+00 1.928562e+00 1.938044e+00 1.913589e+00 1.695373e+00 1.626076e+00 1.627396e+00 1.622238e+00 1.037704e+00 1.188559e+00 3.007458e-01 1.860138e-01 1.887340e-01 2.696497e-01 1.910858e-01 2.107293e-01 2.024113e-01 1.859821e-01 1.873225e-01 1.854084e-01 1.772812e-01 1.208367e-01 1.163322e-01
<GCONST> 1.123089e+02
<STATE> 4
<MEAN> 39
 -3.337082e+00 5.081467e+00 -2.410538e+00 -1.017358e-01 8.594322e-01 -4.315327e+00 1.343461e-01 -4.771225e-01 2.187263e-01 2.820368e-01 6.958362e-01 -6.774952e-03 5.749016e+00 6.543713e-01 -3.878064e-01 3.392743e-02 -2.014012e-01 -5.651285e-02 2.265858e-01 -1.806860e-01 1.188157e-02 1.620092e-02 -1.886533e-02 -1.067160e-01 -5.534836e-02 7.951458e-02 2.422777e-02 -1.281567e-02 1.234652e-02 1.761352e-02 3.229805e-04 3.026096e-02 2.444048e-03 -4.002278e-03 -1.498646e-02 -3.228700e-03 6.240155e-03 8.462865e-03 -2.932486e-02
<VARIANCE> 39
 1.322427e+02 5.283435e+01 9.417130e+01 6.399695e+01 7.742059e+01 6.218677e+01 7.169267e+01 5.919112e+01 5.978652e+01 5.199368e+01 4.676423e+01 3.263858e+01 4.297292e+01 3.078173e+00 1.647424e+00 1.832416e+00 2.164930e+00 1.647946e+00 1.554833e+00 1.855859e+00 1.506941e+00 1.758227e+00 1.701512e+00 1.375248e+00 9.461129e-01 1.391359e+00 2.620007e-01 1.623649e-01 1.706444e-01 2.256422e-01 1.779766e-01 1.832853e-01 2.259069e-01 1.673677e-01 2.038832e-01 1.970083e-01 1.649637e-01 1.108398e-01 1.492543e-01
<GCONST> 1.096280e+02
<TRANSP> 5
 0.000000e+00 1.000000e+00 0.000000e+00 0.000000e+00 0.000000e+00
 0.000000e+00 8.484764e-01 1.515236e-01 0.000000e+00 0.000000e+00
 0.000000e+00 0.000000e+00 8.243017e-01 1.756983e-01 0.000000e+00
 0.000000e+00 0.000000e+00 0.000000e+00 8.816244e-01 1.183756e-01
 0.000000e+00 0.000000e+00 0.000000e+00 0.000000e+00 0.000000e+00
<ENDHMM>
~h "t"
<BEGINHMM>
<NUMSTATES> 5
<STATE> 2
<MEAN> 39
 6.252767e-01 -1.504364e+00 3.152383e-01 3.429715e-02 -3.687754e-01 -9.533295e-01 1.034335e+00 7.392570e-01 6.251764e-01 -6.556697e-01 -8.683178e-01 4.325809e-02 3.121667e+00 -3.279371e-02 -1.867816e-01 -6.454520e-02 -1.296161e-01 4.225854e-02 -2.421621e-02 -2.783160e-02 4.982092e-02 1.316010e-01 -3.928787e-02 -2.539093e-02 1.187535e-02 1.817936e-01 3.994413e-02 -5.813794e-03 -9.545027e-03 -1.819233e-02 -1.956579e-02 -1.556294e-02 -2.746883e-02 -1.400313e-02 -3.979433e-03 1.299315e-02 -6.791582e-03 -4.317078e-03 9.080451e-02
<VARIANCE> 39
 4.377321e+01 4.982140e+01 7.457731e+01 5.640974e+01 6.575771e+01 5.183451e+01 6.296034e+01 5.873983e+01 6.164289e+01 4.242656e+01 4.393769e+01 2.745857e+01 1.235897e+02 1.152951e+00 1.150712e+00 1.339650e+00 1.138644e+00 1.244533e+00 1.190526e+00 1.572003e+00 1.441845e+00 1.792944e+00 1.136790e+00 1.025024e+00 7.157364e-01 2.965211e+00 1.279349e-01 1.255074e-01 1.105172e-01 1.122728e-01 1.259900e-01 1.431000e-01 1.767188e-01 1.758085e-01 1.697232e-01 1.262058e-01 1.230434e-01 8.690549e-02 3.127386e-01
<GCONST> 1.016937e+02
<STATE> 3
<MEAN> 39
 8.380294e-01 -1.790985e+00 6.008145e-01 -7.314900e-01 -9.539004e-01 -1.436508e+00 -1.781319e-02 3.531347e-01 6.381059e-01 -5.506395e-01 -8.137751e-01 -1.044953e-01 4.298404e+00 1.308822e-01 -1.427645e-01 -8.072647e-02 -1.797328e-01 -3.152268e-02 -6.648751e-02 -1.259664e-01 8.732405e-03 7.195191e-02 -2.706162e-02 -1.179292e-01 1.219246e-02 3.885389e-01 4.554597e-02 3.080185e-02 -1.420747e-02 -9.748216e-04 -1.497741e-02 1.368924e-02 -1.245431e-02 -2.941898e-02 -2.985833e-02 1.129494e-02 -9.154147e-03 -1.060235e-02 1.668577e-02
<VARIANCE> 39
 4.147757e+01 4.538483e+01 6.997565e+01 5.515996e+01 6.411241e+01 5.176919e+01 5.674831e+01 5.375861e+01 6.400853e+01 4.544621e+01 4.266133e+01 2.735505e+01 1.277688e+02 1.204732e+00 1.347157e+00 1.460884e+00 1.243128e+00 1.312402e+00 1.266982e+00 1.737690e+00 1.537811e+00 1.992493e+00 1.150701e+00 1.225607e+00 7.897118e-01 3.692615e+00 1.240586e-01 1.208180e-01 1.215164e-01 1.193681e-01 1.367708e-01 1.458747e-01 1.893274e-01 1.735017e-01 1.819976e-01 1.366911e-01 1.391152e-01 9.501803e-02 3.202674e-01
<GCONST> 1.032477e+02
<STATE> 4
<MEAN> 39
 1.696157e+00 -2.253760e+00 3.231481e-01 -1.757812e+00 -1.811030e+00 -2.268196e+00 -1.014045e+00 6.142111e-02 3.231859e-01 -8.879273e-01 -1.745515e+00 -3.124779e-02 6.511921e+00 1.835485e-01 -2.587517e-02 -1.013978e-01 -7.741369e-02 -1.675996e-02 1.097006e-02 -5.651264e-02 -6.592902e-02 -2.802695e-02 -3.014728e-02 -9.575488e-02 -5.329378e-03 1.906456e-01 -9.007341e-03 3.518881e-02 6.643882e-03 3.045946e-02 9.303315e-03 4.001237e-02 3.143103e-02 -1.474735e-02 -2.639861e-02 1.349155e-02 2.400791e-02 -7.781954e-03 -7.210571e-02
<VARIANCE> 39
 3.468394e+01 4.527462e+01 7.315063e+01 5.404187e+01 6.183931e+01 4.824052e+01 5.727856e+01 5.562453e+01 7.001779e+01 5.273936e+01 4.298758e+01 3.009949e+01 1.116356e+02 1.138611e+00 1.295285e+00 1.514352e+00 1.413984e+00 1.218349e+00 1.277459e+00 1.689823e+00 1.561888e+00 1.833102e+00 1.164033e+00 1.249429e+00 8.697097e-01 3.344150e+00 1.083891e-01 1.116304e-01 1.329009e-01 1.238095e-01 1.328228e-01 1.453918e-01 1.883181e-01 1.766352e-01 1.907532e-01 1.378676e-01 1.445045e-01 1.045369e-01 2.998710e-01
<GCONST> 1.031842e+02
<TRANSP> 5
 0.000000e+00 1.000000e+00 0.000000e+00 0.000000e+00 0.000000e+00
 0.000000e+00 5.247827e-01 4.752173e-01 0.000000e+00 0.000000e+00
 0.000000e+00 0.000000e+00 5.188472e-01 4.811528e-01 0.000000e+00
 0.000000e+00 0.000000e+00 0.000000e+00 6.697709e-01 3.302290e-01
 0.000000e+00 0.000000e+00 0.000000e+00 0.000000e+00 0.000000e+00
<ENDHMM>
~h "u"
<BEGINHMM>
<NUMSTATES> 5
<STATE> 2
<MEAN> 39
 3.488176e+00 1.762530e+00 -1.714572e+00 -2.858854e-01 1.496129e+00 -1.251016e+00 -3.183102e+00 -2.009121e+00 -7.647805e-01 8.177911e-01 1.452616e+00 4.342291e-01 -3.895143e-01 -1.125784e-01 1.399369e-01 -1.460265e-02 6.761653e-02 1.617194e-01 1.801581e-01 8.478428e-02 -6.813769e-02 -5.433779e-02 3.425008e-02 1.012982e-01 4.699626e-02 -5.318058e-01 -2.681965e-02 -2.411071e-02 2.683894e-02 4.652724e-03 -2.819712e-02 -1.048526e-02 5.018821e-02 4.433905e-02 1.741897e-02 -2.991388e-02 -2.789084e-02 -1.286167e-02 2.762376e-03
<VARIANCE> 39
 5.001210e+01 2.884750e+01 4.596359e+01 4.350879e+01 4.192210e+01 4.636839e+01 5.989968e+01 4.191066e+01 4.274830e+01 4.006206e+01 3.925429e+01 2.436896e+01 1.243039e+02 8.607247e-01 6.501169e-01 8.200629e-01 9.706169e-01 8.672604e-01 1.058758e+00 1.340767e+00 9.510916e-01 1.044228e+00 8.926420e-01 7.168105e-01 5.727546e-01 1.263927e+00 8.398426e-02 6.872839e-02 7.697613e-02 1.036434e-01 9.710494e-02 1.255132e-01 1.665122e-01 1.082612e-01 1.149119e-01 1.102385e-01 9.191936e-02 7.971889e-02 1.213463e-01
<GCONST> 8.990462e+01
<STATE> 3
<MEAN> 39
 2.834927e+00 1.909261e+00 -1.469637e+00 1.875814e-02 1.789666e+00 -7.822804e-01 -2.687900e+00 -1.987404e+00 -8.623195e-01 6.673584e-01 1.425763e+00 5.147035e-01 -1.987211e+00 -1.813686e-01 7.769880e-02 3.826989e-02 8.052701e-02 1.124237e-01 1.433150e-01 1.538694e-01 3.483341e-02 -2.422180e-02 -4.317969e-02 4.430839e-02 1.632137e-02 -5.280126e-01 -1.706786e-02 -2.703065e-02 1.352271e-02 -9.849925e-03 -3.100476e-02 -2.063165e-02 1.485192e-02 3.487714e-02 2.487949e-02 -1.526969e-02 -1.100354e-02 -1.551048e-02 3.477591e-02
<VARIANCE> 39
 5.261021e+01 2.818498e+01 4.401936e+01 4.112414e+01 4.167178e+01 4.380230e+01 5.293108e+01 4.192885e+01 4.094990e+01 3.798868e+01 3.841779e+01 2.323551e+01 1.496734e+02 7.802544e-01 6.121253e-01 7.483518e-01 8.661013e-01 7.567071e-01 9.214156e-01 1.117468e+00 8.745884e-01 9.049828e-01 7.895460e-01 6.465204e-01 5.298001e-01 1.335264e+00 8.157399e-02 6.420523e-02 7.457133e-02 9.433780e-02 8.938516e-02 1.130235e-01 1.379924e-01 9.846932e-02 1.065452e-01 1.036686e-01 8.191796e-02 7.264154e-02 1.322471e-01
<GCONST> 8.741696e+01
<STATE> 4
<MEAN> 39
 6.404650e-01 1.756810e+00 -1.270400e+00 2.760749e-01 2.110107e+00 1.806125e-01 -1.535794e+00 -1.916875e+00 -1.187944e+00 -1.899751e-01 1.308166e+00 9.888166e-01 -5.093343e+00 -1.958762e-01 -2.135710e-02 4.896089e-02 7.053428e-02 7.602485e-02 7.278012e-02 1.003687e-01 7.862723e-02 3.206694e-02 -3.691616e-02 4.688982e-02 1.497062e-02 -3.383471e-01 8.166309e-03 -1.734687e-02 1.013911e-02 -1.897326e-02 -1.821456e-02 -1.678135e-02 -1.154347e-02 1.464517e-02 1.371988e-02 6.832739e-03 1.276099e-03 -1.309382e-02 6.388383e-02
<VARIANCE> 39
 4.472128e+01 2.149631e+01 3.556157e+01 2.971604e+01 3.362087e+01 3.731363e+01 3.941465e+01 3.645778e+01 3.687704e+01 3.247929e+01 3.502830e+01 2.031726e+01 1.893972e+02 6.380835e-01 4.578116e-01 5.711144e-01 6.523157e-01 6.065550e-01 7.040457e-01 8.228502e-01 6.610049e-01 7.193558e-01 6.457030e-01 5.454022e-01 4.288038e-01 1.294613e+00 6.487980e-02 4.954856e-02 6.017882e-02 7.089908e-02 7.266188e-02 8.532305e-02 9.785390e-02 8.019937e-02 8.649585e-02 8.332707e-02 6.608904e-02 5.537139e-02 1.137868e-01
<GCONST> 7.932929e+01
<TRANSP> 5
 0.000000e+00 1.000000e+00 0.000000e+00 0.000000e+00 0.000000e+00
 0.000000e+00 5.708832e-01 4.291169e-01 0.000000e+00 0.000000e+00
 0.000000e+00 0.000000e+00 5.738537e-01 4.261463e-01 0.000000e+00
 0.000000e+00 0.000000e+00 0.000000e+00 8.449333e-01 1.550667e-01
 0.000000e+00 0.000000e+00 0.000000e+00 0.000000e+00 0.000000e+00
<ENDHMM>
~h "w"
<BEGINHMM>
<NUMSTATES> 5
<STATE> 2
<MEAN> 39
 4.942294e+00 -3.068364e+00 -7.503468e+00 -1.913949e+00 5.370669e+00 2.764579e+00 -1.689282e+00 9.285174e-01 2.032615e+00 -5.467091e-01 -1.975988e+00 -1.585014e+00 5.310328e+00 1.069641e-01 -1.076496e-01 -2.826029e-01 -2.249462e-01 1.646318e-01 2.467419e-01 -7.671243e-02 1.213285e-03 5.615400e-02 7.461307e-02 -4.514696e-02 -2.287946e-01 2.476195e-01 -2.986947e-02 9.315575e-03 9.426457e-02 2.499734e-02 -8.827109e-02 -4.822512e-02 4.063582e-02 7.952521e-03 -3.462619e-02 5.604671e-04 8.189404e-03 4.071509e-02 -6.864402e-03
<VARIANCE> 39
 7.336333e+01 5.967462e+01 7.137244e+01 7.094444e+01 5.109742e+01 5.684762e+01 5.160854e+01 4.557529e+01 5.335532e+01 5.435499e+01 5.694179e+01 3.703035e+01 9.643510e+01 1.233072e+00 1.508752e+00 1.484089e+00 1.460406e+00 1.222373e+00 1.306726e+00 1.551721e+00 1.035118e+00 1.218690e+00 1.327623e+00 1.510602e+00 9.440395e-01 1.802004e+00 1.074753e-01 1.396267e-01 1.208801e-01 1.421946e-01 1.370537e-01 1.333328e-01 1.667221e-01 1.225574e-01 1.358807e-01 1.547112e-01 1.612468e-01 1.032495e-01 1.450563e-01
<GCONST> 1.022412e+02
<STATE> 3
<MEAN> 39
 5.114890e+00 -3.045460e+00 -7.671329e+00 -2.702205e+00 5.301511e+00 2.975917e+00 -1.720261e+00 7.165008e-01 1.863005e+00 -1.720116e-01 -1.895967e+00 -2.148252e+00 5.893863e+00 3.465456e-02 -3.852247e-02 7.139738e-02 -9.626072e-02 -1.163725e-01 4.805806e-02 5.095785e-02 2.370573e-05 -7.321765e-02 3.224437e-02 -5.408315e-03 -5.129682e-02 8.531605e-02 -2.830325e-02 2.536408e-02 1.181410e-01 4.736708e-02 -9.671354e-02 -7.109974e-02 2.938501e-02 -1.864247e-03 -3.061905e-02 -1.547692e-02 1.047699e-02 6.887035e-02 -3.096344e-02
<VARIANCE> 39
 7.110943e+01 5.745981e+01 7.465176e+01 6.885969e+01 5.093553e+01 5.706361e+01 5.325237e+01 4.301510e+01 4.826421e+01 5.513218e+01 5.351165e+01 3.586459e+01 9.161707e+01 1.249477e+00 1.301802e+00 1.355379e+00 1.397737e+00 1.343755e+00 1.245746e+00 1.542645e+00 1.053336e+00 1.143273e+00 1.316110e+00 1.480819e+00 9.710597e-01 1.424753e+00 1.115659e-01 1.244728e-01 1.174535e-01 1.446420e-01 1.413685e-01 1.350800e-01 1.682322e-01 1.217663e-01 1.302276e-01 1.483738e-01 1.535394e-01 1.032692e-01 1.356681e-01
<GCONST> 1.011777e+02
<STATE> 4
<MEAN> 39
 5.250602e+00 -3.011205e+00 -7.676666e+00 -3.304551e+00 4.513147e+00 2.500069e+00 -1.186275e+00 3.475834e-01 1.624611e+00 -5.849465e-01 -2.329603e+00 -1.921671e+00 6.093600e+00 -7.182439e-02 7.094646e-02 3.347919e-01 3.626229e-02 -3.360223e-01 -1.800389e-01 1.024362e-01 -7.474296e-03 -1.338642e-01 -4.899632e-02 3.843224e-02 1.254734e-01 -8.023794e-02 -2.460501e-02 4.495228e-02 8.292732e-02 4.305492e-02 -6.717668e-02 -5.148319e-02 5.189053e-03 -1.351916e-02 -2.089151e-02 3.313007e-03 2.850852e-02 3.676536e-02 -2.446884e-02
<VARIANCE> 39
 6.083591e+01 5.669996e+01 7.535160e+01 7.053928e+01 5.200747e+01 5.653996e+01 5.502319e+01 4.128480e+01 4.735802e+01 5.405340e+01 5.395012e+01 3.489294e+01 9.322013e+01 1.204226e+00 1.012218e+00 1.115027e+00 1.372085e+00 1.425519e+00 1.181944e+00 1.372171e+00 1.062473e+00 1.098803e+00 1.196514e+00 1.222925e+00 8.563476e-01 1.252744e+00 1.139436e-01 1.073545e-01 1.080193e-01 1.476497e-01 1.381651e-01 1.369747e-01 1.665533e-01 1.298710e-01 1.263883e-01 1.354677e-01 1.413025e-01 9.797401e-02 1.291241e-01
<GCONST> 9.936885e+01
<TRANSP> 5
 0.000000e+00 1.000000e+00 0.000000e+00 0.000000e+00 0.000000e+00
 0.000000e+00 6.193359e-01 3.806641e-01 0.000000e+00 0.000000e+00
 0.000000e+00 0.000000e+00 5.938460e-01 4.061539e-01 0.000000e+00
 0.000000e+00 0.000000e+00 0.000000e+00 6.918300e-01 3.081700e-01
 0.000000e+00 0.000000e+00 0.000000e+00 0.000000e+00 0.000000e+00
<ENDHMM>
~h "y"
<BEGINHMM>
<NUMSTATES> 5
<STATE> 2
<MEAN> 39
 -1.823581e-03 1.965241e+00 7.575437e+00 -4.920565e+00 -4.179740e+00 -5.812067e-01 -1.873574e+00 -2.939969e+00 -2.486423e+00 -5.236760e-01 -1.583572e+00 -6.706107e-01 7.557889e+00 1.071190e-01 -2.472471e-02 3.657325e-01 -2.774689e-01 -2.955195e-01 -8.978419e-02 -2.158089e-01 4.760275e-02 2.485178e-02 5.286890e-03 -1.112444e-01 5.484554e-02 2.934974e-01 2.864844e-02 -4.509648e-02 -7.979205e-02 5.904362e-02 1.666864e-02 -7.056478e-03 3.977548e-02 5.001354e-02 3.095264e-02 2.098200e-02 3.039444e-02 5.933435e-03 -4.197893e-02
<VARIANCE> 39
 3.485468e+01 6.023706e+01 9.326523e+01 8.172281e+01 5.700378e+01 4.844890e+01 5.756705e+01 7.755804e+01 6.209990e+01 4.315872e+01 5.694310e+01 3.635294e+01 4.820241e+01 7.655928e-01 1.488136e+00 2.294741e+00 1.630700e+00 1.746465e+00 1.683997e+00 1.599959e+00 2.169430e+00 1.648722e+00 1.256427e+00 1.202296e+00 1.031312e+00 1.144236e+00 6.867314e-02 1.499919e-01 1.860369e-01 1.205802e-01 1.760779e-01 1.849779e-01 1.944151e-01 2.187034e-01 1.661652e-01 1.428001e-01 1.442744e-01 1.268648e-01 9.327295e-02
<GCONST> 1.037798e+02
<STATE> 3
<MEAN> 39
 7.142907e-01 1.326679e+00 7.770913e+00 -5.306653e+00 -5.247212e+00 -9.975875e-01 -2.112864e+00 -1.780423e+00 -1.879672e+00 -2.676033e-01 -1.491505e+00 -5.267020e-01 8.468509e+00 2.087238e-01 -2.707997e-01 -2.003793e-01 3.976877e-02 -1.303919e-01 -1.021303e-01 6.684834e-02 2.738599e-01 6.503040e-02 1.306881e-02 1.013035e-02 -5.556129e-03 1.493804e-01 2.132032e-02 -3.531899e-02 -1.145689e-01 7.553084e-02 6.604596e-02 -6.409683e-03 4.570634e-02 1.804449e-02 4.137893e-03 3.643340e-03 1.558913e-02 1.241240e-03 -5.280255e-02
<VARIANCE> 39
 3.130236e+01 6.301063e+01 9.732978e+01 8.235752e+01 5.715115e+01 5.494537e+01 6.205441e+01 8.752988e+01 6.708430e+01 4.133041e+01 5.558903e+01 3.460238e+01 4.602622e+01 5.940171e-01 1.561381e+00 2.538091e+00 1.489339e+00 1.781859e+00 1.763003e+00 1.935933e+00 2.221530e+00 1.802599e+00 1.266670e+00 1.242406e+00 9.662455e-01 9.679225e-01 5.178286e-02 1.499694e-01 1.844680e-01 1.278732e-01 1.923352e-01 2.047135e-01 2.107718e-01 2.436329e-01 1.813156e-01 1.421203e-01 1.456220e-01 1.162745e-01 8.232529e-02
<GCONST> 1.040148e+02
<STATE> 4
<MEAN> 39
 2.808386e+00 -2.285265e-01 5.372869e+00 -4.224542e+00 -5.232210e+00 -1.368050e+00 -1.492463e+00 2.656097e-01 -1.862147e+00 -3.985372e-01 -1.264072e+00 -6.139898e-01 8.992170e+00 2.222690e-01 -2.043892e-01 -5.234809e-01 2.045678e-01 2.100331e-01 -2.577441e-02 1.319833e-01 1.782579e-01 7.713059e-02 1.204929e-02 -4.045131e-02 2.362310e-02 -8.050229e-02 -3.000418e-03 2.747183e-02 -1.801229e-02 3.934805e-02 4.868426e-02 1.574660e-02 -6.370368e-03 -3.798680e-02 7.502316e-03 3.611781e-03 1.874890e-03 7.691506e-03 -5.150229e-02
<VARIANCE> 39
 3.084119e+01 5.595586e+01 1.035205e+02 6.489858e+01 5.977779e+01 5.626878e+01 6.374770e+01 8.533092e+01 6.990568e+01 4.130659e+01 5.220506e+01 3.252185e+01 4.685502e+01 4.730392e-01 1.323306e+00 2.034811e+00 1.362254e+00 1.479874e+00 1.691576e+00 1.682898e+00 1.971073e+00 1.671759e+00 1.099704e+00 1.189963e+00 7.934259e-01 8.556935e-01 4.150480e-02 1.153462e-01 1.554318e-01 1.041215e-01 1.461649e-01 1.828692e-01 1.855912e-01 2.269695e-01 1.722896e-01 1.155680e-01 1.261238e-01 9.252995e-02 6.835297e-02
<GCONST> 9.967628e+01
<TRANSP> 5
 0.000000e+00 1.000000e+00 0.000000e+00 0.000000e+00 0.000000e+00
 0.000000e+00 7.659931e-01 2.340068e-01 0.000000e+00 0.000000e+00
 0.000000e+00 0.000000e+00 7.506387e-01 2.493613e-01 0.000000e+00
 0.000000e+00 0.000000e+00 0.000000e+00 8.809682e-01 1.190318e-01
 0.000000e+00 0.000000e+00 0.000000e+00 0.000000e+00 0.000000e+00
<ENDHMM>
~h "aa"
<BEGINHMM>
<NUMSTATES> 5
<STATE> 2
<MEAN> 39
 3.398714e+00 -6.503969e+00 -6.205074e+00 -1.552633e+00 3.436181e+00 2.845871e+00 -3.918615e-01 1.947471e+00 2.446888e+00 -1.643234e+00 -4.809389e+00 -1.410358e+00 8.666754e+00 8.408786e-02 -4.061005e-01 -2.288920e-01 -1.358344e-01 1.497165e-01 2.029448e-01 3.242020e-02 5.530925e-02 4.090351e-02 -1.084327e-01 -2.586253e-01 -6.669890e-02 4.210471e-01 -1.731770e-02 8.289560e-02 6.817193e-02 2.896844e-02 -5.447613e-02 -6.515103e-02 2.816684e-03 -3.963317e-02 -4.159766e-02 2.375053e-02 7.759533e-02 9.784761e-03 -6.012266e-02
<VARIANCE> 39
 3.589735e+01 5.196184e+01 5.515386e+01 6.047995e+01 5.572307e+01 5.363070e+01 5.004610e+01 4.806505e+01 7.185487e+01 6.346264e+01 5.007038e+01 3.368824e+01 1.051779e+02 7.569284e-01 1.181623e+00 1.281602e+00 1.245051e+00 1.626015e+00 1.550617e+00 1.379162e+00 1.211353e+00 1.304644e+00 1.226345e+00 1.194484e+00 8.019827e-01 1.804780e+00 7.517747e-02 9.367739e-02 9.960359e-02 1.307935e-01 1.580784e-01 1.461566e-01 1.299098e-01 1.324941e-01 1.281307e-01 1.306581e-01 1.261747e-01 8.618020e-02 1.315825e-01
<GCONST> 9.866553e+01
<STATE> 3
<MEAN> 39
 3.308385e+00 -7.178453e+00 -6.548490e+00 -1.790154e+00 3.752171e+00 2.893198e+00 -9.117384e-02 2.026457e+00 2.181392e+00 -1.916093e+00 -4.963731e+00 -1.500387e+00 9.288995e+00 4.913540e-02 -1.063283e-01 1.205894e-02 -2.744797e-02 -2.037377e-02 -3.277024e-02 4.378864e-02 -1.053045e-02 -9.387815e-02 -6.341667e-02 -1.091348e-02 -8.500273e-03 1.573544e-01 9.225404e-04 9.620573e-02 6.817910e-02 2.742769e-02 -5.902151e-02 -6.517624e-02 -6.008049e-03 -2.592401e-02 -2.717544e-02 2.114871e-02 7.184934e-02 1.332742e-02 -8.011414e-02
<VARIANCE> 39
 3.478147e+01 5.122353e+01 5.368565e+01 5.665136e+01 5.556555e+01 5.206512e+01 5.139275e+01 4.549909e+01 6.771909e+01 6.176559e+01 4.831150e+01 3.450307e+01 9.545170e+01 6.955974e-01 1.082550e+00 1.231308e+00 1.211598e+00 1.569862e+00 1.419240e+00 1.356978e+00 1.140346e+00 1.129212e+00 1.252723e+00 1.111074e+00 7.653672e-01 1.884696e+00 7.279101e-02 8.677129e-02 9.052391e-02 1.200397e-01 1.515597e-01 1.427035e-01 1.354061e-01 1.255005e-01 1.166897e-01 1.266616e-01 1.140939e-01 8.581298e-02 1.148673e-01
<GCONST> 9.689828e+01
<STATE> 4
<MEAN> 39
 3.835028e+00 -6.967070e+00 -6.435036e+00 -2.099673e+00 3.439804e+00 2.691428e+00 -1.694975e-01 2.144972e+00 2.618210e+00 -1.803795e+00 -4.994551e+00 -1.619201e+00 9.564153e+00 7.421676e-03 2.016581e-01 2.065626e-01 5.488167e-02 -1.623368e-01 -2.050522e-01 4.433594e-02 -5.428119e-02 -1.938109e-01 -1.521647e-02 1.518288e-01 2.980757e-02 -1.805044e-01 -1.000951e-02 7.174672e-02 4.470229e-02 1.820153e-03 -3.120260e-02 -2.816299e-02 -1.554598e-02 -1.763834e-02 -8.518795e-03 2.434457e-02 3.833679e-02 4.587485e-03 -5.833950e-02
<VARIANCE> 39
 3.324516e+01 5.175593e+01 5.560106e+01 5.381541e+01 5.485942e+01 5.777726e+01 5.713142e+01 4.915851e+01 7.643420e+01 6.433933e+01 4.869195e+01 3.321703e+01 9.205466e+01 7.188714e-01 1.037454e+00 1.116903e+00 1.150537e+00 1.410833e+00 1.392765e+00 1.324657e+00 1.143457e+00 1.108197e+00 1.246644e+00 1.041327e+00 7.293850e-01 1.651551e+00 7.867198e-02 8.861573e-02 9.059593e-02 1.212951e-01 1.512228e-01 1.567645e-01 1.424941e-01 1.312390e-01 1.192971e-01 1.270610e-01 1.116656e-01 8.640868e-02 1.213817e-01
<GCONST> 9.700583e+01
<TRANSP> 5
 0.000000e+00 1.000000e+00 0.000000e+00 0.000000e+00 0.000000e+00
 0.000000e+00 6.491508e-01 3.508492e-01 0.000000e+00 0.000000e+00
 0.000000e+00 0.000000e+00 6.359624e-01 3.640375e-01 0.000000e+00
 0.000000e+00 0.000000e+00 0.000000e+00 7.777587e-01 2.222413e-01
 0.000000e+00 0.000000e+00 0.000000e+00 0.000000e+00 0.000000e+00
<ENDHMM>
~h "ai"
<BEGINHMM>
<NUMSTATES> 5
<STATE> 2
<MEAN> 39
 -2.561669e+00 8.178952e-01 1.735544e-01 4.846751e+00 1.285174e+00 7.132168e-01 -9.000379e-01 9.925320e-02 -1.554666e+00 9.792793e-01 1.796249e+00 -1.005929e+00 -8.770204e+00 1.044410e-01 7.353461e-02 5.895111e-02 -4.179228e-02 6.879529e-02 9.813169e-02 6.830332e-02 2.205573e-02 9.519392e-02 1.010780e-02 -1.452654e-01 5.011704e-02 -7.449505e-02 -1.804694e-02 -3.066310e-02 -1.880266e-02 -2.799675e-02 -5.811928e-02 -3.139314e-02 -4.167458e-02 -3.404221e-02 -1.265499e-02 -3.090280e-02 -2.207222e-02 -6.737025e-03 9.812566e-02
<VARIANCE> 39
 3.266596e+01 1.925842e+01 3.061090e+01 4.869450e+01 4.651377e+01 5.099039e+01 6.070730e+01 3.484997e+01 5.033509e+01 4.166866e+01 3.211728e+01 2.229414e+01 2.823634e+02 7.921230e-01 6.111240e-01 7.573452e-01 5.938642e-01 8.995611e-01 9.952622e-01 9.722832e-01 8.106817e-01 1.305948e+00 1.066371e+00 7.401587e-01 5.194250e-01 4.071870e+00 9.151754e-02 6.170850e-02 5.329574e-02 6.565700e-02 9.107491e-02 1.258482e-01 1.105594e-01 1.001526e-01 1.432524e-01 1.127705e-01 9.532165e-02 7.028311e-02 5.590181e-01
<GCONST> 9.011191e+01
<STATE> 3
<MEAN> 39
 1.349364e-04 -3.303420e-01 1.365485e+00 2.226826e+00 -5.123644e-01 7.230436e-01 2.434239e+00 6.600596e-01 -2.297594e-01 8.220928e-02 -2.085458e-01 2.915012e-01 -6.266041e-02 1.285020e-01 1.730116e-02 6.048112e-02 -2.943549e-01 -3.304608e-01 -1.876437e-01 -1.929439e-01 -1.598614e-01 -5.733334e-02 -2.167763e-01 -3.808007e-01 4.144188e-02 5.844038e-01 -5.397683e-03 -3.646046e-03 5.067964e-02 -1.083461e-01 -6.541675e-02 -3.302789e-02 -9.197710e-02 -1.033475e-02 2.218771e-02 1.808055e-02 1.434041e-02 -1.960769e-02 8.171791e-02
<VARIANCE> 39
 2.523270e+01 2.796451e+01 3.292796e+01 6.076174e+01 6.196651e+01 4.847303e+01 4.779537e+01 3.898465e+01 3.897550e+01 3.445248e+01 3.197012e+01 2.445153e+01 1.983492e+02 8.576493e-01 8.733085e-01 1.044515e+00 9.119189e-01 1.374503e+00 8.593671e-01 1.262682e+00 1.359147e+00 1.193293e+00 9.713275e-01 6.901815e-01 5.983062e-01 4.955407e+00 7.417808e-02 6.735912e-02 7.625884e-02 9.613913e-02 8.799922e-02 9.353721e-02 1.526609e-01 1.623718e-01 1.063457e-01 1.101922e-01 9.057340e-02 7.612050e-02 3.137957e-01
<GCONST> 9.246748e+01
<STATE> 4
<MEAN> 39
 1.258991e+00 -1.755440e+00 1.371040e+00 -4.542491e-01 -2.513779e+00 -8.920084e-01 1.489739e+00 2.216784e-01 -7.551170e-01 -1.070347e+00 -1.944922e+00 1.038123e+00 4.909864e+00 6.067297e-02 2.571323e-02 1.774521e-01 -1.945348e-01 -1.113510e-01 -8.407915e-02 -1.409809e-01 -9.935983e-02 4.001520e-02 -9.940641e-04 -1.306396e-01 -3.620227e-02 1.650717e-01 1.494365e-02 -1.626828e-02 3.942713e-03 -3.770936e-03 9.007826e-03 5.819742e-03 -6.754394e-03 6.713065e-03 2.323548e-02 2.174348e-02 1.248341e-02 -8.163710e-03 1.177750e-02
<VARIANCE> 39
 1.969825e+01 3.646923e+01 3.000088e+01 4.969679e+01 6.314668e+01 3.009868e+01 3.779656e+01 5.281121e+01 3.918507e+01 3.761812e+01 2.487394e+01 2.832176e+01 8.558730e+01 5.758887e-01 7.436618e-01 7.642872e-01 1.054309e+00 1.026796e+00 6.852493e-01 1.090360e+00 1.623513e+00 1.152664e+00 8.456630e-01 7.248712e-01 7.265639e-01 1.884240e+00 4.164937e-02 6.897124e-02 6.235459e-02 9.178352e-02 8.848536e-02 6.866490e-02 1.252906e-01 1.848828e-01 1.049910e-01 9.237230e-02 8.824071e-02 8.807461e-02 1.248730e-01
<GCONST> 8.667754e+01
<TRANSP> 5
 0.000000e+00 1.000000e+00 0.000000e+00 0.000000e+00 0.000000e+00
 0.000000e+00 7.634475e-01 2.365525e-01 0.000000e+00 0.000000e+00
 0.000000e+00 0.000000e+00 5.729610e-01 4.270390e-01 0.000000e+00
 0.000000e+00 0.000000e+00 0.000000e+00 8.553306e-01 1.446693e-01
 0.000000e+00 0.000000e+00 0.000000e+00 0.000000e+00 0.000000e+00
<ENDHMM>
~h "bb"
<BEGINHMM>
<NUMSTATES> 5
<STATE> 2
<MEAN> 39
 4.089792e+00 -9.623049e-01 -4.404801e+00 -4.218283e+00 -1.072413e-01 1.142918e+00 -8.471017e-01 5.029697e-01 -5.378791e-01 4.283338e-02 -2.949971e+00 -4.147508e-01 6.703627e+00 -2.721665e-02 -5.518281e-02 -1.011988e-01 3.899784e-02 1.380995e-01 8.571774e-02 -1.265183e-02 -9.413661e-02 -5.937961e-02 -1.815134e-01 -2.280312e-01 -2.765073e-02 -1.417293e-01 2.331603e-02 -8.856311e-03 6.450374e-02 8.384502e-02 1.448622e-02 3.312885e-03 -7.663989e-03 -2.157331e-02 3.339633e-02 3.726635e-02 5.129055e-02 -1.074731e-02 -6.030532e-02
<VARIANCE> 39
 3.061269e+01 5.438453e+01 2.796757e+01 4.847408e+01 2.248375e+01 2.943923e+01 2.729161e+01 3.427179e+01 4.035963e+01 3.043700e+01 4.649030e+01 2.550307e+01 6.007797e+01 6.330663e-01 6.627209e-01 6.995812e-01 1.555340e+00 7.990303e-01 9.886129e-01 5.825740e-01 9.200448e-01 8.743598e-01 6.515853e-01 1.004733e+00 5.888093e-01 1.128711e+00 6.316844e-02 9.724148e-02 7.537988e-02 2.025460e-01 8.382424e-02 1.384834e-01 8.739702e-02 1.276793e-01 1.323683e-01 8.996443e-02 1.193400e-01 6.718705e-02 1.221852e-01
<GCONST> 8.573505e+01
<STATE> 3
<MEAN> 39
 4.454630e+00 -1.574102e+00 -4.419305e+00 -3.035003e+00 1.123895e+00 1.706302e+00 -8.084480e-01 4.402360e-02 -3.051157e-01 -1.403070e-01 -3.227082e+00 -1.227562e+00 5.680242e+00 2.953304e-02 -9.310615e-02 4.548251e-02 2.217243e-01 1.646848e-01 6.934870e-02 -1.450265e-02 -3.097638e-02 6.614430e-02 -5.093788e-02 -5.788494e-02 -1.141843e-01 -1.998080e-01 1.827445e-02 -2.658816e-02 2.740254e-02 5.328470e-02 1.268839e-03 -1.163394e-02 -1.873760e-02 8.352271e-03 3.760879e-02 2.460610e-02 2.644417e-02 -2.325265e-02 -5.773314e-03
<VARIANCE> 39
 2.349704e+01 5.409225e+01 2.720275e+01 4.392216e+01 2.235770e+01 2.897952e+01 2.855405e+01 3.051051e+01 3.925869e+01 2.817480e+01 4.992561e+01 2.404983e+01 5.034618e+01 6.393889e-01 6.778333e-01 7.321256e-01 1.578476e+00 7.220574e-01 1.108441e+00 6.723875e-01 8.973359e-01 8.462608e-01 6.926702e-01 1.210435e+00 6.761752e-01 1.075100e+00 6.170931e-02 8.642101e-02 7.898469e-02 1.942167e-01 8.203921e-02 1.219770e-01 8.272150e-02 1.132594e-01 1.162219e-01 9.079210e-02 1.442782e-01 7.489537e-02 9.582155e-02
<GCONST> 8.498056e+01
<STATE> 4
<MEAN> 39
 4.093376e+00 -1.395144e+00 -4.515873e+00 -3.603893e+00 1.611206e+00 1.552204e+00 -1.399511e+00 -2.626073e-01 -2.193410e-01 2.884407e-01 -1.979800e+00 -2.148900e+00 4.245503e+00 -6.904431e-02 -6.838120e-02 3.414611e-02 1.541812e-01 2.938955e-02 -6.170530e-03 -9.155840e-02 7.171300e-02 1.387981e-01 -6.529415e-02 2.135038e-02 2.042498e-02 -4.878373e-03 -7.851203e-04 -5.034305e-03 1.266684e-03 7.216804e-03 -1.273730e-02 -3.302962e-03 -2.454100e-03 1.065393e-02 5.714261e-03 5.417736e-04 1.167134e-02 2.693570e-03 2.848653e-03
<VARIANCE> 39
 1.778990e+01 4.361430e+01 2.289744e+01 4.500413e+01 2.265524e+01 3.386116e+01 2.847815e+01 2.479314e+01 4.180560e+01 2.993554e+01 5.819444e+01 3.367416e+01 4.328539e+01 5.115012e-01 7.308226e-01 7.220047e-01 1.427261e+00 6.505167e-01 9.727509e-01 8.170981e-01 6.985778e-01 9.221139e-01 8.075493e-01 1.478861e+00 1.016878e+00 1.176039e+00 4.837706e-02 6.379869e-02 7.302238e-02 1.579903e-01 7.861879e-02 8.982016e-02 9.109459e-02 8.357377e-02 1.053402e-01 9.516660e-02 1.483448e-01 1.047236e-01 1.006792e-01
<GCONST> 8.411776e+01
<TRANSP> 5
 0.000000e+00 1.000000e+00 0.000000e+00 0.000000e+00 0.000000e+00
 0.000000e+00 7.643502e-01 2.356498e-01 0.000000e+00 0.000000e+00
 0.000000e+00 0.000000e+00 7.732103e-01 2.267898e-01 0.000000e+00
 0.000000e+00 0.000000e+00 0.000000e+00 9.361924e-01 6.380761e-02
 0.000000e+00 0.000000e+00 0.000000e+00 0.000000e+00 0.000000e+00
<ENDHMM>
~h "bh"
<BEGINHMM>
<NUMSTATES> 5
<STATE> 2
<MEAN> 39
 3.848018e-01 -3.989389e+00 1.164907e+00 1.192892e-01 -6.478902e-01 -9.144775e-01 2.392092e+00 -4.309272e-02 3.152431e+00 1.645018e+00 -3.061902e+00 -8.189030e-01 -2.043156e+00 4.750072e-01 -4.521772e-01 -2.704389e-02 -3.651689e-01 -3.028319e-01 -2.845582e-01 3.160982e-01 2.363854e-01 1.798640e-01 2.395153e-01 -5.270101e-01 -1.178362e-01 1.408966e+00 5.607050e-02 2.368585e-02 -5.818037e-03 -3.985350e-02 -6.458525e-02 1.744572e-02 -2.831882e-02 -2.913541e-03 -3.960756e-02 -1.507296e-02 -1.836153e-02 -2.414654e-02 1.196981e-01
<VARIANCE> 39
 7.606785e+01 7.755774e+01 9.620110e+01 9.695297e+01 1.224362e+02 7.085446e+01 5.163054e+01 1.011411e+02 6.304502e+01 5.867094e+01 7.112083e+01 2.349174e+01 3.892375e+02 2.248899e+00 1.827417e+00 2.810227e+00 3.403568e+00 3.098085e+00 2.704175e+00 1.613627e+00 3.035465e+00 1.816941e+00 2.007310e+00 1.722149e+00 6.839201e-01 1.311333e+01 2.046457e-01 2.511517e-01 2.388726e-01 3.530759e-01 2.858237e-01 3.468449e-01 1.816098e-01 2.624331e-01 1.706140e-01 2.250379e-01 1.953936e-01 9.002358e-02 1.552359e+00
<GCONST> 1.224910e+02
<STATE> 3
<MEAN> 39
 4.911446e+00 -4.637599e+00 1.645526e+00 -2.018366e+00 -3.993035e+00 -3.046193e+00 2.999232e+00 7.019909e-02 1.914675e+00 2.380416e+00 -6.410594e+00 -2.414290e+00 8.419498e+00 1.393529e-01 2.283882e-01 5.112963e-01 -2.387512e-01 -4.614663e-01 -2.188611e-01 -4.867088e-03 -2.751260e-01 -3.906598e-01 1.659732e-01 -8.021447e-02 -4.557333e-02 3.571657e-01 -1.020392e-01 6.230555e-02 2.160412e-02 -1.726413e-03 1.360787e-01 1.171931e-01 -7.533562e-02 -9.867182e-02 2.641378e-02 -9.840450e-02 8.026933e-02 3.411084e-02 -1.206720e-01
<VARIANCE> 39
 3.627309e+01 4.903859e+01 1.148801e+02 9.285401e+01 1.112271e+02 6.214378e+01 4.547066e+01 8.689352e+01 6.199135e+01 1.045077e+02 6.333130e+01 2.505710e+01 9.854516e+01 1.580880e+00 1.740596e+00 2.323711e+00 3.414910e+00 3.365632e+00 1.968936e+00 1.055571e+00 3.618960e+00 1.879609e+00 2.007421e+00 1.558028e+00 6.548206e-01 5.365494e+00 1.189993e-01 1.249686e-01 1.757976e-01 3.125008e-01 3.839168e-01 2.928849e-01 1.262759e-01 3.020694e-01 1.894419e-01 2.683932e-01 1.613208e-01 9.833921e-02 5.719641e-01
<GCONST> 1.153948e+02
<STATE> 4
<MEAN> 39
 4.864202e+00 -2.133287e+00 4.508467e+00 -3.282614e+00 -6.833571e+00 -3.685944e+00 2.009076e+00 -2.521896e+00 -8.450021e-01 4.025408e+00 -4.035537e+00 -2.827722e+00 8.444845e+00 -3.882074e-01 3.311490e-01 3.785561e-01 -1.267673e-01 4.388327e-01 3.687378e-01 -3.630021e-01 -7.013825e-01 -5.069203e-02 -2.099799e-01 2.410964e-01 1.507227e-01 -2.301793e-01 -4.192143e-02 -7.234170e-03 -1.197135e-01 2.318186e-02 1.670265e-01 1.432824e-01 -8.398483e-02 -6.471618e-02 1.035693e-01 -1.590390e-01 -2.018162e-03 -4.996862e-02 -2.224785e-02
<VARIANCE> 39
 2.835028e+01 3.637812e+01 8.004626e+01 5.102395e+01 7.731672e+01 6.352270e+01 4.077734e+01 1.198753e+02 5.584793e+01 9.085468e+01 7.750491e+01 2.593434e+01 6.527655e+01 1.172126e+00 1.601158e+00 2.049695e+00 2.379281e+00 2.395401e+00 1.296993e+00 8.541942e-01 2.958768e+00 1.242871e+00 2.490882e+00 1.270219e+00 7.800888e-01 1.510887e+00 1.014545e-01 8.530799e-02 1.453996e-01 2.297062e-01 2.666795e-01 1.907981e-01 8.276162e-02 3.436664e-01 1.222530e-01 2.212801e-01 1.483179e-01 1.107076e-01 1.589940e-01
<GCONST> 1.058043e+02
<TRANSP> 5
 0.000000e+00 1.000000e+00 0.000000e+00 0.000000e+00 0.000000e+00
 0.000000e+00 8.860050e-01 1.139950e-01 0.000000e+00 0.000000e+00
 0.000000e+00 0.000000e+00 7.877436e-01 2.122564e-01 0.000000e+00
 0.000000e+00 0.000000e+00 0.000000e+00 6.944932e-01 3.055069e-01
 0.000000e+00 0.000000e+00 0.000000e+00 0.000000e+00 0.000000e+00
<ENDHMM>
~h "dd"
<BEGINHMM>
<NUMSTATES> 5
<STATE> 2
<MEAN> 39
 1.819370e+00 4.215669e+00 4.644771e+00 1.773320e+00 -1.422557e+00 -8.457776e-01 2.422652e-01 -2.610940e+00 -2.322146e+00 3.549894e-01 1.488518e+00 5.391607e-01 -1.313101e+00 -1.037142e-01 1.439061e-01 -2.926201e-01 4.618097e-01 5.583657e-01 2.284236e-01 2.022026e-01 6.668438e-02 1.504629e-01 -8.976533e-02 -5.317947e-02 -4.053136e-02 -7.261885e-01 -6.386602e-02 -4.085780e-02 3.191876e-03 -6.253844e-02 -2.114979e-02 3.684517e-03 -1.933112e-02 -1.562857e-02 9.578093e-03 5.282233e-03 2.112594e-02 1.333464e-02 5.203393e-02
<VARIANCE> 39
 1.723111e+01 4.045506e+01 6.794920e+01 5.508440e+01 4.767373e+01 6.965211e+01 3.721312e+01 4.113002e+01 3.602116e+01 3.677884e+01 2.965345e+01 2.108937e+01 5.266476e+01 4.871522e-01 5.406101e-01 6.262229e-01 9.891803e-01 8.761765e-01 7.865252e-01 9.200633e-01 8.652115e-01 6.603259e-01 6.703595e-01 6.504499e-01 4.715678e-01 8.470883e-01 4.473457e-02 4.718219e-02 4.677106e-02 8.392013e-02 7.712600e-02 9.122359e-02 8.880768e-02 8.925377e-02 7.728656e-02 7.020178e-02 6.709126e-02 5.041083e-02 9.697768e-02
<GCONST> 8.017350e+01
<STATE> 3
<MEAN> 39
 9.674426e-01 4.321484e+00 2.911074e+00 3.497725e+00 3.516069e-01 -6.660393e-01 3.240775e-01 -2.241095e+00 -1.599196e+00 3.231496e-01 2.197708e+00 5.701696e-01 -4.294577e+00 -2.794756e-01 -3.702916e-02 -2.549518e-01 2.193913e-01 4.141513e-01 1.234570e-01 1.058212e-01 5.764842e-02 8.382418e-02 -7.055797e-02 5.784031e-02 1.435910e-02 -4.578093e-01 -4.869948e-02 -6.226214e-02 2.631428e-02 -9.617658e-02 -7.513438e-02 -3.676086e-02 -2.558940e-02 2.956354e-03 7.871112e-03 -5.169478e-03 1.171133e-02 9.843431e-03 1.104587e-01
<VARIANCE> 39
 1.978493e+01 3.632313e+01 5.301727e+01 4.541953e+01 4.670102e+01 5.293374e+01 3.751162e+01 4.074869e+01 3.905218e+01 3.639858e+01 2.784048e+01 2.125162e+01 5.027121e+01 5.199513e-01 6.191448e-01 6.543800e-01 9.748955e-01 8.035136e-01 9.021441e-01 9.072123e-01 8.595720e-01 5.896030e-01 5.909167e-01 6.289416e-01 3.900930e-01 1.016388e+00 5.100114e-02 5.568423e-02 4.758862e-02 7.699083e-02 8.037908e-02 8.689021e-02 9.122598e-02 8.303175e-02 7.890681e-02 6.926373e-02 7.369499e-02 4.771167e-02 1.231446e-01
<GCONST> 7.987486e+01
<STATE> 4
<MEAN> 39
 -2.382034e+00 3.567388e+00 1.420277e+00 3.145363e+00 3.077405e+00 1.766822e-01 4.281282e-01 -7.055963e-01 1.033792e-01 7.136178e-01 3.787835e+00 1.337914e+00 -1.248047e+01 -1.648355e-01 -9.042823e-02 -1.032908e-01 -3.491870e-02 1.361727e-01 5.360888e-02 4.472832e-02 5.903152e-02 1.307800e-01 -1.901445e-02 -2.274376e-02 2.886514e-02 -8.656030e-02 2.400670e-02 -4.631679e-02 6.776228e-03 -4.522793e-02 -7.083784e-02 -3.630338e-02 -1.468720e-02 2.005971e-02 3.050108e-02 1.434869e-02 -2.089702e-02 -3.418197e-03 1.443904e-01
<VARIANCE> 39
 3.813104e+01 2.337748e+01 3.625712e+01 2.824364e+01 4.576284e+01 3.575602e+01 2.900327e+01 3.606028e+01 4.280206e+01 3.461007e+01 2.474579e+01 2.098143e+01 3.271700e+02 8.468652e-01 6.216806e-01 5.346544e-01 7.154822e-01 7.333331e-01 8.133470e-01 7.001221e-01 6.968418e-01 6.632215e-01 5.453041e-01 5.990106e-01 3.630222e-01 2.437414e+00 7.689042e-02 6.084394e-02 5.249491e-02 6.879094e-02 8.273664e-02 8.727584e-02 9.240563e-02 7.294006e-02 8.595657e-02 6.807119e-02 6.934317e-02 4.736695e-02 1.834062e-01
<GCONST> 8.113431e+01
<TRANSP> 5
 0.000000e+00 1.000000e+00 0.000000e+00 0.000000e+00 0.000000e+00
 0.000000e+00 6.976593e-01 3.023407e-01 0.000000e+00 0.000000e+00
 0.000000e+00 0.000000e+00 6.538025e-01 3.461976e-01 0.000000e+00
 0.000000e+00 0.000000e+00 0.000000e+00 8.760062e-01 1.239938e-01
 0.000000e+00 0.000000e+00 0.000000e+00 0.000000e+00 0.000000e+00
<ENDHMM>
~h "dh"
<BEGINHMM>
<NUMSTATES> 5
<STATE> 2
<MEAN> 39
 2.688140e+00 -9.826008e-02 4.726440e-01 -1.694882e+00 1.067336e+00 -5.284634e-01 -8.687811e-01 -2.045912e+00 -2.373707e+00 -2.337893e+00 -3.049864e+00 -4.067892e+00 1.980184e+00 -1.858456e-01 1.733060e-01 2.096070e-01 7.697626e-02 -2.661510e-01 -1.439503e-01 -3.832602e-03 -3.024260e-01 -4.656461e-02 -3.932762e-01 -3.131295e-01 2.222532e-01 3.053865e-01 -1.574066e-02 2.936235e-03 -3.700117e-02 -3.220345e-02 -4.381733e-02 -2.571372e-02 1.231380e-02 2.083256e-02 2.102670e-02 1.392957e-02 -1.500422e-02 8.512443e-02 7.803757e-02
<VARIANCE> 39
 3.126068e+01 2.881320e+01 3.676314e+01 4.555593e+01 3.875744e+01 2.433181e+01 3.852601e+01 3.488723e+01 4.622713e+01 4.951638e+01 2.864169e+01 3.577599e+01 1.993518e+02 9.345481e-01 9.722421e-01 7.999684e-01 1.505752e+00 7.370544e-01 6.913781e-01 8.176822e-01 1.232257e+00 1.731898e+00 1.116763e+00 8.277587e-01 1.127330e+00 3.984077e+00 9.232444e-02 8.997277e-02 8.336317e-02 1.249074e-01 9.592170e-02 6.203129e-02 9.571078e-02 1.186609e-01 1.752222e-01 1.181010e-01 8.100881e-02 1.081187e-01 2.221418e-01
<GCONST> 9.223818e+01
<STATE> 3
<MEAN> 39
 1.665872e+00 9.650193e-01 1.696092e+00 -1.635074e+00 -8.812416e-01 -1.030044e+00 -1.255983e+00 -3.312874e+00 -2.227624e+00 -2.544050e+00 -3.946109e+00 -2.200500e+00 3.230462e+00 -2.715163e-01 1.191486e-01 1.997067e-02 -1.639222e-01 -3.300021e-01 -1.191926e-01 -6.122439e-02 -2.705809e-01 7.923515e-02 -1.685710e-01 -1.836202e-01 4.596789e-01 4.650013e-01 1.667419e-02 -3.211117e-02 -6.467633e-02 -1.178609e-02 1.283709e-02 2.775588e-02 6.188826e-03 7.858747e-02 5.477835e-03 5.858802e-02 5.229371e-02 -6.093016e-03 3.024919e-03
<VARIANCE> 39
 2.938470e+01 3.487254e+01 3.548133e+01 6.142316e+01 4.231025e+01 2.539017e+01 3.383481e+01 4.783232e+01 3.858371e+01 4.684121e+01 2.630203e+01 3.622561e+01 1.102300e+02 7.504913e-01 1.019351e+00 6.508135e-01 1.013944e+00 9.770228e-01 6.943519e-01 8.582777e-01 1.000911e+00 9.038288e-01 9.582081e-01 8.197781e-01 8.743333e-01 4.607456e+00 5.587403e-02 8.031061e-02 6.727385e-02 9.933440e-02 1.002126e-01 6.039730e-02 8.896337e-02 9.087902e-02 1.101351e-01 1.217183e-01 8.166637e-02 8.823673e-02 1.316720e-01
<GCONST> 8.794154e+01
<STATE> 4
<MEAN> 39
 1.279647e+00 4.353576e-01 2.524890e+00 -4.887982e+00 -5.069124e+00 -1.547223e+00 -1.134385e+00 -4.427122e+00 -2.784978e+00 -3.835631e+00 -2.264744e+00 1.677455e-01 5.177192e+00 -1.147483e-02 -5.778938e-03 -2.880681e-02 1.092110e-02 -1.824299e-02 -3.680621e-02 1.265661e-02 7.692783e-02 1.141328e-03 -3.816495e-02 3.183356e-02 8.024124e-02 -1.584138e-02 2.033773e-03 2.203471e-03 -2.870547e-03 1.351993e-02 1.417277e-02 2.359202e-03 1.162826e-02 2.230928e-02 6.628463e-04 1.279536e-02 6.858666e-03 -1.733152e-02 -1.616112e-02
<VARIANCE> 39
 1.859567e+01 3.969343e+01 3.761057e+01 6.145326e+01 4.584369e+01 2.752826e+01 7.121303e+01 3.799459e+01 3.868001e+01 4.979369e+01 2.933847e+01 3.124023e+01 4.066426e+01 2.549922e-01 7.140861e-01 5.486593e-01 8.230489e-01 9.985609e-01 5.291703e-01 1.416514e+00 7.339993e-01 7.940047e-01 1.080927e+00 7.750629e-01 8.135687e-01 9.240866e-01 2.155262e-02 6.264267e-02 5.120177e-02 6.150431e-02 9.782137e-02 6.204341e-02 1.239032e-01 7.896888e-02 8.935911e-02 1.332413e-01 9.332614e-02 8.644997e-02 5.552541e-02
<GCONST> 8.112832e+01
<TRANSP> 5
 0.000000e+00 1.000000e+00 0.000000e+00 0.000000e+00 0.000000e+00
 0.000000e+00 7.075607e-01 2.924393e-01 0.000000e+00 0.000000e+00
 0.000000e+00 0.000000e+00 6.965809e-01 3.034191e-01 0.000000e+00
 0.000000e+00 0.000000e+00 0.000000e+00 9.642077e-01 3.579230e-02
 0.000000e+00 0.000000e+00 0.000000e+00 0.000000e+00 0.000000e+00
<ENDHMM>
~h "dx"
<BEGINHMM>
<NUMSTATES> 5
<STATE> 2
<MEAN> 39
 5.071345e+00 8.600854e-01 2.657640e+00 9.600045e-01 -5.950873e+00 -4.424568e-01 -1.023484e+00 -2.492881e+00 -1.171211e+00 2.419813e+00 7.291164e-01 -6.271651e-01 4.923122e+00 -5.712133e-02 1.330360e-01 5.106193e-03 -9.837282e-02 -3.495508e-02 -1.309740e-01 -1.092354e-02 -1.169381e-01 -6.228940e-02 1.293700e-01 6.850969e-02 1.119336e-01 9.603426e-02 -3.426407e-02 -2.179014e-03 -3.087989e-02 -2.393076e-02 7.772829e-02 8.612037e-03 3.869582e-03 3.929007e-02 7.496444e-03 -1.315276e-02 -2.070241e-02 5.297999e-03 -2.640080e-02
<VARIANCE> 39
 3.895959e+01 7.290265e+01 1.430671e+02 9.925584e+01 1.020049e+02 6.902325e+01 8.484062e+01 7.416331e+01 7.297985e+01 5.201415e+01 4.050593e+01 3.873265e+01 5.088142e+01 9.031767e-01 1.769283e+00 2.561309e+00 3.822142e+00 2.298025e+00 2.246426e+00 2.147836e+00 2.019224e+00 1.621934e+00 1.584516e+00 1.204551e+00 1.077421e+00 1.844532e+00 9.828390e-02 1.609176e-01 2.355727e-01 4.725629e-01 2.521191e-01 2.745295e-01 2.330481e-01 2.222998e-01 1.731276e-01 1.852331e-01 1.526992e-01 1.371660e-01 2.133907e-01
<GCONST> 1.131779e+02
<STATE> 3
<MEAN> 39
