~h "sp"
<BEGINHMM>
<NUMSTATES> 3
<STATE> 2
<MEAN> 39
 -4.769327e+00 -1.310598e+00 -5.720065e+00 7.015748e+00 3.866067e+00 4.802530e+00 1.994935e-01 -4.045179e-02 4.620819e-01 2.154911e-01 3.191662e+00 1.284967e+00 -1.224981e+01 6.219046e-02 2.284442e-02 1.514008e-02 -3.547707e-02 2.702216e-02 -2.351320e-02 -2.781922e-02 -6.949534e-02 -2.330826e-02 -3.105403e-02 -7.993641e-02 -1.737227e-02 8.375838e-02 1.328012e-02 1.759219e-03 1.151435e-02 -4.489015e-03 4.846344e-03 -5.191319e-03 5.088234e-03 5.268236e-03 3.678005e-03 -1.804105e-03 -3.284989e-03 5.754337e-03 1.620645e-02
<VARIANCE> 39
 2.189330e+01 4.283651e+01 2.326033e+01 3.612445e+01 2.514726e+01 3.268936e+01 5.070098e+01 3.697404e+01 5.687418e+01 4.496764e+01 3.243907e+01 1.684024e+01 8.696564e+01 2.331059e-01 1.229055e-01 1.980455e-01 2.698734e-01 3.204970e-01 4.358756e-01 4.152895e-01 4.210445e-01 3.945854e-01 4.111443e-01 3.297233e-01 3.048638e-01 4.738476e-01 2.723766e-02 1.543079e-02 2.591400e-02 3.227174e-02 4.164668e-02 5.375749e-02 5.356862e-02 5.083471e-02 4.848964e-02 5.100912e-02 4.351608e-02 4.132187e-02 5.312552e-02
<GCONST> 6.093407e+01
<TRANSP> 3
0.0  1.0  0.0
0.0  0.9  0.1
0.0  0.0  0.0
<ENDHMM>
