~o
<STREAMINFO> 1 39
<VECSIZE> 39<NULLD><MFCC_D_A_Z_0><DIAGC>
~h "a"
<BEGINHMM>
<NUMSTATES> 5
<STATE> 2
<MEAN> 39
 6.136110e-01 -4.821037e-01 -3.003968e-01 -5.588678e-02 -1.284713e-01 -2.757555e-01 2.037023e-01 4.183775e-01 -4.407694e-02 -4.485970e-01 -4.097593e-01 -1.287643e-01 1.288594e+00 8.047276e-03 1.588273e-02 5.155329e-03 -1.905693e-02 1.089640e-02 -4.843640e-03 -4.412075e-03 -1.052070e-02 -4.078969e-03 4.543223e-04 4.279124e-03 9.570821e-04 -1.262416e-02 -4.545441e-04 2.986034e-04 1.600283e-04 -1.776020e-05 -4.830026e-04 3.968556e-04 6.906629e-05 -4.847197e-05 1.971126e-04 6.967219e-04 1.218308e-04 1.131301e-04 -3.450849e-04
<VARIANCE> 39
 6.124594e+01 5.316333e+01 7.409258e+01 6.121550e+01 7.257341e+01 5.575239e+01 5.563837e+01 5.688341e+01 6.772541e+01 5.124219e+01 4.627797e+01 2.872735e+01 1.956452e+02 1.068753e+00 1.072731e+00 1.237350e+00 1.331532e+00 1.357655e+00 1.185424e+00 1.243843e+00 1.232972e+00 1.308999e+00 1.056132e+00 9.635742e-01 6.844659e-01 1.940845e+00 9.970724e-02 1.030138e-01 1.115796e-01 1.371338e-01 1.448063e-01 1.330565e-01 1.404479e-01 1.411112e-01 1.425136e-01 1.241769e-01 1.108757e-01 8.315098e-02 1.663665e-01
<GCONST> 1.001386e+02
<STATE> 3
<MEAN> 39
 6.399339e-01 -4.285113e-01 -2.816437e-01 -1.205038e-01 -9.544447e-02 -2.922998e-01 1.892320e-01 3.838528e-01 -5.589854e-02 -4.434494e-01 -3.946531e-01 -1.247170e-01 1.243539e+00 6.186640e-03 1.669937e-02 5.511177e-03 -1.858244e-02 8.895246e-03 -4.120617e-03 -4.641842e-03 -1.056563e-02 -2.963625e-03 2.188612e-03 4.162170e-03 9.300127e-04 -1.416731e-02 -6.130147e-04 1.975029e-04 1.638779e-04 2.899789e-04 -6.189147e-04 9.404930e-05 -9.115707e-05 -8.039486e-05 2.531775e-04 3.991675e-04 -7.133225e-05 -6.727568e-05 -2.201434e-04
<VARIANCE> 39
 6.051077e+01 5.288558e+01 7.405070e+01 6.061279e+01 7.283220e+01 5.550036e+01 5.549939e+01 5.686110e+01 6.781664e+01 5.123821e+01 4.606398e+01 2.875792e+01 1.993061e+02 1.070657e+00 1.072035e+00 1.235111e+00 1.332423e+00 1.354714e+00 1.183277e+00 1.243889e+00 1.232105e+00 1.310553e+00 1.056306e+00 9.639048e-01 6.858213e-01 1.934785e+00 9.994747e-02 1.030317e-01 1.113622e-01 1.373005e-01 1.445435e-01 1.328791e-01 1.404034e-01 1.408269e-01 1.426164e-01 1.240750e-01 1.111141e-01 8.333427e-02 1.660321e-01
<GCONST> 1.001177e+02
<STATE> 4
<MEAN> 39
 7.218828e-01 -3.593356e-01 -2.217786e-01 -2.298757e-01 -9.202072e-02 -3.449444e-01 1.399941e-01 3.227933e-01 -6.851681e-02 -4.330673e-01 -3.959538e-01 -1.361037e-01 1.286867e+00 2.460746e-03 1.643486e-02 6.158832e-03 -1.620194e-02 5.161109e-03 -4.381005e-03 -5.998470e-03 -1.121715e-02 -1.511291e-03 2.668387e-03 3.180144e-03 6.984589e-04 -1.688766e-02 -9.508941e-04 6.212276e-05 3.190385e-04 4.743129e-04 -6.912151e-04 -1.261678e-04 -3.311611e-04 -2.723438e-04 1.890584e-04 4.004333e-05 -1.096145e-04 -6.030713e-05 -5.459195e-04
<VARIANCE> 39
 6.001451e+01 5.234768e+01 7.421222e+01 5.926020e+01 7.257123e+01 5.478224e+01 5.501040e+01 5.661123e+01 6.962505e+01 5.161329e+01 4.572408e+01 2.871658e+01 2.010830e+02 1.068568e+00 1.063295e+00 1.221795e+00 1.315440e+00 1.339796e+00 1.172879e+00 1.235031e+00 1.226791e+00 1.328015e+00 1.054990e+00 9.583619e-01 6.804929e-01 1.930060e+00 9.971166e-02 1.023860e-01 1.099193e-01 1.355580e-01 1.426879e-01 1.316936e-01 1.393688e-01 1.404934e-01 1.435825e-01 1.234864e-01 1.105671e-01 8.257858e-02 1.645020e-01
<GCONST> 9.992604e+01
<TRANSP> 5
 0.000000e+00 1.000000e+00 0.000000e+00 0.000000e+00 0.000000e+00
 0.000000e+00 7.063686e-01 2.936313e-01 0.000000e+00 0.000000e+00
 0.000000e+00 0.000000e+00 7.063691e-01 2.936308e-01 0.000000e+00
 0.000000e+00 0.000000e+00 0.000000e+00 8.270531e-01 1.729469e-01
 0.000000e+00 0.000000e+00 0.000000e+00 0.000000e+00 0.000000e+00
<ENDHMM>
~h "b"
<BEGINHMM>
<NUMSTATES> 5
<STATE> 2
<MEAN> 39
 1.311533e-01 1.945383e-01 -2.236082e-01 1.826935e-01 -4.065955e-01 -3.070542e-02 -3.687291e-01 -1.579265e-01 -2.746323e-01 -1.311653e-01 -2.627527e-01 2.579961e-01 7.623039e-01 6.236788e-03 2.446121e-02 2.729980e-02 -1.867683e-02 -4.439586e-03 -1.906914e-02 -9.687283e-03 -1.077050e-02 -1.387422e-02 -1.426791e-02 1.649778e-02 1.315234e-02 1.232873e-02 1.463982e-03 -1.389408e-03 1.944451e-03 2.527286e-03 1.437522e-03 5.756245e-05 5.986322e-03 1.331155e-03 6.001639e-03 3.722209e-03 1.861391e-03 1.268529e-03 4.516316e-04
<VARIANCE> 39
 6.652277e+01 5.031934e+01 8.000775e+01 6.578986e+01 6.620643e+01 5.306768e+01 5.460928e+01 5.614721e+01 6.204922e+01 4.858633e+01 4.977040e+01 3.132578e+01 1.744954e+02 9.259300e-01 1.068885e+00 1.262147e+00 1.426110e+00 1.369030e+00 1.193864e+00 1.301716e+00 1.087743e+00 1.218077e+00 9.943992e-01 9.618942e-01 7.144936e-01 1.879264e+00 8.334669e-02 1.012807e-01 1.137833e-01 1.451633e-01 1.413196e-01 1.399938e-01 1.495462e-01 1.252785e-01 1.318665e-01 1.175676e-01 1.102188e-01 8.358318e-02 1.525501e-01
<GCONST> 9.943092e+01
<STATE> 3
<MEAN> 39
 1.757576e-01 2.686458e-01 -1.198417e-01 1.351908e-01 -4.031041e-01 -9.943683e-02 -3.548527e-01 -1.767060e-01 -2.828752e-01 -1.418085e-01 -1.935169e-01 3.073320e-01 8.286388e-01 1.019904e-02 2.361184e-02 3.499148e-02 -1.148723e-02 2.292541e-03 -1.775731e-02 5.932850e-03 -5.221569e-03 8.160076e-04 -2.876152e-03 2.084671e-02 1.586626e-02 1.544450e-02 1.010576e-03 -3.939043e-04 2.138631e-03 2.236153e-03 2.313658e-03 4.481160e-04 4.720073e-03 1.645071e-03 3.796670e-03 3.296217e-03 3.983010e-04 4.801202e-04 1.092768e-03
<VARIANCE> 39
 6.552442e+01 4.969380e+01 8.107343e+01 6.463022e+01 6.712134e+01 5.309949e+01 5.470097e+01 5.624716e+01 6.133841e+01 4.766304e+01 4.799657e+01 3.124217e+01 1.779635e+02 9.391899e-01 1.076179e+00 1.258458e+00 1.417177e+00 1.359153e+00 1.201359e+00 1.283315e+00 1.093682e+00 1.210994e+00 9.843380e-01 9.429213e-01 7.094507e-01 1.919436e+00 8.475477e-02 1.017467e-01 1.125699e-01 1.430897e-01 1.408166e-01 1.402016e-01 1.474184e-01 1.255934e-01 1.302625e-01 1.163185e-01 1.084290e-01 8.324668e-02 1.566066e-01
<GCONST> 9.931200e+01
<STATE> 4
<MEAN> 39
 2.933402e-01 3.892693e-01 8.055454e-02 8.202444e-02 -3.769367e-01 -2.614098e-01 -2.916241e-01 -1.711721e-01 -2.919534e-01 -1.345617e-01 -1.058418e-01 3.691764e-01 1.031921e+00 1.051687e-02 2.693619e-02 3.981734e-02 -9.890925e-03 8.831976e-03 -1.258468e-02 9.763392e-03 -2.816868e-03 3.855134e-03 6.628636e-03 2.021552e-02 1.522428e-02 2.009370e-02 -8.268161e-04 5.383771e-04 1.138923e-03 1.689190e-04 1.198662e-03 1.147182e-03 5.222288e-04 2.802356e-05 -1.225414e-04 1.364544e-03 -9.093852e-04 -3.625126e-04 3.394726e-04
<VARIANCE> 39
 6.443951e+01 4.807911e+01 8.190743e+01 6.185242e+01 6.848877e+01 5.205285e+01 5.384333e+01 5.569274e+01 6.210705e+01 4.769696e+01 4.576981e+01 3.029570e+01 1.789525e+02 9.648571e-01 1.074318e+00 1.246810e+00 1.382166e+00 1.342016e+00 1.185532e+00 1.253463e+00 1.096924e+00 1.210561e+00 9.785895e-01 9.303045e-01 6.896529e-01 1.965420e+00 8.757765e-02 1.018707e-01 1.095854e-01 1.389504e-01 1.397090e-01 1.374342e-01 1.432952e-01 1.259592e-01 1.296140e-01 1.143808e-01 1.069716e-01 8.133256e-02 1.621304e-01
<GCONST> 9.896413e+01
<TRANSP> 5
 0.000000e+00 1.000000e+00 0.000000e+00 0.000000e+00 0.000000e+00
 0.000000e+00 7.109495e-01 2.890504e-01 0.000000e+00 0.000000e+00
 0.000000e+00 0.000000e+00 7.109495e-01 2.890505e-01 0.000000e+00
 0.000000e+00 0.000000e+00 0.000000e+00 8.324562e-01 1.675438e-01
 0.000000e+00 0.000000e+00 0.000000e+00 0.000000e+00 0.000000e+00
<ENDHMM>
~h "c"
<BEGINHMM>
<NUMSTATES> 5
<STATE> 2
<MEAN> 39
 1.669829e+00 -1.749943e-01 -6.673588e-01 -9.712921e-01 2.287069e-01 -1.649898e-01 -6.426465e-01 4.875408e-01 9.895841e-01 1.091839e-01 -9.291407e-01 -9.405343e-01 2.919885e+00 4.021133e-02 -6.100366e-02 -5.886390e-02 3.821332e-03 2.490015e-02 2.291015e-02 1.707073e-02 3.039670e-02 -5.768592e-03 -2.544831e-02 -3.109463e-02 1.131085e-03 -1.705963e-02 -3.038163e-04 1.029034e-03 -4.695902e-06 6.459964e-04 5.273779e-04 -1.775562e-04 -1.094054e-03 -6.506818e-04 -8.541195e-04 -8.831918e-05 9.792940e-04 1.399894e-03 -3.506867e-03
<VARIANCE> 39
 8.105783e+01 7.457231e+01 7.915525e+01 5.932653e+01 7.064342e+01 5.731630e+01 6.175897e+01 6.356559e+01 7.165176e+01 5.259733e+01 5.840343e+01 2.995631e+01 1.816186e+02 1.637474e+00 1.356794e+00 1.387072e+00 1.475621e+00 1.381425e+00 1.517209e+00 1.416609e+00 1.401696e+00 1.395763e+00 1.180393e+00 1.072336e+00 7.507790e-01 2.167865e+00 1.687037e-01 1.223285e-01 1.273104e-01 1.590415e-01 1.451971e-01 1.677473e-01 1.613948e-01 1.573030e-01 1.503885e-01 1.362426e-01 1.228979e-01 8.834770e-02 1.824359e-01
<GCONST> 1.050394e+02
<STATE> 3
<MEAN> 39
 1.817750e+00 -3.743367e-01 -8.694454e-01 -9.600081e-01 3.134133e-01 -9.356717e-02 -5.890104e-01 5.936739e-01 9.673917e-01 2.293986e-02 -1.041255e+00 -9.318908e-01 2.857307e+00 3.778877e-02 -5.729035e-02 -5.777782e-02 5.913558e-03 2.600508e-02 2.237196e-02 1.387523e-02 2.758415e-02 -9.358258e-03 -2.545457e-02 -2.758479e-02 5.587215e-03 -2.849281e-02 -8.499307e-04 1.264208e-03 6.798707e-04 7.366845e-04 4.479730e-04 -2.699488e-04 -8.696989e-04 -1.041894e-03 -7.791703e-04 4.401882e-06 1.108529e-03 1.474295e-03 -3.805650e-03
<VARIANCE> 39
 7.972370e+01 7.471944e+01 7.953483e+01 5.916968e+01 7.179398e+01 5.742390e+01 6.127789e+01 6.320533e+01 7.163210e+01 5.247047e+01 5.829333e+01 3.011140e+01 1.835138e+02 1.602206e+00 1.362451e+00 1.394449e+00 1.467535e+00 1.376566e+00 1.513782e+00 1.407957e+00 1.370353e+00 1.378685e+00 1.165923e+00 1.063799e+00 7.484868e-01 2.171081e+00 1.650414e-01 1.222093e-01 1.285828e-01 1.587828e-01 1.448200e-01 1.669284e-01 1.608175e-01 1.540800e-01 1.480070e-01 1.345073e-01 1.213608e-01 8.734885e-02 1.809907e-01
<GCONST> 1.048489e+02
<STATE> 4
<MEAN> 39
 2.049614e+00 -4.661324e-01 -1.014153e+00 -8.583541e-01 3.723254e-01 -6.327988e-02 -5.766245e-01 6.598237e-01 1.006957e+00 1.631212e-03 -1.147589e+00 -8.688780e-01 2.754697e+00 3.354482e-02 -5.241261e-02 -5.303064e-02 7.306325e-03 2.407871e-02 2.033439e-02 1.215492e-02 2.291811e-02 -1.463805e-02 -2.428838e-02 -2.465375e-02 9.883186e-03 -3.770232e-02 -1.547445e-03 1.200821e-03 1.373972e-03 7.777645e-04 1.114688e-04 -1.701953e-04 -4.304980e-04 -1.518029e-03 -8.939498e-04 1.376133e-04 1.206434e-03 1.290107e-03 -3.555973e-03
<VARIANCE> 39
 7.985739e+01 7.561702e+01 8.049450e+01 6.042189e+01 7.508163e+01 5.849789e+01 6.040429e+01 6.277922e+01 7.379870e+01 5.308686e+01 5.824710e+01 3.015597e+01 1.960322e+02 1.574761e+00 1.374215e+00 1.393825e+00 1.472950e+00 1.409965e+00 1.521141e+00 1.387282e+00 1.330242e+00 1.377016e+00 1.150184e+00 1.059950e+00 7.457551e-01 2.252108e+00 1.623046e-01 1.220205e-01 1.284132e-01 1.587306e-01 1.480119e-01 1.663281e-01 1.596473e-01 1.501227e-01 1.455942e-01 1.319604e-01 1.195307e-01 8.603756e-02 1.822880e-01
<GCONST> 1.049454e+02
<TRANSP> 5
 0.000000e+00 1.000000e+00 0.000000e+00 0.000000e+00 0.000000e+00
 0.000000e+00 7.066369e-01 2.933631e-01 0.000000e+00 0.000000e+00
 0.000000e+00 0.000000e+00 7.066372e-01 2.933629e-01 0.000000e+00
 0.000000e+00 0.000000e+00 0.000000e+00 8.275742e-01 1.724259e-01
 0.000000e+00 0.000000e+00 0.000000e+00 0.000000e+00 0.000000e+00
<ENDHMM>
~h "d"
<BEGINHMM>
<NUMSTATES> 5
<STATE> 2
<MEAN> 39
 8.308421e-01 -7.185532e-03 8.905407e-03 3.271687e-01 -3.491231e-02 -3.592321e-01 3.283731e-02 4.840949e-01 3.280820e-01 6.303714e-02 -5.581928e-02 -3.970646e-02 5.268881e-01 -1.360677e-03 1.676336e-02 2.286016e-02 -9.800347e-03 2.657021e-02 -1.119560e-02 -1.557038e-02 -1.303641e-02 -1.813749e-02 -1.551071e-02 -9.635563e-03 -8.460252e-03 -1.044262e-02 -2.529324e-03 -1.156140e-03 -1.082781e-04 -8.872944e-04 -1.355368e-03 1.508190e-04 -2.080366e-03 -2.113624e-03 -1.991649e-03 -1.012753e-04 -3.871020e-04 -5.287098e-04 -2.085116e-03
<VARIANCE> 39
 5.990954e+01 4.997055e+01 7.099680e+01 6.056646e+01 6.896014e+01 5.716231e+01 5.996960e+01 5.662318e+01 6.345219e+01 4.944436e+01 4.612919e+01 2.812427e+01 1.847010e+02 9.520870e-01 1.046834e+00 1.199257e+00 1.314975e+00 1.306652e+00 1.261145e+00 1.224694e+00 1.222110e+00 1.251701e+00 1.020674e+00 9.130353e-01 6.789374e-01 1.931219e+00 9.354972e-02 1.027896e-01 1.079013e-01 1.374842e-01 1.381140e-01 1.438189e-01 1.397878e-01 1.381695e-01 1.381103e-01 1.193154e-01 1.065045e-01 8.441106e-02 1.631580e-01
<GCONST> 9.932408e+01
<STATE> 3
<MEAN> 39
 8.131498e-01 3.561080e-02 8.501932e-02 2.775659e-01 3.683293e-02 -4.061665e-01 -4.235595e-02 4.095168e-01 2.369769e-01 3.846302e-03 -9.894742e-02 -7.235058e-02 4.886122e-01 -9.329887e-03 1.269799e-02 2.127010e-02 -1.328745e-02 2.181769e-02 -7.851243e-03 -2.085071e-02 -1.841614e-02 -2.320446e-02 -1.461714e-02 -9.153613e-03 -1.021369e-02 -1.832221e-02 -2.222508e-03 -1.097951e-03 -9.111421e-04 -8.798463e-04 -1.284793e-03 1.222178e-03 -1.414131e-03 -1.401402e-03 -1.540504e-03 3.289585e-04 2.936600e-04 -4.783807e-04 -2.268954e-03
<VARIANCE> 39
 5.835441e+01 4.947400e+01 7.139117e+01 6.001231e+01 6.962614e+01 5.644676e+01 5.996540e+01 5.641894e+01 6.370496e+01 4.957306e+01 4.615673e+01 2.807718e+01 1.887737e+02 9.524791e-01 1.036435e+00 1.203723e+00 1.316085e+00 1.310320e+00 1.251861e+00 1.228974e+00 1.209884e+00 1.258080e+00 1.022115e+00 9.169162e-01 6.783509e-01 1.940245e+00 9.342819e-02 1.020831e-01 1.085484e-01 1.379585e-01 1.384412e-01 1.425875e-01 1.399897e-01 1.372013e-01 1.387884e-01 1.194951e-01 1.063269e-01 8.431190e-02 1.643384e-01
<GCONST> 9.930332e+01
<STATE> 4
<MEAN> 39
 7.698157e-01 5.178597e-02 1.851371e-01 1.583967e-01 8.991644e-02 -4.862452e-01 -2.213747e-01 2.060040e-01 1.459903e-02 -1.163066e-01 -2.123872e-01 -1.265719e-01 4.864309e-01 -1.487719e-02 7.157525e-03 1.582895e-02 -1.735200e-02 1.603728e-02 -1.656684e-03 -2.378381e-02 -2.370213e-02 -2.634828e-02 -1.263466e-02 -7.351597e-03 -9.145173e-03 -2.698556e-02 -1.327832e-03 -8.741622e-04 -1.446362e-03 -4.996422e-04 -6.031081e-04 1.583787e-03 -2.535412e-04 -3.373233e-04 -1.802246e-04 6.097571e-04 6.213780e-04 1.705054e-04 -2.157209e-03
<VARIANCE> 39
 5.636034e+01 4.863293e+01 7.256043e+01 5.780098e+01 6.946600e+01 5.468108e+01 5.894941e+01 5.572729e+01 6.543127e+01 4.964491e+01 4.632368e+01 2.782730e+01 1.937254e+02 9.321260e-01 1.003849e+00 1.202716e+00 1.292106e+00 1.294012e+00 1.216388e+00 1.224360e+00 1.185621e+00 1.261627e+00 1.019595e+00 9.177095e-01 6.668065e-01 1.908570e+00 9.122916e-02 9.878185e-02 1.083254e-01 1.357471e-01 1.365511e-01 1.388406e-01 1.388941e-01 1.350062e-01 1.388827e-01 1.192354e-01 1.055826e-01 8.298554e-02 1.615358e-01
<GCONST> 9.886405e+01
<TRANSP> 5
 0.000000e+00 1.000000e+00 0.000000e+00 0.000000e+00 0.000000e+00
 0.000000e+00 7.112120e-01 2.887880e-01 0.000000e+00 0.000000e+00
 0.000000e+00 0.000000e+00 7.112103e-01 2.887897e-01 0.000000e+00
 0.000000e+00 0.000000e+00 0.000000e+00 8.327714e-01 1.672285e-01
 0.000000e+00 0.000000e+00 0.000000e+00 0.000000e+00 0.000000e+00
<ENDHMM>
~h "e"
<BEGINHMM>
<NUMSTATES> 5
<STATE> 2
<MEAN> 39
 1.989367e-01 5.615583e-01 1.914653e+00 -1.007130e+00 -1.389476e+00 -1.082425e+00 -2.660609e-01 -6.094200e-01 -6.721423e-01 3.971503e-01 6.752099e-02 -1.903017e-01 8.632953e-01 -1.570387e-02 4.998261e-03 -1.087526e-03 8.446561e-03 1.224805e-02 -4.769463e-03 -3.124678e-03 9.358305e-03 5.871398e-03 6.432329e-03 4.024883e-03 4.852692e-03 -7.284801e-02 4.530162e-04 -5.048688e-04 -1.301239e-03 5.774414e-04 1.355687e-03 1.594592e-03 5.900488e-04 5.072516e-04 5.941415e-04 2.487234e-04 9.867988e-05 -1.385636e-04 -8.072567e-04
<VARIANCE> 39
 5.661495e+01 5.097940e+01 7.901127e+01 6.300839e+01 8.528420e+01 5.405453e+01 5.468223e+01 6.138839e+01 6.535790e+01 4.847322e+01 4.421884e+01 2.819509e+01 2.138107e+02 1.009512e+00 1.023592e+00 1.220305e+00 1.487366e+00 1.494472e+00 1.285130e+00 1.271551e+00 1.330274e+00 1.280867e+00 1.048649e+00 9.011535e-01 7.035101e-01 1.885305e+00 9.581591e-02 1.005113e-01 1.062815e-01 1.493462e-01 1.536452e-01 1.461379e-01 1.433713e-01 1.487386e-01 1.407281e-01 1.219734e-01 1.055262e-01 8.653212e-02 1.601122e-01
<GCONST> 1.005244e+02
<STATE> 3
<MEAN> 39
 1.525065e-01 5.788507e-01 1.898589e+00 -9.759136e-01 -1.341838e+00 -1.090451e+00 -2.741608e-01 -5.811396e-01 -6.510728e-01 4.177162e-01 8.288708e-02 -1.726953e-01 6.207675e-01 -1.371265e-02 2.961835e-03 -6.169808e-03 1.017242e-02 1.674865e-02 6.824137e-04 -1.286504e-03 1.130194e-02 7.555246e-03 6.939512e-03 4.225810e-03 4.410821e-03 -7.419191e-02 8.327621e-04 -5.930049e-04 -1.563217e-03 5.675160e-04 1.634343e-03 1.761003e-03 5.281656e-04 4.366015e-04 4.710277e-04 4.312249e-05 7.782886e-05 -3.036771e-04 -1.393056e-05
<VARIANCE> 39
 5.703991e+01 5.043454e+01 7.881413e+01 6.318356e+01 8.552175e+01 5.407888e+01 5.473902e+01 6.138333e+01 6.474934e+01 4.828091e+01 4.452110e+01 2.809190e+01 2.212871e+02 1.010601e+00 1.023242e+00 1.221854e+00 1.486845e+00 1.494307e+00 1.281310e+00 1.270147e+00 1.329154e+00 1.274872e+00 1.051239e+00 9.046931e-01 7.022761e-01 1.901440e+00 9.625037e-02 1.005418e-01 1.063238e-01 1.492473e-01 1.538651e-01 1.461114e-01 1.434083e-01 1.484908e-01 1.404130e-01 1.222832e-01 1.060156e-01 8.638863e-02 1.622284e-01
<GCONST> 1.005756e+02
<STATE> 4
<MEAN> 39
 1.508849e-01 5.667328e-01 1.827894e+00 -9.521994e-01 -1.274694e+00 -1.124557e+00 -3.091298e-01 -5.441347e-01 -6.291288e-01 3.975401e-01 6.833805e-02 -1.791182e-01 4.178526e-01 -8.031854e-03 3.283580e-04 -1.532050e-02 1.203313e-02 2.271477e-02 7.968768e-03 4.572601e-04 1.179595e-02 8.111623e-03 5.397546e-03 4.451569e-03 3.721058e-03 -6.858968e-02 1.318002e-03 -8.066217e-04 -1.719693e-03 4.439939e-04 1.699341e-03 1.706709e-03 4.757753e-04 2.361512e-04 2.108254e-04 -5.460437e-04 1.768127e-04 -3.009731e-04 7.946154e-04
<VARIANCE> 39
 5.797449e+01 4.926434e+01 7.823224e+01 6.222765e+01 8.478922e+01 5.403767e+01 5.476299e+01 6.063163e+01 6.470385e+01 4.810730e+01 4.468688e+01 2.789126e+01 2.279036e+02 1.010903e+00 1.013709e+00 1.197419e+00 1.450077e+00 1.476495e+00 1.261140e+00 1.263712e+00 1.315730e+00 1.272203e+00 1.041828e+00 9.059906e-01 6.913833e-01 1.916010e+00 9.681509e-02 9.981434e-02 1.037801e-01 1.454720e-01 1.514097e-01 1.442440e-01 1.428697e-01 1.469608e-01 1.402005e-01 1.209720e-01 1.060673e-01 8.510845e-02 1.631541e-01
<GCONST> 1.003158e+02
<TRANSP> 5
 0.000000e+00 1.000000e+00 0.000000e+00 0.000000e+00 0.000000e+00
 0.000000e+00 7.081719e-01 2.918281e-01 0.000000e+00 0.000000e+00
 0.000000e+00 0.000000e+00 7.081710e-01 2.918290e-01 0.000000e+00
 0.000000e+00 0.000000e+00 0.000000e+00 8.290921e-01 1.709079e-01
 0.000000e+00 0.000000e+00 0.000000e+00 0.000000e+00 0.000000e+00
<ENDHMM>
~h "g"
<BEGINHMM>
<NUMSTATES> 5
<STATE> 2
<MEAN> 39
 8.258638e-01 5.823371e-01 2.156779e+00 -1.413629e+00 -2.295766e+00 -9.349142e-01 -7.156070e-01 -1.099490e+00 -7.307358e-01 8.877593e-01 -1.296676e-01 -4.233435e-01 2.981279e+00 -2.076791e-02 -7.415568e-03 1.619903e-02 1.296768e-02 3.155424e-03 9.759925e-03 1.841763e-02 1.170559e-02 1.681427e-03 7.964560e-03 8.918797e-03 1.035012e-02 -9.799298e-02 1.449495e-03 -1.652951e-03 -2.530282e-03 2.220527e-03 2.154118e-03 9.072925e-04 1.365539e-03 1.218703e-03 1.188797e-03 -9.681240e-04 -7.557179e-04 -1.856606e-04 -2.390396e-03
<VARIANCE> 39
 5.827227e+01 5.114103e+01 8.734608e+01 6.150890e+01 7.379417e+01 5.174624e+01 5.681192e+01 6.239500e+01 6.683839e+01 4.889870e+01 4.563543e+01 2.983071e+01 1.504915e+02 1.014153e+00 1.027752e+00 1.472995e+00 1.538052e+00 1.672874e+00 1.297799e+00 1.353278e+00 1.381667e+00 1.341194e+00 1.088679e+00 9.551538e-01 7.419668e-01 1.753517e+00 9.162599e-02 1.011581e-01 1.252122e-01 1.572189e-01 1.798045e-01 1.499688e-01 1.533290e-01 1.558269e-01 1.532984e-01 1.273759e-01 1.117689e-01 9.255946e-02 1.569754e-01
<GCONST> 1.015499e+02
<STATE> 3
<MEAN> 39
 7.622393e-01 5.493047e-01 2.191492e+00 -1.360775e+00 -2.269233e+00 -8.896235e-01 -6.510245e-01 -1.059216e+00 -7.208409e-01 9.050569e-01 -1.036156e-01 -3.859191e-01 2.629588e+00 -1.585773e-02 -1.208792e-02 7.722231e-03 1.948017e-02 1.081627e-02 1.269890e-02 2.192846e-02 1.491954e-02 5.591799e-03 4.360762e-03 6.571275e-03 9.458245e-03 -1.051518e-01 1.427134e-03 -1.421301e-03 -2.697410e-03 1.896237e-03 2.236787e-03 7.091844e-04 8.257097e-04 8.079676e-04 1.098867e-03 -1.080453e-03 -6.909392e-04 -3.590322e-04 -1.752694e-03
<VARIANCE> 39
 5.758010e+01 5.063340e+01 8.648084e+01 6.169065e+01 7.496480e+01 5.162648e+01 5.656060e+01 6.218860e+01 6.665676e+01 4.884557e+01 4.572240e+01 2.972797e+01 1.592442e+02 1.005258e+00 1.018439e+00 1.455194e+00 1.532413e+00 1.665955e+00 1.296728e+00 1.343532e+00 1.374072e+00 1.335438e+00 1.086041e+00 9.498957e-01 7.356610e-01 1.776319e+00 9.096685e-02 1.001398e-01 1.236002e-01 1.562841e-01 1.785687e-01 1.497684e-01 1.523950e-01 1.551443e-01 1.526633e-01 1.268776e-01 1.113507e-01 9.192088e-02 1.586772e-01
<GCONST> 1.014555e+02
<STATE> 4
<MEAN> 39
 7.335722e-01 4.578120e-01 2.136529e+00 -1.243155e+00 -2.159001e+00 -8.520114e-01 -5.565009e-01 -9.398434e-01 -6.875229e-01 8.645505e-01 -8.732742e-02 -3.483248e-01 2.077174e+00 -1.002628e-02 -1.560749e-02 -5.026164e-03 2.448861e-02 2.249266e-02 1.646413e-02 2.187411e-02 1.553608e-02 8.422333e-03 -2.026464e-03 4.435684e-03 8.225965e-03 -1.104219e-01 1.131715e-03 -9.772175e-04 -2.565839e-03 1.250309e-03 2.234227e-03 3.355051e-04 2.213105e-04 5.328169e-04 8.106440e-04 -1.146922e-03 -4.123238e-04 -4.604199e-04 -7.677636e-04
<VARIANCE> 39
 5.649554e+01 4.906161e+01 8.423653e+01 6.071685e+01 7.579160e+01 5.153772e+01 5.575692e+01 6.074892e+01 6.631211e+01 4.875329e+01 4.541793e+01 2.928768e+01 1.710382e+02 9.836509e-01 9.977877e-01 1.399967e+00 1.484947e+00 1.626794e+00 1.275532e+00 1.317118e+00 1.338462e+00 1.314703e+00 1.071009e+00 9.389089e-01 7.143432e-01 1.802490e+00 8.919296e-02 9.798494e-02 1.187241e-01 1.507573e-01 1.731791e-01 1.468770e-01 1.496179e-01 1.515130e-01 1.499014e-01 1.244988e-01 1.098728e-01 8.936005e-02 1.582970e-01
<GCONST> 1.008312e+02
<TRANSP> 5
 0.000000e+00 1.000000e+00 0.000000e+00 0.000000e+00 0.000000e+00
 0.000000e+00 7.084738e-01 2.915262e-01 0.000000e+00 0.000000e+00
 0.000000e+00 0.000000e+00 7.084748e-01 2.915252e-01 0.000000e+00
 0.000000e+00 0.000000e+00 0.000000e+00 8.293875e-01 1.706125e-01
 0.000000e+00 0.000000e+00 0.000000e+00 0.000000e+00 0.000000e+00
<ENDHMM>
~h "h"
<BEGINHMM>
<NUMSTATES> 5
<STATE> 2
<MEAN> 39
 1.080720e+00 1.076327e+00 -1.204503e+00 -2.378795e-01 6.398322e-01 7.244482e-01 -1.087741e+00 -8.971903e-01 -1.316055e-01 -4.915790e-01 1.489097e-02 3.988199e-01 7.781106e-01 -5.384285e-02 1.712479e-02 8.587073e-03 1.599157e-02 5.800895e-02 3.855349e-02 1.255945e-02 2.019431e-02 5.241934e-03 9.370887e-03 3.657762e-02 -7.031641e-03 -5.627323e-02 -3.937627e-03 -8.600310e-05 3.576607e-03 1.946278e-03 2.775547e-03 -3.618055e-03 1.130876e-03 1.609850e-03 2.792051e-03 2.016314e-03 1.770102e-03 -3.392872e-04 1.934750e-03
<VARIANCE> 39
 6.828918e+01 5.708423e+01 7.216963e+01 6.134689e+01 6.616117e+01 5.687073e+01 5.026652e+01 5.086383e+01 6.312844e+01 4.809831e+01 4.266910e+01 2.695618e+01 1.526455e+02 9.445592e-01 1.057982e+00 1.170897e+00 1.313584e+00 1.355467e+00 1.122008e+00 1.130057e+00 1.112639e+00 1.283897e+00 1.023294e+00 9.013566e-01 7.200789e-01 1.330153e+00 8.435336e-02 9.664641e-02 1.018690e-01 1.369008e-01 1.427233e-01 1.227070e-01 1.184372e-01 1.174919e-01 1.352288e-01 1.119242e-01 1.029795e-01 9.181939e-02 1.013178e-01
<GCONST> 9.717582e+01
<STATE> 3
<MEAN> 39
 8.693493e-01 1.130115e+00 -1.159849e+00 -1.730679e-01 8.694274e-01 8.390998e-01 -1.025735e+00 -8.087367e-01 -9.162541e-02 -4.491425e-01 1.452619e-01 3.659453e-01 6.072118e-01 -6.598147e-02 1.462686e-02 1.981095e-02 2.088579e-02 6.183269e-02 2.805832e-02 1.481322e-02 2.512805e-02 1.143750e-02 1.365321e-02 4.216148e-02 -6.399831e-03 -5.116813e-02 -2.221795e-03 -1.082840e-03 2.768704e-03 1.236876e-03 1.027730e-03 -3.202079e-03 4.689181e-04 1.983999e-03 1.748549e-03 1.083321e-03 1.286683e-03 4.356441e-04 1.370396e-03
<VARIANCE> 39
 6.777296e+01 5.670940e+01 7.255406e+01 5.984966e+01 6.814725e+01 5.658368e+01 5.091704e+01 5.170380e+01 6.269035e+01 4.768416e+01 4.219937e+01 2.669041e+01 1.560098e+02 9.776040e-01 1.081786e+00 1.161050e+00 1.300327e+00 1.375874e+00 1.107853e+00 1.128172e+00 1.125127e+00 1.272136e+00 1.023059e+00 9.001158e-01 7.092206e-01 1.380690e+00 8.674623e-02 9.683435e-02 1.003769e-01 1.352217e-01 1.431630e-01 1.197188e-01 1.175169e-01 1.182954e-01 1.340525e-01 1.116819e-01 1.029341e-01 9.030208e-02 1.050906e-01
<GCONST> 9.723109e+01
<STATE> 4
<MEAN> 39
 6.882966e-01 1.161269e+00 -1.058154e+00 -1.870898e-01 1.234759e+00 8.820198e-01 -9.764016e-01 -7.141430e-01 -3.526519e-02 -3.894423e-01 2.185209e-01 3.682406e-01 4.867603e-01 -7.776595e-02 -5.248452e-04 2.508334e-02 1.894291e-02 4.822709e-02 1.172959e-02 1.088296e-02 1.872906e-02 9.937875e-04 4.145248e-03 3.423440e-02 -7.411411e-03 -5.427971e-02 -1.536751e-03 -2.519043e-03 1.471465e-03 -2.131843e-04 -2.412021e-03 -3.446356e-03 -1.035094e-03 -4.305685e-04 -1.269712e-03 -1.026474e-03 -6.240464e-04 2.508071e-04 -1.272680e-03
<VARIANCE> 39
 6.539818e+01 5.432435e+01 7.365751e+01 5.687665e+01 6.877675e+01 5.545585e+01 5.055218e+01 5.194988e+01 6.250560e+01 4.684172e+01 4.160089e+01 2.597257e+01 1.610627e+02 9.956446e-01 1.065121e+00 1.123015e+00 1.258729e+00 1.350134e+00 1.072642e+00 1.107147e+00 1.102747e+00 1.227584e+00 1.002681e+00 8.781136e-01 6.737105e-01 1.404106e+00 8.775106e-02 9.443193e-02 9.551191e-02 1.291726e-01 1.401277e-01 1.148167e-01 1.151534e-01 1.163543e-01 1.287977e-01 1.099598e-01 9.906201e-02 8.564650e-02 1.068601e-01
<GCONST> 9.646524e+01
<TRANSP> 5
 0.000000e+00 1.000000e+00 0.000000e+00 0.000000e+00 0.000000e+00
 0.000000e+00 7.209193e-01 2.790807e-01 0.000000e+00 0.000000e+00
 0.000000e+00 0.000000e+00 7.209183e-01 2.790817e-01 0.000000e+00
 0.000000e+00 0.000000e+00 0.000000e+00 8.449389e-01 1.550611e-01
 0.000000e+00 0.000000e+00 0.000000e+00 0.000000e+00 0.000000e+00
<ENDHMM>
~h "i"
<BEGINHMM>
<NUMSTATES> 5
<STATE> 2
<MEAN> 39
 -5.679538e-01 8.141342e-01 9.542122e-01 -2.414385e-01 -6.087466e-01 -1.870379e-01 -2.549432e-01 -8.090137e-01 -3.138915e-01 5.668724e-02 1.825544e-01 1.718677e-01 4.916358e-01 3.838331e-03 -7.263897e-04 -9.533968e-03 7.825053e-03 4.130354e-02 1.438034e-02 7.620597e-03 1.822667e-02 -4.094256e-03 -1.048270e-02 3.749717e-03 4.064196e-03 -5.495930e-02 2.742897e-04 2.692455e-04 5.852443e-05 9.199394e-04 1.502387e-03 -6.609234e-04 8.356346e-04 9.150233e-04 7.598526e-04 4.086136e-04 4.501439e-04 3.941972e-04 -5.089463e-04
<VARIANCE> 39
 6.793662e+01 6.097771e+01 8.831487e+01 6.430666e+01 7.177216e+01 5.494260e+01 5.731006e+01 6.002348e+01 6.563901e+01 4.808326e+01 4.606950e+01 2.933604e+01 1.774015e+02 1.173037e+00 1.136250e+00 1.309818e+00 1.391977e+00 1.332740e+00 1.185178e+00 1.220736e+00 1.270485e+00 1.252475e+00 1.030742e+00 9.342656e-01 7.219121e-01 1.865458e+00 1.032858e-01 1.056389e-01 1.112798e-01 1.415060e-01 1.424101e-01 1.319084e-01 1.353816e-01 1.402944e-01 1.342391e-01 1.176360e-01 1.065503e-01 8.750062e-02 1.524629e-01
<GCONST> 1.004755e+02
<STATE> 3
<MEAN> 39
 -5.513245e-01 8.207345e-01 9.219093e-01 -2.160491e-01 -4.568851e-01 -1.473717e-01 -2.253745e-01 -7.477465e-01 -3.278108e-01 2.062426e-02 1.946779e-01 1.857485e-01 3.183919e-01 4.317970e-03 -5.338598e-04 -9.198132e-03 9.488102e-03 4.510841e-02 1.112196e-02 8.573583e-03 1.932080e-02 -2.815602e-03 -1.027051e-02 4.218757e-03 3.943393e-03 -5.629668e-02 2.589461e-05 2.885566e-05 1.316368e-04 4.559825e-04 8.569116e-04 -8.559523e-04 2.444514e-04 2.533681e-04 1.946538e-04 2.334131e-05 9.484142e-05 -1.910370e-04 -4.676167e-04
<VARIANCE> 39
 6.744781e+01 5.959045e+01 8.757672e+01 6.442838e+01 7.220596e+01 5.436849e+01 5.738094e+01 6.002688e+01 6.565784e+01 4.824300e+01 4.621493e+01 2.924789e+01 1.826570e+02 1.178009e+00 1.129799e+00 1.303480e+00 1.388272e+00 1.321897e+00 1.179553e+00 1.216203e+00 1.261565e+00 1.243903e+00 1.022161e+00 9.331123e-01 7.184592e-01 1.898616e+00 1.036721e-01 1.048947e-01 1.111161e-01 1.408504e-01 1.408126e-01 1.314557e-01 1.349545e-01 1.396726e-01 1.329992e-01 1.167560e-01 1.060897e-01 8.705694e-02 1.549563e-01
<GCONST> 1.003905e+02
<STATE> 4
<MEAN> 39
 -5.323946e-01 8.161411e-01 8.817781e-01 -2.137703e-01 -2.354905e-01 -1.302818e-01 -2.110609e-01 -6.973101e-01 -3.912089e-01 -5.410204e-02 1.894847e-01 1.988994e-01 1.126594e-01 1.634284e-03 -3.966332e-03 -9.892986e-03 4.611818e-03 4.259120e-02 4.160926e-03 3.801564e-03 1.296468e-02 -7.212950e-03 -1.327499e-02 6.979498e-04 1.151012e-03 -5.481451e-02 -5.777171e-04 -6.929819e-04 -5.723260e-05 -4.183742e-04 -5.258440e-04 -8.148219e-04 -6.902764e-04 -6.898276e-04 -4.690361e-04 -1.942263e-04 -3.485608e-04 -5.615795e-04 -8.945613e-04
<VARIANCE> 39
 6.663646e+01 5.699049e+01 8.637537e+01 6.383242e+01 7.228811e+01 5.301765e+01 5.686058e+01 5.884695e+01 6.662192e+01 4.853168e+01 4.631036e+01 2.879960e+01 1.902963e+02 1.176182e+00 1.095659e+00 1.280005e+00 1.368120e+00 1.292372e+00 1.155484e+00 1.205792e+00 1.228985e+00 1.238959e+00 1.001227e+00 9.248782e-01 7.003654e-01 1.946670e+00 1.035364e-01 1.015700e-01 1.093744e-01 1.380981e-01 1.368964e-01 1.283380e-01 1.335329e-01 1.363884e-01 1.311181e-01 1.144196e-01 1.042246e-01 8.458053e-02 1.573346e-01
<GCONST> 9.990726e+01
<TRANSP> 5
 0.000000e+00 1.000000e+00 0.000000e+00 0.000000e+00 0.000000e+00
 0.000000e+00 7.084271e-01 2.915729e-01 0.000000e+00 0.000000e+00
 0.000000e+00 0.000000e+00 7.084245e-01 2.915755e-01 0.000000e+00
 0.000000e+00 0.000000e+00 0.000000e+00 8.299732e-01 1.700267e-01
 0.000000e+00 0.000000e+00 0.000000e+00 0.000000e+00 0.000000e+00
<ENDHMM>
~h "j"
<BEGINHMM>
<NUMSTATES> 5
<STATE> 2
<MEAN> 39
 6.619557e-01 -1.164741e+00 -6.017050e-01 1.848412e-01 -1.048091e+00 5.962737e-02 1.030113e+00 7.896239e-01 -1.217825e-03 -1.626104e-01 1.099975e-01 1.467991e-01 2.851683e+00 3.928764e-02 2.006988e-02 4.998376e-02 -7.681640e-02 -3.582157e-02 -5.564131e-02 -7.585721e-02 -5.591152e-02 -4.997486e-02 -2.740926e-02 -3.894373e-02 -2.577330e-02 8.763259e-02 -4.570013e-03 -3.913057e-04 2.890823e-03 -1.754220e-03 -3.637180e-04 -2.751367e-04 1.572042e-04 -1.967196e-04 1.189205e-04 -6.129830e-04 6.379162e-04 -3.669809e-04 -4.491428e-03
<VARIANCE> 39
 5.510322e+01 4.745529e+01 6.309021e+01 6.217126e+01 6.165362e+01 4.892830e+01 5.732986e+01 5.191365e+01 6.558118e+01 5.132795e+01 4.754690e+01 2.720165e+01 1.487094e+02 1.307084e+00 1.073762e+00 1.100517e+00 1.179005e+00 1.565580e+00 1.172212e+00 1.126863e+00 1.156010e+00 1.285629e+00 1.025799e+00 1.045173e+00 6.917850e-01 1.832837e+00 1.360260e-01 1.057120e-01 9.751882e-02 1.253738e-01 1.678958e-01 1.327514e-01 1.255704e-01 1.392467e-01 1.332865e-01 1.152352e-01 1.159600e-01 8.805843e-02 1.607571e-01
<GCONST> 9.906437e+01
<STATE> 3
<MEAN> 39
 7.656991e-01 -1.102941e+00 -4.129176e-01 -7.104943e-02 -1.151608e+00 -1.112866e-01 7.875010e-01 6.166762e-01 -1.458908e-01 -2.494789e-01 -1.515247e-02 5.309778e-02 3.105837e+00 2.713864e-02 2.116106e-02 5.895150e-02 -7.988103e-02 -3.320157e-02 -5.285106e-02 -7.174084e-02 -5.178275e-02 -4.395382e-02 -2.541849e-02 -3.672374e-02 -2.801009e-02 7.432980e-02 -3.227461e-03 -4.228693e-05 2.746068e-03 -5.751256e-04 1.352454e-03 9.561356e-04 1.765587e-03 1.408074e-03 2.203774e-03 8.323288e-04 7.434223e-04 -4.753383e-04 -4.170838e-03
<VARIANCE> 39
 5.319175e+01 4.860942e+01 6.291241e+01 5.980897e+01 6.073807e+01 4.866932e+01 5.656991e+01 5.235128e+01 6.568662e+01 5.207396e+01 4.723021e+01 2.763850e+01 1.418296e+02 1.312060e+00 1.102720e+00 1.110769e+00 1.199193e+00 1.572306e+00 1.179379e+00 1.157416e+00 1.175886e+00 1.311034e+00 1.052497e+00 1.054559e+00 7.078813e-01 1.773440e+00 1.375730e-01 1.088053e-01 9.819341e-02 1.267748e-01 1.695767e-01 1.338446e-01 1.282374e-01 1.411181e-01 1.357433e-01 1.182735e-01 1.175257e-01 8.972333e-02 1.528656e-01
<GCONST> 9.925610e+01
<STATE> 4
<MEAN> 39
 8.666189e-01 -1.015453e+00 -9.022165e-02 -4.941810e-01 -1.292505e+00 -2.692898e-01 5.014098e-01 3.601052e-01 -2.942663e-01 -3.363879e-01 -1.379873e-01 -1.018672e-01 3.432976e+00 1.726921e-02 2.314686e-02 6.494673e-02 -7.340816e-02 -2.152891e-02 -4.013478e-02 -5.974019e-02 -3.806585e-02 -2.428665e-02 -1.410477e-02 -3.338888e-02 -3.206762e-02 5.692067e-02 -1.554965e-03 1.481095e-04 1.315455e-03 7.967282e-04 1.692242e-03 1.908834e-03 2.359472e-03 2.053552e-03 3.368637e-03 2.105296e-03 5.419639e-04 -4.036017e-04 -2.955805e-03
<VARIANCE> 39
 5.257625e+01 5.023437e+01 6.334822e+01 5.642152e+01 6.027317e+01 4.918848e+01 5.540520e+01 5.280777e+01 6.704955e+01 5.352449e+01 4.677465e+01 2.845046e+01 1.335763e+02 1.329535e+00 1.138974e+00 1.126095e+00 1.229314e+00 1.570789e+00 1.189833e+00 1.204507e+00 1.202550e+00 1.353093e+00 1.079121e+00 1.053341e+00 7.180605e-01 1.692588e+00 1.411540e-01 1.119834e-01 9.841117e-02 1.281579e-01 1.695890e-01 1.349946e-01 1.319880e-01 1.430465e-01 1.407606e-01 1.221183e-01 1.183277e-01 9.037773e-02 1.412092e-01
<GCONST> 9.952299e+01
<TRANSP> 5
 0.000000e+00 1.000000e+00 0.000000e+00 0.000000e+00 0.000000e+00
 0.000000e+00 7.023837e-01 2.976163e-01 0.000000e+00 0.000000e+00
 0.000000e+00 0.000000e+00 7.023839e-01 2.976161e-01 0.000000e+00
 0.000000e+00 0.000000e+00 0.000000e+00 8.215834e-01 1.784166e-01
 0.000000e+00 0.000000e+00 0.000000e+00 0.000000e+00 0.000000e+00
<ENDHMM>
~h "k"
<BEGINHMM>
<NUMSTATES> 5
<STATE> 2
<MEAN> 39
 5.851924e-03 1.732027e-01 3.626698e-02 1.948319e-01 -5.370073e-01 -9.378762e-01 -3.108831e-01 -3.357882e-01 -2.454675e-01 1.718417e-01 -6.092105e-02 -2.101877e-01 1.060126e+00 2.872820e-02 9.493525e-04 -2.178155e-02 1.907426e-03 3.961683e-02 4.853140e-03 3.145896e-02 1.448769e-02 -3.427339e-03 3.919889e-03 1.614340e-02 1.501276e-02 -1.050039e-03 1.455039e-03 1.313347e-03 -2.918072e-04 -2.530660e-03 7.102289e-04 3.296246e-04 -3.182762e-04 -6.882959e-04 9.093551e-04 8.867896e-04 7.980668e-04 1.244861e-03 3.102437e-03
<VARIANCE> 39
 7.041486e+01 5.533753e+01 9.240884e+01 6.650150e+01 7.615786e+01 6.167121e+01 5.816321e+01 5.943352e+01 5.979764e+01 4.766904e+01 4.551772e+01 2.802462e+01 1.774274e+02 1.167641e+00 1.152624e+00 1.493551e+00 1.502029e+00 1.437415e+00 1.310283e+00 1.276613e+00 1.295222e+00 1.282711e+00 1.062056e+00 9.949009e-01 6.960305e-01 1.762711e+00 1.069279e-01 1.139894e-01 1.288605e-01 1.587680e-01 1.564232e-01 1.483544e-01 1.457971e-01 1.448160e-01 1.401224e-01 1.257038e-01 1.196177e-01 8.622837e-02 1.495191e-01
<GCONST> 1.018744e+02
<STATE> 3
<MEAN> 39
 1.104645e-01 1.967500e-01 -3.052652e-02 1.775663e-01 -4.000782e-01 -9.154509e-01 -2.088709e-01 -2.977001e-01 -2.511781e-01 1.933432e-01 -4.759889e-03 -1.552676e-01 1.083340e+00 3.238740e-02 7.992167e-03 -2.160922e-02 -6.172715e-03 3.987936e-02 6.792451e-03 2.854089e-02 1.044804e-02 -1.732282e-03 6.986775e-03 1.758152e-02 1.619388e-02 6.670665e-03 8.679632e-04 2.436303e-03 5.643381e-05 -2.573852e-03 1.388877e-04 7.461875e-04 -1.413213e-03 -1.533504e-03 5.769508e-04 9.502285e-04 2.107875e-04 7.677314e-05 1.697018e-03
<VARIANCE> 39
 6.962543e+01 5.460890e+01 9.163100e+01 6.650799e+01 7.743481e+01 6.178326e+01 5.869498e+01 5.952128e+01 6.005288e+01 4.828835e+01 4.554811e+01 2.805335e+01 1.803811e+02 1.179522e+00 1.148573e+00 1.487272e+00 1.502545e+00 1.437896e+00 1.311278e+00 1.275732e+00 1.301000e+00 1.278395e+00 1.069177e+00 9.954208e-01 6.929889e-01 1.790993e+00 1.078131e-01 1.135478e-01 1.289929e-01 1.590430e-01 1.566847e-01 1.481066e-01 1.458083e-01 1.450769e-01 1.402190e-01 1.261772e-01 1.198982e-01 8.573395e-02 1.517804e-01
<GCONST> 1.019539e+02
<STATE> 4
<MEAN> 39
 2.390730e-01 2.680333e-01 -1.610618e-01 4.471731e-02 -1.859608e-01 -8.364920e-01 -1.380828e-01 -3.013485e-01 -2.702704e-01 1.955906e-01 4.283836e-02 -7.576965e-02 1.146850e+00 2.813667e-02 1.846737e-02 -1.722302e-02 -1.491601e-02 3.343800e-02 8.341148e-03 2.058928e-02 -4.368233e-04 -5.902801e-03 5.626149e-03 1.364021e-02 1.557403e-02 4.635292e-03 -9.484854e-04 1.998286e-03 2.531919e-04 -1.647391e-03 -1.115063e-03 3.690959e-04 -1.897609e-03 -2.061998e-03 -5.097030e-04 6.340363e-05 -6.271506e-04 -3.483493e-04 -1.180742e-03
<VARIANCE> 39
 6.933303e+01 5.247744e+01 8.936863e+01 6.518977e+01 7.738549e+01 6.070521e+01 5.888063e+01 5.885938e+01 6.082981e+01 4.910484e+01 4.508741e+01 2.799206e+01 1.824017e+02 1.186435e+00 1.110419e+00 1.436450e+00 1.457464e+00 1.410028e+00 1.271372e+00 1.262787e+00 1.280800e+00 1.269672e+00 1.058232e+00 9.807823e-01 6.806205e-01 1.806803e+00 1.080746e-01 1.101036e-01 1.250110e-01 1.541626e-01 1.536344e-01 1.437176e-01 1.446115e-01 1.428988e-01 1.394655e-01 1.252436e-01 1.184797e-01 8.382370e-02 1.529439e-01
<GCONST> 1.014527e+02
<TRANSP> 5
 0.000000e+00 1.000000e+00 0.000000e+00 0.000000e+00 0.000000e+00
 0.000000e+00 7.045044e-01 2.954955e-01 0.000000e+00 0.000000e+00
 0.000000e+00 0.000000e+00 7.045055e-01 2.954945e-01 0.000000e+00
 0.000000e+00 0.000000e+00 0.000000e+00 8.243859e-01 1.756141e-01
 0.000000e+00 0.000000e+00 0.000000e+00 0.000000e+00 0.000000e+00
<ENDHMM>
~h "l"
<BEGINHMM>
<NUMSTATES> 5
<STATE> 2
<MEAN> 39
 5.971429e-01 -5.104511e-01 5.099497e-01 -1.439041e+00 -8.416463e-01 -1.192661e+00 -8.784171e-01 -1.698791e-01 4.411807e-01 -2.492205e-01 -1.307414e+00 -8.273953e-01 4.244535e+00 -1.228772e-02 1.096524e-02 2.488963e-02 -1.894420e-02 -1.889507e-02 -1.946936e-02 7.258364e-03 -1.115030e-02 -2.352224e-02 -4.640719e-03 4.069343e-03 5.340409e-03 2.757192e-03 -5.443688e-04 -3.478197e-04 -9.980663e-04 1.965046e-03 -3.310426e-04 -2.076027e-04 2.514190e-04 3.560867e-04 -4.002142e-04 -7.626363e-05 1.552947e-03 6.642374e-04 -2.766577e-03
<VARIANCE> 39
 6.390741e+01 5.807531e+01 9.787236e+01 5.634497e+01 6.785932e+01 5.525523e+01 6.163418e+01 6.211377e+01 7.488546e+01 5.617343e+01 4.911776e+01 3.260925e+01 1.489950e+02 1.210246e+00 1.187862e+00 1.750388e+00 1.416139e+00 1.476513e+00 1.375062e+00 1.668874e+00 1.419640e+00 1.579807e+00 1.168124e+00 1.107149e+00 7.608826e-01 2.389659e+00 1.123247e-01 1.190821e-01 1.516696e-01 1.457580e-01 1.518800e-01 1.558549e-01 1.925245e-01 1.755588e-01 1.677541e-01 1.371844e-01 1.236706e-01 9.001345e-02 1.854517e-01
<GCONST> 1.046606e+02
<STATE> 3
<MEAN> 39
 5.524029e-01 -4.761025e-01 5.778886e-01 -1.480679e+00 -8.987631e-01 -1.263785e+00 -8.497698e-01 -1.911217e-01 3.620047e-01 -2.665814e-01 -1.284746e+00 -8.031485e-01 4.232021e+00 -1.403667e-02 9.993766e-03 2.117516e-02 -1.173235e-02 -1.977098e-02 -2.024130e-02 8.794175e-03 -9.044179e-03 -2.591747e-02 -5.491220e-03 9.557107e-03 7.440165e-03 -6.937175e-03 -2.977993e-04 -2.498067e-04 -1.176109e-03 2.140469e-03 -3.217979e-04 -2.110606e-04 1.992008e-04 4.402519e-04 -3.622948e-04 -2.429968e-04 1.576750e-03 6.048920e-04 -2.750445e-03
<VARIANCE> 39
 6.408089e+01 5.800331e+01 9.809863e+01 5.637751e+01 6.806432e+01 5.565283e+01 6.174876e+01 6.235541e+01 7.415916e+01 5.681034e+01 4.894209e+01 3.281933e+01 1.453802e+02 1.201941e+00 1.178935e+00 1.738037e+00 1.416771e+00 1.469600e+00 1.388228e+00 1.675652e+00 1.413611e+00 1.579543e+00 1.175967e+00 1.093711e+00 7.566170e-01 2.350628e+00 1.111704e-01 1.181672e-01 1.493476e-01 1.462978e-01 1.514601e-01 1.564529e-01 1.924423e-01 1.735714e-01 1.683610e-01 1.381916e-01 1.228580e-01 8.955116e-02 1.824314e-01
<GCONST> 1.045587e+02
<STATE> 4
<MEAN> 39
 5.081400e-01 -4.519705e-01 5.573195e-01 -1.456861e+00 -8.535310e-01 -1.278417e+00 -8.486138e-01 -2.494382e-01 3.201658e-01 -2.875241e-01 -1.216831e+00 -7.461015e-01 3.960393e+00 -1.604034e-02 9.897860e-03 1.397934e-02 -1.723954e-04 -1.746028e-02 -2.100108e-02 1.173251e-02 -2.409867e-03 -2.785504e-02 -7.567890e-03 1.635680e-02 1.066655e-02 -1.940563e-02 -1.058586e-04 1.012325e-04 -1.063952e-03 1.869410e-03 -1.386843e-04 -7.295515e-05 2.079758e-04 3.344200e-04 -3.202190e-04 -4.104316e-04 1.454745e-03 6.146641e-04 -2.262219e-03
<VARIANCE> 39
 6.474025e+01 5.717547e+01 9.645541e+01 5.537768e+01 6.777451e+01 5.576483e+01 6.136105e+01 6.125950e+01 7.350233e+01 5.779071e+01 4.913585e+01 3.261565e+01 1.464402e+02 1.186410e+00 1.153584e+00 1.681037e+00 1.387242e+00 1.438610e+00 1.384757e+00 1.665039e+00 1.386187e+00 1.579507e+00 1.188930e+00 1.070958e+00 7.405524e-01 2.337748e+00 1.093173e-01 1.156621e-01 1.433872e-01 1.442131e-01 1.490429e-01 1.549227e-01 1.897161e-01 1.693894e-01 1.688122e-01 1.394008e-01 1.209484e-01 8.770237e-02 1.795627e-01
<GCONST> 1.041318e+02
<TRANSP> 5
 0.000000e+00 1.000000e+00 0.000000e+00 0.000000e+00 0.000000e+00
 0.000000e+00 7.096590e-01 2.903410e-01 0.000000e+00 0.000000e+00
 0.000000e+00 0.000000e+00 7.096592e-01 2.903408e-01 0.000000e+00
 0.000000e+00 0.000000e+00 0.000000e+00 8.305551e-01 1.694448e-01
 0.000000e+00 0.000000e+00 0.000000e+00 0.000000e+00 0.000000e+00
<ENDHMM>
~h "m"
<BEGINHMM>
<NUMSTATES> 5
<STATE> 2
<MEAN> 39
 1.362752e+00 -1.060491e+00 2.476775e-01 -7.795134e-01 -1.187616e-01 -4.138135e-01 -3.878576e-01 -3.090862e-01 -7.751990e-01 -4.504932e-01 -9.291878e-01 -4.764742e-01 3.677633e+00 1.867201e-02 8.544013e-04 1.366408e-02 -1.861404e-02 -3.368314e-02 -3.599821e-02 -9.711651e-03 -7.718754e-03 -3.195468e-02 -1.349957e-02 -7.538076e-03 7.038534e-04 4.311719e-02 -8.937396e-04 8.212381e-04 -8.985501e-04 6.176839e-04 -7.419526e-04 -1.414660e-04 -1.967624e-04 -2.618757e-04 1.354860e-03 -2.309316e-04 7.672642e-04 4.157831e-04 -3.186194e-03
<VARIANCE> 39
 6.517685e+01 5.132174e+01 8.161781e+01 6.069799e+01 6.936201e+01 5.565845e+01 5.867845e+01 5.516914e+01 6.471733e+01 5.402967e+01 4.593810e+01 3.026531e+01 1.355942e+02 1.166617e+00 1.074473e+00 1.271543e+00 1.448061e+00 1.311105e+00 1.247082e+00 1.395222e+00 1.428836e+00 1.352444e+00 1.217933e+00 1.006983e+00 7.615592e-01 2.010111e+00 1.045394e-01 1.026529e-01 1.129843e-01 1.494099e-01 1.385442e-01 1.408465e-01 1.524231e-01 1.665591e-01 1.421491e-01 1.430592e-01 1.157297e-01 8.987544e-02 1.601111e-01
<GCONST> 1.013784e+02
<STATE> 3
<MEAN> 39
 1.430722e+00 -1.061601e+00 2.811810e-01 -8.331839e-01 -2.319948e-01 -5.299708e-01 -4.234883e-01 -3.334770e-01 -8.660945e-01 -4.988650e-01 -9.451430e-01 -4.699525e-01 3.802464e+00 1.674155e-02 4.174631e-03 1.096915e-02 -1.530386e-02 -3.489496e-02 -3.498900e-02 -9.257232e-03 -7.583042e-03 -2.653010e-02 -1.331199e-02 -4.120713e-03 1.894949e-03 3.329966e-02 -4.801931e-04 1.002199e-03 -9.072183e-04 7.364659e-04 -3.805582e-04 4.944179e-04 -3.412297e-05 -9.840864e-05 1.746039e-03 6.241241e-05 1.012468e-03 2.766537e-04 -2.860309e-03
<VARIANCE> 39
 6.390318e+01 5.091553e+01 8.235313e+01 6.060618e+01 6.900204e+01 5.505048e+01 5.859314e+01 5.527742e+01 6.463873e+01 5.390597e+01 4.571811e+01 3.042583e+01 1.319357e+02 1.159250e+00 1.065061e+00 1.272374e+00 1.453373e+00 1.316234e+00 1.236699e+00 1.395320e+00 1.433552e+00 1.355013e+00 1.226759e+00 9.997604e-01 7.598657e-01 1.972763e+00 1.038997e-01 1.022176e-01 1.127176e-01 1.495554e-01 1.394355e-01 1.402080e-01 1.517879e-01 1.672055e-01 1.426916e-01 1.444900e-01 1.150713e-01 8.955012e-02 1.575201e-01
<GCONST> 1.012590e+02
<STATE> 4
<MEAN> 39
 1.558561e+00 -1.104123e+00 2.688721e-01 -9.260476e-01 -3.807284e-01 -6.951530e-01 -5.304030e-01 -3.675486e-01 -9.415389e-01 -5.895122e-01 -9.617307e-01 -4.752468e-01 3.935311e+00 1.814115e-02 7.442866e-03 8.862653e-03 -8.048165e-03 -3.263324e-02 -2.826764e-02 -7.097464e-03 -5.210688e-03 -1.633790e-02 -1.125822e-02 8.044281e-04 2.973978e-03 2.225709e-02 -2.392955e-04 1.241055e-03 -4.168080e-04 7.741852e-04 6.596818e-05 1.101806e-03 2.371007e-04 3.990977e-05 1.603328e-03 4.037504e-04 7.668500e-04 1.895509e-04 -2.226596e-03
<VARIANCE> 39
 6.364769e+01 5.078029e+01 8.400980e+01 6.047632e+01 6.935344e+01 5.451220e+01 5.808329e+01 5.571977e+01 6.668624e+01 5.404154e+01 4.523066e+01 3.090819e+01 1.321835e+02 1.156860e+00 1.051689e+00 1.270378e+00 1.447724e+00 1.318806e+00 1.219027e+00 1.384899e+00 1.436265e+00 1.383893e+00 1.235104e+00 9.823224e-01 7.579712e-01 1.959198e+00 1.033092e-01 1.016133e-01 1.115718e-01 1.481045e-01 1.387246e-01 1.381050e-01 1.498920e-01 1.675152e-01 1.441993e-01 1.452824e-01 1.134002e-01 8.867501e-02 1.549016e-01
<GCONST> 1.011801e+02
<TRANSP> 5
 0.000000e+00 1.000000e+00 0.000000e+00 0.000000e+00 0.000000e+00
 0.000000e+00 7.088526e-01 2.911474e-01 0.000000e+00 0.000000e+00
 0.000000e+00 0.000000e+00 7.088533e-01 2.911467e-01 0.000000e+00
 0.000000e+00 0.000000e+00 0.000000e+00 8.295803e-01 1.704197e-01
 0.000000e+00 0.000000e+00 0.000000e+00 0.000000e+00 0.000000e+00
<ENDHMM>
~h "n"
<BEGINHMM>
<NUMSTATES> 5
<STATE> 2
<MEAN> 39
 7.585862e-01 -3.764586e-01 4.318993e-02 -7.881846e-02 1.230721e-01 -2.104105e-01 -1.032850e-01 3.537451e-02 -5.061396e-01 -6.940685e-01 -7.992595e-01 -1.885496e-01 1.311063e+00 2.993572e-02 2.589019e-03 -2.782824e-03 -2.438542e-02 1.000061e-02 -1.108297e-02 -1.390701e-02 2.996998e-03 -1.625965e-03 -1.443657e-02 -5.679062e-03 -3.823861e-03 2.486545e-02 -6.593636e-04 7.949323e-05 -1.495784e-04 1.169241e-03 4.417403e-04 1.045534e-03 7.092602e-04 -7.471137e-05 1.566283e-03 1.793904e-03 6.229252e-04 -3.532481e-05 -3.512887e-03
<VARIANCE> 39
 6.396771e+01 5.018018e+01 7.012605e+01 6.093750e+01 6.496489e+01 5.625494e+01 5.407088e+01 5.602775e+01 6.800493e+01 5.147276e+01 4.554366e+01 2.889584e+01 1.964543e+02 1.014792e+00 1.051490e+00 1.192518e+00 1.361485e+00 1.252485e+00 1.200774e+00 1.171285e+00 1.253204e+00 1.301498e+00 1.067678e+00 9.333909e-01 6.925078e-01 1.901035e+00 9.718537e-02 1.013119e-01 1.074819e-01 1.400421e-01 1.315141e-01 1.340856e-01 1.297343e-01 1.410864e-01 1.419718e-01 1.235794e-01 1.072223e-01 8.314592e-02 1.540014e-01
<GCONST> 9.934184e+01
<STATE> 3
<MEAN> 39
 8.625957e-01 -3.706810e-01 3.008623e-02 -1.519941e-01 1.595680e-01 -2.481908e-01 -1.464051e-01 4.645614e-02 -5.040413e-01 -7.368671e-01 -8.211740e-01 -2.031565e-01 1.383485e+00 2.659700e-02 3.579351e-03 -3.471625e-03 -2.170402e-02 9.742904e-03 -9.026044e-03 -1.184907e-02 2.140421e-03 2.292703e-03 -9.604875e-03 -4.508385e-03 -3.519841e-03 1.331838e-02 -1.087017e-03 3.870333e-04 -1.993099e-04 9.068833e-04 -8.230936e-05 5.411422e-04 6.484600e-04 -3.269528e-04 1.185181e-03 1.315739e-03 1.806631e-04 2.064493e-04 -3.567511e-03
<VARIANCE> 39
 6.235831e+01 5.002605e+01 6.948958e+01 6.070205e+01 6.537071e+01 5.588441e+01 5.387911e+01 5.577118e+01 6.798537e+01 5.135885e+01 4.541456e+01 2.890034e+01 1.972174e+02 1.006801e+00 1.051023e+00 1.190413e+00 1.360598e+00 1.253744e+00 1.204912e+00 1.168951e+00 1.252582e+00 1.296003e+00 1.064896e+00 9.313872e-01 6.919336e-01 1.885292e+00 9.676217e-02 1.014031e-01 1.076556e-01 1.400072e-01 1.319759e-01 1.346436e-01 1.297970e-01 1.411486e-01 1.415553e-01 1.231607e-01 1.065843e-01 8.310191e-02 1.530996e-01
<GCONST> 9.925127e+01
<STATE> 4
<MEAN> 39
 1.037461e+00 -3.449621e-01 2.476810e-02 -2.802003e-01 1.821803e-01 -3.363265e-01 -2.327838e-01 3.308688e-02 -4.656267e-01 -7.902952e-01 -8.852531e-01 -2.450686e-01 1.537901e+00 2.067086e-02 5.020021e-03 -3.341427e-03 -1.837991e-02 7.051780e-03 -9.039982e-03 -1.060144e-02 1.618403e-04 2.279327e-03 -6.079900e-03 -4.293029e-03 -2.398952e-03 -2.522601e-04 -1.534370e-03 5.467579e-04 1.041208e-04 7.925020e-04 -4.233318e-04 2.626634e-04 3.904141e-04 -4.070584e-04 1.925917e-04 7.950180e-04 1.945676e-04 4.005198e-04 -3.292559e-03
<VARIANCE> 39
 6.111737e+01 5.001980e+01 6.931455e+01 5.975599e+01 6.547870e+01 5.544749e+01 5.343648e+01 5.564478e+01 6.982941e+01 5.154720e+01 4.533712e+01 2.890250e+01 1.974624e+02 1.006680e+00 1.049209e+00 1.180848e+00 1.349319e+00 1.249356e+00 1.204698e+00 1.160359e+00 1.258274e+00 1.311738e+00 1.061843e+00 9.294811e-01 6.876865e-01 1.886069e+00 9.676784e-02 1.014663e-01 1.069370e-01 1.386556e-01 1.316475e-01 1.349952e-01 1.295438e-01 1.422471e-01 1.421705e-01 1.227379e-01 1.057958e-01 8.260106e-02 1.527376e-01
<GCONST> 9.917803e+01
<TRANSP> 5
 0.000000e+00 1.000000e+00 0.000000e+00 0.000000e+00 0.000000e+00
 0.000000e+00 7.076259e-01 2.923741e-01 0.000000e+00 0.000000e+00
 0.000000e+00 0.000000e+00 7.076256e-01 2.923744e-01 0.000000e+00
 0.000000e+00 0.000000e+00 0.000000e+00 8.281285e-01 1.718716e-01
 0.000000e+00 0.000000e+00 0.000000e+00 0.000000e+00 0.000000e+00
<ENDHMM>
~h "o"
<BEGINHMM>
<NUMSTATES> 5
<STATE> 2
<MEAN> 39
 6.572637e-01 -2.763444e-01 -4.041452e-01 -2.758612e-01 -6.486254e-01 2.001196e-01 -3.241647e-01 -2.900055e-02 1.911696e-01 4.303879e-01 5.828794e-02 -2.975481e-01 -7.243363e-02 4.152172e-02 4.052021e-02 5.007191e-03 -2.235928e-02 2.215776e-02 -8.381628e-03 -8.845118e-03 -3.292484e-03 -1.196270e-02 -5.869021e-03 -4.592824e-03 6.263955e-03 3.974537e-02 5.691934e-04 2.564817e-03 2.634808e-03 -1.171986e-04 1.792213e-03 -5.833062e-04 4.850141e-04 1.016836e-03 2.146324e-03 1.051951e-03 -7.172137e-04 5.837436e-04 3.783429e-03
<VARIANCE> 39
 7.519016e+01 4.819203e+01 8.182892e+01 6.517748e+01 6.542104e+01 5.926412e+01 5.933501e+01 5.490787e+01 6.337062e+01 4.617980e+01 4.550757e+01 2.751775e+01 1.972014e+02 9.859222e-01 1.019660e+00 1.367530e+00 1.415509e+00 1.407560e+00 1.248070e+00 1.271786e+00 1.180165e+00 1.294854e+00 9.985595e-01 9.784008e-01 7.105020e-01 1.990035e+00 9.256859e-02 9.970190e-02 1.197268e-01 1.432340e-01 1.505537e-01 1.416075e-01 1.422281e-01 1.319558e-01 1.448594e-01 1.191908e-01 1.184317e-01 8.854287e-02 1.518956e-01
<GCONST> 1.003449e+02
<STATE> 3
<MEAN> 39
 8.123276e-01 -1.204547e-01 -3.659385e-01 -3.495472e-01 -5.581012e-01 1.571382e-01 -3.440126e-01 -3.188432e-02 1.609622e-01 4.158969e-01 3.577269e-02 -2.784500e-01 1.106121e-01 4.334608e-02 4.694231e-02 1.325711e-02 -2.140580e-02 2.923825e-02 -1.159899e-02 -9.381847e-03 -5.516734e-04 -5.523651e-03 -2.069110e-03 -7.659544e-03 5.247128e-03 5.075122e-02 2.599988e-04 1.834805e-03 2.051332e-03 1.819011e-04 2.044187e-03 -9.062391e-04 -3.478301e-04 6.215490e-04 1.960705e-03 1.095741e-03 -9.546926e-04 -4.159572e-04 2.499742e-03
<VARIANCE> 39
 7.421950e+01 4.639228e+01 8.160779e+01 6.454346e+01 6.606318e+01 5.874432e+01 5.925742e+01 5.448923e+01 6.256896e+01 4.626472e+01 4.536514e+01 2.766471e+01 1.953617e+02 1.010022e+00 1.015453e+00 1.373301e+00 1.422164e+00 1.413738e+00 1.252377e+00 1.250300e+00 1.173791e+00 1.291020e+00 9.961416e-01 9.856932e-01 7.128352e-01 2.037263e+00 9.487828e-02 9.926407e-02 1.208304e-01 1.432745e-01 1.505467e-01 1.426321e-01 1.398844e-01 1.314768e-01 1.446836e-01 1.196376e-01 1.185809e-01 8.898757e-02 1.564616e-01
<GCONST> 1.003534e+02
<STATE> 4
<MEAN> 39
 1.077035e+00 1.169469e-01 -3.264119e-01 -5.102491e-01 -3.957304e-01 1.382183e-02 -4.464476e-01 -9.162340e-02 1.421296e-01 3.722073e-01 -6.249142e-02 -2.737616e-01 5.023813e-01 3.910922e-02 4.290992e-02 1.586040e-02 -2.082461e-02 3.064491e-02 -2.066018e-02 -1.714490e-02 -8.089241e-03 -9.780900e-03 -5.932079e-03 -1.535521e-02 1.519213e-03 5.674022e-02 -1.529801e-03 -7.328721e-04 2.102567e-04 -6.802877e-05 4.583952e-04 -1.144271e-03 -1.531380e-03 -1.198294e-03 -1.114703e-04 -3.238836e-04 -1.357523e-03 -7.161935e-04 -5.250927e-04
<VARIANCE> 39
 7.155116e+01 4.394723e+01 8.027473e+01 6.246062e+01 6.627713e+01 5.738286e+01 5.893586e+01 5.337537e+01 6.296577e+01 4.697192e+01 4.486768e+01 2.775717e+01 1.902589e+02 1.020087e+00 9.876217e-01 1.348596e+00 1.409819e+00 1.406641e+00 1.237212e+00 1.217289e+00 1.145667e+00 1.288392e+00 9.962413e-01 9.921547e-01 7.093309e-01 2.078160e+00 9.655659e-02 9.740052e-02 1.195293e-01 1.407073e-01 1.493985e-01 1.413362e-01 1.362171e-01 1.287757e-01 1.438895e-01 1.192866e-01 1.176649e-01 8.846550e-02 1.618835e-01
<GCONST> 9.997853e+01
<TRANSP> 5
 0.000000e+00 1.000000e+00 0.000000e+00 0.000000e+00 0.000000e+00
 0.000000e+00 7.076833e-01 2.923166e-01 0.000000e+00 0.000000e+00
 0.000000e+00 0.000000e+00 7.076829e-01 2.923172e-01 0.000000e+00
 0.000000e+00 0.000000e+00 0.000000e+00 8.276986e-01 1.723014e-01
 0.000000e+00 0.000000e+00 0.000000e+00 0.000000e+00 0.000000e+00
<ENDHMM>
~h "p"
<BEGINHMM>
<NUMSTATES> 5
<STATE> 2
<MEAN> 39
 -2.210504e-01 -1.159240e+00 -1.540941e+00 1.165519e+00 -6.425405e-01 5.998791e-01 8.607749e-01 8.792746e-01 7.257694e-01 6.598026e-01 2.230574e-01 -1.827055e-02 6.061007e-01 3.185578e-02 3.257782e-02 4.640212e-02 3.497254e-02 2.279371e-02 -7.537363e-03 5.086619e-03 4.801625e-03 -1.445765e-02 -1.346980e-02 9.982374e-04 2.043304e-02 5.986921e-03 1.784421e-03 3.771824e-03 3.704581e-03 1.316421e-03 1.376163e-03 4.598144e-05 2.304373e-03 2.098361e-03 2.538383e-03 2.045892e-03 2.747532e-03 -8.724499e-04 2.989516e-03
<VARIANCE> 39
 8.317477e+01 6.447630e+01 7.540698e+01 6.651213e+01 6.845094e+01 6.560483e+01 5.366346e+01 5.482621e+01 6.511778e+01 4.673989e+01 4.331934e+01 2.782200e+01 1.936324e+02 1.129030e+00 1.108224e+00 1.208391e+00 1.294854e+00 1.357105e+00 1.141882e+00 1.136495e+00 1.128703e+00 1.354887e+00 1.041820e+00 9.038395e-01 6.405181e-01 1.986274e+00 1.054465e-01 1.034781e-01 1.104926e-01 1.327017e-01 1.453683e-01 1.277230e-01 1.286043e-01 1.283714e-01 1.474826e-01 1.238006e-01 1.067104e-01 8.021400e-02 1.664096e-01
<GCONST> 1.000181e+02
<STATE> 3
<MEAN> 39
 -1.056206e-01 -1.021001e+00 -1.361700e+00 1.287627e+00 -5.601880e-01 5.729457e-01 8.954798e-01 9.214731e-01 7.025923e-01 6.453919e-01 2.613800e-01 3.965778e-02 6.582809e-01 3.611907e-02 4.017278e-02 5.428375e-02 3.312114e-02 2.811629e-02 -9.075928e-03 1.202886e-02 1.189806e-02 -3.643641e-03 -4.545683e-03 1.114367e-02 1.379246e-02 1.476874e-02 1.268328e-03 2.481064e-03 2.646786e-03 -1.218342e-03 1.251805e-03 -1.076255e-03 2.311449e-03 1.942134e-03 3.115301e-03 2.715968e-03 2.768488e-03 -1.969616e-03 3.082090e-03
<VARIANCE> 39
 8.192902e+01 6.253541e+01 7.527178e+01 6.710821e+01 7.014069e+01 6.568902e+01 5.477277e+01 5.479781e+01 6.469513e+01 4.654931e+01 4.358795e+01 2.788989e+01 1.915002e+02 1.161578e+00 1.122926e+00 1.225174e+00 1.294941e+00 1.371235e+00 1.159765e+00 1.147312e+00 1.129694e+00 1.357078e+00 1.038296e+00 9.132535e-01 6.437579e-01 2.087464e+00 1.083672e-01 1.049490e-01 1.123031e-01 1.326669e-01 1.472130e-01 1.285970e-01 1.298106e-01 1.282200e-01 1.480277e-01 1.233044e-01 1.069003e-01 8.071508e-02 1.739462e-01
<GCONST> 1.003041e+02
<STATE> 4
<MEAN> 39
 1.951001e-01 -7.848830e-01 -1.045502e+00 1.378228e+00 -3.942277e-01 4.261315e-01 9.833017e-01 1.011376e+00 7.002040e-01 6.557916e-01 3.217731e-01 4.434045e-02 1.007760e+00 3.041846e-02 3.726159e-02 5.676518e-02 1.580221e-02 2.478388e-02 -2.125116e-02 8.978614e-03 4.393315e-03 -2.081351e-03 -3.720578e-03 1.249465e-02 5.056868e-03 2.207070e-02 -7.690125e-04 1.952196e-05 1.374063e-03 -3.688441e-03 -8.329577e-04 -2.587809e-03 -7.785612e-05 -1.319486e-03 3.051751e-04 1.570228e-04 -2.871355e-04 -1.597879e-03 2.246894e-03
<VARIANCE> 39
 7.957824e+01 5.996255e+01 7.536720e+01 6.766920e+01 7.275702e+01 6.468038e+01 5.649590e+01 5.531359e+01 6.651765e+01 4.713634e+01 4.416441e+01 2.809059e+01 1.868370e+02 1.217479e+00 1.136451e+00 1.249571e+00 1.302192e+00 1.391043e+00 1.184924e+00 1.168387e+00 1.136572e+00 1.384989e+00 1.050930e+00 9.316716e-01 6.519705e-01 2.242491e+00 1.132744e-01 1.063848e-01 1.149714e-01 1.326697e-01 1.498255e-01 1.300846e-01 1.322976e-01 1.291096e-01 1.505848e-01 1.245467e-01 1.076307e-01 8.188416e-02 1.856623e-01
<GCONST> 1.008710e+02
<TRANSP> 5
 0.000000e+00 1.000000e+00 0.000000e+00 0.000000e+00 0.000000e+00
 0.000000e+00 7.041865e-01 2.958135e-01 0.000000e+00 0.000000e+00
 0.000000e+00 0.000000e+00 7.041873e-01 2.958127e-01 0.000000e+00
 0.000000e+00 0.000000e+00 0.000000e+00 8.241852e-01 1.758149e-01
 0.000000e+00 0.000000e+00 0.000000e+00 0.000000e+00 0.000000e+00
<ENDHMM>
~h "r"
<BEGINHMM>
<NUMSTATES> 5
<STATE> 2
<MEAN> 39
 -4.500060e-01 -4.971236e-02 -5.081165e-01 5.197732e-01 2.456564e-03 3.680094e-01 3.955792e-01 2.181343e-01 4.344721e-01 4.279964e-01 3.556230e-01 2.713276e-01 1.616898e-02 3.514479e-02 2.229586e-02 1.791676e-02 -1.541432e-02 2.318679e-02 -2.141237e-02 -8.040431e-04 -4.056333e-03 -1.632798e-02 -7.055946e-03 -1.367597e-02 -5.157823e-04 3.100829e-02 -1.233448e-03 -4.634497e-04 1.263771e-03 -1.467085e-03 -1.011605e-03 -1.595450e-03 -1.370222e-04 3.233234e-04 -1.054721e-03 -5.250759e-04 -7.945090e-05 -3.632370e-04 1.508233e-04
<VARIANCE> 39
 7.608309e+01 5.608215e+01 7.554520e+01 6.493387e+01 7.388890e+01 6.072225e+01 5.644701e+01 5.734621e+01 6.472455e+01 4.864016e+01 4.708619e+01 2.823112e+01 2.123504e+02 1.157274e+00 1.060442e+00 1.221413e+00 1.293439e+00 1.365789e+00 1.202096e+00 1.175771e+00 1.176479e+00 1.207014e+00 1.013021e+00 9.166728e-01 6.687310e-01 1.925164e+00 1.062088e-01 9.992975e-02 1.067605e-01 1.346825e-01 1.418519e-01 1.355218e-01 1.339176e-01 1.339430e-01 1.300836e-01 1.191552e-01 1.067201e-01 8.108278e-02 1.596625e-01
<GCONST> 9.996798e+01
<STATE> 3
<MEAN> 39
 -3.444828e-01 1.650299e-02 -4.446152e-01 4.541284e-01 7.039747e-02 2.801327e-01 3.834468e-01 1.989138e-01 3.687697e-01 3.948349e-01 3.052308e-01 2.648825e-01 1.236501e-01 3.109160e-02 1.983121e-02 2.179546e-02 -2.012258e-02 1.700076e-02 -2.659750e-02 -3.437829e-03 -4.261787e-03 -2.045107e-02 -1.057213e-02 -1.637368e-02 -2.346155e-03 3.020001e-02 -1.242137e-03 -7.740289e-04 1.420852e-03 -1.304260e-03 -1.993470e-03 -1.233862e-03 -8.961510e-04 -3.597980e-05 -1.256607e-03 -1.157735e-03 -6.963985e-04 -6.111356e-04 -3.725377e-04
<VARIANCE> 39
 7.433575e+01 5.556356e+01 7.534319e+01 6.428416e+01 7.443900e+01 5.991218e+01 5.683140e+01 5.760043e+01 6.503915e+01 4.883713e+01 4.728577e+01 2.827747e+01 2.108965e+02 1.168639e+00 1.065670e+00 1.229740e+00 1.306354e+00 1.376281e+00 1.207874e+00 1.181929e+00 1.178547e+00 1.214692e+00 1.019948e+00 9.214048e-01 6.715217e-01 1.960017e+00 1.075066e-01 1.008449e-01 1.076186e-01 1.357600e-01 1.433741e-01 1.359921e-01 1.348046e-01 1.342590e-01 1.305193e-01 1.199228e-01 1.071066e-01 8.154057e-02 1.639047e-01
<GCONST> 1.001326e+02
<STATE> 4
<MEAN> 39
 -1.788710e-01 9.281754e-02 -2.767907e-01 2.886027e-01 6.730212e-02 9.628384e-02 3.062924e-01 1.238439e-01 2.144373e-01 3.041995e-01 2.105088e-01 2.263782e-01 3.878804e-01 2.291000e-02 1.284965e-02 2.558095e-02 -2.681138e-02 2.918747e-03 -3.227248e-02 -1.295817e-02 -1.008484e-02 -2.802370e-02 -1.781894e-02 -2.200612e-02 -4.597150e-03 2.493505e-02 -1.277048e-03 -1.182886e-03 1.296235e-03 -9.975290e-04 -2.658074e-03 -5.270338e-04 -1.529539e-03 -7.094869e-04 -1.356513e-03 -1.237709e-03 -8.268550e-04 -4.720867e-04 -1.164941e-03
<VARIANCE> 39
 7.208979e+01 5.516280e+01 7.548946e+01 6.266907e+01 7.477203e+01 5.813768e+01 5.689455e+01 5.792589e+01 6.730352e+01 4.975271e+01 4.734294e+01 2.840698e+01 2.091524e+02 1.182812e+00 1.064472e+00 1.229169e+00 1.305531e+00 1.390419e+00 1.201553e+00 1.190786e+00 1.180456e+00 1.240188e+00 1.033619e+00 9.234705e-01 6.740685e-01 1.992587e+00 1.088632e-01 1.010038e-01 1.074151e-01 1.344924e-01 1.442549e-01 1.348803e-01 1.352409e-01 1.346430e-01 1.315824e-01 1.211150e-01 1.066842e-01 8.199257e-02 1.665543e-01
<GCONST> 1.002256e+02
<TRANSP> 5
 0.000000e+00 1.000000e+00 0.000000e+00 0.000000e+00 0.000000e+00
 0.000000e+00 7.058691e-01 2.941310e-01 0.000000e+00 0.000000e+00
 0.000000e+00 0.000000e+00 7.058705e-01 2.941295e-01 0.000000e+00
 0.000000e+00 0.000000e+00 0.000000e+00 8.262475e-01 1.737525e-01
 0.000000e+00 0.000000e+00 0.000000e+00 0.000000e+00 0.000000e+00
<ENDHMM>
~h "s"
<BEGINHMM>
<NUMSTATES> 5
<STATE> 2
<MEAN> 39
 -7.724279e-01 1.597212e+00 -5.632055e-01 -4.754357e-01 -1.634943e-01 -1.642879e+00 -5.726570e-01 -7.254494e-01 -3.829057e-01 -6.428177e-02 -2.976867e-01 6.055652e-02 3.195192e+00 1.730730e-02 -8.626030e-03 -1.592635e-02 -4.050864e-03 2.558895e-02 4.872698e-03 -1.565146e-02 2.768215e-03 -5.022347e-03 -2.115463e-02 -1.634698e-03 -4.748856e-03 -6.392093e-03 1.116907e-03 -5.377703e-04 2.894891e-04 6.587074e-04 9.794534e-04 2.080707e-03 9.534697e-04 3.492485e-05 1.353481e-03 3.046574e-04 1.412320e-03 1.032092e-04 -2.522384e-03
<VARIANCE> 39
 8.744259e+01 5.972021e+01 8.311472e+01 6.139526e+01 7.221886e+01 5.850826e+01 6.004818e+01 5.811631e+01 6.345708e+01 5.111626e+01 4.606180e+01 2.997569e+01 1.109954e+02 1.723441e+00 1.235101e+00 1.489483e+00 1.639313e+00 1.451982e+00 1.273929e+00 1.405721e+00 1.332936e+00 1.399462e+00 1.168967e+00 1.094763e+00 7.614533e-01 1.635219e+00 1.418024e-01 1.152669e-01 1.301042e-01 1.670391e-01 1.528961e-01 1.396501e-01 1.560906e-01 1.461392e-01 1.500892e-01 1.327514e-01 1.261696e-01 9.005671e-02 1.330131e-01
<GCONST> 1.030189e+02
<STATE> 3
<MEAN> 39
 -7.111088e-01 1.576258e+00 -6.185396e-01 -4.864163e-01 -7.429335e-02 -1.610082e+00 -6.157210e-01 -7.199723e-01 -3.891479e-01 -1.294353e-01 -2.932110e-01 4.709171e-02 3.168424e+00 2.115062e-02 -9.964705e-03 -1.488393e-02 -2.453040e-03 2.760777e-02 1.125141e-02 -1.272096e-02 2.491343e-03 -1.167847e-03 -1.940674e-02 2.997604e-03 -3.945353e-03 -1.457513e-02 1.056542e-03 -3.157677e-04 6.677040e-05 5.198668e-04 7.059251e-04 2.103480e-03 1.146123e-03 1.240784e-04 1.241650e-03 6.678816e-04 1.422585e-03 2.901623e-04 -2.704377e-03
<VARIANCE> 39
 8.695162e+01 5.876768e+01 8.404092e+01 6.114964e+01 7.211990e+01 5.826859e+01 5.977396e+01 5.808860e+01 6.353419e+01 5.111645e+01 4.583490e+01 2.974302e+01 1.108330e+02 1.715808e+00 1.235883e+00 1.500855e+00 1.645085e+00 1.445657e+00 1.280896e+00 1.407091e+00 1.331076e+00 1.399907e+00 1.176911e+00 1.091594e+00 7.574229e-01 1.624577e+00 1.414307e-01 1.153245e-01 1.309095e-01 1.678203e-01 1.523367e-01 1.407033e-01 1.566545e-01 1.459671e-01 1.501021e-01 1.336483e-01 1.262045e-01 8.998933e-02 1.320394e-01
<GCONST> 1.029951e+02
<STATE> 4
<MEAN> 39
 -5.954382e-01 1.542454e+00 -6.553648e-01 -5.371945e-01 6.721624e-02 -1.501170e+00 -6.553900e-01 -7.106320e-01 -3.315554e-01 -1.879611e-01 -2.705017e-01 5.538744e-02 3.084906e+00 2.436611e-02 -8.032344e-03 -1.379763e-02 -2.039248e-03 2.616501e-02 1.878365e-02 -8.537556e-03 1.712139e-03 3.303220e-03 -1.417057e-02 8.865424e-03 -1.670656e-03 -2.318689e-02 7.648105e-04 -1.061496e-04 1.257270e-04 2.238641e-04 -8.940927e-06 1.657363e-03 1.048517e-03 3.035947e-04 9.521980e-04 1.002337e-03 1.229223e-03 4.912889e-04 -2.718121e-03
<VARIANCE> 39
 8.655834e+01 5.772830e+01 8.524050e+01 6.040081e+01 7.179475e+01 5.848615e+01 5.931118e+01 5.681438e+01 6.481277e+01 5.154068e+01 4.534617e+01 2.918213e+01 1.147861e+02 1.695349e+00 1.227050e+00 1.494235e+00 1.618833e+00 1.430740e+00 1.271789e+00 1.396996e+00 1.304890e+00 1.403783e+00 1.182642e+00 1.072904e+00 7.446949e-01 1.637909e+00 1.397851e-01 1.140493e-01 1.291791e-01 1.649213e-01 1.506875e-01 1.395224e-01 1.557412e-01 1.434872e-01 1.495239e-01 1.341044e-01 1.241857e-01 8.896654e-02 1.308523e-01
<GCONST> 1.027417e+02
<TRANSP> 5
 0.000000e+00 1.000000e+00 0.000000e+00 0.000000e+00 0.000000e+00
 0.000000e+00 6.999625e-01 3.000375e-01 0.000000e+00 0.000000e+00
 0.000000e+00 0.000000e+00 6.999624e-01 3.000377e-01 0.000000e+00
 0.000000e+00 0.000000e+00 0.000000e+00 8.194144e-01 1.805856e-01
 0.000000e+00 0.000000e+00 0.000000e+00 0.000000e+00 0.000000e+00
<ENDHMM>
~h "t"
<BEGINHMM>
<NUMSTATES> 5
<STATE> 2
<MEAN> 39
 4.611081e-01 -5.552002e-01 7.755620e-03 -5.825349e-02 -1.618935e-01 -3.077297e-01 2.584744e-02 -1.482023e-01 1.174818e-01 -1.772674e-01 -4.763160e-01 -6.288946e-02 1.641428e+00 2.343496e-02 -1.682884e-02 1.480836e-02 -3.540509e-02 -1.327511e-02 -2.333706e-02 -2.152249e-02 -2.277832e-02 -3.148443e-02 -1.960530e-02 -2.062023e-02 -1.359532e-04 2.865688e-02 -6.064466e-04 2.353513e-04 -3.217642e-04 1.264956e-03 1.148563e-04 9.780781e-04 -2.025304e-03 2.690538e-04 -9.611672e-04 -6.616819e-04 3.326174e-04 -6.148601e-04 -2.919186e-03
<VARIANCE> 39
 6.145574e+01 5.062306e+01 8.053720e+01 6.304016e+01 6.915689e+01 5.463147e+01 5.543475e+01 5.615762e+01 6.585707e+01 4.963797e+01 4.588514e+01 2.871689e+01 1.733956e+02 1.072608e+00 1.034189e+00 1.262810e+00 1.319012e+00 1.318369e+00 1.126979e+00 1.265191e+00 1.241417e+00 1.344924e+00 1.032599e+00 9.355338e-01 6.872643e-01 2.154256e+00 1.002353e-01 9.944811e-02 1.134193e-01 1.298430e-01 1.397820e-01 1.258101e-01 1.467499e-01 1.425690e-01 1.461299e-01 1.207825e-01 1.070673e-01 8.526590e-02 1.889188e-01
<GCONST> 9.994596e+01
<STATE> 3
<MEAN> 39
 5.384082e-01 -6.127093e-01 5.453635e-02 -1.700824e-01 -2.098956e-01 -3.797157e-01 -5.377313e-02 -2.176659e-01 9.523747e-03 -2.390136e-01 -5.363321e-01 -7.258245e-02 1.722168e+00 2.177230e-02 -1.446253e-02 1.470662e-02 -2.997471e-02 -1.044207e-02 -1.777815e-02 -2.572036e-02 -2.018840e-02 -3.115849e-02 -1.951828e-02 -1.829721e-02 -2.842610e-03 1.818728e-02 -4.770824e-04 9.648482e-04 -1.967279e-05 1.655037e-03 8.008574e-04 1.670305e-03 -1.135871e-03 1.033190e-03 2.930154e-04 -2.097777e-05 7.896925e-04 -8.302336e-04 -2.757240e-03
<VARIANCE> 39
 5.924755e+01 5.039704e+01 8.027048e+01 6.205586e+01 6.953114e+01 5.376839e+01 5.490372e+01 5.606113e+01 6.575272e+01 4.988044e+01 4.573430e+01 2.869904e+01 1.735309e+02 1.062522e+00 1.039161e+00 1.259800e+00 1.323438e+00 1.325301e+00 1.133546e+00 1.279112e+00 1.244286e+00 1.342897e+00 1.032454e+00 9.446058e-01 6.924731e-01 2.170951e+00 9.928538e-02 9.948565e-02 1.135410e-01 1.305931e-01 1.409761e-01 1.267900e-01 1.483153e-01 1.431308e-01 1.458480e-01 1.208791e-01 1.082770e-01 8.617447e-02 1.899473e-01
<GCONST> 9.996264e+01
<STATE> 4
<MEAN> 39
 6.988291e-01 -7.017639e-01 1.196756e-01 -3.284302e-01 -2.806158e-01 -5.119439e-01 -1.999339e-01 -3.069919e-01 -1.840593e-01 -3.653739e-01 -6.325417e-01 -1.160992e-01 1.931577e+00 1.875193e-02 -1.150663e-02 1.215245e-02 -2.399543e-02 -5.516066e-03 -8.232698e-03 -2.628399e-02 -1.433979e-02 -2.443707e-02 -1.629933e-02 -1.562942e-02 -7.010616e-03 3.168596e-03 -6.797812e-04 9.209404e-04 -3.576720e-04 1.278889e-03 1.001886e-03 1.872694e-03 -1.836133e-04 1.249935e-03 1.119945e-03 3.195389e-04 4.455573e-04 -6.667012e-04 -2.824590e-03
<VARIANCE> 39
 5.692789e+01 4.992324e+01 7.968525e+01 6.114896e+01 6.934532e+01 5.298026e+01 5.380185e+01 5.538925e+01 6.689472e+01 5.075054e+01 4.562922e+01 2.857257e+01 1.730422e+02 1.048119e+00 1.036316e+00 1.254054e+00 1.325948e+00 1.321773e+00 1.140051e+00 1.287167e+00 1.247026e+00 1.349361e+00 1.033490e+00 9.527979e-01 6.932642e-01 2.203550e+00 9.766881e-02 9.830474e-02 1.134420e-01 1.308977e-01 1.409050e-01 1.277102e-01 1.488766e-01 1.438448e-01 1.456489e-01 1.205852e-01 1.094716e-01 8.621635e-02 1.892499e-01
<GCONST> 9.988192e+01
<TRANSP> 5
 0.000000e+00 1.000000e+00 0.000000e+00 0.000000e+00 0.000000e+00
 0.000000e+00 7.047775e-01 2.952226e-01 0.000000e+00 0.000000e+00
 0.000000e+00 0.000000e+00 7.047777e-01 2.952222e-01 0.000000e+00
 0.000000e+00 0.000000e+00 0.000000e+00 8.252498e-01 1.747502e-01
 0.000000e+00 0.000000e+00 0.000000e+00 0.000000e+00 0.000000e+00
<ENDHMM>
~h "u"
<BEGINHMM>
<NUMSTATES> 5
<STATE> 2
<MEAN> 39
 2.938663e-01 4.914882e-01 -2.477915e-01 -4.633182e-02 1.138254e+00 -4.286917e-02 -5.447853e-01 -3.039974e-01 5.879510e-02 2.413155e-01 4.234631e-01 2.323939e-01 -1.435410e+00 -8.705604e-03 -1.486416e-03 1.921108e-02 -5.803334e-03 -1.331214e-03 1.246424e-02 -5.341235e-03 3.885998e-03 -9.128766e-05 -6.789469e-03 -9.642177e-03 -1.124180e-02 -2.566956e-02 -8.291603e-04 -4.158621e-04 -1.117100e-03 -4.571152e-05 -1.540729e-03 5.369437e-04 6.314428e-04 1.533113e-04 -8.892332e-05 3.237379e-04 4.597478e-05 -5.551045e-04 -5.198193e-04
<VARIANCE> 39
 6.296222e+01 4.226302e+01 6.992693e+01 5.473803e+01 6.549013e+01 5.456641e+01 5.712875e+01 5.297793e+01 5.941307e+01 4.641979e+01 4.502605e+01 2.682238e+01 2.470177e+02 1.023485e+00 9.081473e-01 1.175309e+00 1.214973e+00 1.180138e+00 1.178444e+00 1.210370e+00 1.112000e+00 1.150766e+00 9.334750e-01 8.550794e-01 6.270387e-01 1.863823e+00 9.954687e-02 9.114198e-02 1.050922e-01 1.260374e-01 1.283288e-01 1.359183e-01 1.395902e-01 1.254500e-01 1.292860e-01 1.131460e-01 1.011771e-01 7.876567e-02 1.654799e-01
<GCONST> 9.754308e+01
<STATE> 3
<MEAN> 39
 2.604423e-01 4.829116e-01 -1.848065e-01 -6.609157e-02 1.126214e+00 -2.726651e-03 -5.602855e-01 -2.955150e-01 5.562663e-02 2.177782e-01 3.880058e-01 1.953584e-01 -1.533510e+00 -1.130534e-02 -3.398911e-03 1.513630e-02 -5.347001e-03 -6.253298e-03 1.313560e-02 -2.302291e-03 4.964677e-03 1.129248e-04 -5.931856e-03 -9.579817e-03 -1.230152e-02 -2.872042e-02 -6.462241e-04 -7.139919e-04 -1.677135e-03 1.986922e-04 -1.064911e-03 3.113300e-04 1.093709e-03 3.821837e-04 -3.118899e-05 6.834541e-05 4.541515e-05 4.980691e-05 -7.554925e-04
<VARIANCE> 39
 6.246542e+01 4.237661e+01 7.021960e+01 5.429879e+01 6.601235e+01 5.419713e+01 5.670519e+01 5.303693e+01 5.958664e+01 4.619081e+01 4.514967e+01 2.669072e+01 2.556308e+02 1.008606e+00 9.087901e-01 1.172018e+00 1.202318e+00 1.175368e+00 1.164563e+00 1.202255e+00 1.112532e+00 1.146443e+00 9.290323e-01 8.491078e-01 6.229120e-01 1.826630e+00 9.818117e-02 9.104155e-02 1.045315e-01 1.250088e-01 1.282054e-01 1.341993e-01 1.386162e-01 1.255600e-01 1.290454e-01 1.126168e-01 1.003283e-01 7.806197e-02 1.628073e-01
<GCONST> 9.737869e+01
<STATE> 4
<MEAN> 39
 2.487403e-01 4.679911e-01 -1.423246e-01 -1.117358e-01 1.052166e+00 -7.102681e-03 -5.712210e-01 -3.326969e-01 -1.536707e-02 1.616261e-01 3.063836e-01 1.624968e-01 -1.525961e+00 -1.368244e-02 -5.896811e-03 9.793967e-03 -2.427986e-03 -9.598642e-03 1.210899e-02 4.385088e-03 7.373811e-03 1.059284e-03 -5.036681e-03 -7.393179e-03 -1.011751e-02 -3.536702e-02 -3.309908e-04 -6.583843e-04 -1.561478e-03 7.027181e-04 -7.983936e-05 1.823701e-04 1.458325e-03 7.109127e-04 5.514235e-06 -3.689013e-04 4.431921e-04 6.322553e-04 -9.168429e-04
<VARIANCE> 39
 6.194544e+01 4.205570e+01 7.004478e+01 5.278278e+01 6.615697e+01 5.350119e+01 5.535378e+01 5.225155e+01 6.032933e+01 4.624109e+01 4.494605e+01 2.631265e+01 2.612269e+02 9.806841e-01 8.936822e-01 1.146322e+00 1.171242e+00 1.158857e+00 1.134108e+00 1.176597e+00 1.095734e+00 1.134727e+00 9.235455e-01 8.387695e-01 6.127956e-01 1.778015e+00 9.525140e-02 8.946403e-02 1.019403e-01 1.219721e-01 1.267217e-01 1.303670e-01 1.355839e-01 1.243753e-01 1.281534e-01 1.115711e-01 9.876170e-02 7.650556e-02 1.585486e-01
<GCONST> 9.680776e+01
<TRANSP> 5
 0.000000e+00 1.000000e+00 0.000000e+00 0.000000e+00 0.000000e+00
 0.000000e+00 7.074163e-01 2.925837e-01 0.000000e+00 0.000000e+00
 0.000000e+00 0.000000e+00 7.074153e-01 2.925847e-01 0.000000e+00
 0.000000e+00 0.000000e+00 0.000000e+00 8.280829e-01 1.719171e-01
 0.000000e+00 0.000000e+00 0.000000e+00 0.000000e+00 0.000000e+00
<ENDHMM>
~h "w"
<BEGINHMM>
<NUMSTATES> 5
<STATE> 2
<MEAN> 39
 5.746962e-01 -4.455375e-01 -1.681861e+00 -3.787726e-01 1.666096e+00 4.188561e-01 -2.105513e-01 2.448622e-01 3.078866e-01 -4.096707e-01 -3.648545e-01 -2.941594e-01 1.037315e+00 7.188312e-04 1.446500e-02 2.459639e-02 -2.300570e-02 2.957486e-03 -1.643840e-02 -2.978864e-03 -1.824599e-03 1.649929e-02 9.315965e-03 2.233549e-03 -3.343337e-03 9.935657e-03 -2.806765e-03 5.669366e-04 8.727129e-04 -4.523384e-05 -3.954684e-03 -1.467489e-03 -2.475352e-04 -1.124486e-03 -1.979176e-03 -4.726712e-04 8.739206e-04 4.483884e-04 -1.623087e-03
<VARIANCE> 39
 7.886611e+01 5.526836e+01 8.742061e+01 6.269447e+01 7.348201e+01 5.639454e+01 5.838290e+01 5.642150e+01 6.188167e+01 5.085266e+01 4.772820e+01 3.047332e+01 1.949031e+02 1.348854e+00 1.144401e+00 1.336698e+00 1.376647e+00 1.409332e+00 1.196063e+00 1.334901e+00 1.183910e+00 1.230573e+00 1.070976e+00 1.035450e+00 7.353926e-01 1.656614e+00 1.196007e-01 1.124960e-01 1.129243e-01 1.416949e-01 1.550434e-01 1.333418e-01 1.499692e-01 1.330894e-01 1.360265e-01 1.241181e-01 1.182217e-01 8.625914e-02 1.418440e-01
<GCONST> 1.013801e+02
<STATE> 3
<MEAN> 39
 5.585760e-01 -4.032946e-01 -1.588138e+00 -4.646138e-01 1.642369e+00 3.437677e-01 -2.270428e-01 2.141105e-01 3.307312e-01 -3.938570e-01 -3.622222e-01 -2.960799e-01 1.069522e+00 -8.241834e-03 1.443924e-02 2.658478e-02 -2.328222e-02 -1.006856e-02 -2.011741e-02 -4.066476e-03 -6.601844e-03 7.939299e-03 6.018780e-03 3.994776e-03 -1.240897e-03 2.779319e-03 -2.743784e-03 1.864479e-04 6.361409e-04 1.705105e-04 -3.543742e-03 -1.009293e-03 -2.707685e-04 -1.327637e-03 -2.592993e-03 -1.032798e-03 4.238313e-04 6.299967e-04 -2.334695e-03
<VARIANCE> 39
 7.684167e+01 5.443803e+01 8.728414e+01 6.225114e+01 7.385336e+01 5.592384e+01 5.810911e+01 5.628725e+01 6.178571e+01 5.045977e+01 4.765055e+01 3.069889e+01 1.974371e+02 1.348133e+00 1.131484e+00 1.330218e+00 1.382935e+00 1.398581e+00 1.199539e+00 1.331195e+00 1.188071e+00 1.239816e+00 1.065225e+00 1.029568e+00 7.407371e-01 1.652131e+00 1.197514e-01 1.114034e-01 1.123227e-01 1.429981e-01 1.542156e-01 1.336034e-01 1.498116e-01 1.335846e-01 1.367855e-01 1.237095e-01 1.179199e-01 8.712965e-02 1.428971e-01
<GCONST> 1.013256e+02
<STATE> 4
<MEAN> 39
 5.602447e-01 -3.358368e-01 -1.390425e+00 -6.408054e-01 1.480194e+00 2.063228e-01 -2.401946e-01 1.369235e-01 3.031201e-01 -3.613239e-01 -3.871481e-01 -2.957506e-01 1.240792e+00 -1.729186e-02 1.208558e-02 2.997778e-02 -2.201795e-02 -2.316435e-02 -2.213924e-02 -4.611894e-03 -1.252546e-02 -5.520071e-03 2.822746e-04 3.163318e-03 2.559931e-03 -7.401659e-03 -1.800557e-03 1.105194e-04 4.906700e-04 6.946347e-04 -1.928533e-03 6.722870e-05 3.004512e-05 -5.261137e-04 -1.904975e-03 -5.343868e-04 3.239530e-05 4.146512e-04 -2.660568e-03
<VARIANCE> 39
 7.521187e+01 5.341948e+01 8.700682e+01 6.167051e+01 7.320218e+01 5.496238e+01 5.712658e+01 5.505462e+01 6.260450e+01 5.070962e+01 4.750640e+01 3.061116e+01 1.999168e+02 1.346454e+00 1.103261e+00 1.308604e+00 1.378273e+00 1.377095e+00 1.189320e+00 1.309397e+00 1.168738e+00 1.254765e+00 1.053951e+00 1.011739e+00 7.346209e-01 1.657735e+00 1.196703e-01 1.088251e-01 1.103035e-01 1.430662e-01 1.516510e-01 1.320404e-01 1.479403e-01 1.322791e-01 1.379326e-01 1.224114e-01 1.157937e-01 8.715205e-02 1.430111e-01
<GCONST> 1.009958e+02
<TRANSP> 5
 0.000000e+00 1.000000e+00 0.000000e+00 0.000000e+00 0.000000e+00
 0.000000e+00 7.016442e-01 2.983558e-01 0.000000e+00 0.000000e+00
 0.000000e+00 0.000000e+00 7.016449e-01 2.983551e-01 0.000000e+00
 0.000000e+00 0.000000e+00 0.000000e+00 8.226373e-01 1.773627e-01
 0.000000e+00 0.000000e+00 0.000000e+00 0.000000e+00 0.000000e+00
<ENDHMM>
~h "y"
<BEGINHMM>
<NUMSTATES> 5
<STATE> 2
<MEAN> 39
 1.169751e+00 1.651849e-01 1.886501e+00 -1.643259e+00 -1.298201e+00 -4.514444e-01 -8.041735e-01 -8.082823e-01 -1.351759e+00 -7.393140e-01 -1.004324e+00 -4.882579e-01 3.734312e+00 1.200363e-02 6.737044e-03 -9.936137e-03 -6.071045e-03 6.789241e-03 -2.545505e-03 -2.242257e-03 1.741714e-02 1.803042e-02 5.672103e-03 -2.837682e-03 4.714955e-03 -3.432304e-02 6.591805e-04 -1.860276e-04 -2.317064e-03 1.078352e-03 8.024070e-04 6.286019e-04 1.913809e-03 1.753514e-04 5.160458e-04 6.894597e-04 1.081680e-03 7.923475e-06 -7.227020e-04
<VARIANCE> 39
 4.873360e+01 5.640086e+01 9.419793e+01 6.631020e+01 6.790939e+01 5.183952e+01 5.822154e+01 6.209816e+01 6.517582e+01 4.692123e+01 4.908359e+01 2.949939e+01 1.276168e+02 9.296489e-01 1.152419e+00 1.586510e+00 1.393874e+00 1.436100e+00 1.366704e+00 1.360948e+00 1.476890e+00 1.357226e+00 1.090690e+00 1.009778e+00 7.587590e-01 1.555220e+00 8.416329e-02 1.065994e-01 1.261598e-01 1.274041e-01 1.540086e-01 1.536413e-01 1.475018e-01 1.638402e-01 1.447713e-01 1.253713e-01 1.156976e-01 9.270132e-02 1.272863e-01
<GCONST> 1.007336e+02
<STATE> 3
<MEAN> 39
 1.209123e+00 1.947196e-01 1.849894e+00 -1.661892e+00 -1.275326e+00 -4.561650e-01 -7.997249e-01 -7.523948e-01 -1.291499e+00 -7.123600e-01 -1.003888e+00 -4.664477e-01 3.615787e+00 1.422163e-02 6.025855e-03 -1.751707e-02 -2.001124e-03 9.569447e-03 -3.948269e-04 3.964414e-03 1.772230e-02 1.861105e-02 7.520465e-03 9.760384e-04 4.895848e-03 -3.701989e-02 5.548684e-04 -1.342137e-04 -2.217981e-03 1.143309e-03 5.764189e-04 6.241226e-04 1.836078e-03 -5.111803e-05 -7.931612e-05 4.447585e-04 1.151406e-03 1.386705e-06 -5.585527e-04
<VARIANCE> 39
 4.872844e+01 5.636614e+01 9.408913e+01 6.556470e+01 6.803841e+01 5.208278e+01 5.852476e+01 6.228782e+01 6.475893e+01 4.675364e+01 4.934771e+01 2.943276e+01 1.326916e+02 9.191352e-01 1.149016e+00 1.596859e+00 1.388175e+00 1.436208e+00 1.369659e+00 1.366898e+00 1.477002e+00 1.355359e+00 1.091015e+00 1.011953e+00 7.549701e-01 1.558079e+00 8.371902e-02 1.063845e-01 1.269420e-01 1.277989e-01 1.543831e-01 1.544077e-01 1.483350e-01 1.639783e-01 1.449318e-01 1.253448e-01 1.160287e-01 9.236756e-02 1.280757e-01
<GCONST> 1.007822e+02
<STATE> 4
<MEAN> 39
 1.353338e+00 2.333961e-01 1.825352e+00 -1.692765e+00 -1.288215e+00 -4.656236e-01 -7.791645e-01 -6.342988e-01 -1.207964e+00 -6.543770e-01 -9.464473e-01 -4.600633e-01 3.539851e+00 1.494470e-02 6.052681e-03 -2.373988e-02 3.789673e-03 1.096381e-02 2.176047e-03 1.144742e-02 1.664757e-02 1.565083e-02 9.309394e-03 7.042278e-03 6.660461e-03 -3.999548e-02 2.743187e-04 -2.846584e-04 -1.923448e-03 1.305914e-03 3.966364e-04 4.252009e-04 1.460953e-03 -9.120900e-05 -5.556096e-04 8.194000e-05 1.135475e-03 4.180535e-05 -6.391181e-04
<VARIANCE> 39
 4.873225e+01 5.603699e+01 9.363090e+01 6.392586e+01 6.840936e+01 5.216139e+01 5.889637e+01 6.210402e+01 6.532770e+01 4.682150e+01 4.969985e+01 2.921382e+01 1.382264e+02 9.002110e-01 1.129704e+00 1.585463e+00 1.353754e+00 1.417412e+00 1.358577e+00 1.362152e+00 1.462639e+00 1.365677e+00 1.084231e+00 1.012491e+00 7.387835e-01 1.561885e+00 8.227018e-02 1.047619e-01 1.258983e-01 1.257263e-01 1.517968e-01 1.535171e-01 1.481208e-01 1.631695e-01 1.461023e-01 1.240381e-01 1.156740e-01 9.039804e-02 1.275135e-01
<GCONST> 1.005674e+02
<TRANSP> 5
 0.000000e+00 1.000000e+00 0.000000e+00 0.000000e+00 0.000000e+00
 0.000000e+00 7.054057e-01 2.945943e-01 0.000000e+00 0.000000e+00
 0.000000e+00 0.000000e+00 7.054056e-01 2.945944e-01 0.000000e+00
 0.000000e+00 0.000000e+00 0.000000e+00 8.260347e-01 1.739654e-01
 0.000000e+00 0.000000e+00 0.000000e+00 0.000000e+00 0.000000e+00
<ENDHMM>
~h "aa"
<BEGINHMM>
<NUMSTATES> 5
<STATE> 2
<MEAN> 39
 5.771530e-01 -1.005493e+00 -9.395403e-01 -3.681419e-01 2.693967e-01 3.416676e-01 -6.908568e-02 1.317193e-01 1.597237e-01 6.209055e-02 -7.993973e-01 -2.484535e-01 1.821214e+00 1.610857e-02 1.768114e-02 1.706902e-02 -2.084083e-02 1.085100e-02 -1.250946e-02 7.506494e-03 -5.345048e-03 -5.365564e-03 -1.325233e-03 -1.265077e-03 -7.735679e-05 7.922624e-03 5.112219e-04 9.910159e-04 1.234359e-03 1.218331e-03 -1.110354e-03 3.801376e-04 2.306759e-04 9.030832e-04 3.309412e-04 -2.905235e-04 1.452226e-03 9.916863e-05 -1.064252e-03
<VARIANCE> 39
 6.639103e+01 5.689046e+01 8.297074e+01 6.187287e+01 6.641367e+01 5.710029e+01 5.658148e+01 5.474546e+01 6.695261e+01 5.339946e+01 4.814872e+01 3.090646e+01 1.829858e+02 1.072980e+00 1.108352e+00 1.281429e+00 1.330045e+00 1.402048e+00 1.258890e+00 1.275739e+00 1.209378e+00 1.266935e+00 1.123977e+00 9.852180e-01 7.209221e-01 1.964954e+00 1.013144e-01 1.040773e-01 1.103591e-01 1.401096e-01 1.491492e-01 1.408539e-01 1.415403e-01 1.390231e-01 1.367555e-01 1.267615e-01 1.107053e-01 8.579347e-02 1.539767e-01
<GCONST> 1.007329e+02
<STATE> 3
<MEAN> 39
 6.348442e-01 -9.475750e-01 -8.787050e-01 -4.285822e-01 3.046743e-01 3.022880e-01 -4.975885e-02 1.194509e-01 1.428203e-01 5.277599e-02 -8.002166e-01 -2.488904e-01 1.841523e+00 1.708451e-02 1.915428e-02 1.894929e-02 -1.717978e-02 7.952204e-03 -1.264793e-02 5.556999e-03 -2.922624e-03 -5.557647e-03 -3.014969e-03 1.649987e-03 -9.911844e-04 4.499942e-03 2.740846e-04 3.248513e-04 5.362149e-04 1.178511e-03 -9.290702e-04 -1.196789e-04 -7.173429e-04 6.998820e-04 -2.115214e-05 -7.405475e-04 7.500402e-04 -2.830321e-04 -1.046532e-03
<VARIANCE> 39
 6.512019e+01 5.693242e+01 8.298263e+01 6.134299e+01 6.695734e+01 5.673988e+01 5.650612e+01 5.494862e+01 6.691940e+01 5.339101e+01 4.799297e+01 3.082343e+01 1.831353e+02 1.079493e+00 1.112891e+00 1.280031e+00 1.329817e+00 1.398586e+00 1.260551e+00 1.274389e+00 1.211728e+00 1.264774e+00 1.118474e+00 9.792520e-01 7.199332e-01 1.991441e+00 1.019885e-01 1.041929e-01 1.100943e-01 1.402743e-01 1.488852e-01 1.409537e-01 1.415962e-01 1.392254e-01 1.364971e-01 1.264953e-01 1.101290e-01 8.582800e-02 1.569234e-01
<GCONST> 1.007296e+02
<STATE> 4
<MEAN> 39
 8.014660e-01 -8.996544e-01 -7.194832e-01 -5.053812e-01 2.832395e-01 2.239140e-01 -6.427871e-02 1.086316e-01 1.584956e-01 3.511602e-02 -7.893503e-01 -2.846467e-01 1.931383e+00 1.514186e-02 1.519521e-02 1.642879e-02 -1.328053e-02 6.125103e-03 -1.360537e-02 -1.837524e-03 -2.040477e-03 -7.996641e-03 -6.987855e-03 1.000639e-03 -1.908496e-03 -1.274759e-03 -2.559659e-04 -4.565166e-04 -1.344446e-04 6.627392e-04 -6.193929e-04 -2.860005e-04 -1.192695e-03 2.634154e-04 -3.191254e-04 -8.240032e-04 1.264188e-04 -3.226847e-04 -1.119121e-03
<VARIANCE> 39
 6.334157e+01 5.699217e+01 8.354582e+01 6.054030e+01 6.779101e+01 5.635675e+01 5.615418e+01 5.539816e+01 6.870573e+01 5.392838e+01 4.781750e+01 3.062952e+01 1.834555e+02 1.086042e+00 1.114411e+00 1.273630e+00 1.320658e+00 1.386160e+00 1.265730e+00 1.265895e+00 1.214547e+00 1.274533e+00 1.111818e+00 9.702392e-01 7.123140e-01 2.038286e+00 1.027133e-01 1.040427e-01 1.091374e-01 1.389947e-01 1.475959e-01 1.413120e-01 1.407832e-01 1.395418e-01 1.367097e-01 1.259035e-01 1.091356e-01 8.501241e-02 1.606668e-01
<GCONST> 1.007035e+02
<TRANSP> 5
 0.000000e+00 1.000000e+00 0.000000e+00 0.000000e+00 0.000000e+00
 0.000000e+00 7.082203e-01 2.917797e-01 0.000000e+00 0.000000e+00
 0.000000e+00 0.000000e+00 7.082189e-01 2.917811e-01 0.000000e+00
 0.000000e+00 0.000000e+00 0.000000e+00 8.289535e-01 1.710465e-01
 0.000000e+00 0.000000e+00 0.000000e+00 0.000000e+00 0.000000e+00
<ENDHMM>
~h "ai"
<BEGINHMM>
<NUMSTATES> 5
<STATE> 2
<MEAN> 39
 -1.596361e-01 4.940994e-01 -4.843698e-01 1.897393e+00 4.085882e-01 4.910199e-01 1.235011e+00 5.207270e-01 -7.261909e-02 -2.596218e-01 -5.156071e-01 4.923056e-02 -5.594568e-01 1.008210e-01 1.097210e-03 4.788709e-02 -5.506285e-02 1.634832e-02 -3.932084e-02 1.344248e-02 -2.827156e-03 -4.022469e-02 -7.905990e-04 -4.134275e-02 2.001658e-02 1.491873e-01 -2.253134e-03 -1.032493e-02 6.178110e-04 -4.188151e-03 -6.769450e-03 -1.894123e-03 -4.733049e-03 6.183377e-05 -4.645166e-03 -1.436180e-04 -2.574216e-03 -7.405274e-04 -1.668722e-03
<VARIANCE> 39
 6.860017e+01 4.351566e+01 6.098473e+01 6.747147e+01 6.606728e+01 5.492652e+01 4.923182e+01 5.638541e+01 6.333268e+01 4.739208e+01 3.852732e+01 2.710780e+01 1.975722e+02 8.549840e-01 9.284853e-01 1.020677e+00 1.274156e+00 1.190379e+00 1.021005e+00 1.084906e+00 1.309539e+00 1.211567e+00 9.148257e-01 7.848544e-01 6.683387e-01 2.339449e+00 7.998039e-02 8.420921e-02 9.023508e-02 1.306874e-01 1.196459e-01 1.146073e-01 1.351877e-01 1.526933e-01 1.170918e-01 1.101426e-01 9.548506e-02 8.279660e-02 1.975363e-01
<GCONST> 9.683288e+01
<STATE> 3
<MEAN> 39
 1.679769e-01 3.847577e-01 -2.967115e-01 1.608944e+00 3.407337e-01 2.758672e-01 1.210455e+00 4.710334e-01 -2.969688e-01 -2.971879e-01 -7.174464e-01 1.082462e-01 4.400087e-02 8.351927e-02 -3.102989e-02 5.023554e-02 -7.521174e-02 -1.495574e-02 -5.020032e-02 -3.758835e-03 -8.663989e-03 -5.852200e-02 -1.079071e-03 -4.834104e-02 1.596479e-02 1.416776e-01 -4.607110e-03 -9.364638e-03 4.786205e-05 -5.716421e-03 -7.847091e-03 -3.003889e-03 -4.867628e-03 -1.304926e-03 -5.415346e-03 -4.137659e-04 -2.404160e-03 -1.505731e-03 -1.286345e-03
<VARIANCE> 39
 6.291261e+01 4.251974e+01 6.078638e+01 6.774065e+01 6.784969e+01 5.345069e+01 4.982400e+01 5.712799e+01 6.484399e+01 4.868148e+01 3.704903e+01 2.741035e+01 1.900013e+02 8.613918e-01 9.075530e-01 1.042406e+00 1.319254e+00 1.215057e+00 1.035738e+00 1.120470e+00 1.318531e+00 1.228705e+00 9.435554e-01 7.691939e-01 6.780240e-01 2.331794e+00 7.977416e-02 8.281037e-02 9.036736e-02 1.332698e-01 1.194855e-01 1.139559e-01 1.383975e-01 1.538611e-01 1.176497e-01 1.123278e-01 9.397267e-02 8.368947e-02 1.969512e-01
<GCONST> 9.692397e+01
<STATE> 4
<MEAN> 39
 3.617114e-01 -1.117984e-02 -8.725744e-02 1.004828e+00 5.179481e-02 -1.703805e-01 1.021642e+00 3.115900e-01 -9.183297e-01 -5.313427e-01 -1.004559e+00 2.086591e-01 7.875450e-01 5.277339e-02 -6.306356e-02 5.706879e-02 -1.043881e-01 -6.464234e-02 -6.751712e-02 -2.700648e-02 -2.312620e-02 -7.614660e-02 -7.985244e-03 -4.920703e-02 5.165462e-03 1.383413e-01 -5.531954e-03 -4.175490e-03 -2.748861e-04 -3.177604e-03 -5.300899e-03 -1.190059e-03 -3.185347e-03 -1.904314e-03 -2.172357e-03 -9.885217e-04 7.176916e-04 -1.633067e-03 -3.062060e-03
<VARIANCE> 39
 5.502541e+01 4.258960e+01 6.055006e+01 6.472658e+01 6.919225e+01 5.057144e+01 4.828862e+01 5.778701e+01 6.945767e+01 5.038577e+01 3.494960e+01 2.808438e+01 1.844247e+02 8.379712e-01 9.017943e-01 1.056219e+00 1.303109e+00 1.181874e+00 1.050645e+00 1.136193e+00 1.321062e+00 1.254251e+00 9.591523e-01 7.490161e-01 7.035125e-01 2.325166e+00 7.677846e-02 8.125326e-02 8.878500e-02 1.302048e-01 1.148828e-01 1.126482e-01 1.397654e-01 1.546415e-01 1.190634e-01 1.120383e-01 9.276906e-02 8.607794e-02 1.938177e-01
<GCONST> 9.661422e+01
<TRANSP> 5
 0.000000e+00 1.000000e+00 0.000000e+00 0.000000e+00 0.000000e+00
 0.000000e+00 7.127522e-01 2.872478e-01 0.000000e+00 0.000000e+00
 0.000000e+00 0.000000e+00 7.127519e-01 2.872481e-01 0.000000e+00
 0.000000e+00 0.000000e+00 0.000000e+00 8.362664e-01 1.637336e-01
 0.000000e+00 0.000000e+00 0.000000e+00 0.000000e+00 0.000000e+00
<ENDHMM>
~h "bb"
<BEGINHMM>
<NUMSTATES> 5
<STATE> 2
<MEAN> 39
 4.721270e-01 -3.900926e-01 -1.224844e+00 -1.228601e+00 1.499793e-01 2.579568e-01 -1.051861e+00 2.564763e-01 -5.583915e-01 -6.946115e-01 -1.079230e+00 -8.015562e-01 1.483320e+00 -8.951078e-03 -7.416619e-03 3.107879e-02 1.245052e-02 1.637095e-02 -1.082823e-02 1.569966e-02 -1.338405e-03 -4.085372e-03 -2.388585e-02 -3.236539e-02 -1.268691e-02 7.592881e-02 4.230265e-05 -7.336696e-04 2.362181e-03 -2.149127e-03 -3.351312e-03 -1.750961e-03 1.191108e-03 2.252369e-04 -2.248994e-03 2.060741e-03 -1.071134e-03 5.976168e-04 3.288716e-03
<VARIANCE> 39
 5.933271e+01 4.754049e+01 7.113421e+01 5.378598e+01 4.521668e+01 4.199944e+01 4.105761e+01 4.118690e+01 5.652728e+01 3.899211e+01 4.583669e+01 2.644911e+01 1.794180e+02 1.168825e+00 8.848256e-01 1.270980e+00 1.357158e+00 1.059392e+00 1.187768e+00 1.032946e+00 1.132959e+00 1.120271e+00 9.524786e-01 1.081332e+00 6.977503e-01 1.962456e+00 1.041381e-01 9.062816e-02 1.051435e-01 1.506303e-01 1.142606e-01 1.425192e-01 1.211681e-01 1.374199e-01 1.186969e-01 1.233692e-01 1.212409e-01 8.205327e-02 1.351673e-01
<GCONST> 9.640845e+01
<STATE> 3
<MEAN> 39
 4.685968e-01 -4.255864e-01 -1.126399e+00 -1.195095e+00 1.897626e-01 2.183060e-01 -9.990153e-01 2.470730e-01 -5.877519e-01 -7.559394e-01 -1.190051e+00 -8.520622e-01 1.780481e+00 -7.668154e-03 -9.844070e-03 3.745262e-02 5.998446e-03 7.016408e-03 -1.543002e-02 1.775065e-02 -1.134396e-03 -9.474763e-03 -1.671036e-02 -3.444885e-02 -1.125696e-02 8.502031e-02 7.624530e-04 -8.739151e-04 1.663390e-03 -2.424968e-03 -2.791483e-03 -1.245051e-03 3.522671e-04 -4.466255e-04 -1.774956e-03 2.478938e-03 -8.284128e-05 2.538426e-04 2.172922e-03
<VARIANCE> 39
 5.966694e+01 4.653455e+01 7.182912e+01 5.441074e+01 4.573750e+01 4.211845e+01 4.011620e+01 4.157694e+01 5.655910e+01 3.871539e+01 4.664735e+01 2.673987e+01 1.707072e+02 1.162773e+00 8.879693e-01 1.262341e+00 1.367605e+00 1.075736e+00 1.185598e+00 1.028519e+00 1.142902e+00 1.134657e+00 9.578578e-01 1.092320e+00 7.008978e-01 1.937291e+00 1.029351e-01 9.165738e-02 1.046080e-01 1.503160e-01 1.149117e-01 1.428768e-01 1.204898e-01 1.371677e-01 1.198886e-01 1.251055e-01 1.216077e-01 8.189479e-02 1.349276e-01
<GCONST> 9.644038e+01
<STATE> 4
<MEAN> 39
 5.222582e-01 -4.013538e-01 -1.075175e+00 -1.361971e+00 1.743157e-01 1.386131e-01 -9.154337e-01 1.759225e-01 -7.047932e-01 -8.170975e-01 -1.264446e+00 -8.861921e-01 1.961919e+00 3.256097e-05 -1.322790e-02 3.634895e-02 -1.375291e-03 -2.394988e-03 -1.887835e-02 1.404622e-02 -2.027977e-03 -9.879783e-03 -6.216181e-03 -3.184214e-02 -1.083439e-02 9.836660e-02 8.931608e-04 -6.375207e-04 5.596230e-04 -2.221508e-03 -1.893430e-03 -7.818978e-04 -6.219115e-04 -7.439000e-04 -3.942891e-04 2.452367e-03 1.003442e-03 2.769398e-04 6.435184e-04
<VARIANCE> 39
 6.095530e+01 4.597764e+01 7.303210e+01 5.636104e+01 4.689500e+01 4.202386e+01 3.857559e+01 4.166866e+01 5.799262e+01 3.860379e+01 4.711098e+01 2.730261e+01 1.685359e+02 1.152173e+00 8.850799e-01 1.245781e+00 1.369219e+00 1.080555e+00 1.159285e+00 1.016987e+00 1.136594e+00 1.184642e+00 9.748880e-01 1.096754e+00 7.066843e-01 1.995451e+00 1.004538e-01 9.207878e-02 1.027913e-01 1.471862e-01 1.138369e-01 1.388214e-01 1.181516e-01 1.357138e-01 1.240858e-01 1.273636e-01 1.213397e-01 8.125376e-02 1.381088e-01
<GCONST> 9.650944e+01
<TRANSP> 5
 0.000000e+00 1.000000e+00 0.000000e+00 0.000000e+00 0.000000e+00
 0.000000e+00 7.032968e-01 2.967033e-01 0.000000e+00 0.000000e+00
 0.000000e+00 0.000000e+00 7.032969e-01 2.967031e-01 0.000000e+00
 0.000000e+00 0.000000e+00 0.000000e+00 8.228058e-01 1.771942e-01
 0.000000e+00 0.000000e+00 0.000000e+00 0.000000e+00 0.000000e+00
<ENDHMM>
~h "bh"
<BEGINHMM>
<NUMSTATES> 5
<STATE> 2
<MEAN> 39
 6.946161e-01 -5.800320e-01 1.934413e+00 -7.491778e-01 -3.825706e+00 -8.401662e-01 2.221169e+00 2.570559e-01 3.442023e-01 4.000617e-01 -1.028727e+00 -6.954493e-01 2.249247e+00 -2.537000e-04 -4.773401e-02 -4.085519e-02 5.192768e-02 5.555297e-02 -2.649674e-02 1.391508e-02 6.381611e-02 -3.154527e-02 -3.773895e-02 -1.893187e-02 1.773925e-02 -3.409227e-02 -7.783945e-04 2.661883e-03 1.059376e-03 -1.370966e-03 4.096710e-04 -5.450795e-04 9.551186e-04 1.189081e-05 8.949370e-05 8.688066e-04 1.225538e-03 1.324332e-03 7.734943e-04
<VARIANCE> 39
 6.437611e+01 4.983863e+01 6.104567e+01 6.284373e+01 8.466927e+01 6.550822e+01 5.146181e+01 6.784961e+01 6.228050e+01 5.049097e+01 4.925822e+01 2.594481e+01 2.031302e+02 1.292510e+00 1.089642e+00 1.507164e+00 1.668392e+00 1.936797e+00 1.227201e+00 1.058375e+00 1.746387e+00 1.328024e+00 1.163689e+00 1.154206e+00 6.397225e-01 2.718529e+00 1.095940e-01 1.144141e-01 1.241046e-01 1.695452e-01 1.878212e-01 1.463488e-01 1.058565e-01 1.683844e-01 1.353398e-01 1.243847e-01 1.259727e-01 7.451082e-02 2.434919e-01
<GCONST> 1.031522e+02
<STATE> 3
<MEAN> 39
 6.705207e-01 -7.309157e-01 1.789933e+00 -5.886514e-01 -3.621733e+00 -9.259315e-01 2.261817e+00 4.706886e-01 2.432544e-01 2.708020e-01 -1.089155e+00 -6.288652e-01 2.108889e+00 -2.541077e-03 -3.815309e-02 -3.671362e-02 4.627176e-02 5.626134e-02 -2.768330e-02 1.653502e-02 6.287061e-02 -3.114106e-02 -3.439394e-02 -1.509667e-02 2.143904e-02 -3.101636e-02 -8.812307e-04 3.231951e-03 1.692047e-03 -2.181959e-03 -3.441017e-04 -1.377931e-05 5.434022e-04 -7.133346e-04 2.788857e-04 1.599018e-03 1.315412e-03 9.069286e-04 9.232995e-04
<VARIANCE> 39
 6.602835e+01 4.879524e+01 5.967979e+01 6.195507e+01 8.294849e+01 6.589980e+01 5.003349e+01 6.685307e+01 6.138883e+01 5.079716e+01 4.962098e+01 2.632808e+01 2.089299e+02 1.300489e+00 1.092278e+00 1.474825e+00 1.655744e+00 1.892948e+00 1.218944e+00 1.037257e+00 1.742512e+00 1.306092e+00 1.157183e+00 1.166646e+00 6.420565e-01 2.694119e+00 1.098599e-01 1.151045e-01 1.211437e-01 1.691991e-01 1.845461e-01 1.448214e-01 1.050990e-01 1.693196e-01 1.327029e-01 1.243612e-01 1.276961e-01 7.428839e-02 2.383133e-01
<GCONST> 1.029358e+02
<STATE> 4
<MEAN> 39
 4.385404e-01 -7.927404e-01 1.577538e+00 -3.994099e-01 -3.364514e+00 -1.039642e+00 2.249453e+00 8.074501e-01 2.121014e-01 3.040479e-01 -9.171180e-01 -5.245323e-01 1.600403e+00 -1.012264e-02 -2.422373e-02 -3.072125e-02 3.231554e-02 5.629724e-02 -2.446052e-02 1.376577e-02 5.532276e-02 -2.864711e-02 -2.874755e-02 -1.119710e-02 2.254149e-02 -3.271092e-02 -8.553423e-04 3.410188e-03 2.295267e-03 -2.813032e-03 -1.017570e-03 4.844175e-04 -4.106656e-05 -1.471146e-03 1.816569e-04 2.216773e-03 1.269304e-03 2.449207e-04 1.070265e-03
<VARIANCE> 39
 7.108913e+01 4.701529e+01 5.833273e+01 5.982859e+01 8.236104e+01 6.784833e+01 4.705359e+01 6.561677e+01 6.098884e+01 5.050003e+01 4.899897e+01 2.661218e+01 2.224598e+02 1.350870e+00 1.067712e+00 1.406627e+00 1.600325e+00 1.817536e+00 1.195440e+00 9.856219e-01 1.718372e+00 1.277746e+00 1.120618e+00 1.125141e+00 6.277301e-01 2.635458e+00 1.129597e-01 1.125701e-01 1.150602e-01 1.642106e-01 1.769903e-01 1.388474e-01 1.021455e-01 1.695273e-01 1.302829e-01 1.226675e-01 1.241189e-01 7.159341e-02 2.231630e-01
<GCONST> 1.022288e+02
<TRANSP> 5
 0.000000e+00 1.000000e+00 0.000000e+00 0.000000e+00 0.000000e+00
 0.000000e+00 7.119057e-01 2.880944e-01 0.000000e+00 0.000000e+00
 0.000000e+00 0.000000e+00 7.119055e-01 2.880945e-01 0.000000e+00
 0.000000e+00 0.000000e+00 0.000000e+00 8.327264e-01 1.672737e-01
 0.000000e+00 0.000000e+00 0.000000e+00 0.000000e+00 0.000000e+00
<ENDHMM>
~h "dd"
<BEGINHMM>
<NUMSTATES> 5
<STATE> 2
<MEAN> 39
 -1.094894e+00 1.555784e+00 4.814138e-01 6.837064e-01 5.738744e-01 2.321175e-01 4.042442e-01 -8.795534e-01 -3.147274e-01 -1.170188e-01 5.780555e-01 3.086527e-01 -2.441424e+00 -5.961139e-02 4.610478e-03 -1.928039e-02 2.857371e-02 4.741436e-02 1.047256e-02 3.444359e-03 3.403028e-03 5.341062e-03 8.959977e-03 6.025531e-02 2.596891e-02 -1.511013e-01 2.357837e-03 -9.536511e-04 -8.677295e-04 -1.955238e-03 -5.497861e-04 -2.349918e-03 1.681595e-04 1.007434e-03 2.948732e-05 3.377187e-04 -6.021010e-05 1.033380e-03 -8.098498e-04
<VARIANCE> 39
 4.996607e+01 4.659377e+01 6.499536e+01 5.470635e+01 6.463950e+01 5.628243e+01 4.928010e+01 5.426142e+01 5.663798e+01 4.837584e+01 4.177017e+01 2.777477e+01 1.785408e+02 9.607131e-01 8.528130e-01 1.120503e+00 1.326397e+00 1.104335e+00 1.167644e+00 1.095583e+00 1.149749e+00 1.030080e+00 8.871655e-01 8.422990e-01 6.422476e-01 2.170067e+00 8.689169e-02 7.710601e-02 9.606939e-02 1.275931e-01 1.190720e-01 1.204110e-01 1.250021e-01 1.249563e-01 1.134347e-01 9.817945e-02 9.561912e-02 7.493085e-02 1.739861e-01
<GCONST> 9.560977e+01
<STATE> 3
<MEAN> 39
 -1.287413e+00 1.557692e+00 4.075226e-01 7.863081e-01 7.416727e-01 2.600178e-01 4.201995e-01 -8.597082e-01 -2.914379e-01 -9.304005e-02 7.828432e-01 4.033827e-01 -2.937725e+00 -5.181664e-02 2.319769e-03 -2.308945e-02 2.200896e-02 4.543820e-02 3.139808e-03 3.282582e-03 6.486577e-03 5.914352e-03 1.060457e-02 6.004584e-02 2.852953e-02 -1.553719e-01 3.432095e-03 -2.800096e-04 -6.506173e-04 -2.372732e-03 -8.573628e-04 -1.229639e-03 4.211894e-05 5.798053e-04 3.351052e-04 8.431824e-04 -7.545840e-04 2.861395e-04 -1.684793e-04
<VARIANCE> 39
 5.182613e+01 4.570098e+01 6.496619e+01 5.537125e+01 6.635470e+01 5.458673e+01 4.954105e+01 5.408838e+01 5.727526e+01 4.806800e+01 4.177271e+01 2.764755e+01 1.915546e+02 9.855350e-01 8.471978e-01 1.111059e+00 1.303244e+00 1.100816e+00 1.153730e+00 1.091828e+00 1.118699e+00 1.017860e+00 8.800878e-01 8.384351e-01 6.287701e-01 2.190428e+00 8.919042e-02 7.708245e-02 9.662642e-02 1.247689e-01 1.179644e-01 1.192444e-01 1.241529e-01 1.221445e-01 1.114286e-01 9.696451e-02 9.581890e-02 7.337218e-02 1.765315e-01
<GCONST> 9.554316e+01
<STATE> 4
<MEAN> 39
 -1.390292e+00 1.573561e+00 3.809022e-01 8.931711e-01 9.372318e-01 2.309023e-01 5.053310e-01 -7.946948e-01 -2.375348e-01 -2.323903e-02 9.872794e-01 5.077631e-01 -3.383220e+00 -4.060788e-02 -2.224912e-04 -2.942739e-02 1.529101e-02 4.427598e-02 -1.275236e-03 1.798355e-03 8.931507e-03 8.746027e-03 1.329590e-02 5.795274e-02 2.773351e-02 -1.552648e-01 3.770845e-03 1.017278e-04 -8.728479e-04 -2.416078e-03 -1.139597e-03 -2.930422e-04 -5.034874e-04 1.796031e-04 5.957916e-04 1.035384e-03 -1.416578e-03 -8.983023e-04 9.940774e-04
<VARIANCE> 39
 5.421651e+01 4.538795e+01 6.479877e+01 5.442245e+01 6.813355e+01 5.204446e+01 4.908158e+01 5.300296e+01 5.835917e+01 4.813317e+01 4.163580e+01 2.751321e+01 2.083279e+02 1.022725e+00 8.487589e-01 1.080029e+00 1.247271e+00 1.099656e+00 1.123273e+00 1.083869e+00 1.071639e+00 1.012982e+00 8.759251e-01 8.321314e-01 6.114505e-01 2.223593e+00 9.212850e-02 7.738117e-02 9.491550e-02 1.196634e-01 1.163363e-01 1.168903e-01 1.223699e-01 1.176845e-01 1.090619e-01 9.585864e-02 9.599011e-02 7.121588e-02 1.774057e-01
<GCONST> 9.530026e+01
<TRANSP> 5
 0.000000e+00 1.000000e+00 0.000000e+00 0.000000e+00 0.000000e+00
 0.000000e+00 7.007675e-01 2.992324e-01 0.000000e+00 0.000000e+00
 0.000000e+00 0.000000e+00 7.007673e-01 2.992327e-01 0.000000e+00
 0.000000e+00 0.000000e+00 0.000000e+00 8.199169e-01 1.800831e-01
 0.000000e+00 0.000000e+00 0.000000e+00 0.000000e+00 0.000000e+00
<ENDHMM>
~h "dh"
<BEGINHMM>
<NUMSTATES> 5
<STATE> 2
<MEAN> 39
 1.010596e+00 -5.801432e-01 6.486903e-01 -5.216972e-01 -3.627506e-01 -1.403874e-01 1.031732e-01 -1.527750e+00 -1.193070e+00 -1.061837e+00 -1.151152e+00 -7.779508e-01 2.010317e+00 -9.121722e-03 9.533633e-02 8.171386e-02 -8.762283e-02 -4.873939e-02 4.799179e-03 -4.171894e-02 -8.206487e-02 -2.346360e-02 -5.486449e-02 -2.208857e-02 2.475756e-02 7.810315e-02 1.982029e-03 -1.484149e-03 4.797846e-04 -5.584433e-04 4.458894e-03 2.212476e-03 -1.445074e-03 4.416202e-03 1.877794e-03 1.130922e-03 5.157805e-04 -9.108319e-04 3.409859e-03
<VARIANCE> 39
 3.866633e+01 4.482248e+01 5.656507e+01 6.303735e+01 6.500130e+01 3.999477e+01 5.658090e+01 5.883159e+01 6.119579e+01 4.646124e+01 4.061677e+01 3.132402e+01 1.904119e+02 8.211184e-01 1.002407e+00 1.008984e+00 1.252475e+00 1.271914e+00 9.979551e-01 1.192092e+00 1.126511e+00 1.500435e+00 9.961409e-01 9.409546e-01 8.797159e-01 2.257426e+00 8.055519e-02 9.941959e-02 9.189814e-02 1.205963e-01 1.428583e-01 1.195392e-01 1.242143e-01 1.093649e-01 1.599510e-01 1.209170e-01 1.075891e-01 1.009389e-01 1.677316e-01
<GCONST> 9.728573e+01
<STATE> 3
<MEAN> 39
 9.851575e-01 -2.483314e-01 9.562860e-01 -8.406938e-01 -5.208350e-01 -1.124493e-01 -6.783169e-02 -1.779172e+00 -1.292022e+00 -1.255914e+00 -1.216529e+00 -6.870410e-01 2.317680e+00 -1.032702e-03 8.634075e-02 7.964881e-02 -9.018603e-02 -3.634857e-02 7.460915e-03 -4.615014e-02 -6.331805e-02 -1.776743e-02 -4.995949e-02 -2.007127e-02 2.057928e-02 9.289072e-02 2.545038e-03 -2.819593e-03 -9.031535e-04 -5.105981e-04 3.386281e-03 3.253903e-06 -8.286444e-04 5.323146e-03 1.317563e-03 1.536826e-03 4.426267e-04 -1.416384e-03 3.652558e-03
<VARIANCE> 39
 3.855890e+01 4.637087e+01 5.765411e+01 6.411575e+01 6.500877e+01 4.012388e+01 5.737337e+01 5.971477e+01 6.169116e+01 4.603245e+01 3.951203e+01 3.160305e+01 1.892252e+02 7.995970e-01 1.025112e+00 9.981604e-01 1.229469e+00 1.278546e+00 9.865219e-01 1.215186e+00 1.142291e+00 1.502779e+00 1.007980e+00 9.289368e-01 8.853033e-01 2.257262e+00 7.768243e-02 1.009517e-01 9.077030e-02 1.170066e-01 1.434482e-01 1.195921e-01 1.240728e-01 1.113734e-01 1.573449e-01 1.224801e-01 1.059715e-01 1.011992e-01 1.667378e-01
<GCONST> 9.729491e+01
<STATE> 4
<MEAN> 39
 1.001680e+00 2.692166e-01 1.560064e+00 -1.491885e+00 -8.844793e-01 -1.507452e-01 -3.821574e-01 -2.056402e+00 -1.616386e+00 -1.512982e+00 -1.264412e+00 -5.713873e-01 2.801066e+00 9.529978e-03 6.393860e-02 6.983266e-02 -9.025815e-02 -3.198898e-02 -1.247981e-03 -4.564350e-02 -2.969662e-02 -1.757933e-02 -4.257353e-02 -1.353664e-02 1.573891e-02 1.129408e-01 2.607786e-03 -4.266494e-03 -2.580957e-03 5.673777e-04 1.689852e-03 -1.968679e-03 9.468467e-04 5.837162e-03 1.185487e-03 1.852153e-03 7.125246e-04 -1.695671e-03 2.782255e-03
<VARIANCE> 39
 3.930259e+01 4.776644e+01 6.181107e+01 6.606736e+01 6.554495e+01 4.061902e+01 6.043966e+01 5.972541e+01 6.343105e+01 4.603736e+01 3.936779e+01 3.244245e+01 1.897219e+02 7.595554e-01 1.030660e+00 9.844269e-01 1.185462e+00 1.267326e+00 9.708403e-01 1.284818e+00 1.159968e+00 1.481344e+00 1.014882e+00 9.176950e-01 8.771403e-01 2.247207e+00 7.183160e-02 1.002122e-01 8.875164e-02 1.111011e-01 1.410436e-01 1.184041e-01 1.243755e-01 1.147589e-01 1.508952e-01 1.235205e-01 1.036776e-01 9.981277e-02 1.649923e-01
<GCONST> 9.725158e+01
<TRANSP> 5
 0.000000e+00 1.000000e+00 0.000000e+00 0.000000e+00 0.000000e+00
 0.000000e+00 7.192037e-01 2.807963e-01 0.000000e+00 0.000000e+00
 0.000000e+00 0.000000e+00 7.192040e-01 2.807960e-01 0.000000e+00
 0.000000e+00 0.000000e+00 0.000000e+00 8.411379e-01 1.588621e-01
 0.000000e+00 0.000000e+00 0.000000e+00 0.000000e+00 0.000000e+00
<ENDHMM>
~h "dx"
<BEGINHMM>
<NUMSTATES> 5
<STATE> 2
<MEAN> 39
 2.588755e+00 5.768960e-01 -4.347689e-01 -7.969785e-01 -1.327059e+00 -2.166562e-01 -4.553003e-01 -1.227110e+00 -7.818660e-01 3.266913e-01 1.521718e-01 1.257015e-01 1.764724e+00 -2.562415e-02 3.634649e-02 -3.342791e-02 -2.748521e-02 6.775776e-02 3.036267e-02 1.477243e-02 -3.818573e-03 8.983856e-03 1.936984e-02 4.643771e-02 2.903880e-02 -1.252613e-01 -3.287666e-03 -1.128259e-04 2.116756e-03 5.455380e-04 4.350787e-04 1.590978e-05 -2.433401e-04 7.035326e-04 1.116078e-03 -1.349679e-03 -1.690402e-03 3.003683e-04 -1.548785e-03
<VARIANCE> 39
 5.191534e+01 5.625418e+01 9.152618e+01 6.802927e+01 7.794837e+01 5.299185e+01 5.642968e+01 6.017509e+01 6.750844e+01 4.960667e+01 4.442173e+01 2.966385e+01 1.283663e+02 9.242565e-01 1.098325e+00 1.525954e+00 1.707498e+00 1.475465e+00 1.303624e+00 1.346552e+00 1.344057e+00 1.285123e+00 1.038552e+00 9.665496e-01 7.442198e-01 1.830616e+00 8.517804e-02 1.038071e-01 1.367735e-01 1.767820e-01 1.573549e-01 1.451405e-01 1.504575e-01 1.458486e-01 1.392996e-01 1.234102e-01 1.187258e-01 9.189446e-02 1.655678e-01
<GCONST> 1.013597e+02
<STATE> 3
<MEAN> 39
