~o
<STREAMINFO> 1 39
<VECSIZE> 39<NULLD><MFCC_D_A_Z_0><DIAGC>
~s "silst"
<MEAN> 39
 -2.964389e+00 -1.521990e+00 -5.795958e+00 8.567723e+00 3.560835e+00 4.951440e+00 -6.519842e-01 -4.916368e-02 1.457381e+00 8.353892e-01 3.801951e+00 7.916723e-01 -1.092807e+01 4.973654e-03 3.378809e-02 -1.205940e-02 1.041121e-02 2.942066e-03 5.097983e-03 -1.775350e-02 -7.266555e-02 3.152006e-03 -1.260980e-03 -7.042155e-02 -1.111652e-02 1.352455e-02 1.240429e-02 1.052591e-02 1.994482e-02 2.385204e-03 1.561223e-02 8.493719e-03 1.258930e-02 1.118237e-02 1.500029e-02 -1.729200e-03 -2.973313e-03 8.014726e-03 8.483474e-03
<VARIANCE> 39
 1.103956e+01 4.904027e+01 2.252163e+01 3.630777e+01 2.835450e+01 3.354075e+01 6.324182e+01 3.400117e+01 3.513583e+01 3.317222e+01 3.306814e+01 1.934633e+01 3.992556e+01 1.300723e-01 1.489424e-01 2.343270e-01 2.871477e-01 3.757460e-01 4.978756e-01 4.861462e-01 4.725906e-01 4.118795e-01 4.813425e-01 3.924913e-01 3.471631e-01 1.718972e-01 1.276954e-02 1.855464e-02 2.894212e-02 3.568248e-02 4.811010e-02 5.961189e-02 6.366401e-02 5.757873e-02 5.119918e-02 5.914098e-02 5.062442e-02 4.499841e-02 1.004578e-02
<GCONST> 5.808475e+01
~h "a"
<BEGINHMM>
<NUMSTATES> 5
<STATE> 2
<MEAN> 39
 3.498602e+00 -4.910169e+00 -2.406820e+00 -1.691589e+00 -2.222136e+00 -2.621381e+00 6.386442e-01 5.282698e+00 2.484475e+00 -1.014842e+00 -3.260014e+00 -3.463206e-01 9.196959e+00 2.215220e-01 -7.235550e-01 -3.478262e-01 -2.975525e-01 -1.588139e-01 4.512243e-02 -4.983986e-02 6.076308e-01 2.722256e-01 -2.680649e-01 -5.963699e-01 2.747898e-02 9.020976e-01 -3.193702e-02 1.754656e-01 1.072246e-01 1.400693e-01 7.818046e-02 8.673984e-02 -1.073030e-02 -2.049585e-01 -1.170198e-01 1.692484e-02 1.086562e-01 -8.464404e-03 -2.510242e-01
<VARIANCE> 39
 3.350819e+01 4.829076e+01 5.301211e+01 4.861742e+01 6.374439e+01 6.411244e+01 6.665961e+01 5.978937e+01 8.829467e+01 5.740155e+01 5.211499e+01 3.254412e+01 8.576787e+01 1.049040e+00 1.512680e+00 1.783986e+00 1.664168e+00 2.060732e+00 2.001421e+00 1.871876e+00 1.727325e+00 1.958169e+00 1.588597e+00 1.385896e+00 1.014446e+00 2.281308e+00 1.095472e-01 1.602745e-01 1.595362e-01 1.708961e-01 2.146811e-01 2.225175e-01 2.364396e-01 2.280408e-01 2.218624e-01 2.013147e-01 1.863804e-01 1.190312e-01 2.516806e-01
<GCONST> 1.084832e+02
<STATE> 3
<MEAN> 39
 3.599873e+00 -6.311633e+00 -2.784613e+00 -2.691977e+00 -3.132367e+00 -2.665325e+00 5.125659e-01 6.167580e+00 2.754362e+00 -1.479079e+00 -4.823198e+00 -3.231580e-01 1.161167e+01 1.071978e-01 3.015156e-01 2.355359e-01 4.276716e-01 1.562697e-01 1.347841e-01 -3.387199e-02 -3.533818e-01 -2.817731e-01 -6.116816e-02 2.088333e-01 4.339785e-03 -5.349362e-01 -3.427534e-02 2.441491e-01 1.338836e-01 1.970222e-01 8.922645e-02 2.933262e-02 -1.028955e-02 -2.526049e-01 -9.670756e-02 6.292032e-02 2.071248e-01 -1.783906e-02 -3.282568e-01
<VARIANCE> 39
 2.386415e+01 3.291755e+01 4.719939e+01 3.937555e+01 5.686647e+01 5.381405e+01 6.402965e+01 5.152822e+01 8.277046e+01 5.533081e+01 3.930307e+01 2.942646e+01 5.879750e+01 6.263574e-01 8.073275e-01 1.103931e+00 1.104770e+00 1.507093e+00 1.469186e+00 1.597547e+00 1.171446e+00 1.215721e+00 1.126634e+00 1.036041e+00 7.639696e-01 8.327003e-01 9.276186e-02 1.030742e-01 1.109006e-01 1.402292e-01 1.825069e-01 1.692331e-01 1.970415e-01 1.746159e-01 1.823912e-01 1.583019e-01 1.200557e-01 1.026394e-01 9.249941e-02
<GCONST> 9.640913e+01
<STATE> 4
<MEAN> 39
 4.085811e+00 -4.118336e+00 -3.379219e+00 8.916063e-01 7.153491e-01 -1.131322e-01 7.531881e-01 2.541922e+00 2.793055e-01 -2.407688e+00 -2.299773e+00 -1.140607e+00 4.560055e+00 -7.309869e-02 4.956054e-01 2.672936e-01 4.741015e-01 1.854778e-01 1.213060e-01 1.247056e-01 -4.148655e-01 -3.248759e-01 -1.134901e-02 3.640364e-01 2.655040e-04 -9.418550e-01 -4.276347e-02 1.668343e-02 -6.874066e-04 -4.701776e-02 -1.690204e-02 -7.601319e-03 7.003535e-04 1.852242e-02 2.620692e-02 3.620514e-02 1.476489e-02 2.564116e-03 1.772617e-02
<VARIANCE> 39
 2.496714e+01 3.554981e+01 4.827247e+01 5.265652e+01 5.761058e+01 4.799115e+01 5.245069e+01 4.148663e+01 5.988006e+01 5.083945e+01 3.496925e+01 2.913839e+01 7.523412e+01 7.746264e-01 7.113881e-01 8.593782e-01 9.744224e-01 9.318434e-01 1.109614e+00 1.151983e+00 9.907630e-01 1.300227e+00 9.479789e-01 7.255547e-01 6.493731e-01 8.057211e-01 5.490313e-02 7.028764e-02 7.944286e-02 9.583081e-02 9.908456e-02 1.042434e-01 1.142498e-01 1.086132e-01 1.194161e-01 9.791098e-02 8.803642e-02 7.039617e-02 7.073668e-02
<GCONST> 8.823866e+01
<TRANSP> 5
 0.000000e+00 1.000000e+00 0.000000e+00 0.000000e+00 0.000000e+00
 0.000000e+00 6.149235e-01 3.850765e-01 0.000000e+00 0.000000e+00
 0.000000e+00 0.000000e+00 5.087439e-01 4.912561e-01 0.000000e+00
 0.000000e+00 0.000000e+00 0.000000e+00 7.172937e-01 2.827064e-01
 0.000000e+00 0.000000e+00 0.000000e+00 0.000000e+00 0.000000e+00
<ENDHMM>
~h "b"
<BEGINHMM>
<NUMSTATES> 5
<STATE> 2
<MEAN> 39
 5.657508e+00 5.550836e-01 -8.034526e-01 1.830679e+00 -1.382274e-01 -4.173244e-01 -8.719041e-01 -7.133611e-01 -4.728317e-01 5.015236e-01 -1.306328e+00 -2.045781e+00 2.446278e+00 1.583345e-01 5.857744e-01 -1.739801e-01 -3.355749e-01 -5.016773e-02 2.207892e-01 -1.642318e-01 -1.691541e-01 -2.395686e-01 4.008602e-02 1.102056e-01 1.525079e-01 4.600296e-02 -7.155170e-02 -3.338494e-02 -2.868687e-02 -1.972800e-01 -5.183471e-02 -2.502458e-02 -2.270553e-02 5.589868e-02 5.724731e-02 3.116443e-03 -2.728778e-02 4.394902e-02 1.479706e-01
<VARIANCE> 39
 2.634399e+01 4.450454e+01 4.979615e+01 8.864251e+01 5.732533e+01 6.809480e+01 5.449243e+01 6.288350e+01 5.985645e+01 6.782052e+01 7.448825e+01 4.815956e+01 5.049045e+01 8.108088e-01 1.289223e+00 1.789824e+00 3.657601e+00 1.747655e+00 2.259769e+00 2.189593e+00 1.129248e+00 1.671582e+00 1.582354e+00 2.134868e+00 1.701997e+00 1.762784e+00 7.826067e-02 1.575721e-01 1.637834e-01 4.201428e-01 2.122995e-01 3.402339e-01 2.391011e-01 1.848839e-01 2.109784e-01 2.305745e-01 2.401606e-01 2.048068e-01 2.427785e-01
<GCONST> 1.107235e+02
<STATE> 3
<MEAN> 39
 5.299838e+00 3.753457e+00 -9.299786e-01 2.750198e-01 -8.844510e-01 5.044976e-01 -2.334234e+00 -1.611708e+00 -1.606487e+00 -8.113581e-01 -1.654799e+00 -1.866786e+00 2.426583e+00 1.087469e-01 -1.441777e-02 -1.603372e-01 -1.040755e-02 3.751827e-01 5.592959e-02 4.775772e-02 8.098493e-02 2.490323e-01 9.951528e-03 -2.091647e-02 -1.338923e-01 -2.299684e-02 -2.055845e-02 -3.012238e-01 -5.389184e-02 -1.610527e-01 -4.393198e-02 -1.586559e-01 6.160452e-03 1.147032e-01 1.568850e-01 1.100775e-01 -6.003050e-02 3.952450e-02 2.470817e-01
<VARIANCE> 39
 2.535536e+01 4.056935e+01 5.354807e+01 9.382256e+01 4.913840e+01 4.807826e+01 4.325297e+01 4.503712e+01 5.154527e+01 4.437078e+01 4.459531e+01 3.851133e+01 6.772558e+01 6.851072e-01 1.518594e+00 1.410102e+00 1.929105e+00 1.032759e+00 1.293848e+00 1.195451e+00 1.070719e+00 1.567112e+00 1.243824e+00 8.218891e-01 9.988217e-01 1.485849e+00 9.045350e-02 1.800611e-01 2.099427e-01 3.426954e-01 1.864651e-01 1.726127e-01 1.898469e-01 1.750252e-01 1.394061e-01 1.406270e-01 1.532874e-01 1.335557e-01 2.148532e-01
<GCONST> 1.013711e+02
<STATE> 4
<MEAN> 39
 4.661003e+00 1.798062e+00 -3.407992e-01 2.253024e+00 2.562099e+00 6.128445e-01 -5.670180e-01 -2.479054e+00 -5.694144e-01 -4.748806e-01 -2.910742e-01 -8.700523e-01 -6.017193e-01 -4.493825e-03 -3.124783e-01 -2.408704e-01 -1.819218e-01 -2.006897e-04 -1.620278e-01 2.289848e-02 2.667843e-01 9.826566e-02 7.422487e-02 2.958320e-02 5.537713e-02 2.194901e-01 -1.719743e-02 -1.094668e-01 -9.722771e-03 -1.004194e-01 -1.264360e-01 -5.162187e-02 -2.056879e-02 6.206826e-02 2.908888e-02 3.704173e-02 -3.538419e-02 1.829095e-02 1.729165e-01
<VARIANCE> 39
 3.037936e+01 3.724012e+01 5.290589e+01 4.655006e+01 3.462342e+01 2.785646e+01 4.161749e+01 3.521492e+01 4.200923e+01 3.684430e+01 2.980452e+01 2.328775e+01 4.033358e+01 4.712940e-01 1.237539e+00 1.346487e+00 1.314903e+00 1.085453e+00 9.558494e-01 1.013850e+00 1.229119e+00 1.207683e+00 1.037246e+00 8.305597e-01 5.949235e-01 1.278746e+00 5.051409e-02 8.421027e-02 1.159872e-01 1.210363e-01 1.007687e-01 8.550763e-02 1.050666e-01 1.152507e-01 8.408223e-02 8.767267e-02 1.038404e-01 5.746173e-02 7.017039e-02
<GCONST> 8.673631e+01
<TRANSP> 5
 0.000000e+00 1.000000e+00 0.000000e+00 0.000000e+00 0.000000e+00
 0.000000e+00 6.273932e-01 3.726068e-01 0.000000e+00 0.000000e+00
 0.000000e+00 0.000000e+00 3.856088e-01 6.143913e-01 0.000000e+00
 0.000000e+00 0.000000e+00 0.000000e+00 7.023125e-01 2.976875e-01
 0.000000e+00 0.000000e+00 0.000000e+00 0.000000e+00 0.000000e+00
<ENDHMM>
~h "c"
<BEGINHMM>
<NUMSTATES> 5
<STATE> 2
<MEAN> 39
 6.737545e-01 1.475878e+00 -1.207464e+00 -5.401907e-01 2.710690e+00 2.413107e-01 -4.779301e+00 -1.043378e+00 3.239326e-01 1.011395e+00 1.568069e+00 2.735642e-01 -3.084079e+00 -1.277650e+00 -7.249764e-02 3.519260e-01 -2.450306e-01 -4.114172e-01 1.085158e-02 1.518090e-01 2.575097e-01 -1.332725e-01 -1.792435e-01 1.601986e-01 -2.742029e-01 1.817394e+00 -1.038006e-01 8.416981e-02 1.128940e-01 -8.627795e-02 -1.003849e-01 -6.871159e-02 7.902539e-02 -2.931015e-02 -2.638857e-02 4.202532e-02 -9.791316e-03 -4.823206e-02 1.923375e-01
<VARIANCE> 39
 1.182996e+02 4.979007e+01 4.819890e+01 5.542845e+01 5.164318e+01 5.352806e+01 6.982520e+01 5.694923e+01 3.654449e+01 4.214840e+01 3.373432e+01 2.525151e+01 2.798600e+02 5.749217e+00 1.666226e+00 2.017242e+00 2.535738e+00 2.166382e+00 2.093254e+00 2.503233e+00 1.824043e+00 1.660843e+00 1.497503e+00 1.374051e+00 6.514680e-01 9.445839e+00 6.359767e-01 1.917517e-01 2.311202e-01 3.048291e-01 2.557647e-01 2.415414e-01 2.579450e-01 1.579592e-01 1.730516e-01 2.001945e-01 1.336596e-01 8.668893e-02 9.163031e-01
<GCONST> 1.155015e+02
<STATE> 3
<MEAN> 39
 -1.422091e+01 2.751944e+00 6.706360e+00 -2.708384e+00 -1.472313e+00 -5.943733e-01 3.069907e+00 1.575770e+00 -2.839242e+00 2.184599e+00 5.225436e+00 -3.506266e+00 8.867075e+00 4.865262e-01 4.134772e-02 8.729874e-01 -2.360979e-01 -1.256664e+00 -6.040577e-01 3.677642e-01 -2.816185e-01 -3.498959e-01 6.393224e-02 -1.647568e-02 -3.734401e-01 8.639982e-01 7.682741e-01 -3.300447e-02 -1.931755e-01 6.249856e-02 -3.432969e-02 -4.695754e-02 -2.044112e-01 -1.567609e-01 8.470881e-02 -3.007120e-02 -1.543802e-01 1.457104e-01 -2.804491e-01
<VARIANCE> 39
 9.139185e+01 4.197847e+01 4.135435e+01 2.786158e+01 4.283272e+01 3.162800e+01 5.387938e+01 4.135690e+01 4.853900e+01 6.045434e+01 5.401493e+01 3.084324e+01 3.545987e+01 5.130291e+00 1.288444e+00 1.497357e+00 1.078498e+00 1.165862e+00 1.020859e+00 1.651273e+00 1.589456e+00 1.670767e+00 1.072497e+00 1.385147e+00 9.975276e-01 1.277535e+00 4.647906e-01 1.367822e-01 1.558368e-01 1.106415e-01 1.650739e-01 1.347311e-01 1.678465e-01 1.469575e-01 1.756840e-01 1.742420e-01 1.655335e-01 1.181793e-01 1.039059e-01
<GCONST> 1.015197e+02
<STATE> 4
<MEAN> 39
 -2.564357e-01 2.892771e+00 3.645249e+00 -3.043435e+00 -9.496797e+00 -1.009586e+00 -3.268052e+00 -1.008004e+00 3.361193e+00 -1.400552e+00 9.277563e-01 -9.197426e-01 1.183699e+01 4.502146e-01 5.145426e-01 -1.171631e-03 2.759536e-02 -3.757945e-01 -3.513983e-02 -1.268811e-01 -3.654609e-01 -2.394195e-01 1.433761e-01 3.026228e-02 -4.917972e-02 1.578350e-01 -9.357088e-02 6.056977e-02 -9.636382e-02 6.342974e-02 2.532844e-01 1.039252e-01 -1.122649e-02 -2.568743e-02 -7.669213e-02 5.265448e-02 8.989217e-02 2.868313e-02 -1.993604e-01
<VARIANCE> 39
 9.238655e+01 1.480360e+02 1.169840e+02 6.331298e+01 5.440598e+01 6.011919e+01 8.617426e+01 1.312959e+02 6.716518e+01 3.935458e+01 3.015384e+01 2.796078e+01 5.983813e+01 3.969290e+00 3.267037e+00 1.154497e+00 1.512265e+00 1.848510e+00 1.829452e+00 1.587001e+00 2.255821e+00 1.665096e+00 1.342208e+00 9.664555e-01 8.634604e-01 1.464934e+00 2.487708e-01 2.408338e-01 1.021503e-01 2.124552e-01 2.254799e-01 2.569619e-01 1.382923e-01 2.935556e-01 2.090930e-01 1.357758e-01 1.050749e-01 8.802163e-02 1.374597e-01
<GCONST> 1.099375e+02
<TRANSP> 5
 0.000000e+00 1.000000e+00 0.000000e+00 0.000000e+00 0.000000e+00
 0.000000e+00 8.523600e-01 1.476401e-01 0.000000e+00 0.000000e+00
 0.000000e+00 0.000000e+00 7.429279e-01 2.570721e-01 0.000000e+00
 0.000000e+00 0.000000e+00 0.000000e+00 6.623991e-01 3.376008e-01
 0.000000e+00 0.000000e+00 0.000000e+00 0.000000e+00 0.000000e+00
<ENDHMM>
~h "d"
<BEGINHMM>
<NUMSTATES> 5
<STATE> 2
<MEAN> 39
 5.308031e+00 4.084210e+00 3.146191e+00 4.573555e+00 3.352000e-01 -1.569609e+00 2.037331e+00 -1.464051e+00 -1.668410e+00 -1.359329e+00 -1.625882e+00 -1.296671e+00 -6.649274e-02 -5.088773e-01 -2.368374e-01 -2.092339e-02 -6.024616e-02 2.144190e-01 -2.989749e-01 1.294923e-01 4.519289e-01 9.112721e-02 9.460418e-02 4.539623e-01 -6.373992e-02 1.229530e-01 -1.466284e-01 -2.361586e-01 -6.207141e-02 -3.588022e-01 -2.622909e-01 -1.993203e-01 -1.772421e-01 9.849364e-02 1.443402e-01 1.247470e-01 5.904433e-03 1.028447e-01 4.908219e-01
<VARIANCE> 39
 3.155052e+01 4.609585e+01 4.452657e+01 3.550877e+01 4.805588e+01 5.213980e+01 5.605149e+01 5.302804e+01 4.748843e+01 4.135979e+01 3.677665e+01 2.738734e+01 3.821993e+01 7.811056e-01 1.313550e+00 1.160601e+00 1.149958e+00 1.276717e+00 1.490055e+00 1.374537e+00 1.431162e+00 1.328934e+00 1.236934e+00 1.046620e+00 8.168585e-01 1.245641e+00 1.305635e-01 1.551534e-01 1.441222e-01 1.605565e-01 1.982645e-01 2.833670e-01 2.287152e-01 2.107668e-01 1.963667e-01 1.773553e-01 1.442015e-01 1.200304e-01 1.136123e-01
<GCONST> 9.931810e+01
<STATE> 3
<MEAN> 39
 -1.541481e-01 1.214902e-01 3.208682e+00 1.181875e+00 7.905058e-01 -6.183879e+00 5.114797e-01 1.442576e+00 -3.812659e-01 -9.482125e-01 8.074457e-01 -1.654402e-01 5.171237e+00 -2.529787e-01 -5.684495e-01 -4.200099e-01 -8.654784e-01 -6.344635e-01 -9.668205e-01 -8.897929e-01 3.870417e-01 5.355393e-01 5.216340e-01 1.131587e-01 3.206108e-01 1.308769e+00 2.313986e-01 1.141012e-01 -9.364343e-02 -1.196532e-01 -1.600406e-01 1.838112e-01 -1.768781e-01 -1.535495e-01 2.339852e-02 1.023024e-01 -1.324847e-01 1.130665e-02 5.542634e-02
<VARIANCE> 39
 3.397934e+01 4.048651e+01 3.493992e+01 3.304390e+01 4.878982e+01 6.593851e+01 6.559177e+01 3.895333e+01 4.660594e+01 4.024055e+01 3.920020e+01 2.925666e+01 6.817461e+01 1.034866e+00 1.234144e+00 1.639195e+00 1.198439e+00 1.809855e+00 2.286179e+00 2.594148e+00 2.092867e+00 1.792877e+00 1.571884e+00 1.374253e+00 1.010115e+00 1.244378e+00 1.085752e-01 1.676369e-01 1.483703e-01 1.513478e-01 1.841501e-01 2.352065e-01 1.886469e-01 1.774012e-01 1.551055e-01 1.600199e-01 1.598525e-01 1.242675e-01 2.065351e-01
<GCONST> 1.027642e+02
<STATE> 4
<MEAN> 39
 2.080647e+00 4.261013e-02 1.804273e+00 -1.287547e+00 -4.502172e+00 -7.132299e+00 -3.578155e+00 3.664757e-01 1.005119e+00 1.478546e+00 -1.225479e-01 3.833583e-01 7.748073e+00 1.126277e-01 -1.405568e-01 -3.421224e-01 -7.181892e-01 -5.687987e-01 8.442341e-02 -5.891530e-01 -1.120535e-03 2.427318e-01 4.005482e-01 -6.558771e-02 6.014021e-02 6.508411e-01 5.355062e-02 8.132108e-02 9.039795e-03 2.906331e-02 1.099030e-01 2.761782e-01 1.161888e-01 -8.605645e-02 -1.096128e-01 -9.948917e-02 -5.892045e-02 -3.546726e-02 -1.308035e-01
<VARIANCE> 39
 1.671278e+01 2.346717e+01 2.836042e+01 2.413375e+01 5.301383e+01 4.249960e+01 7.597816e+01 4.134774e+01 4.768433e+01 3.661097e+01 3.412115e+01 2.692351e+01 4.561568e+01 9.777297e-01 1.186858e+00 1.457911e+00 1.111885e+00 1.724896e+00 1.375505e+00 1.657471e+00 1.908888e+00 1.553471e+00 1.384251e+00 1.193833e+00 8.525669e-01 1.124605e+00 6.535040e-02 8.660262e-02 8.371792e-02 9.871762e-02 1.433273e-01 1.305684e-01 2.025910e-01 1.235306e-01 1.404485e-01 1.176510e-01 1.341078e-01 1.062693e-01 8.755480e-02
<GCONST> 9.318077e+01
<TRANSP> 5
 0.000000e+00 1.000000e+00 0.000000e+00 0.000000e+00 0.000000e+00
 0.000000e+00 6.524842e-01 3.475158e-01 0.000000e+00 0.000000e+00
 0.000000e+00 0.000000e+00 5.247168e-01 4.752832e-01 0.000000e+00
 0.000000e+00 0.000000e+00 0.000000e+00 5.578123e-01 4.421877e-01
 0.000000e+00 0.000000e+00 0.000000e+00 0.000000e+00 0.000000e+00
<ENDHMM>
~h "e"
<BEGINHMM>
<NUMSTATES> 5
<STATE> 2
<MEAN> 39
 1.389104e+00 6.087161e-01 9.633692e+00 -4.050842e+00 -9.722105e+00 -3.342434e+00 1.309554e+00 -1.317742e+00 -9.493465e-01 3.502442e+00 8.818315e-01 -2.295659e-01 8.360935e+00 -1.083107e-01 -2.937163e-02 5.218295e-01 -9.998915e-01 -1.083167e+00 -1.087327e-02 3.370917e-02 -3.079832e-01 1.055335e-01 4.692030e-01 6.403567e-02 7.734362e-02 6.770253e-01 -1.547271e-02 6.876751e-02 -1.296610e-01 7.050633e-02 1.810540e-01 9.726536e-02 -3.291208e-02 -3.499948e-03 4.615285e-02 -9.716713e-02 -6.427726e-02 -4.862966e-03 -1.294536e-01
<VARIANCE> 39
 3.189843e+01 4.724609e+01 5.008150e+01 7.292380e+01 7.400484e+01 7.237572e+01 5.557561e+01 6.793734e+01 6.740666e+01 4.348876e+01 4.944099e+01 3.050866e+01 5.626751e+01 1.039665e+00 1.183637e+00 1.492557e+00 2.214875e+00 2.324532e+00 2.403126e+00 1.619108e+00 1.713441e+00 1.894754e+00 1.248012e+00 1.159119e+00 9.352707e-01 1.817554e+00 9.469413e-02 1.293600e-01 1.143088e-01 2.093124e-01 2.522265e-01 2.416351e-01 1.585490e-01 1.697936e-01 1.884651e-01 1.402660e-01 1.286891e-01 1.027611e-01 1.684566e-01
<GCONST> 1.047479e+02
<STATE> 3
<MEAN> 39
 -7.318181e-01 2.634099e+00 9.587894e+00 -9.031020e+00 -1.241722e+01 -1.371421e+00 8.217707e-01 -4.875385e+00 8.383507e-01 4.091747e+00 -6.553610e-01 6.883556e-01 9.676243e+00 8.366939e-02 1.892259e-01 -1.997514e-01 4.162545e-01 2.126694e-01 2.427206e-03 -8.206711e-03 1.166483e-03 -9.139355e-02 -2.228753e-01 -9.697741e-03 -9.363285e-02 -7.567210e-01 1.245783e-02 -2.178271e-04 -7.981744e-02 2.256731e-01 2.077236e-01 -9.163897e-03 -9.586843e-03 7.964800e-02 -3.455302e-02 -6.780511e-02 1.752599e-02 -5.310558e-02 -1.845501e-01
<VARIANCE> 39
 2.948565e+01 5.036514e+01 4.316657e+01 6.405099e+01 6.161769e+01 8.129786e+01 5.312093e+01 6.490273e+01 6.977689e+01 4.621263e+01 4.117372e+01 2.397242e+01 5.422286e+01 4.325936e-01 7.797894e-01 7.703691e-01 1.454240e+00 1.092681e+00 1.228827e+00 1.010247e+00 1.286719e+00 1.153872e+00 9.804838e-01 6.598716e-01 6.725432e-01 1.102526e+00 6.063766e-02 7.850164e-02 8.029462e-02 1.157043e-01 1.305506e-01 1.566624e-01 1.316568e-01 1.466008e-01 1.406249e-01 1.265759e-01 8.588724e-02 8.292440e-02 8.070189e-02
<GCONST> 9.217493e+01
<STATE> 4
<MEAN> 39
 2.114220e-02 2.081858e-01 7.064245e+00 -4.459291e-01 -6.976199e+00 -3.732252e+00 2.051898e+00 -7.199531e-01 -3.189340e+00 2.013146e+00 1.805929e+00 -4.222229e-01 1.122442e+00 -1.909565e-01 9.996615e-02 -4.587772e-01 4.652618e-01 7.917278e-01 1.696257e-01 1.273143e-01 8.045597e-02 3.696898e-02 -2.195880e-01 9.551794e-03 1.638737e-02 -7.184435e-01 -2.269178e-02 -1.521550e-02 -2.342195e-02 -7.248566e-02 1.567175e-02 3.210936e-02 -2.802266e-02 9.095612e-03 4.041890e-02 1.170037e-02 3.052100e-03 1.218034e-02 7.446510e-02
<VARIANCE> 39
 1.908579e+01 2.252400e+01 4.294747e+01 3.930737e+01 5.257929e+01 4.454377e+01 3.420424e+01 4.478577e+01 4.363803e+01 2.857084e+01 3.165885e+01 2.198314e+01 8.676064e+01 4.988102e-01 6.124799e-01 6.570599e-01 1.040027e+00 7.867481e-01 9.219328e-01 7.405196e-01 9.580664e-01 8.964078e-01 6.621419e-01 5.495476e-01 5.049463e-01 7.691796e-01 4.055052e-02 5.720478e-02 6.276639e-02 8.447126e-02 9.048510e-02 8.887207e-02 8.784212e-02 1.040454e-01 9.796765e-02 8.537743e-02 5.698623e-02 6.455144e-02 6.940227e-02
<GCONST> 8.022387e+01
<TRANSP> 5
 0.000000e+00 1.000000e+00 0.000000e+00 0.000000e+00 0.000000e+00
 0.000000e+00 6.548204e-01 3.451796e-01 0.000000e+00 0.000000e+00
 0.000000e+00 0.000000e+00 7.148004e-01 2.851997e-01 0.000000e+00
 0.000000e+00 0.000000e+00 0.000000e+00 8.052102e-01 1.947897e-01
 0.000000e+00 0.000000e+00 0.000000e+00 0.000000e+00 0.000000e+00
<ENDHMM>
~h "g"
<BEGINHMM>
<NUMSTATES> 5
<STATE> 2
<MEAN> 39
 1.379368e+00 3.466693e+00 6.342953e+00 -1.583246e+00 -2.139493e+00 -2.380253e+00 -9.320701e-01 2.190213e-02 1.984680e+00 2.095239e+00 3.857405e-01 -1.171951e+00 6.133672e+00 -3.178023e-01 -7.676768e-02 6.482733e-01 -6.459849e-01 -8.215765e-01 -4.361211e-02 -7.541341e-02 -3.717235e-01 9.278812e-02 4.502283e-01 2.781697e-02 6.800263e-02 7.409343e-01 8.860084e-02 -4.774329e-02 -2.193807e-02 -5.565976e-02 -1.777908e-01 3.073615e-02 2.022165e-02 -4.599790e-02 -8.079025e-03 2.941296e-02 -4.070064e-02 3.469077e-02 1.281428e-01
<VARIANCE> 39
 6.685993e+01 1.136417e+02 7.806478e+01 8.363805e+01 9.289568e+01 5.362377e+01 8.682944e+01 8.642124e+01 8.889549e+01 5.118874e+01 4.524548e+01 3.498797e+01 9.157021e+01 1.634166e+00 2.512083e+00 3.130017e+00 2.275298e+00 3.970699e+00 1.878129e+00 2.664329e+00 2.051534e+00 2.667440e+00 1.647072e+00 1.565616e+00 1.274843e+00 3.063250e+00 1.792783e-01 2.587992e-01 2.745462e-01 2.898281e-01 4.277068e-01 2.136999e-01 2.891473e-01 2.465333e-01 2.946877e-01 1.915816e-01 1.798579e-01 1.515101e-01 3.275579e-01
<GCONST> 1.192863e+02
<STATE> 3
<MEAN> 39
 6.735713e-01 2.028035e+00 1.083787e+01 -7.618079e+00 -1.158027e+01 -8.270642e-01 1.135091e+00 -6.102382e+00 -3.945729e-02 5.321326e+00 3.235434e-01 -5.283306e-01 1.182013e+01 2.739267e-01 -8.420129e-02 2.220583e-01 1.141804e-01 -6.002992e-01 -1.462934e-01 7.486675e-02 -6.301620e-02 -2.361256e-01 1.076402e-01 3.933841e-02 -4.672191e-02 -3.218061e-02 4.411260e-02 3.433467e-02 -2.269164e-01 2.199613e-01 3.213098e-01 -3.519497e-02 -4.512958e-02 1.969482e-01 -1.419164e-03 -1.782547e-01 -4.448601e-02 3.082933e-03 -2.674730e-01
<VARIANCE> 39
 3.277734e+01 5.172601e+01 8.571954e+01 8.646848e+01 9.335899e+01 5.028743e+01 8.719505e+01 7.336996e+01 5.828589e+01 6.408398e+01 6.190119e+01 4.584982e+01 4.848034e+01 7.674350e-01 1.516310e+00 1.420501e+00 1.847540e+00 2.519832e+00 1.257893e+00 1.565866e+00 1.836198e+00 1.583034e+00 1.427826e+00 1.090676e+00 1.011561e+00 1.615673e+00 8.450396e-02 1.239441e-01 1.716425e-01 1.897905e-01 2.961539e-01 1.645893e-01 1.949527e-01 1.834322e-01 1.763553e-01 1.555354e-01 1.450004e-01 1.405500e-01 1.620962e-01
<GCONST> 1.063750e+02
<STATE> 4
<MEAN> 39
 -1.772062e-01 2.341145e+00 1.166027e+01 -4.096609e+00 -9.322560e+00 -2.042775e+00 -2.238671e-01 -2.731911e+00 -6.469197e+00 4.032880e+00 1.299536e+00 -2.268999e+00 7.609410e+00 8.207880e-02 5.016172e-02 -1.211660e-01 1.339915e-01 4.524865e-02 -9.122891e-02 7.159994e-02 3.483604e-02 -1.241823e-02 -8.726674e-02 -5.671204e-02 6.648452e-02 -3.290510e-01 -3.108553e-03 -3.546247e-02 -7.710323e-02 3.671550e-02 6.907324e-02 -1.393458e-02 3.043994e-02 1.124399e-02 6.690639e-02 -3.931348e-02 -1.079881e-02 1.890440e-02 -1.914471e-02
<VARIANCE> 39
 3.427016e+01 2.626217e+01 6.796197e+01 4.270042e+01 4.782367e+01 3.439464e+01 4.776559e+01 3.990424e+01 7.856184e+01 3.556265e+01 3.925646e+01 3.234493e+01 3.774607e+01 3.945339e-01 5.963252e-01 8.829120e-01 9.371737e-01 1.281131e+00 7.588100e-01 8.723736e-01 8.914601e-01 1.121841e+00 8.485743e-01 8.186964e-01 7.007390e-01 8.683321e-01 3.832975e-02 6.111513e-02 9.138321e-02 9.584367e-02 1.323489e-01 7.990701e-02 9.559436e-02 9.719134e-02 1.239025e-01 9.328314e-02 9.268542e-02 8.514236e-02 8.345787e-02
<GCONST> 8.565347e+01
<TRANSP> 5
 0.000000e+00 1.000000e+00 0.000000e+00 0.000000e+00 0.000000e+00
 0.000000e+00 7.633641e-01 2.366359e-01 0.000000e+00 0.000000e+00
 0.000000e+00 0.000000e+00 5.767996e-01 4.232005e-01 0.000000e+00
 0.000000e+00 0.000000e+00 0.000000e+00 7.602113e-01 2.397887e-01
 0.000000e+00 0.000000e+00 0.000000e+00 0.000000e+00 0.000000e+00
<ENDHMM>
~h "h"
<BEGINHMM>
<NUMSTATES> 5
<STATE> 2
<MEAN> 39
 5.816082e+00 1.229811e+00 -6.198963e+00 -7.447753e+00 1.950662e+00 8.082778e-01 -3.258934e+00 -3.045099e+00 -4.186228e+00 4.861945e-01 9.438303e-02 2.242448e+00 7.583752e+00 3.192579e-01 1.521493e-01 -8.670991e-02 -1.091979e-01 1.955540e-01 1.778582e-01 1.828701e-01 4.191238e-02 -1.730936e-01 -1.216822e-01 -9.986778e-02 -9.416921e-02 -4.220868e-01 -4.398540e-02 -5.276964e-02 7.197534e-02 1.336993e-01 -5.149063e-02 -3.891526e-02 7.539460e-02 1.029170e-01 1.140377e-01 -3.598092e-02 -3.350150e-02 -6.992883e-02 -3.940022e-02
<VARIANCE> 39
 2.899170e+01 5.502100e+01 6.803373e+01 8.944554e+01 5.107195e+01 3.864346e+01 5.517402e+01 3.224619e+01 3.866900e+01 3.405085e+01 3.839777e+01 5.386537e+01 5.189841e+01 5.249196e-01 5.964519e-01 7.687659e-01 1.499521e+00 8.020811e-01 8.846364e-01 1.215051e+00 5.632488e-01 7.650652e-01 5.810670e-01 8.351826e-01 8.562177e-01 7.175616e-01 5.034323e-02 6.738227e-02 7.563657e-02 1.336918e-01 1.020372e-01 9.700711e-02 1.057011e-01 5.836837e-02 1.102309e-01 6.584293e-02 1.119976e-01 1.012394e-01 4.252290e-02
<GCONST> 8.583764e+01
<STATE> 3
<MEAN> 39
 6.229970e+00 -5.128003e-01 -4.202258e+00 -1.148971e+00 2.788911e+00 9.412432e-01 -1.528269e+00 -1.332510e+00 -3.973758e+00 -7.444009e-01 -3.339621e-01 -3.182324e+00 2.432328e+00 -3.104586e-01 4.386332e-02 6.640226e-02 4.533046e-01 5.429619e-01 2.735992e-01 4.094681e-01 4.481067e-01 2.325080e-01 -2.912047e-01 -1.071825e-01 -1.505640e-01 -5.704119e-01 -5.522682e-02 -4.452012e-02 6.514663e-02 1.784253e-02 -6.471455e-02 3.207488e-03 -1.917133e-02 2.001523e-02 1.339684e-02 -2.564240e-02 -8.400985e-03 1.035866e-01 6.056312e-02
<VARIANCE> 39
 2.748771e+01 5.483039e+01 5.200316e+01 7.082351e+01 5.370341e+01 4.369325e+01 5.262503e+01 3.227705e+01 5.535684e+01 5.190635e+01 4.104576e+01 3.638985e+01 4.174588e+01 3.276663e-01 1.031187e+00 7.529538e-01 8.370920e-01 5.520787e-01 5.229896e-01 6.492793e-01 7.265972e-01 1.038267e+00 7.389680e-01 9.512518e-01 1.030317e+00 3.815744e-01 2.797163e-02 6.200204e-02 7.549458e-02 8.403733e-02 1.019927e-01 7.129584e-02 6.009706e-02 7.411029e-02 1.279145e-01 8.817982e-02 1.080242e-01 9.367883e-02 2.413524e-02
<GCONST> 8.206282e+01
<STATE> 4
<MEAN> 39
 1.839998e+00 1.760263e+00 -8.355021e-01 -9.859734e-01 8.876778e-01 5.887308e-01 -8.115941e-02 -1.495869e+00 -2.494782e+00 -1.716958e+00 -9.084519e-01 3.058728e-01 -5.101801e-01 -6.869902e-02 -2.579332e-02 8.419684e-03 5.703014e-02 1.957708e-02 1.977363e-02 4.672759e-02 4.584861e-02 1.574962e-02 -3.304303e-02 2.233721e-02 6.769779e-02 -6.690934e-02 7.443809e-03 -1.963378e-02 1.218145e-02 -1.087504e-02 -1.333349e-02 4.830926e-04 -1.021755e-02 9.900316e-04 6.861972e-03 1.557870e-02 9.680500e-03 -9.630430e-03 2.907459e-02
<VARIANCE> 39
 2.001899e+01 2.156737e+01 4.112816e+01 3.007012e+01 3.640674e+01 3.301231e+01 2.721025e+01 2.756352e+01 3.288898e+01 3.135829e+01 2.536743e+01 1.972175e+01 2.477209e+01 2.158399e-01 3.626900e-01 4.726836e-01 4.818053e-01 5.220030e-01 4.194840e-01 5.073242e-01 6.207826e-01 5.917270e-01 5.745933e-01 5.322758e-01 4.430924e-01 2.013494e-01 1.616291e-02 3.455544e-02 4.392400e-02 5.160801e-02 6.571496e-02 4.633496e-02 6.288429e-02 7.504813e-02 6.169847e-02 6.560711e-02 5.810318e-02 4.697826e-02 1.591680e-02
<GCONST> 6.382977e+01
<TRANSP> 5
 0.000000e+00 1.000000e+00 0.000000e+00 0.000000e+00 0.000000e+00
 0.000000e+00 6.374872e-01 3.625129e-01 0.000000e+00 0.000000e+00
 0.000000e+00 0.000000e+00 6.000069e-01 3.999931e-01 0.000000e+00
 0.000000e+00 0.000000e+00 0.000000e+00 9.275813e-01 7.241872e-02
 0.000000e+00 0.000000e+00 0.000000e+00 0.000000e+00 0.000000e+00
<ENDHMM>
~h "i"
<BEGINHMM>
<NUMSTATES> 5
<STATE> 2
<MEAN> 39
 -1.084281e+00 5.136017e+00 9.088044e+00 -4.559577e+00 -4.248541e+00 -9.500269e-01 -2.449036e+00 -6.122064e+00 -1.481894e-01 1.543934e+00 -7.382828e-01 1.352720e+00 4.754941e+00 -1.992046e-01 5.437731e-01 1.065052e+00 -9.650632e-01 -6.586780e-01 -7.709037e-02 -5.740302e-01 -6.699884e-01 -1.561129e-01 1.905668e-01 -2.245801e-01 2.317051e-01 7.448506e-01 5.044483e-02 -2.107703e-02 -1.180939e-01 1.236186e-01 4.552210e-02 -1.824282e-02 5.099222e-02 1.159486e-01 -2.603504e-02 -2.869615e-02 2.705720e-02 -3.348837e-02 -8.082268e-02
<VARIANCE> 39
 4.002145e+01 6.030925e+01 7.225221e+01 9.445782e+01 6.927562e+01 5.800912e+01 7.504122e+01 6.543422e+01 6.387635e+01 5.190238e+01 4.832513e+01 3.991133e+01 7.407534e+01 1.582412e+00 1.608863e+00 2.226640e+00 2.477483e+00 2.034423e+00 1.680138e+00 2.184339e+00 1.895098e+00 2.288669e+00 1.580851e+00 1.445550e+00 1.265193e+00 2.019373e+00 1.542992e-01 1.658343e-01 2.376108e-01 3.318579e-01 2.466194e-01 1.973817e-01 2.311336e-01 2.264317e-01 2.257079e-01 1.834285e-01 1.719737e-01 1.513310e-01 2.240462e-01
<GCONST> 1.124451e+02
<STATE> 3
<MEAN> 39
 -8.748331e-01 6.681391e+00 1.261726e+01 -6.496585e+00 -7.955233e+00 -2.285649e+00 -3.519604e+00 -6.855864e+00 -2.741113e+00 2.166480e+00 -5.255089e-01 1.253772e+00 7.153002e+00 3.828887e-01 1.450930e-02 -2.545749e-01 9.397075e-01 1.004410e-01 -2.205672e-02 3.392758e-01 2.291788e-01 -2.501380e-01 -6.686889e-02 2.399976e-01 -3.479651e-01 -6.852558e-01 -4.889887e-02 -7.690565e-02 -2.602386e-01 2.537411e-01 2.365174e-01 3.604216e-02 1.392250e-01 1.163056e-01 8.843159e-02 -7.051344e-02 1.565104e-02 -5.308690e-02 -1.792935e-01
<VARIANCE> 39
 3.074010e+01 5.615136e+01 5.113946e+01 7.349713e+01 5.212604e+01 4.824224e+01 6.540936e+01 6.441380e+01 7.306470e+01 4.898434e+01 5.278804e+01 3.273982e+01 4.679537e+01 1.007694e+00 1.157936e+00 1.324633e+00 1.767655e+00 1.332826e+00 1.282872e+00 1.330694e+00 1.391342e+00 1.312662e+00 1.104032e+00 9.538419e-01 7.434463e-01 1.291346e+00 1.137541e-01 1.108602e-01 1.332005e-01 1.808792e-01 1.641688e-01 1.354481e-01 1.702222e-01 1.531658e-01 1.767195e-01 1.423250e-01 1.372403e-01 1.066803e-01 9.921742e-02
<GCONST> 9.969334e+01
<STATE> 4
<MEAN> 39
 -3.737552e-01 3.819135e+00 8.594489e+00 1.974107e+00 -2.903431e+00 -1.198945e+00 -6.188083e-01 -4.319540e+00 -4.708039e+00 -3.259469e-01 8.550922e-01 -6.395659e-01 7.049125e-01 -1.784344e-01 -9.096879e-02 -6.044490e-01 4.007416e-01 4.989543e-01 1.006918e-01 2.914469e-01 1.735582e-01 1.484527e-01 -8.393627e-02 3.613762e-03 -6.002392e-03 -4.822060e-01 -5.352570e-02 -4.091008e-02 -6.165801e-02 -1.118996e-01 6.807052e-03 -1.467763e-02 -3.981434e-02 2.678924e-02 6.547546e-02 1.799705e-02 1.318910e-02 3.459312e-02 8.578669e-02
<VARIANCE> 39
 3.303436e+01 3.173122e+01 5.275917e+01 4.184823e+01 4.255300e+01 3.734723e+01 4.320354e+01 3.750246e+01 4.732576e+01 3.558229e+01 3.132639e+01 2.634022e+01 6.481593e+01 8.464123e-01 9.307513e-01 1.056173e+00 1.174115e+00 1.008549e+00 9.177988e-01 9.201960e-01 9.003457e-01 1.042646e+00 7.577500e-01 7.383012e-01 6.003978e-01 9.465065e-01 8.273523e-02 7.430710e-02 1.054980e-01 9.004934e-02 1.102864e-01 9.751880e-02 1.147310e-01 1.077850e-01 1.185040e-01 9.674836e-02 8.008902e-02 7.056761e-02 8.636455e-02
<GCONST> 8.724953e+01
<TRANSP> 5
 0.000000e+00 1.000000e+00 0.000000e+00 0.000000e+00 0.000000e+00
 0.000000e+00 7.359322e-01 2.640678e-01 0.000000e+00 0.000000e+00
 0.000000e+00 0.000000e+00 6.539502e-01 3.460498e-01 0.000000e+00
 0.000000e+00 0.000000e+00 0.000000e+00 7.352296e-01 2.647703e-01
 0.000000e+00 0.000000e+00 0.000000e+00 0.000000e+00 0.000000e+00
<ENDHMM>
~h "j"
<BEGINHMM>
<NUMSTATES> 5
<STATE> 2
<MEAN> 39
 1.989661e+00 -4.575944e+00 -6.863139e-01 -1.206113e+00 -1.689604e+00 -1.938973e+00 4.567942e+00 4.046081e+00 9.422233e-02 -2.072857e+00 -4.197784e+00 9.028501e-01 8.582505e+00 -2.351425e-01 8.867567e-01 3.429819e-01 5.104349e-01 3.938675e-01 2.153946e-01 2.452161e-01 -2.329730e-01 -3.232478e-01 6.474678e-02 5.477865e-01 -2.540299e-01 -1.047987e+00 -1.351714e-01 -3.937952e-03 -1.323678e-01 -4.408155e-02 1.880698e-01 1.519210e-01 -4.498048e-02 3.546390e-02 5.319418e-02 -4.664375e-02 1.329920e-02 -9.259462e-02 3.121819e-02
<VARIANCE> 39
 1.454143e+01 2.878189e+01 2.368098e+01 2.512759e+01 3.180474e+01 2.498256e+01 3.237505e+01 3.750523e+01 4.223944e+01 3.123338e+01 2.928487e+01 2.408626e+01 5.033728e+01 8.949159e-01 7.085968e-01 6.562402e-01 1.022214e+00 1.124574e+00 8.999870e-01 8.314770e-01 8.718450e-01 1.081851e+00 8.233268e-01 8.027623e-01 6.504114e-01 5.829934e-01 1.079232e-01 7.147543e-02 7.146353e-02 1.438649e-01 1.571040e-01 1.353122e-01 1.052414e-01 9.195586e-02 8.144440e-02 8.411867e-02 1.114571e-01 1.004330e-01 8.681163e-02
<GCONST> 8.322409e+01
<STATE> 3
<MEAN> 39
 -1.854059e+00 1.864650e+00 -1.202247e+00 4.735841e-01 3.190443e+00 8.913879e-01 4.946577e+00 4.191941e+00 -7.593218e-01 -2.111927e+00 -9.464388e-01 -2.337661e+00 3.734748e+00 -2.007199e+00 1.138463e+00 4.894380e-01 -6.867617e-01 3.304220e-01 -6.540824e-02 -5.425676e-02 1.600903e-01 -2.267559e-01 2.630357e-01 8.907853e-01 -2.563727e-01 3.625582e-01 -1.214964e-02 -1.537374e-01 2.861013e-01 -2.429665e-01 -4.220434e-01 -2.914577e-01 -1.204934e-01 -1.991234e-02 -6.047137e-02 1.179599e-01 8.043049e-02 1.132005e-01 3.947505e-01
<VARIANCE> 39
 6.837171e+01 3.663914e+01 3.688326e+01 4.970779e+01 3.583048e+01 3.209957e+01 4.102302e+01 3.265464e+01 3.973653e+01 2.973320e+01 2.639065e+01 2.401220e+01 3.125589e+01 2.156100e+00 1.393027e+00 1.320573e+00 1.287819e+00 1.402095e+00 1.403365e+00 1.269303e+00 1.019148e+00 8.326631e-01 9.833465e-01 1.165032e+00 8.824013e-01 9.542341e-01 5.037974e-01 1.856538e-01 1.065782e-01 2.484236e-01 1.821258e-01 1.477619e-01 1.472484e-01 1.326387e-01 1.463481e-01 9.820724e-02 1.248963e-01 1.039561e-01 6.344672e-02
<GCONST> 9.568327e+01
<STATE> 4
<MEAN> 39
 -7.812621e+00 4.566512e+00 6.088821e+00 -4.961084e+00 -3.452934e+00 -3.860063e+00 3.690861e+00 2.782771e+00 -3.194161e+00 4.049377e-01 4.452973e+00 -2.124265e+00 1.038685e+01 1.001228e+00 -8.040483e-01 4.972664e-01 -3.098656e-01 -1.572603e+00 -7.722343e-01 -2.516355e-01 1.973927e-01 1.653046e-01 2.558732e-01 9.838942e-02 3.731807e-01 7.685573e-01 4.257360e-01 -2.464834e-01 -2.293505e-01 1.674638e-01 4.558869e-02 7.743736e-02 -3.171857e-02 6.248530e-02 1.158362e-01 -7.751526e-02 -2.977206e-01 4.236110e-02 -1.100881e-01
<VARIANCE> 39
 7.256951e+01 4.581953e+01 2.639900e+01 2.557250e+01 6.780941e+01 4.327469e+01 5.089597e+01 4.041051e+01 4.320536e+01 3.570514e+01 3.375298e+01 3.882827e+01 3.520117e+01 2.716312e+00 2.140541e+00 1.516609e+00 1.576464e+00 1.730540e+00 1.039412e+00 1.375893e+00 1.797396e+00 1.493721e+00 9.308676e-01 1.474694e+00 7.071201e-01 6.578768e-01 4.417107e-01 2.513397e-01 1.290763e-01 1.236670e-01 4.303153e-01 1.495296e-01 1.436397e-01 1.762813e-01 1.169907e-01 1.326923e-01 1.329576e-01 1.100230e-01 5.972510e-02
<GCONST> 1.001090e+02
<TRANSP> 5
 0.000000e+00 1.000000e+00 0.000000e+00 0.000000e+00 0.000000e+00
 0.000000e+00 7.955567e-01 2.044433e-01 0.000000e+00 0.000000e+00
 0.000000e+00 0.000000e+00 7.466733e-01 2.533267e-01 0.000000e+00
 0.000000e+00 0.000000e+00 0.000000e+00 8.282228e-01 1.717772e-01
 0.000000e+00 0.000000e+00 0.000000e+00 0.000000e+00 0.000000e+00
<ENDHMM>
~h "k"
<BEGINHMM>
<NUMSTATES> 5
<STATE> 2
<MEAN> 39
 -2.935179e-01 1.298491e+00 2.459893e+00 3.369056e+00 -3.003145e+00 -2.904847e+00 -2.872725e-01 -4.029349e+00 -1.465706e+00 2.119594e+00 8.939961e-01 -3.572412e-01 -4.145163e+00 -1.641734e-02 -8.583404e-01 -1.507119e+00 2.161749e-01 1.082190e+00 -2.199136e-02 1.373458e-01 4.950374e-01 3.664920e-01 1.982625e-01 1.620054e-01 8.518305e-02 -1.732506e-01 2.336643e-02 -7.140307e-02 -1.703637e-01 -2.556548e-01 7.484678e-02 8.245406e-03 -4.187675e-02 1.697048e-01 8.581859e-02 -9.188104e-04 -3.713620e-02 -8.705586e-03 4.639995e-01
<VARIANCE> 39
 2.664737e+01 4.377100e+01 6.944145e+01 5.244764e+01 9.904114e+01 6.317405e+01 5.338641e+01 5.089516e+01 5.332627e+01 5.247678e+01 3.177146e+01 2.637004e+01 3.047976e+01 8.405831e-01 1.527965e+00 1.892783e+00 2.276946e+00 1.893740e+00 2.567062e+00 1.851943e+00 1.865241e+00 1.536543e+00 1.456554e+00 1.287429e+00 7.059692e-01 1.836824e+00 1.174056e-01 1.712630e-01 2.044000e-01 1.751988e-01 2.455202e-01 3.065919e-01 1.832683e-01 1.863243e-01 1.575784e-01 1.830840e-01 1.335374e-01 1.072851e-01 1.286159e-01
<GCONST> 1.044807e+02
<STATE> 3
<MEAN> 39
 -1.824326e+00 -5.448365e+00 -8.372901e+00 3.233786e+00 5.985973e+00 -2.846659e+00 7.411470e-01 2.459991e+00 2.148792e+00 2.928445e+00 9.050072e-01 2.539974e-02 -3.621128e-01 4.648865e-01 -3.522347e-01 -9.606346e-01 -7.668284e-01 2.675893e-01 2.722345e-02 -9.430873e-02 4.861343e-01 5.367306e-01 -8.798795e-02 -2.145214e-01 -1.224886e-01 1.701386e+00 2.717943e-01 2.722453e-01 3.981648e-01 -2.615092e-01 -4.533332e-01 1.048138e-01 -8.930554e-02 -1.897772e-01 -8.242502e-02 -8.407620e-02 -9.241942e-02 -6.457797e-02 1.989153e-01
<VARIANCE> 39
 4.701564e+01 5.199221e+01 1.003224e+02 8.126221e+01 7.865157e+01 1.132010e+02 7.798129e+01 5.659824e+01 6.628951e+01 4.069800e+01 5.284766e+01 2.556895e+01 1.230585e+02 1.654939e+00 1.933668e+00 2.517491e+00 2.042607e+00 2.932332e+00 3.666167e+00 2.119360e+00 2.088370e+00 2.229222e+00 2.042927e+00 1.527963e+00 1.018607e+00 2.805320e+00 1.509662e-01 2.402465e-01 2.464904e-01 3.069939e-01 2.615187e-01 4.420631e-01 2.740262e-01 2.230011e-01 2.098578e-01 1.747725e-01 2.280003e-01 1.100567e-01 3.265627e-01
<GCONST> 1.165855e+02
<STATE> 4
<MEAN> 39
 3.053121e+00 -2.162673e+00 -7.148075e+00 -1.989071e+00 1.972429e+00 -1.741794e+00 -2.491632e-01 1.132937e+00 2.593531e+00 2.948568e+00 6.416930e-01 -9.992838e-01 4.915187e+00 1.094338e+00 3.255107e-01 7.404400e-02 -1.117298e+00 -8.284763e-01 3.591184e-01 -2.951605e-01 -9.508915e-02 1.113772e-01 -2.258326e-01 -1.982808e-01 -1.749216e-01 1.262349e+00 2.396019e-02 1.116428e-01 2.706521e-01 9.439660e-02 -1.151057e-01 6.881305e-02 -4.426741e-02 -1.484411e-01 -1.447913e-01 -6.832284e-02 -3.206283e-02 4.642476e-02 -1.897903e-01
<VARIANCE> 39
 4.242815e+01 4.445936e+01 6.853522e+01 6.086497e+01 8.468512e+01 7.148505e+01 5.272575e+01 7.204073e+01 6.846817e+01 6.316488e+01 5.240419e+01 3.507042e+01 5.561993e+01 9.497441e-01 1.770716e+00 1.869909e+00 1.374071e+00 2.246538e+00 2.226047e+00 1.689951e+00 2.463346e+00 2.315166e+00 1.666194e+00 1.646139e+00 1.220348e+00 1.179874e+00 1.622037e-01 1.743562e-01 1.775414e-01 1.839461e-01 3.344524e-01 2.814428e-01 2.300966e-01 2.820660e-01 2.275705e-01 2.426106e-01 1.880279e-01 1.385450e-01 1.680620e-01
<GCONST> 1.107128e+02
<TRANSP> 5
 0.000000e+00 1.000000e+00 0.000000e+00 0.000000e+00 0.000000e+00
 0.000000e+00 7.091680e-01 2.908320e-01 0.000000e+00 0.000000e+00
 0.000000e+00 0.000000e+00 5.873827e-01 4.126173e-01 0.000000e+00
 0.000000e+00 0.000000e+00 0.000000e+00 4.808408e-01 5.191592e-01
 0.000000e+00 0.000000e+00 0.000000e+00 0.000000e+00 0.000000e+00
<ENDHMM>
~h "l"
<BEGINHMM>
<NUMSTATES> 5
<STATE> 2
<MEAN> 39
 6.720591e+00 -4.850154e+00 -1.726012e+00 -4.106122e+00 5.026387e-01 3.125806e+00 -7.519028e+00 7.680853e-01 1.208223e+01 1.958444e+00 -4.185148e+00 -3.022440e+00 9.794990e+00 1.982820e-01 3.601421e-02 2.804787e-01 2.699197e-02 -1.483448e-01 -5.733554e-01 -6.861672e-01 4.597924e-01 3.767437e-01 3.172040e-01 -1.090184e-01 -4.837340e-02 5.460750e-01 -7.421465e-02 7.831714e-02 -1.920263e-02 8.260777e-03 -9.964935e-03 2.484785e-02 1.794349e-01 1.875366e-02 -2.103435e-01 -3.294025e-02 8.842864e-02 -2.208191e-02 -9.397442e-02
<VARIANCE> 39
 4.111923e+01 6.554314e+01 7.197890e+01 5.304052e+01 4.904857e+01 1.377212e+02 7.314672e+01 6.628219e+01 1.981966e+02 6.386596e+01 5.206856e+01 3.123756e+01 1.446171e+02 1.201661e+00 1.846764e+00 2.331071e+00 1.705426e+00 1.575487e+00 3.297899e+00 1.491337e+00 1.852482e+00 4.148212e+00 1.264939e+00 1.541171e+00 9.823868e-01 4.125492e+00 1.553848e-01 1.802059e-01 2.440255e-01 1.706201e-01 2.023638e-01 4.253336e-01 1.535086e-01 3.153907e-01 4.404740e-01 1.864578e-01 1.538866e-01 1.361382e-01 3.770393e-01
<GCONST> 1.156983e+02
<STATE> 3
<MEAN> 39
 3.809857e+00 -2.475375e+00 1.596879e+00 -4.099504e+00 -2.987399e+00 -3.565508e+00 -8.402897e+00 3.278771e+00 3.246302e+00 -4.322516e+00 -3.182580e+00 8.332793e-01 8.953430e+00 -1.664146e-01 2.159427e-01 3.856916e-01 -1.519090e-01 -3.011365e-01 -6.042004e-02 -1.594947e-02 1.727527e-01 -2.652269e-01 6.562003e-02 4.151982e-02 1.595353e-01 -1.387485e-01 -8.830931e-02 -1.073834e-01 -2.336298e-01 -1.395973e-02 6.952319e-02 1.564376e-01 5.161450e-01 -5.997516e-02 -1.373649e-01 8.790316e-02 -3.998458e-02 -1.065789e-01 1.660515e-02
<VARIANCE> 39
 1.659710e+01 3.174402e+01 6.449506e+01 4.003112e+01 3.994118e+01 3.959648e+01 6.716348e+01 7.026900e+01 6.722118e+01 6.846106e+01 3.972050e+01 5.033984e+01 3.368302e+01 4.368223e-01 1.217904e+00 2.582707e+00 8.781155e-01 1.058492e+00 1.191580e+00 3.553905e+00 1.413238e+00 1.242486e+00 1.279755e+00 1.118253e+00 1.097732e+00 9.562523e-01 5.038932e-02 2.317700e-01 2.152659e-01 1.364920e-01 1.563601e-01 2.372155e-01 4.611965e-01 2.902606e-01 2.050797e-01 1.857598e-01 1.246874e-01 1.842702e-01 1.539925e-01
<GCONST> 1.016413e+02
<STATE> 4
<MEAN> 39
 2.357705e+00 -1.508851e+00 1.409370e+00 -2.913221e+00 -6.038737e+00 -3.086070e+00 -2.799724e+00 -6.127187e-01 4.066456e-01 -2.713558e+00 -2.651267e+00 5.629805e-01 1.048467e+01 -3.090346e-01 5.273893e-02 2.520874e-02 -1.191493e-01 -9.765467e-02 1.975772e-01 6.714475e-01 -9.627152e-03 -4.422801e-01 3.900652e-01 1.941600e-01 -1.711743e-01 -1.352931e-01 -2.075689e-02 4.547407e-02 -6.971291e-02 6.532545e-03 1.274699e-01 1.207854e-02 1.465888e-02 -2.266439e-02 3.985565e-02 1.630365e-02 2.590192e-02 -2.757188e-02 -3.391992e-02
<VARIANCE> 39
 4.192023e+01 4.280999e+01 4.738747e+01 5.528937e+01 4.459310e+01 3.474871e+01 6.745882e+01 6.431047e+01 7.059345e+01 7.253242e+01 2.786005e+01 3.456400e+01 3.817453e+01 9.817129e-01 1.129575e+00 1.479180e+00 1.139629e+00 1.452979e+00 1.251515e+00 2.555979e+00 1.559642e+00 1.310081e+00 1.387605e+00 6.629483e-01 5.749466e-01 7.174465e-01 7.948075e-02 1.032796e-01 1.089594e-01 1.185195e-01 1.368577e-01 1.586079e-01 2.303980e-01 1.365623e-01 1.597005e-01 1.603884e-01 8.030170e-02 8.596385e-02 8.559566e-02
<GCONST> 9.618272e+01
<TRANSP> 5
 0.000000e+00 1.000000e+00 0.000000e+00 0.000000e+00 0.000000e+00
 0.000000e+00 6.073533e-01 3.926467e-01 0.000000e+00 0.000000e+00
 0.000000e+00 0.000000e+00 5.195717e-01 4.804284e-01 0.000000e+00
 0.000000e+00 0.000000e+00 0.000000e+00 7.053547e-01 2.946453e-01
 0.000000e+00 0.000000e+00 0.000000e+00 0.000000e+00 0.000000e+00
<ENDHMM>
~h "m"
<BEGINHMM>
<NUMSTATES> 5
<STATE> 2
<MEAN> 39
 6.963174e+00 2.524620e+00 1.849536e+00 1.903336e+00 1.317625e+00 1.816920e+00 -1.623721e+00 -4.265399e+00 -2.453627e+00 1.124224e-01 -4.850895e-01 -1.764989e+00 3.243830e+00 5.662713e-01 -4.418950e-01 -5.208835e-01 -7.345826e-02 2.689787e-01 4.598753e-02 -5.740503e-01 1.176846e-01 6.517137e-01 3.787304e-01 -1.849910e-01 -4.584661e-01 8.534639e-01 -8.200040e-02 -2.292524e-01 -1.988955e-01 -1.351454e-01 5.409184e-02 -2.966226e-02 -4.665626e-02 2.437527e-01 1.617872e-01 2.189161e-02 -6.800833e-02 -6.030890e-02 1.014582e-01
<VARIANCE> 39
 3.813596e+01 3.748193e+01 9.159784e+01 7.818893e+01 8.569638e+01 6.594569e+01 6.919793e+01 6.512377e+01 7.317740e+01 4.349203e+01 4.380885e+01 3.136236e+01 5.559431e+01 1.363438e+00 1.657593e+00 2.177913e+00 2.944234e+00 1.932267e+00 1.760256e+00 1.902034e+00 2.113368e+00 2.651948e+00 1.472796e+00 1.118523e+00 1.102112e+00 3.031608e+00 1.518833e-01 1.676395e-01 1.710947e-01 3.010345e-01 2.475164e-01 2.163371e-01 2.364102e-01 2.875515e-01 2.257066e-01 1.809668e-01 1.375597e-01 1.241408e-01 2.116180e-01
<GCONST> 1.110771e+02
<STATE> 3
<MEAN> 39
 8.717994e+00 -2.750385e+00 -2.483060e+00 1.590542e+00 4.387434e+00 8.299417e-01 -8.099507e+00 -2.881514e+00 -8.973097e-01 2.368133e+00 -2.121253e+00 -6.466327e+00 6.350567e+00 4.966259e-03 -9.083241e-01 -7.091224e-01 -2.616229e-01 4.031807e-01 3.379801e-02 -6.463759e-02 1.058145e+00 4.954009e-01 -5.538062e-01 -2.931286e-01 -1.356779e-01 7.495323e-01 -2.092722e-01 4.421755e-02 1.138886e-01 -1.271466e-01 -1.450703e-01 -4.044124e-03 3.231352e-01 1.774125e-01 -1.109912e-01 -3.307675e-01 -3.082293e-02 2.942601e-01 3.339410e-02
<VARIANCE> 39
 1.913927e+01 2.939388e+01 5.084051e+01 5.465689e+01 4.430008e+01 6.342801e+01 4.615309e+01 5.800628e+01 8.240604e+01 6.499967e+01 3.980347e+01 3.429282e+01 3.020337e+01 6.956002e-01 1.480665e+00 1.467565e+00 2.007545e+00 1.675629e+00 1.293954e+00 2.004227e+00 2.519005e+00 1.797109e+00 2.309599e+00 1.294238e+00 1.235952e+00 1.031200e+00 5.420475e-02 1.357903e-01 2.264713e-01 2.480320e-01 1.560721e-01 1.659104e-01 1.897694e-01 2.729098e-01 1.844036e-01 2.687402e-01 1.337762e-01 1.136160e-01 1.154594e-01
<GCONST> 1.026573e+02
<STATE> 4
<MEAN> 39
 6.408955e+00 -6.028084e+00 -3.606876e+00 -5.057618e-01 4.659692e+00 8.605950e-01 -4.094881e+00 4.516846e-01 1.154633e+00 -4.077038e+00 -6.143410e+00 -1.899689e+00 1.214434e+01 -4.198154e-01 -2.230518e-02 1.417095e-01 -4.045613e-01 -2.005044e-01 4.986185e-03 6.206146e-01 3.564377e-01 -3.096571e-01 -4.193019e-01 1.707865e-02 3.681915e-01 2.004531e-01 -3.037367e-02 1.649269e-01 1.121821e-01 2.186994e-02 -6.940420e-02 -3.125701e-03 3.734458e-02 -1.719613e-01 -8.979561e-02 1.104512e-01 7.718656e-02 1.175543e-02 -1.212005e-01
<VARIANCE> 39
 3.416710e+01 5.188711e+01 7.694892e+01 5.673178e+01 6.159024e+01 6.840881e+01 6.614429e+01 8.677041e+01 1.261792e+02 6.576144e+01 4.627774e+01 3.167353e+01 6.342788e+01 1.073501e+00 1.341782e+00 1.940676e+00 1.767083e+00 1.489631e+00 1.631181e+00 1.885389e+00 2.129377e+00 1.961731e+00 2.063038e+00 1.294333e+00 1.132608e+00 1.489886e+00 8.355321e-02 1.438296e-01 1.799773e-01 1.785650e-01 1.549835e-01 1.404579e-01 1.633120e-01 2.733716e-01 2.264540e-01 2.481805e-01 1.414358e-01 1.081320e-01 1.260632e-01
<GCONST> 1.071327e+02
<TRANSP> 5
 0.000000e+00 1.000000e+00 0.000000e+00 0.000000e+00 0.000000e+00
 0.000000e+00 6.914609e-01 3.085391e-01 0.000000e+00 0.000000e+00
 0.000000e+00 0.000000e+00 6.269955e-01 3.730046e-01 0.000000e+00
 0.000000e+00 0.000000e+00 0.000000e+00 7.219270e-01 2.780731e-01
 0.000000e+00 0.000000e+00 0.000000e+00 0.000000e+00 0.000000e+00
<ENDHMM>
~h "n"
<BEGINHMM>
<NUMSTATES> 5
<STATE> 2
<MEAN> 39
 3.951808e+00 -2.097921e+00 1.068575e-01 4.495326e-01 3.878900e-01 -2.747916e+00 2.409975e-02 1.953091e+00 -2.673530e+00 -2.387598e+00 -3.413468e+00 -2.913913e-01 8.196463e+00 3.237854e-01 5.730724e-01 5.767959e-01 7.924424e-01 -2.316249e-01 -1.992754e-01 5.209218e-02 -5.040513e-01 -3.847249e-01 -1.287847e-01 -1.125591e-01 9.143953e-02 -7.272024e-01 4.240691e-02 3.872976e-02 -2.558983e-02 -5.273778e-02 -4.362687e-02 4.172578e-02 -5.580076e-02 -8.154237e-02 9.584333e-02 6.311688e-02 2.000391e-02 -3.687238e-02 -2.294073e-02
<VARIANCE> 39
 2.532635e+01 3.221623e+01 4.819186e+01 5.088578e+01 4.624505e+01 5.097646e+01 4.861283e+01 5.177462e+01 5.967692e+01 5.439131e+01 3.883458e+01 2.996120e+01 5.361950e+01 5.428299e-01 7.703339e-01 1.335744e+00 9.880345e-01 1.324777e+00 1.128482e+00 1.129789e+00 1.372187e+00 1.295006e+00 1.217382e+00 9.368466e-01 9.875818e-01 6.686566e-01 6.012736e-02 8.177727e-02 1.152849e-01 1.172231e-01 1.176497e-01 1.292874e-01 1.206630e-01 1.614275e-01 1.671040e-01 1.387423e-01 1.114301e-01 1.095661e-01 8.360977e-02
<GCONST> 9.273505e+01
<STATE> 3
<MEAN> 39
 6.099691e+00 -1.135977e-01 2.346711e+00 3.411502e+00 -1.204650e+00 -3.299098e+00 -4.085810e-01 -9.330816e-01 -2.982230e+00 -1.736621e+00 -4.095623e+00 2.716603e-01 6.228185e+00 3.267100e-01 5.472904e-01 3.746924e-01 4.728188e-01 -1.749453e-01 2.500439e-02 -1.502175e-02 -5.559819e-01 -7.752235e-02 -4.744427e-02 1.814948e-02 -2.632177e-02 -6.747563e-01 -8.983340e-02 -9.616256e-02 -1.451428e-01 -2.051567e-01 5.932368e-02 7.476807e-02 -1.352181e-02 1.190322e-01 8.073283e-02 -8.575669e-03 4.890876e-02 -5.954136e-02 1.161042e-01
<VARIANCE> 39
 2.080448e+01 2.981982e+01 3.329265e+01 3.568399e+01 4.028809e+01 5.517426e+01 4.652668e+01 4.770050e+01 5.356126e+01 3.962730e+01 3.685696e+01 3.310210e+01 3.784296e+01 4.432647e-01 8.073362e-01 1.186617e+00 9.042792e-01 9.596477e-01 9.109583e-01 9.729955e-01 1.230289e+00 1.071321e+00 1.118038e+00 7.657776e-01 7.756518e-01 5.506663e-01 4.181892e-02 7.986575e-02 8.750023e-02 9.243879e-02 1.078088e-01 1.119142e-01 1.090126e-01 1.451467e-01 1.180926e-01 1.055203e-01 9.859019e-02 8.667120e-02 5.147205e-02
<GCONST> 8.595366e+01
<STATE> 4
<MEAN> 39
 3.582299e+00 3.334510e-01 5.983004e-01 7.228509e-01 -4.514487e-01 -1.058151e+00 -1.413390e+00 -1.836409e+00 -2.124144e+00 -3.651549e+00 -3.831949e+00 -1.203386e+00 2.433309e+00 -4.912001e-02 1.434245e-01 4.639974e-02 5.281869e-02 1.524071e-02 -3.239572e-02 3.107922e-02 -5.594738e-02 -3.102175e-02 1.362353e-02 9.512252e-02 1.686425e-02 -1.951798e-01 -2.816254e-02 -5.326885e-02 -2.243906e-02 -5.712364e-02 1.548823e-02 5.553282e-03 6.335855e-03 5.739381e-02 3.255942e-03 3.470750e-02 3.384592e-02 -6.788300e-03 4.288777e-02
<VARIANCE> 39
 1.687853e+01 2.634048e+01 3.001850e+01 2.478694e+01 3.189401e+01 3.198225e+01 2.981156e+01 3.125652e+01 4.145276e+01 3.122156e+01 2.524017e+01 2.097272e+01 2.717006e+01 1.993522e-01 5.783138e-01 5.117140e-01 5.670691e-01 6.565968e-01 5.659116e-01 6.220255e-01 7.623373e-01 6.463706e-01 6.821274e-01 5.650551e-01 4.471954e-01 3.352243e-01 2.094934e-02 5.945174e-02 4.473078e-02 6.499388e-02 7.114894e-02 7.159954e-02 7.341798e-02 8.371928e-02 7.839213e-02 8.278424e-02 6.730327e-02 5.874105e-02 2.814627e-02
<GCONST> 6.942809e+01
<TRANSP> 5
 0.000000e+00 1.000000e+00 0.000000e+00 0.000000e+00 0.000000e+00
 0.000000e+00 3.565443e-01 6.434557e-01 0.000000e+00 0.000000e+00
 0.000000e+00 0.000000e+00 5.279850e-01 4.720150e-01 0.000000e+00
 0.000000e+00 0.000000e+00 0.000000e+00 8.788924e-01 1.211077e-01
 0.000000e+00 0.000000e+00 0.000000e+00 0.000000e+00 0.000000e+00
<ENDHMM>
~h "o"
<BEGINHMM>
<NUMSTATES> 5
<STATE> 2
<MEAN> 39
 -1.359399e+00 -9.654355e-01 -1.133468e+00 1.095699e+00 4.780074e+00 2.635489e+00 1.842095e+00 1.658432e+00 1.501509e-01 1.045491e+00 3.103945e+00 1.085354e-01 -1.224977e+01 9.977327e-01 6.234480e-01 -2.357231e-01 -8.521482e-01 -1.741818e-01 2.022078e-01 -4.456913e-01 -3.043932e-01 4.211430e-02 2.544987e-01 7.472576e-02 -1.531925e-01 7.622817e-01 1.209790e-01 2.479546e-03 -3.845847e-02 -9.675305e-02 -1.436458e-01 -6.938861e-02 -1.255060e-01 -7.267771e-02 6.895930e-02 8.188701e-02 -5.688372e-02 -5.530197e-02 2.733427e-01
<VARIANCE> 39
 9.029982e+01 4.673125e+01 5.213807e+01 6.325610e+01 5.843707e+01 4.764013e+01 4.374955e+01 4.008517e+01 3.921538e+01 3.728249e+01 2.808687e+01 1.972164e+01 3.877815e+02 1.798104e+00 1.249215e+00 1.496268e+00 1.339485e+00 1.705449e+00 1.516652e+00 1.242951e+00 1.109493e+00 1.617199e+00 1.311620e+00 1.039383e+00 6.802995e-01 6.390719e+00 1.690806e-01 1.337428e-01 1.671896e-01 2.069227e-01 1.425666e-01 1.753654e-01 1.655674e-01 1.278601e-01 1.602724e-01 1.396560e-01 1.061570e-01 7.946542e-02 4.700385e-01
<GCONST> 1.041015e+02
<STATE> 3
<MEAN> 39
 1.033047e+01 3.219750e+00 -7.235072e+00 -8.958880e+00 -1.798315e+00 3.778516e+00 -2.084015e+00 -3.005850e+00 -6.694067e-01 2.617956e+00 3.057874e+00 -4.981335e-01 5.566776e+00 7.769414e-01 -5.540622e-01 -7.747132e-01 -3.863815e-01 1.524571e-01 1.387096e-01 -1.236606e+00 -3.764281e-01 7.916260e-01 8.363831e-01 -3.094479e-01 -4.385837e-01 1.812667e+00 -3.720126e-01 -3.228354e-01 1.511137e-01 5.073193e-01 2.488054e-01 -2.687733e-01 -5.525930e-02 1.740306e-01 1.723943e-01 -7.413258e-02 -2.403631e-01 -6.837428e-02 -2.251222e-01
<VARIANCE> 39
 2.027033e+01 3.925763e+01 5.233068e+01 4.274320e+01 4.844181e+01 4.863230e+01 3.926581e+01 4.329177e+01 4.774116e+01 4.737900e+01 4.156990e+01 2.793681e+01 4.512460e+01 1.548132e+00 1.684781e+00 1.934062e+00 3.109717e+00 2.357009e+00 1.950282e+00 1.501432e+00 1.428662e+00 2.121584e+00 1.713149e+00 1.320927e+00 1.071731e+00 3.233254e+00 1.044124e-01 1.432240e-01 1.964979e-01 2.197781e-01 2.531262e-01 2.480565e-01 2.020230e-01 1.789069e-01 2.025345e-01 2.154926e-01 1.939279e-01 1.479028e-01 2.110486e-01
<GCONST> 1.060439e+02
<STATE> 4
<MEAN> 39
 8.130563e+00 -3.866825e+00 -7.960155e+00 -2.673846e+00 3.218559e+00 -6.085063e-01 -8.030124e+00 -1.667777e+00 5.725945e+00 5.173026e+00 -1.461893e+00 -3.666606e+00 9.102611e+00 -4.110612e-01 -3.019927e-01 6.555590e-01 1.109685e+00 7.566281e-02 -9.986951e-01 1.388282e-03 4.035319e-01 2.917024e-01 -5.177930e-01 -5.987417e-01 5.098581e-02 3.912080e-02 -7.108621e-02 2.485145e-01 2.275608e-01 7.362462e-02 -1.697039e-01 -3.220354e-03 3.009507e-01 -1.445839e-03 -2.785053e-01 -2.276026e-01 1.478476e-01 1.848418e-01 -2.530727e-01
<VARIANCE> 39
 2.293378e+01 2.401469e+01 4.366315e+01 5.381569e+01 6.228371e+01 5.169991e+01 4.328594e+01 5.522764e+01 6.667706e+01 7.483870e+01 5.141734e+01 3.298701e+01 4.386002e+01 6.849408e-01 1.139439e+00 1.369000e+00 2.018600e+00 2.320131e+00 1.531901e+00 1.748822e+00 1.162961e+00 2.080522e+00 1.507545e+00 1.615649e+00 1.230351e+00 1.622317e+00 9.048024e-02 1.205426e-01 1.567007e-01 2.492665e-01 2.354147e-01 2.009181e-01 1.855522e-01 1.699233e-01 2.521582e-01 2.263905e-01 1.945241e-01 1.414632e-01 1.584235e-01
<GCONST> 1.038322e+02
<TRANSP> 5
 0.000000e+00 1.000000e+00 0.000000e+00 0.000000e+00 0.000000e+00
 0.000000e+00 7.013302e-01 2.986697e-01 0.000000e+00 0.000000e+00
 0.000000e+00 0.000000e+00 6.902883e-01 3.097117e-01 0.000000e+00
 0.000000e+00 0.000000e+00 0.000000e+00 7.858264e-01 2.141736e-01
 0.000000e+00 0.000000e+00 0.000000e+00 0.000000e+00 0.000000e+00
<ENDHMM>
~h "p"
<BEGINHMM>
<NUMSTATES> 5
<STATE> 2
<MEAN> 39
 -3.788840e+00 -2.504071e-01 -4.036830e+00 4.455513e+00 2.815810e+00 4.724482e-01 1.585699e+00 8.035537e-01 -3.850746e-01 -6.156521e-02 2.423586e+00 -1.548940e+00 -4.729218e+00 -1.353244e-01 -1.044387e-01 -1.179637e-01 2.245325e-01 2.622269e-01 1.683559e-01 7.999705e-02 1.154279e-02 2.194808e-01 1.748652e-01 1.945326e-01 5.077403e-02 -6.016951e-01 1.831286e-02 -7.114401e-02 3.483122e-02 -9.257466e-02 -7.745398e-02 -6.299136e-02 -1.310312e-02 1.984467e-02 4.420396e-02 4.024488e-02 -2.716801e-02 8.110382e-03 1.910055e-01
<VARIANCE> 39
 8.046731e+01 5.845189e+01 2.795983e+01 5.323354e+01 6.161159e+01 4.957016e+01 4.043941e+01 3.734159e+01 4.999240e+01 3.797763e+01 2.571910e+01 2.568115e+01 6.135168e+01 9.205705e-01 7.386203e-01 6.184038e-01 7.549464e-01 9.148466e-01 8.099614e-01 7.920542e-01 7.899048e-01 7.977349e-01 6.574151e-01 5.833538e-01 5.113941e-01 1.262276e+00 9.673680e-02 7.730658e-02 7.289629e-02 9.893604e-02 9.041358e-02 1.021816e-01 1.065994e-01 9.906854e-02 1.052587e-01 9.634688e-02 7.152927e-02 6.201962e-02 1.082567e-01
<GCONST> 8.610802e+01
<STATE> 3
<MEAN> 39
 -1.955692e+00 -2.506173e+00 -3.265103e+00 3.447239e+00 2.673904e+00 2.573628e+00 1.827147e+00 1.021942e+00 2.324126e+00 1.245049e+00 1.954637e+00 -3.050661e-02 -7.549043e+00 -1.935488e-01 -2.476667e-01 2.451550e-01 -7.892200e-02 -1.837233e-01 -1.923776e-01 1.782405e-01 2.425343e-01 4.644854e-01 4.049672e-01 1.917617e-01 1.825330e-02 2.147456e-01 1.310494e-01 -6.451128e-02 5.476587e-02 -1.292450e-01 -1.371550e-01 -1.375541e-01 -7.984781e-02 9.681912e-02 2.134568e-02 -5.190710e-02 -1.129539e-01 -2.564411e-02 4.421022e-01
<VARIANCE> 39
 7.313931e+01 4.076577e+01 4.354440e+01 3.918288e+01 4.078121e+01 3.651770e+01 4.237216e+01 3.922312e+01 4.456778e+01 4.302903e+01 2.177924e+01 2.226018e+01 8.835508e+01 1.324071e+00 1.135376e+00 1.144745e+00 9.534558e-01 1.033428e+00 1.100728e+00 8.588554e-01 8.925769e-01 9.845120e-01 7.906578e-01 6.680506e-01 6.387483e-01 2.460272e+00 1.548778e-01 1.314593e-01 1.368384e-01 1.299755e-01 1.100783e-01 1.572813e-01 1.396914e-01 1.096497e-01 1.186998e-01 1.153182e-01 1.069270e-01 8.081472e-02 2.419242e-01
<GCONST> 9.360143e+01
<STATE> 4
<MEAN> 39
 -3.739761e+00 -3.955270e+00 -1.735891e+00 3.022354e+00 2.605708e+00 1.469818e+00 2.734999e+00 2.472585e+00 3.191643e+00 2.308561e+00 2.687872e+00 -1.006243e-01 -8.798479e+00 8.381107e-01 -3.190650e-01 1.407274e-02 -3.529916e-01 -5.474584e-01 -3.022495e-01 -1.987914e-01 9.342992e-02 2.060156e-01 -7.030325e-02 -5.029398e-01 -3.875106e-02 1.884422e+00 1.368238e-01 4.619351e-02 -2.039241e-02 -1.159812e-01 -6.594063e-02 -1.095712e-02 -1.090551e-01 1.466402e-02 -5.625709e-02 -1.163639e-01 -1.258128e-01 2.589382e-02 1.806053e-01
<VARIANCE> 39
 1.049239e+02 4.703550e+01 5.403471e+01 4.872084e+01 6.936903e+01 5.148075e+01 3.640984e+01 3.281646e+01 5.591734e+01 3.667705e+01 3.638612e+01 2.176244e+01 3.843380e+02 2.995393e+00 1.945394e+00 1.674346e+00 2.038310e+00 2.026863e+00 2.119827e+00 1.176364e+00 8.050880e-01 1.840577e+00 1.384700e+00 1.271537e+00 8.586802e-01 1.153867e+01 2.673014e-01 2.017946e-01 1.574465e-01 1.976358e-01 1.981687e-01 2.128519e-01 1.179202e-01 9.992200e-02 1.702660e-01 1.399333e-01 1.369684e-01 1.003272e-01 1.053420e+00
<GCONST> 1.094690e+02
<TRANSP> 5
 0.000000e+00 1.000000e+00 0.000000e+00 0.000000e+00 0.000000e+00
 0.000000e+00 6.497268e-01 3.502732e-01 0.000000e+00 0.000000e+00
 0.000000e+00 0.000000e+00 4.515731e-01 5.484268e-01 0.000000e+00
 0.000000e+00 0.000000e+00 0.000000e+00 6.608462e-01 3.391538e-01
 0.000000e+00 0.000000e+00 0.000000e+00 0.000000e+00 0.000000e+00
<ENDHMM>
~h "r"
<BEGINHMM>
<NUMSTATES> 5
<STATE> 2
<MEAN> 39
 -2.455076e+00 -9.781047e-01 1.693560e-01 3.651210e+00 1.577852e+00 1.312908e+00 1.737319e+00 2.496522e+00 1.564741e+00 1.354156e-01 3.233663e+00 8.981107e-01 -8.133817e+00 -7.937162e-02 2.945097e-02 2.131862e-01 9.558555e-02 9.702085e-02 1.711427e-01 -8.463105e-02 1.243645e-01 1.054146e-01 4.532539e-02 2.149659e-01 2.903137e-02 -4.758338e-01 5.686922e-02 -1.547138e-02 -1.673188e-02 -7.777341e-02 -4.403240e-02 -3.957448e-02 -4.731720e-02 -3.090516e-02 -3.001985e-02 2.036899e-02 -4.628631e-02 -3.634772e-02 7.548035e-02
<VARIANCE> 39
 6.320640e+01 4.038860e+01 4.371866e+01 5.180757e+01 6.788515e+01 4.680629e+01 4.519644e+01 3.609021e+01 4.552198e+01 4.712090e+01 4.102085e+01 2.089959e+01 3.864825e+02 1.094863e+00 7.304367e-01 8.270952e-01 7.216435e-01 1.047040e+00 9.330604e-01 8.754069e-01 1.034143e+00 1.063565e+00 9.174841e-01 7.642632e-01 4.533612e-01 1.416054e+00 1.016685e-01 6.839202e-02 6.832907e-02 8.401142e-02 1.039772e-01 9.025501e-02 9.282168e-02 1.086673e-01 1.128118e-01 1.003291e-01 8.041450e-02 6.212574e-02 9.613283e-02
<GCONST> 8.997478e+01
<STATE> 3
<MEAN> 39
 4.553621e-01 -2.467500e+00 1.728991e+00 1.668149e+00 -2.010809e+00 -4.263280e-01 2.693358e-01 2.915310e+00 2.403373e+00 -8.861091e-02 1.146644e+00 9.525524e-01 2.956725e+00 1.849625e-01 -1.058299e-01 4.117222e-01 -1.051622e-01 -2.847635e-01 1.972982e-02 -3.799641e-01 -1.997367e-02 -1.213315e-01 1.190508e-01 1.561410e-01 -1.518426e-01 1.161197e-01 9.929442e-02 -1.033564e-02 -7.787188e-02 -1.892206e-01 -7.896979e-02 -9.687027e-02 -4.794102e-02 -5.821353e-02 -5.468774e-02 4.786857e-02 -1.375802e-01 -6.347940e-02 1.839239e-01
<VARIANCE> 39
 3.478587e+01 3.299349e+01 4.453876e+01 4.162185e+01 6.164710e+01 5.034975e+01 4.442905e+01 3.760602e+01 5.318779e+01 3.442129e+01 3.351545e+01 2.357200e+01 1.297862e+02 7.647269e-01 8.042238e-01 1.377952e+00 7.645993e-01 1.369922e+00 1.195510e+00 1.213748e+00 1.377796e+00 1.475682e+00 1.232914e+00 1.066695e+00 6.326218e-01 1.359624e+00 7.333755e-02 8.963043e-02 1.164773e-01 1.015513e-01 1.744771e-01 1.290055e-01 1.344595e-01 1.387951e-01 1.625753e-01 1.183703e-01 1.180326e-01 1.011819e-01 1.062822e-01
<GCONST> 9.398869e+01
<STATE> 4
<MEAN> 39
 4.601713e-01 -3.309807e+00 1.337721e+00 1.331514e+00 -1.578783e+00 -5.375045e-01 1.969311e-01 3.878079e+00 2.579501e+00 -7.405111e-01 5.874206e-01 1.338278e-01 2.138157e+00 4.454981e-01 -2.219553e-01 1.040232e-01 -4.141135e-01 -4.733409e-01 -2.748524e-01 -3.942153e-01 -6.164612e-02 -1.564327e-02 9.338634e-02 -3.046626e-01 -1.871335e-01 1.015922e+00 5.301148e-02 1.220012e-02 -1.204621e-01 -9.708400e-02 1.289149e-03 -2.911489e-02 2.392951e-02 -7.311381e-02 -3.365311e-02 2.040278e-02 -9.845866e-02 5.795400e-03 9.299117e-02
<VARIANCE> 39
 4.861980e+01 4.622723e+01 5.548703e+01 4.393026e+01 7.281775e+01 5.544699e+01 5.609344e+01 4.411067e+01 5.776834e+01 4.117661e+01 4.488801e+01 2.489526e+01 2.046880e+02 1.374041e+00 1.541596e+00 1.923691e+00 1.258941e+00 2.236237e+00 1.703737e+00 1.837358e+00 1.417126e+00 1.738122e+00 1.398143e+00 1.623364e+00 8.084733e-01 4.806525e+00 1.452782e-01 1.482487e-01 1.672025e-01 1.428004e-01 2.222451e-01 1.848191e-01 1.702331e-01 1.329867e-01 1.586974e-01 1.259149e-01 1.676966e-01 9.733430e-02 3.536077e-01
<GCONST> 1.064639e+02
<TRANSP> 5
 0.000000e+00 1.000000e+00 0.000000e+00 0.000000e+00 0.000000e+00
 0.000000e+00 6.491334e-01 3.508666e-01 0.000000e+00 0.000000e+00
 0.000000e+00 0.000000e+00 2.073894e-01 7.926105e-01 0.000000e+00
 0.000000e+00 0.000000e+00 0.000000e+00 5.011616e-01 4.988383e-01
 0.000000e+00 0.000000e+00 0.000000e+00 0.000000e+00 0.000000e+00
<ENDHMM>
~h "s"
<BEGINHMM>
<NUMSTATES> 5
<STATE> 2
<MEAN> 39
 -1.014838e+01 9.373025e+00 -2.842822e+00 3.679852e+00 -5.674676e-01 -6.358017e+00 4.382851e+00 -4.780965e-01 -8.227582e-02 3.405800e-01 2.338041e+00 -6.855269e-02 6.317351e+00 -2.206304e+00 1.141073e+00 -9.104761e-01 5.218700e-01 9.802394e-01 -1.901347e-01 6.431963e-01 8.911555e-02 -1.904252e-01 4.121447e-02 4.068957e-01 -1.496682e-01 -3.412643e-01 9.469568e-02 -2.661033e-01 1.170772e-01 -1.937698e-01 -5.122878e-02 3.631360e-02 -1.585747e-01 5.539436e-02 -1.613551e-02 -2.151699e-03 -6.902475e-02 1.581671e-02 1.747114e-02
<VARIANCE> 39
 7.829568e+01 4.982751e+01 7.381525e+01 4.988978e+01 8.632940e+01 6.370108e+01 5.915465e+01 4.900221e+01 5.081010e+01 5.182899e+01 3.894067e+01 3.316491e+01 3.968426e+01 1.047609e+00 1.216111e+00 1.071716e+00 1.750175e+00 1.502701e+00 1.522944e+00 1.394707e+00 1.378489e+00 1.285193e+00 1.122761e+00 1.411369e+00 9.375868e-01 3.256492e-01 1.846085e-01 1.364732e-01 1.126661e-01 1.289494e-01 1.536676e-01 1.384074e-01 1.500071e-01 1.375973e-01 1.253632e-01 1.019237e-01 1.217649e-01 9.699080e-02 3.230186e-02
<GCONST> 9.746486e+01
<STATE> 3
<MEAN> 39
 -1.918536e+01 9.410026e+00 -4.188901e+00 5.003553e+00 1.940056e+00 -5.471873e+00 5.247881e+00 5.060375e-01 -1.177384e+00 7.640420e-01 3.988680e+00 -1.330146e+00 4.203788e+00 5.331343e-01 -8.152363e-01 4.036509e-01 -3.849760e-01 -2.566879e-02 -9.090158e-02 -2.341965e-01 1.178774e-01 6.584116e-02 -2.497279e-01 -2.161463e-01 5.179421e-02 6.872890e-02 5.980287e-01 -1.343244e-01 1.112682e-01 -1.284192e-01 -1.906071e-01 1.206569e-02 -1.479537e-01 -8.712329e-02 5.334301e-02 -4.639650e-02 -1.373384e-01 5.368293e-02 8.700349e-02
<VARIANCE> 39
 6.426159e+01 4.059706e+01 5.110124e+01 6.003130e+01 8.050011e+01 6.594877e+01 4.464796e+01 5.599408e+01 3.851501e+01 5.193241e+01 4.005251e+01 3.292349e+01 2.699147e+01 2.720432e+00 9.552372e-01 1.513014e+00 1.268574e+00 1.313480e+00 1.239863e+00 1.153463e+00 1.545075e+00 9.910154e-01 1.095625e+00 1.164215e+00 6.377323e-01 8.536606e-01 1.355229e-01 1.358451e-01 1.329011e-01 1.486719e-01 1.246935e-01 1.434055e-01 1.432310e-01 1.419330e-01 1.471382e-01 1.686013e-01 1.278664e-01 9.730341e-02 6.153985e-02
<GCONST> 9.764339e+01
<STATE> 4
<MEAN> 39
 -6.720452e+00 4.889754e+00 -2.706549e+00 -3.494432e-01 2.292792e+00 -7.427566e+00 8.893319e-01 1.687148e+00 9.459534e-01 -9.665179e-01 3.763003e-01 2.848637e-01 5.879960e+00 2.371923e+00 -4.784706e-01 1.391229e-02 -7.056353e-01 -5.720198e-01 3.818054e-01 -8.473213e-01 -3.458888e-01 2.136864e-01 1.568263e-01 -2.664686e-01 1.376059e-02 3.240778e-01 -5.261217e-02 1.186643e-01 -8.604816e-02 1.942528e-02 4.372086e-02 1.254702e-01 3.452699e-02 -8.951662e-02 -4.605837e-02 7.548247e-02 4.254529e-02 -1.679190e-02 -3.506004e-02
<VARIANCE> 39
 7.419049e+01 4.146033e+01 6.650412e+01 4.383916e+01 7.231705e+01 4.846403e+01 6.478040e+01 5.687846e+01 5.430919e+01 5.313743e+01 4.880781e+01 2.343541e+01 3.991716e+01 2.081589e+00 1.401958e+00 1.755679e+00 2.056509e+00 1.836820e+00 1.376593e+00 1.617482e+00 1.715374e+00 2.014689e+00 2.345553e+00 1.772544e+00 1.161627e+00 1.281075e+00 2.555417e-01 1.124885e-01 1.165241e-01 1.312035e-01 1.272728e-01 1.041208e-01 2.188206e-01 1.657573e-01 1.837750e-01 1.896439e-01 1.456482e-01 9.134464e-02 9.414060e-02
<GCONST> 1.041730e+02
<TRANSP> 5
 0.000000e+00 1.000000e+00 0.000000e+00 0.000000e+00 0.000000e+00
 0.000000e+00 8.084838e-01 1.915162e-01 0.000000e+00 0.000000e+00
 0.000000e+00 0.000000e+00 7.971296e-01 2.028704e-01 0.000000e+00
 0.000000e+00 0.000000e+00 0.000000e+00 6.598299e-01 3.401701e-01
 0.000000e+00 0.000000e+00 0.000000e+00 0.000000e+00 0.000000e+00
<ENDHMM>
~h "t"
<BEGINHMM>
<NUMSTATES> 5
<STATE> 2
<MEAN> 39
 8.190976e-01 9.363080e-01 -1.035537e+00 4.034244e+00 1.698975e+00 -3.886569e-01 1.592608e+00 -8.838828e-01 -2.465146e-01 -1.472790e+00 3.256357e-01 2.288832e-01 -4.220457e+00 -5.634243e-01 -4.887145e-01 -3.197453e-01 -5.250264e-02 1.905381e-01 8.243427e-02 2.552812e-01 3.484684e-01 3.789798e-01 2.749122e-01 3.870715e-01 -6.264743e-02 -4.464592e-02 -6.939797e-02 -7.652301e-02 9.407376e-02 -2.332613e-01 -1.498761e-01 -1.146016e-01 -2.048734e-02 5.678578e-02 4.207109e-02 2.600742e-02 -7.305768e-02 -2.659558e-02 5.380329e-01
<VARIANCE> 39
 4.686306e+01 5.349376e+01 7.704895e+01 4.106600e+01 5.283719e+01 5.215840e+01 6.419534e+01 5.386196e+01 5.364359e+01 4.644206e+01 3.331926e+01 2.507666e+01 1.072721e+02 1.224883e+00 1.199618e+00 1.249100e+00 1.237708e+00 1.099053e+00 1.674733e+00 1.278168e+00 1.415837e+00 1.590255e+00 1.190649e+00 8.903750e-01 6.944828e-01 2.752894e+00 1.920360e-01 1.480184e-01 1.419014e-01 1.172409e-01 1.492185e-01 2.283839e-01 2.031160e-01 1.670687e-01 2.020511e-01 1.535332e-01 1.219372e-01 9.440034e-02 2.573979e-01
<GCONST> 1.023379e+02
<STATE> 3
<MEAN> 39
 -4.589340e+00 -2.205187e+00 -9.842448e-01 5.612080e-01 1.650468e+00 -1.995432e+00 2.875369e+00 1.552873e+00 3.204571e+00 7.175898e-01 2.470246e+00 -3.288994e-01 1.610810e+00 2.424444e-01 -4.371834e-01 7.317200e-02 -9.206275e-01 -7.114606e-01 -6.562279e-01 -2.482579e-01 3.749929e-01 3.328052e-01 8.955251e-02 -3.868081e-01 -2.105599e-01 2.335526e+00 3.484956e-01 1.375895e-01 7.652693e-02 -1.331256e-01 -1.757332e-01 -6.316147e-03 -2.062862e-01 -1.054766e-01 -1.685418e-01 -4.967321e-02 -2.236668e-01 -2.857787e-02 1.626855e-01
<VARIANCE> 39
 5.398124e+01 4.434518e+01 5.147198e+01 3.554047e+01 5.095277e+01 5.077823e+01 4.675535e+01 4.336569e+01 4.653284e+01 5.022146e+01 4.355513e+01 2.715386e+01 1.191995e+02 2.016237e+00 1.932943e+00 2.262802e+00 1.584490e+00 1.899690e+00 2.062755e+00 2.946838e+00 2.637709e+00 3.033082e+00 1.866051e+00 1.546158e+00 9.622611e-01 3.710449e+00 1.895028e-01 1.623600e-01 1.651974e-01 1.316756e-01 1.592728e-01 1.851129e-01 1.795764e-01 2.123985e-01 1.873379e-01 1.914624e-01 1.715636e-01 1.170641e-01 3.649915e-01
<GCONST> 1.092076e+02
<STATE> 4
<MEAN> 39
 7.628288e-01 -1.130095e+00 1.164905e+00 -4.093578e+00 -3.820193e+00 -4.160094e+00 -1.444891e+00 5.390105e-01 1.793703e+00 -7.173483e-01 -1.828120e+00 -9.119115e-01 1.045105e+01 5.692690e-01 4.746657e-02 -5.909752e-02 -4.804801e-01 -3.350475e-01 -8.881775e-02 -2.897484e-01 -7.677868e-02 -2.290274e-01 3.603780e-02 -3.485116e-01 -7.201088e-02 7.218808e-01 3.634861e-02 9.345181e-02 1.925718e-02 6.349031e-02 5.837566e-02 1.712067e-01 -2.656181e-03 -1.020808e-01 -1.157350e-01 -1.483114e-02 7.324045e-03 4.378930e-02 -2.561934e-01
<VARIANCE> 39
 3.925388e+01 5.351716e+01 6.465948e+01 5.036032e+01 4.634434e+01 4.928026e+01 6.982224e+01 5.773311e+01 8.272534e+01 4.406201e+01 3.898629e+01 2.718997e+01 6.293684e+01 1.881173e+00 1.930096e+00 2.219815e+00 2.130924e+00 1.385398e+00 1.298635e+00 2.279386e+00 2.332443e+00 2.296345e+00 1.639674e+00 1.379778e+00 1.060275e+00 2.600008e+00 1.418442e-01 1.641812e-01 1.711629e-01 1.921905e-01 1.598453e-01 1.955679e-01 2.888341e-01 2.091154e-01 2.368688e-01 1.674767e-01 1.284076e-01 1.227030e-01 3.060269e-01
<GCONST> 1.085155e+02
<TRANSP> 5
 0.000000e+00 1.000000e+00 0.000000e+00 0.000000e+00 0.000000e+00
 0.000000e+00 6.974580e-01 3.025420e-01 0.000000e+00 0.000000e+00
 0.000000e+00 0.000000e+00 5.984202e-01 4.015797e-01 0.000000e+00
 0.000000e+00 0.000000e+00 0.000000e+00 6.102861e-01 3.897139e-01
 0.000000e+00 0.000000e+00 0.000000e+00 0.000000e+00 0.000000e+00
<ENDHMM>
~h "u"
<BEGINHMM>
<NUMSTATES> 5
<STATE> 2
<MEAN> 39
 7.057600e+00 2.963610e+00 -4.279312e+00 -3.402001e+00 9.840947e-01 -1.753270e+00 -8.436187e+00 -5.167868e+00 -6.003928e-01 3.544052e+00 2.688278e+00 5.961803e-01 4.351818e+00 3.422793e-01 5.349777e-01 -3.697148e-01 -3.448079e-01 2.286452e-01 4.584345e-01 9.399471e-02 -4.619726e-01 -4.928343e-01 3.044160e-02 3.303019e-01 1.004556e-01 -5.204707e-01 -1.466058e-01 -5.096943e-02 1.508816e-01 1.553819e-01 -6.528093e-03 -9.630793e-03 2.998407e-01 1.597199e-01 -2.938114e-03 -1.817518e-01 -8.854496e-02 1.733118e-02 -1.279047e-01
<VARIANCE> 39
 2.367997e+01 2.391958e+01 4.109710e+01 3.773387e+01 3.415348e+01 5.036250e+01 5.313008e+01 3.550064e+01 5.081388e+01 4.704739e+01 3.775554e+01 2.979662e+01 4.162772e+01 6.528134e-01 5.849606e-01 9.654598e-01 1.195126e+00 1.038367e+00 1.006563e+00 1.696499e+00 1.008004e+00 1.360005e+00 1.192702e+00 9.080215e-01 7.103392e-01 5.989260e-01 6.344121e-02 7.143824e-02 9.099559e-02 1.138640e-01 1.221809e-01 1.359796e-01 1.883310e-01 1.145228e-01 1.690478e-01 1.473488e-01 1.184515e-01 1.042551e-01 5.671697e-02
<GCONST> 8.932613e+01
<STATE> 3
<MEAN> 39
 6.339308e+00 4.572989e+00 -4.195042e+00 -1.949401e+00 1.310791e+00 -5.754747e-01 -3.550806e+00 -3.359215e+00 -2.865469e+00 1.900689e-01 3.037102e+00 9.954160e-01 -1.944531e+00 -4.794385e-01 -4.096488e-02 3.223856e-01 4.945324e-01 1.653040e-01 1.198502e-01 5.864552e-01 3.156781e-01 -3.259948e-02 -3.114082e-01 -1.139639e-02 1.024009e-02 -9.094580e-01 -8.935795e-02 -9.469019e-02 4.186901e-02 7.273750e-02 -7.387698e-04 -4.757819e-02 -9.064330e-03 6.249627e-02 6.963319e-02 9.601812e-04 -3.596354e-02 -2.876617e-02 3.783913e-02
<VARIANCE> 39
 3.635315e+01 3.578080e+01 4.302597e+01 5.527439e+01 3.865699e+01 5.084214e+01 4.536847e+01 4.034825e+01 4.399989e+01 4.843021e+01 3.922995e+01 2.746814e+01 7.283684e+01 7.175969e-01 7.413563e-01 7.061356e-01 9.269692e-01 9.345756e-01 1.151085e+00 9.012364e-01 7.647613e-01 9.206300e-01 9.380601e-01 6.804277e-01 6.610811e-01 7.214090e-01 4.978172e-02 5.765986e-02 6.687424e-02 9.229919e-02 8.920798e-02 1.156032e-01 1.043170e-01 9.968069e-02 1.153640e-01 1.029803e-01 7.699049e-02 7.692524e-02 6.331521e-02
<GCONST> 8.562376e+01
<STATE> 4
<MEAN> 39
 3.375525e-01 2.894179e+00 -2.108150e+00 5.370139e-01 2.489761e+00 1.354024e-01 -6.337578e-01 -2.997942e+00 -2.844957e+00 -1.648635e+00 6.991984e-01 1.710193e+00 -4.864990e+00 -3.589389e-01 -1.002746e-01 8.377372e-02 2.553533e-01 1.665944e-01 4.600698e-02 1.609935e-01 1.474677e-01 7.209064e-02 -7.781900e-02 -1.817397e-02 1.440470e-02 -3.732996e-01 9.139398e-03 -3.746777e-02 7.919956e-03 -3.411884e-02 -1.685849e-02 -1.736508e-02 -4.907851e-02 1.480545e-03 2.537204e-02 4.247103e-02 1.569514e-02 -2.356201e-02 7.043782e-02
<VARIANCE> 39
 3.219981e+01 1.931697e+01 2.190406e+01 2.320244e+01 2.608274e+01 2.907182e+01 2.823186e+01 2.538985e+01 3.869148e+01 3.127277e+01 2.421218e+01 1.965748e+01 7.235925e+01 3.458937e-01 2.804034e-01 3.515146e-01 4.695604e-01 4.046501e-01 4.947088e-01 5.492411e-01 4.520000e-01 5.250002e-01 5.591758e-01 4.444745e-01 3.617904e-01 3.424782e-01 3.081788e-02 2.875471e-02 3.655642e-02 4.897933e-02 4.807061e-02 6.203257e-02 6.268252e-02 5.644827e-02 6.414399e-02 6.873492e-02 5.833611e-02 4.775056e-02 2.891152e-02
<GCONST> 6.416698e+01
<TRANSP> 5
 0.000000e+00 1.000000e+00 0.000000e+00 0.000000e+00 0.000000e+00
 0.000000e+00 7.159660e-01 2.840339e-01 0.000000e+00 0.000000e+00
 0.000000e+00 0.000000e+00 6.088772e-01 3.911228e-01 0.000000e+00
 0.000000e+00 0.000000e+00 0.000000e+00 8.452558e-01 1.547442e-01
 0.000000e+00 0.000000e+00 0.000000e+00 0.000000e+00 0.000000e+00
<ENDHMM>
~h "w"
<BEGINHMM>
<NUMSTATES> 5
<STATE> 2
<MEAN> 39
 6.905525e+00 -1.815359e+00 -7.427111e+00 -2.127601e+00 4.115091e+00 1.499334e+00 -2.171889e+00 -3.055241e-01 1.858412e+00 6.518420e-01 -4.202000e-01 -1.664081e+00 5.014711e+00 6.846271e-01 -3.078270e-01 -6.848902e-01 -5.717667e-01 1.782791e-01 4.833736e-01 -3.596675e-01 -6.478205e-02 4.829406e-01 6.087326e-01 -1.882337e-01 -5.041656e-01 6.252273e-01 -1.118899e-01 -7.724553e-02 2.032208e-02 -6.598699e-02 -4.801876e-02 -2.654501e-02 2.359307e-02 9.639715e-02 5.390115e-02 -3.645247e-02 -1.275292e-01 2.580132e-02 1.445773e-01
<VARIANCE> 39
 5.519343e+01 7.410953e+01 5.415635e+01 6.220286e+01 4.627240e+01 5.469796e+01 4.985320e+01 4.767020e+01 6.073089e+01 4.862355e+01 5.888643e+01 3.750262e+01 5.838749e+01 9.767317e-01 1.351891e+00 1.285332e+00 1.698926e+00 1.137187e+00 1.492980e+00 1.319084e+00 1.097363e+00 1.848310e+00 1.304064e+00 1.478827e+00 8.823268e-01 2.343460e+00 1.093494e-01 1.589625e-01 1.295473e-01 2.004469e-01 1.701654e-01 1.797946e-01 1.903681e-01 1.698474e-01 2.118197e-01 1.766620e-01 2.044280e-01 1.131081e-01 2.120215e-01
<GCONST> 1.042136e+02
<STATE> 3
<MEAN> 39
 8.915217e+00 -2.824329e+00 -1.007982e+01 -5.589360e+00 5.421563e+00 4.183290e+00 -4.677408e+00 6.398432e-01 3.350356e+00 4.404434e+00 -1.785815e+00 -5.135452e+00 7.279549e+00 9.175758e-02 -1.070859e-01 -6.644189e-02 -1.613370e-01 -7.779274e-02 -1.203962e-01 9.223170e-02 2.355946e-01 1.740090e-01 -7.406629e-02 -3.009887e-01 -4.582696e-02 1.746701e-01 -1.872532e-01 -3.113263e-02 2.446383e-01 1.193973e-01 -1.514113e-01 -1.680957e-01 1.928867e-01 8.324558e-02 -6.224713e-02 -2.495732e-01 -5.246444e-02 2.159061e-01 1.725890e-02
<VARIANCE> 39
 3.949727e+01 4.705760e+01 5.673534e+01 4.790016e+01 3.502336e+01 6.159966e+01 4.764764e+01 3.668080e+01 4.692304e+01 3.891581e+01 5.017740e+01 3.464736e+01 3.830740e+01 8.966628e-01 1.442992e+00 9.682475e-01 1.283318e+00 1.187596e+00 1.530252e+00 1.671390e+00 1.334737e+00 1.908119e+00 1.215356e+00 2.490785e+00 9.079456e-01 1.120274e+00 7.044560e-02 1.193625e-01 9.988391e-02 1.585700e-01 1.460763e-01 1.295628e-01 1.550952e-01 1.232669e-01 1.554482e-01 1.604365e-01 1.871125e-01 1.096350e-01 1.442603e-01
<GCONST> 9.815453e+01
<STATE> 4
<MEAN> 39
 7.366942e+00 -1.464986e+00 -8.963017e+00 -6.997420e+00 2.945906e+00 3.610575e+00 -1.522567e+00 -4.003470e-01 2.040482e+00 1.598928e+00 -1.591190e+00 -2.576482e+00 6.602180e+00 -1.262790e-01 3.728509e-02 4.278792e-01 1.203959e-01 -3.757062e-01 -4.657247e-01 1.181234e-01 1.702440e-01 -5.680346e-02 -1.851067e-01 -1.113909e-01 2.749975e-01 -6.561101e-02 -5.431859e-02 3.452280e-03 1.013344e-01 8.051052e-02 -4.824130e-02 -2.928170e-02 1.018292e-02 4.312103e-02 7.445720e-04 9.330288e-03 8.745112e-03 9.849146e-03 3.043869e-02
<VARIANCE> 39
 2.956754e+01 4.511854e+01 4.703787e+01 5.143763e+01 4.393195e+01 5.322572e+01 4.353803e+01 3.353574e+01 3.829257e+01 5.144124e+01 4.833252e+01 3.200324e+01 3.069641e+01 7.350836e-01 8.249865e-01 7.430819e-01 9.748303e-01 9.251471e-01 1.004491e+00 1.323371e+00 1.227242e+00 1.104847e+00 1.068982e+00 9.149532e-01 8.661076e-01 1.037767e+00 6.797696e-02 8.505640e-02 7.618580e-02 1.231528e-01 1.100486e-01 1.221198e-01 1.521978e-01 1.298785e-01 1.258304e-01 1.134024e-01 1.217074e-01 9.514628e-02 9.576304e-02
<GCONST> 9.051236e+01
<TRANSP> 5
 0.000000e+00 1.000000e+00 0.000000e+00 0.000000e+00 0.000000e+00
 0.000000e+00 5.771002e-01 4.228999e-01 0.000000e+00 0.000000e+00
 0.000000e+00 0.000000e+00 5.732849e-01 4.267151e-01 0.000000e+00
 0.000000e+00 0.000000e+00 0.000000e+00 7.114189e-01 2.885811e-01
 0.000000e+00 0.000000e+00 0.000000e+00 0.000000e+00 0.000000e+00
<ENDHMM>
~h "y"
<BEGINHMM>
<NUMSTATES> 5
<STATE> 2
<MEAN> 39
 -3.177772e+00 5.254121e+00 1.129768e+01 -6.857569e+00 -4.158442e+00 2.648221e-01 -4.144039e+00 -4.968467e+00 -2.167056e+00 -6.535896e-01 -1.215168e+00 -2.153544e-01 7.142393e+00 8.459338e-02 2.476195e-01 9.491859e-01 -7.724389e-01 -7.326238e-01 -1.526263e-03 -3.555819e-01 -2.074144e-01 2.169523e-02 2.698493e-01 5.599139e-02 1.086219e-01 5.821912e-01 1.225847e-01 -1.797027e-01 -2.167399e-01 6.212473e-02 -7.971565e-02 -5.558510e-02 1.494434e-01 1.420921e-01 4.323561e-02 7.358646e-02 3.188239e-03 -2.038532e-03 8.651105e-03
<VARIANCE> 39
 3.163472e+01 5.878528e+01 6.096243e+01 7.519383e+01 4.760256e+01 4.045012e+01 5.795068e+01 4.760984e+01 5.646898e+01 4.083245e+01 5.956157e+01 3.548425e+01 5.235408e+01 8.514864e-01 1.229538e+00 1.820451e+00 1.273675e+00 1.476397e+00 1.393184e+00 1.206383e+00 1.561476e+00 1.359381e+00 1.058327e+00 1.140110e+00 1.010119e+00 1.275410e+00 7.393850e-02 1.362363e-01 2.072841e-01 1.116653e-01 1.585703e-01 1.446394e-01 1.794529e-01 1.521210e-01 1.409387e-01 1.263436e-01 1.483495e-01 1.366467e-01 6.875697e-02
<GCONST> 9.912438e+01
<STATE> 3
<MEAN> 39
 -1.845093e+00 4.413024e+00 1.225309e+01 -1.102279e+01 -1.082661e+01 6.149481e-01 -1.356281e+00 -5.256882e+00 -1.385938e+00 3.347893e+00 -2.810764e-01 -2.132894e-01 1.138258e+01 5.196542e-01 -1.131519e+00 -9.854445e-01 3.413401e-01 -5.154169e-01 -4.377265e-01 9.202797e-01 9.562629e-01 -1.361303e-01 1.444773e-01 1.629069e-01 -1.655641e-01 4.530024e-01 5.889384e-02 -1.340927e-01 -3.186039e-01 2.774283e-01 3.248793e-01 -1.358375e-01 -1.825299e-02 2.371125e-01 -5.877777e-03 -1.873425e-01 -7.324597e-02 2.392741e-02 -8.825967e-02
<VARIANCE> 39
 2.481814e+01 5.127363e+01 6.065805e+01 8.609225e+01 4.820248e+01 4.918585e+01 6.386657e+01 6.814040e+01 7.143716e+01 3.593013e+01 6.672472e+01 3.702369e+01 4.045801e+01 4.117057e-01 1.329997e+00 1.324157e+00 1.365838e+00 1.182387e+00 1.725063e+00 1.823328e+00 1.500088e+00 1.766408e+00 1.312042e+00 1.047853e+00 9.900502e-01 7.045752e-01 4.441471e-02 1.164080e-01 1.400290e-01 1.365363e-01 1.914626e-01 1.645999e-01 2.152202e-01 1.518348e-01 1.686193e-01 1.319845e-01 1.392960e-01 1.138165e-01 7.465155e-02
<GCONST> 9.849052e+01
<STATE> 4
<MEAN> 39
 1.530954e+00 -3.281396e+00 5.255492e+00 -4.376654e+00 -8.538670e+00 -4.622492e+00 1.153247e+00 4.061428e+00 -3.235225e+00 -5.904571e-04 -1.094418e-01 -3.803888e-01 1.193043e+01 5.819734e-01 -6.746192e-01 -1.522479e+00 8.087608e-01 1.055355e+00 -4.585313e-01 -2.560767e-01 8.382997e-01 4.097342e-01 -4.187220e-01 -3.812020e-01 5.238099e-02 -1.494356e-01 -1.756219e-02 2.140764e-01 6.552263e-02 1.078887e-02 2.065540e-01 1.887916e-01 -1.924915e-01 -3.095973e-01 5.407501e-02 3.723001e-02 -3.044431e-02 -1.417803e-02 -1.988846e-01
<VARIANCE> 39
 2.506783e+01 3.207096e+01 5.351958e+01 5.733081e+01 4.594933e+01 6.162724e+01 6.532595e+01 6.645222e+01 6.132097e+01 3.783894e+01 4.233511e+01 3.150257e+01 3.971069e+01 3.306997e-01 8.445852e-01 1.462520e+00 1.367812e+00 1.288220e+00 1.540072e+00 1.716721e+00 1.812827e+00 1.796306e+00 1.402512e+00 1.365793e+00 8.662327e-01 6.063347e-01 2.983817e-02 7.992050e-02 1.160861e-01 9.786972e-02 1.332930e-01 1.816766e-01 1.892518e-01 1.758416e-01 1.575221e-01 1.293861e-01 1.244122e-01 9.914237e-02 4.130727e-02
<GCONST> 9.406198e+01
<TRANSP> 5
 0.000000e+00 1.000000e+00 0.000000e+00 0.000000e+00 0.000000e+00
 0.000000e+00 7.227026e-01 2.772974e-01 0.000000e+00 0.000000e+00
 0.000000e+00 0.000000e+00 7.157977e-01 2.842023e-01 0.000000e+00
 0.000000e+00 0.000000e+00 0.000000e+00 6.973085e-01 3.026915e-01
 0.000000e+00 0.000000e+00 0.000000e+00 0.000000e+00 0.000000e+00
<ENDHMM>
~h "aa"
<BEGINHMM>
<NUMSTATES> 5
<STATE> 2
<MEAN> 39
 4.594516e+00 -7.438425e+00 -6.483733e+00 -3.101800e+00 9.609150e-01 2.099624e+00 -4.218560e-01 3.946928e+00 4.304739e+00 -8.001405e-01 -5.446535e+00 -1.947377e+00 1.120149e+01 1.707130e-01 -1.141618e+00 -1.022440e+00 -6.627061e-01 6.386229e-01 8.919699e-01 -1.998186e-02 2.164249e-01 1.227462e-01 -4.249609e-01 -7.868859e-01 -1.174462e-01 1.229005e+00 -1.044579e-01 1.411856e-01 1.198914e-01 1.817637e-01 1.273177e-01 -3.058780e-02 -2.626014e-02 -1.611293e-01 -1.252169e-01 1.509687e-02 1.462920e-01 1.561760e-02 -2.079345e-01
<VARIANCE> 39
 2.666423e+01 3.823665e+01 5.004488e+01 6.192201e+01 6.626665e+01 6.005187e+01 5.226686e+01 5.479999e+01 9.611861e+01 6.348890e+01 4.526885e+01 3.261723e+01 5.033392e+01 8.314641e-01 1.041783e+00 1.330432e+00 1.331135e+00 1.503277e+00 1.629169e+00 1.492029e+00 1.399319e+00 1.579798e+00 1.483049e+00 1.308417e+00 9.815065e-01 1.218994e+00 7.637344e-02 1.021596e-01 1.245745e-01 1.455215e-01 1.628116e-01 1.910560e-01 1.381414e-01 1.689850e-01 1.623431e-01 1.588133e-01 1.403237e-01 9.063674e-02 1.093289e-01
<GCONST> 9.985640e+01
<STATE> 3
<MEAN> 39
 3.258413e+00 -1.005816e+01 -9.540551e+00 -2.461343e+00 7.040566e+00 4.196059e+00 -7.875612e-01 1.714750e+00 1.088509e+00 -3.451216e+00 -6.309562e+00 -1.733351e+00 1.369174e+01 -9.979177e-02 -1.298658e-01 -2.135543e-02 1.336979e-01 2.412157e-01 -1.733885e-02 -4.979189e-02 5.879811e-03 -7.793574e-02 -1.724844e-01 -7.609809e-02 5.436626e-02 4.695865e-02 1.593114e-03 1.474879e-01 1.518445e-01 1.353863e-02 -2.259009e-01 -1.485886e-01 5.700523e-02 4.338298e-02 5.589967e-04 2.912022e-02 6.152941e-02 3.333640e-02 -1.017149e-01
<VARIANCE> 39
 1.685592e+01 2.492381e+01 3.098232e+01 4.260771e+01 3.907971e+01 3.600421e+01 4.575643e+01 3.574913e+01 5.099609e+01 5.229292e+01 3.486375e+01 3.261020e+01 3.587872e+01 2.087842e-01 3.408182e-01 4.998522e-01 5.496840e-01 1.104740e+00 7.475318e-01 8.189511e-01 7.489333e-01 6.825120e-01 6.578746e-01 6.267396e-01 5.286131e-01 1.785011e-01 2.158944e-02 3.414601e-02 4.744141e-02 6.438228e-02 6.761396e-02 6.633229e-02 7.857891e-02 7.801520e-02 8.113594e-02 7.177079e-02 7.771031e-02 6.043174e-02 2.068413e-02
<GCONST> 7.192293e+01
<STATE> 4
<MEAN> 39
 3.628497e+00 -7.826052e+00 -6.903089e+00 -1.863574e+00 2.802030e+00 1.581966e+00 6.375146e-01 3.352161e+00 2.337471e+00 -3.280118e+00 -6.078202e+00 -1.216007e+00 1.005335e+01 -2.828406e-02 5.101239e-01 6.285138e-01 3.168763e-01 -5.599024e-01 -4.088515e-01 2.371778e-01 -1.293004e-01 -2.518935e-01 -3.776454e-02 3.902135e-01 1.921303e-01 -7.682112e-01 8.029259e-03 5.688675e-02 4.143500e-02 1.715346e-02 4.296401e-02 3.409312e-02 -5.133513e-02 -8.370331e-02 -1.825855e-02 8.713651e-02 7.105348e-02 -2.617755e-02 -8.316409e-02
<VARIANCE> 39
 2.118979e+01 3.112691e+01 3.408478e+01 3.869350e+01 4.271523e+01 5.416971e+01 4.976875e+01 5.077575e+01 7.781617e+01 6.703414e+01 3.884779e+01 3.284677e+01 7.063893e+01 5.287927e-01 5.900353e-01 8.088066e-01 7.585532e-01 1.088660e+00 1.156736e+00 1.123750e+00 1.082745e+00 9.858488e-01 9.888085e-01 8.128944e-01 6.712181e-01 5.594577e-01 5.411297e-02 6.742336e-02 6.316417e-02 8.682468e-02 1.108591e-01 1.399999e-01 1.265953e-01 1.338948e-01 1.080086e-01 1.049288e-01 9.417953e-02 7.182560e-02 6.274733e-02
<GCONST> 8.715768e+01
<TRANSP> 5
 0.000000e+00 1.000000e+00 0.000000e+00 0.000000e+00 0.000000e+00
 0.000000e+00 7.170749e-01 2.829252e-01 0.000000e+00 0.000000e+00
 0.000000e+00 0.000000e+00 8.433988e-01 1.566012e-01 0.000000e+00
 0.000000e+00 0.000000e+00 0.000000e+00 8.272480e-01 1.727519e-01
 0.000000e+00 0.000000e+00 0.000000e+00 0.000000e+00 0.000000e+00
<ENDHMM>
~h "ai"
<BEGINHMM>
<NUMSTATES> 5
<STATE> 2
<MEAN> 39
 -6.833871e+00 6.033415e-01 1.412117e+00 4.955821e+00 3.891247e+00 3.202256e+00 2.877784e-01 3.451744e+00 -2.521375e-01 2.503892e+00 3.807543e+00 -1.051328e+00 -2.303217e+01 2.799018e-02 9.106468e-02 1.623221e-01 -4.063978e-02 1.209067e-01 2.754773e-01 1.250311e-01 2.738964e-02 2.096465e-01 8.063830e-02 1.659241e-03 1.143803e-01 -4.848003e-01 1.068531e-01 2.771734e-02 1.155498e-02 1.724713e-02 -5.419599e-02 -1.014723e-01 -5.674785e-02 -8.916423e-02 -1.574910e-02 -5.450382e-02 -6.363532e-02 -1.958677e-02 2.576652e-01
<VARIANCE> 39
 5.759528e+01 2.547766e+01 3.277643e+01 3.624899e+01 4.541525e+01 4.074955e+01 3.492103e+01 3.531743e+01 4.303745e+01 3.843819e+01 2.735500e+01 1.595725e+01 4.784863e+02 1.337691e+00 6.715587e-01 5.789815e-01 5.329614e-01 6.212868e-01 1.155777e+00 6.293590e-01 8.205431e-01 1.309910e+00 7.288972e-01 8.330564e-01 5.530668e-01 4.427486e+00 1.883548e-01 5.962678e-02 4.465570e-02 7.637479e-02 7.782158e-02 1.468016e-01 1.045396e-01 1.247982e-01 1.520332e-01 7.717861e-02 1.058535e-01 6.658699e-02 7.486236e-01
<GCONST> 9.007054e+01
<STATE> 3
<MEAN> 39
 1.143261e+00 -2.945073e+00 1.582013e+00 4.420864e+00 -1.918558e+00 2.824040e+00 5.270005e+00 2.543749e+00 1.018525e+00 1.177620e+00 -1.596328e+00 1.461284e+00 2.678477e+00 3.291251e-01 2.482134e-01 3.485077e-01 -5.613086e-01 -1.235404e+00 -4.769193e-01 -5.596587e-01 -9.344004e-01 -3.839189e-01 -2.083125e-01 -6.477366e-01 -6.821378e-02 2.054232e+00 -1.599237e-02 9.672739e-02 8.390611e-02 -2.142401e-01 -8.204250e-03 -1.086823e-01 -2.848343e-01 -4.438220e-02 4.598464e-02 4.338188e-02 6.538235e-02 -6.778179e-02 9.738836e-03
<VARIANCE> 39
 2.443644e+01 4.383829e+01 3.607476e+01 6.655792e+01 8.980463e+01 4.464065e+01 6.829285e+01 3.384735e+01 4.621311e+01 3.444742e+01 3.773914e+01 2.002988e+01 3.002460e+02 1.835549e+00 1.089364e+00 1.269267e+00 1.703128e+00 1.385805e+00 9.726933e-01 2.536679e+00 2.474449e+00 1.819615e+00 1.167655e+00 9.605536e-01 6.595049e-01 8.217806e+00 7.729448e-02 1.065925e-01 1.232572e-01 1.220245e-01 1.218760e-01 1.211691e-01 2.438840e-01 2.062497e-01 1.429413e-01 1.331676e-01 9.402251e-02 6.942094e-02 4.609205e-01
<GCONST> 1.022187e+02
<STATE> 4
<MEAN> 39
 7.164847e-01 -2.079721e-01 7.085376e+00 -4.149974e+00 -8.460228e+00 -2.516251e+00 -5.591257e-01 -7.130802e-01 -1.403749e+00 6.637467e-01 -2.331038e+00 7.076871e-01 8.907640e+00 -5.126249e-02 3.844156e-01 1.673361e-01 5.348361e-02 6.633281e-02 -9.893818e-02 -1.254690e-01 -3.100012e-01 2.730887e-02 1.128807e-01 1.367463e-01 1.233222e-01 -2.765142e-01 1.991422e-02 -4.670434e-02 -9.087802e-02 5.116148e-02 6.507179e-02 3.455977e-02 2.195097e-02 6.053450e-02 3.135361e-02 -2.120314e-02 9.842345e-03 1.026730e-02 -2.109940e-02
<VARIANCE> 39
 1.993821e+01 3.291446e+01 4.182434e+01 4.351513e+01 3.415993e+01 2.416514e+01 3.971729e+01 6.885022e+01 5.906476e+01 3.996104e+01 2.908998e+01 3.410639e+01 5.976466e+01 4.589861e-01 8.079146e-01 9.212600e-01 9.472745e-01 8.381562e-01 6.831086e-01 1.035720e+00 1.717262e+00 1.327877e+00 7.317493e-01 7.680722e-01 7.975336e-01 1.130149e+00 3.018040e-02 5.692240e-02 6.462350e-02 7.739332e-02 7.633097e-02 7.924841e-02 1.150296e-01 1.847804e-01 1.362761e-01 9.916607e-02 1.087375e-01 1.049841e-01 4.746884e-02
<GCONST> 8.510220e+01
<TRANSP> 5
 0.000000e+00 1.000000e+00 0.000000e+00 0.000000e+00 0.000000e+00
 0.000000e+00 7.561886e-01 2.438114e-01 0.000000e+00 0.000000e+00
 0.000000e+00 0.000000e+00 5.464314e-01 4.535685e-01 0.000000e+00
 0.000000e+00 0.000000e+00 0.000000e+00 9.173960e-01 8.260393e-02
 0.000000e+00 0.000000e+00 0.000000e+00 0.000000e+00 0.000000e+00
<ENDHMM>
~h "bb"
<BEGINHMM>
<NUMSTATES> 5
<STATE> 2
<MEAN> 39
 9.501690e+00 5.345320e+00 -9.930755e+00 -1.381882e+01 -2.232038e+00 -2.457810e-01 -2.412094e+00 -1.499921e+00 -1.710363e+00 9.976401e-01 1.949876e+00 -1.310650e-01 3.405958e+00 -7.515770e-02 5.925867e-01 2.851026e-01 3.668904e-01 -7.435102e-03 3.493615e-01 3.332058e-01 -2.796854e-01 -5.853787e-01 -3.387758e-01 5.009679e-02 5.427755e-02 -6.559621e-01 -2.780206e-02 7.793230e-03 1.367481e-01 2.861157e-01 7.321358e-02 2.311061e-02 2.003166e-02 -2.801343e-02 3.602447e-02 1.973600e-02 -4.225537e-02 -7.120724e-02 -1.424012e-01
<VARIANCE> 39
 2.212672e+01 3.418464e+01 2.671417e+01 3.026548e+01 2.739728e+01 1.888733e+01 1.532267e+01 2.832841e+01 4.172461e+01 4.326624e+01 2.675247e+01 2.249787e+01 3.342749e+01 2.558024e-01 1.768637e-01 4.839912e-01 1.466789e+00 4.981559e-01 5.002623e-01 3.298036e-01 4.798677e-01 6.946737e-01 6.072162e-01 5.680426e-01 6.427007e-01 5.573733e-01 3.498475e-02 3.811702e-02 6.349381e-02 1.638658e-01 6.328690e-02 6.350756e-02 5.322473e-02 7.790379e-02 9.183852e-02 7.580959e-02 6.818337e-02 6.049268e-02 8.331103e-02
<GCONST> 7.047349e+01
<STATE> 3
<MEAN> 39
 7.477871e+00 3.588755e+00 -5.968567e+00 -2.713342e+00 1.448151e+00 3.753255e+00 -1.142292e+00 -2.385408e+00 -1.683383e+00 -3.398534e-01 -6.792495e-01 -1.239473e+00 9.949698e-01 -8.640938e-02 1.837221e-01 5.432681e-01 1.581021e+00 4.704508e-01 3.234116e-01 8.165878e-01 -1.614676e-01 1.076960e-01 -8.808321e-02 1.371963e-01 -9.606904e-02 -9.579876e-01 -5.996446e-02 -1.225384e-01 -4.672124e-03 -1.134892e-01 -7.010505e-02 -6.924664e-02 -2.656362e-02 4.824411e-02 1.119406e-01 5.769454e-02 -1.835435e-02 2.203963e-02 8.779699e-02
<VARIANCE> 39
 3.019389e+01 6.944884e+01 2.307612e+01 4.665841e+01 2.314194e+01 2.173371e+01 4.531234e+01 2.918859e+01 3.439689e+01 2.925408e+01 2.896884e+01 1.914014e+01 5.112209e+01 6.831805e-01 4.158102e-01 5.420640e-01 8.469651e-01 7.297565e-01 7.540350e-01 4.258911e-01 7.186413e-01 9.624978e-01 4.854991e-01 6.416509e-01 7.930814e-01 2.773378e-01 4.485346e-02 6.041339e-02 4.986994e-02 1.063837e-01 3.762812e-02 4.241903e-02 8.251245e-02 7.551882e-02 1.035826e-01 7.018019e-02 4.767121e-02 5.622319e-02 4.550012e-02
<GCONST> 7.373976e+01
<STATE> 4
<MEAN> 39
 3.122801e+00 1.048788e+00 -3.582755e+00 -2.125341e+00 2.700549e+00 4.319096e+00 5.635117e-01 -1.868026e+00 -1.511232e+00 7.595173e-02 9.915501e-01 -2.125681e+00 5.260396e-02 -2.194778e-01 -1.781082e-01 6.887922e-02 7.805616e-02 -4.618184e-02 -1.129579e-01 -8.747092e-02 2.090367e-01 1.426765e-01 7.427311e-02 -4.951856e-02 -7.206574e-02 1.019506e-01 2.385153e-02 -6.218662e-02 -2.078719e-02 -1.065038e-01 -6.916822e-02 -8.026735e-02 -7.197813e-02 5.315712e-02 4.888966e-02 4.043308e-02 -3.022244e-02 1.062610e-02 1.347182e-01
<VARIANCE> 39
 1.566472e+01 3.930600e+01 1.742325e+01 3.800499e+01 2.558614e+01 2.418014e+01 2.144813e+01 1.837306e+01 3.341159e+01 2.045743e+01 3.249675e+01 2.992337e+01 1.796032e+01 2.892555e-01 5.269774e-01 5.519022e-01 1.112862e+00 5.205913e-01 8.121553e-01 5.993082e-01 4.925074e-01 5.086179e-01 3.958063e-01 8.234594e-01 6.941047e-01 6.044735e-01 3.900852e-02 6.184874e-02 7.229763e-02 1.241805e-01 7.575613e-02 7.549622e-02 6.186060e-02 5.427596e-02 7.102862e-02 6.363305e-02 1.147595e-01 8.361004e-02 7.090814e-02
<GCONST> 7.188695e+01
<TRANSP> 5
 0.000000e+00 1.000000e+00 0.000000e+00 0.000000e+00 0.000000e+00
 0.000000e+00 8.278662e-01 1.721338e-01 0.000000e+00 0.000000e+00
 0.000000e+00 0.000000e+00 7.260443e-01 2.739557e-01 0.000000e+00
 0.000000e+00 0.000000e+00 0.000000e+00 8.765129e-01 1.234871e-01
 0.000000e+00 0.000000e+00 0.000000e+00 0.000000e+00 0.000000e+00
<ENDHMM>
~h "bh"
<BEGINHMM>
<NUMSTATES> 5
<STATE> 2
<MEAN> 39
 -9.025114e+00 -4.568991e+00 -2.083039e+00 3.119975e+00 5.145891e+00 3.110458e+00 4.067275e+00 4.818344e+00 3.925537e+00 2.826220e+00 2.090566e+00 1.783843e+00 -1.707970e+01 1.968004e-01 -3.884683e-01 -3.664265e-01 -1.387465e-01 1.041890e-01 -3.561905e-01 2.272268e-01 1.763029e-01 3.239776e-01 -1.003307e-01 -3.864865e-01 -3.798503e-03 1.453167e+00 1.513153e-01 1.981698e-02 5.378981e-02 -1.253856e-01 -1.555727e-01 -7.516694e-02 -9.963458e-04 -2.820486e-02 -4.292032e-03 -3.952238e-02 -1.031912e-01 -4.195364e-02 2.846033e-01
<VARIANCE> 39
 1.292207e+02 8.145238e+01 4.892931e+01 4.697552e+01 7.198444e+01 8.052215e+01 5.418058e+01 7.498645e+01 4.102929e+01 3.613451e+01 4.856546e+01 1.807935e+01 5.181259e+02 3.725027e+00 1.997274e+00 2.139680e+00 1.793958e+00 1.954993e+00 3.168583e+00 1.723133e+00 1.664081e+00 1.160029e+00 1.884806e+00 1.416301e+00 4.578753e-01 1.275235e+01 2.546831e-01 2.923281e-01 1.602768e-01 2.516386e-01 2.127259e-01 3.967748e-01 2.453119e-01 1.800616e-01 1.140658e-01 1.457292e-01 1.573397e-01 5.111349e-02 1.195479e+00
<GCONST> 1.149651e+02
<STATE> 3
<MEAN> 39
 6.584166e+00 -6.659480e+00 -2.722637e+00 -5.452622e-01 1.921115e-01 -2.465228e+00 1.325690e+00 4.048362e+00 5.023510e+00 -1.700700e+00 -8.246936e+00 -2.988605e+00 1.193221e+01 6.032067e-02 1.546370e-01 1.264902e+00 -7.110077e-01 -8.801042e-01 1.144450e-01 -1.945014e-01 -5.643306e-02 -3.731622e-01 3.931780e-01 -1.111563e-01 -1.235153e-01 6.179330e-01 -1.798319e-01 1.129557e-01 1.250732e-01 -1.421737e-02 5.014469e-02 1.869140e-01 -5.561320e-02 -1.979237e-01 -6.744552e-02 1.492024e-02 9.923311e-02 -9.573531e-03 -1.822197e-01
<VARIANCE> 39
 2.558163e+01 3.073153e+01 8.660286e+01 6.801257e+01 9.917444e+01 4.690658e+01 2.856706e+01 4.676641e+01 6.453120e+01 1.071459e+02 5.449905e+01 2.228611e+01 6.169137e+01 1.711123e+00 1.931326e+00 1.940357e+00 3.629003e+00 4.080951e+00 2.542796e+00 7.229837e-01 4.183457e+00 3.008603e+00 8.717324e-01 1.800513e+00 5.625015e-01 2.974939e+00 1.071263e-01 1.491498e-01 1.990182e-01 2.985723e-01 5.176800e-01 3.483428e-01 1.317418e-01 3.590655e-01 2.354096e-01 1.898801e-01 1.636361e-01 9.173018e-02 5.778452e-01
<GCONST> 1.118152e+02
<STATE> 4
<MEAN> 39
 4.819541e+00 -1.031536e+00 6.652851e+00 -4.310259e+00 -3.488235e+00 -3.959225e-01 3.174018e+00 -3.697825e+00 -4.450288e+00 1.724495e+00 -6.784772e+00 -4.184586e+00 1.039497e+01 2.439814e-02 2.144942e-01 9.445206e-02 2.700020e-01 2.854568e-01 6.834991e-02 -3.484198e-01 -6.379616e-01 -4.356289e-01 -4.586127e-01 -1.222914e-01 -1.906552e-01 -2.790808e-01 -1.461835e-02 -4.415277e-02 -1.514082e-01 1.338369e-01 5.923826e-02 5.721861e-02 -9.593614e-02 8.206510e-02 1.399366e-01 -1.653305e-01 7.223941e-02 -1.978051e-02 -2.385128e-02
<VARIANCE> 39
 2.749877e+01 1.604532e+01 3.414188e+01 7.081866e+01 2.705616e+01 5.510594e+01 4.545472e+01 8.127083e+01 3.737113e+01 4.191868e+01 6.131266e+01 5.405738e+01 6.058171e+01 9.483781e-01 1.256800e+00 1.417763e+00 2.789041e+00 1.241177e+00 1.778333e+00 6.750652e-01 2.018178e+00 1.246403e+00 2.164681e+00 1.951052e+00 7.906862e-01 9.812275e-01 7.858777e-02 9.066387e-02 1.291954e-01 3.401792e-01 2.111184e-01 2.567081e-01 6.023957e-02 2.432855e-01 1.125434e-01 1.421665e-01 2.022101e-01 1.284327e-01 9.092251e-02
<GCONST> 9.931348e+01
<TRANSP> 5
 0.000000e+00 1.000000e+00 0.000000e+00 0.000000e+00 0.000000e+00
 0.000000e+00 8.716751e-01 1.283249e-01 0.000000e+00 0.000000e+00
 0.000000e+00 0.000000e+00 8.203477e-01 1.796523e-01 0.000000e+00
 0.000000e+00 0.000000e+00 0.000000e+00 7.476273e-01 2.523727e-01
 0.000000e+00 0.000000e+00 0.000000e+00 0.000000e+00 0.000000e+00
<ENDHMM>
~h "dd"
<BEGINHMM>
<NUMSTATES> 5
<STATE> 2
<MEAN> 39
 2.921897e+00 5.887755e+00 8.319179e+00 4.027880e+00 -5.772255e+00 -3.245769e+00 1.002806e+00 -2.893142e+00 -2.672964e+00 6.470181e-01 1.366953e+00 -3.566805e-01 -1.443573e+00 2.948787e-02 5.057477e-01 -4.893540e-01 6.599104e-01 1.136239e+00 5.830753e-01 2.788300e-01 6.721209e-02 2.473999e-01 -3.764152e-01 -3.634071e-01 -2.773669e-01 -9.116094e-01 -1.231156e-01 -6.182215e-02 -4.044487e-02 -1.188764e-01 2.404629e-02 1.146015e-02 2.819523e-03 -5.445166e-02 -3.289352e-02 3.722594e-02 3.307520e-02 1.328880e-02 9.186066e-02
<VARIANCE> 39
 9.760128e+00 2.377402e+01 2.392306e+01 2.194406e+01 3.148401e+01 8.131645e+01 2.548831e+01 3.869912e+01 3.545125e+01 2.740682e+01 2.813768e+01 2.704639e+01 2.286305e+01 2.555611e-01 3.963583e-01 6.220055e-01 5.524463e-01 6.691172e-01 6.610574e-01 9.071844e-01 7.236874e-01 7.159978e-01 5.406497e-01 7.115764e-01 4.657453e-01 2.939309e-01 3.056480e-02 3.816994e-02 4.461853e-02 7.257430e-02 6.210987e-02 1.364707e-01 7.855629e-02 8.417527e-02 7.024989e-02 7.381583e-02 6.999901e-02 4.801391e-02 5.107991e-02
<GCONST> 7.069271e+01
<STATE> 3
<MEAN> 39
 1.033609e+00 6.844342e+00 5.626898e+00 6.559596e+00 1.241839e+00 -1.012291e+00 1.952254e+00 -3.703269e+00 -3.723650e+00 -7.707416e-01 1.432117e+00 -6.592738e-02 -5.626207e+00 -4.206698e-01 -2.494281e-01 -6.384351e-01 -3.207359e-03 7.247373e-01 1.335869e-01 5.377993e-02 4.700132e-02 1.357216e-01 -1.197608e-01 4.900465e-02 3.296964e-02 -2.357326e-01 -6.971169e-02 -1.856199e-01 -1.073169e-02 -1.808334e-01 -1.951993e-01 -1.834230e-01 -3.668589e-02 9.722824e-02 1.255249e-01 2.691095e-02 4.722678e-02 5.306425e-02 2.905436e-01
<VARIANCE> 39
 1.047115e+01 2.186437e+01 2.125695e+01 1.899259e+01 3.082255e+01 3.331051e+01 2.307434e+01 2.899458e+01 4.361050e+01 3.424207e+01 2.483752e+01 2.654472e+01 1.977732e+01 1.679339e-01 3.421289e-01 3.472254e-01 5.771524e-01 5.211372e-01 7.557353e-01 7.503892e-01 5.873559e-01 7.292364e-01 4.489401e-01 5.069215e-01 3.706622e-01 3.801053e-01 4.033254e-02 5.958059e-02 5.908693e-02 5.985828e-02 8.034865e-02 8.243790e-02 1.291108e-01 8.580454e-02 1.084220e-01 8.523269e-02 7.689361e-02 5.506022e-02 6.852373e-02
<GCONST> 6.934006e+01
<STATE> 4
<MEAN> 39
 -1.450956e+00 5.587471e+00 3.421888e+00 6.566247e+00 3.562478e+00 1.472853e+00 2.359632e+00 -1.514254e+00 -2.292572e-01 1.729719e+00 3.046586e+00 -7.007745e-01 -1.138872e+01 -5.590022e-01 -1.052871e+00 -5.795364e-01 -6.729457e-01 -3.635836e-01 -7.121168e-01 -2.135477e-02 6.349519e-01 5.659015e-01 -1.467731e-01 -2.587310e-02 2.306818e-01 1.529339e+00 1.174746e-01 -1.496220e-01 1.066402e-01 -2.913873e-01 -4.129008e-01 -1.870072e-01 -4.758897e-02 2.152776e-01 7.185579e-02 4.406004e-02 -1.209972e-01 4.554709e-02 5.337927e-01
<VARIANCE> 39
 4.212366e+01 3.986962e+01 3.492104e+01 3.165012e+01 4.184834e+01 4.799772e+01 2.738084e+01 4.226632e+01 3.545478e+01 4.321410e+01 2.347256e+01 2.248874e+01 2.490761e+02 1.296196e+00 1.380454e+00 1.246914e+00 1.136223e+00 1.451540e+00 1.787451e+00 1.415411e+00 1.688775e+00 1.363680e+00 9.987121e-01 8.811280e-01 7.867190e-01 4.371043e+00 1.425470e-01 1.377380e-01 1.112292e-01 1.543209e-01 1.424931e-01 1.460415e-01 2.218005e-01 1.673372e-01 1.234089e-01 1.510264e-01 1.011011e-01 9.105116e-02 3.393546e-01
<GCONST> 9.915124e+01
<TRANSP> 5
 0.000000e+00 1.000000e+00 0.000000e+00 0.000000e+00 0.000000e+00
 0.000000e+00 7.400182e-01 2.599818e-01 0.000000e+00 0.000000e+00
 0.000000e+00 0.000000e+00 7.640477e-01 2.359523e-01 0.000000e+00
 0.000000e+00 0.000000e+00 0.000000e+00 6.821662e-01 3.178338e-01
 0.000000e+00 0.000000e+00 0.000000e+00 0.000000e+00 0.000000e+00
<ENDHMM>
~h "dh"
<BEGINHMM>
<NUMSTATES> 5
<STATE> 2
<MEAN> 39
 5.684096e+00 1.352639e+00 1.806507e-01 9.177004e-01 7.713906e-01 -9.309409e-01 2.313829e+00 -1.488107e+00 -6.698643e+00 -3.900229e+00 -2.988756e+00 -6.425784e+00 2.852497e+00 -6.219776e-01 2.728362e-01 8.655857e-01 1.729842e-01 -1.561330e-01 -1.878636e-01 1.167588e-01 -4.403629e-01 -9.144687e-02 -1.559150e-02 -2.867642e-01 -1.363824e-01 3.781567e-02 -1.826785e-01 -2.480591e-02 2.507917e-02 -2.660814e-01 -1.577555e-01 -1.461827e-01 -1.444706e-02 -1.121588e-01 2.537108e-01 5.874052e-02 -1.466749e-02 2.262256e-01 1.950848e-01
<VARIANCE> 39
 4.443453e+01 5.105404e+01 3.935833e+01 5.715080e+01 5.356521e+01 1.690438e+01 3.554026e+01 4.403590e+01 2.865921e+01 6.404762e+01 1.973954e+01 2.994567e+01 4.413691e+01 1.683753e+00 8.162723e-01 1.279607e+00 3.645473e+00 9.125817e-01 7.487152e-01 6.025043e-01 1.389502e+00 1.617297e+00 1.415848e+00 6.385056e-01 1.102394e+00 1.374349e+00 1.528635e-01 1.764690e-01 1.547817e-01 2.644669e-01 1.066309e-01 7.456321e-02 1.333951e-01 1.817143e-01 1.489793e-01 1.718913e-01 1.117778e-01 1.437026e-01 1.459200e-01
<GCONST> 9.598221e+01
<STATE> 3
<MEAN> 39
 1.453563e+00 3.402875e+00 4.230841e+00 -1.241360e+00 -3.832641e+00 -2.960713e+00 1.032738e+00 -5.091478e+00 -3.873393e+00 -1.455952e+00 -3.886786e+00 -3.162840e+00 4.921340e+00 -6.588358e-01 -1.422300e-01 2.412479e-02 -6.508057e-01 -6.391252e-01 -2.557940e-01 -1.160805e-01 -3.752404e-01 2.296592e-01 -4.168622e-01 -1.386555e-01 6.270230e-01 7.289321e-01 5.706245e-02 -1.310992e-01 -1.372028e-01 7.599670e-02 3.589303e-02 5.039852e-02 -1.495340e-02 1.437838e-01 4.496722e-02 -4.475835e-03 7.509632e-02 -7.773188e-03 5.549836e-03
<VARIANCE> 39
 3.455888e+01 5.088168e+01 3.787671e+01 6.085322e+01 6.119242e+01 1.967872e+01 2.638778e+01 6.975345e+01 2.178973e+01 3.145960e+01 2.883453e+01 2.704643e+01 7.581606e+01 5.825691e-01 2.022535e+00 8.581475e-01 1.205162e+00 1.718994e+00 4.628496e-01 1.148713e+00 9.864978e-01 4.948105e-01 1.128137e+00 1.189826e+00 7.895613e-01 1.695044e+00 7.615702e-02 1.893963e-01 1.013748e-01 1.553310e-01 1.559231e-01 8.158170e-02 8.774267e-02 1.236235e-01 8.518076e-02 1.223849e-01 1.091861e-01 7.047588e-02 1.907358e-01
<GCONST> 9.063150e+01
<STATE> 4
<MEAN> 39
 2.065432e+00 -1.630950e+00 4.239671e+00 -7.106245e+00 -7.489807e+00 -1.990725e+00 -6.298707e-01 -3.083036e+00 -3.589996e+00 -6.101192e+00 -2.558772e+00 3.119262e-01 7.438591e+00 -2.184114e-02 9.454209e-02 5.888272e-02 5.281995e-02 7.036228e-03 -1.584531e-02 -1.773483e-01 -2.366248e-03 1.204138e-01 -9.100278e-02 -1.014471e-02 7.848190e-02 -1.043325e-01 -7.609194e-03 5.706005e-04 5.123603e-03 1.169956e-02 1.494084e-02 5.913931e-04 2.095764e-03 6.464710e-03 -9.562315e-03 3.419644e-02 1.400481e-02 -9.708788e-03 -4.035947e-03
<VARIANCE> 39
 1.036185e+01 4.371270e+01 3.769162e+01 5.815712e+01 3.737555e+01 3.094032e+01 1.017392e+02 3.765013e+01 3.831492e+01 4.946956e+01 3.014765e+01 3.029776e+01 2.054739e+01 1.498645e-01 7.976841e-01 5.923708e-01 7.288718e-01 1.039325e+00 6.496906e-01 1.894686e+00 8.715358e-01 9.402962e-01 1.037278e+00 7.947087e-01 8.507445e-01 3.643000e-01 1.238287e-02 6.491721e-02 5.597198e-02 6.459879e-02 1.125182e-01 8.292921e-02 1.614962e-01 9.594690e-02 1.011660e-01 1.064046e-01 9.368099e-02 9.515564e-02 3.622414e-02
<GCONST> 7.973543e+01
<TRANSP> 5
 0.000000e+00 1.000000e+00 0.000000e+00 0.000000e+00 0.000000e+00
 0.000000e+00 6.420488e-01 3.579511e-01 0.000000e+00 0.000000e+00
 0.000000e+00 0.000000e+00 6.170000e-01 3.830000e-01 0.000000e+00
 0.000000e+00 0.000000e+00 0.000000e+00 9.390693e-01 6.093074e-02
 0.000000e+00 0.000000e+00 0.000000e+00 0.000000e+00 0.000000e+00
<ENDHMM>
~h "dx"
<BEGINHMM>
<NUMSTATES> 5
<STATE> 2
<MEAN> 39
