~o
<STREAMINFO> 1 39
<VECSIZE> 39<NULLD><MFCC_D_A_Z_0><DIAGC>
~h "proto"
<BEGINHMM>
<NUMSTATES> 5
<STATE> 2
<MEAN> 39
 -9.163375e-07 -2.439918e-06 4.084901e-07 -4.390783e-07 1.292941e-06 6.330249e-07 -1.971210e-08 -5.700195e-09 -4.492600e-07 -3.065224e-07 1.371164e-06 -4.085853e-07 -1.567283e-07 8.998428e-03 1.015059e-02 8.206506e-03 -1.099781e-02 1.314103e-02 -3.495218e-03 -3.334908e-03 -2.352000e-03 -6.014088e-03 -4.851101e-03 -2.837957e-03 -1.997858e-03 -1.046541e-02 -1.743176e-04 -7.190602e-05 2.059105e-04 2.431712e-04 -8.251899e-06 -2.426375e-04 1.644666e-04 3.161608e-04 1.260829e-04 -5.620240e-04 -2.057260e-04 7.998243e-04 -1.135258e-04
<VARIANCE> 39
 6.814484e+01 5.262102e+01 7.808640e+01 6.187391e+01 7.141970e+01 5.622651e+01 5.558486e+01 5.667352e+01 6.554452e+01 4.950135e+01 4.626168e+01 2.830699e+01 2.207569e+02 1.072396e+00 1.026268e+00 1.229081e+00 1.313262e+00 1.310404e+00 1.170959e+00 1.203271e+00 1.198864e+00 1.243331e+00 1.017141e+00 9.179736e-01 6.729847e-01 1.897257e+00 9.899367e-02 9.834280e-02 1.079472e-01 1.340101e-01 1.390857e-01 1.317002e-01 1.355069e-01 1.355767e-01 1.349754e-01 1.186600e-01 1.058651e-01 8.182095e-02 1.584109e-01
<GCONST> 9.952972e+01
<STATE> 3
<MEAN> 39
 -9.163375e-07 -2.439918e-06 4.084901e-07 -4.390783e-07 1.292941e-06 6.330249e-07 -1.971210e-08 -5.700195e-09 -4.492600e-07 -3.065224e-07 1.371164e-06 -4.085853e-07 -1.567283e-07 8.998428e-03 1.015059e-02 8.206506e-03 -1.099781e-02 1.314103e-02 -3.495218e-03 -3.334908e-03 -2.352000e-03 -6.014088e-03 -4.851101e-03 -2.837957e-03 -1.997858e-03 -1.046541e-02 -1.743176e-04 -7.190602e-05 2.059105e-04 2.431712e-04 -8.251899e-06 -2.426375e-04 1.644666e-04 3.161608e-04 1.260829e-04 -5.620240e-04 -2.057260e-04 7.998243e-04 -1.135258e-04
<VARIANCE> 39
 6.814484e+01 5.262102e+01 7.808640e+01 6.187391e+01 7.141970e+01 5.622651e+01 5.558486e+01 5.667352e+01 6.554452e+01 4.950135e+01 4.626168e+01 2.830699e+01 2.207569e+02 1.072396e+00 1.026268e+00 1.229081e+00 1.313262e+00 1.310404e+00 1.170959e+00 1.203271e+00 1.198864e+00 1.243331e+00 1.017141e+00 9.179736e-01 6.729847e-01 1.897257e+00 9.899367e-02 9.834280e-02 1.079472e-01 1.340101e-01 1.390857e-01 1.317002e-01 1.355069e-01 1.355767e-01 1.349754e-01 1.186600e-01 1.058651e-01 8.182095e-02 1.584109e-01
<GCONST> 9.952972e+01
<STATE> 4
<MEAN> 39
 -9.163375e-07 -2.439918e-06 4.084901e-07 -4.390783e-07 1.292941e-06 6.330249e-07 -1.971210e-08 -5.700195e-09 -4.492600e-07 -3.065224e-07 1.371164e-06 -4.085853e-07 -1.567283e-07 8.998428e-03 1.015059e-02 8.206506e-03 -1.099781e-02 1.314103e-02 -3.495218e-03 -3.334908e-03 -2.352000e-03 -6.014088e-03 -4.851101e-03 -2.837957e-03 -1.997858e-03 -1.046541e-02 -1.743176e-04 -7.190602e-05 2.059105e-04 2.431712e-04 -8.251899e-06 -2.426375e-04 1.644666e-04 3.161608e-04 1.260829e-04 -5.620240e-04 -2.057260e-04 7.998243e-04 -1.135258e-04
<VARIANCE> 39
 6.814484e+01 5.262102e+01 7.808640e+01 6.187391e+01 7.141970e+01 5.622651e+01 5.558486e+01 5.667352e+01 6.554452e+01 4.950135e+01 4.626168e+01 2.830699e+01 2.207569e+02 1.072396e+00 1.026268e+00 1.229081e+00 1.313262e+00 1.310404e+00 1.170959e+00 1.203271e+00 1.198864e+00 1.243331e+00 1.017141e+00 9.179736e-01 6.729847e-01 1.897257e+00 9.899367e-02 9.834280e-02 1.079472e-01 1.340101e-01 1.390857e-01 1.317002e-01 1.355069e-01 1.355767e-01 1.349754e-01 1.186600e-01 1.058651e-01 8.182095e-02 1.584109e-01
<GCONST> 9.952972e+01
<TRANSP> 5
 0.000000e+00 1.000000e+00 0.000000e+00 0.000000e+00 0.000000e+00
 0.000000e+00 6.000000e-01 4.000000e-01 0.000000e+00 0.000000e+00
 0.000000e+00 0.000000e+00 6.000000e-01 4.000000e-01 0.000000e+00
 0.000000e+00 0.000000e+00 0.000000e+00 7.000000e-01 3.000000e-01
 0.000000e+00 0.000000e+00 0.000000e+00 0.000000e+00 0.000000e+00
<ENDHMM>
