~o
<STREAMINFO> 1 39
<VECSIZE> 39<NULLD><MFCC_D_A_Z_0><DIAGC>
~s "silst"
<MEAN> 39
 -2.590332e+00 -1.692352e+00 -4.190264e+00 7.790803e+00 4.556348e+00 4.445585e+00 1.549994e+00 9.722961e-01 1.873387e+00 1.688399e+00 3.489450e+00 1.278401e+00 -8.960865e+00 -6.334316e-02 1.759459e-02 -4.224606e-02 2.572444e-02 -9.053266e-03 2.859808e-02 1.762196e-02 -4.336233e-02 2.772011e-02 1.631484e-03 -4.623207e-02 1.923559e-03 -8.392582e-02 9.140642e-03 5.990126e-03 1.216671e-02 -2.479596e-03 4.458333e-03 1.572053e-03 2.344908e-03 7.273423e-03 6.268631e-03 -8.218574e-03 -7.935942e-03 4.989318e-03 6.545900e-03
<VARIANCE> 39
 1.072757e+01 4.545544e+01 2.514490e+01 3.641392e+01 2.939296e+01 2.856780e+01 6.302604e+01 3.636258e+01 3.713815e+01 3.789352e+01 3.121737e+01 1.914120e+01 2.175296e+01 9.405438e-02 1.626846e-01 2.243264e-01 2.505478e-01 3.511349e-01 4.170047e-01 4.388285e-01 4.341383e-01 3.787424e-01 4.663095e-01 3.681432e-01 3.323019e-01 6.592524e-02 1.046134e-02 1.913043e-02 2.770967e-02 3.244855e-02 4.594110e-02 5.105369e-02 5.864560e-02 5.410930e-02 5.071311e-02 5.796086e-02 4.862797e-02 4.328707e-02 6.807440e-03
<GCONST> 5.436495e+01
~h "a"
<BEGINHMM>
<NUMSTATES> 5
<STATE> 2
<MEAN> 39
 4.597278e+00 -5.570282e+00 -3.383810e+00 -2.078573e+00 -1.839616e+00 -1.974539e+00 -4.675032e-01 5.709809e+00 4.329429e+00 2.004345e-01 -3.815263e+00 -1.280396e+00 1.027954e+01 3.825723e-01 -7.549246e-01 -4.318202e-01 -3.961304e-01 -1.820223e-01 5.170408e-02 -1.537979e-01 6.703434e-01 3.210507e-01 -2.010019e-01 -7.299817e-01 -7.456160e-02 1.124120e+00 -8.641939e-02 2.223281e-01 1.386496e-01 1.638328e-01 9.703401e-02 9.114311e-02 3.960793e-02 -2.420896e-01 -1.846088e-01 -2.665002e-02 1.266736e-01 1.627109e-02 -3.323758e-01
<VARIANCE> 39
 3.507010e+01 4.486943e+01 5.824465e+01 5.267735e+01 7.413187e+01 7.590058e+01 7.183295e+01 5.923976e+01 1.111177e+02 6.188757e+01 5.347687e+01 3.569848e+01 6.998296e+01 1.220308e+00 1.558268e+00 1.777747e+00 1.772251e+00 2.094966e+00 2.021314e+00 2.048368e+00 1.773762e+00 2.162692e+00 1.753056e+00 1.432671e+00 1.153372e+00 2.231061e+00 1.188701e-01 1.533728e-01 1.621518e-01 1.805992e-01 2.374162e-01 2.357207e-01 2.483061e-01 2.287170e-01 2.544211e-01 2.171893e-01 1.905612e-01 1.295819e-01 2.411060e-01
<GCONST> 1.105518e+02
<STATE> 3
<MEAN> 39
 3.622200e+00 -6.779617e+00 -3.159089e+00 -3.508139e+00 -2.741826e+00 -2.558404e+00 3.849873e-01 6.608171e+00 2.773795e+00 -1.782391e+00 -5.377442e+00 -5.723021e-01 1.290347e+01 5.496013e-02 3.010185e-01 2.130384e-01 3.963014e-01 1.722161e-01 1.405883e-01 4.515537e-02 -3.657100e-01 -3.014961e-01 -1.510144e-01 1.529677e-01 1.126341e-02 -4.902953e-01 -3.509404e-02 2.681632e-01 1.557470e-01 2.359421e-01 6.992974e-02 1.698452e-02 -5.659555e-03 -2.814648e-01 -8.944231e-02 7.393894e-02 2.235022e-01 1.603708e-03 -3.733071e-01
<VARIANCE> 39
 2.274569e+01 2.762468e+01 4.316656e+01 3.445848e+01 5.424293e+01 5.320173e+01 6.786767e+01 4.890208e+01 8.912415e+01 5.763427e+01 3.705394e+01 3.116879e+01 3.922608e+01 5.600260e-01 7.834300e-01 1.068001e+00 1.027833e+00 1.422875e+00 1.391793e+00 1.491319e+00 1.129384e+00 1.164073e+00 1.074881e+00 1.034823e+00 7.368370e-01 6.841058e-01 9.302146e-02 9.181900e-02 1.010855e-01 1.219455e-01 1.717261e-01 1.630843e-01 1.993795e-01 1.686809e-01 1.773449e-01 1.642404e-01 1.168491e-01 1.055255e-01 5.691670e-02
<GCONST> 9.388825e+01
<STATE> 4
<MEAN> 39
 3.956013e+00 -3.849096e+00 -3.399840e+00 3.300601e-01 8.916417e-01 3.007837e-01 5.939025e-01 2.187819e+00 3.585401e-01 -2.252202e+00 -2.590895e+00 -1.604811e+00 4.461025e+00 -8.210173e-02 5.057482e-01 2.702167e-01 5.059732e-01 1.464999e-01 8.049548e-02 1.640037e-01 -4.254088e-01 -2.938943e-01 -4.811588e-02 3.266923e-01 5.183499e-02 -9.740430e-01 -3.948129e-02 4.700421e-03 1.902972e-03 -4.184760e-02 -2.606552e-02 -2.067484e-02 1.950915e-03 2.584615e-02 2.042230e-02 2.958944e-02 1.043498e-02 1.430417e-02 1.850419e-02
<VARIANCE> 39
 2.037817e+01 3.214986e+01 4.870458e+01 4.787733e+01 5.518671e+01 4.929477e+01 5.149999e+01 4.012590e+01 5.645329e+01 4.904116e+01 3.238681e+01 2.992374e+01 6.003266e+01 6.785989e-01 6.513558e-01 7.625096e-01 8.540710e-01 8.509648e-01 1.027841e+00 1.121734e+00 9.667694e-01 1.271277e+00 8.855191e-01 6.924794e-01 6.329075e-01 6.225110e-01 4.172495e-02 5.589828e-02 6.543062e-02 7.496231e-02 8.580175e-02 9.076066e-02 1.045470e-01 9.631795e-02 1.035301e-01 8.748507e-02 7.840001e-02 6.558457e-02 4.564581e-02
<GCONST> 8.398415e+01
<TRANSP> 5
 0.000000e+00 1.000000e+00 0.000000e+00 0.000000e+00 0.000000e+00
 0.000000e+00 5.984973e-01 4.015027e-01 0.000000e+00 0.000000e+00
 0.000000e+00 0.000000e+00 6.328995e-01 3.671005e-01 0.000000e+00
 0.000000e+00 0.000000e+00 0.000000e+00 7.441102e-01 2.558898e-01
 0.000000e+00 0.000000e+00 0.000000e+00 0.000000e+00 0.000000e+00
<ENDHMM>
~h "b"
<BEGINHMM>
<NUMSTATES> 5
<STATE> 2
<MEAN> 39
 4.967699e+00 1.207882e+00 -4.206538e-01 1.558925e+00 -1.777568e+00 -6.514270e-01 -1.565673e+00 -2.256680e+00 -1.593091e+00 -4.719664e-01 -1.565519e+00 -1.108093e+00 2.010100e+00 2.766685e-01 6.430807e-01 7.160372e-02 1.287373e-01 1.036383e-01 3.766791e-02 -7.910684e-02 -2.302361e-01 -2.878679e-01 -1.183166e-01 -3.020071e-02 -1.609100e-01 -2.618407e-01 -3.451461e-02 -3.650978e-02 -2.574892e-02 -1.365863e-01 1.044700e-02 -1.359220e-03 7.773916e-03 4.986713e-02 8.099025e-02 5.102042e-02 2.379870e-02 6.444764e-04 1.447110e-01
<VARIANCE> 39
 2.864870e+01 4.334006e+01 5.182038e+01 8.129303e+01 7.135128e+01 7.135345e+01 5.309430e+01 6.929308e+01 6.096612e+01 5.269469e+01 5.866555e+01 4.532140e+01 6.239121e+01 8.451999e-01 1.069745e+00 1.095733e+00 2.721015e+00 1.510593e+00 2.348082e+00 1.786713e+00 1.253806e+00 1.346795e+00 1.228555e+00 1.724343e+00 1.589528e+00 1.780350e+00 9.535503e-02 1.260751e-01 1.244563e-01 3.137932e-01 1.662453e-01 3.319392e-01 2.144938e-01 1.877221e-01 2.020933e-01 1.961099e-01 1.737188e-01 1.763254e-01 1.907708e-01
<GCONST> 1.069961e+02
<STATE> 3
<MEAN> 39
 6.358606e+00 5.075530e+00 1.421677e+00 4.658196e+00 1.284578e+00 -8.082166e-01 -9.461332e-03 -1.606244e+00 -2.400810e+00 -2.588804e+00 -1.315363e+00 -3.476085e+00 -1.312624e+00 5.810412e-02 -3.207478e-01 -2.467175e-01 -1.646909e-01 3.251517e-01 1.340482e-01 6.105086e-02 1.945806e-01 5.052402e-01 5.145849e-01 1.357027e-01 -4.489441e-02 3.900315e-01 -4.286589e-02 -4.109102e-01 -2.581463e-01 -3.974873e-01 -2.075932e-01 -8.747918e-02 -1.509064e-01 1.183444e-01 2.339424e-01 2.287648e-01 -6.914812e-02 1.244246e-01 5.013167e-01
<VARIANCE> 39
 2.205084e+01 3.311517e+01 4.316729e+01 6.393997e+01 5.774531e+01 5.549829e+01 4.942628e+01 5.560599e+01 5.126432e+01 4.546513e+01 3.552879e+01 2.708597e+01 4.425567e+01 7.631602e-01 1.603911e+00 1.820315e+00 1.851282e+00 1.141770e+00 1.201218e+00 1.167650e+00 1.133694e+00 1.635188e+00 1.266327e+00 1.121397e+00 9.013119e-01 1.568184e+00 9.226096e-02 1.770566e-01 2.031616e-01 2.663176e-01 2.292383e-01 1.998330e-01 1.877650e-01 1.966247e-01 1.789035e-01 1.752848e-01 1.987795e-01 1.295446e-01 1.639952e-01
<GCONST> 1.014570e+02
<STATE> 4
<MEAN> 39
 3.601449e+00 7.793328e-01 1.433867e-02 3.469849e+00 2.430422e+00 3.651035e-02 6.403425e-01 -1.523237e+00 -2.097883e-01 1.794458e-01 1.884459e-02 -1.246726e+00 -3.549301e-01 9.148370e-02 -8.602883e-01 -5.785456e-01 -8.145894e-01 -4.294955e-01 -3.432398e-01 -4.006122e-01 4.129258e-01 5.191076e-01 6.077002e-01 5.884156e-02 1.748307e-01 9.966195e-01 2.099783e-02 -1.108223e-01 -3.537714e-03 -1.692639e-01 -1.832567e-01 -5.999260e-02 -1.037316e-01 6.290116e-02 -3.538529e-04 -1.198392e-02 -1.192517e-01 8.720208e-03 2.383897e-01
<VARIANCE> 39
 2.436753e+01 2.505327e+01 3.606350e+01 4.038992e+01 3.128005e+01 3.178662e+01 3.056050e+01 3.494214e+01 3.769297e+01 3.421093e+01 3.063452e+01 2.367520e+01 3.988858e+01 6.411611e-01 1.397059e+00 2.126707e+00 1.671989e+00 1.661987e+00 1.496245e+00 1.295725e+00 1.400428e+00 1.583944e+00 1.743566e+00 1.435339e+00 8.469949e-01 1.548057e+00 6.476057e-02 8.161170e-02 1.280760e-01 1.191535e-01 1.128527e-01 1.110155e-01 9.615462e-02 1.179038e-01 1.038427e-01 1.081209e-01 1.275065e-01 7.569290e-02 7.476950e-02
<GCONST> 9.099077e+01
<TRANSP> 5
 0.000000e+00 1.000000e+00 0.000000e+00 0.000000e+00 0.000000e+00
 0.000000e+00 6.706330e-01 3.293669e-01 0.000000e+00 0.000000e+00
 0.000000e+00 0.000000e+00 5.677025e-01 4.322975e-01 0.000000e+00
 0.000000e+00 0.000000e+00 0.000000e+00 6.073408e-01 3.926592e-01
 0.000000e+00 0.000000e+00 0.000000e+00 0.000000e+00 0.000000e+00
<ENDHMM>
~h "c"
<BEGINHMM>
<NUMSTATES> 5
<STATE> 2
<MEAN> 39
 -1.155991e+00 1.368707e+00 -4.508557e-01 6.729785e-01 3.733171e+00 1.157710e+00 -2.965942e+00 -1.067410e-01 8.919441e-01 1.447238e+00 2.852263e+00 6.864900e-01 -1.203023e+01 -9.640335e-01 -2.233720e-02 1.337640e-01 -2.409723e-01 -1.509830e-01 1.532080e-01 1.032217e-01 2.363650e-01 -4.976995e-02 -1.209937e-01 1.918185e-01 -9.661745e-02 9.514253e-01 -1.847444e-01 5.819713e-02 7.819924e-02 -9.395670e-02 -6.451377e-02 -4.538928e-02 6.173232e-02 -1.618469e-02 -4.192968e-02 3.028187e-02 6.753435e-03 -3.660175e-02 1.883563e-01
<VARIANCE> 39
 1.252593e+02 4.406012e+01 4.329318e+01 5.101916e+01 4.828184e+01 5.210293e+01 6.825815e+01 5.202797e+01 3.148482e+01 3.885720e+01 3.733546e+01 2.147367e+01 4.641575e+02 4.760086e+00 1.462206e+00 1.440096e+00 2.143765e+00 1.808713e+00 1.639015e+00 1.917299e+00 1.328961e+00 1.166103e+00 1.324471e+00 1.067524e+00 5.592214e-01 1.005685e+01 4.421136e-01 1.587591e-01 1.908240e-01 2.669922e-01 1.887707e-01 2.017720e-01 2.152242e-01 1.227275e-01 1.347692e-01 1.651419e-01 1.147297e-01 7.181588e-02 8.403909e-01
<GCONST> 1.099386e+02
<STATE> 3
<MEAN> 39
 -1.618658e+01 2.006221e+00 5.402361e+00 -3.715843e+00 1.183386e+00 2.896545e-01 2.972828e+00 1.951789e+00 -2.492145e+00 2.165667e+00 4.901926e+00 -2.565845e+00 7.352138e+00 -4.854576e-01 2.313347e-02 1.088181e+00 -2.255753e-01 -1.067568e+00 -5.208310e-01 6.131567e-01 -4.305523e-02 -4.937409e-01 1.517763e-01 2.937203e-01 -4.429149e-01 1.026428e+00 8.921825e-01 3.417778e-03 -7.353843e-02 1.431859e-01 -1.744657e-01 -1.286325e-01 -1.844880e-01 -1.725697e-01 6.444597e-02 -2.318746e-02 -1.644343e-01 9.143670e-02 -2.026434e-01
<VARIANCE> 39
 5.632407e+01 3.418476e+01 3.506408e+01 2.686572e+01 3.372996e+01 2.957125e+01 5.346437e+01 3.687733e+01 4.221630e+01 6.025058e+01 4.987094e+01 3.244688e+01 3.143832e+01 5.304391e+00 1.058767e+00 1.235845e+00 1.056969e+00 9.315872e-01 1.129603e+00 1.481118e+00 1.522858e+00 1.239839e+00 9.796221e-01 1.459058e+00 7.703033e-01 1.053752e+00 2.989496e-01 1.429974e-01 1.688237e-01 9.218891e-02 1.446046e-01 9.987608e-02 1.591324e-01 1.235134e-01 1.645248e-01 1.494509e-01 1.670889e-01 1.177181e-01 9.299695e-02
<GCONST> 9.698747e+01
<STATE> 4
<MEAN> 39
 -1.093601e+00 5.755656e+00 3.623658e+00 -7.844927e-01 -8.593881e+00 -2.689581e+00 -2.276654e+00 -3.677523e+00 1.970716e-02 9.233897e-01 2.912485e+00 -2.668330e+00 8.919048e+00 1.310256e+00 3.661187e-01 -4.569208e-02 6.390546e-02 -3.489951e-01 -3.019722e-01 -4.795757e-01 -3.836440e-01 1.451753e-02 2.441594e-01 -4.144269e-02 -5.826720e-02 1.930589e-01 -7.495958e-02 4.151566e-02 -1.615230e-01 -8.558486e-02 2.460980e-01 1.915924e-01 -2.330230e-02 -1.822457e-02 -4.276301e-02 1.481581e-02 3.323726e-02 6.056577e-02 -1.631685e-01
<VARIANCE> 39
 8.086775e+01 8.479573e+01 9.552608e+01 7.226046e+01 5.328632e+01 5.889386e+01 7.465984e+01 7.909938e+01 5.659169e+01 5.914465e+01 3.087184e+01 2.883817e+01 3.927602e+01 3.945688e+00 1.679183e+00 1.386700e+00 1.852979e+00 2.500757e+00 1.635378e+00 1.548321e+00 1.685661e+00 1.486173e+00 1.876782e+00 1.204989e+00 8.397656e-01 1.313955e+00 2.377337e-01 1.375360e-01 1.081389e-01 2.224272e-01 2.165553e-01 2.288858e-01 1.320499e-01 2.315188e-01 1.673293e-01 1.875273e-01 1.290628e-01 1.011130e-01 1.348604e-01
<GCONST> 1.077319e+02
<TRANSP> 5
 0.000000e+00 1.000000e+00 0.000000e+00 0.000000e+00 0.000000e+00
 0.000000e+00 8.861760e-01 1.138240e-01 0.000000e+00 0.000000e+00
 0.000000e+00 0.000000e+00 8.009455e-01 1.990544e-01 0.000000e+00
 0.000000e+00 0.000000e+00 0.000000e+00 7.110233e-01 2.889767e-01
 0.000000e+00 0.000000e+00 0.000000e+00 0.000000e+00 0.000000e+00
<ENDHMM>
~h "d"
<BEGINHMM>
<NUMSTATES> 5
<STATE> 2
<MEAN> 39
 5.685221e+00 4.732984e+00 2.970015e+00 4.711400e+00 6.884438e-01 -1.400542e+00 1.515375e+00 -1.626514e+00 -1.717589e+00 -1.134987e+00 -1.704255e+00 -1.704468e+00 -6.891252e-01 -6.276073e-01 -3.439448e-01 -5.296095e-02 -1.067696e-01 2.165581e-01 -1.422653e-01 2.562605e-01 4.140618e-01 1.075001e-01 5.319608e-02 4.416089e-01 -1.154120e-01 1.771744e-01 -1.704212e-01 -2.558168e-01 -4.337246e-02 -3.918204e-01 -3.128187e-01 -2.058615e-01 -1.433952e-01 9.173921e-02 1.542102e-01 1.170696e-01 -1.769234e-04 1.317331e-01 5.428404e-01
<VARIANCE> 39
 2.646351e+01 4.359428e+01 4.721371e+01 3.370067e+01 5.209557e+01 4.608768e+01 5.309845e+01 5.293908e+01 4.752893e+01 4.078291e+01 3.747742e+01 2.570698e+01 3.441145e+01 8.011110e-01 1.326360e+00 1.216809e+00 1.243177e+00 1.328890e+00 1.417167e+00 1.375223e+00 1.459229e+00 1.448461e+00 1.241993e+00 1.054691e+00 8.895077e-01 1.278133e+00 1.201756e-01 1.526686e-01 1.525404e-01 1.531696e-01 1.801918e-01 2.765592e-01 2.303315e-01 2.127826e-01 2.020130e-01 1.695795e-01 1.487650e-01 1.133470e-01 9.925552e-02
<GCONST> 9.884017e+01
<STATE> 3
<MEAN> 39
 -1.846123e+00 -4.718080e-02 3.131886e+00 9.761109e-01 1.615125e+00 -3.964666e+00 2.902973e+00 3.464378e-01 -8.652268e-01 -8.842913e-01 1.873726e+00 -1.277503e+00 4.638557e+00 -3.817361e-01 -7.871655e-01 -1.325383e-01 -9.433240e-01 -9.137485e-01 -1.047721e+00 -5.618426e-01 5.486172e-01 5.155327e-01 3.179718e-01 1.763585e-01 3.356814e-01 1.515753e+00 2.712256e-01 5.920576e-02 -5.146876e-02 -1.399369e-01 -2.278941e-01 1.875735e-02 -2.983655e-01 -6.641948e-02 6.839740e-02 1.009615e-01 -2.005609e-01 6.608664e-02 1.538623e-01
<VARIANCE> 39
 2.826135e+01 3.981674e+01 3.567204e+01 3.158009e+01 4.471192e+01 5.368471e+01 4.800763e+01 3.947232e+01 4.516915e+01 4.195784e+01 3.760358e+01 3.011240e+01 5.154573e+01 8.642775e-01 1.167919e+00 1.536114e+00 1.192999e+00 1.737787e+00 2.246809e+00 2.280811e+00 2.188259e+00 1.913277e+00 1.493213e+00 1.384516e+00 8.913893e-01 9.890340e-01 9.337543e-02 1.569160e-01 1.438958e-01 1.329598e-01 1.391023e-01 1.638571e-01 1.451682e-01 1.555387e-01 1.377926e-01 1.642300e-01 1.400359e-01 1.171835e-01 1.209614e-01
<GCONST> 9.865351e+01
<STATE> 4
<MEAN> 39
 1.921021e+00 -1.050133e+00 2.244246e+00 -1.430680e+00 -4.699414e+00 -9.329856e+00 -3.193854e+00 2.251236e+00 1.278431e+00 7.121167e-01 -8.599414e-01 1.500708e+00 9.661600e+00 2.199174e-01 -3.149611e-01 -4.947470e-01 -9.219513e-01 -7.617205e-01 -2.397270e-01 -9.841018e-01 2.307942e-01 5.290789e-01 5.269169e-01 -2.469643e-01 2.726162e-01 1.076659e+00 1.603093e-01 1.800098e-01 -4.186108e-02 8.016514e-02 1.696385e-01 4.146004e-01 8.105823e-02 -1.881420e-01 -1.356409e-01 -5.525830e-02 -7.310915e-02 -9.084445e-02 -2.727797e-01
<VARIANCE> 39
 1.409090e+01 2.117161e+01 2.701221e+01 2.415200e+01 4.531215e+01 4.342152e+01 7.701044e+01 4.590226e+01 4.819881e+01 3.742915e+01 3.233587e+01 2.594189e+01 3.565810e+01 1.097576e+00 1.354555e+00 1.870124e+00 1.236083e+00 1.837620e+00 1.574139e+00 2.137341e+00 2.270023e+00 1.741797e+00 1.520310e+00 1.217394e+00 1.012992e+00 9.486089e-01 6.240112e-02 1.028643e-01 9.708049e-02 1.087042e-01 1.508259e-01 1.682996e-01 1.887161e-01 1.470430e-01 1.422075e-01 1.263780e-01 1.288386e-01 1.141858e-01 8.657166e-02
<GCONST> 9.487871e+01
<TRANSP> 5
 0.000000e+00 1.000000e+00 0.000000e+00 0.000000e+00 0.000000e+00
 0.000000e+00 6.766914e-01 3.233086e-01 0.000000e+00 0.000000e+00
 0.000000e+00 0.000000e+00 4.976828e-01 5.023171e-01 0.000000e+00
 0.000000e+00 0.000000e+00 0.000000e+00 5.247950e-01 4.752051e-01
 0.000000e+00 0.000000e+00 0.000000e+00 0.000000e+00 0.000000e+00
<ENDHMM>
~h "e"
<BEGINHMM>
<NUMSTATES> 5
<STATE> 2
<MEAN> 39
 1.931588e+00 -6.168115e-01 9.989278e+00 -4.335164e+00 -1.169980e+01 -4.815118e+00 1.649343e+00 3.408850e-01 -7.680708e-01 3.637127e+00 1.989531e+00 -3.700678e-02 9.853519e+00 -4.204139e-02 -7.416932e-02 4.489273e-01 -9.537898e-01 -1.020515e+00 1.279510e-02 9.280328e-02 -4.504167e-02 2.258513e-02 3.849212e-01 -2.300593e-02 1.009949e-01 6.758032e-01 -4.795875e-02 1.285071e-01 -1.468659e-01 1.594865e-01 3.148126e-01 1.444142e-01 -4.257132e-02 -9.001338e-02 -3.136442e-03 -1.114134e-01 -9.467924e-02 -5.705444e-03 -2.470493e-01
<VARIANCE> 39
 3.210744e+01 4.658674e+01 4.979012e+01 6.002148e+01 7.627754e+01 7.332147e+01 5.952351e+01 7.070433e+01 7.097878e+01 4.346680e+01 4.767388e+01 2.631699e+01 5.433191e+01 1.133470e+00 1.334882e+00 1.498976e+00 2.146323e+00 2.778741e+00 2.336007e+00 1.786486e+00 1.996680e+00 1.991493e+00 1.197160e+00 1.209301e+00 8.357220e-01 1.583234e+00 8.405757e-02 1.408072e-01 1.223733e-01 1.675903e-01 2.608093e-01 2.327031e-01 1.803971e-01 1.921818e-01 2.206836e-01 1.410483e-01 1.111347e-01 9.198382e-02 1.474944e-01
<GCONST> 1.047379e+02
<STATE> 3
<MEAN> 39
 -1.409733e+00 2.835012e+00 1.014959e+01 -1.022599e+01 -1.158173e+01 -4.739432e-01 7.430537e-01 -4.882222e+00 5.067917e-01 3.599779e+00 -1.721480e+00 5.997329e-01 1.010946e+01 9.514348e-02 1.616326e-01 -2.157459e-01 3.593575e-01 2.180490e-01 9.741102e-02 -3.392344e-02 -1.016747e-01 -1.653089e-02 -2.155021e-01 -8.425374e-02 -9.953373e-02 -6.900701e-01 2.485109e-02 2.321618e-03 -6.322606e-02 2.501583e-01 1.698717e-01 -3.699931e-02 -2.613177e-03 6.273093e-02 -4.208588e-02 -5.078063e-02 6.514920e-02 -4.909651e-02 -1.878340e-01
<VARIANCE> 39
 2.388487e+01 4.949748e+01 4.256436e+01 5.459164e+01 5.058992e+01 7.719408e+01 6.111716e+01 6.018174e+01 7.273711e+01 4.090851e+01 3.948161e+01 2.525110e+01 4.291447e+01 4.162632e-01 7.933939e-01 6.740784e-01 1.473185e+00 1.010811e+00 1.112171e+00 1.014951e+00 1.084100e+00 1.169808e+00 9.110435e-01 7.115803e-01 7.070923e-01 1.077126e+00 5.109455e-02 7.415275e-02 7.002172e-02 9.685324e-02 1.053163e-01 1.314629e-01 1.196263e-01 1.338414e-01 1.108936e-01 1.110183e-01 8.658773e-02 8.654719e-02 5.634411e-02
<GCONST> 8.904382e+01
<STATE> 4
<MEAN> 39
 6.196468e-01 2.411602e-01 6.317662e+00 -1.404182e-01 -6.559221e+00 -3.120153e+00 1.341249e+00 -1.511069e+00 -3.244190e+00 1.803461e+00 1.518047e+00 -3.414379e-01 8.433995e-01 -1.777786e-01 1.658799e-01 -4.766756e-01 5.043383e-01 7.472894e-01 1.070730e-01 1.105843e-01 2.241459e-02 4.783554e-02 -2.174400e-01 1.912105e-02 7.713851e-02 -6.531032e-01 -2.910477e-02 -1.595557e-02 -1.974035e-02 -8.273477e-02 1.575579e-02 1.793656e-02 -1.944605e-02 2.912154e-02 3.808958e-02 7.175724e-03 6.195870e-03 1.881558e-03 7.377395e-02
<VARIANCE> 39
 1.273737e+01 2.097307e+01 3.471636e+01 3.746812e+01 4.286833e+01 4.171208e+01 3.508189e+01 4.136652e+01 4.095265e+01 2.733682e+01 3.057497e+01 2.278023e+01 4.911097e+01 3.206763e-01 4.901342e-01 5.313583e-01 8.659761e-01 6.503337e-01 8.473723e-01 6.829680e-01 8.484896e-01 8.134114e-01 6.080532e-01 5.645316e-01 5.000710e-01 4.617230e-01 2.708847e-02 4.627354e-02 4.566564e-02 6.215232e-02 7.464824e-02 7.625157e-02 7.774661e-02 8.258940e-02 9.079338e-02 7.581007e-02 5.976392e-02 6.883188e-02 3.426712e-02
<GCONST> 7.354693e+01
<TRANSP> 5
 0.000000e+00 1.000000e+00 0.000000e+00 0.000000e+00 0.000000e+00
 0.000000e+00 6.521477e-01 3.478523e-01 0.000000e+00 0.000000e+00
 0.000000e+00 0.000000e+00 7.760393e-01 2.239607e-01 0.000000e+00
 0.000000e+00 0.000000e+00 0.000000e+00 8.036684e-01 1.963316e-01
 0.000000e+00 0.000000e+00 0.000000e+00 0.000000e+00 0.000000e+00
<ENDHMM>
~h "g"
<BEGINHMM>
<NUMSTATES> 5
<STATE> 2
<MEAN> 39
 9.386146e-01 2.979948e+00 4.230562e+00 8.995855e-01 8.638245e-01 -2.164681e+00 4.233785e-01 2.122995e-01 4.423572e-01 1.175894e+00 2.518808e-01 -1.065595e+00 2.627826e+00 -5.445424e-01 -3.089731e-02 7.656299e-01 -5.466350e-01 -4.448995e-01 -1.608790e-01 -5.600526e-03 -2.437842e-01 1.021584e-02 3.552239e-01 8.547320e-02 9.972062e-03 5.890399e-01 6.030561e-02 -3.693883e-02 8.990175e-02 -2.399846e-01 -3.885690e-01 4.981831e-02 -8.961191e-02 -8.428661e-02 3.048167e-02 8.959211e-02 -1.379336e-02 7.364888e-02 3.443052e-01
<VARIANCE> 39
 9.136752e+01 1.019939e+02 9.593032e+01 6.717418e+01 7.715495e+01 4.495538e+01 7.066852e+01 6.371013e+01 7.383161e+01 4.061955e+01 5.183364e+01 2.631705e+01 8.331116e+01 1.657437e+00 1.783023e+00 2.975754e+00 2.392004e+00 3.170358e+00 1.630447e+00 1.938932e+00 1.360056e+00 2.125702e+00 1.382415e+00 1.514387e+00 1.096598e+00 2.747388e+00 2.045446e-01 2.109706e-01 2.390884e-01 2.241452e-01 2.738420e-01 1.968150e-01 2.203854e-01 1.661340e-01 2.818076e-01 1.769885e-01 1.943213e-01 1.295811e-01 1.908160e-01
<GCONST> 1.134193e+02
<STATE> 3
<MEAN> 39
 4.345880e-04 3.192451e+00 1.106918e+01 -7.077893e+00 -9.592254e+00 -9.248372e-01 1.481045e+00 -5.462200e+00 2.752652e-01 5.287572e+00 1.340619e+00 -7.242437e-01 1.091705e+01 1.534711e-01 -2.359718e-01 4.008038e-01 -2.474189e-01 -9.670269e-01 -3.743485e-02 5.028139e-02 -2.632853e-01 -1.260049e-01 2.295654e-01 2.250101e-02 -1.121284e-01 4.491898e-01 7.284160e-02 2.521146e-02 -2.105747e-01 1.922341e-01 1.845370e-01 -4.340222e-02 -4.764778e-02 1.557342e-01 -4.851774e-02 -1.517792e-01 -5.863873e-02 -7.957330e-04 -1.736927e-01
<VARIANCE> 39
 3.356343e+01 6.612820e+01 8.998433e+01 9.745967e+01 1.207875e+02 5.486671e+01 1.047435e+02 6.911349e+01 5.803699e+01 7.410578e+01 6.383544e+01 4.463863e+01 5.234765e+01 1.129053e+00 2.108923e+00 2.124618e+00 2.217997e+00 3.371414e+00 1.322847e+00 2.325594e+00 1.803278e+00 1.892153e+00 1.621550e+00 1.268190e+00 1.140860e+00 1.925301e+00 1.163100e-01 1.443007e-01 1.966321e-01 1.973325e-01 3.539456e-01 1.785334e-01 2.336035e-01 1.620479e-01 1.763201e-01 1.675807e-01 1.619153e-01 1.353842e-01 1.849474e-01
<GCONST> 1.115169e+02
<STATE> 4
<MEAN> 39
 -1.388918e+00 1.982332e+00 1.296255e+01 -3.105261e+00 -9.273190e+00 -3.434309e+00 -2.836173e-01 -2.313325e+00 -8.231920e+00 4.166651e+00 1.503983e+00 -3.515575e+00 8.184108e+00 1.383498e-01 -7.453200e-03 1.077238e-01 -2.380552e-01 -4.505452e-01 -2.213721e-01 -2.339221e-01 7.966540e-02 -3.430630e-02 1.337902e-01 1.078747e-01 1.148407e-01 1.250544e-01 6.351756e-02 -1.767326e-02 -1.273391e-01 3.717101e-02 3.718444e-02 6.502624e-03 4.427732e-02 3.390325e-02 1.024122e-01 -4.994876e-02 -3.571461e-02 6.531863e-02 -1.221317e-02
<VARIANCE> 39
 2.861490e+01 2.627008e+01 5.048716e+01 3.364143e+01 5.390787e+01 3.215639e+01 4.063964e+01 3.927726e+01 7.020199e+01 3.425796e+01 3.717656e+01 2.665094e+01 4.103255e+01 4.722837e-01 8.870871e-01 1.252391e+00 1.037059e+00 1.763965e+00 8.477817e-01 1.015659e+00 1.112460e+00 1.566937e+00 9.805187e-01 9.033733e-01 7.444451e-01 9.862962e-01 5.472878e-02 7.216566e-02 1.051299e-01 9.214789e-02 1.497095e-01 7.417674e-02 1.016128e-01 1.059621e-01 1.274419e-01 9.076121e-02 8.681758e-02 6.909480e-02 9.400886e-02
<GCONST> 8.776050e+01
<TRANSP> 5
 0.000000e+00 1.000000e+00 0.000000e+00 0.000000e+00 0.000000e+00
 0.000000e+00 7.086124e-01 2.913876e-01 0.000000e+00 0.000000e+00
 0.000000e+00 0.000000e+00 5.739227e-01 4.260773e-01 0.000000e+00
 0.000000e+00 0.000000e+00 0.000000e+00 6.743879e-01 3.256122e-01
 0.000000e+00 0.000000e+00 0.000000e+00 0.000000e+00 0.000000e+00
<ENDHMM>
~h "h"
<BEGINHMM>
<NUMSTATES> 5
<STATE> 2
<MEAN> 39
 6.458294e+00 3.623873e+00 -6.778344e+00 -8.270708e+00 1.484864e+00 1.681971e+00 -1.761250e+00 -2.308872e+00 -3.631309e+00 -1.362964e-01 8.870256e-01 2.536562e+00 6.467448e+00 3.024978e-01 7.250648e-02 5.990716e-02 -2.110432e-02 7.154761e-02 3.256230e-02 1.791743e-01 5.953239e-02 -8.036093e-02 -1.211892e-01 -1.260847e-01 -3.299210e-02 -2.713989e-01 -1.799054e-02 -5.945170e-02 4.477199e-02 7.552613e-02 -6.255186e-02 -3.096002e-02 4.588280e-02 4.247460e-02 6.324355e-02 -1.685501e-02 -4.121627e-02 -5.351380e-02 -2.295025e-02
<VARIANCE> 39
 3.811174e+01 5.089592e+01 5.896286e+01 8.287560e+01 4.657320e+01 3.101902e+01 5.202985e+01 2.536538e+01 2.714998e+01 3.939666e+01 3.217691e+01 2.676204e+01 6.394708e+01 6.198170e-01 5.391561e-01 6.001187e-01 1.374907e+00 8.393262e-01 7.722172e-01 1.192108e+00 5.422504e-01 6.588999e-01 5.521284e-01 6.537286e-01 6.706427e-01 8.574483e-01 5.440769e-02 5.928664e-02 5.606887e-02 1.585467e-01 1.025862e-01 8.461489e-02 1.001655e-01 4.657606e-02 8.117769e-02 5.736908e-02 8.691873e-02 6.147204e-02 5.637863e-02
<GCONST> 8.189536e+01
<STATE> 3
<MEAN> 39
 5.036950e+00 -1.634927e+00 -4.271165e+00 -1.221413e+00 3.731919e+00 6.352241e-01 -2.226710e+00 -2.131904e+00 -4.454678e+00 -2.598310e+00 -1.415266e+00 -3.092546e+00 1.944824e+00 -3.179974e-01 -2.885327e-01 -5.299031e-02 4.798139e-01 4.765300e-01 2.636020e-01 3.894167e-01 4.498526e-01 2.915373e-01 -2.297495e-01 -8.541287e-02 -1.782901e-01 -5.289511e-01 -4.803441e-02 -3.969172e-02 2.589394e-02 -1.505338e-02 -3.919929e-02 4.244327e-02 -2.334604e-02 5.927826e-02 -1.439003e-02 -1.024935e-02 5.039397e-03 9.217945e-02 8.276367e-02
<VARIANCE> 39
 3.014198e+01 6.826578e+01 5.236402e+01 6.307871e+01 4.353880e+01 3.074481e+01 5.281286e+01 3.394101e+01 5.411747e+01 5.992247e+01 3.804641e+01 3.194001e+01 5.368214e+01 4.196722e-01 9.541528e-01 9.852902e-01 7.662533e-01 6.088724e-01 4.923004e-01 7.000373e-01 7.734056e-01 1.048150e+00 8.150926e-01 8.245324e-01 8.881935e-01 4.827245e-01 3.780948e-02 6.212005e-02 8.802129e-02 8.340294e-02 1.123133e-01 6.037160e-02 7.436950e-02 7.104654e-02 1.253671e-01 1.024375e-01 1.054828e-01 9.061187e-02 2.396976e-02
<GCONST> 8.311666e+01
<STATE> 4
<MEAN> 39
 4.412987e-02 1.284409e+00 -2.434508e+00 -6.084179e-02 3.453445e+00 2.402691e+00 1.827434e-01 -8.142087e-01 -2.923527e+00 -1.674297e+00 -3.611358e-01 6.390093e-01 -2.366433e+00 -1.261371e-01 -1.269516e-01 -4.589136e-02 1.202766e-01 1.277850e-01 1.678376e-01 5.375383e-02 1.274816e-01 8.955272e-02 -1.144348e-02 7.158639e-02 4.577818e-02 -7.423529e-02 2.674333e-02 -2.578736e-02 3.188868e-02 -4.023450e-02 -4.482161e-02 -3.014827e-04 -3.611789e-02 -2.078740e-02 2.260215e-03 2.438097e-02 4.250082e-03 -9.599614e-03 6.355499e-02
<VARIANCE> 39
 2.118218e+01 2.510891e+01 4.256905e+01 3.455786e+01 3.013117e+01 2.412856e+01 3.227457e+01 2.553216e+01 4.099834e+01 3.542965e+01 2.261931e+01 1.912388e+01 4.120978e+01 2.477235e-01 3.271318e-01 4.677640e-01 6.460807e-01 4.850559e-01 3.903819e-01 4.949121e-01 4.771052e-01 4.974054e-01 5.774775e-01 6.161095e-01 4.875695e-01 2.222180e-01 1.812007e-02 3.442344e-02 4.968290e-02 6.753421e-02 6.571581e-02 4.327922e-02 6.638437e-02 5.259906e-02 4.912173e-02 6.616604e-02 6.491330e-02 4.603068e-02 1.688558e-02
<GCONST> 6.462857e+01
<TRANSP> 5
 0.000000e+00 1.000000e+00 0.000000e+00 0.000000e+00 0.000000e+00
 0.000000e+00 6.531541e-01 3.468459e-01 0.000000e+00 0.000000e+00
 0.000000e+00 0.000000e+00 5.727582e-01 4.272418e-01 0.000000e+00
 0.000000e+00 0.000000e+00 0.000000e+00 8.305888e-01 1.694112e-01
 0.000000e+00 0.000000e+00 0.000000e+00 0.000000e+00 0.000000e+00
<ENDHMM>
~h "i"
<BEGINHMM>
<NUMSTATES> 5
<STATE> 2
<MEAN> 39
 -9.769070e-01 5.042700e+00 1.061718e+01 -4.386717e+00 -5.530639e+00 -9.318906e-01 -2.744969e+00 -6.295012e+00 -2.749445e-01 1.590696e+00 -8.155362e-01 5.670648e-01 6.225833e+00 -1.783065e-01 6.102728e-01 1.352555e+00 -1.200355e+00 -8.813648e-01 -1.491382e-01 -6.340988e-01 -7.283173e-01 -2.213121e-01 2.439352e-01 -2.690104e-01 3.591877e-01 8.878886e-01 5.141504e-02 -1.931404e-02 -1.787774e-01 1.299421e-01 1.196106e-01 -2.195672e-02 7.043698e-02 1.416105e-01 -1.325141e-02 -5.608327e-02 1.627813e-02 -1.013981e-02 -1.382729e-01
<VARIANCE> 39
 3.757322e+01 5.763423e+01 6.817047e+01 8.402055e+01 7.626197e+01 5.726110e+01 6.546503e+01 6.834989e+01 7.766674e+01 5.167245e+01 5.018631e+01 3.917147e+01 5.287221e+01 1.712588e+00 1.806585e+00 2.088769e+00 2.540011e+00 2.024367e+00 1.692198e+00 2.276625e+00 2.092565e+00 2.534562e+00 1.801680e+00 1.624962e+00 1.500545e+00 1.369611e+00 1.372409e-01 1.702831e-01 2.420404e-01 3.008332e-01 2.460696e-01 1.901451e-01 2.023110e-01 2.326060e-01 2.363832e-01 1.856333e-01 1.655324e-01 1.386241e-01 1.597066e-01
<GCONST> 1.117328e+02
<STATE> 3
<MEAN> 39
 -1.651593e+00 7.292085e+00 1.394474e+01 -8.552736e+00 -8.397180e+00 -2.338638e+00 -4.184904e+00 -6.973823e+00 -1.710370e+00 2.296303e+00 -7.643035e-01 2.591315e+00 8.327652e+00 3.038150e-01 1.727274e-01 -2.066038e-01 6.956708e-01 8.081172e-02 -6.758652e-02 2.169119e-01 1.342768e-01 -1.765237e-01 -5.286916e-02 2.041258e-01 -2.416274e-01 -6.401729e-01 -1.393777e-02 -7.587174e-02 -3.032428e-01 3.744143e-01 2.622258e-01 4.550556e-02 1.664665e-01 1.200850e-01 3.078716e-02 -8.128820e-02 3.490781e-02 -1.394183e-01 -2.599601e-01
<VARIANCE> 39
 2.744487e+01 6.470229e+01 4.509715e+01 7.829421e+01 5.302388e+01 5.028573e+01 7.154696e+01 7.381689e+01 7.833113e+01 5.483983e+01 5.708058e+01 3.611022e+01 3.516043e+01 7.945381e-01 9.954854e-01 9.946461e-01 1.754471e+00 1.203399e+00 1.210965e+00 1.312109e+00 1.345206e+00 1.193289e+00 1.145035e+00 9.374216e-01 7.726263e-01 9.221497e-01 1.215291e-01 1.254397e-01 1.233030e-01 1.773338e-01 1.740501e-01 1.512179e-01 1.783575e-01 1.895458e-01 1.892942e-01 1.666972e-01 1.703074e-01 1.258408e-01 7.076731e-02
<GCONST> 9.954259e+01
<STATE> 4
<MEAN> 39
 2.243553e-01 4.314665e+00 9.328622e+00 1.666326e+00 -3.759879e+00 -1.592657e+00 -9.943942e-01 -4.679242e+00 -4.625394e+00 -2.303746e-01 9.812657e-01 -5.129642e-01 3.806593e-01 -1.655989e-01 -1.169305e-01 -6.613657e-01 5.924098e-01 6.270245e-01 1.445952e-01 3.644948e-01 1.499081e-01 9.234748e-02 -1.239415e-01 -3.463159e-02 -2.862785e-02 -6.606458e-01 -8.341423e-02 -3.672098e-02 -6.469881e-02 -1.022241e-01 3.410791e-02 -2.768450e-03 -2.487208e-02 2.504591e-02 6.138299e-02 2.016695e-02 1.492782e-02 3.977251e-02 7.197689e-02
<VARIANCE> 39
 2.681035e+01 3.209042e+01 5.246675e+01 4.195828e+01 4.210482e+01 3.875625e+01 4.789914e+01 3.963407e+01 5.025684e+01 3.568877e+01 3.238117e+01 2.638705e+01 5.944603e+01 7.679971e-01 9.441941e-01 9.325874e-01 1.196859e+00 1.001548e+00 9.699096e-01 9.339747e-01 9.174422e-01 1.035177e+00 7.984832e-01 7.145141e-01 6.378058e-01 6.970364e-01 5.784626e-02 6.433532e-02 9.182113e-02 8.288307e-02 1.019216e-01 9.527638e-02 1.057284e-01 1.021326e-01 1.094984e-01 8.937939e-02 7.584177e-02 6.603837e-02 5.681804e-02
<GCONST> 8.524694e+01
<TRANSP> 5
 0.000000e+00 1.000000e+00 0.000000e+00 0.000000e+00 0.000000e+00
 0.000000e+00 6.677008e-01 3.322992e-01 0.000000e+00 0.000000e+00
 0.000000e+00 0.000000e+00 7.102056e-01 2.897945e-01 0.000000e+00
 0.000000e+00 0.000000e+00 0.000000e+00 7.541041e-01 2.458959e-01
 0.000000e+00 0.000000e+00 0.000000e+00 0.000000e+00 0.000000e+00
<ENDHMM>
~h "j"
<BEGINHMM>
<NUMSTATES> 5
<STATE> 2
<MEAN> 39
 2.463914e+00 -2.945956e+00 2.085335e-01 -4.593516e-01 -1.656034e+00 -2.886138e+00 3.646737e+00 3.566527e+00 -1.009510e+00 -1.552850e+00 -2.634311e+00 1.462610e-01 7.413795e+00 -3.331317e-01 1.026219e+00 1.733251e-01 6.312481e-01 6.962196e-01 4.770551e-01 3.004728e-01 -2.876494e-01 -3.661563e-01 -3.329031e-02 5.523082e-01 -3.870784e-01 -1.258994e+00 -2.624078e-01 3.314920e-03 -1.798582e-01 -1.426982e-01 1.996396e-01 1.811305e-01 -1.356276e-02 8.377100e-02 9.629106e-02 -6.739216e-02 -1.951984e-02 -1.097291e-01 1.063275e-01
<VARIANCE> 39
 1.832236e+01 2.178756e+01 2.811827e+01 3.016816e+01 3.277906e+01 2.929901e+01 3.219193e+01 3.702527e+01 5.053047e+01 3.376921e+01 2.429979e+01 2.411744e+01 4.303871e+01 1.105918e+00 9.181757e-01 7.820294e-01 1.213065e+00 8.775687e-01 8.302235e-01 9.241637e-01 1.044023e+00 1.183089e+00 8.724211e-01 8.020241e-01 6.326074e-01 4.630775e-01 1.253956e-01 7.955417e-02 6.580967e-02 1.253018e-01 1.348401e-01 1.410844e-01 1.030846e-01 9.014964e-02 8.023102e-02 8.726396e-02 1.271790e-01 1.006077e-01 7.502207e-02
<GCONST> 8.417512e+01
<STATE> 3
<MEAN> 39
 -3.813343e+00 3.121809e+00 -1.120723e+00 -6.578556e-02 3.935925e+00 1.184730e+00 4.586276e+00 4.043377e+00 -9.383022e-01 -1.951998e+00 -1.025576e+00 -2.767156e+00 4.195195e+00 -2.115879e+00 1.076900e+00 5.100176e-01 -8.098007e-01 2.769440e-01 -1.015468e-01 -6.509367e-02 9.358197e-02 -2.216867e-01 2.820745e-01 8.339045e-01 -2.780717e-01 5.207732e-01 1.349941e-01 -2.241304e-01 3.039243e-01 -2.216301e-01 -4.928126e-01 -3.032790e-01 -1.061755e-01 -4.259608e-02 -6.215256e-02 1.079008e-01 6.418104e-02 1.433645e-01 3.569154e-01
<VARIANCE> 39
 8.464310e+01 4.645040e+01 3.688755e+01 4.963879e+01 3.262008e+01 3.318028e+01 3.986819e+01 3.614794e+01 4.097095e+01 3.209057e+01 2.789664e+01 2.388733e+01 3.584825e+01 1.981826e+00 1.303448e+00 1.310651e+00 1.247180e+00 1.282756e+00 1.279894e+00 1.303861e+00 1.055284e+00 7.521628e-01 9.989090e-01 1.152992e+00 8.208885e-01 8.516904e-01 5.591595e-01 2.121561e-01 9.635121e-02 2.437674e-01 1.655188e-01 1.369518e-01 1.468163e-01 1.472892e-01 1.489578e-01 9.999390e-02 1.289048e-01 9.756313e-02 7.806835e-02
<GCONST> 9.610665e+01
<STATE> 4
<MEAN> 39
 -8.300486e+00 4.431509e+00 6.575680e+00 -5.157561e+00 -3.654467e+00 -3.892637e+00 3.251240e+00 1.870930e+00 -3.179629e+00 2.205303e-01 4.675607e+00 -2.171501e+00 1.031912e+01 1.272809e+00 -9.557826e-01 5.919131e-01 -3.645090e-01 -1.931682e+00 -9.232069e-01 -3.132443e-01 1.543166e-01 1.330526e-01 2.201560e-01 1.684045e-01 4.653946e-01 8.543085e-01 4.615036e-01 -2.726319e-01 -2.729718e-01 1.777759e-01 7.116953e-02 8.817433e-02 -2.676949e-02 1.340947e-01 1.305381e-01 -6.802548e-02 -3.254590e-01 3.574751e-02 -1.059233e-01
<VARIANCE> 39
 5.817456e+01 4.191264e+01 2.636799e+01 2.185383e+01 6.545609e+01 4.140155e+01 5.224768e+01 3.620957e+01 3.988493e+01 3.837191e+01 3.293763e+01 3.935481e+01 3.595208e+01 1.693152e+00 1.711229e+00 1.493905e+00 1.191123e+00 1.150528e+00 9.151670e-01 1.353812e+00 1.769472e+00 1.475317e+00 8.401834e-01 1.530602e+00 5.741633e-01 3.116562e-01 3.735834e-01 2.063733e-01 1.099822e-01 1.018290e-01 3.778684e-01 1.344915e-01 1.412248e-01 1.469699e-01 8.968165e-02 1.354518e-01 1.315068e-01 1.087113e-01 4.404565e-02
<GCONST> 9.516059e+01
<TRANSP> 5
 0.000000e+00 1.000000e+00 0.000000e+00 0.000000e+00 0.000000e+00
 0.000000e+00 7.421049e-01 2.578951e-01 0.000000e+00 0.000000e+00
 0.000000e+00 0.000000e+00 7.677025e-01 2.322975e-01 0.000000e+00
 0.000000e+00 0.000000e+00 0.000000e+00 7.916290e-01 2.083709e-01
 0.000000e+00 0.000000e+00 0.000000e+00 0.000000e+00 0.000000e+00
<ENDHMM>
~h "k"
<BEGINHMM>
<NUMSTATES> 5
<STATE> 2
<MEAN> 39
 -5.603249e-02 1.570046e+00 2.835822e+00 3.159883e+00 -3.120327e+00 -2.611530e+00 -8.066334e-02 -3.676918e+00 -1.008084e+00 2.125067e+00 8.320686e-01 -1.060252e-01 -4.065309e+00 -1.380153e-01 -8.604263e-01 -1.445987e+00 3.368709e-01 1.024255e+00 8.687058e-03 1.169438e-01 4.017880e-01 2.958826e-01 1.951509e-01 2.129513e-01 7.115233e-02 -3.110075e-01 -1.462056e-03 -9.271318e-02 -1.877734e-01 -2.581849e-01 8.849463e-02 -9.472524e-03 -4.043861e-02 1.311292e-01 6.578097e-02 1.071035e-02 -2.787744e-02 -8.315811e-03 4.376109e-01
<VARIANCE> 39
 2.519355e+01 4.187281e+01 6.300980e+01 4.987178e+01 8.894986e+01 5.876860e+01 5.272592e+01 5.358949e+01 5.595991e+01 5.200255e+01 3.382482e+01 2.603021e+01 2.691176e+01 7.806216e-01 1.433833e+00 1.686613e+00 2.046827e+00 1.765095e+00 2.333844e+00 1.796480e+00 1.708367e+00 1.412166e+00 1.301861e+00 1.268808e+00 6.494240e-01 1.657957e+00 1.070483e-01 1.569669e-01 1.825232e-01 1.563689e-01 2.187383e-01 2.782748e-01 1.771662e-01 1.815952e-01 1.587591e-01 1.804957e-01 1.272050e-01 1.004548e-01 1.183839e-01
<GCONST> 1.021334e+02
<STATE> 3
<MEAN> 39
 -2.850496e+00 -6.789573e+00 -7.525371e+00 4.442852e+00 6.030800e+00 -3.131671e+00 1.128235e+00 2.647461e+00 2.225943e+00 3.527766e+00 1.398602e+00 3.851625e-01 -6.033252e-01 2.637632e-01 -4.878054e-01 -1.169603e+00 -7.644643e-01 5.032974e-01 5.960698e-02 7.251536e-03 4.741237e-01 3.609487e-01 -9.858158e-02 -1.890949e-01 -1.517994e-01 1.489592e+00 3.048735e-01 3.279402e-01 3.536856e-01 -3.352316e-01 -4.556968e-01 1.483603e-01 -7.722576e-02 -2.096491e-01 -1.021188e-01 -1.182648e-01 -1.244178e-01 -8.779357e-02 2.128363e-01
<VARIANCE> 39
 3.740672e+01 4.347599e+01 9.365466e+01 6.712463e+01 7.514000e+01 9.583946e+01 7.097855e+01 5.821055e+01 6.469059e+01 4.443328e+01 5.745818e+01 2.447878e+01 1.249481e+02 1.426329e+00 1.632527e+00 2.086643e+00 1.705723e+00 2.303264e+00 2.972032e+00 1.808268e+00 1.777997e+00 1.928180e+00 1.920741e+00 1.292911e+00 9.313924e-01 3.101740e+00 1.054125e-01 2.113503e-01 2.081514e-01 2.438944e-01 2.352946e-01 3.013625e-01 2.028339e-01 1.904993e-01 2.102736e-01 1.683936e-01 1.893352e-01 9.889171e-02 3.124688e-01
<GCONST> 1.117331e+02
<STATE> 4
<MEAN> 39
 2.199920e+00 -1.677863e+00 -8.121644e+00 -2.260351e+00 2.918070e+00 -1.183921e-01 1.580675e+00 1.368918e-01 3.871613e-01 1.516367e+00 1.580148e-01 -1.239677e+00 2.650121e+00 1.199445e+00 7.132409e-01 6.349783e-02 -1.270553e+00 -7.486381e-01 4.481452e-01 -4.127008e-01 -3.624357e-01 -4.432683e-02 -3.159696e-01 -2.590463e-01 -1.298533e-01 1.326281e+00 1.319210e-01 1.189432e-01 3.448310e-01 6.499026e-02 -2.579917e-01 1.491593e-02 -1.333746e-01 -1.217066e-01 -3.141886e-02 2.128761e-02 1.796910e-02 4.495524e-02 -7.903590e-02
<VARIANCE> 39
 4.572665e+01 3.738868e+01 7.780275e+01 6.273864e+01 8.902103e+01 6.200666e+01 5.797659e+01 5.331593e+01 5.821809e+01 5.348867e+01 4.501953e+01 2.770734e+01 5.124087e+01 9.082388e-01 1.810759e+00 1.713638e+00 1.418511e+00 2.457301e+00 2.279716e+00 1.891374e+00 2.154556e+00 2.505047e+00 1.570648e+00 1.573833e+00 1.117317e+00 1.172488e+00 1.328488e-01 1.538154e-01 1.817267e-01 1.508790e-01 2.430099e-01 2.773589e-01 2.673620e-01 2.326571e-01 1.772313e-01 2.134217e-01 1.779492e-01 1.115773e-01 1.666476e-01
<GCONST> 1.080354e+02
<TRANSP> 5
 0.000000e+00 1.000000e+00 0.000000e+00 0.000000e+00 0.000000e+00
 0.000000e+00 7.432986e-01 2.567014e-01 0.000000e+00 0.000000e+00
 0.000000e+00 0.000000e+00 5.963508e-01 4.036491e-01 0.000000e+00
 0.000000e+00 0.000000e+00 0.000000e+00 4.996755e-01 5.003245e-01
 0.000000e+00 0.000000e+00 0.000000e+00 0.000000e+00 0.000000e+00
<ENDHMM>
~h "l"
<BEGINHMM>
<NUMSTATES> 5
<STATE> 2
<MEAN> 39
 4.882029e+00 -4.576685e+00 -1.171219e+00 -4.679340e+00 1.266177e+00 4.175415e+00 -6.708296e+00 1.291054e-01 8.454301e+00 -2.589343e-01 -4.952560e+00 -2.583329e+00 7.774328e+00 9.554017e-02 4.300036e-01 7.867278e-01 2.409010e-01 -3.033023e-01 -3.633128e-01 -7.571426e-01 -1.596650e-01 -4.218548e-02 1.703020e-01 1.513526e-01 1.526151e-01 1.965634e-01 1.309746e-02 3.251622e-02 -1.017671e-01 -3.835575e-02 -2.035435e-02 1.868732e-02 9.439380e-02 1.596519e-02 -6.790199e-02 4.661198e-02 9.378622e-02 -2.831482e-02 -3.830536e-02
<VARIANCE> 39
 5.792148e+01 7.360889e+01 7.562993e+01 4.979169e+01 5.922390e+01 1.152221e+02 6.727622e+01 5.764251e+01 1.740459e+02 5.409123e+01 5.062191e+01 2.645879e+01 2.229964e+02 1.208457e+00 1.637202e+00 2.141986e+00 1.122990e+00 1.311298e+00 2.839407e+00 1.396584e+00 1.574494e+00 3.692038e+00 1.268605e+00 1.334600e+00 8.597424e-01 4.589694e+00 1.427522e-01 1.752427e-01 2.143433e-01 1.143727e-01 1.748180e-01 3.699039e-01 1.350769e-01 3.001716e-01 3.502732e-01 1.333430e-01 1.370076e-01 1.082320e-01 4.070025e-01
<GCONST> 1.124707e+02
<STATE> 3
<MEAN> 39
 2.880090e+00 -8.720984e-01 4.224142e+00 -3.931516e+00 -3.683603e+00 -1.782644e+00 -8.662524e+00 -4.208967e-01 5.170978e-01 -5.910212e+00 -2.233463e+00 1.696131e+00 7.803307e+00 -6.076409e-02 2.411808e-01 3.723068e-01 -9.709755e-02 -3.481311e-01 -2.763609e-02 -2.629960e-01 -2.589247e-03 -1.674596e-01 1.598209e-01 2.248203e-01 9.930829e-02 -1.605255e-01 -3.520413e-02 -2.246344e-01 -4.229734e-01 -4.919391e-02 5.274316e-02 -3.918865e-02 5.505415e-01 1.934443e-01 1.160295e-02 2.252661e-01 -6.079154e-02 -1.729284e-01 1.814665e-01
<VARIANCE> 39
 1.202175e+01 2.159535e+01 3.637186e+01 3.682088e+01 3.577590e+01 3.987555e+01 4.729746e+01 6.178248e+01 5.652081e+01 6.017555e+01 3.000633e+01 3.756712e+01 3.601763e+01 4.415688e-01 1.071748e+00 1.836144e+00 7.660655e-01 1.054389e+00 1.365972e+00 3.442111e+00 1.555652e+00 1.326363e+00 1.107178e+00 9.588399e-01 9.567364e-01 6.656164e-01 4.798414e-02 1.391242e-01 1.055342e-01 9.945939e-02 1.458111e-01 1.904426e-01 3.449655e-01 2.256092e-01 1.872607e-01 1.352194e-01 8.984329e-02 1.333888e-01 8.215514e-02
<GCONST> 9.364706e+01
<STATE> 4
<MEAN> 39
 3.392194e+00 -1.592426e+00 5.072945e-01 -1.298610e+00 -5.504144e+00 -3.420966e+00 -3.561851e+00 -8.296940e-01 1.257584e+00 -2.162125e+00 -2.929165e+00 -4.370959e-01 8.989777e+00 -2.033438e-01 -1.377659e-01 -3.546219e-01 -6.245671e-02 1.529649e-02 3.640528e-02 7.062002e-01 3.601308e-01 -1.777871e-01 6.645933e-01 2.341160e-01 -2.674931e-01 -4.511018e-02 -4.649273e-02 3.806969e-02 -6.183304e-02 -4.502244e-02 1.335436e-01 6.882523e-02 5.453024e-02 1.143416e-02 -8.184964e-03 1.287530e-02 1.186007e-02 -2.671283e-03 6.504201e-04
<VARIANCE> 39
 4.140044e+01 4.268988e+01 4.803514e+01 4.595166e+01 4.457648e+01 2.669396e+01 5.477257e+01 5.109074e+01 8.329426e+01 6.498680e+01 3.144674e+01 3.190339e+01 4.089711e+01 1.100996e+00 1.024445e+00 1.316740e+00 1.084973e+00 1.277621e+00 1.328445e+00 1.969439e+00 1.367575e+00 1.316661e+00 1.060740e+00 7.455841e-01 6.118044e-01 6.271910e-01 6.856161e-02 7.428070e-02 7.487717e-02 9.325483e-02 1.173508e-01 8.951364e-02 1.418839e-01 1.151978e-01 1.454657e-01 1.019360e-01 7.016171e-02 6.562275e-02 5.184825e-02
<GCONST> 9.070509e+01
<TRANSP> 5
 0.000000e+00 1.000000e+00 0.000000e+00 0.000000e+00 0.000000e+00
 0.000000e+00 5.450708e-01 4.549291e-01 0.000000e+00 0.000000e+00
 0.000000e+00 0.000000e+00 6.012855e-01 3.987145e-01 0.000000e+00
 0.000000e+00 0.000000e+00 0.000000e+00 6.348308e-01 3.651692e-01
 0.000000e+00 0.000000e+00 0.000000e+00 0.000000e+00 0.000000e+00
<ENDHMM>
~h "m"
<BEGINHMM>
<NUMSTATES> 5
<STATE> 2
<MEAN> 39
 7.332294e+00 2.769375e+00 2.927018e+00 3.550511e+00 2.575921e+00 1.892034e+00 -3.039487e+00 -6.610178e+00 -4.512869e+00 -6.145247e-01 -8.683118e-01 -1.643482e+00 2.432593e+00 5.266860e-01 -1.706458e-01 -3.723415e-01 1.087883e-01 5.312626e-01 2.029533e-01 -2.955619e-01 -1.524844e-01 3.051707e-01 3.073179e-01 -1.835313e-02 -3.879952e-01 2.853979e-01 -5.259329e-02 -2.648087e-01 -2.532713e-01 -2.720517e-01 -2.724098e-02 -1.118618e-02 -1.571500e-03 2.966192e-01 2.430903e-01 9.071219e-03 -6.803003e-02 -9.107534e-02 2.162827e-01
<VARIANCE> 39
 2.214239e+01 3.573745e+01 4.347486e+01 5.241600e+01 5.745380e+01 4.091645e+01 4.966690e+01 3.770401e+01 4.529445e+01 3.255251e+01 3.789930e+01 2.348267e+01 2.969099e+01 6.148160e-01 1.250436e+00 2.184249e+00 2.243494e+00 1.394985e+00 1.161327e+00 1.036222e+00 1.392981e+00 1.905946e+00 1.007143e+00 8.146905e-01 9.434705e-01 1.188699e+00 6.190707e-02 1.118800e-01 1.449220e-01 1.732225e-01 1.684156e-01 1.222437e-01 1.446977e-01 1.898856e-01 1.379952e-01 1.277054e-01 1.183126e-01 1.008741e-01 5.467553e-02
<GCONST> 9.408779e+01
<STATE> 3
<MEAN> 39
 8.886647e+00 -1.962769e+00 -1.972051e+00 1.341694e+00 4.305406e+00 1.009659e+00 -7.490739e+00 -4.436074e+00 -1.980355e+00 1.984877e+00 -1.721619e+00 -6.587297e+00 5.730089e+00 6.584648e-03 -9.662426e-01 -9.326474e-01 -5.261710e-01 3.219312e-01 1.083056e-01 2.791854e-02 1.219493e+00 6.096788e-01 -5.390016e-01 -2.580741e-01 -2.028965e-01 8.081689e-01 -2.106689e-01 -3.982128e-02 6.349690e-02 -1.166973e-01 -1.344418e-01 -4.920359e-02 2.504582e-01 2.925556e-01 -7.874918e-02 -3.482362e-01 -8.239742e-02 2.706905e-01 9.173210e-02
<VARIANCE> 39
 1.830688e+01 2.915028e+01 4.338290e+01 5.268325e+01 3.267790e+01 5.458347e+01 4.506293e+01 4.423613e+01 6.183652e+01 5.704671e+01 3.445909e+01 3.312226e+01 2.601175e+01 4.500774e-01 1.435572e+00 1.305128e+00 1.357349e+00 1.429826e+00 1.160428e+00 1.638642e+00 1.869220e+00 1.914876e+00 1.949021e+00 1.212358e+00 1.152050e+00 9.169168e-01 5.303703e-02 1.011755e-01 1.800125e-01 2.303916e-01 1.230255e-01 1.213192e-01 1.674987e-01 1.859244e-01 1.358244e-01 2.280557e-01 1.035885e-01 1.170522e-01 7.082402e-02
<GCONST> 9.594854e+01
<STATE> 4
<MEAN> 39
 6.891989e+00 -5.878654e+00 -6.428069e+00 7.360726e-01 6.649530e+00 9.927697e-01 -3.001896e+00 1.422356e+00 -1.250834e+00 -4.739302e+00 -5.104507e+00 -2.180218e+00 1.031464e+01 -5.624579e-01 -2.925416e-01 -3.088223e-02 -5.259926e-01 -2.715123e-01 -6.841941e-02 6.551309e-01 7.837748e-01 -1.154535e-01 -5.430807e-01 -1.382165e-01 4.358395e-01 4.280987e-01 -5.396674e-02 2.008677e-01 1.933115e-01 2.134390e-02 -8.880343e-02 -2.461954e-02 6.526025e-02 -2.289517e-01 -1.031399e-01 1.041728e-01 6.034930e-02 5.980311e-02 -1.483219e-01
<VARIANCE> 39
 2.675163e+01 5.087582e+01 5.426716e+01 5.026115e+01 5.249969e+01 5.936984e+01 5.581538e+01 6.290714e+01 7.580865e+01 5.534708e+01 3.804641e+01 3.278175e+01 7.076892e+01 1.012406e+00 1.429609e+00 1.776628e+00 1.716346e+00 1.439930e+00 1.387890e+00 1.679028e+00 1.923252e+00 1.739745e+00 1.855382e+00 1.178373e+00 1.109970e+00 1.657831e+00 7.445387e-02 1.492779e-01 1.799307e-01 1.830315e-01 1.607921e-01 1.465299e-01 1.502420e-01 2.068192e-01 2.000437e-01 1.975259e-01 1.129376e-01 1.162028e-01 1.246788e-01
<GCONST> 1.032588e+02
<TRANSP> 5
 0.000000e+00 1.000000e+00 0.000000e+00 0.000000e+00 0.000000e+00
 0.000000e+00 7.029494e-01 2.970506e-01 0.000000e+00 0.000000e+00
 0.000000e+00 0.000000e+00 6.076300e-01 3.923701e-01 0.000000e+00
 0.000000e+00 0.000000e+00 0.000000e+00 6.584272e-01 3.415728e-01
 0.000000e+00 0.000000e+00 0.000000e+00 0.000000e+00 0.000000e+00
<ENDHMM>
~h "n"
<BEGINHMM>
<NUMSTATES> 5
<STATE> 2
<MEAN> 39
 3.439569e+00 -1.699575e+00 1.040931e+00 1.356315e-01 -6.010494e-02 -3.809304e+00 -8.776030e-01 1.558722e+00 -2.978670e+00 -3.489808e+00 -3.338486e+00 -3.237954e-02 9.084425e+00 4.916750e-01 7.928404e-01 7.237102e-01 1.022433e+00 -4.723760e-01 -3.209383e-01 1.598273e-01 -6.872928e-01 -3.578338e-01 1.137376e-01 -8.771931e-02 2.054867e-01 -9.812524e-01 6.412307e-02 -6.404729e-03 -6.118473e-02 -4.956004e-02 -3.924716e-02 6.580469e-02 -3.759878e-02 -6.749851e-02 8.924481e-02 8.448064e-02 -7.797978e-03 -3.531711e-02 -1.862760e-02
<VARIANCE> 39
 1.890455e+01 3.119237e+01 4.189515e+01 3.721157e+01 4.602368e+01 5.607348e+01 5.018688e+01 5.154661e+01 6.353200e+01 5.970449e+01 3.576196e+01 2.926792e+01 4.590623e+01 6.022327e-01 6.007385e-01 1.014763e+00 8.223428e-01 1.188269e+00 1.182418e+00 1.142772e+00 1.216584e+00 1.432818e+00 1.705311e+00 1.049742e+00 1.006815e+00 5.082056e-01 4.479982e-02 6.150492e-02 7.099901e-02 9.079380e-02 9.970163e-02 1.099850e-01 1.044564e-01 1.121528e-01 1.291537e-01 1.254936e-01 1.036885e-01 9.436890e-02 4.672825e-02
<GCONST> 8.817645e+01
<STATE> 3
<MEAN> 39
 7.194287e+00 1.059420e+00 3.504760e+00 4.720366e+00 -3.103598e+00 -4.522593e+00 1.705076e+00 -1.521981e+00 -3.518944e+00 -8.896570e-01 -3.643794e+00 1.093830e+00 4.746301e+00 2.849437e-01 3.730091e-01 2.541672e-01 3.579015e-01 -1.203190e-01 1.227968e-01 -2.480731e-02 -3.978921e-01 -9.733585e-02 2.831611e-02 3.424071e-02 -7.458972e-02 -5.858914e-01 -1.622519e-01 -1.790819e-01 -1.942933e-01 -3.041229e-01 1.454879e-01 1.339666e-01 -5.913436e-02 2.022364e-01 8.697047e-02 -9.728998e-02 4.621024e-02 -8.073368e-02 2.195990e-01
<VARIANCE> 39
 2.042636e+01 3.377538e+01 2.980491e+01 3.163455e+01 4.006588e+01 5.053592e+01 5.206593e+01 4.737444e+01 5.366656e+01 3.701494e+01 3.860021e+01 3.565105e+01 2.647041e+01 5.093668e-01 9.787291e-01 1.231064e+00 9.867327e-01 9.964170e-01 1.020948e+00 1.007812e+00 1.256984e+00 1.168646e+00 1.017715e+00 7.483597e-01 7.636452e-01 6.403302e-01 5.653842e-02 9.765072e-02 9.329707e-02 1.197355e-01 1.229666e-01 1.523117e-01 1.422801e-01 1.585207e-01 1.538528e-01 1.338250e-01 1.034933e-01 1.015571e-01 5.897642e-02
<GCONST> 8.877174e+01
<STATE> 4
<MEAN> 39
 3.593935e+00 1.578266e+00 1.694980e+00 1.590172e+00 -6.816014e-01 -1.199988e+00 -1.671606e+00 -2.661843e+00 -1.919984e+00 -3.379336e+00 -3.940277e+00 -1.249237e+00 2.002455e+00 -6.669591e-02 9.834956e-02 2.540167e-03 -1.376471e-03 8.822366e-02 1.450125e-02 -2.581517e-02 -2.211427e-02 -5.164462e-02 -2.479738e-02 9.685405e-02 -2.802744e-02 -1.443083e-01 -3.363296e-02 -9.223614e-02 -3.604739e-02 -8.632195e-02 2.681649e-02 8.947589e-03 9.595986e-03 8.948886e-02 -1.558416e-03 4.793090e-02 4.424562e-02 -1.207023e-02 7.624788e-02
<VARIANCE> 39
 1.562614e+01 2.277018e+01 2.521137e+01 2.238984e+01 2.889981e+01 3.290292e+01 2.883461e+01 2.707488e+01 4.143130e+01 3.422581e+01 2.503430e+01 1.922685e+01 2.392341e+01 2.047972e-01 5.971521e-01 5.462382e-01 5.968831e-01 6.276371e-01 6.606300e-01 6.461800e-01 7.715967e-01 6.543662e-01 7.134345e-01 5.489025e-01 4.698515e-01 3.345442e-01 2.289963e-02 5.536225e-02 4.523042e-02 6.058734e-02 6.632116e-02 7.232157e-02 7.294317e-02 7.941119e-02 8.327657e-02 8.471985e-02 6.389718e-02 5.931545e-02 2.609819e-02
<GCONST> 6.876676e+01
<TRANSP> 5
 0.000000e+00 1.000000e+00 0.000000e+00 0.000000e+00 0.000000e+00
 0.000000e+00 4.604526e-01 5.395474e-01 0.000000e+00 0.000000e+00
 0.000000e+00 0.000000e+00 6.323513e-01 3.676487e-01 0.000000e+00
 0.000000e+00 0.000000e+00 0.000000e+00 8.125926e-01 1.874075e-01
 0.000000e+00 0.000000e+00 0.000000e+00 0.000000e+00 0.000000e+00
<ENDHMM>
~h "o"
<BEGINHMM>
<NUMSTATES> 5
<STATE> 2
<MEAN> 39
 -4.316148e+00 -7.385499e-01 -6.875269e-02 1.156802e+00 4.614735e+00 2.910652e+00 2.355318e+00 1.535203e+00 4.380927e-01 1.025524e+00 3.392281e+00 -1.262612e-01 -1.563574e+01 7.040268e-01 4.985994e-01 -1.383987e-01 -7.515614e-01 -1.797019e-01 1.014431e-01 -3.239859e-01 -1.395579e-01 -1.763011e-02 1.584287e-01 2.795785e-02 -1.171550e-01 5.763436e-01 1.260309e-01 1.488973e-02 -4.471334e-02 -7.176127e-02 -9.699710e-02 -4.524569e-02 -7.966466e-02 -5.083617e-02 2.741645e-02 3.342618e-02 -2.750025e-02 -1.272424e-02 2.077505e-01
<VARIANCE> 39
 9.582327e+01 4.918582e+01 5.957215e+01 5.269184e+01 5.272305e+01 3.811148e+01 4.317792e+01 4.058601e+01 4.365228e+01 3.917947e+01 2.943034e+01 1.832225e+01 4.381653e+02 2.733770e+00 1.154450e+00 1.431654e+00 1.243118e+00 1.543228e+00 1.262363e+00 1.246508e+00 1.036179e+00 1.528980e+00 1.027980e+00 9.436459e-01 5.725398e-01 8.361966e+00 2.137259e-01 1.223361e-01 1.419293e-01 1.618057e-01 1.221434e-01 1.461534e-01 1.361477e-01 1.036726e-01 1.328613e-01 1.136670e-01 8.762311e-02 6.494045e-02 5.904183e-01
<GCONST> 1.020943e+02
<STATE> 3
<MEAN> 39
 9.921342e+00 2.972308e+00 -7.187888e+00 -9.243860e+00 -2.127286e+00 3.849804e+00 -2.093942e+00 -3.123173e+00 -1.520306e+00 2.272291e+00 3.203120e+00 2.401273e-02 6.113242e+00 7.025188e-01 -5.291128e-01 -7.142999e-01 -3.079024e-01 2.711887e-01 1.529756e-01 -1.138914e+00 -3.078892e-01 7.151551e-01 8.148576e-01 -1.723233e-01 -3.873334e-01 1.511944e+00 -3.327379e-01 -3.099760e-01 1.571162e-01 5.088805e-01 2.331401e-01 -2.834218e-01 -6.912997e-02 1.550565e-01 2.121990e-01 -5.793522e-02 -2.436951e-01 -1.031915e-01 -2.052863e-01
<VARIANCE> 39
 2.040765e+01 3.199646e+01 5.182451e+01 3.532868e+01 4.894555e+01 4.242004e+01 3.768953e+01 3.655307e+01 5.119853e+01 5.153437e+01 3.708978e+01 2.670847e+01 4.058078e+01 1.247680e+00 1.486412e+00 1.829018e+00 2.838900e+00 2.153815e+00 1.836523e+00 1.432793e+00 1.342481e+00 2.094480e+00 1.504557e+00 1.349899e+00 1.049318e+00 2.420135e+00 1.010763e-01 1.221503e-01 1.778822e-01 1.855712e-01 2.369865e-01 2.246474e-01 2.002592e-01 1.613853e-01 2.041131e-01 2.120408e-01 1.729966e-01 1.386908e-01 1.875075e-01
<GCONST> 1.029768e+02
<STATE> 4
<MEAN> 39
 8.199957e+00 -4.035650e+00 -8.607333e+00 -2.983829e+00 3.863580e+00 -5.694577e-03 -8.823668e+00 -1.028261e+00 6.133157e+00 4.592754e+00 -2.808352e+00 -4.316401e+00 1.011799e+01 -3.654635e-01 -4.350998e-01 7.358292e-01 1.427172e+00 1.478115e-01 -1.171526e+00 -6.061062e-02 4.181944e-01 3.657142e-01 -5.978052e-01 -7.369182e-01 1.975040e-02 2.591360e-02 -8.063992e-02 3.025014e-01 2.886330e-01 9.865590e-02 -2.191261e-01 -3.159119e-02 4.003684e-01 -4.882718e-03 -3.491564e-01 -2.625704e-01 2.092344e-01 2.410926e-01 -3.418398e-01
<VARIANCE> 39
 2.034445e+01 2.325907e+01 3.763075e+01 5.129188e+01 5.645280e+01 5.012217e+01 3.705566e+01 4.934860e+01 6.796790e+01 6.570486e+01 4.612474e+01 2.995920e+01 2.986888e+01 6.904140e-01 1.017403e+00 1.262023e+00 1.631782e+00 2.320004e+00 1.510233e+00 1.633363e+00 1.081064e+00 1.846568e+00 1.541706e+00 1.516204e+00 1.178143e+00 1.267266e+00 9.150140e-02 1.121919e-01 1.387197e-01 2.490667e-01 2.195008e-01 2.104880e-01 1.480598e-01 1.785932e-01 2.256256e-01 2.256205e-01 1.750456e-01 1.252626e-01 8.867075e-02
<GCONST> 1.000759e+02
<TRANSP> 5
 0.000000e+00 1.000000e+00 0.000000e+00 0.000000e+00 0.000000e+00
 0.000000e+00 7.905045e-01 2.094956e-01 0.000000e+00 0.000000e+00
 0.000000e+00 0.000000e+00 7.304076e-01 2.695923e-01 0.000000e+00
 0.000000e+00 0.000000e+00 0.000000e+00 7.307429e-01 2.692571e-01
 0.000000e+00 0.000000e+00 0.000000e+00 0.000000e+00 0.000000e+00
<ENDHMM>
~h "p"
<BEGINHMM>
<NUMSTATES> 5
<STATE> 2
<MEAN> 39
 -2.973910e+00 -5.703648e-01 -3.919312e+00 2.707960e+00 4.302129e+00 1.296308e+00 2.350542e+00 1.789844e+00 6.153933e-01 7.881438e-01 2.575378e+00 -5.678907e-01 -4.652273e+00 -1.960729e-01 -8.375235e-02 -5.310981e-02 2.448723e-01 1.726555e-01 1.407763e-01 5.577308e-02 -6.035580e-02 8.993089e-02 5.715653e-02 8.567899e-02 1.173394e-01 -5.864373e-01 4.222624e-02 -6.933514e-02 3.612231e-02 -6.833588e-02 -7.051752e-02 -3.865312e-02 -4.385298e-02 -1.599440e-02 3.661840e-02 2.807565e-02 -2.260163e-02 -7.015693e-03 1.980229e-01
<VARIANCE> 39
 6.593758e+01 4.208981e+01 2.733738e+01 4.373053e+01 4.511008e+01 4.274440e+01 3.906839e+01 3.222331e+01 4.516092e+01 4.152586e+01 2.960203e+01 2.965079e+01 4.128104e+01 7.893156e-01 5.785810e-01 4.687213e-01 6.407781e-01 6.911991e-01 6.606116e-01 6.949605e-01 6.752554e-01 7.368798e-01 6.040569e-01 5.477152e-01 4.662739e-01 9.355767e-01 8.403481e-02 6.566602e-02 6.535310e-02 7.935749e-02 8.571830e-02 9.674591e-02 9.602784e-02 8.487374e-02 1.215174e-01 8.822908e-02 6.429131e-02 6.327771e-02 8.051722e-02
<GCONST> 8.103775e+01
<STATE> 3
<MEAN> 39
 -6.164457e-01 -2.031721e+00 -4.017576e+00 4.560630e+00 2.195263e+00 1.305394e+00 1.436261e+00 3.510761e-01 1.827625e-01 -5.114844e-01 1.249076e+00 -2.299532e-01 -6.405931e+00 -2.936801e-01 -2.633670e-01 2.865770e-01 -1.628954e-01 -2.878253e-01 -1.437263e-01 1.569492e-01 5.510148e-02 5.493484e-01 4.747650e-01 1.839975e-01 -7.812178e-02 3.271739e-01 1.244514e-01 -6.472167e-02 7.791919e-02 -1.765194e-01 -1.246254e-01 -8.927926e-02 -6.744456e-02 1.306469e-01 1.465274e-01 1.042482e-02 -1.028712e-01 -3.196906e-02 4.715079e-01
<VARIANCE> 39
 4.392377e+01 4.300680e+01 3.843723e+01 3.636017e+01 4.270594e+01 4.344762e+01 4.669410e+01 3.595924e+01 5.778779e+01 4.541026e+01 2.082983e+01 2.436812e+01 4.180333e+01 1.332877e+00 1.003780e+00 1.173620e+00 1.047375e+00 9.975091e-01 1.249164e+00 1.046292e+00 9.420342e-01 1.164096e+00 9.302865e-01 7.580624e-01 7.857983e-01 2.064268e+00 1.449300e-01 1.254788e-01 1.659324e-01 1.336109e-01 1.266976e-01 2.110200e-01 1.519118e-01 1.085246e-01 1.405406e-01 1.422096e-01 1.186010e-01 8.080297e-02 2.392331e-01
<GCONST> 9.470614e+01
<STATE> 4
<MEAN> 39
 -3.487070e+00 -1.067174e+00 -5.153288e-01 2.123416e+00 3.315853e+00 1.948056e+00 2.507829e+00 2.012400e+00 4.243228e+00 3.335238e+00 3.318815e+00 -3.633368e-01 -1.311239e+01 8.469751e-01 -2.215273e-01 -1.202760e-01 -3.710539e-01 -3.753099e-01 -1.212019e-01 -1.415125e-01 8.242205e-02 1.685821e-01 7.976549e-02 -5.156469e-01 -2.241883e-02 1.499282e+00 1.339873e-01 2.026730e-02 -3.670868e-02 -6.744152e-02 -6.349816e-02 1.740868e-03 -8.723497e-02 2.649995e-03 -7.762370e-02 -9.182709e-02 -1.333098e-01 1.316560e-02 2.230750e-01
<VARIANCE> 39
 1.158788e+02 6.050967e+01 5.572777e+01 4.144323e+01 6.783526e+01 4.287525e+01 3.464317e+01 3.466792e+01 4.041591e+01 3.061396e+01 2.694428e+01 1.879439e+01 4.299400e+02 2.696928e+00 2.230755e+00 2.026232e+00 1.938010e+00 2.220041e+00 1.842873e+00 1.034108e+00 8.418342e-01 1.575537e+00 1.182187e+00 1.154942e+00 6.804798e-01 1.101246e+01 2.578256e-01 1.937385e-01 1.607469e-01 1.727504e-01 1.860639e-01 1.647164e-01 9.976642e-02 9.700084e-02 1.384077e-01 1.088523e-01 1.207668e-01 7.875677e-02 8.851448e-01
<GCONST> 1.062916e+02
<TRANSP> 5
 0.000000e+00 1.000000e+00 0.000000e+00 0.000000e+00 0.000000e+00
 0.000000e+00 7.106248e-01 2.893752e-01 0.000000e+00 0.000000e+00
 0.000000e+00 0.000000e+00 5.289333e-01 4.710667e-01 0.000000e+00
 0.000000e+00 0.000000e+00 0.000000e+00 7.079449e-01 2.920551e-01
 0.000000e+00 0.000000e+00 0.000000e+00 0.000000e+00 0.000000e+00
<ENDHMM>
~h "r"
<BEGINHMM>
<NUMSTATES> 5
<STATE> 2
<MEAN> 39
 -3.547816e+00 -8.459142e-01 -1.710724e-01 4.216294e+00 2.473639e+00 1.592073e+00 2.099480e+00 2.100521e+00 1.633912e+00 -4.051061e-02 3.050613e+00 5.035022e-01 -1.051878e+01 -1.458252e-01 8.753068e-03 3.066947e-01 4.858429e-02 1.731723e-02 1.162637e-01 -6.818475e-02 6.455923e-02 1.247176e-01 6.527249e-02 1.683493e-01 2.843031e-02 -5.833231e-01 6.349479e-02 -1.383553e-02 -6.048991e-03 -6.998591e-02 -5.345855e-02 -4.296186e-02 -4.494748e-02 -2.173146e-02 -2.490845e-02 1.715308e-02 -5.102466e-02 -1.172095e-02 8.438748e-02
<VARIANCE> 39
 6.347429e+01 4.094038e+01 4.054704e+01 4.737616e+01 6.351299e+01 4.334177e+01 4.662197e+01 3.764339e+01 5.271594e+01 4.907987e+01 3.730602e+01 2.161495e+01 3.878619e+02 1.148898e+00 7.902835e-01 7.692493e-01 7.906179e-01 1.060964e+00 9.780149e-01 8.438609e-01 1.063086e+00 1.158829e+00 9.190881e-01 7.534088e-01 4.831571e-01 1.731904e+00 1.056137e-01 7.017367e-02 6.424873e-02 8.966416e-02 1.065810e-01 9.136130e-02 9.698623e-02 1.073781e-01 1.290698e-01 9.577261e-02 8.252010e-02 6.142045e-02 1.178467e-01
<GCONST> 9.086481e+01
<STATE> 3
<MEAN> 39
 3.995759e-01 -2.708065e+00 3.085912e+00 1.227315e+00 -2.785661e+00 -1.464142e+00 -2.349213e-01 2.679800e+00 2.585720e+00 -1.857894e-01 8.590510e-01 4.457419e-01 3.799207e+00 3.035442e-01 -2.161104e-01 4.883871e-01 -1.095254e-01 -5.101650e-01 -5.382656e-02 -4.295553e-01 3.764890e-02 -9.916782e-02 7.952336e-02 1.115093e-01 -1.105540e-01 2.487119e-01 1.153980e-01 -5.581867e-03 -1.435741e-01 -1.834290e-01 -7.524401e-02 -5.629777e-02 -3.370587e-02 -2.349480e-02 -3.171948e-02 3.604914e-02 -1.350539e-01 -4.245042e-02 1.854785e-01
<VARIANCE> 39
 2.965339e+01 2.985943e+01 3.868604e+01 3.394984e+01 5.245646e+01 3.991733e+01 4.241156e+01 3.993789e+01 6.187941e+01 3.455600e+01 3.498504e+01 2.501783e+01 1.225596e+02 6.540274e-01 7.637292e-01 1.302048e+00 7.113060e-01 1.199681e+00 1.246254e+00 1.186914e+00 1.572417e+00 1.628649e+00 1.146236e+00 1.112824e+00 6.784157e-01 1.281864e+00 6.835559e-02 8.515609e-02 1.087807e-01 9.472063e-02 1.713815e-01 1.298188e-01 1.405297e-01 1.693276e-01 1.835624e-01 1.233575e-01 1.337480e-01 1.225244e-01 1.115088e-01
<GCONST> 9.346480e+01
<STATE> 4
<MEAN> 39
 6.852128e-01 -2.317574e+00 2.675375e+00 1.094326e+00 -3.297328e+00 -8.869681e-01 -1.264966e-01 3.253219e+00 2.915146e+00 -1.102427e+00 -8.243112e-01 1.923360e-01 3.990673e+00 5.806426e-01 -1.431767e-01 1.715331e-01 -4.168759e-01 -6.540793e-01 -1.932236e-01 -4.821367e-01 -6.100503e-02 7.777575e-02 7.255974e-02 -3.261227e-01 -1.170606e-01 1.290439e+00 1.471117e-02 2.087831e-02 -1.277775e-01 -1.123810e-01 5.116780e-02 -4.976095e-03 1.438864e-02 -6.916390e-02 -6.964729e-02 2.817748e-02 -3.839000e-02 7.329523e-03 3.763182e-02
<VARIANCE> 39
 5.991191e+01 5.201672e+01 5.552135e+01 5.922812e+01 7.081529e+01 5.018425e+01 5.910262e+01 5.393918e+01 7.206866e+01 4.653932e+01 4.821181e+01 2.819512e+01 2.184218e+02 1.679894e+00 1.564897e+00 2.103425e+00 1.633519e+00 2.239776e+00 1.546764e+00 1.892050e+00 1.669958e+00 2.115941e+00 1.593626e+00 1.610548e+00 9.451101e-01 4.975524e+00 1.646902e-01 1.625887e-01 1.740515e-01 1.724513e-01 2.359052e-01 1.746173e-01 1.664865e-01 1.459979e-01 2.031740e-01 1.625155e-01 1.644952e-01 1.183113e-01 3.314272e-01
<GCONST> 1.101288e+02
<TRANSP> 5
 0.000000e+00 1.000000e+00 0.000000e+00 0.000000e+00 0.000000e+00
 0.000000e+00 6.721736e-01 3.278264e-01 0.000000e+00 0.000000e+00
 0.000000e+00 0.000000e+00 3.880850e-01 6.119151e-01 0.000000e+00
 0.000000e+00 0.000000e+00 0.000000e+00 5.602196e-01 4.397804e-01
 0.000000e+00 0.000000e+00 0.000000e+00 0.000000e+00 0.000000e+00
<ENDHMM>
~h "s"
<BEGINHMM>
<NUMSTATES> 5
<STATE> 2
<MEAN> 39
 -1.006307e+01 9.032108e+00 -3.244958e+00 4.136898e+00 -9.692409e-01 -6.563517e+00 4.642159e+00 -6.530998e-01 -4.997289e-01 7.932051e-03 2.108736e+00 -1.149040e-01 6.345879e+00 -2.359902e+00 1.310939e+00 -1.004932e+00 5.728936e-01 1.020582e+00 -1.553813e-01 6.725594e-01 1.087114e-01 -1.668891e-01 1.026241e-01 4.503387e-01 -1.649335e-01 -3.672122e-01 9.434371e-02 -2.626017e-01 1.332618e-01 -2.325993e-01 -6.054413e-02 5.328207e-02 -1.900511e-01 6.286295e-02 1.711702e-03 2.102131e-03 -5.968080e-02 2.808761e-02 3.231772e-02
<VARIANCE> 39
 6.567493e+01 5.077020e+01 7.100842e+01 4.659832e+01 8.082820e+01 6.094980e+01 5.723589e+01 4.688655e+01 5.471820e+01 4.950655e+01 3.813492e+01 3.190283e+01 3.969581e+01 8.386734e-01 9.660682e-01 9.866793e-01 1.749256e+00 1.536231e+00 1.599762e+00 1.470273e+00 1.432427e+00 1.375201e+00 1.155380e+00 1.436801e+00 9.782177e-01 3.107253e-01 1.439461e-01 1.283301e-01 9.703856e-02 1.164724e-01 1.280943e-01 1.342827e-01 1.363061e-01 1.358115e-01 1.186192e-01 9.818649e-02 1.141998e-01 9.407154e-02 2.774967e-02
<GCONST> 9.549706e+01
<STATE> 3
<MEAN> 39
 -1.764527e+01 9.522918e+00 -4.156079e+00 3.776778e+00 2.397270e+00 -4.786345e+00 4.690117e+00 5.976325e-01 -1.334406e+00 5.896017e-01 3.535002e+00 -9.967704e-01 4.383955e+00 -5.624801e-02 -6.834963e-01 3.646447e-01 -2.191110e-01 9.736715e-02 -5.292344e-02 -9.727990e-02 1.878638e-01 8.833292e-03 -1.757115e-01 -8.855950e-03 7.439874e-03 -1.231671e-01 5.701006e-01 -2.114062e-01 1.648649e-01 -7.724728e-02 -1.970705e-01 -2.765573e-02 -1.189827e-01 -6.732576e-02 5.699737e-02 -4.008717e-02 -1.237961e-01 3.836976e-02 5.739494e-02
<VARIANCE> 39
 5.262915e+01 3.635340e+01 4.173539e+01 5.961097e+01 8.242667e+01 5.809287e+01 4.062538e+01 4.466249e+01 3.620944e+01 4.577308e+01 4.000302e+01 3.337522e+01 2.549974e+01 1.497049e+00 6.811485e-01 9.658993e-01 6.575732e-01 8.631523e-01 8.793357e-01 8.782873e-01 1.086326e+00 8.102239e-01 9.266740e-01 8.665764e-01 4.872764e-01 3.639193e-01 1.087359e-01 9.345202e-02 1.016092e-01 1.281546e-01 1.164658e-01 1.165541e-01 1.403977e-01 1.133470e-01 1.293392e-01 1.400667e-01 1.211647e-01 9.210679e-02 4.900503e-02
<GCONST> 8.906960e+01
<STATE> 4
<MEAN> 39
 -1.083903e+01 4.388220e+00 -1.774121e+00 2.189413e+00 1.982882e+00 -7.724928e+00 2.370627e+00 2.567394e+00 -2.309395e-01 -1.259727e+00 1.743795e+00 1.047265e-01 4.746819e+00 2.609394e+00 -6.105517e-01 5.046707e-02 -5.963355e-01 -5.684571e-01 1.520679e-01 -8.068737e-01 -3.352692e-01 1.950377e-01 1.249784e-02 -3.857962e-01 5.502233e-02 3.390711e-01 1.602937e-01 1.900945e-01 -1.410855e-01 -9.836987e-02 -2.368536e-02 1.605610e-01 -5.414178e-02 -1.630818e-01 -1.608889e-02 8.429968e-02 -1.207777e-02 -1.285852e-02 5.389205e-02
<VARIANCE> 39
 9.310975e+01 3.480317e+01 6.036594e+01 4.328184e+01 6.304515e+01 5.999075e+01 6.092645e+01 5.587328e+01 4.823761e+01 5.508211e+01 4.537475e+01 2.346956e+01 3.585332e+01 1.718316e+00 1.543737e+00 2.191901e+00 2.036332e+00 2.110528e+00 1.607836e+00 1.713376e+00 2.020087e+00 1.833873e+00 2.323145e+00 1.849020e+00 1.126518e+00 1.507481e+00 2.301983e-01 1.152331e-01 9.534489e-02 1.244889e-01 1.077132e-01 1.120475e-01 1.911879e-01 1.569148e-01 1.496402e-01 1.775423e-01 1.259683e-01 8.595432e-02 7.667008e-02
<GCONST> 1.032541e+02
<TRANSP> 5
 0.000000e+00 1.000000e+00 0.000000e+00 0.000000e+00 0.000000e+00
 0.000000e+00 7.777025e-01 2.222974e-01 0.000000e+00 0.000000e+00
 0.000000e+00 0.000000e+00 8.130949e-01 1.869051e-01 0.000000e+00
 0.000000e+00 0.000000e+00 0.000000e+00 6.892389e-01 3.107611e-01
 0.000000e+00 0.000000e+00 0.000000e+00 0.000000e+00 0.000000e+00
<ENDHMM>
~h "t"
<BEGINHMM>
<NUMSTATES> 5
<STATE> 2
<MEAN> 39
 1.837051e+00 1.215644e+00 8.289407e-01 3.422212e+00 -2.225067e-01 -1.164035e+00 3.523886e-01 -1.976285e+00 -8.925085e-01 -8.651879e-01 3.579640e-02 2.877603e-01 -2.882226e+00 -5.860237e-01 -5.041879e-01 -5.794989e-01 8.072399e-02 2.703198e-01 1.740783e-01 3.983437e-01 2.752484e-01 3.229356e-01 2.900406e-01 4.134607e-01 -1.270617e-01 -1.789725e-01 -1.653376e-01 -4.739351e-02 8.771305e-02 -2.870477e-01 -1.604206e-01 -1.232255e-01 2.006137e-02 4.047002e-02 4.448858e-02 2.835781e-02 -4.899321e-02 -2.664911e-02 6.151331e-01
<VARIANCE> 39
 2.932666e+01 4.874465e+01 7.301401e+01 3.850939e+01 5.616413e+01 5.529805e+01 4.419123e+01 4.614865e+01 4.613213e+01 3.726403e+01 3.059474e+01 2.452929e+01 3.317658e+01 1.060175e+00 1.012806e+00 1.027805e+00 1.125190e+00 1.073871e+00 1.424292e+00 1.004286e+00 1.063948e+00 1.241011e+00 1.050861e+00 8.160751e-01 7.938628e-01 1.987918e+00 1.476633e-01 1.409088e-01 1.280265e-01 9.037827e-02 1.600673e-01 2.505355e-01 1.881025e-01 1.550730e-01 1.903973e-01 1.416502e-01 1.293422e-01 1.053296e-01 1.420675e-01
<GCONST> 9.640051e+01
<STATE> 3
<MEAN> 39
 -5.455245e+00 -1.935005e+00 -1.237018e+00 1.110015e+00 1.820986e+00 -8.766601e-01 4.515920e+00 7.314705e-01 2.177321e+00 1.356155e+00 3.521337e+00 -4.624794e-01 1.578463e+00 -1.531344e-01 -3.573429e-01 2.426786e-01 -1.053722e+00 -7.408154e-01 -6.724260e-01 -1.518948e-01 2.017868e-01 2.143164e-01 1.648022e-01 -2.251643e-01 -1.714432e-01 2.189862e+00 4.162329e-01 1.111239e-01 1.811865e-01 -1.889175e-01 -2.300708e-01 -1.040095e-01 -3.166385e-01 -5.802076e-02 -1.384136e-01 -9.575898e-02 -2.740884e-01 9.632053e-03 2.555109e-01
<VARIANCE> 39
 3.460023e+01 3.944975e+01 4.075762e+01 3.486266e+01 4.352697e+01 4.670652e+01 3.957870e+01 3.981435e+01 3.990686e+01 5.159715e+01 3.666359e+01 2.976191e+01 6.969621e+01 1.440287e+00 1.758600e+00 2.146205e+00 1.321925e+00 1.755927e+00 2.168408e+00 2.446624e+00 2.624243e+00 2.880871e+00 1.766127e+00 1.452794e+00 8.873066e-01 1.722190e+00 9.547909e-02 1.530586e-01 1.673338e-01 1.285540e-01 1.399999e-01 1.418032e-01 1.562357e-01 2.194677e-01 2.015120e-01 2.008337e-01 1.440105e-01 1.441320e-01 1.761811e-01
<GCONST> 1.034215e+02
<STATE> 4
<MEAN> 39
 -1.194357e+00 -8.742903e-01 6.273007e-01 -3.463332e+00 -3.191576e+00 -5.023248e+00 7.199367e-01 -2.812212e-02 1.769314e+00 -5.539421e-01 -1.179154e+00 -1.175305e+00 9.691821e+00 8.856369e-01 1.273684e-01 1.693535e-01 -1.075817e+00 -7.191734e-01 -3.284937e-01 -7.959297e-01 -4.156227e-02 -1.229100e-01 -4.298921e-02 -6.102777e-01 -1.102631e-01 1.584599e+00 2.448065e-01 1.298489e-01 -3.575347e-03 1.121401e-01 8.313976e-02 2.583866e-01 -1.008346e-01 -7.663943e-02 -1.155065e-01 -3.125689e-02 -4.959156e-02 8.492327e-02 -4.016667e-01
<VARIANCE> 39
 3.392623e+01 4.446831e+01 4.671452e+01 4.254962e+01 4.587516e+01 5.690252e+01 6.764554e+01 4.887752e+01 4.603825e+01 5.123270e+01 3.652537e+01 2.284709e+01 4.407037e+01 1.903326e+00 2.351452e+00 2.739255e+00 2.002322e+00 1.848432e+00 1.598549e+00 2.511278e+00 3.269535e+00 2.812143e+00 2.062440e+00 1.706255e+00 1.176948e+00 2.142278e+00 9.387568e-02 1.518574e-01 1.480290e-01 1.379453e-01 1.506746e-01 1.941774e-01 2.599805e-01 1.801295e-01 1.617089e-01 1.724589e-01 1.284257e-01 1.196784e-01 1.834583e-01
<GCONST> 1.062613e+02
<TRANSP> 5
 0.000000e+00 1.000000e+00 0.000000e+00 0.000000e+00 0.000000e+00
 0.000000e+00 7.339748e-01 2.660253e-01 0.000000e+00 0.000000e+00
 0.000000e+00 0.000000e+00 6.147968e-01 3.852032e-01 0.000000e+00
 0.000000e+00 0.000000e+00 0.000000e+00 4.205943e-01 5.794057e-01
 0.000000e+00 0.000000e+00 0.000000e+00 0.000000e+00 0.000000e+00
<ENDHMM>
~h "u"
<BEGINHMM>
<NUMSTATES> 5
<STATE> 2
<MEAN> 39
 6.648626e+00 2.375158e+00 -3.884132e+00 -3.012823e+00 1.022852e+00 -2.670176e+00 -9.509089e+00 -4.763316e+00 1.482930e-01 4.343538e+00 1.996222e+00 -5.684625e-02 5.934645e+00 5.172432e-01 6.345158e-01 -5.588885e-01 -5.516873e-01 2.926589e-01 6.133700e-01 -9.642599e-02 -6.028322e-01 -5.921320e-01 1.221917e-01 3.291038e-01 1.214429e-01 -4.217974e-01 -1.642872e-01 -2.901499e-02 1.633853e-01 1.577637e-01 -9.536617e-03 3.214210e-02 4.097619e-01 1.562801e-01 -6.399686e-02 -2.365119e-01 -5.087903e-02 3.960403e-02 -2.052476e-01
<VARIANCE> 39
 2.042357e+01 2.331231e+01 4.059888e+01 3.577280e+01 3.730399e+01 5.344543e+01 4.783325e+01 3.565382e+01 4.987110e+01 4.384754e+01 4.187257e+01 2.953447e+01 3.196000e+01 7.086673e-01 6.059058e-01 1.100559e+00 1.182166e+00 1.110253e+00 1.020711e+00 1.763131e+00 1.004069e+00 1.362392e+00 1.274396e+00 9.903076e-01 7.660293e-01 6.271124e-01 7.561228e-02 8.551525e-02 1.195669e-01 1.278902e-01 1.504468e-01 1.703625e-01 1.778194e-01 1.203324e-01 1.778138e-01 1.386671e-01 1.510149e-01 1.074816e-01 6.682395e-02
<GCONST> 9.110148e+01
<STATE> 3
<MEAN> 39
 7.954060e+00 5.393527e+00 -5.452091e+00 -3.673827e+00 1.318358e+00 -1.635738e-01 -3.403848e+00 -3.576116e+00 -3.276942e+00 -4.327769e-01 2.379349e+00 9.815491e-01 -5.254402e-01 -3.166350e-01 9.591999e-02 3.093661e-01 4.118827e-01 8.871289e-02 6.187095e-02 5.551864e-01 2.072723e-01 -4.626393e-02 -3.295197e-01 4.211174e-02 1.530482e-02 -9.950918e-01 -1.144256e-01 -1.098712e-01 7.123430e-02 1.245148e-01 1.269883e-02 -6.017198e-02 -9.392789e-03 6.499906e-02 9.224547e-02 2.600440e-02 -2.613903e-02 -3.522730e-02 5.486111e-03
<VARIANCE> 39
 3.141047e+01 3.221404e+01 4.626068e+01 5.263597e+01 3.683410e+01 4.882726e+01 4.891178e+01 3.847218e+01 4.725967e+01 5.245967e+01 4.562123e+01 3.165183e+01 6.538767e+01 6.849444e-01 7.146441e-01 7.109735e-01 1.033080e+00 9.677984e-01 1.011628e+00 9.023574e-01 7.367020e-01 9.371696e-01 8.831244e-01 6.887846e-01 6.045974e-01 5.621095e-01 4.253869e-02 5.358940e-02 6.871088e-02 8.585236e-02 8.566653e-02 1.070685e-01 1.072111e-01 9.653813e-02 1.179444e-01 9.604134e-02 8.228000e-02 7.549939e-02 3.947199e-02
<GCONST> 8.433361e+01
<STATE> 4
<MEAN> 39
 4.061699e-01 2.839513e+00 -2.262231e+00 5.903347e-01 2.507501e+00 -4.020821e-01 -8.738467e-01 -3.389434e+00 -3.313748e+00 -1.840038e+00 3.190081e-01 1.899730e+00 -4.018368e+00 -3.760063e-01 -1.111291e-01 5.120521e-02 2.860184e-01 1.545828e-01 3.541482e-02 1.872403e-01 1.274824e-01 2.544959e-02 -1.188729e-01 -5.139111e-02 2.845562e-02 -3.613299e-01 7.127963e-03 -3.145496e-02 5.114858e-03 -3.317419e-02 -1.544864e-02 -4.969344e-03 -3.718375e-02 1.866103e-03 2.390446e-02 3.768916e-02 1.503301e-02 -2.098731e-02 5.841647e-02
<VARIANCE> 39
 2.661701e+01 1.890976e+01 1.983038e+01 2.025169e+01 2.197193e+01 2.713887e+01 2.603532e+01 2.172832e+01 3.710868e+01 3.041371e+01 2.240026e+01 1.818011e+01 3.221206e+01 2.356876e-01 2.518765e-01 3.225172e-01 4.324989e-01 3.880736e-01 4.977111e-01 5.364060e-01 4.180469e-01 4.957115e-01 5.319350e-01 4.174753e-01 3.514119e-01 1.990609e-01 1.832212e-02 2.451415e-02 3.221563e-02 4.429400e-02 4.453020e-02 5.810777e-02 5.872817e-02 5.194616e-02 6.003369e-02 6.457822e-02 5.463718e-02 4.651276e-02 1.518172e-02
<GCONST> 5.860829e+01
<TRANSP> 5
 0.000000e+00 1.000000e+00 0.000000e+00 0.000000e+00 0.000000e+00
 0.000000e+00 7.077457e-01 2.922543e-01 0.000000e+00 0.000000e+00
 0.000000e+00 0.000000e+00 7.213197e-01 2.786803e-01 0.000000e+00
 0.000000e+00 0.000000e+00 0.000000e+00 8.471389e-01 1.528611e-01
 0.000000e+00 0.000000e+00 0.000000e+00 0.000000e+00 0.000000e+00
<ENDHMM>
~h "w"
<BEGINHMM>
<NUMSTATES> 5
<STATE> 2
<MEAN> 39
 8.674253e+00 -1.938431e-01 -7.014657e+00 -3.528933e+00 2.230930e+00 1.446931e+00 -1.533722e+00 -2.445477e+00 -3.986234e-01 1.152228e+00 1.755999e+00 -7.750157e-01 4.595163e+00 5.313143e-01 -2.041184e-02 -4.008815e-01 -2.810762e-01 7.019275e-02 3.083234e-01 -1.387747e-01 -1.730300e-01 2.482326e-01 4.603349e-01 2.047561e-01 -1.469800e-01 -7.331599e-02 -1.305251e-01 -1.516354e-01 -5.490124e-02 -1.107332e-01 2.991913e-02 -3.589462e-02 -1.063423e-01 1.865856e-01 2.536891e-01 3.811304e-02 -2.669219e-01 -7.580870e-02 3.127170e-01
<VARIANCE> 39
 3.748734e+01 6.241057e+01 4.196859e+01 5.235616e+01 3.334727e+01 5.299403e+01 4.385352e+01 3.541739e+01 4.354537e+01 3.575809e+01 3.923859e+01 3.275502e+01 2.511147e+01 7.784225e-01 7.671202e-01 9.108114e-01 1.200270e+00 1.038243e+00 1.178441e+00 1.242190e+00 8.966659e-01 1.226987e+00 1.028012e+00 1.083402e+00 7.705790e-01 9.962668e-01 8.907658e-02 9.424595e-02 1.038154e-01 1.879837e-01 1.596910e-01 1.567792e-01 1.823917e-01 1.378025e-01 1.531625e-01 1.573672e-01 1.468590e-01 1.113193e-01 7.737552e-02
<GCONST> 9.313300e+01
<STATE> 3
<MEAN> 39
 9.269320e+00 -1.867230e+00 -1.083985e+01 -6.110124e+00 4.469002e+00 3.882764e+00 -5.000332e+00 -2.774711e-01 3.207624e+00 4.740712e+00 -1.307370e+00 -4.919321e+00 6.132366e+00 -8.382729e-03 -3.503039e-01 -1.726639e-01 -1.029493e-01 1.091967e-01 -2.488924e-01 -7.437429e-02 4.470557e-01 5.845894e-01 -1.464141e-01 -7.435594e-01 -1.117904e-01 5.081103e-01 -2.190222e-01 -9.852565e-02 2.812172e-01 1.074509e-01 -1.492629e-01 -1.856468e-01 1.777493e-01 1.536796e-01 -6.483207e-02 -2.929839e-01 -1.028266e-01 1.881892e-01 1.135235e-01
<VARIANCE> 39
 3.413128e+01 4.607893e+01 5.545948e+01 4.835937e+01 3.261843e+01 7.164311e+01 4.554452e+01 4.056329e+01 4.548909e+01 3.642731e+01 5.314201e+01 3.554475e+01 3.628598e+01 8.590085e-01 1.595681e+00 1.153110e+00 1.313518e+00 1.339704e+00 1.675728e+00 1.669406e+00 1.146515e+00 1.835698e+00 1.306513e+00 1.783569e+00 9.876403e-01 9.306868e-01 6.625245e-02 1.182679e-01 7.988579e-02 1.739430e-01 1.426951e-01 1.329422e-01 1.569793e-01 1.136233e-01 1.116774e-01 1.375254e-01 1.556533e-01 1.142776e-01 1.013900e-01
<GCONST> 9.670496e+01
<STATE> 4
<MEAN> 39
 8.511210e+00 1.263595e+00 -7.829621e+00 -8.548046e+00 4.793953e-01 2.772990e+00 -3.078984e+00 -1.153641e+00 2.956728e+00 2.855753e+00 3.317512e-01 -1.586215e+00 6.501665e+00 -2.236567e-01 -2.275940e-01 4.810118e-01 1.976058e-01 -2.957363e-01 -5.974504e-01 -1.143126e-01 4.021668e-01 1.448252e-01 -6.686740e-02 -4.005506e-01 4.799151e-02 2.483529e-01 -1.011938e-01 -3.105634e-02 1.591060e-01 1.422682e-01 -3.533095e-02 -4.207323e-02 8.122162e-02 5.951079e-02 -5.011967e-02 -2.724746e-02 -1.961012e-02 6.852521e-03 3.167495e-03
<VARIANCE> 39
 3.033143e+01 4.661839e+01 5.102322e+01 5.494848e+01 4.573528e+01 5.573356e+01 4.220360e+01 3.127969e+01 4.204047e+01 5.291943e+01 5.084619e+01 2.883682e+01 2.931514e+01 6.372097e-01 7.498079e-01 8.375308e-01 1.257598e+00 1.247456e+00 1.138923e+00 1.298974e+00 1.307492e+00 1.406858e+00 1.328231e+00 1.066061e+00 1.011162e+00 9.828550e-01 6.311258e-02 6.898638e-02 7.325327e-02 1.389525e-01 1.482414e-01 1.355416e-01 1.481696e-01 1.136336e-01 1.416312e-01 1.368215e-01 1.307656e-01 9.747127e-02 8.496050e-02
<GCONST> 9.236472e+01
<TRANSP> 5
 0.000000e+00 1.000000e+00 0.000000e+00 0.000000e+00 0.000000e+00
 0.000000e+00 5.875386e-01 4.124614e-01 0.000000e+00 0.000000e+00
 0.000000e+00 0.000000e+00 5.119231e-01 4.880769e-01 0.000000e+00
 0.000000e+00 0.000000e+00 0.000000e+00 5.736476e-01 4.263524e-01
 0.000000e+00 0.000000e+00 0.000000e+00 0.000000e+00 0.000000e+00
<ENDHMM>
~h "y"
<BEGINHMM>
<NUMSTATES> 5
<STATE> 2
<MEAN> 39
 -2.337765e+00 5.771401e+00 1.169785e+01 -6.702950e+00 -4.378486e+00 4.725416e-01 -4.801726e+00 -4.222755e+00 -2.449271e+00 -1.062038e+00 -1.019059e+00 7.340603e-02 6.599821e+00 1.340404e-01 1.009232e-01 7.177723e-01 -5.099247e-01 -7.500942e-01 1.019941e-01 -5.088359e-02 -6.805386e-02 3.582703e-02 3.620910e-01 1.911966e-01 -8.782364e-02 4.788080e-01 1.011326e-01 -2.303172e-01 -2.232953e-01 9.149569e-02 -1.144272e-01 -8.050977e-02 2.001583e-01 1.446892e-01 2.617772e-02 8.242192e-02 1.076757e-02 -3.233419e-02 6.028563e-02
<VARIANCE> 39
 2.856808e+01 5.936544e+01 6.257448e+01 7.863567e+01 4.512971e+01 3.622380e+01 5.148177e+01 4.213209e+01 5.901456e+01 3.578610e+01 5.847145e+01 3.041725e+01 7.043866e+01 6.784269e-01 1.109152e+00 1.820330e+00 1.099142e+00 1.315057e+00 1.203721e+00 1.180685e+00 1.259772e+00 1.204883e+00 8.785565e-01 9.521036e-01 6.224695e-01 1.075117e+00 6.392177e-02 1.165483e-01 1.978409e-01 1.068162e-01 1.320179e-01 1.345783e-01 1.438815e-01 1.510829e-01 1.389058e-01 1.087330e-01 1.282202e-01 9.208257e-02 6.581577e-02
<GCONST> 9.499259e+01
<STATE> 3
<MEAN> 39
 -1.281839e+00 3.100271e+00 1.223312e+01 -1.064993e+01 -1.186230e+01 4.462509e-01 1.460683e-01 -5.560899e+00 -1.773966e+00 4.036197e+00 3.569837e-01 -1.344982e+00 1.182874e+01 5.553018e-01 -1.205608e+00 -1.055188e+00 3.573413e-01 -6.406466e-01 -5.913257e-01 1.049186e+00 1.111577e+00 -1.134378e-01 1.028022e-01 1.648990e-01 -1.557082e-01 5.651315e-01 6.206894e-02 -1.111974e-01 -3.120690e-01 2.995149e-01 3.975516e-01 -1.585363e-01 -8.257331e-02 2.974352e-01 2.085448e-02 -2.482866e-01 -9.853917e-02 6.532962e-02 -1.196532e-01
<VARIANCE> 39
 2.834936e+01 3.689138e+01 6.038507e+01 7.762410e+01 4.415845e+01 4.879508e+01 5.478205e+01 5.960010e+01 6.947141e+01 3.452664e+01 6.864797e+01 3.206155e+01 3.891340e+01 4.949596e-01 1.165337e+00 1.112962e+00 1.372468e+00 1.097907e+00 1.589961e+00 1.719605e+00 1.381579e+00 1.951310e+00 1.225379e+00 1.007574e+00 1.077589e+00 6.825219e-01 4.925607e-02 1.003238e-01 1.471232e-01 1.358949e-01 1.761651e-01 1.442652e-01 1.833678e-01 1.485610e-01 1.623076e-01 1.240458e-01 1.455811e-01 1.059945e-01 6.202051e-02
<GCONST> 9.650239e+01
<STATE> 4
<MEAN> 39
 1.483334e+00 -3.111783e+00 5.975368e+00 -5.085574e+00 -9.693075e+00 -5.310774e+00 1.954527e+00 3.766881e+00 -3.140172e+00 4.595356e-01 2.540761e-01 -2.633460e-01 1.256475e+01 6.758719e-01 -8.392082e-01 -1.791697e+00 9.179719e-01 1.150434e+00 -6.100365e-01 -2.870525e-01 1.162755e+00 5.095983e-01 -4.993011e-01 -4.350958e-01 1.428790e-01 -5.253454e-02 -3.017256e-02 2.492035e-01 4.225507e-02 1.036360e-02 3.117334e-01 2.478437e-01 -2.557628e-01 -3.571738e-01 6.883893e-02 3.348397e-02 -7.372398e-02 -3.090996e-02 -2.430222e-01
<VARIANCE> 39
 2.846716e+01 3.445804e+01 4.944960e+01 4.899536e+01 4.463472e+01 5.657893e+01 7.016695e+01 6.805327e+01 5.862481e+01 3.643443e+01 4.315010e+01 2.912548e+01 4.282615e+01 3.905021e-01 9.462498e-01 1.416173e+00 1.416150e+00 1.249185e+00 1.352933e+00 1.927393e+00 1.743762e+00 1.986636e+00 1.559133e+00 1.508522e+00 9.032098e-01 5.681723e-01 3.532789e-02 7.820650e-02 1.204883e-01 1.257105e-01 1.622762e-01 1.909889e-01 1.913822e-01 1.667242e-01 1.553698e-01 1.345823e-01 1.262431e-01 1.089023e-01 4.187025e-02
<GCONST> 9.520779e+01
<TRANSP> 5
 0.000000e+00 1.000000e+00 0.000000e+00 0.000000e+00 0.000000e+00
 0.000000e+00 7.316715e-01 2.683285e-01 0.000000e+00 0.000000e+00
 0.000000e+00 0.000000e+00 6.679050e-01 3.320950e-01 0.000000e+00
 0.000000e+00 0.000000e+00 0.000000e+00 6.380130e-01 3.619870e-01
 0.000000e+00 0.000000e+00 0.000000e+00 0.000000e+00 0.000000e+00
<ENDHMM>
~h "aa"
<BEGINHMM>
<NUMSTATES> 5
<STATE> 2
<MEAN> 39
 4.563832e+00 -8.355062e+00 -7.041576e+00 -3.487334e+00 1.364201e+00 2.864063e+00 -4.537871e-01 4.132288e+00 4.210016e+00 -1.304301e+00 -6.150979e+00 -2.008668e+00 1.234502e+01 1.483752e-01 -1.035322e+00 -9.345222e-01 -4.673114e-01 7.551820e-01 8.009971e-01 2.744347e-02 1.375071e-01 -2.634425e-02 -4.624853e-01 -6.386021e-01 -6.510265e-02 1.050239e+00 -1.041799e-01 1.801036e-01 1.351167e-01 2.105078e-01 1.134463e-01 -7.927030e-02 -3.073945e-02 -1.615809e-01 -9.425943e-02 3.585400e-02 1.720776e-01 2.287316e-02 -2.398499e-01
<VARIANCE> 39
 2.338231e+01 3.661450e+01 4.679160e+01 5.382080e+01 6.618952e+01 6.284350e+01 5.272513e+01 5.524430e+01 9.856049e+01 6.298081e+01 4.505630e+01 3.264141e+01 4.144775e+01 7.339482e-01 1.034394e+00 1.268736e+00 1.283703e+00 1.418568e+00 1.535364e+00 1.356670e+00 1.394714e+00 1.368867e+00 1.301107e+00 1.275893e+00 8.749493e-01 1.097239e+00 6.578138e-02 9.206650e-02 1.135520e-01 1.229625e-01 1.584288e-01 1.768506e-01 1.356321e-01 1.725339e-01 1.525324e-01 1.540718e-01 1.266542e-01 8.604530e-02 8.277402e-02
<GCONST> 9.726144e+01
<STATE> 3
<MEAN> 39
 3.403136e+00 -9.860167e+00 -9.027403e+00 -2.166688e+00 6.904007e+00 3.893473e+00 -1.292478e+00 1.795255e+00 3.029762e-01 -3.889524e+00 -5.937355e+00 -1.865058e+00 1.302320e+01 -9.471003e-02 -1.930448e-02 9.559828e-02 1.391730e-01 6.761535e-02 -1.241982e-01 1.053826e-02 5.109253e-02 -7.619962e-02 -1.885479e-01 -4.779148e-02 8.904924e-02 -3.270051e-02 5.365669e-03 1.393582e-01 1.395530e-01 -1.293334e-02 -2.289389e-01 -1.332177e-01 6.866736e-02 3.926069e-02 7.184910e-03 2.910114e-02 4.068172e-02 3.310351e-02 -8.204898e-02
<VARIANCE> 39
 1.503284e+01 2.505211e+01 2.968000e+01 4.004936e+01 3.502588e+01 3.438418e+01 4.491851e+01 3.436810e+01 5.030224e+01 5.062907e+01 3.296214e+01 3.190282e+01 3.642974e+01 1.652736e-01 3.053463e-01 4.626490e-01 4.970565e-01 1.044868e+00 7.356129e-01 8.013029e-01 7.340190e-01 6.402378e-01 6.141033e-01 5.647111e-01 4.905137e-01 1.201519e-01 1.530204e-02 3.042843e-02 3.830413e-02 5.384135e-02 6.110189e-02 6.358472e-02 7.603522e-02 7.616768e-02 7.535785e-02 6.534427e-02 6.697648e-02 5.599939e-02 1.442165e-02
<GCONST> 6.823771e+01
<STATE> 4
<MEAN> 39
 3.300352e+00 -7.359042e+00 -6.503778e+00 -1.263361e+00 2.381812e+00 5.720165e-01 1.375088e+00 3.387357e+00 1.370217e+00 -4.283973e+00 -5.994195e+00 -5.306634e-01 9.574835e+00 2.154312e-02 6.084067e-01 7.123299e-01 3.674063e-01 -5.348696e-01 -3.220544e-01 1.893503e-01 -2.431828e-01 -2.444087e-01 6.931390e-02 4.632430e-01 1.443267e-01 -9.182786e-01 1.499610e-02 3.705730e-02 2.620097e-02 3.931700e-02 1.009081e-01 8.279750e-02 -7.546768e-02 -1.143650e-01 -2.678381e-02 9.077634e-02 8.463173e-02 -5.228771e-02 -1.071493e-01
<VARIANCE> 39
 2.103680e+01 3.084876e+01 3.873108e+01 4.133539e+01 4.350076e+01 4.385479e+01 4.423788e+01 5.068715e+01 6.341698e+01 5.508258e+01 3.420766e+01 3.155528e+01 6.982958e+01 6.058968e-01 6.102557e-01 7.643840e-01 7.496935e-01 1.152040e+00 1.143357e+00 1.082648e+00 1.012264e+00 1.103675e+00 1.014365e+00 8.172663e-01 6.686709e-01 5.203387e-01 5.986298e-02 7.370065e-02 6.402409e-02 9.630939e-02 1.163411e-01 1.272144e-01 1.268267e-01 1.289294e-01 1.114366e-01 1.029008e-01 9.200073e-02 6.926385e-02 6.396542e-02
<GCONST> 8.674731e+01
<TRANSP> 5
 0.000000e+00 1.000000e+00 0.000000e+00 0.000000e+00 0.000000e+00
 0.000000e+00 7.465540e-01 2.534460e-01 0.000000e+00 0.000000e+00
 0.000000e+00 0.000000e+00 8.566933e-01 1.433067e-01 0.000000e+00
 0.000000e+00 0.000000e+00 0.000000e+00 8.071848e-01 1.928153e-01
 0.000000e+00 0.000000e+00 0.000000e+00 0.000000e+00 0.000000e+00
<ENDHMM>
~h "ai"
<BEGINHMM>
<NUMSTATES> 5
<STATE> 2
<MEAN> 39
 -6.663748e+00 9.240165e-02 3.555937e+00 2.902170e+00 3.670610e+00 2.963070e+00 1.055564e+00 5.752004e+00 3.218571e+00 3.082043e+00 3.639681e+00 -3.859323e-01 -2.570007e+01 2.945824e-01 7.464988e-03 1.483812e-01 -1.562837e-01 -2.996439e-01 1.667790e-01 1.486062e-01 -5.282823e-02 -2.703208e-02 1.265217e-01 -1.844219e-01 6.075275e-02 1.351240e-01 1.450834e-01 8.462484e-03 2.714691e-02 3.077581e-02 -4.883108e-02 -4.238486e-02 3.157686e-02 -1.725366e-01 -1.156614e-01 -5.175965e-02 -9.044070e-02 -9.553597e-03 3.689037e-01
<VARIANCE> 39
 1.014174e+02 4.174793e+01 2.091386e+01 2.927912e+01 6.190076e+01 3.910612e+01 2.902031e+01 3.607550e+01 4.529103e+01 3.925666e+01 3.272213e+01 1.182071e+01 6.446688e+02 2.726918e+00 1.150007e+00 1.085506e+00 1.115529e+00 1.278188e+00 1.292732e+00 1.068168e+00 1.569444e+00 1.157973e+00 8.242880e-01 9.963343e-01 5.210431e-01 1.047616e+01 2.651407e-01 9.214979e-02 5.704631e-02 1.046130e-01 8.204688e-02 1.026740e-01 1.206627e-01 1.843624e-01 1.142771e-01 7.575212e-02 1.331387e-01 4.428104e-02 8.959714e-01
<GCONST> 9.769254e+01
<STATE> 3
<MEAN> 39
 4.879806e+00 -7.973844e+00 2.194685e+00 -1.173920e+00 -8.261306e+00 -7.588521e-01 1.098501e+00 6.268342e+00 1.632804e+00 -1.597820e+00 -4.851255e+00 -3.631109e-01 1.450504e+01 -2.489824e-01 -1.066005e-01 6.124927e-01 -9.043164e-01 -1.055610e+00 -4.232669e-01 4.887898e-01 -3.793593e-01 -9.005563e-01 2.975607e-01 1.225779e-02 -1.077683e-02 1.256594e+00 -1.939951e-01 3.200410e-01 2.114166e-01 -1.184321e-01 1.525207e-01 3.415183e-03 -1.071702e-01 -2.601850e-01 3.629632e-02 1.322812e-01 1.837727e-01 -2.815189e-02 -2.961673e-01
<VARIANCE> 39
 2.876428e+01 4.180031e+01 7.188041e+01 5.667581e+01 7.254432e+01 5.980928e+01 5.768964e+01 1.023656e+02 6.782198e+01 5.335420e+01 3.213511e+01 2.409589e+01 6.353499e+01 1.297134e+00 1.727305e+00 2.265058e+00 1.763297e+00 1.378198e+00 1.351254e+00 1.952669e+00 3.047294e+00 2.290640e+00 1.509210e+00 1.697590e+00 5.694275e-01 4.235913e+00 8.957281e-02 1.357484e-01 1.636018e-01 1.960982e-01 1.211547e-01 1.477480e-01 2.351838e-01 3.974957e-01 2.083155e-01 1.620650e-01 1.126755e-01 6.832688e-02 1.619637e-01
<GCONST> 1.060673e+02
<STATE> 4
<MEAN> 39
 -6.002584e-03 7.730454e-01 1.140274e+01 -6.857936e+00 -1.074389e+01 -3.650610e+00 -3.670205e-01 -2.819756e+00 -2.098889e+00 2.370810e+00 -1.104902e+00 4.428776e-01 1.116310e+01 -1.170472e-01 7.462525e-01 1.005358e-01 3.179328e-01 3.558596e-01 1.555049e-02 -2.393351e-01 -6.094515e-01 -1.418832e-01 1.326269e-02 1.811614e-01 1.478626e-01 -8.067185e-01 6.142870e-02 -1.153714e-01 -2.081553e-01 1.551323e-01 1.152565e-01 6.232842e-02 3.149126e-02 1.668163e-01 5.506872e-02 -7.859963e-02 -3.199915e-02 9.921002e-03 -7.842227e-02
<VARIANCE> 39
 2.857275e+01 2.955862e+01 5.049103e+01 6.593356e+01 4.607686e+01 2.866233e+01 5.884644e+01 6.308247e+01 5.418266e+01 3.879128e+01 5.738918e+01 4.207590e+01 5.048133e+01 3.622864e-01 6.351411e-01 1.383618e+00 1.190114e+00 9.351103e-01 8.400927e-01 1.263320e+00 1.668207e+00 1.355061e+00 8.584729e-01 8.454400e-01 8.741049e-01 4.347163e-01 3.463423e-02 3.739622e-02 8.393236e-02 9.372241e-02 9.980763e-02 9.376332e-02 1.529272e-01 1.354245e-01 1.365944e-01 1.069362e-01 1.047119e-01 9.938405e-02 3.719617e-02
<GCONST> 8.771664e+01
<TRANSP> 5
 0.000000e+00 1.000000e+00 0.000000e+00 0.000000e+00 0.000000e+00
 0.000000e+00 6.818745e-01 3.181254e-01 0.000000e+00 0.000000e+00
 0.000000e+00 0.000000e+00 8.180158e-01 1.819842e-01 0.000000e+00
 0.000000e+00 0.000000e+00 0.000000e+00 9.177621e-01 8.223792e-02
 0.000000e+00 0.000000e+00 0.000000e+00 0.000000e+00 0.000000e+00
<ENDHMM>
~h "bb"
<BEGINHMM>
<NUMSTATES> 5
<STATE> 2
<MEAN> 39
 1.035975e+01 6.349694e+00 -1.060492e+01 -1.406593e+01 -1.578391e+00 4.539256e-01 -2.800535e+00 -2.627475e+00 -2.972131e+00 1.844890e+00 2.812560e+00 7.041346e-01 2.218582e+00 1.682849e-02 5.729873e-01 3.064032e-01 3.854097e-01 3.439973e-02 3.619915e-01 2.777422e-01 -2.814012e-01 -3.995940e-01 -2.883508e-01 3.946477e-02 -8.201049e-02 -7.094090e-01 -5.872784e-02 -2.163207e-02 1.334673e-01 2.934746e-01 6.650174e-02 1.461129e-03 2.047225e-02 1.340788e-02 4.645697e-02 -6.614073e-02 -4.021021e-02 -9.318253e-02 -1.202548e-01
<VARIANCE> 39
 1.366681e+01 2.461250e+01 2.541253e+01 2.534397e+01 2.950515e+01 1.938982e+01 1.660535e+01 2.321361e+01 3.367210e+01 4.746953e+01 2.112847e+01 2.306521e+01 2.596427e+01 1.963829e-01 1.460133e-01 4.856717e-01 1.633112e+00 3.549136e-01 6.387640e-01 4.015129e-01 4.676935e-01 6.199145e-01 5.988894e-01 6.222704e-01 5.126662e-01 5.540124e-01 2.679274e-02 2.709242e-02 6.069602e-02 1.529529e-01 6.088044e-02 5.029212e-02 5.195475e-02 6.716839e-02 6.789394e-02 6.869505e-02 6.024968e-02 5.818464e-02 7.007697e-02
<GCONST> 6.639170e+01
<STATE> 3
<MEAN> 39
 9.377524e+00 3.964576e+00 -6.150468e+00 3.532802e-01 3.075764e+00 4.184225e+00 -1.586527e+00 -3.418417e+00 -1.731055e+00 3.320374e-01 8.195545e-01 -2.948673e+00 -1.586197e+00 -1.530191e-01 2.704316e-01 5.500880e-01 1.592698e+00 5.303471e-01 1.975334e-01 8.152017e-01 3.624131e-02 2.061496e-01 -3.282467e-01 2.136885e-01 -2.560861e-01 -1.015226e+00 -1.527502e-01 -8.769425e-02 -3.170720e-02 -2.172018e-01 -3.903837e-02 -5.698436e-02 -7.532313e-02 9.199540e-02 8.285040e-02 6.968697e-02 -4.393125e-02 7.331745e-02 1.594182e-01
<VARIANCE> 39
 1.588570e+01 7.063560e+01 1.985544e+01 6.642144e+01 3.143877e+01 4.717656e+01 4.556282e+01 2.545192e+01 4.437847e+01 3.085004e+01 2.834382e+01 3.095848e+01 3.009362e+01 4.411272e-01 3.975825e-01 5.358712e-01 7.932473e-01 7.125774e-01 1.073283e+00 6.640685e-01 7.070246e-01 8.733177e-01 4.690737e-01 5.138533e-01 6.390936e-01 2.798907e-01 2.939387e-02 4.962172e-02 4.527312e-02 1.032849e-01 3.440417e-02 9.069263e-02 8.609828e-02 6.722541e-02 9.127556e-02 6.227447e-02 5.676053e-02 7.719525e-02 3.472266e-02
<GCONST> 7.396777e+01
<STATE> 4
<MEAN> 39
 3.324980e+00 2.429661e+00 -3.265228e+00 -1.049394e+00 3.169175e+00 4.098010e+00 1.512388e+00 -1.850333e+00 -2.067606e+00 -9.303815e-01 1.227424e+00 -7.200127e-01 -1.695732e+00 -3.169329e-01 -2.677341e-01 6.820232e-02 5.981003e-02 3.931127e-02 -1.061041e-01 -2.063412e-02 9.144773e-02 1.277981e-01 2.193878e-01 8.292858e-02 4.509000e-02 1.103163e-01 3.554510e-02 -1.322651e-01 -6.474321e-02 -2.046454e-01 -1.026323e-01 -5.406297e-02 -1.172891e-01 1.346432e-02 7.547245e-02 1.349058e-01 -3.947314e-02 -5.345065e-02 2.427894e-01
<VARIANCE> 39
 1.846074e+01 4.238401e+01 1.564464e+01 4.206597e+01 2.857023e+01 3.215102e+01 2.426445e+01 1.732879e+01 3.581780e+01 2.012511e+01 2.683226e+01 2.186849e+01 1.378208e+01 2.980366e-01 5.519178e-01 4.035873e-01 9.560450e-01 6.001925e-01 7.538276e-01 4.915960e-01 4.700179e-01 4.427168e-01 3.609217e-01 4.308518e-01 3.882187e-01 5.088857e-01 4.226467e-02 8.373655e-02 6.485707e-02 1.138546e-01 9.170209e-02 8.721779e-02 6.842951e-02 6.185510e-02 8.322124e-02 9.113344e-02 1.025917e-01 5.252045e-02 9.301844e-02
<GCONST> 7.063264e+01
<TRANSP> 5
 0.000000e+00 1.000000e+00 0.000000e+00 0.000000e+00 0.000000e+00
 0.000000e+00 8.319416e-01 1.680584e-01 0.000000e+00 0.000000e+00
 0.000000e+00 0.000000e+00 7.392755e-01 2.607244e-01 0.000000e+00
 0.000000e+00 0.000000e+00 0.000000e+00 8.748415e-01 1.251584e-01
 0.000000e+00 0.000000e+00 0.000000e+00 0.000000e+00 0.000000e+00
<ENDHMM>
~h "bh"
<BEGINHMM>
<NUMSTATES> 5
<STATE> 2
<MEAN> 39
 -8.820522e+00 -4.697291e+00 -2.536362e+00 2.919973e+00 5.364465e+00 4.453136e+00 3.911375e+00 6.532291e+00 4.885146e+00 3.121523e+00 2.857770e+00 1.950738e+00 -1.820364e+01 1.091966e-02 -1.964643e-01 -3.066057e-01 5.465566e-02 9.511276e-02 -2.251897e-01 3.206868e-01 2.774630e-02 2.098680e-01 -1.269657e-01 -1.975472e-01 8.122802e-02 9.733375e-01 1.140756e-01 -1.048319e-02 1.835248e-02 -1.062076e-01 -1.387760e-01 -1.583927e-01 -3.541222e-02 -1.023383e-01 -6.982464e-02 -4.320196e-02 -9.387428e-02 -5.277195e-02 2.900372e-01
<VARIANCE> 39
 1.481048e+02 8.540166e+01 4.440068e+01 5.690303e+01 5.387320e+01 7.233820e+01 4.956821e+01 3.000259e+01 3.910396e+01 2.848823e+01 4.275737e+01 1.631275e+01 4.889982e+02 3.671785e+00 1.829060e+00 1.554954e+00 1.595892e+00 1.627610e+00 3.059623e+00 1.650874e+00 1.011199e+00 1.051578e+00 1.794176e+00 1.450155e+00 5.238321e-01 1.361079e+01 2.582061e-01 3.070280e-01 1.493414e-01 2.972174e-01 2.040721e-01 3.753622e-01 2.393606e-01 1.122894e-01 9.469931e-02 1.699059e-01 1.719709e-01 4.459171e-02 1.114544e+00
<GCONST> 1.114603e+02
<STATE> 3
<MEAN> 39
 6.377065e+00 -6.172069e+00 -3.716319e+00 3.020872e+00 5.369412e-01 -1.787738e+00 1.502400e+00 4.323385e+00 3.409961e+00 -5.310112e+00 -5.501415e+00 -3.753984e+00 1.030313e+01 -3.956617e-02 4.359663e-01 1.506085e+00 -2.760980e-01 -1.253653e+00 -2.219896e-01 -3.933978e-01 -4.708872e-01 -1.074023e+00 3.467137e-01 3.380061e-01 -1.726903e-01 5.090833e-01 -2.352566e-01 3.880395e-02 1.742247e-01 -2.145611e-01 9.975642e-04 1.380936e-01 -8.218237e-02 -1.506525e-01 -4.083430e-02 1.627612e-01 2.020949e-03 4.301716e-02 -1.353353e-02
<VARIANCE> 39
 3.127081e+01 4.237951e+01 7.641935e+01 3.779350e+01 9.223068e+01 5.288456e+01 2.534719e+01 4.240262e+01 5.353822e+01 4.997399e+01 4.977934e+01 1.702398e+01 8.336472e+01 2.242977e+00 1.571647e+00 1.973704e+00 2.299314e+00 3.570861e+00 2.410250e+00 8.210063e-01 2.736276e+00 2.238969e+00 1.111503e+00 1.600601e+00 6.415130e-01 2.320168e+00 1.087840e-01 1.836176e-01 1.854946e-01 1.844753e-01 5.052738e-01 2.898309e-01 1.765131e-01 2.986924e-01 2.530921e-01 1.215697e-01 1.642894e-01 7.659785e-02 6.155471e-01
<GCONST> 1.083848e+02
<STATE> 4
<MEAN> 39
 3.902960e+00 -5.838330e-01 7.646894e+00 -4.904345e+00 -3.939770e+00 -8.805427e-01 3.417022e+00 -3.688680e+00 -3.563818e+00 2.869589e+00 -5.600771e+00 -2.651610e+00 1.012565e+01 2.438507e-02 1.613954e-01 2.309622e-01 -1.656996e-01 8.730284e-02 -1.650896e-01 -3.113364e-01 -9.515287e-01 -6.051409e-01 -2.602774e-01 -2.869874e-01 -2.222543e-01 -8.589761e-02 3.470157e-02 -8.515079e-03 -2.192745e-01 1.007826e-01 1.276725e-01 1.627545e-01 -8.468714e-02 9.602175e-02 9.647746e-02 -2.163810e-01 -1.057843e-02 -7.476266e-02 -6.082479e-02
<VARIANCE> 39
 2.412323e+01 1.547359e+01 3.952288e+01 7.607639e+01 2.617226e+01 6.882588e+01 4.517260e+01 5.186743e+01 2.809513e+01 3.143124e+01 5.113365e+01 5.000673e+01 5.416914e+01 1.115859e+00 1.338319e+00 2.068082e+00 5.028637e+00 1.247948e+00 1.884712e+00 7.232031e-01 2.200182e+00 8.956932e-01 2.369233e+00 2.274760e+00 8.152910e-01 1.439341e+00 9.361212e-02 8.349085e-02 1.537806e-01 3.897356e-01 2.322815e-01 3.325457e-01 8.368265e-02 1.741534e-01 1.137375e-01 1.210374e-01 1.760260e-01 1.288637e-01 1.050503e-01
<GCONST> 1.005021e+02
<TRANSP> 5
 0.000000e+00 1.000000e+00 0.000000e+00 0.000000e+00 0.000000e+00
 0.000000e+00 8.682431e-01 1.317569e-01 0.000000e+00 0.000000e+00
 0.000000e+00 0.000000e+00 7.974482e-01 2.025518e-01 0.000000e+00
 0.000000e+00 0.000000e+00 0.000000e+00 7.329884e-01 2.670116e-01
 0.000000e+00 0.000000e+00 0.000000e+00 0.000000e+00 0.000000e+00
<ENDHMM>
~h "dd"
<BEGINHMM>
<NUMSTATES> 5
<STATE> 2
<MEAN> 39
 3.765718e+00 7.566976e+00 7.690012e+00 4.818900e+00 -5.432941e+00 -3.675943e-01 1.880904e+00 -4.319261e+00 -9.388773e-01 2.000140e+00 6.092597e-01 -7.933742e-01 -3.261647e+00 8.588741e-02 5.868813e-01 -6.225744e-01 8.712973e-01 1.235301e+00 7.391413e-01 9.513599e-02 2.534305e-01 2.408292e-01 -4.491101e-01 -2.575071e-01 -3.562729e-01 -1.019015e+00 -1.543741e-01 -8.469667e-02 1.625775e-02 -2.265812e-01 -1.910379e-04 -6.553073e-02 -4.587555e-02 -4.423350e-02 -4.693614e-02 5.078286e-02 4.449997e-02 2.134480e-02 1.701095e-01
<VARIANCE> 39
 9.243464e+00 2.829695e+01 2.225243e+01 1.945700e+01 3.652958e+01 1.060464e+02 2.235429e+01 4.852821e+01 3.322155e+01 3.377325e+01 2.766732e+01 3.402710e+01 2.368030e+01 2.745807e-01 3.550627e-01 7.119196e-01 8.839224e-01 6.750801e-01 1.271134e+00 1.135591e+00 6.792346e-01 7.382886e-01 6.254092e-01 7.525811e-01 4.563712e-01 2.832278e-01 3.267211e-02 3.541770e-02 4.261388e-02 8.248235e-02 6.617714e-02 1.903414e-01 7.422137e-02 8.874488e-02 5.646371e-02 7.418949e-02 7.140107e-02 5.038723e-02 4.390211e-02
<GCONST> 7.325572e+01
<STATE> 3
<MEAN> 39
 4.836380e-01 6.169673e+00 5.590895e+00 5.863030e+00 1.323751e+00 -1.260324e+00 2.111537e+00 -3.379883e+00 -4.250054e+00 -1.390864e+00 1.094977e+00 5.511877e-01 -4.799916e+00 -4.049273e-01 -2.359313e-01 -5.880381e-01 -9.154945e-02 6.288917e-01 1.382471e-01 4.583378e-02 1.597072e-02 2.426000e-01 -9.866296e-02 -3.648137e-02 2.152049e-02 -1.814317e-01 -3.865573e-02 -1.719285e-01 -2.887307e-03 -1.486309e-01 -2.009777e-01 -1.974634e-01 -5.025794e-02 1.071653e-01 1.276440e-01 4.800267e-02 6.286159e-02 3.455276e-02 2.673664e-01
<VARIANCE> 39
 9.781727e+00 1.807801e+01 2.130284e+01 1.725359e+01 2.769548e+01 2.321011e+01 2.338204e+01 2.506222e+01 4.221456e+01 3.291043e+01 2.462214e+01 2.537820e+01 1.683419e+01 1.289396e-01 2.852635e-01 2.608194e-01 4.545665e-01 4.918101e-01 7.081802e-01 6.831062e-01 5.762287e-01 8.568504e-01 4.486687e-01 4.946704e-01 3.656551e-01 3.635334e-01 4.871300e-02 5.259573e-02 5.572550e-02 4.969228e-02 8.257829e-02 7.813703e-02 1.270621e-01 9.468647e-02 1.242613e-01 9.369292e-02 7.808965e-02 5.922530e-02 5.601566e-02
<GCONST> 6.696478e+01
<STATE> 4
<MEAN> 39
 -9.129633e-01 4.483299e+00 2.797434e+00 5.588808e+00 7.539899e-01 -1.141747e+00 2.573673e+00 -2.465953e+00 2.648230e-01 4.559807e-01 2.261812e+00 -8.761621e-01 -2.925724e+00 -4.713307e-01 -1.400429e+00 -6.312799e-01 -1.058430e+00 -7.573751e-01 -1.151681e+00 -5.091478e-02 1.092973e+00 6.251650e-01 -7.903501e-02 8.629808e-02 4.183134e-01 2.215322e+00 1.546033e-01 -1.120923e-01 9.853717e-02 -2.450815e-01 -3.110260e-01 -7.376969e-02 -5.376831e-02 1.855059e-01 4.762051e-02 4.980619e-02 -1.723490e-01 5.054741e-02 3.750183e-01
<VARIANCE> 39
 2.981519e+01 4.650531e+01 4.597926e+01 4.091858e+01 4.964396e+01 6.052472e+01 3.776208e+01 3.826839e+01 3.406770e+01 4.081656e+01 2.560770e+01 3.060874e+01 7.699424e+01 1.287473e+00 1.042126e+00 1.779447e+00 1.431836e+00 1.795978e+00 2.282239e+00 2.494539e+00 2.672086e+00 1.973803e+00 1.868600e+00 1.121567e+00 9.900005e-01 2.223964e+00 1.309848e-01 1.522831e-01 1.343086e-01 1.860528e-01 1.780955e-01 2.342243e-01 2.258975e-01 2.073155e-01 1.317941e-01 1.691861e-01 9.946264e-02 1.124905e-01 3.372093e-01
<GCONST> 1.035014e+02
<TRANSP> 5
 0.000000e+00 1.000000e+00 0.000000e+00 0.000000e+00 0.000000e+00
 0.000000e+00 7.229923e-01 2.770078e-01 0.000000e+00 0.000000e+00
 0.000000e+00 0.000000e+00 7.698502e-01 2.301498e-01 0.000000e+00
 0.000000e+00 0.000000e+00 0.000000e+00 7.961585e-01 2.038415e-01
 0.000000e+00 0.000000e+00 0.000000e+00 0.000000e+00 0.000000e+00
<ENDHMM>
~h "dh"
<BEGINHMM>
<NUMSTATES> 5
<STATE> 2
<MEAN> 39
 2.826015e+00 2.063721e+00 -1.444839e-02 5.013104e+00 9.495675e-01 7.080734e-01 2.645042e+00 -1.600373e+00 -5.818223e+00 -5.304764e+00 -3.281259e+00 -2.500927e+00 3.788494e+00 -5.031080e-01 3.034816e-01 5.853433e-01 1.265620e-01 -5.410612e-02 6.176708e-01 1.304740e-01 -3.129391e-01 1.228199e-01 1.367263e-01 1.045990e-02 -2.933618e-01 4.147203e-02 -2.829679e-01 -1.037074e-01 1.593569e-02 -5.580249e-01 -1.490591e-01 -4.226085e-01 5.212205e-02 -5.554580e-02 3.051245e-01 1.157221e-01 1.425866e-02 1.592844e-01 3.666580e-01
<VARIANCE> 39
 5.283699e+01 4.398525e+01 2.178238e+01 2.725365e+01 3.872519e+01 3.090514e+01 3.007548e+01 3.331530e+01 5.047849e+01 7.645435e+01 1.937294e+01 3.334521e+01 1.140755e+02 1.646469e+00 7.370019e-01 9.415873e-01 2.257066e+00 1.121114e+00 1.967169e+00 6.299770e-01 1.088383e+00 1.345180e+00 1.096935e+00 6.364163e-01 8.787370e-01 1.134155e+00 1.722457e-01 1.995534e-01 1.335581e-01 1.762964e-01 1.296863e-01 1.836299e-01 1.384889e-01 1.615272e-01 1.982642e-01 1.557958e-01 8.832780e-02 1.466127e-01 1.600447e-01
<GCONST> 9.625907e+01
<STATE> 3
<MEAN> 39
 -5.036414e-01 4.065706e+00 3.061722e+00 -5.100314e-01 -2.975688e+00 -1.800411e+00 1.260377e+00 -5.918329e+00 -3.205620e+00 -2.191243e+00 -3.557640e+00 -3.753205e+00 5.742893e+00 -8.136872e-01 -3.515727e-01 2.370452e-01 -1.047272e+00 -5.567693e-01 -4.989699e-01 -1.453265e-02 -5.199900e-01 3.808305e-01 -2.987681e-01 -1.945400e-01 6.199139e-01 1.088202e+00 1.448982e-01 -1.551235e-01 -1.190269e-01 -4.203568e-02 2.387893e-02 -8.198022e-02 -6.483979e-02 1.537142e-01 3.596191e-02 -2.594940e-02 4.025516e-02 9.739424e-02 4.594838e-02
<VARIANCE> 39
 5.120411e+01 4.472220e+01 3.140434e+01 3.926076e+01 5.418219e+01 2.413493e+01 2.872375e+01 5.303979e+01 2.296361e+01 3.279314e+01 3.632419e+01 2.155775e+01 7.752000e+01 6.709855e-01 2.425920e+00 1.107047e+00 1.608081e+00 1.405602e+00 9.706868e-01 1.700999e+00 1.147464e+00 5.909464e-01 1.055925e+00 1.013824e+00 7.764485e-01 1.610757e+00 9.047196e-02 1.857330e-01 8.176194e-02 1.357111e-01 1.620113e-01 1.668834e-01 9.847096e-02 1.031754e-01 1.014060e-01 1.515934e-01 1.332778e-01 6.225472e-02 1.963961e-01
<GCONST> 9.310073e+01
<STATE> 4
<MEAN> 39
 2.826683e+00 -1.519898e+00 2.596186e+00 -8.509962e+00 -8.650915e+00 -1.151692e+00 -2.396394e+00 -2.882306e+00 -5.695213e+00 -5.907916e+00 -3.544855e+00 6.402032e-01 7.639421e+00 -3.270286e-02 -4.650313e-02 1.892224e-03 -3.236948e-01 -1.827431e-01 9.493772e-02 -8.116806e-02 4.485991e-02 1.789320e-01 -6.571210e-02 1.425562e-02 1.882422e-01 5.492547e-02 6.507359e-03 2.871269e-02 2.283866e-02 4.256076e-02 1.953292e-02 -1.168492e-02 -4.222654e-02 2.802113e-02 1.080116e-02 3.070245e-02 4.686554e-02 -1.753625e-02 -2.418231e-02
<VARIANCE> 39
 1.159782e+01 3.406653e+01 2.542627e+01 5.069593e+01 4.523918e+01 2.979210e+01 7.674981e+01 2.074458e+01 3.315257e+01 2.057187e+01 2.429240e+01 1.391870e+01 2.081388e+01 1.204118e-01 6.692735e-01 3.611142e-01 8.652285e-01 1.083124e+00 9.343705e-01 1.334528e+00 6.469199e-01 1.143550e+00 7.059996e-01 9.665213e-01 5.799187e-01 3.361851e-01 1.870661e-02 5.425178e-02 5.570720e-02 8.416991e-02 1.404524e-01 1.016325e-01 1.095938e-01 8.776598e-02 1.157126e-01 8.552409e-02 1.167264e-01 6.182237e-02 4.806056e-02
<GCONST> 7.535014e+01
<TRANSP> 5
 0.000000e+00 1.000000e+00 0.000000e+00 0.000000e+00 0.000000e+00
 0.000000e+00 6.170996e-01 3.829004e-01 0.000000e+00 0.000000e+00
 0.000000e+00 0.000000e+00 6.811810e-01 3.188190e-01 0.000000e+00
 0.000000e+00 0.000000e+00 0.000000e+00 8.641768e-01 1.358232e-01
 0.000000e+00 0.000000e+00 0.000000e+00 0.000000e+00 0.000000e+00
<ENDHMM>
~h "dx"
<BEGINHMM>
<NUMSTATES> 5
<STATE> 2
<MEAN> 39
