~o
<STREAMINFO> 1 39
<VECSIZE> 39<NULLD><MFCC_D_A_Z_0><DIAGC>
~h "a"
<BEGINHMM>
<NUMSTATES> 5
<STATE> 2
<MEAN> 39
 3.339876e+00 -4.537446e+00 -2.444823e+00 -1.010028e+00 -1.773076e+00 -2.103808e+00 8.699541e-01 4.746127e+00 1.798349e+00 -1.286804e+00 -2.997235e+00 -2.847722e-01 8.298905e+00 1.781179e-01 -5.187382e-01 -2.493617e-01 -1.464154e-01 -1.503588e-01 2.753254e-02 -2.696864e-02 3.836375e-01 2.230638e-01 -1.660661e-01 -3.479958e-01 4.529308e-02 5.463255e-01 -1.200584e-02 1.372361e-01 8.701780e-02 9.738182e-02 4.081515e-02 6.075284e-02 -2.151875e-02 -1.546401e-01 -6.674710e-02 3.270758e-02 9.424383e-02 -1.161727e-02 -1.888369e-01
<VARIANCE> 39
 3.152433e+01 4.806188e+01 5.107737e+01 4.919946e+01 6.154885e+01 6.284240e+01 6.347605e+01 6.009933e+01 7.821113e+01 5.335174e+01 4.792312e+01 2.985848e+01 9.856889e+01 9.135686e-01 1.487095e+00 1.548417e+00 1.585421e+00 2.003848e+00 1.877554e+00 1.722517e+00 1.762668e+00 1.816938e+00 1.438541e+00 1.329032e+00 9.084165e-01 2.308748e+00 9.965052e-02 1.468510e-01 1.423852e-01 1.665220e-01 2.096378e-01 2.028641e-01 2.126911e-01 2.152670e-01 2.060483e-01 1.706820e-01 1.643730e-01 1.108203e-01 2.309195e-01
<GCONST> 1.061296e+02
<STATE> 3
<MEAN> 39
 3.669669e+00 -5.330929e+00 -2.648042e+00 -1.326214e+00 -2.217415e+00 -1.898562e+00 6.401348e-01 4.734448e+00 1.873164e+00 -1.481615e+00 -3.499398e+00 -3.558008e-01 9.239057e+00 1.284396e-01 2.064212e-01 1.669169e-01 2.965325e-01 6.906265e-02 1.007688e-01 -2.214547e-02 -2.339801e-01 -1.565809e-01 -2.391859e-02 1.639014e-01 1.275587e-03 -4.337374e-01 -4.447920e-02 1.745982e-01 9.701972e-02 1.071336e-01 6.859539e-02 2.736779e-02 -1.186398e-02 -1.656313e-01 -7.402290e-02 4.278983e-02 1.348244e-01 -1.279858e-02 -2.199802e-01
<VARIANCE> 39
 2.647687e+01 3.982612e+01 5.038078e+01 4.778231e+01 6.008323e+01 5.625297e+01 5.897311e+01 5.315181e+01 7.548042e+01 5.340243e+01 4.101870e+01 2.859607e+01 8.653365e+01 7.440535e-01 9.652944e-01 1.131352e+00 1.222980e+00 1.494206e+00 1.472962e+00 1.557329e+00 1.276642e+00 1.407790e+00 1.156315e+00 1.054449e+00 7.629545e-01 1.291093e+00 8.626342e-02 1.139789e-01 1.169229e-01 1.563143e-01 1.773895e-01 1.653068e-01 1.803880e-01 1.767641e-01 1.858255e-01 1.495690e-01 1.274828e-01 9.821380e-02 1.405472e-01
<GCONST> 9.889998e+01
<STATE> 4
<MEAN> 39
 3.622969e+00 -4.060597e+00 -3.013611e+00 3.853587e-01 1.431953e-01 -4.937413e-01 5.921186e-01 2.909587e+00 5.091426e-01 -2.208755e+00 -1.982391e+00 -8.423768e-01 4.373585e+00 -1.136417e-01 4.548561e-01 2.392848e-01 3.516296e-01 1.702766e-01 1.213194e-01 8.510714e-02 -3.355260e-01 -2.684241e-01 2.231718e-02 3.358268e-01 -1.534244e-03 -8.190157e-01 -4.054829e-02 2.843916e-02 3.149334e-03 -2.552617e-02 4.490674e-04 -2.265934e-03 -9.254267e-03 -5.355282e-03 9.530020e-03 2.465754e-02 1.484137e-02 -1.458953e-05 7.649865e-03
<VARIANCE> 39
 3.097107e+01 3.711831e+01 4.933937e+01 5.277026e+01 6.022955e+01 5.005618e+01 5.257454e+01 4.349184e+01 6.625877e+01 5.391597e+01 3.766484e+01 2.784420e+01 1.065663e+02 8.243760e-01 7.603281e-01 9.277930e-01 1.026715e+00 1.007876e+00 1.168028e+00 1.192084e+00 1.051899e+00 1.424279e+00 1.006147e+00 7.843823e-01 6.552112e-01 1.080182e+00 6.722688e-02 8.097009e-02 8.816229e-02 1.119210e-01 1.119621e-01 1.193062e-01 1.230782e-01 1.221904e-01 1.397290e-01 1.085158e-01 9.716064e-02 7.565144e-02 9.889880e-02
<GCONST> 9.202507e+01
<TRANSP> 5
 0.000000e+00 1.000000e+00 0.000000e+00 0.000000e+00 0.000000e+00
 0.000000e+00 5.650460e-01 4.349540e-01 0.000000e+00 0.000000e+00
 0.000000e+00 0.000000e+00 4.056719e-01 5.943281e-01 0.000000e+00
 0.000000e+00 0.000000e+00 0.000000e+00 6.657182e-01 3.342818e-01
 0.000000e+00 0.000000e+00 0.000000e+00 0.000000e+00 0.000000e+00
<ENDHMM>
~h "b"
<BEGINHMM>
<NUMSTATES> 5
<STATE> 2
<MEAN> 39
 5.400442e+00 -4.458386e-02 -1.311376e+00 7.199200e-01 -3.511725e-01 -3.697190e-01 -1.217095e+00 -7.028981e-01 -5.774723e-01 2.623785e-01 -1.843464e+00 -1.762214e+00 3.787448e+00 1.412496e-01 5.409655e-01 -2.057347e-01 -2.880311e-01 -2.212750e-02 1.339931e-01 -1.544444e-01 -1.731587e-01 -2.678753e-01 -8.209381e-02 6.305565e-02 1.181506e-01 6.050784e-02 -4.755722e-02 -1.070759e-02 1.887542e-02 -1.168107e-01 -3.122413e-02 -4.454835e-02 9.677156e-03 4.673900e-02 4.236612e-02 -1.360510e-02 2.095898e-02 2.824152e-02 7.957138e-02
<VARIANCE> 39
 2.531706e+01 4.799548e+01 5.707236e+01 9.807363e+01 5.158495e+01 6.270008e+01 4.783037e+01 5.441862e+01 5.519691e+01 6.079481e+01 6.740365e+01 4.428822e+01 5.742692e+01 8.110515e-01 1.286883e+00 1.951618e+00 3.980081e+00 1.782048e+00 2.020632e+00 1.944786e+00 1.026558e+00 1.601243e+00 1.476969e+00 2.057003e+00 1.599934e+00 1.866003e+00 7.665522e-02 1.521555e-01 1.635713e-01 4.390029e-01 1.927335e-01 2.765775e-01 2.194057e-01 1.536812e-01 2.034141e-01 1.939835e-01 2.270626e-01 1.757333e-01 2.208786e-01
<GCONST> 1.088968e+02
<STATE> 3
<MEAN> 39
 4.795745e+00 2.740637e+00 -1.115812e+00 -8.791624e-01 -1.082612e+00 7.712622e-01 -1.995512e+00 -1.667544e+00 -1.101188e+00 -7.389033e-01 -1.742964e+00 -1.237042e+00 3.616373e+00 5.089920e-02 1.132097e-01 -1.303489e-02 4.653523e-02 2.709769e-01 -6.085480e-02 7.111902e-02 -3.758554e-02 2.054774e-02 -1.608273e-01 8.849405e-02 -6.347106e-02 -1.024895e-01 -6.026562e-03 -1.940080e-01 3.293099e-02 -6.292812e-02 -1.446734e-02 -1.524839e-01 6.395407e-03 9.551307e-02 9.651443e-02 9.002169e-02 -1.679259e-02 2.945168e-02 1.279450e-01
<VARIANCE> 39
 2.369706e+01 4.755951e+01 7.112913e+01 9.418009e+01 4.818142e+01 5.521692e+01 4.524633e+01 4.392273e+01 4.909493e+01 4.409547e+01 4.448976e+01 4.255115e+01 6.752696e+01 6.850836e-01 1.499528e+00 1.359801e+00 1.855800e+00 1.239778e+00 1.456300e+00 1.305774e+00 9.825779e-01 1.429158e+00 1.147876e+00 8.371357e-01 9.354881e-01 1.596690e+00 7.459135e-02 1.622501e-01 1.689012e-01 2.976566e-01 1.717964e-01 1.838833e-01 1.790152e-01 1.499867e-01 1.370055e-01 1.339167e-01 1.410358e-01 1.260220e-01 1.893070e-01
<GCONST> 1.007751e+02
<STATE> 4
<MEAN> 39
 5.174149e+00 2.107609e+00 5.605800e-01 4.549347e-01 1.240927e+00 4.306671e-01 -1.505536e+00 -2.735810e+00 -1.083525e+00 -9.203513e-01 -8.643650e-01 -1.051568e+00 1.134044e+00 4.099492e-02 -1.925966e-01 -1.386191e-01 1.013234e-03 7.251874e-02 -1.222170e-01 6.823050e-02 1.700985e-01 7.873164e-02 1.018466e-01 4.914576e-02 -3.838575e-02 4.767402e-02 -1.864583e-02 -1.083249e-01 -1.647869e-02 -4.918018e-02 -8.218513e-02 -3.206085e-02 -1.556122e-02 6.222358e-02 4.219921e-02 6.002278e-02 -2.510439e-02 4.558617e-04 1.204568e-01
<VARIANCE> 39
 2.647422e+01 4.661072e+01 7.405637e+01 6.122400e+01 5.180822e+01 4.048545e+01 5.118748e+01 4.195102e+01 5.064145e+01 3.439027e+01 3.264780e+01 3.022895e+01 4.895908e+01 4.720649e-01 1.228989e+00 1.457053e+00 1.342234e+00 1.370161e+00 1.089597e+00 1.083783e+00 1.167636e+00 1.223082e+00 9.018065e-01 7.856180e-01 6.182305e-01 1.246281e+00 4.913402e-02 9.286768e-02 1.265462e-01 1.478540e-01 1.277651e-01 1.014255e-01 1.247873e-01 1.275348e-01 1.164411e-01 1.005812e-01 1.032243e-01 6.297759e-02 8.336510e-02
<GCONST> 9.131916e+01
<TRANSP> 5
 0.000000e+00 1.000000e+00 0.000000e+00 0.000000e+00 0.000000e+00
 0.000000e+00 6.620633e-01 3.379367e-01 0.000000e+00 0.000000e+00
 0.000000e+00 0.000000e+00 3.937660e-01 6.062340e-01 0.000000e+00
 0.000000e+00 0.000000e+00 0.000000e+00 6.835623e-01 3.164377e-01
 0.000000e+00 0.000000e+00 0.000000e+00 0.000000e+00 0.000000e+00
<ENDHMM>
~h "c"
<BEGINHMM>
<NUMSTATES> 5
<STATE> 2
<MEAN> 39
 -2.956662e+00 1.859365e+00 5.922891e-01 -8.060070e-01 2.036113e+00 -2.455131e-01 -3.421751e+00 -4.443629e-01 -7.804003e-02 1.384490e+00 2.238372e+00 -7.122235e-01 -1.916139e+00 -7.535420e-01 -9.103252e-03 4.097297e-01 -3.624278e-01 -5.625098e-01 -1.232090e-01 1.620616e-01 1.344038e-01 9.192774e-02 -3.978973e-02 -5.153575e-02 -2.831496e-01 1.959431e+00 1.437351e-01 3.602407e-02 4.945993e-02 -5.041725e-02 -1.128651e-01 -4.858344e-02 2.426977e-02 -3.616200e-02 1.268140e-02 -6.187911e-03 -3.580629e-02 -1.607818e-02 1.418706e-01
<VARIANCE> 39
 1.591291e+02 4.445658e+01 5.812666e+01 5.701855e+01 5.245984e+01 4.703065e+01 7.903265e+01 5.028719e+01 4.354813e+01 4.728769e+01 3.540723e+01 2.701167e+01 2.582760e+02 6.528260e+00 1.694268e+00 2.365629e+00 2.361466e+00 2.283154e+00 2.063639e+00 2.504183e+00 1.741798e+00 2.602834e+00 1.550215e+00 1.373466e+00 7.673813e-01 8.513713e+00 8.200454e-01 2.030736e-01 2.205397e-01 2.787046e-01 2.604438e-01 2.351800e-01 2.648531e-01 1.662027e-01 2.168915e-01 2.072740e-01 1.478600e-01 9.679937e-02 8.756720e-01
<GCONST> 1.175499e+02
<STATE> 3
<MEAN> 39
 -7.958089e+00 3.547552e+00 5.047767e+00 -2.774209e+00 -3.052961e+00 -9.842957e-01 9.620519e-01 6.743171e-01 4.604188e-01 1.701592e+00 3.506339e+00 -2.464324e+00 9.136914e+00 7.946912e-01 1.134425e-02 2.407292e-01 -4.127441e-01 -1.007155e+00 -2.580313e-01 4.269749e-02 -1.840542e-01 1.586845e-01 -3.318893e-02 -1.214361e-01 -1.685022e-01 8.616344e-01 3.940714e-01 -3.687861e-02 -1.735264e-01 6.989756e-02 4.434291e-02 1.961333e-02 -1.365714e-01 -1.357341e-01 -3.421997e-02 -5.666948e-02 -5.777641e-02 8.849341e-02 -2.559725e-01
<VARIANCE> 39
 1.332307e+02 7.595454e+01 5.742727e+01 3.818562e+01 4.429374e+01 3.815955e+01 6.960982e+01 6.837361e+01 9.484695e+01 6.183161e+01 6.342796e+01 3.302861e+01 4.196029e+01 4.860095e+00 2.319889e+00 1.601558e+00 1.286835e+00 1.388214e+00 1.473536e+00 1.682320e+00 1.818848e+00 2.543624e+00 1.604879e+00 1.373099e+00 1.177270e+00 1.912318e+00 5.548208e-01 2.179421e-01 1.729902e-01 1.432533e-01 1.760019e-01 1.863087e-01 1.884659e-01 2.033168e-01 2.974989e-01 2.010929e-01 1.818054e-01 1.411914e-01 1.682151e-01
<GCONST> 1.113176e+02
<STATE> 4
<MEAN> 39
 2.478899e+00 -1.189585e+00 9.453067e-01 -3.512725e+00 -5.985055e+00 -1.051782e+00 -1.896628e+00 1.087677e+00 4.562250e+00 -1.142914e+00 -9.693324e-01 -1.164057e+00 1.194011e+01 2.212243e-01 2.145404e-01 1.798166e-01 -1.244634e-01 -4.227796e-01 1.510547e-02 1.327309e-01 -2.951798e-01 -4.132636e-01 1.083085e-01 1.424670e-01 -5.343528e-02 2.367823e-01 -1.205251e-01 9.085846e-02 -2.716136e-02 7.590776e-02 1.770923e-01 4.768552e-02 -1.289172e-02 -6.161668e-02 -1.371724e-01 1.933004e-02 1.009210e-01 4.840815e-02 -2.497637e-01
<VARIANCE> 39
 1.030517e+02 1.149263e+02 1.274594e+02 5.465868e+01 7.771220e+01 7.770058e+01 8.984418e+01 1.127961e+02 1.011261e+02 5.223556e+01 4.367839e+01 3.529493e+01 6.151101e+01 3.322251e+00 2.604996e+00 1.191024e+00 1.554687e+00 1.667408e+00 2.430125e+00 1.881188e+00 2.312375e+00 2.003301e+00 1.289994e+00 1.178012e+00 1.109474e+00 2.142002e+00 3.067265e-01 2.006553e-01 1.138454e-01 2.158643e-01 2.310050e-01 3.215541e-01 2.403066e-01 2.824404e-01 3.007374e-01 1.635231e-01 1.238278e-01 1.387059e-01 1.863467e-01
<GCONST> 1.149488e+02
<TRANSP> 5
 0.000000e+00 1.000000e+00 0.000000e+00 0.000000e+00 0.000000e+00
 0.000000e+00 8.660257e-01 1.339743e-01 0.000000e+00 0.000000e+00
 0.000000e+00 0.000000e+00 6.713644e-01 3.286356e-01 0.000000e+00
 0.000000e+00 0.000000e+00 0.000000e+00 7.332132e-01 2.667868e-01
 0.000000e+00 0.000000e+00 0.000000e+00 0.000000e+00 0.000000e+00
<ENDHMM>
~h "d"
<BEGINHMM>
<NUMSTATES> 5
<STATE> 2
<MEAN> 39
 4.455740e+00 1.885318e+00 2.575779e+00 3.479161e+00 -2.886042e-01 -2.315324e+00 1.490513e+00 1.939088e-01 -1.014282e+00 -1.175551e+00 -1.154619e+00 -4.663610e-01 1.718534e+00 -2.473343e-01 -4.713714e-02 5.000831e-02 1.629577e-02 8.047824e-02 -4.329433e-01 -4.294027e-02 3.716483e-01 1.107957e-01 1.549850e-01 3.245291e-01 2.665212e-02 6.994411e-02 -8.470646e-02 -1.302761e-01 -7.729547e-02 -2.447999e-01 -1.432137e-01 -1.023223e-01 -1.488781e-01 1.338613e-02 9.245665e-02 7.557069e-02 -6.854614e-03 3.956314e-02 3.143067e-01
<VARIANCE> 39
 3.607134e+01 5.001554e+01 4.212893e+01 4.059013e+01 4.760725e+01 5.796761e+01 5.991482e+01 6.193759e+01 4.820123e+01 4.138565e+01 3.932466e+01 2.839258e+01 5.193687e+01 7.823886e-01 1.471710e+00 1.191054e+00 1.267777e+00 1.350684e+00 1.549486e+00 1.579246e+00 1.616473e+00 1.360404e+00 1.282048e+00 1.002021e+00 7.623705e-01 1.447798e+00 1.312947e-01 1.816216e-01 1.235116e-01 1.790550e-01 2.011699e-01 2.669650e-01 2.064273e-01 2.011728e-01 1.796692e-01 1.722879e-01 1.358991e-01 1.123825e-01 1.720215e-01
<GCONST> 1.011430e+02
<STATE> 3
<MEAN> 39
 2.165717e+00 5.726713e-01 2.386931e+00 1.613478e+00 -2.391227e-01 -5.403644e+00 -5.128036e-01 1.601003e+00 -3.314826e-01 -5.836267e-01 -2.998191e-01 -2.333568e-02 4.499186e+00 -2.246117e-01 -2.586086e-01 -3.368660e-01 -6.376827e-01 -3.553838e-01 -5.786269e-01 -6.588680e-01 1.160381e-01 3.545032e-01 4.179997e-01 1.427571e-01 1.278947e-01 7.540514e-01 8.176701e-02 2.880984e-02 -7.380690e-02 -1.211591e-01 -1.023943e-01 1.703004e-01 -6.359571e-02 -1.239658e-01 1.479397e-02 5.994291e-02 -6.916822e-02 -7.821188e-03 6.132709e-02
<VARIANCE> 39
 3.250284e+01 4.106697e+01 3.628491e+01 3.892683e+01 4.922227e+01 6.144830e+01 7.328336e+01 4.562053e+01 4.911147e+01 4.141538e+01 3.691434e+01 2.746082e+01 6.821362e+01 9.316479e-01 1.259986e+00 1.429279e+00 1.305111e+00 1.521272e+00 1.877247e+00 2.310405e+00 1.839506e+00 1.575493e+00 1.400603e+00 1.218316e+00 8.883190e-01 1.577713e+00 1.145279e-01 1.754339e-01 1.303955e-01 1.702469e-01 2.017350e-01 2.378903e-01 2.290057e-01 1.894418e-01 1.682493e-01 1.605145e-01 1.412881e-01 1.113090e-01 2.262517e-01
<GCONST> 1.024846e+02
<STATE> 4
<MEAN> 39
 2.047663e+00 3.513706e-01 1.295896e+00 -7.243755e-01 -2.657870e+00 -5.238620e+00 -2.807143e+00 2.950659e-01 1.757467e-01 5.802779e-01 -6.589634e-01 -4.523530e-01 5.477239e+00 -3.577182e-02 -5.536875e-02 -2.391473e-01 -4.031729e-01 -2.650139e-01 1.049161e-01 -2.537734e-01 -1.099710e-01 8.047141e-02 2.531147e-01 8.729661e-02 2.332568e-02 2.836436e-01 1.948147e-02 1.282255e-02 1.069635e-02 -1.300347e-04 2.559901e-02 1.454538e-01 8.874315e-02 -1.767741e-02 -4.341906e-02 -4.588848e-02 -1.993006e-02 2.311691e-03 -3.937510e-02
<VARIANCE> 39
 1.808265e+01 2.658812e+01 3.279030e+01 2.795492e+01 4.766453e+01 4.410120e+01 7.429287e+01 3.893534e+01 4.541930e+01 3.550175e+01 3.358602e+01 2.747772e+01 4.817797e+01 7.742637e-01 9.163530e-01 1.135081e+00 1.019088e+00 1.496200e+00 1.211210e+00 1.590016e+00 1.401043e+00 1.337662e+00 1.121994e+00 1.072116e+00 7.384146e-01 1.064193e+00 6.710697e-02 8.707989e-02 9.102777e-02 9.553231e-02 1.472044e-01 1.375673e-01 1.989073e-01 1.263102e-01 1.354646e-01 1.209251e-01 1.184578e-01 9.379194e-02 9.271589e-02
<GCONST> 9.135389e+01
<TRANSP> 5
 0.000000e+00 1.000000e+00 0.000000e+00 0.000000e+00 0.000000e+00
 0.000000e+00 5.631657e-01 4.368343e-01 0.000000e+00 0.000000e+00
 0.000000e+00 0.000000e+00 4.975034e-01 5.024967e-01 0.000000e+00
 0.000000e+00 0.000000e+00 0.000000e+00 6.523209e-01 3.476792e-01
 0.000000e+00 0.000000e+00 0.000000e+00 0.000000e+00 0.000000e+00
<ENDHMM>
~h "e"
<BEGINHMM>
<NUMSTATES> 5
<STATE> 2
<MEAN> 39
 9.573509e-01 1.462543e+00 9.515930e+00 -4.289779e+00 -1.014856e+01 -2.950876e+00 8.019016e-01 -2.462341e+00 -4.318854e-01 3.396322e+00 1.038951e+00 -1.663090e-01 7.673397e+00 -7.761788e-02 -5.015654e-03 4.277053e-01 -6.634109e-01 -8.630301e-01 -8.792207e-02 5.896121e-02 -2.419989e-01 8.972033e-03 3.246664e-01 6.196160e-02 3.269297e-02 4.443108e-01 -1.202636e-02 3.348536e-02 -1.259324e-01 8.553323e-02 1.709239e-01 5.737777e-02 -2.614201e-02 4.863849e-02 4.939178e-02 -7.887607e-02 -5.337077e-02 -1.403457e-02 -1.135878e-01
<VARIANCE> 39
 3.065325e+01 4.985220e+01 5.606062e+01 6.796338e+01 7.296400e+01 6.818156e+01 5.363894e+01 6.747092e+01 6.776604e+01 4.485632e+01 5.044216e+01 3.086115e+01 7.409267e+01 1.004983e+00 1.182925e+00 1.523469e+00 2.095851e+00 2.155239e+00 1.894287e+00 1.589470e+00 1.731501e+00 1.900169e+00 1.367341e+00 1.145325e+00 8.773541e-01 2.231191e+00 9.557601e-02 1.299277e-01 1.099708e-01 1.742525e-01 2.252712e-01 2.113242e-01 1.541057e-01 1.716445e-01 1.685119e-01 1.596227e-01 1.289280e-01 1.009454e-01 1.685190e-01
<GCONST> 1.043922e+02
<STATE> 3
<MEAN> 39
 -1.166682e-01 1.930079e+00 8.993767e+00 -6.509576e+00 -1.231553e+01 -2.742424e+00 8.258693e-01 -3.757210e+00 -8.227810e-02 3.879269e+00 5.997700e-01 1.006325e-01 8.626977e+00 2.511213e-03 1.226930e-01 -1.740573e-01 2.636347e-01 1.887296e-01 -7.078968e-02 9.803505e-03 1.089187e-01 -3.806362e-02 -1.545902e-01 2.458325e-02 -8.334443e-02 -5.999911e-01 3.324625e-03 -2.671924e-03 -9.718019e-02 1.590904e-01 2.083713e-01 2.308601e-02 -2.206694e-02 7.538978e-02 1.902035e-03 -7.564854e-02 -1.215032e-02 -4.011879e-02 -1.279595e-01
<VARIANCE> 39
 3.140715e+01 4.229102e+01 5.196461e+01 6.576678e+01 7.068574e+01 6.324891e+01 4.798793e+01 6.473091e+01 7.036241e+01 4.642772e+01 4.239833e+01 2.575947e+01 8.037989e+01 4.959950e-01 9.167836e-01 9.035976e-01 1.477592e+00 1.303790e+00 1.271336e+00 1.188015e+00 1.407962e+00 1.222762e+00 1.034604e+00 6.757801e-01 7.082738e-01 1.312873e+00 6.513047e-02 9.257146e-02 9.375601e-02 1.286180e-01 1.560026e-01 1.566636e-01 1.319503e-01 1.618699e-01 1.512250e-01 1.358756e-01 9.193612e-02 9.117730e-02 1.243093e-01
<GCONST> 9.537900e+01
<STATE> 4
<MEAN> 39
 -5.428683e-01 7.795367e-01 7.024883e+00 -1.897574e+00 -7.543168e+00 -3.810308e+00 1.711261e+00 -1.195355e+00 -2.241206e+00 2.450788e+00 1.579721e+00 -3.368066e-01 1.440544e+00 -1.194718e-01 5.344277e-02 -4.089855e-01 4.061266e-01 7.280601e-01 1.875604e-01 9.328952e-02 1.784971e-01 4.238743e-02 -2.062701e-01 -7.289643e-03 -4.105204e-02 -7.080960e-01 -1.553853e-03 -1.925538e-02 -3.179641e-02 -2.862582e-02 2.896125e-02 3.472736e-02 -3.310747e-02 1.753270e-03 2.515173e-02 1.977910e-03 -1.353296e-02 1.008104e-02 6.559671e-02
<VARIANCE> 39
 2.709526e+01 2.836028e+01 4.346179e+01 4.662516e+01 6.706772e+01 4.449766e+01 3.578772e+01 4.728516e+01 5.192271e+01 3.100846e+01 3.357832e+01 2.359901e+01 1.362388e+02 5.921045e-01 6.823176e-01 7.654316e-01 1.106087e+00 1.002763e+00 9.856837e-01 8.499236e-01 1.028469e+00 9.894810e-01 7.666800e-01 5.896956e-01 5.488656e-01 1.118862e+00 5.186509e-02 6.607018e-02 7.116038e-02 9.962913e-02 1.054075e-01 1.036107e-01 1.009831e-01 1.146381e-01 1.129436e-01 9.265325e-02 6.150999e-02 6.794968e-02 1.034854e-01
<GCONST> 8.592629e+01
<TRANSP> 5
 0.000000e+00 1.000000e+00 0.000000e+00 0.000000e+00 0.000000e+00
 0.000000e+00 6.585996e-01 3.414004e-01 0.000000e+00 0.000000e+00
 0.000000e+00 0.000000e+00 5.755020e-01 4.244980e-01 0.000000e+00
 0.000000e+00 0.000000e+00 0.000000e+00 8.022387e-01 1.977613e-01
 0.000000e+00 0.000000e+00 0.000000e+00 0.000000e+00 0.000000e+00
<ENDHMM>
~h "g"
<BEGINHMM>
<NUMSTATES> 5
<STATE> 2
<MEAN> 39
 1.731598e+00 4.333952e+00 7.404614e+00 -3.325814e+00 -4.538301e+00 -2.336560e+00 -1.253334e+00 -1.341505e+00 2.368538e+00 2.538092e+00 2.976790e-01 -1.204379e+00 8.152518e+00 -1.696270e-01 -3.403150e-02 4.918014e-01 -4.505643e-01 -6.943837e-01 -6.005127e-02 -5.773411e-02 -3.278638e-01 5.749286e-02 3.887604e-01 -1.067214e-02 3.962754e-02 5.912521e-01 6.139794e-02 -4.378374e-02 -6.247382e-02 1.582157e-02 -5.005742e-02 1.086893e-02 1.810338e-02 4.686714e-03 -2.492631e-02 -9.950620e-03 -3.607568e-02 1.469359e-02 1.677446e-02
<VARIANCE> 39
 5.745054e+01 1.077760e+02 7.962381e+01 9.495164e+01 1.003214e+02 5.869549e+01 9.817698e+01 9.301530e+01 8.584211e+01 5.682650e+01 4.738463e+01 3.814656e+01 6.576494e+01 1.344761e+00 2.258557e+00 2.835907e+00 2.401126e+00 4.199950e+00 1.758505e+00 2.635951e+00 2.190767e+00 2.680729e+00 1.820064e+00 1.538782e+00 1.238586e+00 2.514665e+00 1.476789e-01 2.144346e-01 2.631270e-01 3.054891e-01 4.451649e-01 2.187683e-01 2.911436e-01 2.690214e-01 2.788665e-01 2.007286e-01 1.768648e-01 1.515720e-01 2.695777e-01
<GCONST> 1.185896e+02
<STATE> 3
<MEAN> 39
 7.900825e-01 1.721209e+00 1.009265e+01 -6.592976e+00 -1.129047e+01 -1.096484e+00 4.344040e-01 -5.674357e+00 -4.546570e-01 5.479696e+00 -2.277862e-01 -6.991811e-01 1.121128e+01 2.495716e-01 -1.075742e-01 9.166551e-02 1.464798e-01 -4.440140e-01 -1.381293e-01 7.132425e-02 5.495162e-02 -2.955283e-01 1.829098e-03 2.336921e-02 1.470602e-02 -1.168563e-01 2.347394e-02 2.713207e-02 -1.816021e-01 1.852449e-01 2.947038e-01 -1.516105e-02 2.825356e-03 1.762581e-01 2.261573e-02 -1.618977e-01 -2.400056e-02 5.442796e-03 -2.300720e-01
<VARIANCE> 39
 3.670253e+01 4.490550e+01 8.250456e+01 8.650292e+01 8.778873e+01 5.685291e+01 8.385799e+01 7.585673e+01 6.994936e+01 6.107043e+01 5.696967e+01 4.126870e+01 4.970497e+01 7.602156e-01 1.182352e+00 1.403762e+00 1.997277e+00 2.701187e+00 1.442060e+00 1.706892e+00 1.733688e+00 1.570556e+00 1.390216e+00 1.042632e+00 9.784381e-01 1.596994e+00 7.817993e-02 1.094776e-01 1.723544e-01 2.125201e-01 3.275824e-01 1.754570e-01 2.020730e-01 2.000489e-01 1.970794e-01 1.689362e-01 1.345972e-01 1.340250e-01 1.661043e-01
<GCONST> 1.065524e+02
<STATE> 4
<MEAN> 39
 6.014377e-01 1.802155e+00 1.042642e+01 -4.505720e+00 -9.191611e+00 -2.059464e+00 1.889134e-01 -2.683137e+00 -5.039298e+00 4.703736e+00 6.089048e-01 -1.378983e+00 7.815894e+00 1.353594e-01 3.522264e-02 -2.242166e-01 2.548588e-01 2.147097e-01 -7.072890e-03 1.735374e-01 1.211772e-01 3.706170e-02 -1.397233e-01 -4.061241e-02 7.100026e-02 -4.387213e-01 -1.613791e-02 -1.780171e-02 -6.479373e-02 4.353366e-02 8.147252e-02 -7.462674e-03 1.694538e-02 1.613078e-02 6.892338e-02 -4.770524e-02 -6.479282e-03 4.895480e-03 -4.115553e-02
<VARIANCE> 39
 3.801490e+01 2.869735e+01 7.235007e+01 4.997679e+01 5.058418e+01 4.023964e+01 4.993728e+01 4.631515e+01 7.617584e+01 3.737155e+01 4.092833e+01 3.224993e+01 4.187400e+01 4.570940e-01 5.820825e-01 9.106610e-01 1.198184e+00 1.264415e+00 1.006869e+00 9.331778e-01 1.091961e+00 1.128935e+00 9.235939e-01 8.114542e-01 6.752936e-01 9.267914e-01 4.159003e-02 5.978874e-02 8.836680e-02 1.111423e-01 1.440962e-01 1.005021e-01 1.094074e-01 1.191377e-01 1.327746e-01 1.083520e-01 9.285369e-02 8.233862e-02 8.833796e-02
<GCONST> 8.875473e+01
<TRANSP> 5
 0.000000e+00 1.000000e+00 0.000000e+00 0.000000e+00 0.000000e+00
 0.000000e+00 8.217952e-01 1.782049e-01 0.000000e+00 0.000000e+00
 0.000000e+00 0.000000e+00 6.299657e-01 3.700344e-01 0.000000e+00
 0.000000e+00 0.000000e+00 0.000000e+00 8.138125e-01 1.861875e-01
 0.000000e+00 0.000000e+00 0.000000e+00 0.000000e+00 0.000000e+00
<ENDHMM>
~h "h"
<BEGINHMM>
<NUMSTATES> 5
<STATE> 2
<MEAN> 39
 6.133901e+00 5.560501e-01 -5.146260e+00 -5.974740e+00 9.154288e-01 2.326450e-01 -3.895242e+00 -3.197737e+00 -4.342816e+00 4.351958e-01 -3.027511e-01 9.543301e-01 7.298659e+00 2.397013e-01 1.760225e-01 -2.168391e-01 -1.057289e-01 2.687908e-01 3.271976e-01 2.173264e-01 7.012431e-02 -1.738081e-01 -1.195204e-01 -7.325874e-02 -1.240062e-01 -4.281474e-01 -7.087043e-02 -4.679395e-02 6.430060e-02 1.220355e-01 2.057119e-03 -1.657850e-02 5.980042e-02 1.101322e-01 1.021670e-01 -3.552135e-02 -2.100021e-02 -4.912289e-02 -3.608422e-02
<VARIANCE> 39
 3.349930e+01 4.834334e+01 7.049763e+01 8.832967e+01 4.823339e+01 4.072655e+01 4.965063e+01 3.236052e+01 5.152892e+01 4.545829e+01 3.607452e+01 5.230342e+01 4.994121e+01 4.682916e-01 6.391686e-01 9.021671e-01 1.364092e+00 7.925040e-01 1.005073e+00 1.114591e+00 6.231866e-01 8.821045e-01 7.353240e-01 8.448932e-01 9.694631e-01 6.774653e-01 3.966509e-02 6.472477e-02 6.912093e-02 1.207751e-01 8.849379e-02 9.744213e-02 9.983363e-02 6.553921e-02 1.286048e-01 7.778322e-02 9.470513e-02 1.126108e-01 3.773938e-02
<GCONST> 8.641255e+01
<STATE> 3
<MEAN> 39
 6.404286e+00 -2.491427e-01 -3.838027e+00 -2.143418e+00 2.588724e+00 1.339879e+00 -2.522265e+00 -1.524954e+00 -3.505347e+00 2.147128e-01 -1.048411e-01 -2.152789e+00 3.589067e+00 -2.603180e-01 2.841860e-02 4.389935e-02 4.430057e-01 5.929216e-01 2.879445e-01 3.569128e-01 3.863596e-01 1.527507e-01 -2.442828e-01 7.701701e-03 -1.655296e-01 -5.713305e-01 -6.452031e-02 -3.342203e-02 6.660582e-02 3.985091e-02 -3.518593e-02 -9.840706e-03 6.349559e-03 2.711562e-02 3.312511e-02 -2.250588e-02 -9.033669e-03 7.054067e-02 3.504814e-02
<VARIANCE> 39
 3.328880e+01 6.080959e+01 5.620693e+01 6.867918e+01 5.533134e+01 3.800194e+01 5.831465e+01 3.096435e+01 5.445369e+01 5.301873e+01 4.790089e+01 3.865834e+01 4.933624e+01 3.900483e-01 1.049490e+00 7.624525e-01 9.127803e-01 7.535907e-01 6.589704e-01 7.609894e-01 8.239873e-01 1.012990e+00 6.836231e-01 8.731836e-01 8.956594e-01 4.249685e-01 2.867475e-02 7.079419e-02 6.684602e-02 9.369150e-02 8.290225e-02 6.962114e-02 7.861783e-02 7.645956e-02 1.243275e-01 7.893394e-02 1.162651e-01 9.003733e-02 2.530066e-02
<GCONST> 8.379543e+01
<STATE> 4
<MEAN> 39
 2.362698e+00 1.596884e+00 -5.155992e-01 -1.551252e+00 4.988914e-01 4.484696e-01 -5.931854e-02 -1.426583e+00 -2.330245e+00 -1.379538e+00 -7.845317e-01 -1.276671e-01 4.442829e-01 -7.332725e-02 -3.692335e-03 1.626323e-02 7.567557e-02 3.517245e-02 4.585650e-03 2.608882e-02 3.889639e-02 3.300846e-02 -2.644796e-02 2.820967e-02 4.861254e-02 -8.181934e-02 3.266454e-03 -1.737706e-02 4.744371e-03 -2.775621e-03 -8.128645e-03 3.346652e-04 -7.862907e-03 4.149143e-03 5.606776e-03 8.660472e-03 4.925548e-03 -3.872903e-03 2.090706e-02
<VARIANCE> 39
 2.026508e+01 2.508819e+01 4.570781e+01 3.095710e+01 3.729982e+01 3.496119e+01 2.703813e+01 2.684465e+01 3.159568e+01 3.104969e+01 2.871940e+01 2.100478e+01 2.638389e+01 2.464051e-01 4.204171e-01 5.586119e-01 5.808866e-01 6.038049e-01 4.914460e-01 5.369447e-01 6.337904e-01 6.557268e-01 5.810354e-01 5.995148e-01 4.389313e-01 2.489834e-01 1.978629e-02 4.033326e-02 4.546672e-02 5.934134e-02 7.052117e-02 5.664134e-02 6.458398e-02 7.865819e-02 6.991164e-02 7.149477e-02 6.986446e-02 5.342688e-02 1.918622e-02
<GCONST> 6.741492e+01
<TRANSP> 5
 0.000000e+00 1.000000e+00 0.000000e+00 0.000000e+00 0.000000e+00
 0.000000e+00 6.967274e-01 3.032726e-01 0.000000e+00 0.000000e+00
 0.000000e+00 0.000000e+00 5.775278e-01 4.224723e-01 0.000000e+00
 0.000000e+00 0.000000e+00 0.000000e+00 9.551967e-01 4.480327e-02
 0.000000e+00 0.000000e+00 0.000000e+00 0.000000e+00 0.000000e+00
<ENDHMM>
~h "i"
<BEGINHMM>
<NUMSTATES> 5
<STATE> 2
<MEAN> 39
 -6.292304e-01 5.110245e+00 8.221441e+00 -4.368384e+00 -3.663855e+00 -9.239087e-01 -2.276477e+00 -5.227336e+00 -3.456259e-01 1.254475e+00 -4.356940e-01 1.357680e+00 4.761544e+00 -1.806805e-01 4.660407e-01 7.732430e-01 -6.294829e-01 -4.546022e-01 -2.843876e-02 -4.213721e-01 -5.575361e-01 -1.715080e-01 1.559334e-01 -1.316069e-01 8.783951e-02 4.489308e-01 3.539547e-02 -2.329011e-02 -8.589874e-02 9.013449e-02 2.501839e-02 -1.882171e-02 4.223010e-02 7.359996e-02 -1.540981e-02 -1.267932e-02 4.392050e-03 -2.246837e-02 -4.081040e-02
<VARIANCE> 39
 4.215145e+01 6.667219e+01 7.687296e+01 1.008360e+02 6.580150e+01 5.809368e+01 7.786496e+01 6.666808e+01 6.699043e+01 4.980262e+01 4.517581e+01 3.973670e+01 6.877722e+01 1.405282e+00 1.403652e+00 2.246532e+00 2.695126e+00 1.854245e+00 1.535480e+00 2.163614e+00 1.852743e+00 2.077808e+00 1.406793e+00 1.348230e+00 1.188825e+00 1.936847e+00 1.348741e-01 1.546127e-01 2.183075e-01 3.010309e-01 2.163469e-01 1.639680e-01 2.293959e-01 2.023265e-01 2.135617e-01 1.655961e-01 1.574672e-01 1.395608e-01 1.884781e-01
<GCONST> 1.105036e+02
<STATE> 3
<MEAN> 39
 -3.736399e-01 5.844583e+00 1.003667e+01 -4.186367e+00 -6.034846e+00 -1.809455e+00 -2.514312e+00 -6.087111e+00 -2.671242e+00 1.378417e+00 -2.505358e-01 6.906719e-01 5.372227e+00 2.120231e-01 -3.729315e-02 -1.342109e-01 6.565983e-01 8.751181e-02 -1.750764e-02 3.144744e-01 1.338833e-01 -2.681904e-01 -2.549336e-02 1.891239e-01 -2.328790e-01 -4.624030e-01 -3.590608e-02 -7.979979e-02 -1.744017e-01 1.355275e-01 1.476902e-01 6.961870e-03 8.832993e-02 1.219498e-01 8.334054e-02 -4.208567e-02 1.388119e-02 -1.462756e-02 -8.823422e-02
<VARIANCE> 39
 3.416081e+01 5.397608e+01 6.347704e+01 7.365579e+01 5.236697e+01 5.128136e+01 6.094069e+01 6.053811e+01 6.617191e+01 4.601495e+01 4.782585e+01 3.098491e+01 6.184964e+01 1.181530e+00 1.240047e+00 1.662469e+00 2.099646e+00 1.466259e+00 1.145326e+00 1.376814e+00 1.518722e+00 1.357301e+00 1.064337e+00 9.500981e-01 8.177609e-01 1.765609e+00 1.056803e-01 1.165417e-01 1.485986e-01 1.926915e-01 1.764507e-01 1.202233e-01 1.819028e-01 1.538022e-01 1.631911e-01 1.331852e-01 1.170593e-01 1.041422e-01 1.296878e-01
<GCONST> 1.011167e+02
<STATE> 4
<MEAN> 39
 -6.858062e-01 3.919263e+00 7.704196e+00 1.356576e+00 -2.546575e+00 -7.666783e-01 -5.085568e-01 -4.210862e+00 -4.067524e+00 -2.004058e-01 6.663233e-01 -5.009925e-01 4.785843e-01 -1.526832e-01 -1.521931e-01 -4.304729e-01 3.103143e-01 3.541234e-01 2.293069e-02 2.686573e-01 1.965550e-01 9.517029e-02 -1.285021e-02 8.349247e-02 -1.979877e-02 -3.344202e-01 -3.009795e-02 -4.038019e-02 -4.377988e-02 -8.429608e-02 -1.657837e-03 -2.175925e-02 -3.793316e-02 3.077602e-02 5.928437e-02 1.354811e-02 3.794404e-03 2.889253e-02 8.296745e-02
<VARIANCE> 39
 3.912199e+01 3.526136e+01 5.665240e+01 4.681976e+01 4.589077e+01 3.878536e+01 4.301514e+01 4.025949e+01 5.092615e+01 3.994308e+01 3.379193e+01 2.716495e+01 8.930619e+01 9.864644e-01 1.029815e+00 1.232550e+00 1.196646e+00 1.129508e+00 9.266541e-01 9.923062e-01 1.024619e+00 1.077229e+00 8.060641e-01 7.298162e-01 6.291984e-01 1.631990e+00 9.706490e-02 8.756012e-02 1.160434e-01 1.035900e-01 1.233316e-01 1.063892e-01 1.237255e-01 1.098124e-01 1.187551e-01 1.000100e-01 8.233939e-02 7.712403e-02 1.345787e-01
<GCONST> 9.138093e+01
<TRANSP> 5
 0.000000e+00 1.000000e+00 0.000000e+00 0.000000e+00 0.000000e+00
 0.000000e+00 7.269104e-01 2.730896e-01 0.000000e+00 0.000000e+00
 0.000000e+00 0.000000e+00 5.145556e-01 4.854445e-01 0.000000e+00
 0.000000e+00 0.000000e+00 0.000000e+00 7.341364e-01 2.658636e-01
 0.000000e+00 0.000000e+00 0.000000e+00 0.000000e+00 0.000000e+00
<ENDHMM>
~h "j"
<BEGINHMM>
<NUMSTATES> 5
<STATE> 2
<MEAN> 39
 1.856884e+00 -4.919096e+00 -2.044818e+00 -7.475461e-01 -5.726050e-01 -6.874046e-01 4.961478e+00 4.089897e+00 3.964952e-01 -2.038615e+00 -4.616667e+00 6.960623e-01 8.487215e+00 -3.664817e-01 7.952919e-01 3.345551e-01 2.604898e-01 2.249794e-01 5.888380e-02 2.420388e-01 -1.147262e-01 -2.788157e-01 6.119058e-02 5.704129e-01 -2.412935e-01 -7.733992e-01 -1.095602e-01 3.339774e-03 -3.543622e-02 -8.045657e-02 8.891305e-02 3.713426e-02 -5.469650e-02 1.210374e-02 2.638779e-02 -6.954224e-03 5.058390e-02 -5.528058e-02 5.209818e-02
<VARIANCE> 39
 1.722806e+01 3.384596e+01 2.652619e+01 2.965689e+01 3.669290e+01 2.436473e+01 2.925497e+01 2.982832e+01 3.927498e+01 3.025630e+01 3.151466e+01 2.328366e+01 5.935061e+01 9.286405e-01 6.435878e-01 7.119709e-01 9.308188e-01 1.268293e+00 8.942096e-01 7.272669e-01 8.597347e-01 9.940089e-01 8.125234e-01 7.800136e-01 5.874407e-01 7.036847e-01 1.133817e-01 6.945053e-02 9.005048e-02 1.715797e-01 1.978822e-01 1.513411e-01 9.605519e-02 9.460746e-02 9.419477e-02 8.259568e-02 1.091631e-01 9.923813e-02 1.046990e-01
<GCONST> 8.456584e+01
<STATE> 3
<MEAN> 39
 -1.013161e+00 7.439054e-02 -1.327220e+00 -4.444723e-01 1.821610e+00 -1.229637e-01 4.820841e+00 3.940221e+00 -8.973416e-01 -2.654869e+00 -8.238226e-01 -1.701804e+00 4.873691e+00 -1.432984e+00 1.063740e+00 5.763579e-01 -4.893593e-01 8.252002e-02 -1.663470e-01 -2.256469e-02 1.372888e-01 -2.420101e-01 2.021664e-01 8.834249e-01 -1.478945e-01 1.037650e-01 -3.386198e-02 -8.754746e-02 2.340442e-01 -1.280057e-01 -2.736618e-01 -1.947109e-01 -1.036548e-01 2.122649e-02 -5.147635e-02 8.622880e-02 4.923554e-02 7.578839e-02 3.149619e-01
<VARIANCE> 39
 5.327539e+01 3.517687e+01 3.061049e+01 4.412095e+01 4.419995e+01 3.320381e+01 3.859349e+01 3.305545e+01 4.067712e+01 2.854058e+01 2.721850e+01 2.021483e+01 4.160249e+01 2.269651e+00 1.243254e+00 1.252199e+00 1.369739e+00 1.702123e+00 1.444422e+00 1.084079e+00 9.349297e-01 1.040029e+00 8.710336e-01 1.053667e+00 8.391079e-01 9.495927e-01 4.138766e-01 1.633733e-01 1.215139e-01 2.340167e-01 2.456739e-01 1.746741e-01 1.448701e-01 1.171282e-01 1.247600e-01 1.020878e-01 1.317324e-01 1.067690e-01 9.231990e-02
<GCONST> 9.568686e+01
<STATE> 4
<MEAN> 39
 -5.746237e+00 3.705050e+00 5.224981e+00 -4.030561e+00 -3.683143e+00 -3.825634e+00 3.971842e+00 3.314664e+00 -2.955145e+00 -1.157588e-01 3.443519e+00 -1.760538e+00 9.770985e+00 5.593315e-01 -4.739060e-01 3.511795e-01 -1.519882e-01 -9.679539e-01 -4.947232e-01 -3.180180e-01 2.053064e-01 1.838143e-01 1.950564e-01 3.165169e-02 1.568104e-01 5.900646e-01 2.801841e-01 -1.888193e-01 -1.778732e-01 1.168536e-01 5.344990e-02 7.950279e-02 -5.798064e-02 -3.672886e-03 7.401194e-02 -3.694813e-02 -2.049569e-01 1.686789e-02 -7.527361e-02
<VARIANCE> 39
 8.139307e+01 4.833709e+01 3.105577e+01 3.290121e+01 6.680746e+01 4.519353e+01 5.022734e+01 4.419926e+01 4.551383e+01 3.841899e+01 3.768477e+01 3.898108e+01 3.933055e+01 3.939182e+00 2.698655e+00 1.640877e+00 1.809178e+00 2.451511e+00 1.238286e+00 1.462805e+00 1.765605e+00 1.375956e+00 1.120508e+00 1.619461e+00 9.366713e-01 9.634775e-01 4.844054e-01 2.717192e-01 1.530004e-01 1.562658e-01 4.208944e-01 1.671207e-01 1.551380e-01 1.973286e-01 1.314160e-01 1.468231e-01 1.589057e-01 1.183145e-01 9.301654e-02
<GCONST> 1.051576e+02
<TRANSP> 5
 0.000000e+00 1.000000e+00 0.000000e+00 0.000000e+00 0.000000e+00
 0.000000e+00 8.126903e-01 1.873096e-01 0.000000e+00 0.000000e+00
 0.000000e+00 0.000000e+00 6.685696e-01 3.314304e-01 0.000000e+00
 0.000000e+00 0.000000e+00 0.000000e+00 8.755588e-01 1.244411e-01
 0.000000e+00 0.000000e+00 0.000000e+00 0.000000e+00 0.000000e+00
<ENDHMM>
~h "k"
<BEGINHMM>
<NUMSTATES> 5
<STATE> 2
<MEAN> 39
 -3.202755e-01 9.401205e-01 2.162698e+00 2.901027e+00 -3.106557e+00 -3.101538e+00 2.163512e-01 -3.936589e+00 -1.392454e+00 2.374953e+00 9.417806e-01 -5.938140e-01 -3.836170e+00 8.678136e-02 -7.088987e-01 -1.364335e+00 1.289821e-01 9.707164e-01 -8.226145e-03 7.967795e-02 4.740650e-01 3.357146e-01 1.196148e-01 1.249161e-01 7.587681e-02 -4.025350e-02 4.448026e-02 -4.919919e-02 -1.578182e-01 -2.353286e-01 7.135771e-02 2.689032e-02 -4.099048e-02 1.564391e-01 7.279757e-02 2.048859e-03 -4.218095e-02 1.061419e-02 4.319223e-01
<VARIANCE> 39
 3.156270e+01 5.181279e+01 7.478530e+01 5.710483e+01 9.938892e+01 7.339606e+01 6.195075e+01 5.796709e+01 5.437552e+01 5.005000e+01 3.342453e+01 2.851073e+01 4.729194e+01 9.616318e-01 1.649070e+00 2.262358e+00 2.371442e+00 2.058196e+00 2.995463e+00 1.913834e+00 1.976189e+00 1.525315e+00 1.407136e+00 1.295098e+00 7.609949e-01 2.284008e+00 1.282465e-01 1.834762e-01 2.286956e-01 2.085695e-01 2.614238e-01 3.538767e-01 2.008823e-01 2.018200e-01 1.611247e-01 1.839840e-01 1.575790e-01 1.020587e-01 1.775687e-01
<GCONST> 1.082526e+02
<STATE> 3
<MEAN> 39
 3.529042e-01 -3.878617e+00 -6.913547e+00 2.228713e+00 3.822376e+00 -2.647209e+00 1.398278e-01 1.664455e+00 2.152790e+00 2.825264e+00 5.194300e-01 -2.661541e-01 -2.318488e-02 6.414374e-01 -4.101462e-01 -8.750231e-01 -5.770998e-01 2.292028e-01 -1.023194e-01 -1.643662e-01 5.035055e-01 5.386261e-01 -7.280752e-02 -2.231633e-01 -7.212924e-02 1.576498e+00 1.552249e-01 1.964927e-01 3.223272e-01 -1.584049e-01 -3.091759e-01 5.719123e-02 -2.849372e-02 -1.391784e-01 -9.134439e-02 -7.960863e-02 -6.586084e-02 -4.267012e-02 1.204782e-01
<VARIANCE> 39
 5.809166e+01 6.224840e+01 1.007141e+02 8.699219e+01 8.921420e+01 1.109716e+02 8.022744e+01 6.605376e+01 6.727354e+01 4.202845e+01 4.705840e+01 2.832995e+01 1.333497e+02 1.648382e+00 2.198969e+00 2.808470e+00 2.654774e+00 3.152162e+00 3.966186e+00 2.427829e+00 2.356254e+00 2.233427e+00 1.891503e+00 1.824066e+00 9.906692e-01 3.648058e+00 1.901804e-01 2.574372e-01 2.864756e-01 3.679511e-01 3.325809e-01 4.676204e-01 2.963008e-01 2.462188e-01 2.109764e-01 1.694298e-01 2.333242e-01 1.155626e-01 4.118613e-01
<GCONST> 1.200758e+02
<STATE> 4
<MEAN> 39
 4.075358e+00 -1.718616e+00 -6.453836e+00 -1.887772e+00 1.878951e+00 -1.770072e+00 -6.718479e-01 4.671755e-01 2.140094e+00 2.713615e+00 9.868191e-01 -4.037972e-01 4.925459e+00 7.624172e-01 1.917700e-01 5.250421e-02 -7.672915e-01 -5.201269e-01 2.569226e-01 -1.426974e-01 -1.544080e-02 1.017419e-01 -1.825248e-01 -1.677259e-01 -1.056100e-01 1.013590e+00 -2.925107e-02 6.833024e-02 1.976870e-01 8.463515e-02 -9.042993e-02 7.701254e-02 -1.142034e-02 -1.228440e-01 -1.073828e-01 -3.533818e-02 -2.358023e-02 3.394203e-03 -1.824229e-01
<VARIANCE> 39
 4.305063e+01 4.911502e+01 6.757104e+01 7.334602e+01 7.495382e+01 6.698362e+01 5.404135e+01 8.204984e+01 6.100359e+01 5.882639e+01 5.635450e+01 3.199725e+01 6.017697e+01 1.187673e+00 1.599120e+00 1.726284e+00 1.719204e+00 2.203458e+00 2.098825e+00 1.716263e+00 2.433743e+00 1.942972e+00 1.770309e+00 1.874457e+00 1.148641e+00 1.940462e+00 1.495505e-01 1.688982e-01 1.758970e-01 2.504674e-01 3.103222e-01 2.723792e-01 2.238900e-01 2.605950e-01 2.029275e-01 2.167778e-01 1.789881e-01 1.310155e-01 1.925104e-01
<GCONST> 1.112589e+02
<TRANSP> 5
 0.000000e+00 1.000000e+00 0.000000e+00 0.000000e+00 0.000000e+00
 0.000000e+00 6.690257e-01 3.309743e-01 0.000000e+00 0.000000e+00
 0.000000e+00 0.000000e+00 6.636219e-01 3.363781e-01 0.000000e+00
 0.000000e+00 0.000000e+00 0.000000e+00 5.601951e-01 4.398049e-01
 0.000000e+00 0.000000e+00 0.000000e+00 0.000000e+00 0.000000e+00
<ENDHMM>
~h "l"
<BEGINHMM>
<NUMSTATES> 5
<STATE> 2
<MEAN> 39
 6.586395e+00 -4.201232e+00 -2.415090e+00 -3.807870e+00 1.889988e-01 2.569099e+00 -6.427036e+00 1.043341e+00 1.072258e+01 2.317106e+00 -3.742568e+00 -3.306077e+00 9.201859e+00 1.277600e-01 -1.618216e-01 4.282618e-02 -6.652235e-02 -7.600091e-02 -5.578113e-01 -4.249769e-01 6.078036e-01 5.553710e-01 6.817689e-02 -3.981209e-01 -4.991132e-02 7.988355e-01 -9.125878e-02 6.382582e-02 5.745023e-02 2.420632e-02 -3.796709e-02 2.538194e-02 1.946574e-01 -1.522886e-02 -1.902872e-01 -6.644440e-02 5.567829e-02 2.068819e-02 -5.399352e-02
<VARIANCE> 39
 3.818735e+01 6.333758e+01 7.502507e+01 6.553147e+01 5.213352e+01 1.165102e+02 7.718497e+01 7.476154e+01 1.844132e+02 6.830897e+01 6.381684e+01 3.011845e+01 1.293988e+02 1.178704e+00 1.714383e+00 2.928512e+00 2.006823e+00 1.840192e+00 2.878556e+00 2.087118e+00 1.931673e+00 3.989040e+00 1.684267e+00 1.777766e+00 1.080737e+00 3.712291e+00 1.454681e-01 1.945137e-01 2.584521e-01 1.926346e-01 2.005303e-01 3.733878e-01 2.219312e-01 2.965664e-01 4.146827e-01 1.891658e-01 1.872412e-01 1.377655e-01 3.749381e-01
<GCONST> 1.175497e+02
<STATE> 3
<MEAN> 39
 3.704090e+00 -3.121261e+00 -8.958005e-01 -4.051618e+00 -1.230989e+00 -3.306973e+00 -6.503376e+00 4.311835e+00 4.735219e+00 -2.406543e+00 -4.936677e+00 -3.659435e-01 9.350670e+00 -1.946096e-01 1.092316e-01 1.984495e-01 -5.199329e-02 -2.416426e-01 -1.182680e-01 3.857523e-01 1.651175e-01 -2.032748e-01 -3.567583e-02 3.218412e-02 1.150100e-01 1.023159e-01 -4.542989e-02 7.084884e-03 -5.107039e-02 9.053078e-03 1.178495e-02 1.171958e-01 2.259152e-01 -1.379804e-01 -1.296733e-01 5.244775e-02 5.620459e-02 -6.691138e-02 -8.517484e-02
<VARIANCE> 39
 2.069826e+01 3.717810e+01 7.229616e+01 4.513565e+01 5.617032e+01 3.914179e+01 9.477495e+01 7.144035e+01 8.530484e+01 7.492342e+01 5.038045e+01 4.929390e+01 4.139551e+01 5.298361e-01 1.276436e+00 2.707922e+00 1.253711e+00 1.629319e+00 1.601145e+00 2.913491e+00 1.620482e+00 1.454498e+00 1.625892e+00 1.258044e+00 1.279704e+00 1.436875e+00 6.408324e-02 2.009531e-01 2.687767e-01 1.566838e-01 2.206475e-01 2.543633e-01 5.101572e-01 2.831114e-01 1.966594e-01 1.883971e-01 1.680210e-01 2.000430e-01 1.857122e-01
<GCONST> 1.075674e+02
<STATE> 4
<MEAN> 39
 2.438545e+00 -1.364987e+00 1.752431e+00 -3.919226e+00 -5.622597e+00 -2.705501e+00 -1.336949e+00 -6.390964e-01 9.624972e-01 -1.765888e+00 -3.291442e+00 -1.446004e-01 1.097526e+01 -3.035386e-01 1.226340e-01 2.061158e-01 -3.883869e-02 -1.589823e-01 6.939739e-02 4.402608e-01 -2.188998e-01 -4.185568e-01 1.888637e-01 2.189928e-01 -5.630746e-02 -1.788140e-01 -1.037668e-02 3.988425e-02 -5.074538e-02 3.483133e-02 1.076915e-01 -6.667058e-03 -2.904044e-02 -5.098631e-02 3.128662e-02 1.738938e-02 3.280661e-02 -4.044755e-03 -7.703531e-02
<VARIANCE> 39
 4.029394e+01 4.538068e+01 6.176692e+01 5.400930e+01 5.123542e+01 4.600730e+01 9.112708e+01 7.761545e+01 6.852931e+01 7.370406e+01 3.670684e+01 3.807790e+01 3.641708e+01 9.592118e-01 1.219839e+00 1.706218e+00 1.078351e+00 1.593384e+00 1.443541e+00 2.679545e+00 1.512685e+00 1.445509e+00 1.460372e+00 8.657670e-01 6.379815e-01 9.336219e-01 8.196807e-02 1.161233e-01 1.418373e-01 1.154494e-01 1.454990e-01 1.858965e-01 2.736105e-01 1.700181e-01 1.602369e-01 1.811054e-01 1.148739e-01 9.295641e-02 1.053856e-01
<GCONST> 1.006054e+02
<TRANSP> 5
 0.000000e+00 1.000000e+00 0.000000e+00 0.000000e+00 0.000000e+00
 0.000000e+00 6.926877e-01 3.073124e-01 0.000000e+00 0.000000e+00
 0.000000e+00 0.000000e+00 6.190846e-01 3.809154e-01 0.000000e+00
 0.000000e+00 0.000000e+00 0.000000e+00 7.211393e-01 2.788608e-01
 0.000000e+00 0.000000e+00 0.000000e+00 0.000000e+00 0.000000e+00
<ENDHMM>
~h "m"
<BEGINHMM>
<NUMSTATES> 5
<STATE> 2
<MEAN> 39
 6.147974e+00 1.619072e+00 1.454525e+00 1.176517e+00 9.134901e-01 1.389631e+00 -2.408971e+00 -3.377386e+00 -1.391092e+00 4.391870e-01 -1.059384e+00 -2.418524e+00 3.581601e+00 6.063682e-01 -5.446905e-01 -5.178196e-01 -7.924743e-02 1.035836e-01 -7.441181e-02 -5.364528e-01 2.632537e-01 5.618073e-01 2.258094e-01 -2.361656e-01 -4.978581e-01 9.741563e-01 -8.429909e-02 -1.845169e-01 -1.325414e-01 -1.073947e-01 3.488721e-02 -4.412534e-02 1.020723e-02 1.903929e-01 7.094879e-02 -2.229282e-02 -4.901699e-02 1.339845e-02 7.653660e-02
<VARIANCE> 39
 4.382958e+01 4.355290e+01 9.072057e+01 7.163775e+01 8.051083e+01 6.796357e+01 7.264418e+01 6.345221e+01 7.902409e+01 4.415018e+01 4.579809e+01 3.383753e+01 5.877425e+01 1.516457e+00 1.787181e+00 2.234920e+00 2.966246e+00 2.106164e+00 2.157479e+00 2.064599e+00 2.480505e+00 2.815892e+00 1.700423e+00 1.446256e+00 1.152224e+00 3.348724e+00 1.713544e-01 1.797207e-01 1.950726e-01 3.086607e-01 2.323164e-01 2.579467e-01 2.492631e-01 2.706409e-01 2.285414e-01 1.962866e-01 1.598966e-01 1.402867e-01 2.401472e-01
<GCONST> 1.138229e+02
<STATE> 3
<MEAN> 39
 7.939492e+00 -2.910430e+00 -1.561069e+00 3.056731e-01 2.147927e+00 -1.635784e-01 -6.628896e+00 -1.710375e+00 -5.925033e-01 1.924962e+00 -2.385700e+00 -5.259965e+00 7.188071e+00 1.003828e-01 -7.124311e-01 -6.256426e-01 -1.679392e-01 3.310603e-01 -2.204414e-02 -9.876049e-02 6.143325e-01 2.177299e-01 -2.781411e-01 -1.671366e-01 -5.799295e-02 5.646845e-01 -1.792448e-01 7.775032e-02 7.719547e-02 -9.060017e-02 -4.186022e-02 4.285973e-02 2.297285e-01 6.487865e-02 -1.037888e-01 -2.206988e-01 2.660987e-02 2.188719e-01 -1.821635e-02
<VARIANCE> 39
 2.340617e+01 3.596968e+01 5.678295e+01 6.358113e+01 6.054794e+01 6.938895e+01 5.957675e+01 7.207101e+01 7.661354e+01 6.428777e+01 4.862521e+01 4.105148e+01 3.575598e+01 8.717318e-01 1.499633e+00 1.741956e+00 2.298441e+00 1.840507e+00 1.469340e+00 2.553379e+00 2.662826e+00 1.946000e+00 2.290191e+00 1.433989e+00 1.264243e+00 1.293003e+00 6.178275e-02 1.534897e-01 2.147620e-01 2.585481e-01 1.936808e-01 1.807531e-01 2.493775e-01 3.289486e-01 1.806725e-01 2.896386e-01 1.635961e-01 1.452938e-01 1.343595e-01
<GCONST> 1.078047e+02
<STATE> 4
<MEAN> 39
 5.956579e+00 -5.130812e+00 -1.730224e+00 -5.482990e-01 2.236076e+00 -1.351447e+00 -3.813889e+00 1.336791e-01 1.747197e-02 -3.028274e+00 -4.186104e+00 -2.251844e+00 1.113119e+01 -2.298081e-01 6.054337e-02 -1.552943e-02 -2.440501e-01 3.883234e-02 9.253488e-02 3.865598e-01 2.843885e-01 -1.768495e-01 -3.476020e-01 1.170434e-02 2.550144e-01 1.153425e-01 -3.017618e-02 1.091881e-01 8.867785e-02 3.452598e-02 -5.487882e-02 1.401367e-02 2.124892e-02 -9.868326e-02 -5.086304e-02 6.536724e-02 3.113900e-02 2.513826e-02 -8.347292e-02
<VARIANCE> 39
 3.538161e+01 4.893343e+01 8.978843e+01 6.765896e+01 8.904720e+01 7.337292e+01 6.444064e+01 8.119337e+01 1.240976e+02 8.130102e+01 4.881684e+01 3.616327e+01 5.360429e+01 9.951528e-01 1.258553e+00 1.780551e+00 1.973773e+00 1.584050e+00 1.563647e+00 1.933711e+00 2.239906e+00 2.125811e+00 2.518070e+00 1.200872e+00 1.277977e+00 1.359587e+00 8.459770e-02 1.325549e-01 1.750130e-01 1.981263e-01 1.678051e-01 1.423353e-01 1.829604e-01 2.919452e-01 2.486800e-01 3.299314e-01 1.484735e-01 1.282032e-01 1.282112e-01
<GCONST> 1.091055e+02
<TRANSP> 5
 0.000000e+00 1.000000e+00 0.000000e+00 0.000000e+00 0.000000e+00
 0.000000e+00 7.231136e-01 2.768864e-01 0.000000e+00 0.000000e+00
 0.000000e+00 0.000000e+00 6.003689e-01 3.996312e-01 0.000000e+00
 0.000000e+00 0.000000e+00 0.000000e+00 8.104282e-01 1.895717e-01
 0.000000e+00 0.000000e+00 0.000000e+00 0.000000e+00 0.000000e+00
<ENDHMM>
~h "n"
<BEGINHMM>
<NUMSTATES> 5
<STATE> 2
<MEAN> 39
 3.778345e+00 -2.287157e+00 -3.410658e-01 3.830353e-01 7.865413e-01 -1.254038e+00 8.295921e-02 1.333484e+00 -1.893031e+00 -2.133997e+00 -3.502398e+00 -3.493252e-01 7.706982e+00 2.027951e-01 3.329409e-01 3.895020e-01 5.059806e-01 1.707069e-02 -9.896979e-02 -5.015421e-02 -3.288518e-01 -3.334405e-01 -3.101128e-01 -1.374704e-01 1.021071e-01 -4.834774e-01 2.475174e-02 4.762803e-02 -7.774668e-03 -6.092402e-02 -5.410368e-02 7.279954e-03 -4.414190e-02 -3.147256e-02 7.684937e-02 4.858348e-02 2.573787e-02 -3.559167e-02 -3.116238e-02
<VARIANCE> 39
 2.561963e+01 3.359590e+01 4.676168e+01 5.241082e+01 4.443747e+01 5.117623e+01 4.996062e+01 4.899855e+01 6.121767e+01 5.215160e+01 3.789082e+01 2.877050e+01 5.995029e+01 5.406808e-01 8.876054e-01 1.280138e+00 1.122039e+00 1.142741e+00 1.106813e+00 1.067147e+00 1.510922e+00 1.104332e+00 1.034118e+00 8.829730e-01 8.484347e-01 9.109287e-01 6.092235e-02 9.504662e-02 1.091939e-01 1.267716e-01 1.092779e-01 1.241092e-01 1.190505e-01 1.639488e-01 1.459504e-01 1.350536e-01 1.064272e-01 9.134279e-02 9.511455e-02
<GCONST> 9.243788e+01
<STATE> 3
<MEAN> 39
 4.600278e+00 -1.275586e+00 8.120620e-01 1.437583e+00 2.532457e-01 -1.572228e+00 -5.171410e-01 1.358146e-01 -2.242472e+00 -2.440757e+00 -3.943066e+00 -3.714009e-01 6.380317e+00 1.850962e-01 3.983779e-01 2.983392e-01 3.481856e-01 -7.129379e-02 -2.226794e-02 -7.687774e-02 -3.419570e-01 -1.282207e-01 -1.935792e-01 -6.967271e-02 4.542851e-03 -5.077280e-01 -3.811290e-02 -2.437333e-02 -6.511968e-02 -1.216587e-01 -2.241141e-02 3.234944e-02 -4.907370e-03 4.536575e-02 7.593400e-02 5.995815e-02 4.459165e-02 -3.610722e-02 4.217988e-02
<VARIANCE> 39
 2.353964e+01 3.330970e+01 3.934403e+01 4.084417e+01 4.203183e+01 4.920802e+01 4.261612e+01 4.896828e+01 5.514552e+01 4.346215e+01 3.532031e+01 2.830918e+01 5.157466e+01 4.255236e-01 8.314040e-01 1.097839e+00 9.425066e-01 9.824001e-01 9.142332e-01 9.082503e-01 1.361362e+00 1.003091e+00 9.936861e-01 7.459490e-01 7.396415e-01 6.517109e-01 4.284362e-02 8.265065e-02 8.958289e-02 1.029261e-01 9.052430e-02 1.079985e-01 9.872949e-02 1.402494e-01 1.156090e-01 1.088357e-01 9.118385e-02 7.661025e-02 6.038477e-02
<GCONST> 8.632457e+01
<STATE> 4
<MEAN> 39
 3.826795e+00 -7.164087e-01 6.644597e-02 6.110745e-01 1.177975e-01 -1.422780e+00 -1.694929e+00 -1.136377e+00 -2.648407e+00 -4.273346e+00 -4.293676e+00 -1.190170e+00 3.687845e+00 -2.738012e-02 1.485423e-01 7.989540e-02 7.022388e-02 -1.977521e-02 -1.999197e-02 4.335253e-02 -4.846012e-02 -1.625706e-02 4.639119e-02 1.204092e-01 1.010623e-02 -2.514060e-01 -2.999116e-02 -3.717837e-02 -1.987938e-02 -4.693073e-02 3.114885e-03 3.605973e-03 1.594296e-02 4.436810e-02 1.292274e-02 4.639873e-02 3.863855e-02 -4.184593e-03 3.210175e-02
<VARIANCE> 39
 1.865514e+01 2.948586e+01 3.121490e+01 2.798758e+01 3.367780e+01 3.510487e+01 3.064980e+01 3.909008e+01 4.580084e+01 3.332742e+01 2.661533e+01 2.338544e+01 3.718681e+01 2.820068e-01 6.898072e-01 6.115436e-01 6.555271e-01 6.893415e-01 6.542867e-01 6.271416e-01 9.311645e-01 7.719973e-01 7.384663e-01 5.874175e-01 4.943336e-01 4.528672e-01 2.700755e-02 6.945772e-02 5.239573e-02 7.322635e-02 7.407038e-02 8.044153e-02 7.528990e-02 1.040039e-01 9.141157e-02 8.790595e-02 7.194085e-02 6.322279e-02 3.739277e-02
<GCONST> 7.451009e+01
<TRANSP> 5
 0.000000e+00 1.000000e+00 0.000000e+00 0.000000e+00 0.000000e+00
 0.000000e+00 3.999901e-01 6.000099e-01 0.000000e+00 0.000000e+00
 0.000000e+00 0.000000e+00 4.571017e-01 5.428984e-01 0.000000e+00
 0.000000e+00 0.000000e+00 0.000000e+00 8.768437e-01 1.231564e-01
 0.000000e+00 0.000000e+00 0.000000e+00 0.000000e+00 0.000000e+00
<ENDHMM>
~h "o"
<BEGINHMM>
<NUMSTATES> 5
<STATE> 2
<MEAN> 39
 2.233316e+00 -9.646106e-01 -2.190006e+00 6.964753e-01 2.463894e+00 1.527498e+00 1.576970e+00 3.983813e-01 -1.786466e-01 1.120570e+00 2.738163e+00 1.636462e-01 -4.891407e+00 1.007281e+00 5.140479e-01 -2.857452e-01 -6.704552e-01 -9.244916e-02 1.649763e-01 -5.640333e-01 -2.024677e-01 6.806847e-02 3.780972e-01 1.186029e-01 -2.094892e-01 7.812382e-01 7.193163e-02 -1.862688e-02 -4.742422e-02 -9.071481e-02 -9.104956e-02 -8.266708e-02 -1.666780e-01 -5.175099e-02 8.810265e-02 6.524488e-02 -9.882635e-02 -8.241998e-02 2.476645e-01
<VARIANCE> 39
 6.877118e+01 4.699940e+01 5.282851e+01 8.119684e+01 5.852387e+01 5.511387e+01 5.273714e+01 4.423708e+01 4.487443e+01 3.777887e+01 3.328093e+01 2.114369e+01 2.365132e+02 1.328260e+00 1.473640e+00 1.549466e+00 1.578570e+00 1.704465e+00 1.666846e+00 1.560406e+00 1.245672e+00 1.700287e+00 1.487663e+00 1.110428e+00 7.119915e-01 3.513889e+00 1.406304e-01 1.542886e-01 1.580833e-01 2.422544e-01 1.865718e-01 2.041800e-01 2.013734e-01 1.490755e-01 1.891363e-01 1.598341e-01 1.390454e-01 9.242070e-02 3.767514e-01
<GCONST> 1.059424e+02
<STATE> 3
<MEAN> 39
 9.369716e+00 2.362138e+00 -5.884638e+00 -6.378213e+00 -4.348587e-01 2.262188e+00 -2.132077e+00 -1.609626e+00 6.399681e-01 3.127030e+00 2.216990e+00 -1.319471e+00 4.373445e+00 7.663856e-01 -3.058359e-01 -7.025653e-01 -5.747682e-01 -1.856564e-03 1.075783e-01 -1.082740e+00 -2.776548e-01 5.835573e-01 6.344905e-01 -4.438801e-01 -4.147127e-01 1.739005e+00 -3.249155e-01 -2.538197e-01 1.100528e-01 3.203088e-01 1.674998e-01 -1.322566e-01 -1.130987e-02 1.278977e-01 1.163808e-01 -8.078203e-02 -1.725695e-01 -9.989198e-03 -1.769255e-01
<VARIANCE> 39
 3.131961e+01 4.764747e+01 5.789562e+01 7.293697e+01 5.448310e+01 5.993417e+01 4.760253e+01 5.107327e+01 5.719307e+01 4.854329e+01 4.640408e+01 2.605018e+01 6.711572e+01 1.738024e+00 1.946490e+00 1.899148e+00 3.167837e+00 2.239845e+00 2.165573e+00 1.680919e+00 1.434406e+00 2.470946e+00 1.848908e+00 1.448204e+00 9.805601e-01 4.131225e+00 1.247505e-01 1.772600e-01 1.992152e-01 3.123635e-01 2.525225e-01 2.802180e-01 1.988164e-01 1.760721e-01 2.130806e-01 2.290726e-01 2.128441e-01 1.278860e-01 2.487542e-01
<GCONST> 1.106103e+02
<STATE> 4
<MEAN> 39
 7.820706e+00 -2.387630e+00 -7.317650e+00 -3.486399e+00 2.726877e+00 -4.314295e-01 -7.163014e+00 -1.450762e+00 4.533994e+00 4.268025e+00 -1.270277e+00 -2.852397e+00 8.600642e+00 -3.446847e-01 -2.656490e-01 5.410029e-01 7.313809e-01 3.213637e-03 -5.986555e-01 -6.674401e-02 2.035483e-01 1.751239e-01 -4.132749e-01 -4.504575e-01 -2.802859e-04 1.455144e-01 -7.591700e-02 1.436034e-01 2.001867e-01 1.056401e-01 -1.106169e-01 -2.432313e-02 2.287982e-01 4.048634e-03 -2.114820e-01 -1.838982e-01 1.065545e-01 1.057158e-01 -2.209040e-01
<VARIANCE> 39
 2.479528e+01 2.774340e+01 5.304604e+01 5.766262e+01 6.199495e+01 5.011898e+01 4.795253e+01 4.418688e+01 7.311762e+01 7.271411e+01 4.989541e+01 3.548172e+01 4.608245e+01 7.251209e-01 1.172840e+00 1.635514e+00 2.329716e+00 2.391239e+00 1.873522e+00 1.697056e+00 1.034204e+00 2.311435e+00 1.541005e+00 1.639186e+00 1.272271e+00 1.768313e+00 9.135931e-02 1.314212e-01 1.650542e-01 2.397779e-01 2.445100e-01 1.994584e-01 1.924917e-01 1.408192e-01 2.821435e-01 2.249303e-01 2.006265e-01 1.571759e-01 1.624591e-01
<GCONST> 1.053261e+02
<TRANSP> 5
 0.000000e+00 1.000000e+00 0.000000e+00 0.000000e+00 0.000000e+00
 0.000000e+00 6.308116e-01 3.691884e-01 0.000000e+00 0.000000e+00
 0.000000e+00 0.000000e+00 6.415061e-01 3.584939e-01 0.000000e+00
 0.000000e+00 0.000000e+00 0.000000e+00 7.927672e-01 2.072328e-01
 0.000000e+00 0.000000e+00 0.000000e+00 0.000000e+00 0.000000e+00
<ENDHMM>
~h "p"
<BEGINHMM>
<NUMSTATES> 5
<STATE> 2
<MEAN> 39
 -2.560398e+00 -6.863129e-01 -3.479267e+00 3.957848e+00 7.762483e-01 8.272864e-01 1.182096e+00 8.096136e-01 5.038957e-01 -8.448129e-01 2.198516e+00 -1.231133e+00 -3.269924e+00 -1.287347e-01 -1.668632e-01 -1.510846e-01 3.187939e-01 2.578682e-01 1.289766e-01 2.009723e-01 8.078115e-02 1.837022e-01 1.992508e-01 2.137536e-01 1.400465e-02 -5.926648e-01 1.987953e-02 -6.545984e-02 4.029513e-02 -9.560012e-02 -6.378470e-02 -8.342091e-02 -6.669292e-03 4.060547e-02 2.540624e-02 2.205007e-02 -4.521590e-02 1.951065e-02 2.278896e-01
<VARIANCE> 39
 8.747609e+01 7.053881e+01 3.271220e+01 5.170543e+01 5.944246e+01 5.190076e+01 3.996694e+01 3.989354e+01 4.852924e+01 3.534636e+01 2.859557e+01 2.564330e+01 7.511577e+01 8.741185e-01 8.618685e-01 7.558962e-01 8.481284e-01 9.631963e-01 8.635682e-01 8.201741e-01 8.503572e-01 8.261915e-01 6.816468e-01 6.588579e-01 5.637321e-01 1.608263e+00 1.032175e-01 8.268110e-02 7.709090e-02 1.054103e-01 1.077990e-01 1.155014e-01 1.121744e-01 1.014095e-01 1.004388e-01 9.933123e-02 8.419996e-02 6.854049e-02 1.405093e-01
<GCONST> 8.908539e+01
<STATE> 3
<MEAN> 39
 -1.604896e+00 -2.971655e+00 -3.211055e+00 3.705268e+00 2.054285e+00 2.489039e+00 2.180815e+00 1.547231e+00 2.519843e+00 1.086754e+00 2.094336e+00 -2.110801e-01 -6.044088e+00 -1.238134e-01 -2.160429e-01 1.354736e-01 6.535635e-02 -3.922209e-02 -1.186729e-01 1.976152e-01 2.686422e-01 3.596171e-01 3.160686e-01 1.690806e-01 4.063254e-02 1.513809e-01 9.616232e-02 -2.566243e-02 6.076358e-02 -1.284261e-01 -1.267878e-01 -1.231795e-01 -6.653471e-02 4.691135e-02 -1.534855e-02 -6.246711e-02 -1.039531e-01 -1.024330e-02 3.840590e-01
<VARIANCE> 39
 8.806667e+01 4.536214e+01 4.321038e+01 4.069374e+01 4.578375e+01 4.119743e+01 4.360709e+01 3.940090e+01 4.786737e+01 4.201828e+01 2.463575e+01 2.263617e+01 9.272672e+01 1.300658e+00 1.226161e+00 1.069724e+00 9.509485e-01 1.145298e+00 1.176165e+00 8.771846e-01 9.300196e-01 1.002440e+00 8.230077e-01 7.545426e-01 6.090019e-01 2.760413e+00 1.455071e-01 1.264894e-01 1.242044e-01 1.174337e-01 1.273653e-01 1.614880e-01 1.354464e-01 1.131596e-01 1.163562e-01 1.181723e-01 1.122694e-01 7.968232e-02 2.178267e-01
<GCONST> 9.470474e+01
<STATE> 4
<MEAN> 39
 -1.124237e+00 -5.194137e+00 -2.161006e+00 3.796544e+00 2.146872e+00 1.279312e+00 3.138287e+00 3.065602e+00 2.138190e+00 1.138756e+00 1.768049e+00 1.879012e-01 -5.636595e+00 4.783937e-01 -2.618687e-01 3.167505e-02 -2.881769e-01 -3.148348e-01 -3.571815e-01 -1.364544e-01 1.095699e-01 6.225152e-02 -1.585633e-01 -3.696099e-01 -8.752037e-03 1.311423e+00 8.297589e-02 3.711785e-02 -9.853823e-03 -1.022987e-01 -5.723068e-02 -7.351306e-03 -9.445298e-02 -1.035714e-02 -4.917209e-02 -8.082831e-02 -8.909380e-02 1.403372e-02 1.102871e-01
<VARIANCE> 39
 1.141330e+02 4.986086e+01 5.222215e+01 5.518121e+01 6.873392e+01 5.708704e+01 4.065150e+01 3.338265e+01 6.812160e+01 4.432399e+01 3.489111e+01 2.420030e+01 3.307426e+02 2.750656e+00 1.602924e+00 1.468399e+00 1.933318e+00 1.913124e+00 2.497408e+00 1.258184e+00 8.546122e-01 1.556997e+00 1.273390e+00 1.256904e+00 7.711381e-01 9.646091e+00 2.438466e-01 1.562702e-01 1.621034e-01 2.057815e-01 2.038923e-01 2.499183e-01 1.257510e-01 9.430972e-02 1.648290e-01 1.397159e-01 1.383766e-01 9.672601e-02 7.772403e-01
<GCONST> 1.089981e+02
<TRANSP> 5
 0.000000e+00 1.000000e+00 0.000000e+00 0.000000e+00 0.000000e+00
 0.000000e+00 5.644224e-01 4.355776e-01 0.000000e+00 0.000000e+00
 0.000000e+00 0.000000e+00 4.296685e-01 5.703315e-01 0.000000e+00
 0.000000e+00 0.000000e+00 0.000000e+00 7.474630e-01 2.525370e-01
 0.000000e+00 0.000000e+00 0.000000e+00 0.000000e+00 0.000000e+00
<ENDHMM>
~h "r"
<BEGINHMM>
<NUMSTATES> 5
<STATE> 2
<MEAN> 39
 -2.941186e+00 -1.599672e+00 -3.844921e-01 3.878467e+00 9.707983e-01 1.197149e+00 1.765260e+00 2.888029e+00 1.427016e+00 -1.044479e-01 3.019878e+00 1.093564e+00 -7.559185e+00 -3.971620e-02 1.956798e-02 1.503360e-01 9.494592e-02 1.040344e-01 1.777377e-01 -7.995196e-02 1.063453e-01 8.907948e-02 3.441329e-02 1.776741e-01 5.647413e-02 -4.343231e-01 5.200214e-02 4.771905e-03 -1.464740e-02 -6.925532e-02 -2.542771e-02 -3.064640e-02 -3.662339e-02 -2.861262e-02 -2.904805e-02 2.015318e-02 -3.506258e-02 -4.440264e-02 5.730585e-02
<VARIANCE> 39
 6.638554e+01 4.116542e+01 4.719487e+01 5.144447e+01 7.332847e+01 4.857095e+01 4.448389e+01 4.005085e+01 4.610876e+01 4.880362e+01 4.231192e+01 2.118218e+01 3.754876e+02 1.074675e+00 7.504454e-01 8.939948e-01 7.273384e-01 1.177571e+00 9.311042e-01 8.440213e-01 1.022777e+00 9.911426e-01 9.242398e-01 7.890143e-01 4.783176e-01 1.428187e+00 9.625413e-02 7.025212e-02 7.397352e-02 8.796404e-02 1.175442e-01 9.286058e-02 9.265516e-02 1.164130e-01 1.153287e-01 1.011466e-01 8.385745e-02 6.307817e-02 9.240407e-02
<GCONST> 9.093427e+01
<STATE> 3
<MEAN> 39
 2.279783e-01 -2.558278e+00 5.326403e-01 1.992568e+00 -1.148076e+00 -1.716279e-02 4.713928e-01 2.698893e+00 2.101698e+00 -3.038881e-01 1.149605e+00 1.006164e+00 1.677064e+00 1.230616e-01 -4.143221e-02 2.735910e-01 -1.341917e-01 -1.804756e-01 1.864415e-02 -2.462644e-01 -3.901527e-02 -8.668311e-02 1.000072e-01 1.268133e-01 -1.192781e-01 4.494921e-02 6.785866e-02 9.268434e-03 -3.549807e-02 -1.318694e-01 -6.352228e-02 -6.979836e-02 -3.142737e-02 -5.442056e-02 -5.327509e-02 4.101998e-02 -1.039555e-01 -5.730731e-02 1.322234e-01
<VARIANCE> 39
 4.504640e+01 3.639196e+01 4.941458e+01 4.897271e+01 6.863115e+01 5.559999e+01 4.939380e+01 4.062533e+01 5.275637e+01 3.831292e+01 3.540801e+01 2.251529e+01 1.687898e+02 8.267127e-01 8.263724e-01 1.369488e+00 8.658910e-01 1.537709e+00 1.107718e+00 1.112679e+00 1.140276e+00 1.372896e+00 1.190694e+00 1.007133e+00 5.774303e-01 1.545804e+00 8.603410e-02 8.841284e-02 1.148343e-01 1.072048e-01 1.639512e-01 1.218546e-01 1.325327e-01 1.357186e-01 1.422552e-01 1.170825e-01 1.165129e-01 8.474754e-02 1.279247e-01
<GCONST> 9.511179e+01
<STATE> 4
<MEAN> 39
 2.589411e-01 -2.991159e+00 6.069232e-01 1.101620e+00 -9.552468e-01 -2.305867e-01 1.475447e-01 3.146323e+00 2.402350e+00 -4.122105e-01 5.720238e-01 3.918064e-01 1.513410e+00 3.903204e-01 -1.033017e-01 1.190753e-01 -4.000905e-01 -4.315841e-01 -2.354117e-01 -3.187562e-01 -9.696332e-02 -6.417314e-02 1.160749e-01 -2.679413e-01 -1.646141e-01 9.376770e-01 5.142314e-02 1.748344e-02 -7.763058e-02 -6.911366e-02 -1.811953e-02 -2.213361e-02 2.444782e-02 -5.688651e-02 -3.046962e-02 1.216263e-02 -9.529924e-02 -3.222918e-03 9.682676e-02
<VARIANCE> 39
 5.242971e+01 4.565865e+01 5.490611e+01 4.490361e+01 7.020090e+01 5.278419e+01 5.571560e+01 4.578279e+01 5.348553e+01 4.200366e+01 4.639233e+01 2.361939e+01 2.291176e+02 1.389563e+00 1.378285e+00 1.811190e+00 1.247943e+00 2.089895e+00 1.414058e+00 1.562807e+00 1.301564e+00 1.717991e+00 1.377142e+00 1.579673e+00 6.928250e-01 4.559810e+00 1.370339e-01 1.256754e-01 1.510082e-01 1.222424e-01 1.977597e-01 1.526914e-01 1.541883e-01 1.360636e-01 1.519679e-01 1.261026e-01 1.618856e-01 9.141445e-02 3.512732e-01
<GCONST> 1.045758e+02
<TRANSP> 5
 0.000000e+00 1.000000e+00 0.000000e+00 0.000000e+00 0.000000e+00
 0.000000e+00 6.340957e-01 3.659043e-01 0.000000e+00 0.000000e+00
 0.000000e+00 0.000000e+00 2.365163e-01 7.634837e-01 0.000000e+00
 0.000000e+00 0.000000e+00 0.000000e+00 4.482903e-01 5.517097e-01
 0.000000e+00 0.000000e+00 0.000000e+00 0.000000e+00 0.000000e+00
<ENDHMM>
~h "s"
<BEGINHMM>
<NUMSTATES> 5
<STATE> 2
<MEAN> 39
 -9.760118e+00 9.434746e+00 -1.668674e+00 3.010145e+00 -1.118784e+00 -5.927727e+00 3.704576e+00 -1.315073e+00 1.882823e-01 9.783960e-01 2.346952e+00 2.571012e-02 5.790931e+00 -1.999002e+00 1.036589e+00 -7.837250e-01 5.763036e-01 8.200458e-01 -2.459467e-01 5.719519e-01 1.476396e-02 -1.240203e-01 4.590800e-02 3.376572e-01 -1.497038e-01 -2.579331e-01 6.402194e-02 -2.040994e-01 5.804896e-02 -1.047838e-01 -3.499350e-02 5.548294e-02 -1.064768e-01 5.028634e-02 -2.223806e-02 -1.701067e-02 -4.937055e-02 -1.064955e-02 7.311450e-03
<VARIANCE> 39
 1.083827e+02 5.889770e+01 8.618317e+01 6.115672e+01 8.661819e+01 6.800679e+01 7.229375e+01 5.554961e+01 5.246651e+01 5.613757e+01 4.234126e+01 3.576487e+01 4.049471e+01 1.506083e+00 1.703343e+00 1.358630e+00 1.993753e+00 1.764111e+00 1.604737e+00 1.591202e+00 1.517151e+00 1.401336e+00 1.228586e+00 1.463561e+00 9.685205e-01 4.904574e-01 2.557527e-01 1.845220e-01 1.589124e-01 1.968213e-01 1.862835e-01 1.504928e-01 1.825612e-01 1.618202e-01 1.510852e-01 1.277805e-01 1.620729e-01 1.127705e-01 4.379888e-02
<GCONST> 1.043476e+02
<STATE> 3
<MEAN> 39
 -1.646198e+01 9.502395e+00 -3.693914e+00 4.439774e+00 1.192367e+00 -6.265281e+00 4.211490e+00 -3.119746e-01 -4.165290e-01 5.992773e-01 3.226720e+00 -7.302619e-01 4.657011e+00 6.666842e-01 -6.004527e-01 2.591592e-01 -4.670596e-01 -6.485140e-02 3.933275e-03 -2.547078e-01 2.423878e-02 9.273931e-02 -2.357364e-01 -2.394215e-01 7.220085e-02 1.066511e-01 4.679211e-01 -1.100693e-01 7.195172e-02 -1.307609e-01 -1.510846e-01 3.914493e-02 -1.172368e-01 -5.407730e-02 1.929969e-02 -3.258942e-02 -1.031869e-01 4.134471e-02 6.680640e-02
<VARIANCE> 39
 1.013770e+02 4.195466e+01 6.617423e+01 7.027821e+01 8.364567e+01 7.654617e+01 5.120957e+01 6.321816e+01 4.530610e+01 5.405187e+01 4.385530e+01 3.742501e+01 3.161414e+01 3.632660e+00 1.398919e+00 1.966356e+00 2.082885e+00 1.609183e+00 1.939592e+00 1.431262e+00 1.866356e+00 1.256613e+00 1.368057e+00 1.428750e+00 8.448488e-01 1.128799e+00 2.492364e-01 1.713419e-01 1.655707e-01 2.083188e-01 1.521596e-01 2.128003e-01 1.712572e-01 1.925400e-01 1.720915e-01 1.776806e-01 1.440744e-01 1.171216e-01 9.573014e-02
<GCONST> 1.067137e+02
<STATE> 4
<MEAN> 39
 -4.453467e+00 5.497797e+00 -3.992619e+00 -1.271974e+00 2.823673e+00 -5.657538e+00 3.029936e-01 4.304281e-01 8.044472e-01 -2.304367e-01 5.801474e-01 3.746343e-01 6.286652e+00 1.628864e+00 -5.587063e-01 1.357121e-01 -5.405414e-01 -3.361419e-01 3.728393e-01 -6.216419e-01 -1.272461e-01 1.644797e-01 2.323565e-02 -2.546621e-01 -1.658917e-02 2.729108e-01 -1.831657e-02 3.899380e-02 -2.542578e-02 6.086442e-02 2.081644e-02 7.175322e-02 1.229149e-02 -4.790497e-02 -4.399207e-02 3.590164e-02 2.005823e-02 -9.999451e-03 -3.907029e-02
<VARIANCE> 39
 1.182290e+02 4.482378e+01 7.995163e+01 4.860998e+01 6.956857e+01 5.145958e+01 7.485627e+01 6.015782e+01 5.449421e+01 5.110062e+01 4.827527e+01 2.500164e+01 3.847815e+01 2.551666e+00 1.391743e+00 1.741513e+00 1.841141e+00 1.612121e+00 1.334523e+00 1.911684e+00 1.530145e+00 1.874266e+00 1.963425e+00 1.503944e+00 9.915539e-01 1.340670e+00 2.869234e-01 1.382425e-01 1.549856e-01 1.702030e-01 1.717346e-01 1.434093e-01 2.676541e-01 1.713251e-01 2.100972e-01 2.044973e-01 1.754382e-01 9.931511e-02 1.448840e-01
<GCONST> 1.072812e+02
<TRANSP> 5
 0.000000e+00 1.000000e+00 0.000000e+00 0.000000e+00 0.000000e+00
 0.000000e+00 8.271408e-01 1.728592e-01 0.000000e+00 0.000000e+00
 0.000000e+00 0.000000e+00 7.834846e-01 2.165153e-01 0.000000e+00
 0.000000e+00 0.000000e+00 0.000000e+00 7.677532e-01 2.322468e-01
 0.000000e+00 0.000000e+00 0.000000e+00 0.000000e+00 0.000000e+00
<ENDHMM>
~h "t"
<BEGINHMM>
<NUMSTATES> 5
<STATE> 2
<MEAN> 39
 -2.714673e-01 2.230934e-01 -7.464079e-01 2.752947e+00 1.448328e+00 -4.686703e-01 2.282152e+00 2.274410e-01 1.502977e-01 -9.780078e-01 4.816940e-01 1.532397e-01 -2.489380e+00 -3.621081e-01 -4.278030e-01 -1.625393e-01 -1.589965e-01 1.006425e-01 -3.788620e-02 1.678848e-01 3.074863e-01 3.452740e-01 7.261998e-02 2.229573e-01 2.464836e-02 1.466944e-01 4.130583e-02 -6.162260e-02 6.166395e-02 -1.408351e-01 -9.693725e-02 -8.821190e-02 -4.289899e-02 4.731439e-02 2.554630e-02 -1.992857e-03 -7.225174e-02 -1.979820e-02 3.887562e-01
<VARIANCE> 39
 5.366355e+01 5.050279e+01 7.249030e+01 4.511882e+01 5.694692e+01 5.043011e+01 6.552448e+01 5.622658e+01 5.640776e+01 4.181291e+01 3.564111e+01 2.617723e+01 1.312054e+02 1.306388e+00 1.308428e+00 1.398018e+00 1.163023e+00 1.195451e+00 1.696237e+00 1.764100e+00 1.719971e+00 1.888806e+00 1.320319e+00 9.320042e-01 6.496203e-01 3.185451e+00 1.820626e-01 1.368757e-01 1.241120e-01 1.212569e-01 1.363237e-01 2.019761e-01 2.216083e-01 1.724780e-01 1.892570e-01 1.408772e-01 1.228875e-01 8.732165e-02 3.428235e-01
<GCONST> 1.037650e+02
<STATE> 3
<MEAN> 39
 -2.117250e+00 -2.050689e+00 -4.609607e-01 2.381717e-01 6.543559e-01 -2.235825e+00 1.469270e+00 1.088622e+00 2.627706e+00 3.521591e-01 1.065915e+00 -1.058472e-01 2.085874e+00 2.625967e-01 -4.671487e-01 -4.485356e-02 -6.197914e-01 -4.086131e-01 -4.303396e-01 -2.183699e-01 4.111843e-01 3.418110e-01 -3.557476e-02 -3.505345e-01 -6.665200e-02 1.764555e+00 2.019353e-01 9.593637e-02 1.846617e-02 -8.704037e-02 -1.084592e-01 1.757370e-02 -1.268448e-01 -7.986528e-02 -1.340178e-01 -1.717970e-02 -1.367814e-01 -4.907257e-02 1.309366e-01
<VARIANCE> 39
 5.111581e+01 4.536368e+01 6.085376e+01 4.264746e+01 5.774529e+01 5.346688e+01 5.256875e+01 4.989119e+01 5.558668e+01 4.459202e+01 4.374490e+01 2.613250e+01 1.307968e+02 1.738391e+00 1.901202e+00 1.990162e+00 1.562995e+00 1.669742e+00 1.968737e+00 2.758818e+00 2.299597e+00 2.666502e+00 1.606735e+00 1.504259e+00 9.244609e-01 5.171312e+00 1.833777e-01 1.583008e-01 1.411993e-01 1.335978e-01 1.685852e-01 1.929674e-01 2.018175e-01 2.057257e-01 1.984179e-01 1.745208e-01 1.690713e-01 1.029226e-01 4.166151e-01
<GCONST> 1.093139e+02
<STATE> 4
<MEAN> 39
 1.186627e+00 -1.911246e+00 1.692900e+00 -3.475839e+00 -4.139789e+00 -3.907001e+00 -1.545606e+00 7.417216e-01 9.405894e-01 -1.070208e+00 -2.174510e+00 -1.444324e-01 1.011868e+01 3.951371e-01 -5.617116e-02 -1.346896e-01 -2.955154e-01 -1.649036e-01 1.677946e-03 -1.564029e-01 2.671780e-02 -1.721743e-01 -4.905030e-02 -2.149627e-01 -6.689403e-02 5.097516e-01 -3.663992e-03 8.399897e-02 2.728160e-02 5.669440e-02 4.322936e-02 1.250421e-01 4.439756e-02 -9.191197e-02 -1.063423e-01 1.963761e-02 3.907087e-02 -3.700555e-03 -1.917661e-01
<VARIANCE> 39
 3.368266e+01 4.933016e+01 8.295050e+01 5.508926e+01 5.182685e+01 4.875818e+01 6.519130e+01 6.262059e+01 8.016394e+01 4.648638e+01 4.377382e+01 3.044826e+01 8.571556e+01 1.460876e+00 1.674541e+00 1.970456e+00 2.006680e+00 1.242703e+00 1.324219e+00 2.004157e+00 2.015367e+00 1.995829e+00 1.556492e+00 1.513826e+00 1.062848e+00 2.974088e+00 1.230264e-01 1.469177e-01 1.684926e-01 1.778906e-01 1.499671e-01 1.796800e-01 2.457323e-01 2.261954e-01 2.301349e-01 1.719721e-01 1.542186e-01 1.239510e-01 3.154762e-01
<GCONST> 1.080360e+02
<TRANSP> 5
 0.000000e+00 1.000000e+00 0.000000e+00 0.000000e+00 0.000000e+00
 0.000000e+00 5.761021e-01 4.238980e-01 0.000000e+00 0.000000e+00
 0.000000e+00 0.000000e+00 5.150452e-01 4.849548e-01 0.000000e+00
 0.000000e+00 0.000000e+00 0.000000e+00 6.767590e-01 3.232410e-01
 0.000000e+00 0.000000e+00 0.000000e+00 0.000000e+00 0.000000e+00
<ENDHMM>
~h "u"
<BEGINHMM>
<NUMSTATES> 5
<STATE> 2
<MEAN> 39
 6.301359e+00 2.763178e+00 -3.589012e+00 -2.495158e+00 8.684416e-01 -1.706746e+00 -6.698833e+00 -4.283935e+00 -7.414386e-01 2.616766e+00 2.738427e+00 1.010232e+00 2.668162e+00 1.470035e-01 3.656708e-01 -1.838139e-01 -1.254731e-01 2.014672e-01 3.156016e-01 9.161324e-02 -3.115799e-01 -3.035301e-01 1.727911e-02 2.468147e-01 7.154583e-02 -5.870411e-01 -1.142662e-01 -4.373747e-02 9.460703e-02 9.361620e-02 -4.109182e-03 -6.858562e-03 1.995987e-01 1.154362e-01 1.315720e-02 -1.174463e-01 -6.931250e-02 -1.576548e-03 -7.345597e-02
<VARIANCE> 39
 3.291591e+01 2.749633e+01 4.697292e+01 4.353266e+01 3.619403e+01 4.959873e+01 6.122321e+01 4.002394e+01 4.623973e+01 4.645045e+01 3.614503e+01 2.793929e+01 6.006715e+01 7.774891e-01 6.616748e-01 8.814229e-01 1.187625e+00 9.499684e-01 1.137300e+00 1.605032e+00 1.032214e+00 1.314490e+00 1.055817e+00 7.960084e-01 6.601278e-01 7.881042e-01 6.873343e-02 6.908806e-02 8.441903e-02 1.048544e-01 1.085794e-01 1.339749e-01 1.933290e-01 1.183503e-01 1.378480e-01 1.348795e-01 1.025304e-01 9.236220e-02 6.778867e-02
<GCONST> 9.007901e+01
<STATE> 3
<MEAN> 39
 5.104969e+00 3.419476e+00 -2.925296e+00 -1.167008e+00 1.650899e+00 -8.785192e-01 -3.533992e+00 -3.024509e+00 -2.031354e+00 8.440497e-01 2.528481e+00 7.771251e-01 -1.644160e+00 -3.598344e-01 8.391908e-02 1.501157e-01 2.961174e-01 2.179166e-01 2.189960e-01 5.033926e-01 1.704316e-01 -8.454552e-02 -2.440745e-01 5.989932e-03 1.447294e-02 -8.378001e-01 -8.336642e-02 -7.734883e-02 4.278043e-02 5.112897e-02 -2.773810e-02 -5.568259e-02 1.831237e-02 7.268786e-02 5.911897e-02 -2.627569e-02 -3.698246e-02 -2.354488e-02 3.617850e-02
<VARIANCE> 39
 4.607740e+01 3.299753e+01 4.458877e+01 4.965004e+01 4.132250e+01 4.643604e+01 4.983389e+01 4.494258e+01 4.011869e+01 4.401022e+01 3.764130e+01 2.476895e+01 1.014740e+02 7.599598e-01 6.851852e-01 7.514589e-01 9.256553e-01 7.905952e-01 1.001145e+00 1.018012e+00 8.518568e-01 9.233162e-01 8.477094e-01 6.579425e-01 6.124168e-01 9.341238e-01 6.527295e-02 5.911399e-02 7.294350e-02 9.439946e-02 9.101460e-02 1.110906e-01 1.196806e-01 1.068487e-01 1.108711e-01 1.071028e-01 7.722133e-02 7.596267e-02 9.545786e-02
<GCONST> 8.688961e+01
<STATE> 4
<MEAN> 39
 -2.325237e-01 2.275242e+00 -1.780405e+00 2.840258e-01 2.658395e+00 7.626447e-01 -6.423843e-01 -2.218143e+00 -1.882611e+00 -9.172552e-01 1.170263e+00 1.355366e+00 -6.224455e+00 -2.853721e-01 -6.624799e-02 6.909425e-02 1.697049e-01 1.462353e-01 6.026533e-02 1.378510e-01 1.070673e-01 5.285506e-02 -7.527408e-02 1.168678e-02 2.208531e-02 -3.974287e-01 1.338617e-02 -2.882584e-02 1.347845e-02 -2.331472e-02 -1.967722e-02 -2.376822e-02 -3.490403e-02 8.990920e-03 2.299579e-02 2.663524e-02 7.085639e-03 -1.863087e-02 7.018330e-02
<VARIANCE> 39
 4.130152e+01 1.850072e+01 2.655206e+01 2.390437e+01 2.896620e+01 3.223309e+01 3.156802e+01 3.111076e+01 3.753904e+01 3.089950e+01 2.954473e+01 1.969478e+01 1.460896e+02 4.979329e-01 3.277250e-01 4.147867e-01 5.002812e-01 4.332911e-01 5.284985e-01 6.137832e-01 5.180928e-01 5.600317e-01 5.762835e-01 4.613468e-01 3.716263e-01 7.231813e-01 4.480875e-02 3.333666e-02 4.320961e-02 5.370883e-02 5.283090e-02 6.444344e-02 7.093183e-02 6.349570e-02 6.780023e-02 7.202919e-02 5.939522e-02 4.745992e-02 6.022309e-02
<GCONST> 7.002004e+01
<TRANSP> 5
 0.000000e+00 1.000000e+00 0.000000e+00 0.000000e+00 0.000000e+00
 0.000000e+00 6.581675e-01 3.418324e-01 0.000000e+00 0.000000e+00
 0.000000e+00 0.000000e+00 4.934684e-01 5.065317e-01 0.000000e+00
 0.000000e+00 0.000000e+00 0.000000e+00 8.785377e-01 1.214624e-01
 0.000000e+00 0.000000e+00 0.000000e+00 0.000000e+00 0.000000e+00
<ENDHMM>
~h "w"
<BEGINHMM>
<NUMSTATES> 5
<STATE> 2
<MEAN> 39
 6.635227e+00 -3.013446e+00 -7.736980e+00 -1.931480e+00 5.215244e+00 2.322539e+00 -2.297933e+00 4.658060e-01 2.856228e+00 6.444251e-01 -1.344240e+00 -1.862022e+00 5.495797e+00 4.709764e-01 -3.359836e-01 -7.714756e-01 -5.147969e-01 2.887845e-01 5.881420e-01 -3.012261e-01 -2.646908e-02 3.629314e-01 3.572855e-01 -2.479512e-01 -4.880081e-01 6.685621e-01 -7.103242e-02 -1.699071e-02 6.678047e-02 1.268724e-02 -8.512567e-02 -3.205856e-02 7.259896e-02 4.288574e-02 -3.193613e-02 -4.695252e-02 -4.181715e-02 4.447932e-02 4.158619e-02
<VARIANCE> 39
 5.524548e+01 5.984132e+01 5.946927e+01 7.262557e+01 4.514526e+01 5.821060e+01 5.044931e+01 4.337653e+01 5.520873e+01 5.229094e+01 6.032822e+01 3.768230e+01 6.423848e+01 1.038015e+00 1.527914e+00 1.413988e+00 1.722662e+00 1.108820e+00 1.719085e+00 1.493152e+00 1.078351e+00 1.698726e+00 1.476905e+00 1.727388e+00 9.686410e-01 2.353441e+00 1.100940e-01 1.699461e-01 1.359743e-01 1.843512e-01 1.405196e-01 1.868161e-01 1.846329e-01 1.393657e-01 1.765307e-01 1.894353e-01 2.008202e-01 1.108745e-01 2.127123e-01
<GCONST> 1.046237e+02
<STATE> 3
<MEAN> 39
 7.628782e+00 -2.965547e+00 -9.519910e+00 -4.400115e+00 5.771983e+00 4.152439e+00 -3.278114e+00 5.427127e-01 2.983676e+00 2.670380e+00 -1.755479e+00 -4.092254e+00 7.241809e+00 1.379342e-01 -9.504255e-02 2.400499e-03 -1.163504e-01 -1.373930e-01 1.655701e-02 1.408597e-01 7.608216e-02 2.677996e-02 -8.563088e-03 -1.772020e-01 -8.404722e-02 1.005915e-01 -1.195155e-01 7.084064e-03 2.183654e-01 1.163582e-01 -1.445769e-01 -1.708587e-01 1.143285e-01 4.217083e-02 -4.402885e-02 -1.454526e-01 -3.036534e-02 1.735292e-01 -3.635352e-02
<VARIANCE> 39
 4.924741e+01 5.117741e+01 5.884398e+01 6.095761e+01 3.861445e+01 6.098009e+01 4.953860e+01 3.975585e+01 4.895708e+01 5.081582e+01 5.278550e+01 3.458074e+01 4.002800e+01 9.935080e-01 1.264801e+00 1.018906e+00 1.288840e+00 1.156462e+00 1.365839e+00 1.684748e+00 1.235202e+00 1.476325e+00 1.355218e+00 2.043609e+00 9.727933e-01 1.187885e+00 8.373018e-02 1.238697e-01 1.158705e-01 1.539899e-01 1.345915e-01 1.303120e-01 1.697112e-01 1.284954e-01 1.587599e-01 1.769321e-01 1.811137e-01 1.080592e-01 1.356214e-01
<GCONST> 9.933844e+01
<STATE> 4
<MEAN> 39
 6.728910e+00 -2.852804e+00 -9.608614e+00 -5.242833e+00 4.360905e+00 3.693376e+00 -7.306989e-01 3.387453e-01 2.162052e+00 3.599862e-01 -2.667014e+00 -2.977511e+00 6.349001e+00 -1.210575e-01 1.074880e-01 4.537536e-01 1.382189e-01 -4.283201e-01 -4.281337e-01 1.830622e-01 1.031799e-01 -1.513980e-01 -1.912415e-01 -2.555817e-02 2.779918e-01 -1.911062e-01 -4.644676e-02 2.805331e-02 1.085188e-01 6.108180e-02 -5.963834e-02 -5.521456e-02 2.849207e-03 9.259230e-03 -1.926487e-02 2.530338e-03 4.211442e-02 3.755513e-02 -1.754520e-03
<VARIANCE> 39
 3.559588e+01 5.154792e+01 5.418102e+01 6.434028e+01 4.455656e+01 5.460373e+01 5.259293e+01 3.758792e+01 4.241957e+01 5.218274e+01 5.021814e+01 3.157307e+01 4.244731e+01 8.678401e-01 8.752242e-01 9.517063e-01 1.066074e+00 1.075085e+00 9.623003e-01 1.347709e+00 1.239494e+00 1.059868e+00 1.038071e+00 9.856256e-01 8.188238e-01 1.170087e+00 8.096883e-02 9.570102e-02 9.908860e-02 1.260715e-01 1.057159e-01 1.189350e-01 1.497934e-01 1.399308e-01 1.259945e-01 1.185161e-01 1.271946e-01 9.621403e-02 1.090578e-01
<GCONST> 9.357118e+01
<TRANSP> 5
 0.000000e+00 1.000000e+00 0.000000e+00 0.000000e+00 0.000000e+00
 0.000000e+00 6.553115e-01 3.446886e-01 0.000000e+00 0.000000e+00
 0.000000e+00 0.000000e+00 5.274994e-01 4.725006e-01 0.000000e+00
 0.000000e+00 0.000000e+00 0.000000e+00 7.362075e-01 2.637925e-01
 0.000000e+00 0.000000e+00 0.000000e+00 0.000000e+00 0.000000e+00
<ENDHMM>
~h "y"
<BEGINHMM>
<NUMSTATES> 5
<STATE> 2
<MEAN> 39
 -2.495647e+00 4.658812e+00 1.059642e+01 -6.279995e+00 -4.298990e+00 1.142912e-01 -2.980702e+00 -4.820371e+00 -2.737498e+00 -2.187165e-01 -1.437223e+00 -3.084937e-01 7.756548e+00 3.936451e-02 2.047681e-01 9.518417e-01 -8.242713e-01 -7.360743e-01 2.792763e-02 -4.192717e-01 -2.265700e-01 7.997174e-03 1.615700e-01 -6.419473e-02 1.528050e-01 5.925881e-01 1.004308e-01 -1.288535e-01 -1.808032e-01 6.701852e-02 -3.269159e-02 -3.277260e-02 9.599284e-02 1.205799e-01 6.384199e-02 3.532571e-02 1.564292e-02 1.317100e-03 -3.863095e-02
<VARIANCE> 39
 3.544561e+01 5.269834e+01 6.500208e+01 8.208261e+01 5.074899e+01 4.860979e+01 5.649409e+01 5.543304e+01 5.470614e+01 4.304633e+01 6.176949e+01 3.888663e+01 4.153237e+01 9.522887e-01 1.360472e+00 1.943017e+00 1.509495e+00 1.724104e+00 1.717982e+00 1.392068e+00 1.810343e+00 1.553562e+00 1.152767e+00 1.232498e+00 1.082525e+00 1.291408e+00 8.237662e-02 1.507542e-01 1.941012e-01 1.235807e-01 1.853940e-01 1.691785e-01 1.954596e-01 1.786164e-01 1.488281e-01 1.428672e-01 1.526482e-01 1.448455e-01 7.662633e-02
<GCONST> 1.022316e+02
<STATE> 3
<MEAN> 39
 -1.404743e+00 3.765151e+00 1.181294e+01 -9.800662e+00 -9.285555e+00 1.713593e-01 -1.907696e+00 -3.988292e+00 -1.494730e+00 1.695958e+00 -7.834685e-01 9.909373e-02 1.054308e+01 4.350151e-01 -9.171354e-01 -8.610376e-01 2.698887e-01 -3.031064e-01 -3.408147e-01 5.526916e-01 7.911653e-01 -5.093578e-02 1.002606e-02 1.319898e-01 -1.486833e-01 3.199536e-01 4.941004e-02 -1.215744e-01 -2.925976e-01 2.253802e-01 2.700899e-01 -9.070659e-02 1.681702e-02 1.375519e-01 -2.224935e-03 -1.028577e-01 -4.686971e-02 4.355996e-03 -7.474507e-02
<VARIANCE> 39
 2.401669e+01 5.283425e+01 6.588065e+01 9.240540e+01 5.229078e+01 5.667365e+01 6.450220e+01 7.769061e+01 6.823079e+01 3.996989e+01 6.519501e+01 3.606764e+01 3.864270e+01 4.262863e-01 1.612743e+00 1.880660e+00 1.430595e+00 1.676953e+00 1.765299e+00 2.293833e+00 1.794745e+00 1.919009e+00 1.439303e+00 1.167734e+00 1.039892e+00 7.749352e-01 4.264545e-02 1.455891e-01 1.571774e-01 1.488888e-01 2.151314e-01 1.934076e-01 2.440517e-01 1.990933e-01 1.889133e-01 1.421150e-01 1.478852e-01 1.193053e-01 7.639991e-02
<GCONST> 1.021821e+02
<STATE> 4
<MEAN> 39
 2.488307e+00 -1.788897e+00 5.377193e+00 -4.357960e+00 -7.279002e+00 -3.227039e+00 -3.249098e-01 2.580691e+00 -2.904259e+00 1.609180e-01 1.323821e-01 -5.918931e-01 1.019069e+01 4.471979e-01 -4.688813e-01 -1.170971e+00 5.875477e-01 7.385744e-01 -2.966776e-01 -3.291079e-02 4.967559e-01 2.169844e-01 -1.948076e-01 -2.297363e-01 4.605760e-02 -1.905104e-01 -1.664789e-02 1.384326e-01 4.753414e-02 3.772642e-02 1.174956e-01 8.741704e-02 -9.576782e-02 -1.908641e-01 2.829758e-02 2.054466e-02 6.649450e-04 1.224143e-02 -1.403484e-01
<VARIANCE> 39
 2.752067e+01 4.152444e+01 7.209413e+01 5.747956e+01 4.903679e+01 6.048694e+01 6.810895e+01 7.890637e+01 6.539202e+01 3.654327e+01 5.026405e+01 3.005032e+01 4.082127e+01 3.475015e-01 1.024768e+00 1.500525e+00 1.285033e+00 1.388550e+00 1.617854e+00 1.748473e+00 1.873218e+00 1.668260e+00 1.226809e+00 1.260150e+00 7.642524e-01 5.888580e-01 3.127500e-02 8.813876e-02 1.229964e-01 9.564457e-02 1.316690e-01 1.784106e-01 1.964614e-01 2.105196e-01 1.598436e-01 1.210445e-01 1.183955e-01 9.268268e-02 4.554478e-02
<GCONST> 9.538969e+01
<TRANSP> 5
 0.000000e+00 1.000000e+00 0.000000e+00 0.000000e+00 0.000000e+00
 0.000000e+00 7.412035e-01 2.587964e-01 0.000000e+00 0.000000e+00
 0.000000e+00 0.000000e+00 7.108356e-01 2.891644e-01 0.000000e+00
 0.000000e+00 0.000000e+00 0.000000e+00 7.714409e-01 2.285591e-01
 0.000000e+00 0.000000e+00 0.000000e+00 0.000000e+00 0.000000e+00
<ENDHMM>
~h "aa"
<BEGINHMM>
<NUMSTATES> 5
<STATE> 2
<MEAN> 39
 4.491158e+00 -7.055077e+00 -7.149525e+00 -2.542909e+00 2.168559e+00 2.653891e+00 -7.766577e-01 3.220490e+00 3.486669e+00 -1.574849e+00 -5.396064e+00 -2.039217e+00 1.092786e+01 1.348189e-01 -9.742033e-01 -8.329787e-01 -4.300953e-01 5.990808e-01 6.768901e-01 -5.051237e-02 1.167208e-01 1.426977e-01 -2.963935e-01 -7.050152e-01 -1.305172e-01 9.528624e-01 -7.747155e-02 1.247199e-01 1.228093e-01 1.240434e-01 3.582577e-02 -5.917513e-02 -4.668546e-03 -1.119147e-01 -9.296360e-02 3.016075e-02 1.284907e-01 1.859934e-02 -1.648244e-01
<VARIANCE> 39
 2.933347e+01 4.327625e+01 4.630984e+01 6.131776e+01 6.496677e+01 5.315509e+01 5.095060e+01 5.048177e+01 8.612078e+01 6.225634e+01 4.543834e+01 3.566769e+01 5.995703e+01 7.379270e-01 1.068447e+00 1.233009e+00 1.359644e+00 1.479143e+00 1.520011e+00 1.421798e+00 1.329462e+00 1.470298e+00 1.315697e+00 1.274575e+00 8.864187e-01 1.354589e+00 6.608291e-02 9.821765e-02 1.129763e-01 1.379869e-01 1.601219e-01 1.530419e-01 1.281866e-01 1.464873e-01 1.482976e-01 1.509824e-01 1.481859e-01 9.213140e-02 1.139157e-01
<GCONST> 9.850922e+01
<STATE> 3
<MEAN> 39
 3.288373e+00 -1.027872e+01 -9.515306e+00 -2.437926e+00 6.626371e+00 4.216407e+00 -4.572105e-01 2.163254e+00 1.933533e+00 -3.091305e+00 -6.758376e+00 -1.762377e+00 1.347653e+01 -7.596918e-02 -2.271325e-01 -8.832839e-02 1.306220e-01 2.539275e-01 2.793470e-02 -2.785788e-02 -4.163300e-02 -8.212600e-02 -1.575608e-01 -7.051531e-02 2.765643e-02 8.094629e-02 -8.742467e-03 1.674501e-01 1.553172e-01 4.276025e-02 -1.987624e-01 -1.455843e-01 3.537092e-02 1.272154e-02 -1.839480e-02 3.119338e-02 1.115122e-01 3.519781e-02 -1.272452e-01
<VARIANCE> 39
 2.150472e+01 2.976172e+01 3.510703e+01 4.251714e+01 4.928836e+01 3.874093e+01 4.742689e+01 3.848419e+01 5.490907e+01 5.624997e+01 3.862592e+01 3.409188e+01 4.594073e+01 3.272832e-01 4.510135e-01 6.994070e-01 7.226219e-01 1.277864e+00 9.378641e-01 1.026886e+00 8.814439e-01 7.670147e-01 8.483475e-01 7.608103e-01 6.145238e-01 4.292108e-01 3.419811e-02 4.732584e-02 6.371478e-02 8.172461e-02 9.601217e-02 8.349703e-02 9.354564e-02 9.444343e-02 8.860311e-02 8.819037e-02 9.474392e-02 6.871010e-02 3.958979e-02
<GCONST> 8.065210e+01
<STATE> 4
<MEAN> 39
 3.860788e+00 -8.739120e+00 -7.958178e+00 -2.016243e+00 3.873283e+00 2.534834e+00 9.399175e-02 2.820282e+00 2.806779e+00 -3.213451e+00 -6.511390e+00 -1.586848e+00 1.130597e+01 -6.756760e-02 4.214009e-01 4.825669e-01 2.129727e-01 -4.111923e-01 -3.609201e-01 1.768077e-01 -5.216037e-02 -2.826707e-01 -5.975340e-02 3.019567e-01 1.705680e-01 -5.431194e-01 -2.043444e-03 7.795448e-02 6.488574e-02 -2.471253e-03 -3.066523e-02 -1.839365e-02 -1.545093e-02 -3.393250e-02 -1.480990e-02 6.050569e-02 5.121800e-02 2.435402e-04 -6.761552e-02
<VARIANCE> 39
 2.320321e+01 3.185007e+01 3.791910e+01 4.382964e+01 4.936975e+01 5.527652e+01 5.409083e+01 4.934096e+01 7.854480e+01 6.506996e+01 3.831311e+01 3.352333e+01 6.578551e+01 5.177751e-01 6.459106e-01 7.991053e-01 8.502986e-01 1.089289e+00 1.182943e+00 1.087344e+00 1.058623e+00 9.341033e-01 1.006444e+00 8.374968e-01 6.492580e-01 7.157708e-01 5.456034e-02 6.773512e-02 6.705224e-02 9.227808e-02 1.204685e-01 1.418386e-01 1.211461e-01 1.313094e-01 1.035936e-01 1.040582e-01 9.057203e-02 7.214410e-02 6.581218e-02
<GCONST> 8.811212e+01
<TRANSP> 5
 0.000000e+00 1.000000e+00 0.000000e+00 0.000000e+00 0.000000e+00
 0.000000e+00 7.306895e-01 2.693105e-01 0.000000e+00 0.000000e+00
 0.000000e+00 0.000000e+00 7.021230e-01 2.978770e-01 0.000000e+00
 0.000000e+00 0.000000e+00 0.000000e+00 8.647027e-01 1.352973e-01
 0.000000e+00 0.000000e+00 0.000000e+00 0.000000e+00 0.000000e+00
<ENDHMM>
~h "ai"
<BEGINHMM>
<NUMSTATES> 5
<STATE> 2
<MEAN> 39
 -6.133270e+00 1.499252e+00 1.046295e+00 5.184282e+00 3.528592e+00 1.904456e+00 -1.050768e+00 1.653849e+00 -1.441837e+00 2.421905e+00 2.960251e+00 -9.836512e-01 -2.007196e+01 3.467780e-02 9.019679e-02 1.305439e-01 -1.652686e-02 1.145382e-01 2.428528e-01 1.076258e-01 7.514849e-02 1.825075e-01 9.539892e-02 -1.273361e-01 4.115420e-02 -3.079123e-01 4.906460e-02 -8.092294e-03 -3.006816e-03 7.405280e-03 -6.615368e-02 -7.430692e-02 -5.303613e-02 -5.446128e-02 -2.051844e-02 -5.249998e-02 -4.142918e-02 -3.003111e-02 1.968108e-01
<VARIANCE> 39
 4.875706e+01 1.920505e+01 3.413134e+01 3.292195e+01 4.141228e+01 4.826482e+01 5.155358e+01 3.686614e+01 4.630442e+01 4.128752e+01 2.883437e+01 1.646853e+01 4.290116e+02 1.228999e+00 5.206413e-01 5.515578e-01 5.266501e-01 6.532853e-01 1.005281e+00 7.653000e-01 7.196555e-01 1.234063e+00 8.646502e-01 6.968460e-01 4.970333e-01 4.130556e+00 1.671568e-01 5.518426e-02 4.141457e-02 6.836381e-02 7.783808e-02 1.272368e-01 1.057064e-01 9.534068e-02 1.434109e-01 9.306193e-02 9.608439e-02 6.245081e-02 6.599441e-01
<GCONST> 8.858421e+01
<STATE> 3
<MEAN> 39
 2.651948e-01 -2.055890e+00 1.414723e+00 3.914268e+00 -1.184073e+00 2.323765e+00 5.417585e+00 1.795489e+00 8.118916e-01 1.077161e+00 -8.794211e-01 1.197237e+00 1.493744e+00 3.474660e-01 1.946088e-01 9.831587e-02 -4.177581e-01 -1.091483e+00 -4.139231e-01 -5.724992e-01 -6.210430e-01 -1.405237e-01 -3.603783e-01 -6.817621e-01 -1.279053e-01 1.787073e+00 1.989416e-02 2.669456e-02 1.026119e-01 -1.964024e-01 -8.158275e-02 -1.054741e-01 -2.790386e-01 2.113754e-03 6.506218e-03 5.332541e-02 8.918422e-02 -6.834324e-02 5.849312e-02
<VARIANCE> 39
 2.591726e+01 2.963217e+01 3.459765e+01 6.392202e+01 7.258590e+01 4.691317e+01 5.148053e+01 2.938178e+01 4.574875e+01 3.032356e+01 3.414287e+01 2.135116e+01 2.549138e+02 1.628420e+00 8.691193e-01 1.349968e+00 1.317218e+00 1.652177e+00 8.770397e-01 2.260335e+00 1.924672e+00 1.869752e+00 1.129881e+00 7.790834e-01 6.415883e-01 8.485083e+00 7.489357e-02 8.278429e-02 8.934386e-02 1.162523e-01 9.963983e-02 1.064000e-01 2.117735e-01 1.680223e-01 1.246826e-01 1.335762e-01 9.320122e-02 7.735272e-02 4.476074e-01
<GCONST> 9.843724e+01
<STATE> 4
<MEAN> 39
 1.648989e+00 -1.093748e+00 3.795438e+00 -1.619551e+00 -5.710236e+00 -1.467988e+00 1.050998e+00 -8.712588e-01 1.593978e-01 -1.037793e+00 -2.019636e+00 1.110634e+00 7.105352e+00 7.810916e-03 2.256870e-01 1.568106e-01 -5.013080e-02 7.953902e-05 -1.402267e-01 -2.126987e-01 -2.426898e-01 1.619332e-01 5.202283e-02 -5.759358e-02 9.800886e-02 -5.927233e-02 1.636619e-02 -3.320709e-02 -2.123439e-02 1.736227e-02 4.742652e-02 7.538847e-04 1.240107e-02 4.616002e-02 6.048117e-03 8.019625e-03 1.951514e-02 2.345600e-02 9.430411e-03
<VARIANCE> 39
 1.705672e+01 3.709032e+01 3.161985e+01 4.686075e+01 5.759449e+01 2.121445e+01 4.181579e+01 5.844316e+01 4.235426e+01 3.422488e+01 2.623093e+01 3.232865e+01 5.760815e+01 5.085773e-01 8.882833e-01 7.495999e-01 8.812494e-01 1.030201e+00 6.031826e-01 1.211815e+00 1.939263e+00 1.090656e+00 8.050097e-01 8.199642e-01 7.266415e-01 1.390352e+00 3.168529e-02 6.335062e-02 5.470384e-02 8.005148e-02 8.705121e-02 6.678103e-02 1.343221e-01 2.073678e-01 1.133388e-01 1.001684e-01 1.155814e-01 9.253798e-02 5.948198e-02
<GCONST> 8.505560e+01
<TRANSP> 5
 0.000000e+00 1.000000e+00 0.000000e+00 0.000000e+00 0.000000e+00
 0.000000e+00 8.066732e-01 1.933268e-01 0.000000e+00 0.000000e+00
 0.000000e+00 0.000000e+00 4.634185e-01 5.365816e-01 0.000000e+00
 0.000000e+00 0.000000e+00 0.000000e+00 8.968705e-01 1.031295e-01
 0.000000e+00 0.000000e+00 0.000000e+00 0.000000e+00 0.000000e+00
<ENDHMM>
~h "bb"
<BEGINHMM>
<NUMSTATES> 5
<STATE> 2
<MEAN> 39
 6.250992e+00 1.056032e+00 -6.581875e+00 -9.573491e+00 -2.782179e+00 -2.312332e-01 -1.552941e+00 4.447750e-01 -1.890116e+00 5.983301e-01 -1.754664e+00 8.536484e-01 7.090653e+00 -8.173818e-02 2.513681e-01 3.325135e-02 4.656143e-01 1.270256e-01 1.034784e-01 2.594042e-01 -3.022532e-01 -4.252076e-01 -5.551633e-01 -1.351907e-01 9.779788e-02 -4.821633e-01 -2.151908e-02 1.291938e-02 1.013249e-01 2.587121e-01 1.176588e-01 4.777071e-02 -9.261834e-03 -6.825036e-02 1.839052e-02 3.847215e-02 3.909676e-02 -7.003839e-02 -1.627813e-01
<VARIANCE> 39
 3.535596e+01 7.186900e+01 2.803312e+01 4.962682e+01 3.057670e+01 2.119038e+01 2.195967e+01 4.493077e+01 4.118779e+01 3.494806e+01 4.385909e+01 2.902981e+01 5.801147e+01 2.752292e-01 4.212344e-01 5.545995e-01 1.358296e+00 8.821017e-01 5.774739e-01 5.104101e-01 8.463245e-01 7.493334e-01 6.629674e-01 7.208931e-01 5.938677e-01 6.465314e-01 3.681223e-02 7.120632e-02 5.827047e-02 2.155715e-01 8.678781e-02 8.517671e-02 5.465068e-02 1.258522e-01 1.047544e-01 7.374993e-02 8.525668e-02 5.352303e-02 8.803796e-02
<GCONST> 7.977857e+01
<STATE> 3
<MEAN> 39
 5.924095e+00 -1.003663e+00 -5.455393e+00 -2.825127e+00 1.301744e+00 2.965713e+00 -1.021652e+00 -9.481812e-01 -2.347922e+00 -1.261260e+00 -3.207252e+00 -9.501886e-01 4.993742e+00 4.967817e-02 -2.129250e-02 1.969927e-01 9.213461e-01 5.397008e-01 3.846677e-01 4.542539e-01 -1.347721e-01 1.412052e-01 -9.976067e-02 1.366162e-01 -2.243290e-01 -7.211082e-01 -2.166503e-02 -6.199557e-02 -1.648284e-03 -9.750269e-03 -2.186806e-02 -3.834989e-02 -1.774926e-02 4.847496e-02 1.160435e-01 5.292306e-02 1.993773e-02 -2.860589e-02 3.513026e-02
<VARIANCE> 39
 2.357968e+01 7.680021e+01 1.698909e+01 3.459843e+01 2.310857e+01 2.114858e+01 3.519466e+01 2.792700e+01 4.255952e+01 2.342657e+01 3.662939e+01 1.768338e+01 4.814999e+01 6.452892e-01 4.438607e-01 6.305814e-01 1.304178e+00 6.145560e-01 9.087502e-01 5.803861e-01 8.064520e-01 8.174156e-01 5.731099e-01 6.006693e-01 6.084123e-01 5.425038e-01 4.734617e-02 8.185905e-02 5.198963e-02 1.463181e-01 7.162200e-02 8.389977e-02 6.974021e-02 1.050215e-01 1.080052e-01 7.438511e-02 6.748047e-02 5.481860e-02 5.908463e-02
<GCONST> 7.701074e+01
<STATE> 4
<MEAN> 39
 4.197169e+00 5.598139e-03 -4.105452e+00 -2.921401e+00 1.748129e+00 2.443125e+00 -5.738910e-01 -8.699355e-01 -7.050573e-01 1.176014e+00 3.013859e-01 -2.500856e+00 1.740292e+00 -1.513432e-01 -5.474354e-02 9.162759e-02 9.928643e-02 -5.530766e-02 -7.603446e-02 -3.067253e-02 1.135487e-01 8.080314e-02 -1.919878e-02 -6.692869e-02 -6.936412e-02 5.352036e-02 -1.569145e-03 -1.691518e-02 3.495447e-03 -3.733667e-02 -4.304622e-02 -4.647243e-02 -2.315431e-02 1.657643e-02 1.283970e-02 5.659177e-03 -1.350726e-02 3.670659e-02 5.305067e-02
<VARIANCE> 39
 1.217071e+01 3.560091e+01 2.035348e+01 3.352056e+01 1.818481e+01 2.376117e+01 2.540753e+01 2.055225e+01 3.494377e+01 2.587621e+01 3.899668e+01 3.019580e+01 2.297125e+01 3.313320e-01 6.165419e-01 6.906196e-01 1.212629e+00 5.115367e-01 7.870494e-01 6.191713e-01 6.167709e-01 8.201419e-01 6.511891e-01 1.130028e+00 8.328501e-01 6.686200e-01 4.103645e-02 5.468829e-02 7.203268e-02 1.237909e-01 7.692672e-02 7.636178e-02 6.919387e-02 7.581799e-02 9.409061e-02 8.440133e-02 1.365482e-01 1.065574e-01 6.681701e-02
<GCONST> 7.590641e+01
<TRANSP> 5
 0.000000e+00 1.000000e+00 0.000000e+00 0.000000e+00 0.000000e+00
 0.000000e+00 8.034466e-01 1.965534e-01 0.000000e+00 0.000000e+00
 0.000000e+00 0.000000e+00 7.573652e-01 2.426348e-01 0.000000e+00
 0.000000e+00 0.000000e+00 0.000000e+00 9.226849e-01 7.731511e-02
 0.000000e+00 0.000000e+00 0.000000e+00 0.000000e+00 0.000000e+00
<ENDHMM>
~h "bh"
<BEGINHMM>
<NUMSTATES> 5
<STATE> 2
<MEAN> 39
 -7.683563e+00 -3.857857e+00 -2.338675e+00 3.762026e+00 4.629777e+00 1.598432e+00 2.464021e+00 3.879160e+00 5.056932e+00 2.267667e+00 2.022327e+00 1.634018e+00 -1.565580e+01 4.783978e-01 -4.609982e-01 -2.843872e-01 -1.696902e-01 -1.861878e-01 -4.319807e-01 2.320320e-01 3.421118e-01 3.610312e-01 -8.313673e-03 -4.951189e-01 -1.956704e-02 1.965108e+00 1.652461e-01 -7.637284e-03 2.790225e-02 -1.287748e-01 -1.697700e-01 -1.122148e-02 -2.453468e-03 -1.372476e-02 -8.742752e-03 -1.113644e-02 -1.015658e-01 -5.713884e-02 2.658758e-01
<VARIANCE> 39
 1.169591e+02 7.927495e+01 4.733528e+01 4.985337e+01 7.830579e+01 7.729237e+01 4.879522e+01 7.364057e+01 4.219090e+01 3.788099e+01 5.462082e+01 1.979152e+01 5.896965e+02 3.689206e+00 1.973260e+00 2.467849e+00 1.902266e+00 2.607400e+00 3.205038e+00 1.629598e+00 2.023607e+00 1.202066e+00 1.945527e+00 1.305003e+00 5.893595e-01 1.550776e+01 2.699141e-01 2.877776e-01 1.830125e-01 2.324604e-01 2.129409e-01 3.719991e-01 2.199930e-01 1.955572e-01 1.128354e-01 1.588200e-01 1.454048e-01 6.697793e-02 1.569950e+00
<GCONST> 1.167950e+02
<STATE> 3
<MEAN> 39
 5.859618e+00 -6.528823e+00 -7.690886e-01 -1.933440e+00 -2.058333e+00 -2.968343e+00 1.985009e+00 2.912198e+00 4.280557e+00 7.761266e-01 -8.185256e+00 -2.360633e+00 1.146268e+01 2.137080e-01 1.196934e-01 1.081435e+00 -7.160838e-01 -7.472055e-01 6.699395e-03 -2.353170e-03 -2.923632e-01 -5.068700e-01 4.615794e-01 -1.870161e-01 -1.659066e-01 3.713146e-01 -1.772247e-01 9.646994e-02 7.591575e-02 4.154190e-02 1.119967e-01 1.428980e-01 -3.805092e-02 -1.898515e-01 -4.748134e-02 -7.322113e-02 1.300446e-01 2.896268e-02 -1.934226e-01
<VARIANCE> 39
 2.612843e+01 3.241121e+01 1.090104e+02 1.016546e+02 1.061991e+02 4.658483e+01 3.434133e+01 5.571538e+01 5.689771e+01 1.232317e+02 4.746701e+01 2.340407e+01 5.481712e+01 1.451674e+00 1.702374e+00 1.793618e+00 4.180390e+00 3.585230e+00 2.310107e+00 7.257502e-01 3.223910e+00 2.430450e+00 1.274416e+00 1.645073e+00 5.339937e-01 2.522101e+00 1.129096e-01 1.153925e-01 2.043415e-01 4.064746e-01 4.800453e-01 3.281284e-01 1.182308e-01 3.106599e-01 2.297021e-01 2.921030e-01 1.393094e-01 9.720998e-02 5.112191e-01
<GCONST> 1.118212e+02
<STATE> 4
<MEAN> 39
 5.296044e+00 -8.483210e-01 5.734401e+00 -5.104877e+00 -4.820227e+00 -1.021125e+00 2.320268e+00 -6.653613e+00 -2.834510e+00 3.827087e+00 -6.534664e+00 -3.456391e+00 1.041646e+01 5.796464e-02 5.412318e-01 1.964166e-01 2.742334e-01 4.901545e-01 2.674541e-01 -4.694756e-01 -9.452436e-01 -3.311388e-01 -4.640970e-01 1.028377e-01 -1.884926e-01 -4.188792e-01 -2.646759e-02 -3.112917e-02 -1.384771e-01 7.212579e-02 1.336779e-01 5.384083e-02 -8.404949e-02 1.011210e-01 1.046886e-01 -1.643690e-01 2.912923e-02 -4.456980e-02 -3.469958e-02
<VARIANCE> 39
 2.504824e+01 3.221790e+01 3.974619e+01 6.772851e+01 3.599631e+01 5.632389e+01 3.986473e+01 1.102861e+02 4.392495e+01 5.986091e+01 4.626587e+01 4.115071e+01 6.570203e+01 1.042805e+00 1.454526e+00 1.722975e+00 2.548167e+00 1.678689e+00 1.297652e+00 6.147598e-01 2.061925e+00 1.151628e+00 2.792300e+00 1.535221e+00 6.970701e-01 9.465164e-01 8.690453e-02 7.676776e-02 1.130508e-01 2.092842e-01 2.296923e-01 1.968627e-01 7.473829e-02 2.782930e-01 1.278338e-01 2.135581e-01 1.650615e-01 1.061135e-01 8.582206e-02
<GCONST> 1.001515e+02
<TRANSP> 5
 0.000000e+00 1.000000e+00 0.000000e+00 0.000000e+00 0.000000e+00
 0.000000e+00 8.900777e-01 1.099224e-01 0.000000e+00 0.000000e+00
 0.000000e+00 0.000000e+00 8.395299e-01 1.604701e-01 0.000000e+00
 0.000000e+00 0.000000e+00 0.000000e+00 8.128175e-01 1.871825e-01
 0.000000e+00 0.000000e+00 0.000000e+00 0.000000e+00 0.000000e+00
<ENDHMM>
~h "dd"
<BEGINHMM>
<NUMSTATES> 5
<STATE> 2
<MEAN> 39
 2.589360e+00 5.538891e+00 7.964766e+00 1.635074e+00 -3.854311e+00 -2.294768e+00 3.716143e-01 -2.829340e+00 -2.361606e+00 1.010644e+00 1.522373e+00 4.058481e-01 -4.032653e-01 -2.583185e-02 3.246695e-01 -4.047939e-01 5.612574e-01 8.118681e-01 3.670004e-01 2.461084e-01 1.167566e-01 2.269099e-01 -1.676399e-01 -2.387028e-01 -1.736752e-01 -7.755896e-01 -8.321292e-02 -4.902724e-02 -2.783358e-02 -6.207261e-02 8.611008e-03 1.740380e-02 -3.033499e-03 -1.013810e-02 4.567005e-03 1.220461e-02 2.159301e-02 2.059534e-02 5.258269e-02
<VARIANCE> 39
 1.317041e+01 2.153619e+01 3.493680e+01 6.573803e+01 3.475045e+01 7.647708e+01 3.006239e+01 4.322902e+01 3.993379e+01 3.166324e+01 2.912642e+01 2.288568e+01 3.490822e+01 3.613489e-01 4.002658e-01 5.628821e-01 7.793325e-01 8.610070e-01 6.913218e-01 6.859796e-01 7.917387e-01 7.439796e-01 6.111850e-01 6.360703e-01 5.034046e-01 5.632802e-01 3.747678e-02 3.653264e-02 4.040560e-02 7.979745e-02 6.829298e-02 9.082503e-02 8.745176e-02 8.587658e-02 6.955077e-02 6.875292e-02 6.182168e-02 4.977868e-02 5.179441e-02
<GCONST> 7.453672e+01
<STATE> 3
<MEAN> 39
 1.068491e+00 6.356542e+00 4.691480e+00 6.029184e+00 1.111405e+00 -8.976886e-01 1.548864e+00 -3.082296e+00 -2.488128e+00 1.529662e-01 2.076731e+00 1.154154e-01 -6.306040e+00 -4.524394e-01 -2.890042e-01 -5.402915e-01 7.415178e-02 6.303114e-01 1.237568e-01 6.600661e-02 1.588476e-01 8.364662e-02 -4.583214e-02 6.051475e-02 3.287037e-02 -3.425090e-01 -6.413127e-02 -1.594949e-01 -1.405132e-02 -1.730274e-01 -1.418727e-01 -1.032341e-01 -2.259736e-02 5.972310e-02 6.356198e-02 -1.396742e-02 1.681925e-02 3.878691e-02 2.377983e-01
<VARIANCE> 39
 1.275725e+01 2.636007e+01 2.518861e+01 3.279629e+01 3.533872e+01 3.914333e+01 3.175773e+01 3.485387e+01 4.379889e+01 3.317839e+01 2.701941e+01 2.595536e+01 2.745502e+01 2.884009e-01 4.539762e-01 5.523273e-01 7.368554e-01 5.772499e-01 7.603070e-01 7.244291e-01 6.674008e-01 5.790493e-01 4.458103e-01 5.111277e-01 3.403951e-01 5.864191e-01 3.367508e-02 6.169360e-02 4.824908e-02 6.852623e-02 7.898995e-02 7.758512e-02 1.241097e-01 7.862732e-02 9.164263e-02 7.191104e-02 7.166067e-02 4.568437e-02 8.275617e-02
<GCONST> 7.263249e+01
<STATE> 4
<MEAN> 39
 -4.917777e+00 3.656561e+00 1.407119e+00 4.305835e+00 5.856598e+00 2.364681e+00 1.855892e+00 3.425300e-01 8.632020e-01 1.449195e+00 3.750878e+00 3.303988e-01 -1.875035e+01 -2.541132e-01 -3.997322e-01 -2.774912e-01 -2.528123e-01 2.964962e-02 -1.190200e-01 1.391511e-02 2.638955e-01 2.858976e-01 -5.531625e-02 -3.258148e-02 6.862742e-02 3.237372e-01 9.311812e-02 -9.163131e-02 4.688377e-02 -1.190649e-01 -2.401560e-01 -1.308182e-01 -4.905134e-02 6.682298e-02 6.536688e-02 1.872348e-02 -5.422896e-02 9.633913e-03 3.570592e-01
<VARIANCE> 39
 5.022560e+01 2.350632e+01 2.947274e+01 3.095949e+01 3.996982e+01 3.341230e+01 2.319112e+01 3.755626e+01 4.183462e+01 3.158654e+01 1.731251e+01 1.977313e+01 3.189370e+02 1.213731e+00 1.046854e+00 7.563276e-01 8.471897e-01 8.199313e-01 1.048967e+00 7.099586e-01 9.945713e-01 8.669278e-01 5.057872e-01 5.161294e-01 4.119366e-01 4.445191e+00 1.121018e-01 7.420056e-02 7.861217e-02 9.537511e-02 1.206878e-01 1.168889e-01 1.172719e-01 1.010964e-01 1.174291e-01 7.938561e-02 7.048678e-02 6.300046e-02 3.287335e-01
<GCONST> 8.715245e+01
<TRANSP> 5
 0.000000e+00 1.000000e+00 0.000000e+00 0.000000e+00 0.000000e+00
 0.000000e+00 8.141047e-01 1.858953e-01 0.000000e+00 0.000000e+00
 0.000000e+00 0.000000e+00 7.255363e-01 2.744636e-01 0.000000e+00
 0.000000e+00 0.000000e+00 0.000000e+00 6.796598e-01 3.203402e-01
 0.000000e+00 0.000000e+00 0.000000e+00 0.000000e+00 0.000000e+00
<ENDHMM>
~h "dh"
<BEGINHMM>
<NUMSTATES> 5
<STATE> 2
<MEAN> 39
 5.418444e+00 4.543226e-01 -2.142890e-01 -1.319781e+00 1.632894e+00 -1.082461e+00 5.509992e-01 -1.595520e+00 -5.079145e+00 -4.231404e+00 -3.064819e+00 -6.145564e+00 3.628224e+00 -5.031871e-01 5.279809e-02 8.319504e-01 2.882923e-01 -2.847619e-01 -2.688529e-01 1.064595e-01 -4.060349e-01 -1.495077e-01 -3.471520e-01 -4.688300e-01 -3.914641e-03 4.550979e-02 -7.947034e-02 -7.864636e-03 -1.564827e-02 -1.170016e-01 -1.081375e-01 -5.394747e-02 -1.026367e-02 -9.828568e-02 1.430591e-01 4.720841e-02 -7.222164e-02 1.810706e-01 1.102139e-01
<VARIANCE> 39
 4.604834e+01 4.849831e+01 4.201200e+01 4.882750e+01 4.941107e+01 1.887552e+01 3.762024e+01 3.671248e+01 3.812155e+01 6.087653e+01 1.878619e+01 3.902871e+01 4.481919e+01 1.538873e+00 1.107506e+00 1.287050e+00 3.853828e+00 7.009377e-01 5.642024e-01 7.200235e-01 1.613314e+00 2.177120e+00 1.543776e+00 6.940564e-01 1.272678e+00 1.424040e+00 1.545969e-01 1.447447e-01 1.272397e-01 2.242895e-01 8.275650e-02 5.695338e-02 1.028318e-01 1.785113e-01 1.733073e-01 1.506592e-01 8.876862e-02 1.486681e-01 1.379597e-01
<GCONST> 9.536608e+01
<STATE> 3
<MEAN> 39
 1.870453e+00 1.135382e+00 2.242203e+00 -1.220997e+00 -2.584371e+00 -1.739294e+00 -4.665713e-01 -5.323186e+00 -3.821915e+00 -2.718626e+00 -4.248382e+00 -2.895230e+00 5.529780e+00 -4.848146e-01 8.339114e-02 9.828530e-02 -3.290575e-01 -7.336528e-01 -2.853866e-01 -1.166944e-01 -4.800706e-01 4.265128e-02 -3.978578e-01 -3.567699e-01 6.434274e-01 5.086741e-01 5.923269e-02 -3.827031e-02 -1.363384e-01 2.343673e-02 5.828762e-02 7.272446e-02 -1.175257e-02 1.866442e-01 5.199934e-02 9.130626e-02 4.544579e-02 -6.933318e-03 -1.643943e-02
<VARIANCE> 39
 2.867255e+01 5.178448e+01 3.726497e+01 7.303411e+01 5.684639e+01 2.385813e+01 3.727383e+01 4.920194e+01 3.021159e+01 3.890007e+01 2.204837e+01 3.841628e+01 7.203905e+01 7.772924e-01 1.744786e+00 6.660857e-01 1.351864e+00 1.344377e+00 4.306897e-01 9.208796e-01 8.931202e-01 4.345281e-01 9.760327e-01 1.083751e+00 7.881629e-01 1.931949e+00 5.852489e-02 1.481912e-01 6.714737e-02 1.499320e-01 1.173027e-01 5.965503e-02 7.985140e-02 8.055335e-02 7.002609e-02 1.139593e-01 8.306343e-02 6.829230e-02 1.676953e-01
<GCONST> 8.766206e+01
<STATE> 4
<MEAN> 39
 1.849421e+00 -3.163276e-01 3.880678e+00 -5.549265e+00 -6.551598e+00 -2.462538e+00 -2.613443e-01 -3.843866e+00 -2.543568e+00 -5.248788e+00 -2.503271e+00 4.701712e-01 6.960401e+00 -1.375038e-02 7.466196e-02 5.899633e-02 1.766238e-02 4.225307e-04 -3.964861e-02 -8.660510e-02 3.909504e-02 8.707952e-02 -3.253125e-02 1.317136e-02 6.477326e-02 -8.045179e-02 -8.803154e-03 -6.613695e-03 -1.089861e-03 6.234400e-03 2.071497e-02 7.611792e-03 -2.223324e-04 1.632481e-02 -1.768640e-03 3.583815e-02 1.276487e-02 -1.394991e-02 -2.572739e-03
<VARIANCE> 39
 1.264795e+01 4.620544e+01 3.766110e+01 6.580917e+01 3.975951e+01 2.949985e+01 8.791135e+01 3.564186e+01 3.646273e+01 5.117899e+01 3.171031e+01 2.879790e+01 2.643703e+01 1.511761e-01 7.606431e-01 5.576584e-01 7.055663e-01 9.699513e-01 5.789624e-01 1.597449e+00 8.179104e-01 8.238848e-01 1.005180e+00 6.999671e-01 7.737662e-01 3.656628e-01 1.379507e-02 6.175250e-02 5.229529e-02 6.403022e-02 1.005505e-01 6.795511e-02 1.368288e-01 8.908741e-02 8.894902e-02 1.089745e-01 8.303484e-02 8.830265e-02 3.391363e-02
<GCONST> 7.829426e+01
<TRANSP> 5
 0.000000e+00 1.000000e+00 0.000000e+00 0.000000e+00 0.000000e+00
 0.000000e+00 6.518928e-01 3.481071e-01 0.000000e+00 0.000000e+00
 0.000000e+00 0.000000e+00 5.539879e-01 4.460121e-01 0.000000e+00
 0.000000e+00 0.000000e+00 0.000000e+00 9.538531e-01 4.614686e-02
 0.000000e+00 0.000000e+00 0.000000e+00 0.000000e+00 0.000000e+00
<ENDHMM>
~h "dx"
<BEGINHMM>
<NUMSTATES> 5
<STATE> 2
<MEAN> 39
 4.677791e+00 -9.707024e-02 5.101430e+00 2.077469e+00 -7.540208e+00 -1.922117e+00 4.820681e-01 -2.149907e+00 1.238597e-02 2.606446e+00 1.154591e+00 1.144824e-01 5.511027e+00 -1.362508e-01 1.352679e-01 7.427128e-02 -1.492025e-01 -5.194271e-02 -4.008859e-01 1.781319e-02 6.945120e-02 -1.894067e-02 2.402204e-01 1.303332e-02 1.319782e-01 2.357403e-01 -3.964474e-02 2.665882e-02 -6.361143e-02 -1.192123e-01 1.262642e-01 4.282672e-02 -1.969100e-02 1.998522e-02 -1.834320e-02 -2.226440e-02 -6.181879e-02 1.260548e-02 3.539456e-03
<VARIANCE> 39
 4.281729e+01 8.345090e+01 1.181328e+02 1.152994e+02 1.031508e+02 7.903275e+01 8.682592e+01 8.195319e+01 7.461095e+01 5.893460e+01 4.180493e+01 3.796025e+01 4.366574e+01 1.183668e+00 2.160615e+00 2.871272e+00 4.502321e+00 2.695861e+00 2.724187e+00 2.538042e+00 2.768534e+00 1.986906e+00 2.064602e+00 1.408885e+00 1.272157e+00 1.803261e+00 1.239125e-01 1.883553e-01 2.437670e-01 5.511361e-01 3.042873e-01 3.555948e-01 2.681387e-01 3.041417e-01 2.125039e-01 2.234629e-01 1.808695e-01 1.539079e-01 2.227418e-01
<GCONST> 1.181897e+02
<STATE> 3
<MEAN> 39
