~o
<STREAMINFO> 1 39
<VECSIZE> 39<NULLD><MFCC_D_A_Z_0><DIAGC>
~s "silst"
<MEAN> 39
 -2.525067e+00 -1.792392e+00 -4.498285e+00 8.029625e+00 4.367234e+00 4.487372e+00 1.174346e+00 8.399274e-01 1.827446e+00 1.541651e+00 3.592953e+00 1.163365e+00 -9.279606e+00 -5.772877e-02 2.123034e-02 -4.020658e-02 2.522255e-02 -5.426907e-03 2.913222e-02 1.416066e-02 -4.996933e-02 2.136638e-02 -4.658556e-03 -5.429303e-02 -4.551547e-03 -7.595220e-02 9.687149e-03 6.314334e-03 1.415213e-02 -5.665663e-04 6.985999e-03 3.370057e-03 4.420109e-03 7.704158e-03 8.253775e-03 -7.267477e-03 -7.483150e-03 5.985155e-03 7.026327e-03
<VARIANCE> 39
 1.086104e+01 4.725182e+01 2.592401e+01 3.668834e+01 3.038933e+01 2.953212e+01 6.442700e+01 3.601338e+01 3.572805e+01 3.673405e+01 3.189109e+01 1.937713e+01 2.479566e+01 1.044776e-01 1.675129e-01 2.288472e-01 2.602208e-01 3.609903e-01 4.339379e-01 4.518818e-01 4.483678e-01 3.920602e-01 4.762302e-01 3.733794e-01 3.326595e-01 8.259647e-02 1.101071e-02 1.979781e-02 2.823912e-02 3.351083e-02 4.689451e-02 5.276571e-02 6.010575e-02 5.507511e-02 5.119121e-02 5.875535e-02 4.888884e-02 4.338139e-02 7.175460e-03
<GCONST> 5.556078e+01
~h "a"
<BEGINHMM>
<NUMSTATES> 5
<STATE> 2
<MEAN> 39
 4.376257e+00 -5.313600e+00 -3.228672e+00 -1.987169e+00 -1.879665e+00 -1.989770e+00 -2.193166e-01 5.419672e+00 3.781587e+00 2.099644e-02 -3.546411e+00 -1.058677e+00 9.890060e+00 3.409465e-01 -7.699848e-01 -4.419977e-01 -4.005432e-01 -1.619876e-01 4.213043e-02 -1.292197e-01 6.776178e-01 3.244070e-01 -2.288318e-01 -7.444803e-01 -4.893349e-02 1.124625e+00 -7.085478e-02 2.059246e-01 1.273077e-01 1.578933e-01 9.159220e-02 8.492754e-02 2.631823e-02 -2.254881e-01 -1.609905e-01 -1.892628e-02 1.127229e-01 8.535542e-03 -3.049309e-01
<VARIANCE> 39
 3.501234e+01 4.735278e+01 5.849765e+01 5.175385e+01 7.305701e+01 7.206312e+01 7.076319e+01 5.992342e+01 1.047587e+02 6.167758e+01 5.393217e+01 3.485563e+01 7.265706e+01 1.187423e+00 1.560558e+00 1.819100e+00 1.760786e+00 2.091264e+00 2.013591e+00 2.087508e+00 1.766066e+00 2.145314e+00 1.719779e+00 1.425494e+00 1.106065e+00 2.266427e+00 1.163319e-01 1.583251e-01 1.650559e-01 1.778323e-01 2.351233e-01 2.299831e-01 2.482099e-01 2.308567e-01 2.475835e-01 2.161338e-01 1.910833e-01 1.264213e-01 2.531965e-01
<GCONST> 1.104036e+02
<STATE> 3
<MEAN> 39
 3.637522e+00 -6.749587e+00 -3.082601e+00 -3.486213e+00 -2.919420e+00 -2.676639e+00 3.370579e-01 6.651912e+00 2.963641e+00 -1.679215e+00 -5.397149e+00 -5.284873e-01 1.283969e+01 5.459274e-02 3.083332e-01 2.196989e-01 4.043783e-01 1.725341e-01 1.402524e-01 3.200223e-02 -3.685497e-01 -3.031290e-01 -1.404627e-01 1.505969e-01 1.254911e-02 -4.957722e-01 -3.681872e-02 2.691625e-01 1.554209e-01 2.346004e-01 7.634308e-02 2.210191e-02 -3.393180e-03 -2.839687e-01 -9.825707e-02 7.154935e-02 2.275362e-01 -9.205794e-04 -3.719191e-01
<VARIANCE> 39
 2.296168e+01 2.785487e+01 4.378652e+01 3.481062e+01 5.410122e+01 5.340099e+01 6.834063e+01 4.905195e+01 9.078335e+01 5.737923e+01 3.727764e+01 3.039991e+01 4.014692e+01 5.615948e-01 7.781089e-01 1.072399e+00 1.037290e+00 1.437323e+00 1.403404e+00 1.509860e+00 1.124406e+00 1.163098e+00 1.073079e+00 1.034044e+00 7.474425e-01 6.830817e-01 9.394018e-02 9.239830e-02 1.022741e-01 1.245101e-01 1.744294e-01 1.654875e-01 2.017193e-01 1.687832e-01 1.802263e-01 1.648873e-01 1.164151e-01 1.044812e-01 6.127885e-02
<GCONST> 9.417635e+01
<STATE> 4
<MEAN> 39
 3.986554e+00 -3.894166e+00 -3.434901e+00 4.620946e-01 9.661957e-01 2.775231e-01 6.157341e-01 2.229333e+00 3.665500e-01 -2.335877e+00 -2.669451e+00 -1.552916e+00 4.551050e+00 -7.486937e-02 5.084588e-01 2.772306e-01 5.090525e-01 1.529811e-01 8.582388e-02 1.650776e-01 -4.314797e-01 -3.023312e-01 -4.071441e-02 3.364312e-01 4.136628e-02 -9.790979e-01 -3.971879e-02 4.141354e-03 6.624855e-04 -4.588364e-02 -2.643205e-02 -1.934488e-02 2.804264e-03 2.635521e-02 2.099094e-02 3.136453e-02 1.317790e-02 1.149666e-02 1.939915e-02
<VARIANCE> 39
 2.093005e+01 3.269453e+01 4.911515e+01 4.814554e+01 5.536887e+01 4.912606e+01 5.159059e+01 4.019777e+01 5.655736e+01 4.959399e+01 3.213507e+01 2.981307e+01 6.094788e+01 6.980134e-01 6.620761e-01 7.839417e-01 8.695844e-01 8.627889e-01 1.052725e+00 1.122170e+00 9.718237e-01 1.272577e+00 8.973333e-01 6.940085e-01 6.394606e-01 6.455892e-01 4.399054e-02 5.828581e-02 6.807226e-02 7.690370e-02 8.743670e-02 9.256485e-02 1.051058e-01 9.737919e-02 1.058986e-01 8.857111e-02 7.907832e-02 6.694086e-02 4.896712e-02
<GCONST> 8.460744e+01
<TRANSP> 5
 0.000000e+00 1.000000e+00 0.000000e+00 0.000000e+00 0.000000e+00
 0.000000e+00 6.046188e-01 3.953812e-01 0.000000e+00 0.000000e+00
 0.000000e+00 0.000000e+00 6.254033e-01 3.745967e-01 0.000000e+00
 0.000000e+00 0.000000e+00 0.000000e+00 7.407348e-01 2.592653e-01
 0.000000e+00 0.000000e+00 0.000000e+00 0.000000e+00 0.000000e+00
<ENDHMM>
~h "b"
<BEGINHMM>
<NUMSTATES> 5
<STATE> 2
<MEAN> 39
 5.363688e+00 5.308751e-01 -5.430139e-01 2.620615e+00 -4.196512e-01 -1.037686e+00 -1.254072e+00 -1.182888e+00 -1.289627e+00 1.838691e-01 -1.511914e+00 -1.732822e+00 1.732730e+00 1.604249e-01 6.265060e-01 -1.889918e-03 -2.918311e-02 3.936747e-02 1.761494e-01 -4.797412e-02 -1.879314e-01 -2.411788e-01 4.002442e-03 6.857397e-02 -3.035502e-02 -1.421030e-01 -5.627933e-02 -6.128896e-02 -4.900167e-02 -2.088508e-01 -3.764202e-02 3.343497e-03 -1.270578e-02 5.250767e-02 7.634432e-02 4.997500e-02 3.472480e-03 2.008023e-02 1.863081e-01
<VARIANCE> 39
 2.558337e+01 4.227996e+01 4.784653e+01 7.872839e+01 5.731396e+01 7.516325e+01 5.555195e+01 6.571044e+01 6.305197e+01 6.422533e+01 6.841242e+01 4.706421e+01 4.836079e+01 8.085032e-01 1.160219e+00 1.302490e+00 3.072348e+00 1.735051e+00 2.362042e+00 1.872472e+00 1.150044e+00 1.549306e+00 1.368039e+00 1.957266e+00 1.690313e+00 1.742353e+00 8.159971e-02 1.367235e-01 1.476758e-01 3.459329e-01 2.000132e-01 3.683699e-01 2.340260e-01 1.847235e-01 2.147629e-01 2.193894e-01 2.175567e-01 1.949306e-01 2.134402e-01
<GCONST> 1.087545e+02
<STATE> 3
<MEAN> 39
 6.011307e+00 4.752119e+00 4.250957e-01 3.130586e+00 4.097393e-01 -7.161688e-01 -9.131832e-01 -1.468994e+00 -2.213422e+00 -1.801625e+00 -1.534684e+00 -3.110368e+00 1.858232e-01 9.384399e-02 -2.952849e-01 -2.792303e-01 -1.179563e-01 3.896448e-01 1.184086e-01 6.776417e-02 1.763113e-01 4.843286e-01 3.670076e-01 4.184804e-02 -1.140390e-01 2.573536e-01 -2.678460e-02 -3.766211e-01 -2.026122e-01 -3.173056e-01 -1.427307e-01 -9.416178e-02 -9.237109e-02 1.191640e-01 2.087645e-01 1.762449e-01 -7.215751e-02 9.647641e-02 4.308452e-01
<VARIANCE> 39
 2.251006e+01 3.044273e+01 4.696142e+01 8.286566e+01 5.630647e+01 5.215465e+01 4.739043e+01 5.194457e+01 5.431047e+01 4.417789e+01 3.878627e+01 3.183743e+01 5.869772e+01 7.065793e-01 1.483049e+00 1.828437e+00 1.976938e+00 1.150599e+00 1.222942e+00 1.211722e+00 1.073982e+00 1.612254e+00 1.331669e+00 1.055570e+00 1.046593e+00 1.625953e+00 9.451901e-02 1.673073e-01 2.243491e-01 2.950728e-01 2.406496e-01 1.808244e-01 2.046327e-01 1.886295e-01 1.713605e-01 1.697931e-01 1.873413e-01 1.368051e-01 1.956681e-01
<GCONST> 1.024441e+02
<STATE> 4
<MEAN> 39
 3.700074e+00 1.327679e+00 3.646407e-02 3.236643e+00 2.819930e+00 6.531938e-01 5.777588e-01 -1.794893e+00 -6.724906e-01 5.872600e-02 2.472423e-01 -1.114867e+00 -9.818729e-01 5.838051e-02 -6.449677e-01 -4.167081e-01 -5.830149e-01 -2.681827e-01 -2.609757e-01 -2.180413e-01 3.565588e-01 3.614605e-01 3.633425e-01 7.816069e-02 1.502325e-01 6.658272e-01 2.096167e-02 -9.876024e-02 -8.158060e-03 -1.558773e-01 -1.783900e-01 -6.206429e-02 -9.075369e-02 4.331763e-02 2.216542e-02 1.222600e-02 -7.579061e-02 1.696511e-02 2.249583e-01
<VARIANCE> 39
 2.639083e+01 2.513354e+01 4.153979e+01 3.762524e+01 2.904638e+01 2.904617e+01 3.085030e+01 3.545247e+01 3.971447e+01 3.417849e+01 2.939103e+01 2.292245e+01 3.703405e+01 5.938017e-01 1.331310e+00 1.788040e+00 1.478963e+00 1.363510e+00 1.216192e+00 1.211932e+00 1.231236e+00 1.442918e+00 1.619731e+00 1.141573e+00 7.242866e-01 1.564327e+00 6.477612e-02 8.841844e-02 1.189123e-01 1.091473e-01 1.041004e-01 8.950123e-02 9.376580e-02 1.087774e-01 9.646940e-02 1.071779e-01 1.171313e-01 7.137279e-02 7.271218e-02
<GCONST> 8.860593e+01
<TRANSP> 5
 0.000000e+00 1.000000e+00 0.000000e+00 0.000000e+00 0.000000e+00
 0.000000e+00 6.113122e-01 3.886878e-01 0.000000e+00 0.000000e+00
 0.000000e+00 0.000000e+00 5.361555e-01 4.638445e-01 0.000000e+00
 0.000000e+00 0.000000e+00 0.000000e+00 6.612282e-01 3.387718e-01
 0.000000e+00 0.000000e+00 0.000000e+00 0.000000e+00 0.000000e+00
<ENDHMM>
~h "c"
<BEGINHMM>
<NUMSTATES> 5
<STATE> 2
<MEAN> 39
 -1.271957e+00 1.395288e+00 -4.400730e-01 5.503719e-01 3.734327e+00 1.178566e+00 -2.992099e+00 -6.731226e-02 8.496867e-01 1.429755e+00 2.878711e+00 6.749237e-01 -1.189087e+01 -9.806042e-01 -1.952206e-02 1.511668e-01 -2.440526e-01 -1.582771e-01 1.456304e-01 1.115204e-01 2.435719e-01 -5.458071e-02 -1.199534e-01 1.964604e-01 -1.003543e-01 9.758555e-01 -1.721618e-01 6.069908e-02 8.273427e-02 -8.639001e-02 -6.877074e-02 -4.899093e-02 6.508700e-02 -1.497642e-02 -4.068057e-02 3.106475e-02 2.914175e-03 -3.727542e-02 1.888961e-01
<VARIANCE> 39
 1.270724e+02 4.373290e+01 4.354023e+01 5.124678e+01 4.811914e+01 5.170888e+01 6.798962e+01 5.233499e+01 3.124278e+01 3.890973e+01 3.756611e+01 2.159648e+01 4.639267e+02 4.845373e+00 1.459062e+00 1.462110e+00 2.154648e+00 1.821327e+00 1.674447e+00 1.927089e+00 1.354857e+00 1.159988e+00 1.347865e+00 1.071392e+00 5.682719e-01 1.001753e+01 4.608565e-01 1.583204e-01 1.915990e-01 2.688750e-01 1.918203e-01 2.024263e-01 2.139451e-01 1.239676e-01 1.368301e-01 1.658987e-01 1.154159e-01 7.236663e-02 8.374574e-01
<GCONST> 1.101712e+02
<STATE> 3
<MEAN> 39
 -1.598716e+01 2.192535e+00 5.707108e+00 -3.568991e+00 8.618267e-01 1.161830e-01 2.951262e+00 1.924174e+00 -2.541586e+00 2.229795e+00 4.902765e+00 -2.831316e+00 7.564615e+00 -3.350960e-01 6.454057e-02 1.097148e+00 -2.146317e-01 -1.101010e+00 -5.347939e-01 5.867801e-01 -8.403860e-02 -4.769154e-01 1.779875e-01 2.525548e-01 -4.314914e-01 9.913427e-01 8.669314e-01 8.815455e-04 -9.037888e-02 1.289002e-01 -1.533879e-01 -1.108393e-01 -1.919851e-01 -1.736409e-01 6.881687e-02 -1.902589e-02 -1.543611e-01 1.032128e-01 -2.144821e-01
<VARIANCE> 39
 6.009964e+01 3.451375e+01 3.665204e+01 2.688585e+01 3.721420e+01 3.015353e+01 5.202881e+01 3.668576e+01 4.260263e+01 6.142468e+01 4.971264e+01 3.216563e+01 3.223036e+01 5.425356e+00 1.098526e+00 1.258224e+00 1.060372e+00 9.446028e-01 1.084010e+00 1.519737e+00 1.520271e+00 1.315290e+00 9.508198e-01 1.493064e+00 8.079898e-01 1.052182e+00 3.153822e-01 1.416581e-01 1.646843e-01 9.173732e-02 1.482936e-01 9.843434e-02 1.550337e-01 1.217656e-01 1.620117e-01 1.435539e-01 1.630786e-01 1.148772e-01 8.900715e-02
<GCONST> 9.724607e+01
<STATE> 4
<MEAN> 39
 -6.708791e-01 5.650885e+00 3.373482e+00 -9.877840e-01 -8.867674e+00 -2.496018e+00 -2.335132e+00 -3.659796e+00 5.490309e-01 6.466178e-01 2.605136e+00 -2.195152e+00 9.254682e+00 1.238621e+00 3.583775e-01 -3.316911e-02 1.072294e-01 -3.311863e-01 -2.744006e-01 -4.576756e-01 -3.745250e-01 3.562585e-03 2.569320e-01 -3.270127e-02 -5.362376e-02 1.921622e-01 -7.598244e-02 3.639728e-02 -1.585439e-01 -7.815208e-02 2.594254e-01 1.942695e-01 -3.291464e-02 -3.264448e-02 -5.902626e-02 6.792197e-03 4.170925e-02 4.440659e-02 -1.697512e-01
<VARIANCE> 39
 8.081736e+01 8.528745e+01 9.829082e+01 7.122832e+01 5.339590e+01 6.170893e+01 7.877591e+01 8.640074e+01 5.613051e+01 5.860439e+01 3.106400e+01 2.818712e+01 4.103748e+01 3.990182e+00 1.758214e+00 1.239197e+00 1.827366e+00 2.399260e+00 1.745893e+00 1.529573e+00 1.696721e+00 1.478371e+00 1.810837e+00 1.199045e+00 8.562222e-01 1.365451e+00 2.488533e-01 1.450284e-01 1.133489e-01 2.358829e-01 2.215613e-01 2.471971e-01 1.348245e-01 2.535619e-01 1.719710e-01 1.970048e-01 1.351430e-01 1.018864e-01 1.438057e-01
<GCONST> 1.085235e+02
<TRANSP> 5
 0.000000e+00 1.000000e+00 0.000000e+00 0.000000e+00 0.000000e+00
 0.000000e+00 8.865522e-01 1.134477e-01 0.000000e+00 0.000000e+00
 0.000000e+00 0.000000e+00 8.010561e-01 1.989440e-01 0.000000e+00
 0.000000e+00 0.000000e+00 0.000000e+00 6.835778e-01 3.164222e-01
 0.000000e+00 0.000000e+00 0.000000e+00 0.000000e+00 0.000000e+00
<ENDHMM>
~h "d"
<BEGINHMM>
<NUMSTATES> 5
<STATE> 2
<MEAN> 39
 5.612042e+00 4.730366e+00 2.985125e+00 4.728344e+00 6.763700e-01 -1.463444e+00 1.552963e+00 -1.681416e+00 -1.728445e+00 -1.157437e+00 -1.764273e+00 -1.659962e+00 -6.149893e-01 -6.156476e-01 -3.448756e-01 -5.079219e-02 -1.194607e-01 2.151545e-01 -1.602690e-01 2.396639e-01 4.246674e-01 1.087525e-01 5.325250e-02 4.512776e-01 -1.101828e-01 1.833619e-01 -1.645810e-01 -2.587169e-01 -4.181553e-02 -3.889820e-01 -3.092796e-01 -2.035314e-01 -1.468809e-01 9.472819e-02 1.541013e-01 1.185185e-01 8.450495e-04 1.264581e-01 5.364804e-01
<VARIANCE> 39
 2.677757e+01 4.356592e+01 4.621804e+01 3.334608e+01 5.129090e+01 4.601068e+01 5.304441e+01 5.213882e+01 4.779114e+01 4.051484e+01 3.765310e+01 2.576207e+01 3.416594e+01 7.923770e-01 1.304418e+00 1.192101e+00 1.213325e+00 1.326473e+00 1.418066e+00 1.359869e+00 1.445892e+00 1.423959e+00 1.233196e+00 1.049525e+00 8.867188e-01 1.249625e+00 1.215653e-01 1.507339e-01 1.514644e-01 1.520451e-01 1.804719e-01 2.747759e-01 2.300933e-01 2.120121e-01 2.004090e-01 1.686762e-01 1.490795e-01 1.143001e-01 9.970556e-02
<GCONST> 9.861211e+01
<STATE> 3
<MEAN> 39
 -1.670339e+00 -1.801501e-01 3.325010e+00 8.591423e-01 1.441743e+00 -4.607045e+00 2.465588e+00 6.235642e-01 -7.287370e-01 -1.038561e+00 1.736433e+00 -1.080310e+00 5.005117e+00 -3.437344e-01 -7.827397e-01 -1.799502e-01 -9.354349e-01 -8.723674e-01 -1.090489e+00 -6.627703e-01 5.339707e-01 5.310650e-01 3.389686e-01 1.354721e-01 3.541958e-01 1.520476e+00 2.761063e-01 8.460952e-02 -6.731097e-02 -1.282199e-01 -2.146017e-01 5.624069e-02 -2.829503e-01 -9.152197e-02 6.385309e-02 1.114867e-01 -1.913249e-01 5.819299e-02 1.254501e-01
<VARIANCE> 39
 2.907215e+01 3.971757e+01 3.577553e+01 3.220100e+01 4.613722e+01 6.050856e+01 5.148936e+01 3.951866e+01 4.571077e+01 4.164394e+01 3.793723e+01 3.028978e+01 5.451997e+01 9.041542e-01 1.184131e+00 1.580155e+00 1.234707e+00 1.820894e+00 2.258744e+00 2.414150e+00 2.209315e+00 1.913702e+00 1.498052e+00 1.407171e+00 9.239598e-01 9.802117e-01 9.648243e-02 1.628449e-01 1.475129e-01 1.387075e-01 1.446365e-01 1.965986e-01 1.499440e-01 1.635390e-01 1.403722e-01 1.623720e-01 1.433886e-01 1.206444e-01 1.408402e-01
<GCONST> 9.993842e+01
<STATE> 4
<MEAN> 39
 2.013549e+00 -9.704314e-01 2.048445e+00 -1.432473e+00 -4.684556e+00 -8.925649e+00 -3.340713e+00 1.871712e+00 1.242662e+00 1.021972e+00 -7.023407e-01 1.332645e+00 9.422319e+00 2.297336e-01 -2.526522e-01 -4.742313e-01 -9.122667e-01 -7.706770e-01 -1.345871e-01 -9.394952e-01 1.611471e-01 4.890857e-01 5.293623e-01 -2.096972e-01 2.291756e-01 1.005412e+00 1.330495e-01 1.652592e-01 -2.727430e-02 7.421596e-02 1.746649e-01 3.971648e-01 1.034273e-01 -1.663298e-01 -1.457577e-01 -7.715348e-02 -7.299236e-02 -8.698780e-02 -2.564914e-01
<VARIANCE> 39
 1.396678e+01 2.063190e+01 2.613384e+01 2.384373e+01 4.569876e+01 4.171121e+01 7.863857e+01 4.429237e+01 4.876343e+01 3.742221e+01 3.331316e+01 2.641365e+01 3.503443e+01 1.101300e+00 1.326843e+00 1.838284e+00 1.185937e+00 1.786742e+00 1.472305e+00 2.004761e+00 2.211450e+00 1.724670e+00 1.513238e+00 1.183478e+00 9.800599e-01 9.655555e-01 6.267668e-02 9.541327e-02 9.146861e-02 1.052608e-01 1.490606e-01 1.525036e-01 1.935661e-01 1.347940e-01 1.431227e-01 1.225131e-01 1.322321e-01 1.140554e-01 8.508471e-02
<GCONST> 9.412253e+01
<TRANSP> 5
 0.000000e+00 1.000000e+00 0.000000e+00 0.000000e+00 0.000000e+00
 0.000000e+00 6.803836e-01 3.196164e-01 0.000000e+00 0.000000e+00
 0.000000e+00 0.000000e+00 5.034969e-01 4.965031e-01 0.000000e+00
 0.000000e+00 0.000000e+00 0.000000e+00 5.226508e-01 4.773493e-01
 0.000000e+00 0.000000e+00 0.000000e+00 0.000000e+00 0.000000e+00
<ENDHMM>
~h "e"
<BEGINHMM>
<NUMSTATES> 5
<STATE> 2
<MEAN> 39
 1.987548e+00 -4.764076e-01 9.793529e+00 -4.000966e+00 -1.114210e+01 -4.588288e+00 1.841514e+00 1.523109e-01 -1.058120e+00 3.448519e+00 1.892780e+00 -1.333901e-01 9.476639e+00 -4.278269e-02 -5.337072e-02 5.019668e-01 -1.016696e+00 -1.121386e+00 2.283824e-02 6.429243e-02 -1.417514e-01 8.713761e-02 4.426767e-01 2.925918e-02 7.941692e-02 7.158281e-01 -4.789249e-02 1.105917e-01 -1.376925e-01 1.167451e-01 2.777540e-01 1.339152e-01 -4.596279e-02 -6.869854e-02 7.754090e-03 -1.013289e-01 -9.011900e-02 -1.819656e-04 -1.993339e-01
<VARIANCE> 39
 3.196237e+01 4.780322e+01 5.097663e+01 6.267748e+01 7.762689e+01 7.207310e+01 5.996288e+01 7.111772e+01 7.122285e+01 4.452562e+01 4.713823e+01 2.788449e+01 5.273491e+01 1.123274e+00 1.264750e+00 1.493402e+00 2.056042e+00 2.590668e+00 2.395684e+00 1.815870e+00 1.948750e+00 1.957618e+00 1.199617e+00 1.253931e+00 8.531908e-01 1.499131e+00 9.093814e-02 1.298466e-01 1.223010e-01 1.830186e-01 2.687278e-01 2.358955e-01 1.798919e-01 1.899387e-01 2.171198e-01 1.427697e-01 1.193595e-01 9.452086e-02 1.676791e-01
<GCONST> 1.050453e+02
<STATE> 3
<MEAN> 39
 -1.289627e+00 2.857597e+00 9.995153e+00 -1.021573e+01 -1.166444e+01 -4.956182e-01 8.638370e-01 -4.954094e+00 7.077130e-01 3.766734e+00 -1.609446e+00 6.934435e-01 1.015148e+01 9.908949e-02 1.694349e-01 -2.219183e-01 3.973581e-01 2.556064e-01 7.681279e-02 -4.038231e-02 -8.904091e-02 -3.325642e-02 -2.321173e-01 -6.627519e-02 -9.256368e-02 -7.033131e-01 2.259202e-02 1.749429e-03 -6.448361e-02 2.512287e-01 1.773656e-01 -2.739755e-02 -3.534329e-03 6.287421e-02 -4.339977e-02 -5.581547e-02 5.329961e-02 -5.230911e-02 -1.898049e-01
<VARIANCE> 39
 2.516219e+01 5.093686e+01 4.192628e+01 5.480707e+01 5.273595e+01 7.903614e+01 6.052420e+01 6.053642e+01 7.259710e+01 4.168044e+01 3.892670e+01 2.495503e+01 4.385140e+01 4.142528e-01 7.928804e-01 6.945225e-01 1.473394e+00 1.049581e+00 1.133919e+00 1.016311e+00 1.102838e+00 1.171584e+00 9.271993e-01 7.104288e-01 7.023319e-01 1.067167e+00 5.212492e-02 7.561830e-02 7.061739e-02 9.872909e-02 1.097013e-01 1.337930e-01 1.225268e-01 1.358672e-01 1.134630e-01 1.132100e-01 8.483619e-02 8.410864e-02 5.783094e-02
<GCONST> 8.947256e+01
<STATE> 4
<MEAN> 39
 5.411114e-01 1.768902e-01 6.430202e+00 1.787925e-02 -6.704317e+00 -3.321945e+00 1.428922e+00 -1.316405e+00 -3.269028e+00 1.858929e+00 1.631418e+00 -3.160922e-01 9.601372e-01 -1.816804e-01 1.507204e-01 -4.796372e-01 5.013378e-01 7.590809e-01 1.226862e-01 1.139296e-01 2.596333e-02 5.638942e-02 -2.153779e-01 9.873779e-03 7.334772e-02 -6.663833e-01 -3.144301e-02 -1.572146e-02 -2.106217e-02 -8.548710e-02 1.205748e-02 2.541871e-02 -2.236980e-02 2.782783e-02 4.046290e-02 8.368530e-03 6.272356e-03 3.362495e-03 7.781848e-02
<VARIANCE> 39
 1.338951e+01 2.093224e+01 3.810277e+01 3.712764e+01 4.488406e+01 4.230945e+01 3.399462e+01 4.336753e+01 4.106651e+01 2.764677e+01 3.108264e+01 2.244591e+01 5.285117e+01 3.514794e-01 5.175032e-01 5.376108e-01 8.985730e-01 6.722607e-01 8.659754e-01 6.900587e-01 8.595989e-01 8.384464e-01 6.080086e-01 5.733559e-01 4.987481e-01 5.030723e-01 2.938334e-02 4.884648e-02 4.924812e-02 6.428422e-02 7.703070e-02 8.221778e-02 7.981379e-02 8.567971e-02 9.234148e-02 7.757038e-02 5.979388e-02 6.803411e-02 3.957814e-02
<GCONST> 7.483293e+01
<TRANSP> 5
 0.000000e+00 1.000000e+00 0.000000e+00 0.000000e+00 0.000000e+00
 0.000000e+00 6.530343e-01 3.469657e-01 0.000000e+00 0.000000e+00
 0.000000e+00 0.000000e+00 7.698429e-01 2.301571e-01 0.000000e+00
 0.000000e+00 0.000000e+00 0.000000e+00 8.056765e-01 1.943235e-01
 0.000000e+00 0.000000e+00 0.000000e+00 0.000000e+00 0.000000e+00
<ENDHMM>
~h "g"
<BEGINHMM>
<NUMSTATES> 5
<STATE> 2
<MEAN> 39
 1.379734e+00 2.472797e+00 4.748648e+00 4.135933e-01 -1.271690e-02 -2.587152e+00 -4.584286e-01 9.977538e-01 1.579023e+00 1.342960e+00 2.562413e-01 -1.268193e+00 4.357772e+00 -4.462034e-01 -5.961568e-02 7.998702e-01 -5.670087e-01 -6.043036e-01 -1.597281e-01 -1.244754e-02 -2.331950e-01 1.349570e-02 3.631911e-01 8.522863e-02 2.190026e-02 7.036591e-01 7.195427e-02 -2.813470e-02 5.257362e-02 -1.814822e-01 -3.289004e-01 4.793536e-02 -4.075246e-02 -8.244335e-02 8.445500e-03 6.914578e-02 -2.298208e-02 5.361198e-02 2.732872e-01
<VARIANCE> 39
 9.273709e+01 1.068069e+02 9.023663e+01 6.892329e+01 8.170916e+01 4.994314e+01 7.582902e+01 8.071454e+01 8.728297e+01 4.296473e+01 5.138657e+01 3.047580e+01 9.913340e+01 1.774591e+00 1.927937e+00 2.923281e+00 2.320707e+00 3.282260e+00 1.782652e+00 2.252108e+00 1.655818e+00 2.408564e+00 1.441293e+00 1.547203e+00 1.143535e+00 2.799933e+00 2.025184e-01 2.156563e-01 2.495492e-01 2.280983e-01 3.021100e-01 2.064191e-01 2.432190e-01 1.890814e-01 2.836393e-01 1.817850e-01 1.871628e-01 1.374087e-01 2.321070e-01
<GCONST> 1.159640e+02
<STATE> 3
<MEAN> 39
 3.165770e-01 2.914971e+00 1.139741e+01 -6.795801e+00 -1.089413e+01 -6.254351e-01 2.013177e+00 -5.777390e+00 2.644872e-01 5.251548e+00 1.377992e+00 -7.598352e-01 1.140937e+01 1.713957e-01 -1.587105e-01 3.534421e-01 -9.770457e-02 -8.224879e-01 -8.039867e-02 9.988820e-02 -2.451775e-01 -2.049658e-01 2.135102e-01 3.733858e-02 -1.457112e-01 2.418732e-01 6.970142e-02 3.287005e-02 -2.242271e-01 1.979714e-01 2.367534e-01 -5.093835e-02 -8.085432e-02 1.816811e-01 -2.215555e-02 -1.579933e-01 -6.545527e-02 1.039356e-02 -1.915931e-01
<VARIANCE> 39
 3.419254e+01 6.267494e+01 8.950915e+01 1.017941e+02 1.194068e+02 5.382592e+01 1.062083e+02 7.238291e+01 5.591175e+01 7.045618e+01 6.474355e+01 4.612308e+01 5.143185e+01 9.403604e-01 2.020554e+00 1.844113e+00 2.088656e+00 3.135629e+00 1.318964e+00 2.026877e+00 2.013342e+00 1.772448e+00 1.581194e+00 1.210094e+00 1.098714e+00 1.878808e+00 1.070972e-01 1.313988e-01 1.774250e-01 2.060005e-01 3.284578e-01 1.697290e-01 2.102409e-01 1.660580e-01 1.600370e-01 1.628210e-01 1.574011e-01 1.306933e-01 1.788701e-01
<GCONST> 1.100964e+02
<STATE> 4
<MEAN> 39
 -1.127283e+00 1.988943e+00 1.302501e+01 -3.094270e+00 -9.587205e+00 -3.359835e+00 -3.144307e-01 -2.316265e+00 -8.205440e+00 4.133113e+00 1.536505e+00 -3.596752e+00 8.056552e+00 1.291719e-01 -2.047413e-03 1.917394e-02 -1.748922e-01 -3.196627e-01 -1.945067e-01 -2.080780e-01 9.482751e-02 -4.677970e-02 6.480313e-02 5.139522e-02 1.227071e-01 9.579183e-03 4.273463e-02 -2.692524e-02 -1.176785e-01 2.530047e-02 4.014444e-02 5.503022e-03 4.948189e-02 2.652028e-02 9.790237e-02 -4.732341e-02 -3.344152e-02 6.495357e-02 -7.250944e-03
<VARIANCE> 39
 2.924817e+01 2.701457e+01 5.088932e+01 3.511841e+01 4.962298e+01 3.200153e+01 4.416206e+01 3.916807e+01 6.985511e+01 3.398449e+01 3.750679e+01 2.779131e+01 3.978275e+01 4.378108e-01 8.173450e-01 1.155829e+00 1.023181e+00 1.736579e+00 7.899708e-01 9.905527e-01 1.049800e+00 1.463320e+00 9.801842e-01 8.844804e-01 7.381495e-01 9.940445e-01 4.929527e-02 7.250664e-02 9.723364e-02 9.241334e-02 1.428910e-01 7.534809e-02 1.010799e-01 1.055583e-01 1.276794e-01 9.307639e-02 8.365882e-02 7.422809e-02 9.477700e-02
<GCONST> 8.720425e+01
<TRANSP> 5
 0.000000e+00 1.000000e+00 0.000000e+00 0.000000e+00 0.000000e+00
 0.000000e+00 7.392771e-01 2.607229e-01 0.000000e+00 0.000000e+00
 0.000000e+00 0.000000e+00 5.930141e-01 4.069860e-01 0.000000e+00
 0.000000e+00 0.000000e+00 0.000000e+00 6.858499e-01 3.141501e-01
 0.000000e+00 0.000000e+00 0.000000e+00 0.000000e+00 0.000000e+00
<ENDHMM>
~h "h"
<BEGINHMM>
<NUMSTATES> 5
<STATE> 2
<MEAN> 39
 6.419762e+00 3.368959e+00 -6.738337e+00 -8.141380e+00 1.688536e+00 1.655067e+00 -1.936426e+00 -2.263577e+00 -3.631581e+00 1.257944e-01 7.433078e-01 2.512322e+00 6.397979e+00 3.250978e-01 7.998499e-02 4.369146e-02 -5.632285e-02 7.833336e-02 5.192717e-02 1.686476e-01 2.801967e-02 -8.262879e-02 -1.137135e-01 -1.485270e-01 -4.167024e-02 -2.477412e-01 -1.967879e-02 -5.433797e-02 5.199202e-02 7.946882e-02 -5.499650e-02 -3.067388e-02 5.003768e-02 4.439279e-02 5.388137e-02 -3.243024e-02 -4.750674e-02 -5.230905e-02 -2.196245e-02
<VARIANCE> 39
 3.634573e+01 5.357499e+01 5.963776e+01 8.556292e+01 4.717775e+01 3.182095e+01 5.341909e+01 2.725950e+01 2.596122e+01 3.547591e+01 3.322578e+01 2.938549e+01 6.245508e+01 5.734649e-01 5.374398e-01 6.094572e-01 1.363047e+00 8.419641e-01 7.805208e-01 1.180897e+00 5.210226e-01 6.590495e-01 5.521851e-01 6.394123e-01 6.758984e-01 8.223581e-01 5.282946e-02 6.052211e-02 5.694772e-02 1.549480e-01 1.020068e-01 8.726345e-02 1.013178e-01 4.749504e-02 8.165570e-02 5.769685e-02 8.878431e-02 6.457771e-02 5.581204e-02
<GCONST> 8.197809e+01
<STATE> 3
<MEAN> 39
 5.678524e+00 -8.998757e-01 -4.038774e+00 -1.101347e+00 3.554102e+00 5.667222e-01 -1.883325e+00 -2.074556e+00 -4.087003e+00 -1.951667e+00 -1.121337e+00 -3.049249e+00 1.610808e+00 -3.205607e-01 -1.012879e-01 2.261407e-02 4.065856e-01 4.963894e-01 2.857877e-01 4.251430e-01 4.049321e-01 2.453337e-01 -2.772301e-01 -8.325863e-02 -1.583128e-01 -5.151350e-01 -4.964205e-02 -4.597294e-02 3.944213e-02 -1.368642e-02 -4.367953e-02 3.994613e-02 -2.629741e-02 5.771897e-02 -1.201928e-02 -1.306674e-02 1.172217e-02 9.826696e-02 7.958422e-02
<VARIANCE> 39
 2.937424e+01 6.197766e+01 5.170051e+01 6.985709e+01 4.440146e+01 3.223178e+01 5.217363e+01 3.325252e+01 5.576942e+01 5.819330e+01 4.112653e+01 3.255656e+01 5.228294e+01 3.646282e-01 9.878429e-01 8.574665e-01 8.451143e-01 5.734606e-01 4.813239e-01 6.899090e-01 7.241964e-01 9.883719e-01 8.088564e-01 8.123462e-01 8.913360e-01 4.063798e-01 3.503192e-02 5.322288e-02 8.152173e-02 8.192174e-02 1.134876e-01 6.473171e-02 6.783591e-02 6.911494e-02 1.240207e-01 9.408181e-02 9.978498e-02 8.564932e-02 2.222200e-02
<GCONST> 8.198109e+01
<STATE> 4
<MEAN> 39
 1.884251e-01 1.314618e+00 -2.417308e+00 -1.013328e-01 3.447817e+00 2.094585e+00 -1.648666e-02 -1.230734e+00 -3.180753e+00 -2.283442e+00 -9.999570e-01 6.692119e-01 -2.279924e+00 -1.323656e-01 -1.149730e-01 -3.758226e-02 9.394365e-02 9.175076e-02 1.183980e-01 4.783294e-02 9.369111e-02 3.027301e-02 -6.266636e-02 2.985468e-02 4.626838e-02 -8.363770e-02 2.158822e-02 -2.388537e-02 3.210261e-02 -3.130446e-02 -3.776737e-02 5.462397e-04 -2.838143e-02 -1.585888e-02 5.681506e-03 2.390498e-02 7.471078e-03 -1.328589e-02 5.588559e-02
<VARIANCE> 39
 2.057941e+01 2.304896e+01 3.877398e+01 3.236128e+01 2.954291e+01 2.440514e+01 2.977929e+01 2.497077e+01 3.892953e+01 3.497237e+01 2.393324e+01 1.805523e+01 3.588952e+01 2.221894e-01 3.025106e-01 4.103847e-01 5.767162e-01 4.617375e-01 3.741942e-01 4.673708e-01 4.411043e-01 4.949496e-01 5.588139e-01 5.751250e-01 4.507893e-01 1.896591e-01 1.651176e-02 3.191004e-02 4.255482e-02 6.310825e-02 6.165447e-02 4.081902e-02 6.276227e-02 5.080570e-02 4.921630e-02 6.299236e-02 5.933380e-02 4.120730e-02 1.574259e-02
<GCONST> 6.211525e+01
<TRANSP> 5
 0.000000e+00 1.000000e+00 0.000000e+00 0.000000e+00 0.000000e+00
 0.000000e+00 6.541126e-01 3.458874e-01 0.000000e+00 0.000000e+00
 0.000000e+00 0.000000e+00 5.731419e-01 4.268582e-01 0.000000e+00
 0.000000e+00 0.000000e+00 0.000000e+00 8.520674e-01 1.479326e-01
 0.000000e+00 0.000000e+00 0.000000e+00 0.000000e+00 0.000000e+00
<ENDHMM>
~h "i"
<BEGINHMM>
<NUMSTATES> 5
<STATE> 2
<MEAN> 39
 -1.009230e+00 5.064050e+00 1.031287e+01 -4.436166e+00 -5.189753e+00 -1.031637e+00 -2.768006e+00 -6.262146e+00 -9.365769e-02 1.606899e+00 -9.091946e-01 7.128673e-01 5.828850e+00 -1.991640e-01 6.075534e-01 1.299192e+00 -1.187813e+00 -8.127574e-01 -1.172168e-01 -6.352634e-01 -7.455111e-01 -1.861281e-01 2.342798e-01 -2.800470e-01 3.629219e-01 9.077430e-01 4.843358e-02 -2.429541e-02 -1.582052e-01 1.259266e-01 9.773643e-02 -1.576665e-02 6.862184e-02 1.413907e-01 -2.227587e-02 -4.754853e-02 2.253272e-02 -1.567349e-02 -1.256563e-01
<VARIANCE> 39
 3.877580e+01 5.798315e+01 6.930757e+01 8.674193e+01 7.382364e+01 5.733799e+01 6.942114e+01 6.797580e+01 7.381458e+01 5.171666e+01 4.997136e+01 4.028088e+01 5.740085e+01 1.688175e+00 1.748101e+00 2.164230e+00 2.529572e+00 2.095356e+00 1.714182e+00 2.213070e+00 2.000284e+00 2.480900e+00 1.755159e+00 1.591334e+00 1.460223e+00 1.643658e+00 1.455369e-01 1.703864e-01 2.436506e-01 3.174461e-01 2.520505e-01 1.944525e-01 2.107331e-01 2.287543e-01 2.354281e-01 1.913417e-01 1.664553e-01 1.477704e-01 1.771432e-01
<GCONST> 1.123309e+02
<STATE> 3
<MEAN> 39
 -1.416332e+00 7.182310e+00 1.366970e+01 -8.091240e+00 -8.387474e+00 -2.314133e+00 -4.054058e+00 -6.956826e+00 -1.859555e+00 2.278306e+00 -7.114923e-01 2.300975e+00 8.085048e+00 3.340495e-01 1.268647e-01 -2.302185e-01 7.881956e-01 7.922819e-02 -6.947324e-02 2.525992e-01 1.674339e-01 -2.059810e-01 -6.008805e-02 2.231717e-01 -2.744773e-01 -6.613002e-01 -2.220921e-02 -7.383709e-02 -2.976224e-01 3.518766e-01 2.630771e-01 4.772383e-02 1.579545e-01 1.192356e-01 4.262656e-02 -8.237588e-02 2.766831e-02 -1.202853e-01 -2.476546e-01
<VARIANCE> 39
 2.811309e+01 6.375419e+01 4.369016e+01 7.719465e+01 5.098070e+01 5.009542e+01 6.899186e+01 7.221725e+01 7.644172e+01 5.256543e+01 5.593813e+01 3.539708e+01 3.663171e+01 8.230946e-01 1.046285e+00 1.062334e+00 1.746979e+00 1.240515e+00 1.257690e+00 1.302837e+00 1.341891e+00 1.212342e+00 1.146470e+00 9.340088e-01 7.546811e-01 9.822099e-01 1.211198e-01 1.222679e-01 1.254902e-01 1.800004e-01 1.700394e-01 1.499845e-01 1.769913e-01 1.798885e-01 1.898953e-01 1.586740e-01 1.660170e-01 1.229192e-01 7.492676e-02
<GCONST> 9.947106e+01
<STATE> 4
<MEAN> 39
 8.480030e-02 4.145713e+00 9.153111e+00 1.972195e+00 -3.445013e+00 -1.416772e+00 -7.867969e-01 -4.645445e+00 -4.707281e+00 -3.166495e-01 9.779398e-01 -5.440981e-01 1.701399e-01 -1.905407e-01 -1.196929e-01 -6.687561e-01 5.287501e-01 6.097816e-01 1.323995e-01 3.315246e-01 1.626057e-01 1.169952e-01 -1.247363e-01 -3.863493e-02 -1.227786e-02 -6.247219e-01 -7.714044e-02 -3.618990e-02 -6.196848e-02 -1.080472e-01 2.449428e-02 -7.252631e-03 -2.891832e-02 2.377245e-02 6.207724e-02 2.322716e-02 1.787631e-02 3.810449e-02 7.667284e-02
<VARIANCE> 39
 2.842686e+01 3.168538e+01 5.216643e+01 4.281073e+01 4.161481e+01 3.751296e+01 4.748481e+01 3.880464e+01 4.871386e+01 3.501135e+01 3.207772e+01 2.596196e+01 6.240183e+01 7.645559e-01 9.218174e-01 9.372060e-01 1.187566e+00 9.899619e-01 9.662296e-01 9.455760e-01 8.981340e-01 1.035939e+00 7.793217e-01 7.226388e-01 6.094675e-01 7.025257e-01 6.429226e-02 6.594693e-02 9.379063e-02 8.387712e-02 1.030603e-01 9.435328e-02 1.077666e-01 1.030516e-01 1.123126e-01 8.991189e-02 7.730669e-02 6.708508e-02 6.438684e-02
<GCONST> 8.548419e+01
<TRANSP> 5
 0.000000e+00 1.000000e+00 0.000000e+00 0.000000e+00 0.000000e+00
 0.000000e+00 6.830600e-01 3.169400e-01 0.000000e+00 0.000000e+00
 0.000000e+00 0.000000e+00 7.064730e-01 2.935269e-01 0.000000e+00
 0.000000e+00 0.000000e+00 0.000000e+00 7.530529e-01 2.469472e-01
 0.000000e+00 0.000000e+00 0.000000e+00 0.000000e+00 0.000000e+00
<ENDHMM>
~h "j"
<BEGINHMM>
<NUMSTATES> 5
<STATE> 2
<MEAN> 39
 2.316125e+00 -3.177204e+00 1.356771e-01 -8.179817e-01 -1.824323e+00 -2.881107e+00 3.856182e+00 4.085087e+00 -6.480491e-01 -1.666179e+00 -2.847943e+00 2.696402e-01 7.780025e+00 -2.890479e-01 1.015442e+00 2.378579e-01 6.259555e-01 6.085245e-01 4.007182e-01 2.900141e-01 -3.223212e-01 -3.530795e-01 1.445730e-02 5.414639e-01 -3.354397e-01 -1.245205e+00 -2.223800e-01 -5.971630e-04 -1.806171e-01 -9.981206e-02 2.140856e-01 1.933421e-01 -2.412919e-02 7.392835e-02 8.504363e-02 -6.743161e-02 -1.518765e-02 -1.126222e-01 7.852080e-02
<VARIANCE> 39
 1.724162e+01 2.161239e+01 2.664029e+01 2.890273e+01 3.085915e+01 2.859598e+01 3.316823e+01 4.037347e+01 5.149886e+01 3.198348e+01 2.403385e+01 2.316823e+01 4.400253e+01 1.025400e+00 8.462549e-01 7.449564e-01 1.171348e+00 9.219035e-01 8.588590e-01 8.939627e-01 9.926842e-01 1.191553e+00 8.595001e-01 8.146492e-01 6.325883e-01 4.558767e-01 1.243326e-01 7.647230e-02 6.600807e-02 1.272928e-01 1.351345e-01 1.345406e-01 1.036994e-01 9.256057e-02 8.243129e-02 8.567417e-02 1.208816e-01 9.575178e-02 7.574748e-02
<GCONST> 8.360361e+01
<STATE> 3
<MEAN> 39
 -3.221284e+00 2.848523e+00 -1.055975e+00 2.074915e-01 3.632461e+00 1.189803e+00 4.670906e+00 4.078761e+00 -7.118037e-01 -1.857125e+00 -1.044378e+00 -2.745628e+00 4.123956e+00 -2.121141e+00 1.113749e+00 4.753379e-01 -7.796351e-01 3.244816e-01 -7.406463e-02 -5.317866e-02 1.188347e-01 -2.185119e-01 2.659342e-01 8.423567e-01 -2.840500e-01 4.727461e-01 9.031626e-02 -2.070271e-01 3.002555e-01 -2.435261e-01 -4.773835e-01 -3.043265e-01 -1.062115e-01 -3.908083e-02 -6.557952e-02 1.074512e-01 7.317787e-02 1.385439e-01 3.746647e-01
<VARIANCE> 39
 8.250452e+01 4.574271e+01 3.712052e+01 4.966726e+01 3.262118e+01 3.240542e+01 4.044470e+01 3.621733e+01 3.953613e+01 3.062770e+01 2.722911e+01 2.385687e+01 3.376630e+01 2.006787e+00 1.316979e+00 1.322293e+00 1.284250e+00 1.297095e+00 1.308833e+00 1.329941e+00 1.071368e+00 7.673906e-01 1.008356e+00 1.138203e+00 8.294023e-01 9.235590e-01 5.524101e-01 2.113101e-01 9.806675e-02 2.463507e-01 1.681466e-01 1.399075e-01 1.477110e-01 1.466293e-01 1.467228e-01 9.912336e-02 1.287131e-01 1.008429e-01 7.341684e-02
<GCONST> 9.613187e+01
<STATE> 4
<MEAN> 39
 -8.364812e+00 4.470510e+00 6.558315e+00 -5.192155e+00 -3.502584e+00 -3.892570e+00 3.318507e+00 1.955487e+00 -3.264538e+00 2.678904e-01 4.604443e+00 -2.124771e+00 1.028813e+01 1.227422e+00 -9.270339e-01 5.981483e-01 -3.734546e-01 -1.886621e+00 -9.097947e-01 -3.106555e-01 1.569629e-01 1.329521e-01 2.385956e-01 1.717920e-01 4.632611e-01 8.506741e-01 4.636550e-01 -2.709155e-01 -2.652125e-01 1.793684e-01 5.700137e-02 8.142665e-02 -2.474298e-02 1.266249e-01 1.339996e-01 -7.181585e-02 -3.180314e-01 3.881256e-02 -1.064339e-01
<VARIANCE> 39
 6.001452e+01 4.265216e+01 2.617456e+01 2.216289e+01 6.715503e+01 4.174552e+01 5.177604e+01 3.626603e+01 4.115372e+01 3.797590e+01 3.358073e+01 3.948164e+01 3.541358e+01 1.833044e+00 1.765897e+00 1.482530e+00 1.203068e+00 1.207876e+00 9.166997e-01 1.345403e+00 1.771511e+00 1.495907e+00 8.796051e-01 1.522242e+00 5.949200e-01 3.468623e-01 3.884068e-01 2.154216e-01 1.125864e-01 1.030204e-01 3.866682e-01 1.366632e-01 1.413744e-01 1.510432e-01 9.418919e-02 1.362886e-01 1.329986e-01 1.086666e-01 4.582082e-02
<GCONST> 9.591578e+01
<TRANSP> 5
 0.000000e+00 1.000000e+00 0.000000e+00 0.000000e+00 0.000000e+00
 0.000000e+00 7.520239e-01 2.479761e-01 0.000000e+00 0.000000e+00
 0.000000e+00 0.000000e+00 7.660877e-01 2.339124e-01 0.000000e+00
 0.000000e+00 0.000000e+00 0.000000e+00 7.984047e-01 2.015953e-01
 0.000000e+00 0.000000e+00 0.000000e+00 0.000000e+00 0.000000e+00
<ENDHMM>
~h "k"
<BEGINHMM>
<NUMSTATES> 5
<STATE> 2
<MEAN> 39
 -1.108609e-01 1.544148e+00 2.744518e+00 3.213044e+00 -3.039355e+00 -2.639378e+00 -1.758484e-01 -3.773400e+00 -1.072420e+00 2.120608e+00 7.988535e-01 -1.028993e-01 -4.135821e+00 -1.170982e-01 -8.685090e-01 -1.485491e+00 3.172430e-01 1.037752e+00 -3.375909e-04 1.070291e-01 4.124992e-01 3.145914e-01 2.109937e-01 2.044873e-01 7.198769e-02 -2.770363e-01 6.505103e-03 -8.804265e-02 -1.815131e-01 -2.588253e-01 8.506204e-02 -6.004609e-03 -3.409632e-02 1.399928e-01 6.951225e-02 1.157747e-02 -2.641543e-02 -1.302658e-02 4.424132e-01
<VARIANCE> 39
 2.511032e+01 4.203178e+01 6.310042e+01 5.020082e+01 9.087731e+01 5.918863e+01 5.280570e+01 5.226836e+01 5.610865e+01 5.292438e+01 3.441914e+01 2.613641e+01 2.705435e+01 7.743939e-01 1.415591e+00 1.652631e+00 2.085738e+00 1.763832e+00 2.369993e+00 1.826126e+00 1.742082e+00 1.452665e+00 1.368610e+00 1.283486e+00 6.626686e-01 1.663343e+00 1.097161e-01 1.592827e-01 1.848489e-01 1.586376e-01 2.225378e-01 2.819199e-01 1.769800e-01 1.797112e-01 1.573233e-01 1.801776e-01 1.288056e-01 1.024393e-01 1.190446e-01
<GCONST> 1.024473e+02
<STATE> 3
<MEAN> 39
 -2.699112e+00 -6.723447e+00 -8.002575e+00 4.238051e+00 6.224530e+00 -2.818961e+00 1.274637e+00 2.729306e+00 2.039276e+00 3.323057e+00 1.172983e+00 3.051319e-01 -6.941005e-01 3.049670e-01 -4.414725e-01 -1.153020e+00 -7.838624e-01 4.776933e-01 6.327044e-02 2.413381e-04 4.595652e-01 4.009812e-01 -7.079687e-02 -1.724409e-01 -1.571482e-01 1.532099e+00 3.032105e-01 3.244928e-01 3.716699e-01 -3.258224e-01 -4.649280e-01 1.307793e-01 -8.302180e-02 -2.110470e-01 -9.266669e-02 -1.056064e-01 -1.125626e-01 -8.391720e-02 2.178017e-01
<VARIANCE> 39
 3.827201e+01 4.429525e+01 9.750790e+01 7.189623e+01 7.457681e+01 9.933750e+01 7.451291e+01 5.772601e+01 6.551032e+01 4.353984e+01 5.680954e+01 2.395382e+01 1.251194e+02 1.467315e+00 1.697351e+00 2.108712e+00 1.727496e+00 2.385310e+00 3.077523e+00 1.838911e+00 1.825669e+00 1.998794e+00 1.959202e+00 1.332626e+00 9.493535e-01 3.064959e+00 1.112356e-01 2.118193e-01 2.138886e-01 2.554403e-01 2.404404e-01 3.211178e-01 2.202600e-01 2.018203e-01 2.070871e-01 1.653079e-01 1.878263e-01 9.867527e-02 3.094521e-01
<GCONST> 1.125107e+02
<STATE> 4
<MEAN> 39
 2.513309e+00 -1.707517e+00 -7.932248e+00 -2.151733e+00 2.608609e+00 -6.976337e-01 1.064298e+00 3.035457e-01 1.182902e+00 1.978727e+00 3.424958e-01 -1.259306e+00 3.284954e+00 1.211680e+00 6.196723e-01 7.434489e-02 -1.258803e+00 -8.224364e-01 3.982005e-01 -3.893194e-01 -2.917882e-01 3.129200e-02 -2.750361e-01 -2.532235e-01 -1.584841e-01 1.356104e+00 9.721804e-02 1.108719e-01 3.349224e-01 7.713000e-02 -2.263755e-01 4.260537e-02 -9.796409e-02 -1.128564e-01 -6.549925e-02 -1.503748e-02 3.843957e-03 5.027513e-02 -1.164085e-01
<VARIANCE> 39
 4.381102e+01 3.869431e+01 7.221738e+01 6.029722e+01 9.003078e+01 6.477464e+01 5.653782e+01 5.692667e+01 6.349635e+01 5.632286e+01 4.735651e+01 3.019604e+01 5.276013e+01 9.360593e-01 1.917181e+00 1.733587e+00 1.422851e+00 2.433206e+00 2.235804e+00 1.896011e+00 2.335447e+00 2.583951e+00 1.644557e+00 1.537406e+00 1.148351e+00 1.122393e+00 1.388130e-01 1.603452e-01 1.770838e-01 1.569021e-01 2.618869e-01 2.810388e-01 2.593536e-01 2.473715e-01 1.935816e-01 2.273524e-01 1.843618e-01 1.200380e-01 1.709402e-01
<GCONST> 1.090084e+02
<TRANSP> 5
 0.000000e+00 1.000000e+00 0.000000e+00 0.000000e+00 0.000000e+00
 0.000000e+00 7.394983e-01 2.605018e-01 0.000000e+00 0.000000e+00
 0.000000e+00 0.000000e+00 5.920053e-01 4.079947e-01 0.000000e+00
 0.000000e+00 0.000000e+00 0.000000e+00 4.877042e-01 5.122959e-01
 0.000000e+00 0.000000e+00 0.000000e+00 0.000000e+00 0.000000e+00
<ENDHMM>
~h "l"
<BEGINHMM>
<NUMSTATES> 5
<STATE> 2
<MEAN> 39
 5.380573e+00 -4.901813e+00 -1.435426e+00 -4.927347e+00 1.112454e+00 4.354764e+00 -7.361357e+00 -1.945515e-01 9.734977e+00 4.654319e-01 -4.965995e+00 -2.684837e+00 8.324591e+00 1.577351e-01 3.205510e-01 6.694486e-01 2.302800e-01 -2.844464e-01 -4.392495e-01 -7.720299e-01 -6.620334e-03 2.179213e-02 2.397090e-01 1.643583e-01 1.143832e-01 2.687486e-01 -1.151700e-02 4.185108e-02 -9.628084e-02 -3.497924e-02 -1.584028e-02 7.640949e-03 1.328672e-01 4.237347e-02 -1.047269e-01 2.384964e-02 9.080672e-02 -1.169510e-02 -4.168434e-02
<VARIANCE> 39
 5.472375e+01 7.009828e+01 7.631179e+01 4.527083e+01 5.852802e+01 1.232872e+02 6.447392e+01 5.533327e+01 1.745358e+02 5.659915e+01 4.911960e+01 2.697500e+01 2.104817e+02 1.135191e+00 1.827705e+00 2.049897e+00 1.128344e+00 1.299902e+00 2.873823e+00 1.467555e+00 1.614469e+00 3.603344e+00 1.257860e+00 1.405031e+00 8.699178e-01 4.606544e+00 1.426511e-01 1.818649e-01 2.265846e-01 1.253407e-01 1.774201e-01 4.054656e-01 1.431547e-01 3.052161e-01 3.677583e-01 1.321256e-01 1.378579e-01 1.097878e-01 4.150440e-01
<GCONST> 1.127955e+02
<STATE> 3
<MEAN> 39
 3.056424e+00 -1.190595e+00 3.698548e+00 -4.186388e+00 -3.762486e+00 -2.368212e+00 -8.883076e+00 1.858094e-01 1.156572e+00 -5.587924e+00 -2.309068e+00 1.647159e+00 8.326368e+00 -6.424018e-02 2.474662e-01 4.031286e-01 -9.913912e-02 -3.414330e-01 4.708882e-03 -2.624252e-01 2.546076e-02 -1.847155e-01 1.191950e-01 2.423395e-01 1.177850e-01 -1.852521e-01 -5.728555e-02 -2.108905e-01 -4.023369e-01 -3.881593e-02 6.096217e-02 5.382146e-03 5.838683e-01 1.486484e-01 -2.748101e-02 1.850100e-01 -7.263353e-02 -1.553560e-01 1.586873e-01
<VARIANCE> 39
 1.256803e+01 2.326030e+01 4.070094e+01 3.310645e+01 3.432045e+01 3.953196e+01 4.854612e+01 6.495271e+01 5.958469e+01 6.266927e+01 3.145903e+01 4.224888e+01 3.319889e+01 4.379930e-01 1.083756e+00 1.977297e+00 7.515858e-01 1.076644e+00 1.233938e+00 3.558336e+00 1.573603e+00 1.271786e+00 1.027361e+00 1.024296e+00 9.970122e-01 7.340055e-01 4.448799e-02 1.557499e-01 1.245136e-01 1.091274e-01 1.437206e-01 1.991672e-01 3.484531e-01 2.409684e-01 1.921070e-01 1.486951e-01 9.388205e-02 1.422369e-01 1.005991e-01
<GCONST> 9.491751e+01
<STATE> 4
<MEAN> 39
 3.249577e+00 -1.440640e+00 3.495820e-01 -1.739833e+00 -5.549984e+00 -2.982911e+00 -3.854329e+00 -1.026190e+00 1.133082e+00 -2.329883e+00 -2.662046e+00 -2.060777e-01 9.366894e+00 -2.167434e-01 -8.629722e-02 -2.642626e-01 -1.149446e-01 6.318830e-03 1.177492e-01 6.975420e-01 3.025824e-01 -2.322380e-01 5.928401e-01 2.166212e-01 -2.295722e-01 -6.369070e-02 -3.956315e-02 3.767778e-02 -5.015185e-02 -3.536666e-02 1.337421e-01 5.529115e-02 6.162158e-02 4.976538e-03 -1.563755e-02 3.693343e-03 7.388846e-03 -5.277560e-03 -6.794230e-03
<VARIANCE> 39
 3.998342e+01 4.276694e+01 4.584357e+01 4.600424e+01 4.397620e+01 2.836044e+01 5.482773e+01 5.453233e+01 7.928613e+01 6.569348e+01 3.182684e+01 3.525698e+01 3.814728e+01 1.082619e+00 9.868911e-01 1.299864e+00 1.153922e+00 1.293358e+00 1.270515e+00 1.944727e+00 1.399482e+00 1.203837e+00 1.014757e+00 7.037722e-01 6.065337e-01 6.164622e-01 7.173862e-02 7.743289e-02 8.151425e-02 1.030681e-01 1.175318e-01 1.045340e-01 1.507813e-01 1.158101e-01 1.643837e-01 1.130920e-01 7.021311e-02 7.162412e-02 5.703378e-02
<GCONST> 9.140297e+01
<TRANSP> 5
 0.000000e+00 1.000000e+00 0.000000e+00 0.000000e+00 0.000000e+00
 0.000000e+00 5.504720e-01 4.495279e-01 0.000000e+00 0.000000e+00
 0.000000e+00 0.000000e+00 5.716892e-01 4.283107e-01 0.000000e+00
 0.000000e+00 0.000000e+00 0.000000e+00 6.565999e-01 3.434002e-01
 0.000000e+00 0.000000e+00 0.000000e+00 0.000000e+00 0.000000e+00
<ENDHMM>
~h "m"
<BEGINHMM>
<NUMSTATES> 5
<STATE> 2
<MEAN> 39
 7.234787e+00 2.956339e+00 2.985895e+00 2.947345e+00 1.851826e+00 2.045677e+00 -2.634375e+00 -6.484827e+00 -4.136880e+00 -2.770869e-01 -5.318651e-01 -1.482076e+00 2.395065e+00 5.507321e-01 -2.352544e-01 -4.371197e-01 9.882479e-02 5.030625e-01 1.704790e-01 -3.410819e-01 -8.263917e-02 4.261089e-01 3.532435e-01 -3.065049e-02 -4.431894e-01 3.895509e-01 -5.486089e-02 -2.655524e-01 -2.511535e-01 -2.382952e-01 -6.101890e-03 -2.836872e-02 -2.253566e-02 2.939883e-01 2.417586e-01 9.091871e-03 -8.899590e-02 -1.035847e-01 2.054279e-01
<VARIANCE> 39
 2.352042e+01 3.661624e+01 4.852962e+01 6.401278e+01 6.963544e+01 4.327274e+01 5.167564e+01 4.162248e+01 5.197482e+01 3.521309e+01 3.915520e+01 2.334817e+01 3.223530e+01 6.614050e-01 1.364189e+00 2.323425e+00 2.506611e+00 1.576600e+00 1.205675e+00 1.199361e+00 1.499256e+00 2.136912e+00 1.070902e+00 8.563188e-01 1.001554e+00 1.408305e+00 7.144516e-02 1.256769e-01 1.522344e-01 2.119438e-01 2.032317e-01 1.318285e-01 1.631892e-01 2.057996e-01 1.596060e-01 1.320001e-01 1.221239e-01 1.058215e-01 7.931627e-02
<GCONST> 9.796641e+01
<STATE> 3
<MEAN> 39
 8.848130e+00 -2.205093e+00 -2.023793e+00 1.691215e+00 4.473342e+00 9.175471e-01 -7.604982e+00 -4.221578e+00 -1.868582e+00 1.888393e+00 -1.815317e+00 -6.683861e+00 5.828689e+00 6.777063e-03 -9.570792e-01 -8.635460e-01 -4.577240e-01 3.204071e-01 8.951400e-02 2.935506e-02 1.191493e+00 5.833392e-01 -5.676426e-01 -2.876494e-01 -1.823315e-01 7.875217e-01 -2.085491e-01 -2.280500e-02 6.381975e-02 -1.310800e-01 -1.553969e-01 -4.451765e-02 2.671104e-01 2.726873e-01 -8.651585e-02 -3.367805e-01 -7.558563e-02 2.836791e-01 8.264845e-02
<VARIANCE> 39
 1.832842e+01 2.873616e+01 4.505992e+01 5.229831e+01 3.536055e+01 5.456881e+01 4.421256e+01 4.644852e+01 6.604018e+01 5.603622e+01 3.331195e+01 3.305500e+01 2.613435e+01 4.784382e-01 1.432416e+00 1.317000e+00 1.464880e+00 1.469073e+00 1.176557e+00 1.624433e+00 2.019007e+00 1.863505e+00 1.985900e+00 1.236834e+00 1.148982e+00 9.426042e-01 5.281734e-02 1.102369e-01 2.052295e-01 2.266664e-01 1.208319e-01 1.243729e-01 1.705894e-01 2.040784e-01 1.515455e-01 2.274416e-01 1.005175e-01 1.186433e-01 8.006411e-02
<GCONST> 9.690865e+01
<STATE> 4
<MEAN> 39
 6.819248e+00 -5.901443e+00 -5.896300e+00 6.256257e-01 6.123918e+00 9.629230e-01 -3.022887e+00 1.229694e+00 -8.214996e-01 -4.725050e+00 -5.630060e+00 -1.834979e+00 1.087249e+01 -5.393752e-01 -2.410215e-01 1.940886e-02 -5.293059e-01 -3.038506e-01 -8.372620e-02 6.441975e-01 7.183339e-01 -1.643859e-01 -5.124651e-01 -1.120493e-01 4.448946e-01 3.933737e-01 -4.511295e-02 2.002156e-01 1.701633e-01 1.850651e-02 -7.454558e-02 -2.186948e-02 5.545132e-02 -2.208998e-01 -1.089516e-01 1.043264e-01 7.849940e-02 3.950673e-02 -1.487378e-01
<VARIANCE> 39
 2.682348e+01 5.331949e+01 5.893373e+01 5.448960e+01 5.302052e+01 5.963382e+01 5.837671e+01 6.899202e+01 8.772610e+01 5.632445e+01 4.055807e+01 3.221941e+01 7.082626e+01 1.041045e+00 1.385067e+00 1.877438e+00 1.724029e+00 1.459542e+00 1.375672e+00 1.698766e+00 1.931699e+00 1.863622e+00 1.775795e+00 1.174451e+00 1.122246e+00 1.601098e+00 7.747290e-02 1.513069e-01 1.798889e-01 1.859642e-01 1.585565e-01 1.462707e-01 1.461928e-01 2.323550e-01 2.053641e-01 1.972020e-01 1.221950e-01 1.135696e-01 1.278143e-01
<GCONST> 1.041561e+02
<TRANSP> 5
 0.000000e+00 1.000000e+00 0.000000e+00 0.000000e+00 0.000000e+00
 0.000000e+00 6.677536e-01 3.322464e-01 0.000000e+00 0.000000e+00
 0.000000e+00 0.000000e+00 6.336266e-01 3.663734e-01 0.000000e+00
 0.000000e+00 0.000000e+00 0.000000e+00 6.561845e-01 3.438155e-01
 0.000000e+00 0.000000e+00 0.000000e+00 0.000000e+00 0.000000e+00
<ENDHMM>
~h "n"
<BEGINHMM>
<NUMSTATES> 5
<STATE> 2
<MEAN> 39
 3.172175e+00 -1.817233e+00 9.673011e-01 -3.472392e-01 -4.957067e-02 -3.739132e+00 -6.212389e-01 2.048152e+00 -3.087812e+00 -3.293748e+00 -3.234208e+00 5.450411e-02 9.199593e+00 4.432186e-01 7.607946e-01 7.170298e-01 9.831077e-01 -4.517891e-01 -3.240426e-01 1.581870e-01 -6.308638e-01 -3.923637e-01 9.722345e-02 -7.701763e-02 1.838018e-01 -9.271789e-01 7.085019e-02 2.842272e-03 -4.688034e-02 -3.592859e-02 -4.672862e-02 5.853464e-02 -4.493083e-02 -7.735561e-02 9.272572e-02 8.783957e-02 -6.832008e-03 -3.699307e-02 -3.011970e-02
<VARIANCE> 39
 2.030909e+01 3.003304e+01 4.660714e+01 3.984254e+01 4.809712e+01 5.486964e+01 5.015903e+01 5.218082e+01 6.189570e+01 6.056517e+01 3.625741e+01 2.881995e+01 4.683469e+01 6.191356e-01 6.156353e-01 1.060117e+00 8.812497e-01 1.213612e+00 1.188339e+00 1.138361e+00 1.244895e+00 1.367715e+00 1.677555e+00 1.031937e+00 1.021752e+00 5.612186e-01 4.562207e-02 6.360199e-02 7.672367e-02 9.554041e-02 1.041915e-01 1.110672e-01 1.048521e-01 1.226223e-01 1.379274e-01 1.305179e-01 1.040226e-01 9.871814e-02 5.132634e-02
<GCONST> 8.924422e+01
<STATE> 3
<MEAN> 39
 7.054052e+00 7.958387e-01 3.419596e+00 4.577478e+00 -3.029117e+00 -4.496651e+00 1.325361e+00 -1.476229e+00 -3.535640e+00 -1.060279e+00 -3.807328e+00 1.085428e+00 5.181310e+00 3.273739e-01 4.170044e-01 2.617673e-01 4.174969e-01 -1.323073e-01 7.937006e-02 -3.020975e-02 -4.380609e-01 -8.280713e-02 2.786028e-02 4.205399e-02 -7.067738e-02 -6.390766e-01 -1.490102e-01 -1.644845e-01 -1.959732e-01 -2.843679e-01 1.414031e-01 1.277331e-01 -4.865045e-02 1.835217e-01 8.211247e-02 -8.338618e-02 4.740096e-02 -7.966252e-02 1.946961e-01
<VARIANCE> 39
 2.052321e+01 3.154537e+01 2.912544e+01 3.212039e+01 3.978377e+01 5.139496e+01 5.236489e+01 4.700721e+01 5.426862e+01 3.807016e+01 3.839915e+01 3.504564e+01 2.825006e+01 4.970064e-01 9.338913e-01 1.205789e+00 9.541112e-01 9.871777e-01 9.789161e-01 9.982955e-01 1.206160e+00 1.156015e+00 1.039480e+00 7.435034e-01 7.784247e-01 5.944400e-01 5.077718e-02 9.087480e-02 8.686000e-02 1.091263e-01 1.172862e-01 1.363527e-01 1.344021e-01 1.494520e-01 1.408201e-01 1.324620e-01 1.021674e-01 9.759638e-02 5.514321e-02
<GCONST> 8.767457e+01
<STATE> 4
<MEAN> 39
 3.587717e+00 1.308240e+00 1.497594e+00 1.280609e+00 -7.264152e-01 -1.145620e+00 -1.719498e+00 -2.571032e+00 -1.983279e+00 -3.421926e+00 -3.894340e+00 -1.284218e+00 2.118084e+00 -5.395759e-02 1.115276e-01 3.428410e-03 1.828903e-02 8.002898e-02 5.735360e-03 -9.556270e-03 -3.206890e-02 -4.149683e-02 -1.063007e-02 9.342425e-02 -2.077094e-02 -1.592382e-01 -3.057870e-02 -8.191246e-02 -3.058188e-02 -7.795490e-02 2.680567e-02 9.609683e-03 9.182232e-03 7.958163e-02 -1.018496e-03 4.395904e-02 3.931857e-02 -1.047628e-02 6.832261e-02
<VARIANCE> 39
 1.527811e+01 2.336477e+01 2.542618e+01 2.303610e+01 3.004897e+01 3.252315e+01 2.962770e+01 2.747850e+01 4.076462e+01 3.348656e+01 2.497118e+01 1.974185e+01 2.327660e+01 1.898624e-01 5.731695e-01 5.232812e-01 5.677015e-01 6.270338e-01 6.220900e-01 6.282411e-01 7.370369e-01 6.416057e-01 7.067063e-01 5.433203e-01 4.602903e-01 3.168817e-01 2.183734e-02 5.502126e-02 4.405938e-02 6.282535e-02 6.811220e-02 7.363741e-02 7.193645e-02 7.872563e-02 8.180699e-02 8.460947e-02 6.407177e-02 5.824012e-02 2.638699e-02
<GCONST> 6.833052e+01
<TRANSP> 5
 0.000000e+00 1.000000e+00 0.000000e+00 0.000000e+00 0.000000e+00
 0.000000e+00 4.314044e-01 5.685956e-01 0.000000e+00 0.000000e+00
 0.000000e+00 0.000000e+00 6.355293e-01 3.644707e-01 0.000000e+00
 0.000000e+00 0.000000e+00 0.000000e+00 8.265203e-01 1.734796e-01
 0.000000e+00 0.000000e+00 0.000000e+00 0.000000e+00 0.000000e+00
<ENDHMM>
~h "o"
<BEGINHMM>
<NUMSTATES> 5
<STATE> 2
<MEAN> 39
 -3.960256e+00 -3.914881e-01 -4.801562e-02 1.383831e+00 4.648829e+00 2.771466e+00 2.243681e+00 1.991217e+00 2.036788e-01 9.329063e-01 3.487367e+00 -1.189888e-01 -1.645652e+01 7.547474e-01 5.837059e-01 -1.275564e-01 -7.978178e-01 -2.022997e-01 1.269180e-01 -3.541197e-01 -1.723366e-01 -5.655178e-02 1.617151e-01 4.321369e-02 -1.326126e-01 5.790194e-01 1.216818e-01 1.781837e-02 -3.860535e-02 -7.931527e-02 -1.058161e-01 -4.317949e-02 -8.550092e-02 -5.463785e-02 3.014419e-02 4.740633e-02 -2.361648e-02 -1.876920e-02 2.163725e-01
<VARIANCE> 39
 9.494536e+01 4.822568e+01 5.487093e+01 5.180240e+01 5.518177e+01 4.044038e+01 4.367119e+01 3.732299e+01 4.382436e+01 4.090224e+01 2.896966e+01 1.734102e+01 4.240650e+02 2.612024e+00 1.100159e+00 1.457813e+00 1.217719e+00 1.614870e+00 1.271796e+00 1.206058e+00 1.053979e+00 1.551925e+00 1.078832e+00 8.939399e-01 5.674999e-01 7.876334e+00 1.926626e-01 1.202540e-01 1.441081e-01 1.686288e-01 1.257564e-01 1.477661e-01 1.446449e-01 1.082459e-01 1.394010e-01 1.177393e-01 8.320177e-02 6.570640e-02 5.176885e-01
<GCONST> 1.018142e+02
<STATE> 3
<MEAN> 39
 9.988423e+00 3.085004e+00 -7.178714e+00 -9.286132e+00 -2.108540e+00 3.845509e+00 -2.086851e+00 -3.075469e+00 -1.521283e+00 2.213538e+00 3.145108e+00 -7.154848e-02 5.986944e+00 7.115558e-01 -5.470328e-01 -7.341670e-01 -3.065696e-01 2.438226e-01 1.532885e-01 -1.168563e+00 -3.277815e-01 7.437561e-01 8.401914e-01 -1.914995e-01 -4.106838e-01 1.585283e+00 -3.425243e-01 -3.135727e-01 1.547009e-01 5.165563e-01 2.370728e-01 -2.870496e-01 -6.722987e-02 1.595911e-01 2.113620e-01 -5.610930e-02 -2.409436e-01 -9.741600e-02 -2.110525e-01
<VARIANCE> 39
 2.030155e+01 3.317345e+01 5.336679e+01 3.508746e+01 4.877773e+01 4.337612e+01 3.765443e+01 3.713541e+01 4.861288e+01 5.147314e+01 3.770226e+01 2.707608e+01 4.044082e+01 1.302182e+00 1.515726e+00 1.862234e+00 2.895451e+00 2.216648e+00 1.865527e+00 1.429683e+00 1.364566e+00 2.087718e+00 1.516169e+00 1.356277e+00 1.040896e+00 2.519439e+00 9.977020e-02 1.257480e-01 1.822260e-01 1.848508e-01 2.403336e-01 2.290727e-01 2.047683e-01 1.612608e-01 2.002399e-01 2.144661e-01 1.767530e-01 1.418453e-01 1.862545e-01
<GCONST> 1.033582e+02
<STATE> 4
<MEAN> 39
 8.236440e+00 -4.017155e+00 -8.492490e+00 -2.940018e+00 3.738116e+00 -6.069319e-02 -8.827918e+00 -1.173565e+00 6.128858e+00 4.805842e+00 -2.621257e+00 -4.348701e+00 9.957913e+00 -3.753574e-01 -4.204791e-01 7.117278e-01 1.395992e+00 1.566479e-01 -1.175179e+00 -4.221556e-02 4.189561e-01 3.570222e-01 -5.802066e-01 -7.153955e-01 2.084482e-02 2.056120e-03 -8.190130e-02 3.001774e-01 2.810536e-01 9.127963e-02 -2.166429e-01 -3.013180e-02 3.948660e-01 -1.377403e-04 -3.429884e-01 -2.662254e-01 2.041436e-01 2.406674e-01 -3.263057e-01
<VARIANCE> 39
 2.044576e+01 2.353540e+01 3.812637e+01 5.234447e+01 5.838527e+01 5.050720e+01 3.683051e+01 5.040152e+01 6.667777e+01 6.763608e+01 4.750350e+01 2.997721e+01 2.968323e+01 6.751248e-01 1.032724e+00 1.302945e+00 1.675280e+00 2.301201e+00 1.513408e+00 1.650717e+00 1.080685e+00 1.881335e+00 1.570393e+00 1.544187e+00 1.175251e+00 1.306073e+00 9.035352e-02 1.126274e-01 1.395365e-01 2.507320e-01 2.226666e-01 2.100233e-01 1.474117e-01 1.784611e-01 2.275396e-01 2.207904e-01 1.761591e-01 1.238731e-01 9.351175e-02
<GCONST> 1.003999e+02
<TRANSP> 5
 0.000000e+00 1.000000e+00 0.000000e+00 0.000000e+00 0.000000e+00
 0.000000e+00 7.674378e-01 2.325622e-01 0.000000e+00 0.000000e+00
 0.000000e+00 0.000000e+00 7.231334e-01 2.768666e-01 0.000000e+00
 0.000000e+00 0.000000e+00 0.000000e+00 7.344477e-01 2.655523e-01
 0.000000e+00 0.000000e+00 0.000000e+00 0.000000e+00 0.000000e+00
<ENDHMM>
~h "p"
<BEGINHMM>
<NUMSTATES> 5
<STATE> 2
<MEAN> 39
 -3.604482e+00 -5.536081e-01 -4.064801e+00 3.126655e+00 4.091405e+00 7.304715e-01 1.980817e+00 1.428489e+00 -2.195931e-02 4.433502e-01 2.638510e+00 -7.139031e-01 -5.053366e+00 -2.019096e-01 -9.665884e-02 -5.565325e-02 1.978668e-01 1.681448e-01 1.653808e-01 6.242166e-02 -5.243275e-02 1.464887e-01 1.028051e-01 1.052440e-01 9.302881e-02 -5.785379e-01 3.803567e-02 -6.864634e-02 4.530536e-02 -6.717446e-02 -6.963367e-02 -2.792862e-02 -2.449701e-02 1.722364e-04 4.873706e-02 3.842012e-02 -2.224666e-02 -9.273525e-04 1.956251e-01
<VARIANCE> 39
 6.437692e+01 4.688131e+01 2.620421e+01 4.627133e+01 4.747223e+01 4.369494e+01 3.949289e+01 3.459375e+01 4.926262e+01 4.100726e+01 2.948220e+01 2.958414e+01 4.311283e+01 8.038571e-01 5.847285e-01 4.860508e-01 6.862147e-01 7.295479e-01 6.592022e-01 7.067683e-01 6.766315e-01 7.503802e-01 5.947158e-01 5.444173e-01 4.715930e-01 9.739252e-01 8.643385e-02 6.946150e-02 6.728078e-02 8.515096e-02 8.480207e-02 1.010245e-01 9.707925e-02 8.419360e-02 1.212879e-01 9.040818e-02 6.424049e-02 6.229954e-02 9.245343e-02
<GCONST> 8.201808e+01
<STATE> 3
<MEAN> 39
 -1.205679e+00 -1.931365e+00 -3.801419e+00 3.804824e+00 2.428599e+00 1.840665e+00 1.361979e+00 6.505605e-01 9.412725e-01 -9.584103e-03 1.496891e+00 -7.638973e-02 -6.808460e+00 -2.853984e-01 -3.017492e-01 3.141952e-01 -1.463031e-01 -2.724652e-01 -1.475262e-01 1.689098e-01 1.115110e-01 5.391088e-01 4.881764e-01 1.770671e-01 -5.150810e-02 2.807336e-01 1.399506e-01 -6.878259e-02 6.815441e-02 -1.487076e-01 -1.296321e-01 -1.084780e-01 -7.184702e-02 1.104496e-01 1.090114e-01 -3.949925e-03 -1.070080e-01 -3.411662e-02 4.643961e-01
<VARIANCE> 39
 5.172189e+01 4.057677e+01 3.827905e+01 3.695201e+01 4.185254e+01 4.093327e+01 4.531301e+01 3.611816e+01 5.164550e+01 4.450367e+01 2.060485e+01 2.305882e+01 5.040386e+01 1.335337e+00 1.028500e+00 1.178841e+00 1.049207e+00 9.740700e-01 1.205741e+00 9.871317e-01 1.001617e+00 1.120508e+00 8.781747e-01 7.221343e-01 7.478428e-01 2.149296e+00 1.464626e-01 1.357774e-01 1.604646e-01 1.401874e-01 1.179004e-01 1.933427e-01 1.492453e-01 1.104874e-01 1.365703e-01 1.357428e-01 1.122063e-01 7.896660e-02 2.421890e-01
<GCONST> 9.433266e+01
<STATE> 4
<MEAN> 39
 -3.423744e+00 -1.255806e+00 -6.096824e-01 2.274066e+00 3.426467e+00 1.882615e+00 2.464902e+00 1.891981e+00 4.064318e+00 3.361088e+00 3.250053e+00 -3.851792e-01 -1.318823e+01 8.817993e-01 -1.964099e-01 -8.789408e-02 -3.434763e-01 -4.397591e-01 -1.676940e-01 -1.454912e-01 3.493587e-02 1.394678e-01 7.153269e-02 -5.092428e-01 -5.078292e-02 1.548512e+00 1.343613e-01 2.199877e-02 -3.342639e-02 -8.464243e-02 -6.261795e-02 4.617538e-03 -9.030733e-02 1.077589e-02 -6.729206e-02 -9.097333e-02 -1.371624e-01 1.314604e-02 2.243592e-01
<VARIANCE> 39
 1.130232e+02 5.970726e+01 5.614494e+01 4.105339e+01 6.872734e+01 4.463802e+01 3.430823e+01 3.437544e+01 4.387049e+01 3.224257e+01 2.801467e+01 1.964041e+01 4.391742e+02 2.693831e+00 2.072132e+00 1.907853e+00 1.928282e+00 2.189476e+00 1.858089e+00 1.049846e+00 8.082380e-01 1.621428e+00 1.199585e+00 1.172061e+00 7.007668e-01 1.121835e+01 2.628279e-01 1.855035e-01 1.600506e-01 1.752538e-01 1.944475e-01 1.716653e-01 1.019053e-01 9.553910e-02 1.477363e-01 1.149597e-01 1.231138e-01 8.272224e-02 9.220936e-01
<GCONST> 1.067654e+02
<TRANSP> 5
 0.000000e+00 1.000000e+00 0.000000e+00 0.000000e+00 0.000000e+00
 0.000000e+00 6.955134e-01 3.044867e-01 0.000000e+00 0.000000e+00
 0.000000e+00 0.000000e+00 5.112318e-01 4.887682e-01 0.000000e+00
 0.000000e+00 0.000000e+00 0.000000e+00 6.979809e-01 3.020191e-01
 0.000000e+00 0.000000e+00 0.000000e+00 0.000000e+00 0.000000e+00
<ENDHMM>
~h "r"
<BEGINHMM>
<NUMSTATES> 5
<STATE> 2
<MEAN> 39
 -3.224550e+00 -7.516373e-01 1.170979e-01 3.808394e+00 2.148618e+00 1.419397e+00 2.121490e+00 2.295229e+00 1.906633e+00 3.890525e-01 3.092816e+00 5.795740e-01 -9.922648e+00 -1.495965e-01 -1.863681e-03 3.097526e-01 5.107667e-02 1.391970e-02 1.229899e-01 -7.316471e-02 7.566825e-02 1.120082e-01 8.478954e-02 1.761375e-01 2.223643e-02 -5.316263e-01 6.992479e-02 -1.673611e-02 -1.173553e-02 -7.438193e-02 -5.267661e-02 -4.529520e-02 -5.076884e-02 -2.328724e-02 -2.403329e-02 1.744618e-02 -5.564879e-02 -1.457533e-02 8.840835e-02
<VARIANCE> 39
 6.112882e+01 4.149476e+01 4.079252e+01 4.793683e+01 6.524680e+01 4.382434e+01 4.525705e+01 3.613882e+01 4.808162e+01 4.594781e+01 3.757680e+01 2.154460e+01 3.932266e+02 1.165394e+00 7.868281e-01 7.847245e-01 7.953372e-01 1.079334e+00 9.433063e-01 8.471329e-01 1.051841e+00 1.054940e+00 8.951367e-01 7.524834e-01 4.734795e-01 1.651181e+00 1.069839e-01 7.175429e-02 6.609143e-02 9.053655e-02 1.071325e-01 8.776112e-02 9.587483e-02 1.054188e-01 1.147137e-01 9.612659e-02 8.223011e-02 6.165043e-02 1.089105e-01
<GCONST> 9.032143e+01
<STATE> 3
<MEAN> 39
 4.619316e-01 -2.703005e+00 2.809684e+00 1.332233e+00 -2.767525e+00 -1.232291e+00 -1.378878e-02 2.743316e+00 2.683494e+00 -7.658991e-02 8.308355e-01 5.688459e-01 3.710271e+00 2.806476e-01 -2.115737e-01 4.821432e-01 -1.040490e-01 -4.778483e-01 -3.107268e-02 -4.266628e-01 2.082804e-02 -8.444916e-02 1.080566e-01 1.165912e-01 -1.025855e-01 2.247040e-01 1.156683e-01 -5.659592e-03 -1.324313e-01 -1.928405e-01 -7.557450e-02 -7.041118e-02 -4.986811e-02 -3.434937e-02 -3.852535e-02 3.116179e-02 -1.368873e-01 -4.884787e-02 1.900895e-01
<VARIANCE> 39
 3.044803e+01 3.010543e+01 3.997049e+01 3.581418e+01 5.320931e+01 4.070952e+01 4.284048e+01 3.776174e+01 5.938998e+01 3.498829e+01 3.408798e+01 2.454245e+01 1.202634e+02 6.715477e-01 7.797651e-01 1.303473e+00 7.128064e-01 1.206945e+00 1.217160e+00 1.196293e+00 1.568374e+00 1.609109e+00 1.176144e+00 1.098429e+00 6.730653e-01 1.343656e+00 6.642281e-02 8.377074e-02 1.113402e-01 9.706239e-02 1.657105e-01 1.289192e-01 1.369032e-01 1.639551e-01 1.796770e-01 1.233952e-01 1.306354e-01 1.215499e-01 1.043642e-01
<GCONST> 9.334350e+01
<STATE> 4
<MEAN> 39
 7.845044e-01 -2.845151e+00 2.532210e+00 1.445186e+00 -3.254239e+00 -6.620762e-01 2.657451e-01 3.756463e+00 3.296556e+00 -9.190874e-01 -3.199702e-02 -2.952087e-02 4.121092e+00 5.853315e-01 -1.598504e-01 1.507152e-01 -4.035673e-01 -6.720565e-01 -1.930764e-01 -4.856708e-01 -5.127504e-02 7.051461e-02 7.240090e-02 -3.009432e-01 -1.535107e-01 1.245977e+00 2.751972e-02 2.291979e-02 -1.410947e-01 -1.116489e-01 4.293787e-02 -2.559558e-03 1.849330e-02 -7.869323e-02 -6.236843e-02 2.269639e-02 -5.121725e-02 1.105138e-02 4.729628e-02
<VARIANCE> 39
 5.928384e+01 4.561625e+01 6.067764e+01 4.757233e+01 7.262948e+01 5.127145e+01 5.767147e+01 4.972668e+01 6.769160e+01 4.583057e+01 4.295512e+01 2.836472e+01 2.113233e+02 1.538638e+00 1.487625e+00 2.091145e+00 1.242959e+00 2.133671e+00 1.586634e+00 1.954829e+00 1.665529e+00 2.088938e+00 1.534719e+00 1.534428e+00 9.614329e-01 4.664087e+00 1.536897e-01 1.530399e-01 1.748624e-01 1.468225e-01 2.270895e-01 1.747194e-01 1.695854e-01 1.453821e-01 1.929029e-01 1.513039e-01 1.607720e-01 1.170289e-01 3.130077e-01
<GCONST> 1.084963e+02
<TRANSP> 5
 0.000000e+00 1.000000e+00 0.000000e+00 0.000000e+00 0.000000e+00
 0.000000e+00 6.515323e-01 3.484677e-01 0.000000e+00 0.000000e+00
 0.000000e+00 0.000000e+00 3.368034e-01 6.631966e-01 0.000000e+00
 0.000000e+00 0.000000e+00 0.000000e+00 5.477933e-01 4.522068e-01
 0.000000e+00 0.000000e+00 0.000000e+00 0.000000e+00 0.000000e+00
<ENDHMM>
~h "s"
<BEGINHMM>
<NUMSTATES> 5
<STATE> 2
<MEAN> 39
 -1.023391e+01 9.124029e+00 -3.334113e+00 4.035697e+00 -6.655473e-01 -6.539710e+00 4.596026e+00 -5.290633e-01 -4.295982e-01 8.766119e-02 2.065278e+00 -1.316658e-01 6.331671e+00 -2.315616e+00 1.266822e+00 -9.718027e-01 5.331407e-01 1.006535e+00 -1.526844e-01 6.569444e-01 1.102586e-01 -1.725293e-01 9.012527e-02 4.429339e-01 -1.539906e-01 -3.549922e-01 1.080129e-01 -2.713974e-01 1.379234e-01 -2.235481e-01 -6.768112e-02 4.908131e-02 -1.874306e-01 5.937976e-02 -3.881508e-03 -1.145628e-03 -5.847121e-02 2.505422e-02 3.000486e-02
<VARIANCE> 39
 6.508249e+01 4.917208e+01 7.004092e+01 4.660568e+01 8.031213e+01 6.091738e+01 5.708987e+01 4.650560e+01 5.340197e+01 4.974612e+01 3.795655e+01 3.212579e+01 3.944823e+01 8.755856e-01 9.871359e-01 9.886871e-01 1.709018e+00 1.511796e+00 1.553316e+00 1.438429e+00 1.385887e+00 1.340778e+00 1.140856e+00 1.404888e+00 9.517218e-01 3.032176e-01 1.443667e-01 1.260683e-01 9.612247e-02 1.159726e-01 1.292234e-01 1.333544e-01 1.367261e-01 1.334660e-01 1.179125e-01 9.900202e-02 1.129016e-01 9.376473e-02 2.739782e-02
<GCONST> 9.516556e+01
<STATE> 3
<MEAN> 39
 -1.816592e+01 9.434226e+00 -3.998243e+00 3.926013e+00 2.327495e+00 -4.770296e+00 4.889262e+00 5.953472e-01 -1.322298e+00 7.100449e-01 3.653670e+00 -1.117040e+00 4.313293e+00 1.225387e-01 -7.508239e-01 4.058779e-01 -2.618032e-01 4.333429e-02 -8.512262e-02 -1.293851e-01 1.860330e-01 2.181125e-02 -2.116551e-01 -6.174162e-02 2.256852e-02 -7.412411e-02 5.891563e-01 -1.903514e-01 1.439380e-01 -8.351501e-02 -1.965905e-01 -2.584402e-02 -1.321660e-01 -7.277801e-02 6.070497e-02 -4.619944e-02 -1.322558e-01 4.327978e-02 6.801914e-02
<VARIANCE> 39
 5.581158e+01 3.755080e+01 4.356604e+01 6.012663e+01 8.235872e+01 5.835530e+01 4.110823e+01 4.549033e+01 3.574390e+01 4.798062e+01 3.974511e+01 3.314090e+01 2.565283e+01 1.807596e+00 7.033827e-01 1.072684e+00 7.513528e-01 9.706830e-01 9.383799e-01 9.595333e-01 1.185803e+00 8.519505e-01 9.744416e-01 9.408429e-01 5.154318e-01 4.684174e-01 1.126075e-01 9.997676e-02 1.083124e-01 1.337379e-01 1.173274e-01 1.200942e-01 1.423746e-01 1.174918e-01 1.337446e-01 1.457545e-01 1.219850e-01 9.324485e-02 5.251499e-02
<GCONST> 9.103906e+01
<STATE> 4
<MEAN> 39
 -9.296361e+00 4.273802e+00 -1.836516e+00 1.738540e+00 1.951654e+00 -8.137879e+00 1.668689e+00 2.521597e+00 -5.917806e-02 -1.437424e+00 1.419957e+00 2.089798e-01 4.989856e+00 2.620686e+00 -5.359147e-01 -2.397024e-02 -6.144596e-01 -5.561522e-01 2.365453e-01 -8.561824e-01 -3.923033e-01 1.925247e-01 7.471810e-02 -3.574881e-01 3.520390e-02 3.264712e-01 8.037738e-02 1.956031e-01 -1.382380e-01 -7.636525e-02 -4.162018e-04 1.748045e-01 -1.433332e-02 -1.548297e-01 -2.982857e-02 9.225213e-02 1.263198e-02 -1.504980e-02 2.747731e-02
<VARIANCE> 39
 8.125948e+01 3.451802e+01 6.105910e+01 4.243487e+01 6.372240e+01 5.743473e+01 6.244056e+01 5.711834e+01 5.017207e+01 5.303793e+01 4.705627e+01 2.210977e+01 3.613567e+01 1.785191e+00 1.522961e+00 2.116999e+00 2.081377e+00 2.128313e+00 1.597780e+00 1.641098e+00 1.973659e+00 1.913599e+00 2.370263e+00 1.855322e+00 1.163274e+00 1.445165e+00 2.139726e-01 1.114868e-01 9.795635e-02 1.205991e-01 1.066307e-01 1.062036e-01 1.965086e-01 1.597902e-01 1.497936e-01 1.736252e-01 1.275844e-01 8.442971e-02 7.588901e-02
<GCONST> 1.029391e+02
<TRANSP> 5
 0.000000e+00 1.000000e+00 0.000000e+00 0.000000e+00 0.000000e+00
 0.000000e+00 7.858282e-01 2.141718e-01 0.000000e+00 0.000000e+00
 0.000000e+00 0.000000e+00 8.136657e-01 1.863344e-01 0.000000e+00
 0.000000e+00 0.000000e+00 0.000000e+00 6.712149e-01 3.287852e-01
 0.000000e+00 0.000000e+00 0.000000e+00 0.000000e+00 0.000000e+00
<ENDHMM>
~h "t"
<BEGINHMM>
<NUMSTATES> 5
<STATE> 2
<MEAN> 39
 1.684376e+00 1.186776e+00 4.791387e-01 3.719537e+00 2.025983e-01 -8.835073e-01 6.802266e-01 -1.727113e+00 -8.565482e-01 -1.252004e+00 9.940426e-02 2.102712e-01 -3.344101e+00 -5.540938e-01 -5.150471e-01 -4.963329e-01 7.659474e-02 2.226830e-01 1.616508e-01 3.686221e-01 2.868014e-01 2.989323e-01 2.911705e-01 4.075447e-01 -1.387651e-01 -1.744500e-01 -1.489207e-01 -4.525007e-02 8.258235e-02 -2.800205e-01 -1.532708e-01 -1.173946e-01 1.408802e-02 3.972747e-02 4.075138e-02 3.058987e-02 -5.684758e-02 -2.294340e-02 5.911707e-01
<VARIANCE> 39
 3.516272e+01 5.418678e+01 7.460375e+01 3.999133e+01 5.478848e+01 5.597861e+01 4.673812e+01 4.786302e+01 4.993901e+01 4.183780e+01 3.073035e+01 2.503496e+01 5.136367e+01 1.103310e+00 1.085100e+00 1.118274e+00 1.174519e+00 1.062073e+00 1.470543e+00 1.025825e+00 1.140892e+00 1.409909e+00 1.091493e+00 8.428563e-01 7.822770e-01 2.240319e+00 1.549221e-01 1.440026e-01 1.298551e-01 9.590592e-02 1.596510e-01 2.474823e-01 1.883485e-01 1.558015e-01 2.000562e-01 1.447070e-01 1.284086e-01 1.047373e-01 1.769354e-01
<GCONST> 9.854658e+01
<STATE> 3
<MEAN> 39
 -5.640732e+00 -2.097870e+00 -1.005679e+00 9.689940e-01 1.860153e+00 -9.737864e-01 4.319711e+00 1.082536e+00 2.317563e+00 1.431998e+00 3.623533e+00 -3.835182e-01 1.386532e+00 -4.662010e-02 -3.559244e-01 1.962119e-01 -1.062286e+00 -7.714315e-01 -6.985489e-01 -1.816386e-01 2.165008e-01 2.043649e-01 1.558743e-01 -2.957160e-01 -1.903155e-01 2.328146e+00 4.175520e-01 1.270887e-01 1.503176e-01 -1.799411e-01 -2.193709e-01 -8.500658e-02 -3.004017e-01 -7.723577e-02 -1.423850e-01 -9.808145e-02 -2.780062e-01 1.766540e-03 2.432528e-01
<VARIANCE> 39
 3.882115e+01 3.983938e+01 4.127663e+01 3.455512e+01 4.452029e+01 4.804065e+01 3.934222e+01 3.948673e+01 4.061769e+01 5.076707e+01 3.628524e+01 2.902981e+01 9.886198e+01 1.637959e+00 1.860018e+00 2.154805e+00 1.365045e+00 1.785983e+00 2.122583e+00 2.610976e+00 2.717980e+00 3.034787e+00 1.813473e+00 1.482622e+00 9.141484e-01 2.135078e+00 1.016828e-01 1.573545e-01 1.674355e-01 1.317095e-01 1.410874e-01 1.505341e-01 1.567345e-01 2.142784e-01 1.972342e-01 2.007344e-01 1.473951e-01 1.366601e-01 2.298868e-01
<GCONST> 1.049388e+02
<STATE> 4
<MEAN> 39
 -5.851362e-01 -9.137178e-01 6.235582e-01 -3.529300e+00 -3.303510e+00 -5.050853e+00 2.446419e-01 1.051042e-01 1.929381e+00 -4.657438e-01 -1.293641e+00 -1.362568e+00 9.909307e+00 9.119229e-01 1.854325e-01 1.188051e-01 -1.034061e+00 -6.922226e-01 -2.588942e-01 -7.906786e-01 -1.072406e-01 -1.356299e-01 -1.628341e-02 -6.005208e-01 -1.575204e-01 1.535762e+00 2.082738e-01 1.320625e-01 3.116897e-03 1.033846e-01 8.702852e-02 2.618287e-01 -7.436290e-02 -8.988682e-02 -1.206376e-01 -3.132458e-02 -3.233278e-02 9.616663e-02 -4.164384e-01
<VARIANCE> 39
 3.320272e+01 4.644188e+01 4.770724e+01 4.310407e+01 4.500176e+01 5.654027e+01 7.055966e+01 4.945295e+01 5.296644e+01 5.024426e+01 3.583780e+01 2.378612e+01 4.698210e+01 2.011308e+00 2.343369e+00 2.679976e+00 2.026954e+00 1.752485e+00 1.532928e+00 2.400507e+00 3.154279e+00 2.825338e+00 2.081721e+00 1.677708e+00 1.158359e+00 2.272374e+00 1.007390e-01 1.550301e-01 1.485864e-01 1.476233e-01 1.520550e-01 1.949733e-01 2.718720e-01 1.846883e-01 1.737317e-01 1.640859e-01 1.292523e-01 1.186884e-01 2.154414e-01
<GCONST> 1.068839e+02
<TRANSP> 5
 0.000000e+00 1.000000e+00 0.000000e+00 0.000000e+00 0.000000e+00
 0.000000e+00 7.391732e-01 2.608268e-01 0.000000e+00 0.000000e+00
 0.000000e+00 0.000000e+00 6.067723e-01 3.932277e-01 0.000000e+00
 0.000000e+00 0.000000e+00 0.000000e+00 3.974599e-01 6.025401e-01
 0.000000e+00 0.000000e+00 0.000000e+00 0.000000e+00 0.000000e+00
<ENDHMM>
~h "u"
<BEGINHMM>
<NUMSTATES> 5
<STATE> 2
<MEAN> 39
 6.767758e+00 2.484807e+00 -4.029601e+00 -3.111953e+00 1.048982e+00 -2.450769e+00 -9.338756e+00 -4.883986e+00 -9.489056e-02 4.164037e+00 2.185332e+00 1.448804e-01 5.621278e+00 4.792774e-01 6.220927e-01 -5.312910e-01 -5.286595e-01 2.771874e-01 5.920773e-01 -4.886213e-02 -5.813892e-01 -6.082116e-01 7.978724e-02 3.234598e-01 1.311906e-01 -4.621611e-01 -1.628169e-01 -3.782894e-02 1.657167e-01 1.633292e-01 -1.138679e-02 1.697101e-02 3.863572e-01 1.631269e-01 -4.120344e-02 -2.280072e-01 -6.132168e-02 3.367011e-02 -1.929477e-01
<VARIANCE> 39
 2.029194e+01 2.324460e+01 3.975478e+01 3.603291e+01 3.530640e+01 5.333357e+01 4.792466e+01 3.579126e+01 5.024706e+01 4.408207e+01 4.169320e+01 2.940167e+01 3.175014e+01 6.738057e-01 5.865476e-01 1.041127e+00 1.191468e+00 1.044491e+00 1.008623e+00 1.768494e+00 1.001552e+00 1.325809e+00 1.255368e+00 9.786046e-01 7.549080e-01 6.164305e-01 7.123256e-02 8.152648e-02 1.088849e-01 1.244735e-01 1.363472e-01 1.661301e-01 1.782634e-01 1.188536e-01 1.793698e-01 1.413337e-01 1.441796e-01 1.061099e-01 6.520215e-02
<GCONST> 9.031792e+01
<STATE> 3
<MEAN> 39
 7.844281e+00 5.247950e+00 -5.537986e+00 -3.473761e+00 1.299198e+00 -2.721820e-01 -3.409028e+00 -3.546779e+00 -3.335364e+00 -4.824567e-01 2.539825e+00 9.962591e-01 -9.313273e-01 -3.525555e-01 6.364239e-02 3.368960e-01 4.408343e-01 8.936140e-02 4.374713e-02 5.617563e-01 2.336574e-01 -1.724843e-02 -3.202511e-01 3.483151e-02 4.773159e-03 -9.963362e-01 -1.119486e-01 -1.107863e-01 6.556118e-02 1.183645e-01 1.056162e-02 -5.357214e-02 -1.279034e-02 6.455584e-02 8.891037e-02 2.719037e-02 -2.489923e-02 -3.219673e-02 1.489063e-02
<VARIANCE> 39
 3.191780e+01 3.096242e+01 4.507977e+01 5.193689e+01 3.710089e+01 4.978058e+01 4.834999e+01 3.830330e+01 4.661178e+01 5.118227e+01 4.408647e+01 3.172859e+01 6.623464e+01 6.701627e-01 7.151403e-01 7.032643e-01 9.827609e-01 9.711778e-01 1.043385e+00 9.073806e-01 7.470831e-01 9.150724e-01 8.984386e-01 6.849535e-01 6.219720e-01 5.694273e-01 4.254736e-02 5.277772e-02 6.775099e-02 8.542013e-02 8.696027e-02 1.085296e-01 1.067703e-01 9.708533e-02 1.168701e-01 9.621034e-02 8.022174e-02 7.638855e-02 4.019540e-02
<GCONST> 8.421803e+01
<STATE> 4
<MEAN> 39
 4.456156e-01 2.935017e+00 -2.179094e+00 5.543273e-01 2.387128e+00 -4.144441e-01 -8.570182e-01 -3.383819e+00 -3.245083e+00 -1.762515e+00 4.063858e-01 1.873106e+00 -4.041734e+00 -3.687950e-01 -1.048533e-01 5.269939e-02 2.814354e-01 1.580042e-01 3.721629e-02 1.789127e-01 1.231424e-01 3.646437e-02 -9.866305e-02 -4.826831e-02 2.544833e-02 -3.557473e-01 6.551677e-03 -3.394954e-02 3.757940e-03 -3.729997e-02 -1.588797e-02 -8.482377e-03 -4.179962e-02 2.189395e-03 2.523070e-02 3.946865e-02 1.591443e-02 -2.151639e-02 6.066900e-02
<VARIANCE> 39
 2.698261e+01 1.885257e+01 2.045365e+01 2.083304e+01 2.307258e+01 2.722610e+01 2.650733e+01 2.220809e+01 3.783828e+01 3.029258e+01 2.213761e+01 1.823406e+01 3.315482e+01 2.434162e-01 2.553024e-01 3.272728e-01 4.403597e-01 3.926881e-01 5.010252e-01 5.421917e-01 4.250118e-01 4.969279e-01 5.325123e-01 4.258961e-01 3.581097e-01 2.063880e-01 1.975815e-02 2.568554e-02 3.288224e-02 4.444643e-02 4.503074e-02 5.970783e-02 6.028060e-02 5.290486e-02 6.143679e-02 6.570165e-02 5.591878e-02 4.762510e-02 1.663833e-02
<GCONST> 5.941576e+01
<TRANSP> 5
 0.000000e+00 1.000000e+00 0.000000e+00 0.000000e+00 0.000000e+00
 0.000000e+00 7.111195e-01 2.888805e-01 0.000000e+00 0.000000e+00
 0.000000e+00 0.000000e+00 6.983396e-01 3.016604e-01 0.000000e+00
 0.000000e+00 0.000000e+00 0.000000e+00 8.500770e-01 1.499230e-01
 0.000000e+00 0.000000e+00 0.000000e+00 0.000000e+00 0.000000e+00
<ENDHMM>
~h "w"
<BEGINHMM>
<NUMSTATES> 5
<STATE> 2
<MEAN> 39
 8.532907e+00 -2.979006e-01 -7.141858e+00 -3.162020e+00 2.447371e+00 1.198013e+00 -1.510353e+00 -2.142241e+00 -5.417999e-02 9.562950e-01 1.473151e+00 -1.037165e+00 4.860868e+00 5.888203e-01 -6.416946e-02 -4.531120e-01 -3.324784e-01 7.287957e-02 3.903679e-01 -1.524981e-01 -1.801426e-01 3.286241e-01 5.770212e-01 1.830038e-01 -1.976762e-01 2.001319e-02 -1.436959e-01 -1.369954e-01 -3.789628e-02 -1.059336e-01 1.543865e-02 -4.181118e-02 -8.801354e-02 1.727385e-01 2.111847e-01 7.455739e-03 -2.576990e-01 -3.744084e-02 2.814079e-01
<VARIANCE> 39
 4.347648e+01 6.696651e+01 4.597114e+01 5.534839e+01 3.809532e+01 5.237033e+01 4.739038e+01 3.845417e+01 4.899974e+01 3.946911e+01 4.212248e+01 3.313730e+01 2.942359e+01 8.944369e-01 9.005476e-01 9.964705e-01 1.394651e+00 1.183913e+00 1.307681e+00 1.242645e+00 9.722133e-01 1.344068e+00 1.135015e+00 1.248013e+00 8.604669e-01 1.213841e+00 9.340187e-02 1.009452e-01 1.128400e-01 2.132062e-01 1.861914e-01 1.685901e-01 1.884817e-01 1.450426e-01 1.678177e-01 1.643009e-01 1.607007e-01 1.111223e-01 1.028700e-01
<GCONST> 9.687571e+01
<STATE> 3
<MEAN> 39
 9.218004e+00 -2.288618e+00 -1.069343e+01 -6.173061e+00 4.765646e+00 4.256955e+00 -5.188193e+00 1.341300e-01 3.501930e+00 4.857003e+00 -1.564076e+00 -5.264734e+00 6.477316e+00 3.517309e-03 -2.928993e-01 -1.857446e-01 -1.080588e-01 8.874545e-02 -1.847448e-01 -4.500827e-03 3.985401e-01 4.612836e-01 -1.598962e-01 -6.030697e-01 -5.233471e-02 4.006401e-01 -2.233536e-01 -8.037359e-02 2.758721e-01 1.178797e-01 -1.552849e-01 -1.912972e-01 1.882066e-01 1.354541e-01 -7.522486e-02 -3.002732e-01 -8.144125e-02 2.062022e-01 9.168747e-02
<VARIANCE> 39
 3.538008e+01 4.602963e+01 5.384650e+01 4.780976e+01 3.088296e+01 7.371989e+01 4.553059e+01 3.846280e+01 4.822550e+01 3.679537e+01 5.210068e+01 3.495647e+01 3.779007e+01 8.805591e-01 1.583643e+00 1.117352e+00 1.282148e+00 1.314039e+00 1.633690e+00 1.640262e+00 1.193014e+00 1.913620e+00 1.236736e+00 1.952379e+00 9.594597e-01 1.040354e+00 6.638615e-02 1.138499e-01 8.093859e-02 1.654233e-01 1.409305e-01 1.340879e-01 1.533630e-01 1.170836e-01 1.182236e-01 1.381762e-01 1.551576e-01 1.095648e-01 1.139789e-01
<GCONST> 9.685345e+01
<STATE> 4
<MEAN> 39
 8.227059e+00 8.652343e-01 -7.794234e+00 -8.531608e+00 9.628344e-01 3.449335e+00 -2.240118e+00 -1.147020e+00 2.448421e+00 2.928719e+00 4.377905e-01 -1.616770e+00 6.197538e+00 -1.828087e-01 -1.202304e-01 4.048120e-01 1.575331e-01 -2.962469e-01 -5.303777e-01 -6.565038e-02 2.970668e-01 5.403040e-02 -1.016078e-01 -2.934982e-01 1.025432e-01 1.540267e-01 -7.508212e-02 -3.208448e-02 1.318546e-01 1.204092e-01 -3.440938e-02 -4.705960e-02 4.110893e-02 7.018682e-02 -4.943680e-03 -3.747887e-03 -4.058359e-02 -1.858878e-02 2.945901e-02
<VARIANCE> 39
 2.807299e+01 4.401263e+01 4.555620e+01 4.955049e+01 4.109066e+01 5.525536e+01 4.130285e+01 2.939958e+01 4.009122e+01 4.713507e+01 4.731330e+01 2.965375e+01 2.674771e+01 6.574209e-01 8.039328e-01 7.755836e-01 1.100592e+00 1.073145e+00 1.025573e+00 1.249907e+00 1.211518e+00 1.327480e+00 1.183702e+00 9.877995e-01 1.002029e+00 1.005774e+00 6.592050e-02 7.814593e-02 7.143522e-02 1.305312e-01 1.329504e-01 1.267508e-01 1.462776e-01 1.142239e-01 1.443934e-01 1.220217e-01 1.326312e-01 9.886244e-02 8.736774e-02
<GCONST> 9.065801e+01
<TRANSP> 5
 0.000000e+00 1.000000e+00 0.000000e+00 0.000000e+00 0.000000e+00
 0.000000e+00 5.445668e-01 4.554332e-01 0.000000e+00 0.000000e+00
 0.000000e+00 0.000000e+00 5.260013e-01 4.739987e-01 0.000000e+00
 0.000000e+00 0.000000e+00 0.000000e+00 6.445321e-01 3.554679e-01
 0.000000e+00 0.000000e+00 0.000000e+00 0.000000e+00 0.000000e+00
<ENDHMM>
~h "y"
<BEGINHMM>
<NUMSTATES> 5
<STATE> 2
<MEAN> 39
 -2.520493e+00 5.737289e+00 1.169082e+01 -6.712244e+00 -4.294497e+00 3.762296e-01 -4.800702e+00 -4.196640e+00 -2.219255e+00 -1.003687e+00 -8.773469e-01 7.367066e-02 6.581317e+00 1.201779e-01 1.383047e-01 8.016448e-01 -5.531541e-01 -7.481782e-01 1.087210e-01 -1.486545e-01 -9.054738e-02 2.524222e-02 3.268648e-01 1.756338e-01 -6.454530e-02 4.997185e-01 1.038093e-01 -2.186542e-01 -2.203815e-01 8.561298e-02 -1.070353e-01 -7.468561e-02 1.860145e-01 1.358953e-01 2.612051e-02 8.149533e-02 -1.174852e-03 -3.139288e-02 5.048269e-02
<VARIANCE> 39
 2.871083e+01 6.103164e+01 6.359145e+01 7.902852e+01 4.558879e+01 3.684350e+01 5.457792e+01 4.197088e+01 5.852251e+01 3.680472e+01 5.918523e+01 3.113198e+01 6.874194e+01 7.139617e-01 1.112368e+00 1.858281e+00 1.105994e+00 1.305651e+00 1.226568e+00 1.208046e+00 1.334581e+00 1.220865e+00 8.900791e-01 9.884632e-01 6.544446e-01 1.093506e+00 6.658957e-02 1.213755e-01 2.117597e-01 1.044832e-01 1.356809e-01 1.336031e-01 1.536905e-01 1.526601e-01 1.401708e-01 1.101824e-01 1.332304e-01 9.403659e-02 6.760645e-02
<GCONST> 9.579475e+01
<STATE> 3
<MEAN> 39
 -1.319646e+00 3.791996e+00 1.212217e+01 -1.069079e+01 -1.177319e+01 5.383278e-01 -3.489619e-01 -5.144777e+00 -1.588066e+00 4.012553e+00 3.639364e-01 -9.742477e-01 1.161376e+01 5.474247e-01 -1.176271e+00 -1.024488e+00 3.742640e-01 -6.067123e-01 -5.532999e-01 1.007524e+00 1.081059e+00 -1.189785e-01 1.074665e-01 1.604376e-01 -1.456928e-01 5.114664e-01 5.754081e-02 -1.194584e-01 -3.055936e-01 2.898570e-01 3.759671e-01 -1.485385e-01 -6.234271e-02 2.780774e-01 1.209447e-02 -2.332705e-01 -9.419674e-02 5.678323e-02 -1.072415e-01
<VARIANCE> 39
 2.781007e+01 4.622522e+01 5.900059e+01 7.896321e+01 4.378650e+01 4.900161e+01 5.714801e+01 6.770921e+01 6.912791e+01 3.468946e+01 6.652846e+01 3.304837e+01 4.015112e+01 4.646697e-01 1.293309e+00 1.135276e+00 1.328664e+00 1.058524e+00 1.606009e+00 1.757023e+00 1.387441e+00 1.887466e+00 1.203999e+00 9.802228e-01 1.055731e+00 7.162239e-01 4.714217e-02 1.058022e-01 1.451104e-01 1.334258e-01 1.778949e-01 1.529146e-01 1.868372e-01 1.510034e-01 1.596566e-01 1.221284e-01 1.410029e-01 1.047291e-01 6.537908e-02
<GCONST> 9.693230e+01
<STATE> 4
<MEAN> 39
 1.394458e+00 -3.246297e+00 5.744834e+00 -4.879621e+00 -9.427907e+00 -5.148668e+00 1.943606e+00 3.881481e+00 -3.339735e+00 1.525848e-01 1.440420e-01 -1.448394e-01 1.244391e+01 6.471491e-01 -8.300200e-01 -1.728587e+00 9.388418e-01 1.142933e+00 -5.787092e-01 -2.727944e-01 1.084086e+00 4.606092e-01 -5.247403e-01 -4.212594e-01 1.391050e-01 -8.390811e-02 -2.545217e-02 2.455314e-01 4.763904e-02 9.748322e-03 2.876237e-01 2.276757e-01 -2.492630e-01 -3.460032e-01 7.699115e-02 4.189318e-02 -6.416473e-02 -3.164044e-02 -2.391060e-01
<VARIANCE> 39
 2.757905e+01 3.380876e+01 5.042778e+01 5.017426e+01 4.459275e+01 5.877929e+01 6.927045e+01 6.666251e+01 5.658838e+01 3.784268e+01 4.281060e+01 3.000746e+01 4.257478e+01 3.873059e-01 9.405434e-01 1.401164e+00 1.379616e+00 1.263492e+00 1.441995e+00 1.902135e+00 1.776924e+00 2.002645e+00 1.528672e+00 1.451022e+00 8.908786e-01 6.303152e-01 3.444676e-02 8.330168e-02 1.202665e-01 1.191402e-01 1.616025e-01 1.903983e-01 1.915561e-01 1.690716e-01 1.506207e-01 1.349858e-01 1.253429e-01 1.066748e-01 4.104644e-02
<GCONST> 9.520620e+01
<TRANSP> 5
 0.000000e+00 1.000000e+00 0.000000e+00 0.000000e+00 0.000000e+00
 0.000000e+00 7.335579e-01 2.664421e-01 0.000000e+00 0.000000e+00
 0.000000e+00 0.000000e+00 6.880820e-01 3.119179e-01 0.000000e+00
 0.000000e+00 0.000000e+00 0.000000e+00 6.542037e-01 3.457964e-01
 0.000000e+00 0.000000e+00 0.000000e+00 0.000000e+00 0.000000e+00
<ENDHMM>
~h "aa"
<BEGINHMM>
<NUMSTATES> 5
<STATE> 2
<MEAN> 39
 4.580101e+00 -8.186985e+00 -6.911086e+00 -3.376979e+00 1.236888e+00 2.569407e+00 -4.498777e-01 4.130368e+00 4.195547e+00 -1.316351e+00 -6.040050e+00 -1.948694e+00 1.212195e+01 1.645416e-01 -1.062762e+00 -9.516060e-01 -5.261411e-01 7.325971e-01 8.237986e-01 3.468664e-02 1.611362e-01 -7.936526e-04 -4.673826e-01 -6.716247e-01 -6.783421e-02 1.125643e+00 -1.097252e-01 1.720912e-01 1.298545e-01 2.049313e-01 1.257149e-01 -6.061236e-02 -2.997183e-02 -1.655259e-01 -1.002991e-01 3.537884e-02 1.688791e-01 2.212638e-02 -2.363893e-01
<VARIANCE> 39
 2.367623e+01 3.729026e+01 4.830957e+01 5.393309e+01 6.759416e+01 6.308540e+01 5.321601e+01 5.606491e+01 9.627034e+01 6.231322e+01 4.398658e+01 3.209259e+01 4.298658e+01 7.995953e-01 1.048050e+00 1.293854e+00 1.302179e+00 1.411339e+00 1.514433e+00 1.369358e+00 1.400659e+00 1.404824e+00 1.317082e+00 1.292808e+00 8.894181e-01 1.209251e+00 7.109136e-02 9.405360e-02 1.175543e-01 1.269528e-01 1.594780e-01 1.832595e-01 1.369737e-01 1.724843e-01 1.521384e-01 1.522899e-01 1.276974e-01 8.594958e-02 9.024473e-02
<GCONST> 9.792533e+01
<STATE> 3
<MEAN> 39
 3.380941e+00 -9.894913e+00 -9.121424e+00 -2.242337e+00 6.935424e+00 3.906998e+00 -1.168367e+00 1.751439e+00 3.869626e-01 -3.841949e+00 -5.939660e+00 -1.837234e+00 1.314460e+01 -9.768175e-02 -4.345183e-02 7.112605e-02 1.325496e-01 1.018147e-01 -9.974374e-02 -2.560265e-03 4.781194e-02 -7.246680e-02 -1.833773e-01 -5.628289e-02 8.092880e-02 -1.846269e-02 4.561396e-03 1.392542e-01 1.430647e-01 -7.721597e-03 -2.301972e-01 -1.352429e-01 6.593788e-02 4.161664e-02 6.935202e-03 2.951810e-02 4.116248e-02 3.380828e-02 -8.504782e-02
<VARIANCE> 39
 1.526899e+01 2.495219e+01 2.973823e+01 4.044976e+01 3.557901e+01 3.476865e+01 4.514795e+01 3.485525e+01 5.070354e+01 5.078281e+01 3.278832e+01 3.232524e+01 3.586964e+01 1.717604e-01 3.103552e-01 4.689545e-01 4.980289e-01 1.061963e+00 7.313517e-01 8.028484e-01 7.363836e-01 6.525605e-01 6.143507e-01 5.771981e-01 4.947912e-01 1.270548e-01 1.623186e-02 3.078176e-02 3.921941e-02 5.544485e-02 6.074946e-02 6.415559e-02 7.620309e-02 7.581290e-02 7.578161e-02 6.630385e-02 6.848130e-02 5.677646e-02 1.518361e-02
<GCONST> 6.873408e+01
<STATE> 4
<MEAN> 39
 3.358577e+00 -7.385396e+00 -6.519528e+00 -1.330953e+00 2.463588e+00 6.832483e-01 1.273656e+00 3.374181e+00 1.499535e+00 -4.213270e+00 -5.978735e+00 -5.819187e-01 9.508974e+00 1.276997e-02 5.900699e-01 7.061026e-01 3.629810e-01 -5.495896e-01 -3.385532e-01 1.934617e-01 -2.279207e-01 -2.421589e-01 5.456337e-02 4.555715e-01 1.575839e-01 -8.943818e-01 1.301451e-02 4.081032e-02 2.847785e-02 3.409062e-02 9.125024e-02 7.515046e-02 -7.262751e-02 -1.125150e-01 -2.745568e-02 9.357630e-02 8.669362e-02 -4.952195e-02 -1.011853e-01
<VARIANCE> 39
 2.104437e+01 3.125767e+01 3.759814e+01 3.999204e+01 4.280148e+01 4.471640e+01 4.397542e+01 5.089193e+01 6.553399e+01 5.610874e+01 3.412198e+01 3.163268e+01 7.019111e+01 6.018220e-01 5.980257e-01 7.683063e-01 7.526202e-01 1.118937e+00 1.171584e+00 1.100099e+00 1.028248e+00 1.077093e+00 1.003913e+00 8.219829e-01 6.608315e-01 5.246899e-01 5.880806e-02 7.285425e-02 6.371342e-02 9.383512e-02 1.127110e-01 1.297743e-01 1.262080e-01 1.297916e-01 1.114690e-01 1.030410e-01 9.291045e-02 6.977491e-02 6.399110e-02
<GCONST> 8.668131e+01
<TRANSP> 5
 0.000000e+00 1.000000e+00 0.000000e+00 0.000000e+00 0.000000e+00
 0.000000e+00 7.428632e-01 2.571367e-01 0.000000e+00 0.000000e+00
 0.000000e+00 0.000000e+00 8.575215e-01 1.424785e-01 0.000000e+00
 0.000000e+00 0.000000e+00 0.000000e+00 8.113450e-01 1.886550e-01
 0.000000e+00 0.000000e+00 0.000000e+00 0.000000e+00 0.000000e+00
<ENDHMM>
~h "ai"
<BEGINHMM>
<NUMSTATES> 5
<STATE> 2
<MEAN> 39
 -6.952627e+00 5.970243e-02 1.123774e+00 4.295887e+00 3.642063e+00 3.523069e+00 -1.907430e-01 4.217425e+00 1.554865e+00 1.721305e+00 3.932831e+00 -7.904401e-01 -2.335531e+01 1.321287e-01 1.370728e-01 1.064449e-01 -1.977810e-01 -1.043985e-01 1.743255e-01 8.556010e-02 -2.932118e-02 5.839585e-02 8.442919e-02 -7.206838e-02 1.139784e-01 -1.589891e-01 1.162480e-01 2.951615e-02 6.208754e-02 3.027306e-02 -3.789224e-02 -4.932944e-02 8.102199e-03 -1.562366e-01 -8.732955e-02 -4.089466e-02 -8.094605e-02 -8.744079e-03 2.888574e-01
<VARIANCE> 39
 7.647733e+01 3.238487e+01 3.472539e+01 3.500993e+01 5.482770e+01 3.842400e+01 3.269378e+01 4.225710e+01 4.194349e+01 3.950526e+01 3.116977e+01 1.405221e+01 5.229612e+02 1.922834e+00 7.877343e-01 8.441462e-01 8.419852e-01 9.452121e-01 1.395397e+00 8.727010e-01 1.037515e+00 1.368737e+00 7.751935e-01 9.127602e-01 5.332657e-01 6.422278e+00 2.240159e-01 7.207243e-02 5.153242e-02 8.344594e-02 7.154581e-02 1.478901e-01 1.149444e-01 1.822424e-01 1.415135e-01 7.327491e-02 1.343390e-01 6.457821e-02 7.359098e-01
<GCONST> 9.507114e+01
<STATE> 3
<MEAN> 39
 3.654119e+00 -6.795671e+00 6.767642e-01 -9.592909e-01 -6.686989e+00 7.798303e-01 1.400496e+00 3.808717e+00 4.066149e-01 -2.063382e+00 -5.337242e+00 1.159018e-01 1.230714e+01 -1.761103e-01 -1.795791e-01 5.651525e-01 -1.030733e+00 -9.774042e-01 -4.698129e-01 2.195437e-01 -4.783568e-01 -5.701243e-01 2.254645e-01 -2.701883e-01 2.828329e-02 1.653860e+00 -1.959062e-01 2.575513e-01 2.192835e-01 -1.592466e-01 1.376273e-01 -3.120028e-02 -1.320929e-01 -1.779774e-01 6.004157e-02 1.249411e-01 1.590038e-01 -3.337552e-02 -2.633704e-01
<VARIANCE> 39
 2.678215e+01 4.710099e+01 5.331638e+01 5.831242e+01 7.576904e+01 4.950029e+01 4.679604e+01 7.923082e+01 4.506153e+01 4.701990e+01 2.911990e+01 2.029645e+01 1.023831e+02 1.828761e+00 1.812984e+00 2.419932e+00 1.887348e+00 1.300182e+00 1.188750e+00 1.829700e+00 3.041198e+00 1.830917e+00 1.556130e+00 1.427311e+00 5.837486e-01 5.546539e+00 1.071486e-01 1.869016e-01 1.825777e-01 2.067541e-01 1.224943e-01 1.258709e-01 2.424821e-01 3.807942e-01 1.818142e-01 1.601631e-01 1.090428e-01 5.921559e-02 2.176466e-01
<GCONST> 1.055775e+02
<STATE> 4
<MEAN> 39
 -2.794040e-01 7.085941e-01 1.049641e+01 -7.025313e+00 -1.005947e+01 -3.622141e+00 -7.651569e-01 -2.731297e+00 -1.881706e+00 1.996894e+00 -1.555774e+00 7.434326e-01 1.081030e+01 -1.114410e-01 6.944185e-01 1.513764e-01 2.855931e-01 3.188338e-01 -1.785652e-02 -2.009660e-01 -5.717078e-01 -1.349615e-01 4.739455e-02 2.000891e-01 1.497243e-01 -7.326692e-01 6.068032e-02 -1.002184e-01 -1.850791e-01 1.461446e-01 9.650654e-02 6.637271e-02 3.863638e-02 1.321959e-01 4.717895e-02 -6.530765e-02 -2.338511e-02 6.308626e-03 -6.938549e-02
<VARIANCE> 39
 2.567828e+01 2.957120e+01 4.509473e+01 5.734858e+01 3.899695e+01 2.814995e+01 5.160474e+01 6.192179e+01 5.413894e+01 3.745801e+01 4.871941e+01 4.088623e+01 5.242093e+01 3.561600e-01 6.519529e-01 1.292425e+00 1.149041e+00 8.417017e-01 8.343908e-01 1.198678e+00 1.559204e+00 1.371814e+00 8.264181e-01 8.235212e-01 8.403779e-01 4.438770e-01 3.542302e-02 3.919375e-02 7.861950e-02 8.860180e-02 8.789790e-02 9.366519e-02 1.405613e-01 1.484290e-01 1.384188e-01 1.034857e-01 9.919397e-02 1.006612e-01 4.058222e-02
<GCONST> 8.628893e+01
<TRANSP> 5
 0.000000e+00 1.000000e+00 0.000000e+00 0.000000e+00 0.000000e+00
 0.000000e+00 7.469426e-01 2.530574e-01 0.000000e+00 0.000000e+00
 0.000000e+00 0.000000e+00 7.888589e-01 2.111411e-01 0.000000e+00
 0.000000e+00 0.000000e+00 0.000000e+00 9.185525e-01 8.144754e-02
 0.000000e+00 0.000000e+00 0.000000e+00 0.000000e+00 0.000000e+00
<ENDHMM>
~h "bb"
<BEGINHMM>
<NUMSTATES> 5
<STATE> 2
<MEAN> 39
 1.042736e+01 6.341849e+00 -1.079724e+01 -1.413488e+01 -1.660907e+00 1.998444e-01 -2.966923e+00 -2.423889e+00 -2.640965e+00 1.848259e+00 2.592668e+00 3.711525e-01 2.290030e+00 5.694840e-03 5.804414e-01 3.080333e-01 3.953078e-01 4.177706e-02 3.498701e-01 2.813970e-01 -2.824439e-01 -4.340434e-01 -2.745516e-01 5.679998e-02 -7.348803e-02 -7.118627e-01 -5.596574e-02 -2.390373e-02 1.364373e-01 2.868439e-01 6.797046e-02 9.078315e-03 1.707813e-02 6.775270e-03 5.220342e-02 -5.243468e-02 -4.283361e-02 -8.457015e-02 -1.211612e-01
<VARIANCE> 39
 1.390877e+01 2.486471e+01 2.495808e+01 2.609223e+01 3.025027e+01 1.911990e+01 1.574950e+01 2.232417e+01 3.394923e+01 4.846420e+01 2.124928e+01 2.081548e+01 2.683360e+01 1.941398e-01 1.515030e-01 4.872729e-01 1.596626e+00 3.659032e-01 6.336641e-01 3.972711e-01 4.629853e-01 6.370588e-01 6.052231e-01 6.370134e-01 5.306944e-01 5.566066e-01 2.954902e-02 2.870520e-02 6.410468e-02 1.639927e-01 6.277549e-02 5.076976e-02 5.432186e-02 7.173532e-02 6.758396e-02 6.454554e-02 6.384496e-02 5.832416e-02 7.449833e-02
<GCONST> 6.690786e+01
<STATE> 3
<MEAN> 39
 9.117245e+00 3.745067e+00 -6.210723e+00 -1.624816e-01 2.755738e+00 4.124371e+00 -1.584062e+00 -3.066375e+00 -1.599746e+00 2.414579e-01 7.776704e-01 -2.300815e+00 -1.053713e+00 -1.021925e-01 2.409956e-01 5.176995e-01 1.620515e+00 5.481142e-01 2.218954e-01 8.657177e-01 -7.112867e-03 1.589254e-01 -3.086812e-01 2.324269e-01 -2.267272e-01 -1.040552e+00 -1.450643e-01 -9.402408e-02 -2.492866e-02 -2.015221e-01 -3.961326e-02 -5.496721e-02 -6.304228e-02 8.201507e-02 7.706071e-02 5.175786e-02 -4.777679e-02 5.860383e-02 1.524853e-01
<VARIANCE> 39
 1.830040e+01 6.947304e+01 2.041183e+01 6.279000e+01 2.991596e+01 4.194176e+01 5.033521e+01 2.532631e+01 3.879675e+01 2.887691e+01 2.666962e+01 2.604368e+01 3.507513e+01 4.934637e-01 4.138456e-01 5.627133e-01 7.574663e-01 6.889103e-01 1.078172e+00 6.233027e-01 7.510275e-01 9.116517e-01 4.759053e-01 5.054150e-01 6.460986e-01 2.718671e-01 2.983897e-02 5.107267e-02 4.610074e-02 1.079257e-01 3.219713e-02 7.426190e-02 9.305344e-02 6.784205e-02 9.248151e-02 5.993866e-02 4.999923e-02 7.338201e-02 3.701895e-02
<GCONST> 7.364376e+01
<STATE> 4
<MEAN> 39
 3.377816e+00 2.105768e+00 -3.388345e+00 -1.110669e+00 3.318093e+00 4.248162e+00 1.331627e+00 -1.950466e+00 -2.116609e+00 -6.245513e-01 1.352021e+00 -1.231390e+00 -1.368809e+00 -2.891101e-01 -2.427599e-01 5.910597e-02 3.066553e-02 3.773646e-02 -1.063263e-01 -6.034480e-02 1.082744e-01 1.365103e-01 1.856800e-01 4.866626e-02 -1.485023e-02 1.040854e-01 2.880100e-02 -1.102985e-01 -5.170538e-02 -1.780073e-01 -1.004505e-01 -6.760456e-02 -1.071007e-01 2.081062e-02 7.665931e-02 1.147818e-01 -4.990378e-02 -3.959988e-02 2.082825e-01
<VARIANCE> 39
 1.766557e+01 4.151950e+01 1.566914e+01 4.395932e+01 2.814259e+01 3.273124e+01 2.241516e+01 1.762778e+01 3.591942e+01 2.091996e+01 2.884669e+01 2.641829e+01 1.494331e+01 2.929216e-01 5.010324e-01 4.266142e-01 9.344718e-01 5.748370e-01 7.366565e-01 5.113699e-01 4.575658e-01 4.283868e-01 3.619291e-01 5.093321e-01 4.977463e-01 4.972127e-01 4.287415e-02 7.736646e-02 6.941686e-02 1.234259e-01 9.096009e-02 9.059413e-02 5.948487e-02 5.793322e-02 7.666399e-02 8.828979e-02 1.122832e-01 5.976623e-02 8.490141e-02
<GCONST> 7.108821e+01
<TRANSP> 5
 0.000000e+00 1.000000e+00 0.000000e+00 0.000000e+00 0.000000e+00
 0.000000e+00 8.280634e-01 1.719366e-01 0.000000e+00 0.000000e+00
 0.000000e+00 0.000000e+00 7.433665e-01 2.566334e-01 0.000000e+00
 0.000000e+00 0.000000e+00 0.000000e+00 8.785686e-01 1.214314e-01
 0.000000e+00 0.000000e+00 0.000000e+00 0.000000e+00 0.000000e+00
<ENDHMM>
~h "bh"
<BEGINHMM>
<NUMSTATES> 5
<STATE> 2
<MEAN> 39
 -8.898295e+00 -4.637987e+00 -2.580430e+00 3.106664e+00 5.388623e+00 4.480856e+00 4.024344e+00 6.591256e+00 4.930230e+00 3.019488e+00 2.763263e+00 2.025250e+00 -1.816348e+01 4.822009e-02 -1.933152e-01 -2.836742e-01 5.080540e-02 7.936481e-02 -2.537164e-01 3.169708e-01 2.325018e-02 2.116092e-01 -1.325361e-01 -2.185505e-01 5.913589e-02 1.030366e+00 1.178322e-01 -1.566805e-02 2.142556e-02 -1.114067e-01 -1.378507e-01 -1.575625e-01 -3.952828e-02 -1.082783e-01 -6.653064e-02 -5.001631e-02 -1.007887e-01 -5.570017e-02 2.984020e-01
<VARIANCE> 39
 1.490390e+02 8.583649e+01 4.516005e+01 5.433681e+01 5.586321e+01 7.271367e+01 4.935067e+01 3.014036e+01 3.688467e+01 2.823603e+01 4.448989e+01 1.583790e+01 4.971679e+02 3.697782e+00 1.855456e+00 1.626068e+00 1.638580e+00 1.615488e+00 3.104182e+00 1.651914e+00 1.010519e+00 1.065769e+00 1.820044e+00 1.474879e+00 5.044799e-01 1.358941e+01 2.584638e-01 3.083503e-01 1.534993e-01 2.969090e-01 1.970101e-01 3.767080e-01 2.397709e-01 1.158100e-01 8.806111e-02 1.709104e-01 1.703373e-01 4.329569e-02 1.115117e+00
<GCONST> 1.114757e+02
<STATE> 3
<MEAN> 39
 6.310983e+00 -6.082030e+00 -3.444978e+00 2.812692e+00 2.631647e-01 -2.042793e+00 1.517387e+00 4.240516e+00 3.523528e+00 -5.087467e+00 -5.660714e+00 -3.726320e+00 1.038378e+01 -7.138935e-02 4.235390e-01 1.522209e+00 -3.501962e-01 -1.256206e+00 -2.534365e-01 -3.661923e-01 -5.121956e-01 -1.035852e+00 3.546010e-01 2.942135e-01 -1.686840e-01 5.016071e-01 -2.299677e-01 4.734068e-02 1.605589e-01 -2.114218e-01 7.825334e-03 1.504487e-01 -7.715873e-02 -1.467167e-01 -5.043321e-02 1.499447e-01 1.050982e-02 4.437467e-02 -1.824327e-02
<VARIANCE> 39
 2.965625e+01 4.246236e+01 7.729721e+01 3.948398e+01 9.606943e+01 5.368571e+01 2.443155e+01 4.321810e+01 5.565648e+01 5.316345e+01 5.038536e+01 1.839276e+01 8.097685e+01 2.189498e+00 1.602959e+00 1.973156e+00 2.661134e+00 3.581050e+00 2.410346e+00 8.343474e-01 2.791362e+00 2.238761e+00 1.057207e+00 1.632071e+00 6.292794e-01 2.332908e+00 1.111335e-01 1.794823e-01 1.816802e-01 1.817059e-01 5.313237e-01 3.093998e-01 1.724410e-01 3.080624e-01 2.584049e-01 1.267332e-01 1.652009e-01 7.728463e-02 6.137543e-01
<GCONST> 1.088838e+02
<STATE> 4
<MEAN> 39
 4.233387e+00 -5.850254e-01 7.575920e+00 -4.885439e+00 -3.670757e+00 -6.099337e-01 3.218301e+00 -4.011567e+00 -3.846939e+00 2.696572e+00 -5.910518e+00 -3.170945e+00 9.988656e+00 3.475224e-02 1.979789e-01 1.529011e-01 -6.623811e-02 1.750911e-01 -7.135776e-02 -3.240254e-01 -8.779740e-01 -6.167288e-01 -3.042611e-01 -2.604584e-01 -2.408244e-01 -1.640260e-01 2.265549e-02 -2.993614e-02 -2.155571e-01 1.262378e-01 1.142409e-01 1.378695e-01 -7.959670e-02 1.052400e-01 1.123098e-01 -2.093357e-01 5.329945e-04 -5.655238e-02 -4.792422e-02
<VARIANCE> 39
 2.521346e+01 1.507633e+01 3.935804e+01 7.493958e+01 2.560166e+01 6.473032e+01 4.517027e+01 5.459923e+01 2.953972e+01 3.462164e+01 5.423058e+01 5.164267e+01 5.536197e+01 1.078564e+00 1.329784e+00 1.818542e+00 4.622140e+00 1.136000e+00 1.751405e+00 6.964948e-01 2.096796e+00 9.182860e-01 2.343231e+00 2.205703e+00 7.743470e-01 1.325711e+00 9.139242e-02 8.167278e-02 1.528789e-01 3.763071e-01 2.282366e-01 3.182893e-01 8.341384e-02 1.846213e-01 1.174736e-01 1.280236e-01 1.766093e-01 1.336411e-01 1.026307e-01
<GCONST> 1.000831e+02
<TRANSP> 5
 0.000000e+00 1.000000e+00 0.000000e+00 0.000000e+00 0.000000e+00
 0.000000e+00 8.669160e-01 1.330840e-01 0.000000e+00 0.000000e+00
 0.000000e+00 0.000000e+00 7.998753e-01 2.001247e-01 0.000000e+00
 0.000000e+00 0.000000e+00 0.000000e+00 7.355066e-01 2.644934e-01
 0.000000e+00 0.000000e+00 0.000000e+00 0.000000e+00 0.000000e+00
<ENDHMM>
~h "dd"
<BEGINHMM>
<NUMSTATES> 5
<STATE> 2
<MEAN> 39
 3.524254e+00 6.967022e+00 7.824926e+00 4.730232e+00 -5.393053e+00 -1.253196e+00 1.541959e+00 -3.886468e+00 -1.551694e+00 1.346056e+00 7.793463e-01 -6.026430e-01 -2.745686e+00 3.345106e-02 5.789515e-01 -5.942240e-01 7.570214e-01 1.213779e+00 7.111995e-01 1.451809e-01 1.713460e-01 2.322326e-01 -4.332860e-01 -3.115121e-01 -3.159109e-01 -9.607811e-01 -1.441679e-01 -8.449037e-02 9.169303e-04 -1.980597e-01 -5.258969e-03 -4.896972e-02 -2.658009e-02 -4.762595e-02 -4.956073e-02 5.585168e-02 4.464550e-02 1.604314e-02 1.454650e-01
<VARIANCE> 39
 9.376516e+00 2.654501e+01 2.213413e+01 1.927983e+01 3.063222e+01 1.026645e+02 2.219076e+01 4.586690e+01 3.430806e+01 3.175801e+01 2.802018e+01 3.238251e+01 2.272528e+01 2.392286e-01 3.574603e-01 6.708540e-01 6.663882e-01 6.354133e-01 1.042036e+00 1.081115e+00 6.432410e-01 7.195332e-01 5.989062e-01 7.336226e-01 4.475516e-01 2.431086e-01 3.015773e-02 3.299919e-02 4.316598e-02 7.926498e-02 5.854006e-02 1.757693e-01 7.195491e-02 8.555096e-02 5.888030e-02 7.253459e-02 6.863712e-02 4.693770e-02 4.343957e-02
<GCONST> 7.116003e+01
<STATE> 3
<MEAN> 39
 5.503313e-01 6.262458e+00 5.566664e+00 6.031152e+00 1.411387e+00 -1.237867e+00 2.083984e+00 -3.479860e+00 -4.209726e+00 -1.305966e+00 1.217234e+00 4.867323e-01 -4.998494e+00 -4.028927e-01 -2.394707e-01 -5.968083e-01 -7.700795e-02 6.347054e-01 1.331529e-01 4.392420e-02 1.817163e-02 2.252683e-01 -1.001455e-01 -2.569930e-02 1.499497e-02 -1.919918e-01 -4.302661e-02 -1.702155e-01 -3.054828e-03 -1.547601e-01 -1.995441e-01 -1.959762e-01 -5.054940e-02 1.079328e-01 1.353973e-01 4.575978e-02 6.069809e-02 3.635408e-02 2.693192e-01
<VARIANCE> 39
 1.001471e+01 1.879662e+01 2.135779e+01 1.786295e+01 2.821596e+01 2.454954e+01 2.357169e+01 2.591509e+01 4.290357e+01 3.351349e+01 2.487441e+01 2.546825e+01 1.728539e+01 1.334619e-01 2.875997e-01 2.660279e-01 4.756808e-01 4.906855e-01 6.833254e-01 6.867514e-01 5.702133e-01 8.532491e-01 4.432462e-01 4.883466e-01 3.696194e-01 3.644415e-01 4.716319e-02 5.167822e-02 5.550213e-02 5.136005e-02 8.465867e-02 7.914661e-02 1.279080e-01 9.277078e-02 1.216829e-01 9.349760e-02 7.918077e-02 5.873441e-02 5.272018e-02
<GCONST> 6.722889e+01
<STATE> 4
<MEAN> 39
 -8.186983e-01 4.743309e+00 2.842270e+00 5.860016e+00 9.786647e-01 -7.495000e-01 2.505421e+00 -2.659941e+00 1.708641e-01 5.841847e-01 2.158018e+00 -1.018757e+00 -3.335274e+00 -5.026172e-01 -1.362336e+00 -6.776904e-01 -1.019816e+00 -6.891335e-01 -1.148156e+00 -6.866260e-02 1.077434e+00 6.272039e-01 -8.748258e-02 1.100319e-01 4.028201e-01 2.181477e+00 1.438621e-01 -1.247715e-01 1.015984e-01 -2.602388e-01 -3.307216e-01 -1.008035e-01 -4.245203e-02 1.983380e-01 5.636563e-02 5.011389e-02 -1.583609e-01 5.758236e-02 4.036281e-01
<VARIANCE> 39
 3.089649e+01 4.711902e+01 4.680507e+01 3.921701e+01 4.848072e+01 5.940918e+01 3.696741e+01 3.879894e+01 3.384838e+01 4.169970e+01 2.586455e+01 2.984207e+01 7.625123e+01 1.251521e+00 1.082511e+00 1.720264e+00 1.430117e+00 1.826795e+00 2.297777e+00 2.431649e+00 2.602107e+00 1.897160e+00 1.822856e+00 1.105387e+00 9.929070e-01 2.307759e+00 1.399813e-01 1.550431e-01 1.364288e-01 1.814830e-01 1.697538e-01 2.292406e-01 2.265684e-01 2.119999e-01 1.288469e-01 1.714452e-01 1.025125e-01 1.089356e-01 3.335595e-01
<GCONST> 1.033818e+02
<TRANSP> 5
 0.000000e+00 1.000000e+00 0.000000e+00 0.000000e+00 0.000000e+00
 0.000000e+00 7.205805e-01 2.794195e-01 0.000000e+00 0.000000e+00
 0.000000e+00 0.000000e+00 7.649305e-01 2.350695e-01 0.000000e+00
 0.000000e+00 0.000000e+00 0.000000e+00 7.900192e-01 2.099809e-01
 0.000000e+00 0.000000e+00 0.000000e+00 0.000000e+00 0.000000e+00
<ENDHMM>
~h "dh"
<BEGINHMM>
<NUMSTATES> 5
<STATE> 2
<MEAN> 39
 3.249979e+00 1.793447e+00 7.850130e-01 4.778756e+00 -1.136187e-01 4.658479e-01 2.879626e+00 -1.017205e+00 -5.974102e+00 -4.667573e+00 -2.824539e+00 -3.172866e+00 4.096957e+00 -5.785210e-01 3.931632e-01 5.924497e-01 2.199237e-02 -4.953345e-02 5.609648e-01 9.010784e-02 -4.279854e-01 9.611037e-02 9.236995e-02 -6.403121e-02 -2.002609e-01 4.699313e-03 -2.742581e-01 -9.866676e-02 -2.110158e-04 -5.415589e-01 -1.268021e-01 -3.888433e-01 4.139103e-02 -8.775084e-02 2.754226e-01 8.251420e-02 1.160543e-02 1.588211e-01 3.404425e-01
<VARIANCE> 39
 5.460441e+01 4.353639e+01 2.866198e+01 2.699525e+01 4.893808e+01 2.678569e+01 3.016228e+01 3.606836e+01 4.903834e+01 7.800653e+01 2.577094e+01 3.566325e+01 1.024980e+02 1.668980e+00 6.759111e-01 1.233781e+00 2.513470e+00 1.327821e+00 1.875756e+00 6.623228e-01 1.310263e+00 1.279462e+00 1.139783e+00 6.405013e-01 1.053063e+00 1.250870e+00 1.767663e-01 2.118399e-01 1.396517e-01 1.764009e-01 1.228006e-01 1.684568e-01 1.535107e-01 1.608318e-01 1.897166e-01 1.620905e-01 9.140873e-02 1.499249e-01 1.643538e-01
<GCONST> 9.805984e+01
<STATE> 3
<MEAN> 39
 -1.841742e-01 4.045010e+00 3.542596e+00 -3.739038e-01 -3.539084e+00 -1.996795e+00 9.807696e-01 -5.567689e+00 -3.281401e+00 -2.023738e+00 -3.052751e+00 -3.732660e+00 6.021510e+00 -8.042543e-01 -3.289450e-01 1.051639e-01 -9.855788e-01 -4.713933e-01 -3.923642e-01 -5.674348e-02 -5.546550e-01 3.148181e-01 -3.594735e-01 -2.061564e-01 6.046255e-01 9.962393e-01 1.268258e-01 -1.721480e-01 -1.176469e-01 -3.062520e-02 3.611928e-02 -6.807046e-02 -2.700642e-02 1.345479e-01 1.722956e-02 -1.906404e-02 3.441657e-02 8.236903e-02 3.164764e-02
<VARIANCE> 39
 5.066950e+01 4.432600e+01 3.197130e+01 4.096713e+01 5.338388e+01 2.269145e+01 2.610298e+01 5.844489e+01 2.417344e+01 3.126376e+01 4.318978e+01 1.912748e+01 7.525764e+01 6.082828e-01 2.409335e+00 1.024927e+00 1.406054e+00 1.770659e+00 9.086341e-01 1.717939e+00 1.072875e+00 5.109462e-01 1.029263e+00 9.884797e-01 8.092772e-01 1.776983e+00 9.360346e-02 1.873548e-01 8.336827e-02 1.409419e-01 1.587866e-01 1.539895e-01 9.487734e-02 1.111584e-01 8.915775e-02 1.450257e-01 1.350399e-01 5.847337e-02 1.847299e-01
<GCONST> 9.258162e+01
<STATE> 4
<MEAN> 39
 2.975043e+00 -1.496636e+00 2.550757e+00 -8.695103e+00 -8.963650e+00 -1.102419e+00 -2.540950e+00 -2.770036e+00 -5.221069e+00 -5.793387e+00 -3.268044e+00 9.156910e-01 7.643981e+00 -6.504178e-02 3.958585e-03 -1.526644e-02 -2.701556e-01 -1.241668e-01 9.198303e-02 -8.584190e-02 -6.034115e-03 1.543009e-01 -1.107970e-01 8.827171e-04 1.817325e-01 -1.977407e-02 -3.778762e-03 1.850766e-02 1.509492e-02 4.456024e-02 2.714163e-02 -8.799748e-03 -1.136533e-03 2.725854e-02 -1.235427e-02 2.941051e-02 3.796918e-02 -2.282977e-02 -3.105147e-02
<VARIANCE> 39
 1.148159e+01 3.264384e+01 2.749026e+01 5.272893e+01 4.067141e+01 2.891315e+01 7.412049e+01 2.162924e+01 3.694001e+01 2.098623e+01 2.650993e+01 1.556048e+01 1.850416e+01 1.482049e-01 6.736376e-01 3.851848e-01 9.124094e-01 1.148523e+00 8.578365e-01 1.338432e+00 6.159676e-01 1.073006e+00 6.909258e-01 9.521616e-01 5.822189e-01 3.097634e-01 1.382970e-02 5.189443e-02 5.383473e-02 8.301500e-02 1.393050e-01 9.114166e-02 1.143505e-01 8.507510e-02 1.137603e-01 8.208934e-02 1.165631e-01 6.068515e-02 3.584947e-02
<GCONST> 7.470400e+01
<TRANSP> 5
 0.000000e+00 1.000000e+00 0.000000e+00 0.000000e+00 0.000000e+00
 0.000000e+00 6.256236e-01 3.743764e-01 0.000000e+00 0.000000e+00
 0.000000e+00 0.000000e+00 6.718435e-01 3.281565e-01 0.000000e+00
 0.000000e+00 0.000000e+00 0.000000e+00 8.687431e-01 1.312569e-01
 0.000000e+00 0.000000e+00 0.000000e+00 0.000000e+00 0.000000e+00
<ENDHMM>
~h "dx"
<BEGINHMM>
<NUMSTATES> 5
<STATE> 2
<MEAN> 39
