~o
<STREAMINFO> 1 39
<VECSIZE> 39<NULLD><MFCC_D_A_Z_0><DIAGC>
~s "silst"
<MEAN> 39
 -2.668223e+00 -1.707353e+00 -5.035578e+00 8.345004e+00 4.091307e+00 4.685443e+00 4.773963e-01 4.532126e-01 1.739332e+00 1.258330e+00 3.748448e+00 1.090355e+00 -9.973729e+00 -3.485369e-02 2.198777e-02 -3.376736e-02 2.567313e-02 2.250283e-03 2.601694e-02 1.634038e-04 -5.509904e-02 1.531996e-02 -7.909103e-03 -6.079658e-02 -1.240387e-02 -4.352847e-02 1.064526e-02 8.017451e-03 1.846666e-02 -2.243688e-04 1.006820e-02 5.832872e-03 8.040937e-03 9.240978e-03 1.004168e-02 -5.224893e-03 -6.082055e-03 5.708023e-03 7.837121e-03
<VARIANCE> 39
 1.105582e+01 4.794620e+01 2.508020e+01 3.686600e+01 3.017671e+01 3.127649e+01 6.578239e+01 3.517392e+01 3.514278e+01 3.550422e+01 3.285981e+01 1.973814e+01 3.115404e+01 1.197774e-01 1.702813e-01 2.372349e-01 2.707869e-01 3.699363e-01 4.654095e-01 4.751254e-01 4.625153e-01 4.079719e-01 4.819644e-01 3.827797e-01 3.383867e-01 1.163267e-01 1.168119e-02 2.055843e-02 2.911031e-02 3.487122e-02 4.798704e-02 5.580071e-02 6.189342e-02 5.649584e-02 5.159530e-02 5.960503e-02 4.972706e-02 4.368726e-02 7.799353e-03
<GCONST> 5.710960e+01
~h "a"
<BEGINHMM>
<NUMSTATES> 5
<STATE> 2
<MEAN> 39
 3.802570e+00 -5.249636e+00 -2.836663e+00 -1.807916e+00 -1.961393e+00 -2.371243e+00 2.951255e-01 5.344681e+00 2.964137e+00 -4.556031e-01 -3.242502e+00 -7.636614e-01 9.369435e+00 2.905973e-01 -8.074576e-01 -4.151691e-01 -3.782960e-01 -1.617386e-01 4.780816e-02 -7.457944e-02 6.895145e-01 3.229452e-01 -2.613288e-01 -7.332839e-01 -1.404162e-02 1.087990e+00 -5.148496e-02 1.951780e-01 1.171508e-01 1.567973e-01 9.063380e-02 8.751227e-02 3.169583e-03 -2.174149e-01 -1.459674e-01 -1.165121e-03 1.045068e-01 2.584970e-03 -2.856502e-01
<VARIANCE> 39
 3.363711e+01 4.743682e+01 5.705385e+01 4.830822e+01 7.006565e+01 6.575426e+01 6.953895e+01 5.961227e+01 9.293768e+01 5.872972e+01 5.247113e+01 3.312295e+01 8.396129e+01 1.135892e+00 1.505021e+00 1.867603e+00 1.686166e+00 2.109958e+00 1.976770e+00 1.974738e+00 1.732385e+00 2.043786e+00 1.662596e+00 1.368693e+00 1.063651e+00 2.386741e+00 1.138957e-01 1.597241e-01 1.686092e-01 1.685379e-01 2.247385e-01 2.210736e-01 2.437472e-01 2.275809e-01 2.324266e-01 2.092749e-01 1.865417e-01 1.231041e-01 2.708610e-01
<GCONST> 1.094800e+02
<STATE> 3
<MEAN> 39
 3.509119e+00 -6.677489e+00 -2.913581e+00 -3.309049e+00 -3.094855e+00 -2.723785e+00 5.244029e-01 6.622779e+00 2.939993e+00 -1.636201e+00 -5.266793e+00 -4.588857e-01 1.252163e+01 6.923632e-02 3.116200e-01 2.362340e-01 4.274740e-01 1.712464e-01 1.468235e-01 1.421636e-03 -3.650285e-01 -3.010690e-01 -1.108333e-01 1.641563e-01 1.838087e-02 -5.139887e-01 -3.289278e-02 2.644354e-01 1.502752e-01 2.275195e-01 8.197289e-02 2.423866e-02 -9.109299e-03 -2.772915e-01 -9.876342e-02 6.956045e-02 2.247543e-01 -5.990183e-03 -3.622183e-01
<VARIANCE> 39
 2.300025e+01 2.957014e+01 4.610262e+01 3.602193e+01 5.380327e+01 5.320423e+01 6.679498e+01 4.982168e+01 8.663685e+01 5.617688e+01 3.793265e+01 2.984168e+01 4.786666e+01 5.726201e-01 7.746276e-01 1.078586e+00 1.043104e+00 1.464133e+00 1.421480e+00 1.537602e+00 1.125941e+00 1.179184e+00 1.082878e+00 1.022724e+00 7.565150e-01 7.086898e-01 9.408247e-02 9.464368e-02 1.041897e-01 1.287475e-01 1.772900e-01 1.659077e-01 2.013043e-01 1.701415e-01 1.803976e-01 1.618988e-01 1.152639e-01 1.021477e-01 7.084920e-02
<GCONST> 9.474922e+01
<STATE> 4
<MEAN> 39
 4.052896e+00 -4.085132e+00 -3.506586e+00 6.320722e-01 1.022282e+00 3.172787e-01 8.284882e-01 2.379776e+00 3.590011e-01 -2.370090e+00 -2.603739e+00 -1.492540e+00 4.582391e+00 -6.867899e-02 5.106951e-01 2.765996e-01 5.021244e-01 1.659996e-01 1.005370e-01 1.576934e-01 -4.289139e-01 -3.144597e-01 -2.829996e-02 3.473215e-01 2.906413e-02 -9.682463e-01 -4.023429e-02 9.224525e-03 9.092858e-04 -5.011355e-02 -2.599923e-02 -1.688599e-02 2.764514e-03 2.441961e-02 2.518616e-02 3.372585e-02 1.335126e-02 7.582869e-03 2.097365e-02
<VARIANCE> 39
 2.179945e+01 3.386076e+01 4.972189e+01 4.888255e+01 5.602353e+01 4.908359e+01 5.047158e+01 3.967796e+01 5.631677e+01 5.029108e+01 3.349921e+01 3.023187e+01 6.524069e+01 7.325672e-01 6.831917e-01 8.240294e-01 9.057565e-01 8.833330e-01 1.089170e+00 1.146930e+00 9.746955e-01 1.266414e+00 9.305053e-01 7.077940e-01 6.422009e-01 7.152146e-01 4.836585e-02 6.318274e-02 7.282063e-02 8.388223e-02 9.001245e-02 9.769487e-02 1.089684e-01 1.005397e-01 1.090479e-01 9.216566e-02 8.187195e-02 6.755568e-02 5.758559e-02
<GCONST> 8.598625e+01
<TRANSP> 5
 0.000000e+00 1.000000e+00 0.000000e+00 0.000000e+00 0.000000e+00
 0.000000e+00 5.972301e-01 4.027699e-01 0.000000e+00 0.000000e+00
 0.000000e+00 0.000000e+00 5.950454e-01 4.049546e-01 0.000000e+00
 0.000000e+00 0.000000e+00 0.000000e+00 7.305804e-01 2.694196e-01
 0.000000e+00 0.000000e+00 0.000000e+00 0.000000e+00 0.000000e+00
<ENDHMM>
~h "b"
<BEGINHMM>
<NUMSTATES> 5
<STATE> 2
<MEAN> 39
 5.569782e+00 5.769774e-01 -4.600099e-01 2.402086e+00 -8.966094e-02 -1.173522e+00 -1.244851e+00 -1.144780e+00 -9.295989e-01 4.243959e-01 -1.513648e+00 -1.893825e+00 2.178791e+00 1.286392e-01 5.806522e-01 -1.083967e-01 -2.202075e-01 -1.493164e-03 2.197548e-01 -1.043502e-01 -1.752469e-01 -2.254899e-01 5.561787e-02 9.836353e-02 8.248587e-02 -5.350220e-03 -5.727297e-02 -4.285963e-02 -5.755390e-02 -2.089368e-01 -5.469149e-02 1.405382e-02 -1.503866e-02 5.463538e-02 6.599995e-02 2.952366e-02 -8.517027e-03 2.905075e-02 1.675244e-01
<VARIANCE> 39
 2.615047e+01 4.315944e+01 5.092196e+01 8.513242e+01 5.795370e+01 7.000364e+01 5.739146e+01 6.595165e+01 6.517510e+01 7.314438e+01 7.215334e+01 4.873231e+01 4.916327e+01 8.039865e-01 1.320309e+00 1.619025e+00 3.438945e+00 1.696003e+00 2.326001e+00 2.048424e+00 1.105168e+00 1.619389e+00 1.516234e+00 2.067769e+00 1.803508e+00 1.728995e+00 7.924202e-02 1.584771e-01 1.644438e-01 3.846408e-01 2.078005e-01 3.484527e-01 2.439084e-01 1.861985e-01 2.217517e-01 2.347324e-01 2.341084e-01 2.085236e-01 2.387706e-01
<GCONST> 1.106227e+02
<STATE> 3
<MEAN> 39
 5.595628e+00 4.332036e+00 -3.215843e-01 1.698850e+00 3.284946e-02 -1.478238e-01 -1.766627e+00 -1.707690e+00 -2.096266e+00 -1.316919e+00 -1.653128e+00 -2.435189e+00 1.211764e+00 1.375952e-01 -1.367211e-01 -2.442529e-01 -5.477029e-02 3.658076e-01 1.291351e-01 9.993100e-02 1.395615e-01 4.172422e-01 2.036854e-01 2.076749e-02 -1.686411e-01 1.101222e-01 -2.178043e-02 -3.515209e-01 -1.409679e-01 -2.490544e-01 -1.080761e-01 -1.083326e-01 -3.483301e-02 1.224157e-01 1.777311e-01 1.370368e-01 -7.031469e-02 6.477025e-02 3.436362e-01
<VARIANCE> 39
 2.507881e+01 3.098262e+01 5.093439e+01 8.891984e+01 5.437961e+01 4.860909e+01 4.644503e+01 4.999650e+01 5.424989e+01 4.508375e+01 4.236428e+01 3.634605e+01 6.476280e+01 6.840043e-01 1.545164e+00 1.671965e+00 2.010960e+00 1.081158e+00 1.279989e+00 1.191275e+00 1.046152e+00 1.635609e+00 1.344160e+00 9.552713e-01 1.061471e+00 1.578412e+00 9.521744e-02 1.726498e-01 2.269175e-01 3.188129e-01 2.186535e-01 1.689068e-01 1.932984e-01 1.799148e-01 1.590608e-01 1.517276e-01 1.677087e-01 1.417017e-01 2.223772e-01
<GCONST> 1.024053e+02
<STATE> 4
<MEAN> 39
 3.727011e+00 1.640368e+00 -5.175277e-01 2.777282e+00 2.835452e+00 6.205913e-01 1.685918e-01 -2.165596e+00 -8.072547e-01 -1.412457e-01 2.962179e-02 -1.045172e+00 -1.108353e+00 1.071966e-02 -4.813648e-01 -3.179593e-01 -3.514984e-01 -1.313151e-01 -1.907259e-01 -9.444249e-02 3.461831e-01 2.028820e-01 1.830182e-01 8.162138e-02 1.023420e-01 3.962712e-01 5.495524e-03 -1.091995e-01 -5.196774e-03 -1.335182e-01 -1.603220e-01 -5.733394e-02 -6.279590e-02 5.267160e-02 2.345164e-02 2.793713e-02 -5.050783e-02 1.717372e-02 2.026604e-01
<VARIANCE> 39
 2.888390e+01 2.427719e+01 4.569273e+01 3.826634e+01 2.873181e+01 2.659986e+01 3.304214e+01 3.370146e+01 4.044530e+01 3.571425e+01 2.757099e+01 2.188785e+01 3.500349e+01 5.052299e-01 1.221679e+00 1.455117e+00 1.336511e+00 1.093317e+00 9.921578e-01 1.074362e+00 1.102923e+00 1.264161e+00 1.320268e+00 9.375752e-01 6.553929e-01 1.441746e+00 5.571502e-02 8.245482e-02 1.073114e-01 1.021141e-01 9.313804e-02 8.086181e-02 9.515937e-02 9.877686e-02 8.695202e-02 9.619147e-02 1.049662e-01 6.507014e-02 6.969329e-02
<GCONST> 8.552282e+01
<TRANSP> 5
 0.000000e+00 1.000000e+00 0.000000e+00 0.000000e+00 0.000000e+00
 0.000000e+00 6.287093e-01 3.712907e-01 0.000000e+00 0.000000e+00
 0.000000e+00 0.000000e+00 4.547246e-01 5.452754e-01 0.000000e+00
 0.000000e+00 0.000000e+00 0.000000e+00 6.964247e-01 3.035753e-01
 0.000000e+00 0.000000e+00 0.000000e+00 0.000000e+00 0.000000e+00
<ENDHMM>
~h "c"
<BEGINHMM>
<NUMSTATES> 5
<STATE> 2
<MEAN> 39
 -4.660724e-01 1.399481e+00 -5.891967e-01 4.950314e-01 3.491077e+00 1.064257e+00 -3.514307e+00 5.786803e-02 8.668578e-01 1.524760e+00 2.368213e+00 5.137804e-01 -1.033991e+01 -1.028457e+00 -2.947194e-02 2.065001e-01 -2.263657e-01 -2.220837e-01 1.262754e-01 9.305236e-02 2.714812e-01 -7.360742e-02 -1.575548e-01 1.937423e-01 -1.487339e-01 1.125100e+00 -1.551908e-01 6.791203e-02 9.214346e-02 -8.729225e-02 -7.066151e-02 -5.718853e-02 6.863126e-02 -1.648718e-02 -3.686038e-02 3.829813e-02 7.199138e-04 -4.367159e-02 1.908597e-01
<VARIANCE> 39
 1.217383e+02 4.547622e+01 4.619067e+01 5.414777e+01 5.059418e+01 5.340621e+01 6.878265e+01 5.507404e+01 3.232425e+01 4.025635e+01 3.465139e+01 2.253400e+01 4.497358e+02 5.294042e+00 1.497553e+00 1.546981e+00 2.321254e+00 1.970732e+00 1.831582e+00 2.042711e+00 1.481170e+00 1.255504e+00 1.343779e+00 1.144334e+00 5.803165e-01 1.045714e+01 5.148985e-01 1.626231e-01 2.017626e-01 2.836117e-01 2.086459e-01 2.120551e-01 2.216739e-01 1.327492e-01 1.426048e-01 1.773815e-01 1.164564e-01 7.489793e-02 8.541263e-01
<GCONST> 1.118413e+02
<STATE> 3
<MEAN> 39
 -1.537949e+01 2.478379e+00 6.242914e+00 -2.672497e+00 5.716445e-02 -3.298223e-01 2.582552e+00 1.498513e+00 -2.875136e+00 1.967045e+00 5.295861e+00 -3.097294e+00 8.225077e+00 -2.280027e-02 8.947466e-02 1.038035e+00 -2.521515e-01 -1.184201e+00 -6.049362e-01 5.177147e-01 -1.308366e-01 -4.671143e-01 8.346365e-02 5.466275e-02 -4.385563e-01 1.044639e+00 8.442425e-01 -1.526553e-02 -1.324878e-01 9.178007e-02 -1.163872e-01 -8.147378e-02 -1.909494e-01 -1.886279e-01 6.006417e-02 -1.125361e-02 -1.701045e-01 1.311377e-01 -2.543071e-01
<VARIANCE> 39
 7.597410e+01 3.747085e+01 3.881736e+01 2.464535e+01 3.945355e+01 3.042748e+01 5.544054e+01 3.775585e+01 4.512246e+01 5.659949e+01 5.052703e+01 3.288149e+01 3.524992e+01 5.589801e+00 1.129660e+00 1.442885e+00 1.035764e+00 1.050570e+00 9.573482e-01 1.621861e+00 1.588654e+00 1.508521e+00 8.594552e-01 1.424303e+00 9.314364e-01 1.043834e+00 3.912558e-01 1.347698e-01 1.650027e-01 9.068500e-02 1.511709e-01 1.076923e-01 1.634669e-01 1.282848e-01 1.620452e-01 1.413245e-01 1.559760e-01 1.208640e-01 8.256189e-02
<GCONST> 9.846777e+01
<STATE> 4
<MEAN> 39
 -1.319374e+00 3.363938e+00 5.525990e+00 -2.773395e+00 -1.001291e+01 -6.630033e-01 -2.661260e+00 -1.575613e-01 3.352293e+00 -1.779973e+00 2.817609e+00 -6.215221e-01 1.113368e+01 7.880362e-01 3.041948e-01 -1.651513e-02 5.004553e-02 -3.179756e-01 -1.493730e-01 -2.329332e-01 -3.593138e-01 -8.021525e-02 1.516445e-01 -5.661184e-02 -3.774010e-02 9.938192e-02 -9.150593e-02 3.919357e-02 -9.263507e-02 -5.605423e-03 2.038216e-01 1.331789e-01 -1.058185e-03 -5.611001e-02 -6.505124e-02 4.397371e-02 5.609319e-02 1.813915e-02 -1.511516e-01
<VARIANCE> 39
 1.256797e+02 1.185086e+02 1.137282e+02 6.653429e+01 4.701741e+01 6.604919e+01 7.191812e+01 1.165237e+02 6.971220e+01 3.879233e+01 4.770858e+01 2.774899e+01 5.327719e+01 4.394132e+00 2.607853e+00 1.297851e+00 1.775733e+00 1.807017e+00 1.839730e+00 1.518785e+00 2.172378e+00 1.480606e+00 1.465123e+00 1.236587e+00 7.883793e-01 1.486920e+00 2.505404e-01 2.040963e-01 1.160174e-01 2.181121e-01 1.981345e-01 2.565570e-01 1.152387e-01 3.156574e-01 1.903596e-01 1.702104e-01 1.239746e-01 8.851875e-02 1.425991e-01
<GCONST> 1.103402e+02
<TRANSP> 5
 0.000000e+00 1.000000e+00 0.000000e+00 0.000000e+00 0.000000e+00
 0.000000e+00 8.752143e-01 1.247857e-01 0.000000e+00 0.000000e+00
 0.000000e+00 0.000000e+00 7.745410e-01 2.254590e-01 0.000000e+00
 0.000000e+00 0.000000e+00 0.000000e+00 7.401579e-01 2.598421e-01
 0.000000e+00 0.000000e+00 0.000000e+00 0.000000e+00 0.000000e+00
<ENDHMM>
~h "d"
<BEGINHMM>
<NUMSTATES> 5
<STATE> 2
<MEAN> 39
 5.590773e+00 4.686362e+00 3.082147e+00 4.688133e+00 5.356472e-01 -1.507788e+00 1.676224e+00 -1.756553e+00 -1.780497e+00 -1.227074e+00 -1.754666e+00 -1.590788e+00 -4.308270e-01 -5.967899e-01 -3.229061e-01 -4.336551e-02 -1.192146e-01 2.452378e-01 -1.843043e-01 1.964975e-01 4.389070e-01 1.086714e-01 6.201827e-02 4.625409e-01 -1.045191e-01 1.726779e-01 -1.655210e-01 -2.562125e-01 -4.224125e-02 -3.785793e-01 -2.984415e-01 -1.985507e-01 -1.527664e-01 9.857454e-02 1.492022e-01 1.210533e-01 3.280878e-03 1.205004e-01 5.198849e-01
<VARIANCE> 39
 2.776983e+01 4.430553e+01 4.623579e+01 3.369174e+01 4.955956e+01 4.779846e+01 5.388605e+01 5.201277e+01 4.735004e+01 4.065469e+01 3.719333e+01 2.660912e+01 3.383766e+01 7.803869e-01 1.280525e+00 1.178133e+00 1.164932e+00 1.294569e+00 1.452790e+00 1.339781e+00 1.438378e+00 1.364783e+00 1.212297e+00 1.043046e+00 8.658972e-01 1.177840e+00 1.208218e-01 1.479478e-01 1.496242e-01 1.486853e-01 1.843680e-01 2.800094e-01 2.319962e-01 2.120478e-01 1.905755e-01 1.670404e-01 1.471104e-01 1.165562e-01 9.861368e-02
<GCONST> 9.836705e+01
<STATE> 3
<MEAN> 39
 -1.251228e+00 -1.756137e-01 3.382797e+00 8.403900e-01 1.233011e+00 -5.465032e+00 1.579632e+00 1.011817e+00 -5.129420e-01 -1.129043e+00 1.463654e+00 -6.782590e-01 5.328627e+00 -3.037744e-01 -7.210942e-01 -2.851494e-01 -9.185632e-01 -7.539617e-01 -1.080454e+00 -7.952644e-01 4.698941e-01 5.264843e-01 4.047982e-01 1.014547e-01 3.666274e-01 1.451790e+00 2.728429e-01 1.125606e-01 -8.423732e-02 -1.161727e-01 -1.938040e-01 1.149127e-01 -2.440504e-01 -1.292089e-01 4.387943e-02 1.208990e-01 -1.727763e-01 4.252920e-02 7.745837e-02
<VARIANCE> 39
 3.173449e+01 3.967424e+01 3.569790e+01 3.270735e+01 4.679575e+01 6.772461e+01 5.778588e+01 3.851703e+01 4.642125e+01 4.015118e+01 3.870034e+01 3.037410e+01 5.851577e+01 9.791470e-01 1.180434e+00 1.630586e+00 1.184723e+00 1.868192e+00 2.327656e+00 2.549739e+00 2.163125e+00 1.805033e+00 1.516039e+00 1.421909e+00 9.655484e-01 1.039660e+00 1.030087e-01 1.617429e-01 1.509727e-01 1.426352e-01 1.574430e-01 2.337452e-01 1.647689e-01 1.698602e-01 1.394457e-01 1.592330e-01 1.553026e-01 1.248256e-01 1.716655e-01
<GCONST> 1.013355e+02
<STATE> 4
<MEAN> 39
 2.001646e+00 -6.813567e-01 1.988234e+00 -1.517265e+00 -4.788603e+00 -7.930028e+00 -3.440486e+00 1.239297e+00 1.417622e+00 1.406904e+00 -4.509465e-01 1.024833e+00 9.286602e+00 1.787215e-01 -1.814093e-01 -3.922745e-01 -8.658760e-01 -7.153744e-01 -3.660179e-03 -8.253682e-01 5.745580e-02 4.053249e-01 4.980658e-01 -1.547598e-01 1.512050e-01 8.696294e-01 9.566034e-02 1.305950e-01 -7.692338e-03 5.669091e-02 1.571473e-01 3.454375e-01 1.155876e-01 -1.332242e-01 -1.432368e-01 -9.307029e-02 -7.306828e-02 -7.378620e-02 -2.116561e-01
<VARIANCE> 39
 1.425522e+01 2.024230e+01 2.657397e+01 2.521395e+01 4.889755e+01 4.366072e+01 8.058723e+01 4.261184e+01 4.848978e+01 3.782627e+01 3.337603e+01 2.655775e+01 3.877417e+01 1.060514e+00 1.269356e+00 1.715809e+00 1.086082e+00 1.707423e+00 1.426529e+00 1.847534e+00 2.103434e+00 1.628192e+00 1.460068e+00 1.157775e+00 9.040546e-01 9.940447e-01 6.214615e-02 8.887623e-02 8.560490e-02 1.015955e-01 1.490959e-01 1.394858e-01 1.981514e-01 1.255871e-01 1.469540e-01 1.201478e-01 1.328019e-01 1.117394e-01 8.182467e-02
<GCONST> 9.342902e+01
<TRANSP> 5
 0.000000e+00 1.000000e+00 0.000000e+00 0.000000e+00 0.000000e+00
 0.000000e+00 6.808376e-01 3.191624e-01 0.000000e+00 0.000000e+00
 0.000000e+00 0.000000e+00 5.151457e-01 4.848543e-01 0.000000e+00
 0.000000e+00 0.000000e+00 0.000000e+00 5.346464e-01 4.653536e-01
 0.000000e+00 0.000000e+00 0.000000e+00 0.000000e+00 0.000000e+00
<ENDHMM>
~h "e"
<BEGINHMM>
<NUMSTATES> 5
<STATE> 2
<MEAN> 39
 1.910607e+00 -1.813166e-01 9.694595e+00 -3.955025e+00 -1.022630e+01 -4.195789e+00 1.582353e+00 -4.287507e-01 -1.230346e+00 3.283444e+00 1.301780e+00 -2.948871e-01 8.904806e+00 -7.153559e-02 -3.081325e-02 5.219778e-01 -1.017262e+00 -1.150604e+00 2.505819e-05 8.709124e-02 -2.256592e-01 1.183525e-01 4.874367e-01 4.717713e-02 6.811519e-02 6.980608e-01 -3.554834e-02 9.626286e-02 -1.254120e-01 8.592927e-02 2.175455e-01 1.309377e-01 -3.694572e-02 -5.294206e-02 3.226164e-02 -9.454809e-02 -8.252070e-02 7.014702e-04 -1.550739e-01
<VARIANCE> 39
 3.321900e+01 4.612984e+01 4.940120e+01 6.790076e+01 7.560258e+01 7.122015e+01 5.785749e+01 7.168829e+01 6.555398e+01 4.455586e+01 5.064353e+01 2.978465e+01 5.455993e+01 1.123646e+00 1.160254e+00 1.460005e+00 2.103194e+00 2.333844e+00 2.489349e+00 1.707468e+00 1.934189e+00 1.842012e+00 1.210646e+00 1.239239e+00 9.001641e-01 1.586190e+00 9.653513e-02 1.232243e-01 1.167663e-01 2.009585e-01 2.682627e-01 2.419683e-01 1.664999e-01 1.841997e-01 1.966676e-01 1.376416e-01 1.254086e-01 9.836626e-02 1.783789e-01
<GCONST> 1.049316e+02
<STATE> 3
<MEAN> 39
 -1.035971e+00 2.801129e+00 9.835491e+00 -9.935614e+00 -1.211518e+01 -9.060708e-01 8.279054e-01 -4.989778e+00 9.005457e-01 3.980700e+00 -1.257925e+00 8.120041e-01 1.005638e+01 1.003213e-01 1.756454e-01 -2.210652e-01 4.145634e-01 2.494259e-01 6.856325e-02 -2.505279e-02 -6.188130e-02 -6.866124e-02 -2.229459e-01 -4.705027e-02 -1.017393e-01 -7.217329e-01 1.700238e-02 -1.387715e-04 -6.728852e-02 2.442216e-01 1.911795e-01 -1.635097e-02 -5.675701e-03 6.660412e-02 -4.478876e-02 -6.087102e-02 4.065232e-02 -5.662361e-02 -1.910846e-01
<VARIANCE> 39
 2.659952e+01 5.382607e+01 4.110086e+01 5.695781e+01 5.510939e+01 7.936312e+01 5.823203e+01 6.189882e+01 6.912077e+01 4.334822e+01 3.995220e+01 2.443943e+01 4.641314e+01 4.152735e-01 7.773126e-01 7.235727e-01 1.442863e+00 1.039255e+00 1.187219e+00 1.018425e+00 1.145142e+00 1.140032e+00 9.475919e-01 7.045232e-01 6.873712e-01 1.061853e+00 5.385410e-02 7.688043e-02 7.248536e-02 1.040890e-01 1.144278e-01 1.442091e-01 1.266226e-01 1.397550e-01 1.225339e-01 1.168666e-01 8.448785e-02 8.163311e-02 6.287435e-02
<GCONST> 9.018850e+01
<STATE> 4
<MEAN> 39
 4.688681e-01 9.538399e-02 6.480413e+00 -5.552150e-02 -6.877855e+00 -3.521683e+00 1.608063e+00 -1.080299e+00 -3.226523e+00 1.952125e+00 1.803883e+00 -3.534156e-01 8.398868e-01 -1.939668e-01 1.387990e-01 -4.664079e-01 4.804887e-01 7.717245e-01 1.648854e-01 1.192445e-01 3.461147e-02 4.872932e-02 -2.135557e-01 -3.343550e-04 5.688987e-02 -6.860511e-01 -3.302978e-02 -1.084087e-02 -2.521588e-02 -8.298883e-02 1.515629e-02 2.840789e-02 -2.519749e-02 2.378005e-02 4.712005e-02 7.174502e-03 4.340925e-03 4.443643e-03 8.058599e-02
<VARIANCE> 39
 1.564120e+01 2.090337e+01 3.978353e+01 3.628930e+01 4.565611e+01 4.240309e+01 3.400992e+01 4.439199e+01 4.211089e+01 2.804025e+01 2.992953e+01 2.196289e+01 6.449561e+01 4.039324e-01 5.489519e-01 5.757254e-01 9.431770e-01 7.083274e-01 8.550270e-01 6.918333e-01 8.932494e-01 8.617933e-01 6.070101e-01 5.612859e-01 5.091428e-01 5.972977e-01 3.258553e-02 5.278555e-02 5.465640e-02 6.931882e-02 8.087620e-02 8.534072e-02 8.253860e-02 9.326439e-02 9.320477e-02 7.920470e-02 5.874537e-02 6.694999e-02 5.219392e-02
<GCONST> 7.665961e+01
<TRANSP> 5
 0.000000e+00 1.000000e+00 0.000000e+00 0.000000e+00 0.000000e+00
 0.000000e+00 6.617579e-01 3.382421e-01 0.000000e+00 0.000000e+00
 0.000000e+00 0.000000e+00 7.561944e-01 2.438055e-01 0.000000e+00
 0.000000e+00 0.000000e+00 0.000000e+00 8.064957e-01 1.935042e-01
 0.000000e+00 0.000000e+00 0.000000e+00 0.000000e+00 0.000000e+00
<ENDHMM>
~h "g"
<BEGINHMM>
<NUMSTATES> 5
<STATE> 2
<MEAN> 39
 1.269372e+00 3.252123e+00 5.489915e+00 -8.874727e-01 -7.705710e-01 -2.218699e+00 -1.121680e+00 2.294668e-01 1.514440e+00 1.859247e+00 3.837494e-01 -1.012800e+00 4.112879e+00 -3.841077e-01 -4.074788e-02 7.122964e-01 -6.727128e-01 -6.998780e-01 -1.180179e-01 -6.872750e-02 -3.064260e-01 3.272565e-02 3.960904e-01 7.016816e-02 3.756620e-02 7.498949e-01 8.131151e-02 -2.543182e-02 -8.970858e-05 -1.127026e-01 -2.529694e-01 3.755649e-02 -9.870828e-03 -7.367382e-02 -2.591774e-03 4.188682e-02 -2.458188e-02 5.184899e-02 2.002388e-01
<VARIANCE> 39
 7.340034e+01 1.109575e+02 7.511971e+01 7.019394e+01 8.170133e+01 5.136414e+01 7.712219e+01 8.149525e+01 8.052147e+01 4.903215e+01 3.982852e+01 3.453644e+01 1.133119e+02 1.826525e+00 2.393487e+00 2.874521e+00 2.123546e+00 3.588918e+00 1.947313e+00 2.518200e+00 1.859415e+00 2.373587e+00 1.473516e+00 1.417602e+00 1.178760e+00 3.507259e+00 2.031388e-01 2.579710e-01 2.376246e-01 2.465158e-01 3.654755e-01 2.135090e-01 2.691022e-01 2.187396e-01 2.759771e-01 1.772422e-01 1.712638e-01 1.433980e-01 3.608581e-01
<GCONST> 1.174579e+02
<STATE> 3
<MEAN> 39
 5.459580e-01 2.763144e+00 1.084929e+01 -7.466254e+00 -1.119295e+01 -8.377289e-01 1.489036e+00 -6.107127e+00 1.989404e-01 5.066179e+00 7.929515e-01 -6.681827e-01 1.164754e+01 2.159586e-01 -1.054979e-01 2.880356e-01 3.955721e-02 -7.439880e-01 -1.194054e-01 8.271967e-02 -1.694118e-01 -2.157690e-01 1.565028e-01 5.186088e-02 -8.839480e-02 1.044799e-01 5.892796e-02 3.125978e-02 -2.252640e-01 2.185150e-01 2.938829e-01 -3.770182e-02 -7.474545e-02 2.032572e-01 -2.070591e-02 -1.759275e-01 -6.652112e-02 1.506213e-02 -2.420621e-01
<VARIANCE> 39
 3.324156e+01 5.487448e+01 8.494968e+01 8.667377e+01 1.087748e+02 5.324142e+01 9.261084e+01 7.155135e+01 5.510854e+01 6.659044e+01 6.282040e+01 4.459311e+01 4.920036e+01 8.901613e-01 1.763656e+00 1.492682e+00 2.013637e+00 2.875177e+00 1.280936e+00 1.650778e+00 1.922588e+00 1.666824e+00 1.565281e+00 1.088634e+00 1.045629e+00 1.806738e+00 1.007132e-01 1.339679e-01 1.832710e-01 1.891002e-01 3.389912e-01 1.654058e-01 1.987593e-01 1.613725e-01 1.669032e-01 1.587449e-01 1.560541e-01 1.302362e-01 1.769926e-01
<GCONST> 1.080379e+02
<STATE> 4
<MEAN> 39
 -7.046733e-01 2.128958e+00 1.262122e+01 -3.535599e+00 -9.482539e+00 -2.821516e+00 -4.758420e-01 -2.480718e+00 -7.460094e+00 3.802250e+00 1.319222e+00 -3.208233e+00 7.676560e+00 1.063784e-01 2.222063e-02 -7.148609e-02 -4.288240e-02 -1.406376e-01 -1.404744e-01 -7.450136e-02 5.027516e-02 -5.543691e-02 -2.460707e-02 4.922775e-04 1.293207e-01 -1.608983e-01 1.928393e-02 -3.885721e-02 -1.004260e-01 2.358351e-02 4.765302e-02 -5.104011e-03 4.358464e-02 2.169063e-02 8.434846e-02 -3.732713e-02 -1.932648e-02 4.960251e-02 -9.540969e-03
<VARIANCE> 39
 2.948633e+01 2.659046e+01 5.629317e+01 3.611142e+01 4.819463e+01 3.216162e+01 5.025974e+01 3.840690e+01 7.510455e+01 3.461808e+01 3.849475e+01 2.901505e+01 3.903325e+01 4.056129e-01 6.783271e-01 9.904748e-01 9.406334e-01 1.563279e+00 7.064672e-01 9.410959e-01 9.343783e-01 1.304839e+00 9.057176e-01 8.724582e-01 6.880318e-01 9.635786e-01 4.419943e-02 7.125423e-02 9.299850e-02 9.479117e-02 1.370935e-01 7.378643e-02 9.624923e-02 9.793502e-02 1.315607e-01 9.403905e-02 8.577150e-02 8.014672e-02 8.857606e-02
<GCONST> 8.609946e+01
<TRANSP> 5
 0.000000e+00 1.000000e+00 0.000000e+00 0.000000e+00 0.000000e+00
 0.000000e+00 7.571121e-01 2.428879e-01 0.000000e+00 0.000000e+00
 0.000000e+00 0.000000e+00 5.808048e-01 4.191952e-01 0.000000e+00
 0.000000e+00 0.000000e+00 0.000000e+00 7.092810e-01 2.907189e-01
 0.000000e+00 0.000000e+00 0.000000e+00 0.000000e+00 0.000000e+00
<ENDHMM>
~h "h"
<BEGINHMM>
<NUMSTATES> 5
<STATE> 2
<MEAN> 39
 6.205739e+00 2.742850e+00 -6.455617e+00 -8.124803e+00 1.672120e+00 1.491349e+00 -2.259803e+00 -2.475595e+00 -3.920890e+00 7.117103e-03 7.888727e-01 2.732375e+00 6.647890e+00 3.450317e-01 1.153695e-01 -7.544871e-03 -1.456191e-01 9.203044e-02 8.578779e-02 1.979928e-01 3.526657e-02 -1.036632e-01 -6.974790e-02 -1.876512e-01 -4.123118e-02 -2.520961e-01 -3.557216e-02 -5.478210e-02 5.229417e-02 9.970634e-02 -5.449538e-02 -4.152146e-02 5.774833e-02 6.487276e-02 7.966204e-02 -4.168378e-02 -4.997491e-02 -6.265244e-02 -3.094549e-02
<VARIANCE> 39
 3.488075e+01 5.503504e+01 5.471067e+01 8.859051e+01 4.777929e+01 3.444654e+01 5.518475e+01 3.068087e+01 3.050345e+01 3.280998e+01 3.620840e+01 3.621040e+01 5.856657e+01 5.588248e-01 5.649222e-01 6.727548e-01 1.426377e+00 8.385830e-01 8.277647e-01 1.218570e+00 5.343355e-01 6.745172e-01 5.090425e-01 7.329082e-01 7.518678e-01 8.097097e-01 5.280165e-02 6.246150e-02 6.411929e-02 1.477291e-01 1.030197e-01 9.125964e-02 1.052566e-01 5.325506e-02 8.871058e-02 5.800980e-02 1.038946e-01 8.275825e-02 5.013598e-02
<GCONST> 8.361311e+01
<STATE> 3
<MEAN> 39
 6.233537e+00 -5.448198e-01 -4.026339e+00 -8.766736e-01 2.780999e+00 5.255135e-01 -1.031967e+00 -1.847296e+00 -4.222816e+00 -2.396970e+00 -9.292658e-01 -3.025037e+00 1.257719e+00 -3.292029e-01 -1.969894e-02 1.282424e-02 3.819395e-01 5.008315e-01 2.405098e-01 4.296969e-01 3.912045e-01 1.894773e-01 -2.631747e-01 -7.278796e-02 -1.852529e-01 -5.510125e-01 -5.360153e-02 -5.455445e-02 4.578026e-02 -1.039519e-02 -4.763625e-02 1.743120e-02 -4.181894e-02 4.529632e-02 5.485029e-03 -1.000939e-02 1.415833e-02 1.028860e-01 7.192349e-02
<VARIANCE> 39
 2.897400e+01 5.722295e+01 4.648467e+01 7.308018e+01 5.188611e+01 3.528873e+01 5.507455e+01 3.166302e+01 5.408950e+01 5.952192e+01 4.022610e+01 3.140195e+01 4.825838e+01 3.453220e-01 1.014298e+00 7.966586e-01 8.589892e-01 5.156542e-01 5.284922e-01 6.824127e-01 6.936158e-01 1.015115e+00 7.581350e-01 8.311146e-01 9.430436e-01 3.844962e-01 3.075855e-02 5.299376e-02 7.716975e-02 8.226547e-02 1.109191e-01 6.641142e-02 6.192526e-02 6.645682e-02 1.221981e-01 8.976906e-02 9.475591e-02 8.423853e-02 2.097857e-02
<GCONST> 8.126485e+01
<STATE> 4
<MEAN> 39
 8.270069e-01 1.591624e+00 -2.232998e+00 -3.311683e-01 2.671025e+00 1.483499e+00 -7.215803e-02 -1.396927e+00 -3.040428e+00 -2.505452e+00 -9.996668e-01 5.326206e-01 -2.100350e+00 -1.466004e-01 -9.025298e-02 -5.687015e-03 1.013337e-01 9.294531e-02 7.249920e-02 2.345593e-02 8.451886e-02 3.016257e-02 -5.707985e-02 3.792963e-02 6.581510e-02 -1.130574e-01 1.395806e-02 -2.648165e-02 3.191382e-02 -1.918537e-02 -3.162816e-02 4.885866e-03 -1.629717e-02 -9.838355e-03 4.253098e-03 2.143478e-02 1.184921e-02 -1.279874e-02 4.634435e-02
<VARIANCE> 39
 2.227657e+01 2.198336e+01 3.803990e+01 3.288602e+01 3.503088e+01 3.026165e+01 2.936610e+01 2.693963e+01 3.708998e+01 3.467601e+01 2.454541e+01 1.867200e+01 3.571561e+01 2.384667e-01 3.000951e-01 4.034136e-01 5.251458e-01 5.308850e-01 3.998941e-01 4.870536e-01 4.497584e-01 4.678736e-01 5.551754e-01 5.737207e-01 4.539063e-01 2.010299e-01 1.581740e-02 3.054545e-02 4.139600e-02 6.005361e-02 6.267266e-02 4.335434e-02 6.134771e-02 5.271947e-02 4.904257e-02 6.143616e-02 6.151376e-02 4.069171e-02 1.537766e-02
<GCONST> 6.270543e+01
<TRANSP> 5
 0.000000e+00 1.000000e+00 0.000000e+00 0.000000e+00 0.000000e+00
 0.000000e+00 6.567987e-01 3.432013e-01 0.000000e+00 0.000000e+00
 0.000000e+00 0.000000e+00 6.064808e-01 3.935193e-01 0.000000e+00
 0.000000e+00 0.000000e+00 0.000000e+00 8.643594e-01 1.356406e-01
 0.000000e+00 0.000000e+00 0.000000e+00 0.000000e+00 0.000000e+00
<ENDHMM>
~h "i"
<BEGINHMM>
<NUMSTATES> 5
<STATE> 2
<MEAN> 39
 -1.247703e+00 5.048886e+00 9.532834e+00 -4.628069e+00 -4.699197e+00 -9.296226e-01 -2.519376e+00 -6.300076e+00 -1.447534e-01 1.406829e+00 -8.710256e-01 9.973189e-01 4.943963e+00 -1.880129e-01 5.916461e-01 1.229907e+00 -1.154848e+00 -7.537288e-01 -1.115768e-01 -6.369225e-01 -7.255263e-01 -1.867137e-01 2.014863e-01 -2.692760e-01 3.401181e-01 8.995163e-01 5.363365e-02 -2.522564e-02 -1.423129e-01 1.309890e-01 7.734293e-02 -1.792578e-02 6.075121e-02 1.375001e-01 -2.705284e-02 -4.034071e-02 2.886844e-02 -2.766878e-02 -1.050914e-01
<VARIANCE> 39
 3.954897e+01 5.580501e+01 7.186656e+01 8.865443e+01 7.069839e+01 5.712879e+01 7.194252e+01 6.506824e+01 6.601360e+01 5.192329e+01 4.819641e+01 3.919183e+01 7.900789e+01 1.707265e+00 1.611375e+00 2.137119e+00 2.491547e+00 2.060737e+00 1.640175e+00 2.163598e+00 1.911265e+00 2.365180e+00 1.685500e+00 1.513246e+00 1.374463e+00 1.929670e+00 1.574961e-01 1.599543e-01 2.408363e-01 3.278783e-01 2.537552e-01 1.886528e-01 2.225631e-01 2.278237e-01 2.268216e-01 1.868625e-01 1.677955e-01 1.526776e-01 2.011617e-01
<GCONST> 1.123685e+02
<STATE> 3
<MEAN> 39
 -1.272359e+00 6.976921e+00 1.323107e+01 -7.606855e+00 -8.191341e+00 -2.369780e+00 -3.968570e+00 -6.888161e+00 -2.373315e+00 2.226641e+00 -6.896694e-01 1.833741e+00 7.868110e+00 3.728006e-01 8.040822e-02 -2.492991e-01 8.929210e-01 9.332427e-02 -6.701708e-02 2.978078e-01 2.156832e-01 -2.367039e-01 -7.697201e-02 2.416189e-01 -3.288842e-01 -6.879160e-01 -3.460848e-02 -7.038552e-02 -2.884835e-01 3.179685e-01 2.538697e-01 4.916799e-02 1.548189e-01 1.157810e-01 7.169198e-02 -7.693826e-02 1.959160e-02 -9.479841e-02 -2.260476e-01
<VARIANCE> 39
 2.922609e+01 6.144349e+01 4.595176e+01 7.675869e+01 5.094403e+01 4.877411e+01 6.750780e+01 6.852867e+01 7.503988e+01 4.998959e+01 5.418460e+01 3.418045e+01 4.082028e+01 9.056840e-01 1.098463e+00 1.160326e+00 1.737670e+00 1.258091e+00 1.263687e+00 1.294658e+00 1.326689e+00 1.245886e+00 1.123191e+00 9.310616e-01 7.243480e-01 1.076868e+00 1.202616e-01 1.153208e-01 1.280714e-01 1.803074e-01 1.659906e-01 1.420507e-01 1.709873e-01 1.697013e-01 1.839760e-01 1.509665e-01 1.545629e-01 1.157103e-01 8.446037e-02
<GCONST> 9.936335e+01
<STATE> 4
<MEAN> 39
 -1.201191e-01 3.953853e+00 8.799803e+00 1.930685e+00 -3.149798e+00 -1.336307e+00 -8.128883e-01 -4.421755e+00 -4.766447e+00 -3.594172e-01 8.400797e-01 -6.821397e-01 6.122269e-01 -1.996747e-01 -1.015832e-01 -6.359856e-01 4.775452e-01 5.590569e-01 1.344571e-01 3.295798e-01 1.549788e-01 1.553474e-01 -9.021968e-02 -2.354045e-02 -1.127123e-02 -5.554894e-01 -6.965663e-02 -3.986974e-02 -5.994874e-02 -1.177755e-01 1.489267e-02 -4.431218e-03 -3.432288e-02 2.239483e-02 6.372134e-02 2.447004e-02 1.663640e-02 3.539113e-02 8.243136e-02
<VARIANCE> 39
 3.054369e+01 3.069434e+01 5.211264e+01 4.210634e+01 4.061889e+01 3.745975e+01 4.398164e+01 3.756379e+01 4.730344e+01 3.469022e+01 3.150095e+01 2.616043e+01 6.267297e+01 8.029279e-01 9.081582e-01 9.769109e-01 1.142678e+00 9.859440e-01 9.409455e-01 9.300361e-01 8.810565e-01 1.047998e+00 7.741484e-01 7.473893e-01 5.862099e-01 7.490727e-01 7.221363e-02 6.897330e-02 9.857371e-02 8.621439e-02 1.042508e-01 9.479991e-02 1.140335e-01 1.051068e-01 1.173292e-01 9.499916e-02 8.020294e-02 6.783480e-02 7.120242e-02
<GCONST> 8.593955e+01
<TRANSP> 5
 0.000000e+00 1.000000e+00 0.000000e+00 0.000000e+00 0.000000e+00
 0.000000e+00 7.024075e-01 2.975924e-01 0.000000e+00 0.000000e+00
 0.000000e+00 0.000000e+00 6.924992e-01 3.075008e-01 0.000000e+00
 0.000000e+00 0.000000e+00 0.000000e+00 7.431359e-01 2.568642e-01
 0.000000e+00 0.000000e+00 0.000000e+00 0.000000e+00 0.000000e+00
<ENDHMM>
~h "j"
<BEGINHMM>
<NUMSTATES> 5
<STATE> 2
<MEAN> 39
 2.114996e+00 -3.485320e+00 -1.154548e-01 -1.167231e+00 -1.824329e+00 -2.689228e+00 4.035834e+00 4.304055e+00 -4.203717e-01 -1.857860e+00 -3.194093e+00 3.711174e-01 8.162916e+00 -2.586025e-01 1.006606e+00 2.910615e-01 6.083097e-01 5.227302e-01 3.255773e-01 2.670502e-01 -3.242834e-01 -3.380798e-01 6.303100e-02 5.472888e-01 -2.901062e-01 -1.204408e+00 -1.868352e-01 -8.711272e-04 -1.757248e-01 -5.881905e-02 2.223461e-01 1.930836e-01 -3.255878e-02 6.376833e-02 7.114208e-02 -6.341567e-02 -5.664722e-03 -1.132767e-01 5.076560e-02
<VARIANCE> 39
 1.594217e+01 2.201489e+01 2.493324e+01 2.803499e+01 3.023926e+01 2.699805e+01 3.361901e+01 4.166563e+01 4.980176e+01 3.147049e+01 2.419954e+01 2.296449e+01 4.693513e+01 9.707305e-01 8.027145e-01 7.132697e-01 1.119333e+00 9.816166e-01 8.667991e-01 8.536922e-01 9.519340e-01 1.176727e+00 8.612975e-01 8.130777e-01 6.364667e-01 4.647975e-01 1.197446e-01 7.507664e-02 6.624413e-02 1.322652e-01 1.381352e-01 1.309877e-01 1.051393e-01 9.317901e-02 8.347354e-02 8.284769e-02 1.164580e-01 9.346590e-02 7.979950e-02
<GCONST> 8.319884e+01
<STATE> 3
<MEAN> 39
 -2.586268e+00 2.538156e+00 -1.163210e+00 4.221517e-01 3.462784e+00 1.125408e+00 4.822295e+00 4.035898e+00 -6.595601e-01 -1.918602e+00 -1.057765e+00 -2.588479e+00 3.908011e+00 -2.089996e+00 1.130732e+00 4.596711e-01 -7.361143e-01 3.522970e-01 -6.328652e-02 -3.496516e-02 1.427373e-01 -2.215546e-01 2.676440e-01 8.529339e-01 -2.832082e-01 4.206811e-01 4.332580e-02 -1.914924e-01 2.970587e-01 -2.538515e-01 -4.566113e-01 -3.031223e-01 -1.151529e-01 -2.929462e-02 -5.882818e-02 1.156148e-01 7.669502e-02 1.340210e-01 3.898999e-01
<VARIANCE> 39
 7.626000e+01 4.410263e+01 3.706351e+01 4.955272e+01 3.317568e+01 3.153883e+01 4.044704e+01 3.524590e+01 3.951679e+01 3.036040e+01 2.700732e+01 2.372632e+01 3.208448e+01 2.070065e+00 1.338467e+00 1.325238e+00 1.294164e+00 1.312736e+00 1.346104e+00 1.318856e+00 1.056264e+00 8.085264e-01 1.011555e+00 1.155858e+00 8.415475e-01 9.495751e-01 5.269070e-01 2.035288e-01 9.824269e-02 2.490701e-01 1.697627e-01 1.425645e-01 1.458461e-01 1.411062e-01 1.486962e-01 9.611450e-02 1.282811e-01 1.029625e-01 6.517486e-02
<GCONST> 9.587532e+01
<STATE> 4
<MEAN> 39
 -8.319199e+00 4.466662e+00 6.521938e+00 -5.188526e+00 -3.452547e+00 -3.926148e+00 3.427433e+00 2.198745e+00 -3.285120e+00 2.966753e-01 4.531921e+00 -2.062646e+00 1.035346e+01 1.150831e+00 -8.914988e-01 5.834709e-01 -3.794158e-01 -1.801803e+00 -8.710575e-01 -3.001916e-01 1.681376e-01 1.411019e-01 2.519479e-01 1.560506e-01 4.580220e-01 8.453505e-01 4.560964e-01 -2.559436e-01 -2.532007e-01 1.784121e-01 4.597620e-02 7.391448e-02 -1.713077e-02 1.061838e-01 1.293264e-01 -7.946870e-02 -3.099114e-01 3.927676e-02 -1.124589e-01
<VARIANCE> 39
 6.421619e+01 4.325222e+01 2.600261e+01 2.215717e+01 6.789606e+01 4.296657e+01 5.141739e+01 3.732177e+01 4.272241e+01 3.704226e+01 3.444270e+01 3.941130e+01 3.514711e+01 2.134105e+00 1.865979e+00 1.467134e+00 1.254893e+00 1.338432e+00 9.589785e-01 1.331702e+00 1.768227e+00 1.502743e+00 9.074951e-01 1.478156e+00 6.309975e-01 4.238134e-01 4.127759e-01 2.320812e-01 1.174406e-01 1.062915e-01 3.998893e-01 1.394637e-01 1.405639e-01 1.605207e-01 9.943800e-02 1.369129e-01 1.340466e-01 1.078307e-01 4.783644e-02
<GCONST> 9.714063e+01
<TRANSP> 5
 0.000000e+00 1.000000e+00 0.000000e+00 0.000000e+00 0.000000e+00
 0.000000e+00 7.644561e-01 2.355439e-01 0.000000e+00 0.000000e+00
 0.000000e+00 0.000000e+00 7.615179e-01 2.384821e-01 0.000000e+00
 0.000000e+00 0.000000e+00 0.000000e+00 8.093303e-01 1.906697e-01
 0.000000e+00 0.000000e+00 0.000000e+00 0.000000e+00 0.000000e+00
<ENDHMM>
~h "k"
<BEGINHMM>
<NUMSTATES> 5
<STATE> 2
<MEAN> 39
 -1.891140e-01 1.462195e+00 2.590660e+00 3.255364e+00 -2.989087e+00 -2.611233e+00 -2.510498e-01 -3.922357e+00 -1.230289e+00 2.115724e+00 7.051123e-01 -1.693883e-01 -4.197951e+00 -7.859260e-02 -8.669037e-01 -1.515210e+00 2.890748e-01 1.063893e+00 -1.555635e-02 1.080398e-01 4.469322e-01 3.287158e-01 2.210097e-01 1.933945e-01 7.247200e-02 -2.250269e-01 1.971948e-02 -8.058159e-02 -1.726628e-01 -2.607491e-01 7.903757e-02 -5.633540e-03 -3.562444e-02 1.540705e-01 7.393289e-02 6.543709e-03 -2.511901e-02 -1.380159e-02 4.576835e-01
<VARIANCE> 39
 2.517147e+01 4.185934e+01 6.464947e+01 5.090146e+01 9.230969e+01 5.924293e+01 5.280978e+01 5.063599e+01 5.505251e+01 5.332150e+01 3.338618e+01 2.621235e+01 2.731254e+01 7.878295e-01 1.434710e+00 1.706846e+00 2.146686e+00 1.788635e+00 2.456636e+00 1.869722e+00 1.795145e+00 1.473166e+00 1.433838e+00 1.308806e+00 6.775799e-01 1.706670e+00 1.119737e-01 1.628416e-01 1.915504e-01 1.624184e-01 2.331913e-01 2.907734e-01 1.789343e-01 1.800064e-01 1.589971e-01 1.832190e-01 1.300261e-01 1.070721e-01 1.190525e-01
<GCONST> 1.030353e+02
<STATE> 3
<MEAN> 39
 -2.509871e+00 -6.409417e+00 -8.374135e+00 3.793920e+00 6.194512e+00 -2.551830e+00 1.188777e+00 2.600628e+00 1.863655e+00 3.149220e+00 1.015758e+00 1.345906e-01 -7.175025e-01 3.712397e-01 -3.736278e-01 -1.071605e+00 -7.994707e-01 4.061998e-01 3.462329e-02 -4.595306e-02 4.723265e-01 4.576520e-01 -6.708753e-02 -1.923885e-01 -1.468507e-01 1.658682e+00 3.055979e-01 3.045577e-01 3.875185e-01 -3.077981e-01 -4.733580e-01 1.133971e-01 -9.430635e-02 -2.055861e-01 -7.928187e-02 -9.140362e-02 -1.068763e-01 -7.555316e-02 2.261171e-01
<VARIANCE> 39
 4.061716e+01 4.487784e+01 1.008077e+02 7.717242e+01 7.500259e+01 1.035617e+02 7.585432e+01 5.760313e+01 6.561494e+01 4.133459e+01 5.487673e+01 2.417666e+01 1.252068e+02 1.503707e+00 1.778215e+00 2.278430e+00 1.800526e+00 2.604755e+00 3.202569e+00 1.907218e+00 1.939191e+00 2.077723e+00 2.018454e+00 1.359036e+00 9.761609e-01 2.939930e+00 1.141234e-01 2.218584e-01 2.338539e-01 2.741987e-01 2.486539e-01 3.527961e-01 2.427581e-01 2.157985e-01 2.101976e-01 1.688464e-01 1.900429e-01 1.020280e-01 3.108644e-01
<GCONST> 1.137739e+02
<STATE> 4
<MEAN> 39
 2.828584e+00 -1.893933e+00 -7.565628e+00 -1.991959e+00 2.291288e+00 -1.198983e+00 3.935053e-01 7.069328e-01 1.987984e+00 2.507296e+00 4.819571e-01 -1.293665e+00 4.090615e+00 1.207685e+00 4.873684e-01 7.796307e-02 -1.215124e+00 -8.686343e-01 3.255212e-01 -3.731704e-01 -1.704881e-01 7.708807e-02 -2.411563e-01 -2.579935e-01 -1.790046e-01 1.376585e+00 6.241906e-02 1.066118e-01 3.101780e-01 8.228911e-02 -1.829853e-01 6.493214e-02 -6.794396e-02 -1.273492e-01 -1.037938e-01 -4.814333e-02 -1.413713e-02 5.520280e-02 -1.553267e-01
<VARIANCE> 39
 4.215936e+01 3.994381e+01 6.905009e+01 5.733560e+01 8.733284e+01 6.825603e+01 5.286758e+01 6.442953e+01 6.706728e+01 5.886910e+01 5.009652e+01 3.325063e+01 5.459133e+01 9.031508e-01 1.920786e+00 1.785741e+00 1.394970e+00 2.397183e+00 2.209245e+00 1.823673e+00 2.521298e+00 2.550243e+00 1.686296e+00 1.523910e+00 1.176319e+00 1.030921e+00 1.493282e-01 1.718592e-01 1.819238e-01 1.634849e-01 2.912514e-01 2.841190e-01 2.440583e-01 2.724795e-01 2.139544e-01 2.380102e-01 1.892318e-01 1.292495e-01 1.749020e-01
<GCONST> 1.098320e+02
<TRANSP> 5
 0.000000e+00 1.000000e+00 0.000000e+00 0.000000e+00 0.000000e+00
 0.000000e+00 7.286844e-01 2.713156e-01 0.000000e+00 0.000000e+00
 0.000000e+00 0.000000e+00 5.824442e-01 4.175559e-01 0.000000e+00
 0.000000e+00 0.000000e+00 0.000000e+00 4.818494e-01 5.181506e-01
 0.000000e+00 0.000000e+00 0.000000e+00 0.000000e+00 0.000000e+00
<ENDHMM>
~h "l"
<BEGINHMM>
<NUMSTATES> 5
<STATE> 2
<MEAN> 39
 6.087412e+00 -5.118013e+00 -1.274105e+00 -4.578775e+00 8.144884e-01 4.044325e+00 -7.835598e+00 -1.490849e-01 1.125907e+01 1.024963e+00 -4.976660e+00 -2.841054e+00 9.062774e+00 2.511049e-01 1.464862e-01 4.091526e-01 1.581028e-01 -2.558513e-01 -5.950951e-01 -7.356353e-01 2.233657e-01 1.566600e-01 3.146000e-01 1.265602e-01 6.872402e-02 4.162918e-01 -4.384147e-02 5.728805e-02 -8.939870e-02 -2.365967e-02 -1.075362e-02 8.983388e-03 1.598401e-01 6.293568e-02 -1.659449e-01 1.148502e-03 8.275519e-02 -2.019766e-02 -5.355486e-02
<VARIANCE> 39
 4.693264e+01 6.823751e+01 7.431921e+01 4.477106e+01 5.377478e+01 1.301262e+02 6.703744e+01 5.678518e+01 1.891008e+02 5.966607e+01 4.826317e+01 2.780081e+01 1.756103e+02 1.034478e+00 1.993672e+00 2.132778e+00 1.157344e+00 1.354409e+00 3.103802e+00 1.535506e+00 1.724598e+00 3.525105e+00 1.216333e+00 1.410348e+00 8.701008e-01 4.410314e+00 1.411832e-01 1.877563e-01 2.372374e-01 1.252119e-01 1.784510e-01 4.341324e-01 1.462542e-01 2.989527e-01 3.800540e-01 1.443412e-01 1.338101e-01 1.143573e-01 4.083590e-01
<GCONST> 1.130266e+02
<STATE> 3
<MEAN> 39
 3.455761e+00 -1.700780e+00 3.069272e+00 -4.113797e+00 -3.658751e+00 -3.014312e+00 -9.019611e+00 1.438651e+00 2.012898e+00 -5.243018e+00 -2.388687e+00 1.549054e+00 8.656884e+00 -7.278405e-02 2.188234e-01 4.041604e-01 -1.437646e-01 -3.698279e-01 4.714358e-02 -2.316273e-01 7.751463e-02 -1.805526e-01 9.343686e-02 1.611368e-01 1.449074e-01 -1.552143e-01 -8.933573e-02 -1.811179e-01 -3.462577e-01 -2.552989e-02 8.084976e-02 8.490809e-02 5.860074e-01 6.212050e-02 -9.687015e-02 1.444246e-01 -8.151437e-02 -1.509987e-01 1.029332e-01
<VARIANCE> 39
 1.498466e+01 2.817657e+01 5.085097e+01 3.400895e+01 3.383966e+01 3.968532e+01 5.528424e+01 7.096736e+01 6.440186e+01 6.589271e+01 3.542265e+01 4.444244e+01 3.481744e+01 4.280118e-01 1.174478e+00 2.253238e+00 7.494400e-01 9.928359e-01 1.067894e+00 3.732903e+00 1.600315e+00 1.198881e+00 1.120175e+00 1.069682e+00 1.056922e+00 7.943226e-01 4.615008e-02 1.986911e-01 1.671864e-01 1.192680e-01 1.492214e-01 2.142491e-01 3.992612e-01 2.734293e-01 2.090705e-01 1.651160e-01 1.019572e-01 1.525408e-01 1.327427e-01
<GCONST> 9.797606e+01
<STATE> 4
<MEAN> 39
 2.946289e+00 -1.550060e+00 6.837347e-01 -2.017343e+00 -5.667176e+00 -2.732486e+00 -3.576577e+00 -8.952735e-01 3.659576e-01 -2.833999e+00 -2.516664e+00 3.174289e-01 9.712400e+00 -2.658370e-01 -5.641664e-03 -1.333527e-01 -1.404164e-01 -1.421873e-02 1.580483e-01 7.233590e-01 1.904136e-01 -3.773558e-01 5.669704e-01 1.921183e-01 -2.205268e-01 -7.086444e-02 -4.694092e-02 5.099986e-02 -4.516175e-02 -3.193330e-02 1.348112e-01 2.286637e-02 5.286709e-02 -6.295222e-03 7.543193e-03 3.114559e-02 1.858767e-02 -1.323995e-02 -1.186354e-02
<VARIANCE> 39
 4.059457e+01 4.395721e+01 4.491282e+01 5.136134e+01 4.475792e+01 3.107803e+01 6.046655e+01 6.088695e+01 7.456940e+01 6.942410e+01 3.003959e+01 3.535997e+01 3.733284e+01 1.060880e+00 1.082643e+00 1.372912e+00 1.204039e+00 1.319353e+00 1.206497e+00 2.108188e+00 1.555594e+00 1.270195e+00 1.211689e+00 6.607864e-01 5.808892e-01 5.969222e-01 7.430505e-02 8.961472e-02 9.213577e-02 1.144694e-01 1.250859e-01 1.357221e-01 1.821027e-01 1.312542e-01 1.670119e-01 1.342790e-01 7.550117e-02 7.911948e-02 7.029999e-02
<GCONST> 9.380148e+01
<TRANSP> 5
 0.000000e+00 1.000000e+00 0.000000e+00 0.000000e+00 0.000000e+00
 0.000000e+00 5.659219e-01 4.340781e-01 0.000000e+00 0.000000e+00
 0.000000e+00 0.000000e+00 5.170314e-01 4.829686e-01 0.000000e+00
 0.000000e+00 0.000000e+00 0.000000e+00 6.689854e-01 3.310146e-01
 0.000000e+00 0.000000e+00 0.000000e+00 0.000000e+00 0.000000e+00
<ENDHMM>
~h "m"
<BEGINHMM>
<NUMSTATES> 5
<STATE> 2
<MEAN> 39
 7.109837e+00 2.768067e+00 2.950328e+00 2.112968e+00 1.014095e+00 2.048979e+00 -1.585354e+00 -5.260201e+00 -3.832640e+00 9.808267e-03 -2.962096e-01 -1.564141e+00 2.828059e+00 5.455491e-01 -3.766301e-01 -5.462485e-01 2.947845e-02 4.685237e-01 9.581969e-02 -4.999568e-01 7.834708e-03 5.520731e-01 4.014705e-01 -1.193736e-01 -4.797921e-01 5.500634e-01 -6.031642e-02 -2.546300e-01 -2.353679e-01 -1.647512e-01 2.833793e-02 -5.453154e-02 -6.174985e-02 2.723678e-01 2.172406e-01 2.393710e-02 -7.852276e-02 -1.015354e-01 1.706363e-01
<VARIANCE> 39
 2.901120e+01 3.322436e+01 8.321886e+01 7.593597e+01 8.686389e+01 5.063061e+01 6.425739e+01 5.689796e+01 6.172279e+01 4.105479e+01 4.409971e+01 2.975131e+01 4.164953e+01 9.026139e-01 1.393152e+00 2.381501e+00 2.699693e+00 1.727670e+00 1.319268e+00 1.680303e+00 1.736914e+00 2.468615e+00 1.267619e+00 9.846399e-01 1.088074e+00 1.991752e+00 1.166775e-01 1.363932e-01 1.712248e-01 2.570799e-01 2.240767e-01 1.662111e-01 2.186593e-01 2.461218e-01 1.856764e-01 1.557293e-01 1.326825e-01 1.151476e-01 1.238895e-01
<GCONST> 1.052332e+02
<STATE> 3
<MEAN> 39
 8.900713e+00 -2.489794e+00 -2.467577e+00 1.750196e+00 4.693292e+00 9.535193e-01 -7.899842e+00 -3.617154e+00 -1.555707e+00 2.072155e+00 -1.955970e+00 -6.681213e+00 6.052454e+00 -4.888644e-03 -9.624746e-01 -7.807601e-01 -3.102143e-01 3.786381e-01 4.956969e-02 -3.352147e-02 1.142013e+00 5.598345e-01 -6.018227e-01 -3.092798e-01 -1.556436e-01 7.708271e-01 -2.076414e-01 4.479875e-03 9.407429e-02 -1.388586e-01 -1.748782e-01 -3.098451e-02 2.935693e-01 2.302306e-01 -9.212384e-02 -3.324401e-01 -6.000876e-02 3.017240e-01 7.334007e-02
<VARIANCE> 39
 1.835589e+01 2.793107e+01 4.869503e+01 5.159911e+01 3.934821e+01 5.444201e+01 4.385849e+01 5.071518e+01 7.412395e+01 5.927404e+01 3.600357e+01 3.343512e+01 2.690794e+01 5.576000e-01 1.404544e+00 1.414056e+00 1.738850e+00 1.558269e+00 1.219097e+00 1.878420e+00 2.247385e+00 1.881044e+00 2.191959e+00 1.286998e+00 1.218996e+00 9.752753e-01 5.292346e-02 1.188885e-01 2.226932e-01 2.329143e-01 1.325003e-01 1.377553e-01 1.708961e-01 2.325975e-01 1.721527e-01 2.398581e-01 1.159433e-01 1.164895e-01 8.506102e-02
<GCONST> 9.926321e+01
<STATE> 4
<MEAN> 39
 7.030827e+00 -6.293796e+00 -4.801653e+00 -2.304246e-01 5.536645e+00 1.828456e+00 -3.986568e+00 1.425721e+00 1.109120e+00 -4.395936e+00 -6.408355e+00 -1.768804e+00 1.171096e+01 -5.056756e-01 -1.340764e-01 1.138351e-01 -5.263137e-01 -2.914850e-01 -2.044841e-02 6.308711e-01 5.046873e-01 -2.581836e-01 -4.743933e-01 -2.404132e-02 4.128678e-01 3.441512e-01 -3.038373e-02 1.995772e-01 1.346845e-01 2.551502e-02 -7.201157e-02 -2.529231e-02 5.624300e-02 -2.158462e-01 -1.119865e-01 1.133503e-01 9.341884e-02 9.566911e-03 -1.435214e-01
<VARIANCE> 39
 2.839102e+01 5.510318e+01 7.334727e+01 5.592984e+01 5.373552e+01 6.240657e+01 6.504413e+01 8.167309e+01 1.317240e+02 6.172073e+01 4.154896e+01 3.026261e+01 6.755501e+01 1.000422e+00 1.290934e+00 1.872134e+00 1.684397e+00 1.424452e+00 1.504316e+00 1.757603e+00 2.049125e+00 1.890973e+00 1.788230e+00 1.271136e+00 1.085762e+00 1.474544e+00 7.723819e-02 1.433902e-01 1.826608e-01 1.876203e-01 1.577138e-01 1.460983e-01 1.555990e-01 2.644867e-01 2.130625e-01 2.158919e-01 1.373553e-01 1.053352e-01 1.293197e-01
<GCONST> 1.055792e+02
<TRANSP> 5
 0.000000e+00 1.000000e+00 0.000000e+00 0.000000e+00 0.000000e+00
 0.000000e+00 6.522911e-01 3.477089e-01 0.000000e+00 0.000000e+00
 0.000000e+00 0.000000e+00 6.449340e-01 3.550660e-01 0.000000e+00
 0.000000e+00 0.000000e+00 0.000000e+00 6.887556e-01 3.112444e-01
 0.000000e+00 0.000000e+00 0.000000e+00 0.000000e+00 0.000000e+00
<ENDHMM>
~h "n"
<BEGINHMM>
<NUMSTATES> 5
<STATE> 2
<MEAN> 39
 3.325811e+00 -1.823965e+00 4.184461e-01 -1.778450e-01 3.312527e-01 -3.431065e+00 -2.895058e-01 2.118797e+00 -2.930198e+00 -3.043782e+00 -3.282610e+00 -2.455224e-02 8.679873e+00 4.037869e-01 6.864896e-01 6.768313e-01 9.282703e-01 -3.986501e-01 -2.892707e-01 1.235417e-01 -5.909738e-01 -4.067979e-01 2.573290e-02 -9.233611e-02 1.444913e-01 -8.461422e-01 6.517705e-02 1.767323e-02 -2.966850e-02 -3.832923e-02 -5.462305e-02 5.200802e-02 -5.801124e-02 -8.448964e-02 9.024431e-02 8.591001e-02 1.176951e-02 -3.671780e-02 -3.430489e-02
<VARIANCE> 39
 2.177514e+01 2.987123e+01 4.827039e+01 4.398275e+01 4.776108e+01 5.339991e+01 5.055630e+01 5.195569e+01 5.920794e+01 5.770786e+01 3.712857e+01 2.931017e+01 4.964226e+01 5.975003e-01 6.889319e-01 1.212422e+00 9.346371e-01 1.243849e+00 1.207559e+00 1.140157e+00 1.257186e+00 1.325613e+00 1.498103e+00 9.795724e-01 1.027288e+00 6.253479e-01 4.995015e-02 7.299324e-02 9.377623e-02 1.061796e-01 1.098905e-01 1.201463e-01 1.140447e-01 1.392305e-01 1.567143e-01 1.313175e-01 1.059947e-01 1.067268e-01 6.284585e-02
<GCONST> 9.096770e+01
<STATE> 3
<MEAN> 39
 6.751499e+00 4.604299e-01 3.194293e+00 4.395879e+00 -2.527268e+00 -4.226811e+00 7.590067e-01 -1.339345e+00 -3.399602e+00 -1.369292e+00 -3.972561e+00 8.435190e-01 5.707561e+00 3.661242e-01 4.679543e-01 3.145084e-01 4.742648e-01 -1.733150e-01 4.534354e-02 -2.398711e-02 -4.872073e-01 -7.033762e-02 2.601760e-02 5.075793e-02 -4.438239e-02 -6.847098e-01 -1.303922e-01 -1.416055e-01 -1.890298e-01 -2.582547e-01 1.246230e-01 1.086930e-01 -3.451700e-02 1.648493e-01 7.604928e-02 -6.484365e-02 5.120287e-02 -7.263901e-02 1.671003e-01
<VARIANCE> 39
 2.033482e+01 2.980494e+01 2.907604e+01 3.216496e+01 3.984589e+01 5.205010e+01 5.141766e+01 4.615340e+01 5.430119e+01 3.936553e+01 3.770976e+01 3.383107e+01 3.247766e+01 4.701051e-01 8.804494e-01 1.190297e+00 8.869701e-01 9.646567e-01 9.113804e-01 9.804774e-01 1.174868e+00 1.144650e+00 1.081983e+00 7.401378e-01 7.769499e-01 5.495762e-01 4.689552e-02 8.405106e-02 8.354575e-02 9.841124e-02 1.155531e-01 1.184043e-01 1.211472e-01 1.403431e-01 1.280050e-01 1.248982e-01 9.863424e-02 9.118985e-02 5.343556e-02
<GCONST> 8.640069e+01
<STATE> 4
<MEAN> 39
 3.687155e+00 8.319675e-01 1.020579e+00 1.154383e+00 -7.259096e-01 -1.142948e+00 -1.571522e+00 -2.286191e+00 -1.968302e+00 -3.367663e+00 -3.629112e+00 -1.210896e+00 2.184935e+00 -4.491002e-02 1.309175e-01 5.483821e-03 1.966978e-02 4.227408e-02 -1.451040e-02 1.951618e-03 -5.258301e-02 -3.446050e-02 1.104625e-02 9.337772e-02 3.235230e-03 -1.684473e-01 -2.907464e-02 -6.820505e-02 -2.680803e-02 -6.731657e-02 2.392167e-02 9.630492e-03 7.435060e-03 6.994980e-02 1.607223e-03 3.415482e-02 3.425933e-02 -1.007439e-02 5.494434e-02
<VARIANCE> 39
 1.504411e+01 2.501614e+01 2.676515e+01 2.288032e+01 3.174991e+01 3.193054e+01 2.885756e+01 2.889396e+01 4.056494e+01 3.269209e+01 2.466199e+01 1.991230e+01 2.332296e+01 1.817747e-01 5.683578e-01 5.117716e-01 5.575974e-01 6.620879e-01 5.806547e-01 6.213092e-01 7.276315e-01 6.480555e-01 6.875247e-01 5.329999e-01 4.493492e-01 3.113589e-01 2.050840e-02 5.603515e-02 4.274937e-02 6.475098e-02 7.215296e-02 7.202695e-02 7.229017e-02 7.961353e-02 7.907870e-02 8.454300e-02 6.407473e-02 5.738637e-02 2.688516e-02
<GCONST> 6.822511e+01
<TRANSP> 5
 0.000000e+00 1.000000e+00 0.000000e+00 0.000000e+00 0.000000e+00
 0.000000e+00 3.761440e-01 6.238560e-01 0.000000e+00 0.000000e+00
 0.000000e+00 0.000000e+00 6.285288e-01 3.714713e-01 0.000000e+00
 0.000000e+00 0.000000e+00 0.000000e+00 8.501713e-01 1.498287e-01
 0.000000e+00 0.000000e+00 0.000000e+00 0.000000e+00 0.000000e+00
<ENDHMM>
~h "o"
<BEGINHMM>
<NUMSTATES> 5
<STATE> 2
<MEAN> 39
 -3.478654e+00 -6.741396e-01 -2.350958e-01 1.315282e+00 4.679165e+00 2.952585e+00 1.896224e+00 2.144919e+00 4.267916e-01 1.078872e+00 3.413929e+00 4.249561e-02 -1.634005e+01 8.273124e-01 5.934415e-01 -2.019215e-01 -8.131304e-01 -1.906061e-01 1.645129e-01 -3.589807e-01 -1.941627e-01 -3.564555e-03 1.914223e-01 4.392867e-02 -1.342319e-01 6.046136e-01 1.274317e-01 1.754674e-02 -4.432819e-02 -8.935176e-02 -1.189251e-01 -5.175633e-02 -9.715544e-02 -5.861282e-02 3.896336e-02 5.958483e-02 -2.779814e-02 -2.930031e-02 2.408810e-01
<VARIANCE> 39
 9.753846e+01 4.760052e+01 4.701519e+01 5.186242e+01 5.339296e+01 4.351434e+01 3.820875e+01 3.797766e+01 4.214783e+01 4.137677e+01 3.017888e+01 1.720858e+01 4.392912e+02 2.404900e+00 1.127576e+00 1.397254e+00 1.219853e+00 1.596922e+00 1.347525e+00 1.159266e+00 1.048170e+00 1.585960e+00 1.183279e+00 9.438123e-01 5.922936e-01 7.465304e+00 1.830121e-01 1.222106e-01 1.484194e-01 1.735366e-01 1.199327e-01 1.560071e-01 1.448078e-01 1.136965e-01 1.488982e-01 1.253448e-01 8.962227e-02 6.958168e-02 4.832568e-01
<GCONST> 1.019716e+02
<STATE> 3
<MEAN> 39
 1.008769e+01 3.162712e+00 -7.282656e+00 -9.323618e+00 -2.083023e+00 3.850132e+00 -2.180634e+00 -3.063186e+00 -1.271768e+00 2.312760e+00 3.094394e+00 -1.849282e-01 5.887914e+00 7.341882e-01 -5.654086e-01 -7.403471e-01 -3.253677e-01 2.150114e-01 1.500997e-01 -1.204907e+00 -3.372829e-01 7.919770e-01 8.674366e-01 -2.317746e-01 -4.472169e-01 1.659190e+00 -3.529498e-01 -3.170947e-01 1.585109e-01 5.207996e-01 2.453673e-01 -2.875873e-01 -6.181911e-02 1.660752e-01 2.010150e-01 -6.209772e-02 -2.364088e-01 -8.864845e-02 -2.189323e-01
<VARIANCE> 39
 1.986573e+01 3.477938e+01 5.305216e+01 3.550315e+01 4.820926e+01 4.417603e+01 3.756541e+01 3.758187e+01 4.644233e+01 5.152786e+01 3.839170e+01 2.663586e+01 4.082447e+01 1.377127e+00 1.550377e+00 1.896333e+00 2.941895e+00 2.298115e+00 1.882491e+00 1.442232e+00 1.389411e+00 2.141645e+00 1.623961e+00 1.330170e+00 1.047599e+00 2.672192e+00 1.000849e-01 1.290545e-01 1.857196e-01 1.880563e-01 2.438637e-01 2.327785e-01 2.044116e-01 1.627203e-01 1.987331e-01 2.183630e-01 1.814773e-01 1.432617e-01 1.892627e-01
<GCONST> 1.038629e+02
<STATE> 4
<MEAN> 39
 8.301406e+00 -4.010829e+00 -8.350506e+00 -2.626568e+00 3.580994e+00 -5.527595e-01 -8.838451e+00 -1.218644e+00 6.227648e+00 5.001255e+00 -2.194174e+00 -4.112104e+00 9.659814e+00 -4.009914e-01 -3.604547e-01 6.930022e-01 1.318141e+00 1.541790e-01 -1.133550e+00 -1.969192e-02 4.309550e-01 3.216019e-01 -5.493808e-01 -6.379289e-01 3.228835e-02 -3.369515e-02 -8.228119e-02 2.841458e-01 2.671923e-01 8.488190e-02 -2.054712e-01 -2.162401e-02 3.728062e-01 -2.915896e-03 -3.304727e-01 -2.628528e-01 1.843960e-01 2.287106e-01 -2.982660e-01
<VARIANCE> 39
 2.044807e+01 2.318668e+01 3.682805e+01 5.451154e+01 5.928778e+01 5.473140e+01 3.622210e+01 5.059013e+01 6.453597e+01 7.035303e+01 4.921630e+01 3.061165e+01 3.419751e+01 7.086465e-01 1.072258e+00 1.303943e+00 1.713998e+00 2.290619e+00 1.519689e+00 1.669648e+00 1.065981e+00 1.946710e+00 1.582350e+00 1.561865e+00 1.176554e+00 1.338031e+00 9.250384e-02 1.137685e-01 1.419056e-01 2.440124e-01 2.261355e-01 2.078812e-01 1.529813e-01 1.725760e-01 2.392139e-01 2.254116e-01 1.811030e-01 1.268516e-01 1.140539e-01
<GCONST> 1.012165e+02
<TRANSP> 5
 0.000000e+00 1.000000e+00 0.000000e+00 0.000000e+00 0.000000e+00
 0.000000e+00 7.512931e-01 2.487069e-01 0.000000e+00 0.000000e+00
 0.000000e+00 0.000000e+00 7.129528e-01 2.870472e-01 0.000000e+00
 0.000000e+00 0.000000e+00 0.000000e+00 7.516686e-01 2.483314e-01
 0.000000e+00 0.000000e+00 0.000000e+00 0.000000e+00 0.000000e+00
<ENDHMM>
~h "p"
<BEGINHMM>
<NUMSTATES> 5
<STATE> 2
<MEAN> 39
 -3.936452e+00 -5.453193e-01 -4.545053e+00 4.111291e+00 3.503555e+00 2.968852e-01 1.787081e+00 5.793967e-01 -1.386633e+00 -3.546129e-01 2.162323e+00 -1.272807e+00 -5.637192e+00 -1.873668e-01 -8.382586e-02 -7.509828e-02 1.639899e-01 2.154052e-01 1.831146e-01 6.541185e-02 -1.632493e-02 2.058851e-01 1.404054e-01 1.505073e-01 5.570853e-02 -5.754568e-01 2.649390e-02 -7.064105e-02 3.865407e-02 -7.481387e-02 -6.971197e-02 -3.430641e-02 -1.968398e-02 7.315260e-03 6.429990e-02 4.701077e-02 -1.595362e-02 1.102696e-02 1.835130e-01
<VARIANCE> 39
 6.705821e+01 5.112792e+01 2.598924e+01 4.993234e+01 5.160279e+01 4.737908e+01 4.054604e+01 3.521051e+01 6.012467e+01 3.764824e+01 2.475264e+01 2.558808e+01 5.132461e+01 8.308102e-01 6.437981e-01 5.385578e-01 7.145978e-01 7.936426e-01 7.111606e-01 7.183549e-01 7.246478e-01 7.646345e-01 5.890201e-01 5.264844e-01 4.834947e-01 1.059219e+00 9.046882e-02 7.224213e-02 7.079335e-02 9.356853e-02 8.225848e-02 1.050819e-01 9.973475e-02 8.791392e-02 1.165262e-01 9.064202e-02 6.205272e-02 6.096986e-02 1.031101e-01
<GCONST> 8.331644e+01
<STATE> 3
<MEAN> 39
 -2.084257e+00 -2.192456e+00 -3.518721e+00 3.506614e+00 2.870048e+00 2.260277e+00 1.469611e+00 8.623773e-01 1.568535e+00 6.078543e-01 1.727527e+00 4.790668e-03 -7.887666e+00 -2.850039e-01 -3.019948e-01 3.036200e-01 -1.364290e-01 -2.302917e-01 -1.502780e-01 1.594243e-01 1.649830e-01 5.318016e-01 4.580334e-01 1.939850e-01 -1.685668e-04 2.109362e-01 1.399752e-01 -7.768631e-02 5.962149e-02 -1.322701e-01 -1.337710e-01 -1.272341e-01 -7.775651e-02 1.060318e-01 5.718675e-02 -3.528422e-02 -1.147763e-01 -2.852575e-02 4.586774e-01
<VARIANCE> 39
 6.394429e+01 3.999635e+01 4.022850e+01 3.780505e+01 3.949729e+01 3.827523e+01 4.309194e+01 3.676987e+01 5.046582e+01 4.372980e+01 2.022868e+01 2.240398e+01 7.324598e+01 1.301609e+00 1.022729e+00 1.170834e+00 9.874029e-01 9.288703e-01 1.103521e+00 8.880529e-01 9.409986e-01 1.058974e+00 8.266084e-01 6.501072e-01 6.871348e-01 2.331027e+00 1.479409e-01 1.290349e-01 1.537815e-01 1.378156e-01 1.112262e-01 1.703488e-01 1.430987e-01 1.051700e-01 1.271767e-01 1.246171e-01 1.025333e-01 7.697733e-02 2.503580e-01
<GCONST> 9.348666e+01
<STATE> 4
<MEAN> 39
 -4.052777e+00 -2.638784e+00 -8.926777e-01 2.965605e+00 3.727917e+00 1.655835e+00 2.262332e+00 2.273697e+00 3.192579e+00 2.913595e+00 2.978517e+00 -1.273265e-01 -1.313334e+01 8.565624e-01 -2.522798e-01 -2.209505e-02 -3.642595e-01 -5.305469e-01 -2.360594e-01 -1.574899e-01 5.734924e-02 1.594039e-01 3.305335e-02 -4.981487e-01 -1.323399e-02 1.768747e+00 1.317908e-01 2.606732e-02 -2.842727e-02 -1.034429e-01 -5.922369e-02 -5.574238e-03 -8.875418e-02 1.547356e-02 -6.988033e-02 -1.093224e-01 -1.348441e-01 2.429367e-02 2.130121e-01
<VARIANCE> 39
 9.671822e+01 5.133639e+01 5.941022e+01 4.156475e+01 6.320048e+01 4.811335e+01 3.304088e+01 3.325771e+01 5.205204e+01 3.417544e+01 3.100690e+01 2.131211e+01 4.568098e+02 2.813640e+00 1.942576e+00 1.958719e+00 1.892703e+00 1.933756e+00 1.969655e+00 1.040716e+00 7.812105e-01 1.930684e+00 1.275907e+00 1.202412e+00 8.109128e-01 1.177876e+01 2.651164e-01 2.003286e-01 1.622512e-01 1.727490e-01 1.837796e-01 1.904433e-01 1.082345e-01 1.015698e-01 1.566866e-01 1.282021e-01 1.300213e-01 9.575614e-02 1.012410e+00
<GCONST> 1.079501e+02
<TRANSP> 5
 0.000000e+00 1.000000e+00 0.000000e+00 0.000000e+00 0.000000e+00
 0.000000e+00 6.817484e-01 3.182516e-01 0.000000e+00 0.000000e+00
 0.000000e+00 0.000000e+00 4.881479e-01 5.118521e-01 0.000000e+00
 0.000000e+00 0.000000e+00 0.000000e+00 6.832591e-01 3.167409e-01
 0.000000e+00 0.000000e+00 0.000000e+00 0.000000e+00 0.000000e+00
<ENDHMM>
~h "r"
<BEGINHMM>
<NUMSTATES> 5
<STATE> 2
<MEAN> 39
 -2.911097e+00 -8.515864e-01 3.300768e-01 3.446923e+00 1.720144e+00 1.315960e+00 1.972532e+00 2.370611e+00 1.814966e+00 1.867151e-01 3.080669e+00 6.715596e-01 -8.356307e+00 -1.411900e-01 -2.234400e-03 2.934269e-01 3.560975e-02 1.355769e-02 1.301803e-01 -1.069860e-01 1.018693e-01 1.095340e-01 8.262628e-02 2.306032e-01 3.988139e-02 -4.702349e-01 8.036683e-02 -1.799316e-02 -1.489129e-02 -7.844852e-02 -5.671780e-02 -4.906033e-02 -5.703437e-02 -2.615190e-02 -2.774064e-02 1.768758e-02 -5.982271e-02 -2.717612e-02 8.231810e-02
<VARIANCE> 39
 6.282102e+01 4.177718e+01 4.186082e+01 5.200209e+01 6.537818e+01 4.602866e+01 4.727394e+01 3.436357e+01 4.487954e+01 4.600642e+01 3.903948e+01 2.246021e+01 3.807886e+02 1.141552e+00 7.681847e-01 8.078161e-01 7.795303e-01 1.090235e+00 9.555639e-01 8.841377e-01 1.060777e+00 1.101614e+00 9.025213e-01 7.506288e-01 4.761436e-01 1.485554e+00 1.055152e-01 7.020245e-02 6.800178e-02 9.213117e-02 1.097724e-01 9.152368e-02 9.687609e-02 1.095356e-01 1.176392e-01 9.923744e-02 8.160649e-02 6.490585e-02 9.822013e-02
<GCONST> 9.059738e+01
<STATE> 3
<MEAN> 39
 4.338390e-01 -2.678138e+00 2.344280e+00 1.521902e+00 -2.431494e+00 -8.157274e-01 1.666548e-01 2.910137e+00 2.684923e+00 -9.154105e-02 1.002154e+00 8.113970e-01 3.499525e+00 2.356092e-01 -1.734283e-01 4.771699e-01 -1.008028e-01 -4.167937e-01 -1.743381e-02 -4.373024e-01 -2.116580e-04 -1.175674e-01 1.213289e-01 1.459820e-01 -1.304179e-01 1.558157e-01 1.070216e-01 -7.471496e-03 -1.064316e-01 -2.013734e-01 -7.391930e-02 -9.052029e-02 -5.884745e-02 -4.335288e-02 -4.812489e-02 3.624691e-02 -1.446344e-01 -6.179778e-02 1.937908e-01
<VARIANCE> 39
 3.240816e+01 3.039459e+01 4.255839e+01 3.823841e+01 5.501404e+01 4.399736e+01 4.405906e+01 3.711872e+01 5.417011e+01 3.464835e+01 3.479305e+01 2.412297e+01 1.206531e+02 6.732472e-01 7.962087e-01 1.322860e+00 7.182503e-01 1.283005e+00 1.181590e+00 1.231606e+00 1.515103e+00 1.501748e+00 1.216934e+00 1.077585e+00 6.602361e-01 1.333385e+00 6.650536e-02 8.508819e-02 1.129152e-01 1.010030e-01 1.709667e-01 1.319108e-01 1.370956e-01 1.581167e-01 1.732966e-01 1.207584e-01 1.273493e-01 1.156540e-01 9.914275e-02
<GCONST> 9.346672e+01
<STATE> 4
<MEAN> 39
 7.118689e-01 -3.149758e+00 1.987777e+00 1.577001e+00 -2.856001e+00 -5.552241e-01 3.858792e-01 3.582658e+00 2.995843e+00 -9.638473e-01 1.870560e-01 2.512832e-02 3.405285e+00 5.010616e-01 -2.023070e-01 1.053104e-01 -4.106197e-01 -5.985206e-01 -2.603616e-01 -4.856516e-01 -4.684922e-02 3.935860e-03 8.023475e-02 -3.121413e-01 -1.692976e-01 1.116601e+00 4.582367e-02 2.187704e-02 -1.341331e-01 -1.062322e-01 2.145098e-02 -6.709472e-03 2.284842e-02 -7.999410e-02 -4.233826e-02 2.346109e-02 -7.426737e-02 5.801195e-03 7.254110e-02
<VARIANCE> 39
 4.845813e+01 4.318690e+01 5.762703e+01 4.687627e+01 7.124008e+01 5.381699e+01 5.675726e+01 4.753815e+01 5.948158e+01 4.464853e+01 4.499308e+01 2.730568e+01 1.956017e+02 1.316317e+00 1.449615e+00 2.039957e+00 1.318335e+00 2.220914e+00 1.700022e+00 1.939157e+00 1.605071e+00 1.793979e+00 1.478356e+00 1.518688e+00 9.281265e-01 4.360688e+00 1.421403e-01 1.528712e-01 1.713778e-01 1.508475e-01 2.255480e-01 1.860638e-01 1.732723e-01 1.478956e-01 1.812590e-01 1.386146e-01 1.703392e-01 1.108584e-01 3.166000e-01
<GCONST> 1.074188e+02
<TRANSP> 5
 0.000000e+00 1.000000e+00 0.000000e+00 0.000000e+00 0.000000e+00
 0.000000e+00 6.209204e-01 3.790796e-01 0.000000e+00 0.000000e+00
 0.000000e+00 0.000000e+00 2.674637e-01 7.325363e-01 0.000000e+00
 0.000000e+00 0.000000e+00 0.000000e+00 5.190597e-01 4.809403e-01
 0.000000e+00 0.000000e+00 0.000000e+00 0.000000e+00 0.000000e+00
<ENDHMM>
~h "s"
<BEGINHMM>
<NUMSTATES> 5
<STATE> 2
<MEAN> 39
 -1.030934e+01 9.258771e+00 -3.242424e+00 3.869614e+00 -4.639572e-01 -6.435089e+00 4.504133e+00 -4.188481e-01 -2.687943e-01 2.171783e-01 2.131753e+00 -9.819779e-02 6.365605e+00 -2.265724e+00 1.211780e+00 -9.431181e-01 5.119909e-01 9.985532e-01 -1.700753e-01 6.560068e-01 1.098938e-01 -1.756974e-01 7.328662e-02 4.285105e-01 -1.436950e-01 -3.446219e-01 1.115094e-01 -2.761353e-01 1.365100e-01 -2.127569e-01 -6.683477e-02 4.038560e-02 -1.806610e-01 5.626180e-02 -8.253436e-03 -8.503771e-04 -6.258443e-02 2.254421e-02 2.603290e-02
<VARIANCE> 39
 6.766360e+01 4.824496e+01 6.990265e+01 4.671777e+01 8.189829e+01 6.150693e+01 5.738424e+01 4.647311e+01 5.170607e+01 5.033234e+01 3.811755e+01 3.222077e+01 4.102610e+01 9.413469e-01 1.046432e+00 1.009214e+00 1.697085e+00 1.499717e+00 1.523356e+00 1.398800e+00 1.374432e+00 1.304526e+00 1.122645e+00 1.388776e+00 9.333119e-01 3.178808e-01 1.531820e-01 1.268426e-01 9.988669e-02 1.191753e-01 1.359365e-01 1.345807e-01 1.386043e-01 1.322049e-01 1.200041e-01 9.866048e-02 1.134871e-01 9.426040e-02 2.976093e-02
<GCONST> 9.560085e+01
<STATE> 3
<MEAN> 39
 -1.889671e+01 9.395141e+00 -3.986000e+00 4.330477e+00 2.267375e+00 -4.950499e+00 5.197608e+00 5.995309e-01 -1.197065e+00 8.611276e-01 3.852007e+00 -1.250423e+00 4.238400e+00 2.925963e-01 -8.075318e-01 4.314913e-01 -2.934442e-01 -3.474465e-03 -1.212122e-01 -1.834174e-01 1.739735e-01 3.862499e-02 -2.348383e-01 -1.335531e-01 2.916908e-02 2.691724e-02 6.034026e-01 -1.696136e-01 1.305269e-01 -9.819330e-02 -1.961281e-01 -1.442319e-02 -1.476709e-01 -8.032595e-02 5.823175e-02 -4.687275e-02 -1.399201e-01 4.801777e-02 7.688870e-02
<VARIANCE> 39
 5.960990e+01 3.949543e+01 4.781397e+01 6.205051e+01 8.154053e+01 6.013724e+01 4.215279e+01 4.828576e+01 3.687129e+01 5.029228e+01 3.962273e+01 3.285333e+01 2.621525e+01 2.187767e+00 7.777496e-01 1.239615e+00 9.951156e-01 1.101032e+00 1.022675e+00 1.065259e+00 1.312004e+00 9.103296e-01 1.035724e+00 1.031892e+00 5.663499e-01 7.010850e-01 1.169756e-01 1.141864e-01 1.195495e-01 1.440292e-01 1.195698e-01 1.266447e-01 1.425510e-01 1.253278e-01 1.404509e-01 1.564050e-01 1.257215e-01 9.530689e-02 5.714468e-02
<GCONST> 9.406220e+01
<STATE> 4
<MEAN> 39
 -7.939704e+00 4.547116e+00 -2.131004e+00 9.863446e-01 1.959578e+00 -8.125005e+00 1.016453e+00 2.158540e+00 3.835977e-01 -1.386091e+00 8.571244e-01 2.881274e-01 5.478944e+00 2.575408e+00 -4.815310e-01 -2.747337e-02 -6.728815e-01 -5.851681e-01 3.133632e-01 -8.864968e-01 -4.251113e-01 2.001770e-01 1.482107e-01 -3.239102e-01 1.658559e-02 3.490746e-01 8.061470e-03 1.764867e-01 -1.241167e-01 -5.062329e-02 2.510904e-02 1.710711e-01 2.338582e-02 -1.322949e-01 -4.062292e-02 9.104778e-02 3.527774e-02 -1.287766e-02 1.714065e-03
<VARIANCE> 39
 7.485999e+01 3.743886e+01 6.196238e+01 4.273415e+01 6.761773e+01 5.355151e+01 6.281754e+01 5.716962e+01 5.095541e+01 5.134511e+01 4.699953e+01 2.210077e+01 3.700282e+01 1.863403e+00 1.499055e+00 2.039663e+00 2.211172e+00 2.098368e+00 1.520530e+00 1.571090e+00 1.880446e+00 2.013048e+00 2.371473e+00 1.873818e+00 1.181783e+00 1.357979e+00 2.155997e-01 1.129484e-01 1.017621e-01 1.237673e-01 1.133195e-01 1.029441e-01 2.021383e-01 1.606248e-01 1.588902e-01 1.780497e-01 1.343254e-01 8.642848e-02 8.001601e-02
<GCONST> 1.032304e+02
<TRANSP> 5
 0.000000e+00 1.000000e+00 0.000000e+00 0.000000e+00 0.000000e+00
 0.000000e+00 7.947127e-01 2.052873e-01 0.000000e+00 0.000000e+00
 0.000000e+00 0.000000e+00 8.112416e-01 1.887584e-01 0.000000e+00
 0.000000e+00 0.000000e+00 0.000000e+00 6.611627e-01 3.388373e-01
 0.000000e+00 0.000000e+00 0.000000e+00 0.000000e+00 0.000000e+00
<ENDHMM>
~h "t"
<BEGINHMM>
<NUMSTATES> 5
<STATE> 2
<MEAN> 39
 1.386405e+00 9.457037e-01 -3.157095e-01 3.762409e+00 7.312396e-01 -6.766915e-01 1.316088e+00 -1.212008e+00 -4.049257e-01 -1.326308e+00 1.021293e-01 4.087358e-01 -3.442996e+00 -5.545779e-01 -5.187779e-01 -4.535698e-01 6.177414e-02 2.062714e-01 1.133804e-01 3.405735e-01 3.279710e-01 3.028629e-01 3.040219e-01 4.238817e-01 -1.218429e-01 -1.374965e-01 -1.276718e-01 -5.217765e-02 8.637967e-02 -2.641456e-01 -1.478890e-01 -1.189576e-01 -3.911399e-03 4.807688e-02 4.456321e-02 2.855517e-02 -6.096457e-02 -2.113507e-02 5.664495e-01
<VARIANCE> 39
 4.060333e+01 5.654747e+01 7.433028e+01 4.194315e+01 5.535313e+01 5.494114e+01 5.863958e+01 5.365117e+01 5.054755e+01 4.321284e+01 3.213485e+01 2.542861e+01 6.778045e+01 1.221862e+00 1.159075e+00 1.138269e+00 1.243868e+00 1.092962e+00 1.564024e+00 1.179231e+00 1.311581e+00 1.505252e+00 1.092128e+00 8.535988e-01 7.696167e-01 2.574074e+00 1.750167e-01 1.492909e-01 1.374794e-01 1.104277e-01 1.591477e-01 2.450139e-01 2.028953e-01 1.662027e-01 1.997204e-01 1.474894e-01 1.230133e-01 1.039230e-01 2.189287e-01
<GCONST> 1.009666e+02
<STATE> 3
<MEAN> 39
 -5.406526e+00 -2.156552e+00 -9.345673e-01 8.387439e-01 1.893175e+00 -1.542837e+00 3.884839e+00 1.366249e+00 2.595039e+00 1.237486e+00 3.572963e+00 -2.623788e-01 1.643251e+00 7.676383e-02 -3.559492e-01 1.807303e-01 -1.018803e+00 -7.523229e-01 -7.173277e-01 -2.259903e-01 2.754682e-01 2.227336e-01 1.162914e-01 -3.441834e-01 -2.173800e-01 2.403366e+00 4.060584e-01 1.398275e-01 1.266843e-01 -1.685373e-01 -2.044184e-01 -4.306969e-02 -2.757916e-01 -1.061544e-01 -1.578377e-01 -8.607312e-02 -2.693552e-01 -1.371500e-02 2.086954e-01
<VARIANCE> 39
 4.328132e+01 4.185847e+01 4.286180e+01 3.455464e+01 4.645901e+01 4.976235e+01 4.224086e+01 3.976032e+01 4.241730e+01 5.233017e+01 3.824105e+01 2.739122e+01 1.080106e+02 1.874822e+00 1.948632e+00 2.303446e+00 1.458000e+00 1.855808e+00 2.003692e+00 2.917078e+00 2.757303e+00 3.149044e+00 1.859087e+00 1.460590e+00 9.604965e-01 2.521075e+00 1.281559e-01 1.629594e-01 1.707398e-01 1.357848e-01 1.404120e-01 1.665267e-01 1.660023e-01 2.099130e-01 1.903556e-01 1.997409e-01 1.520521e-01 1.273918e-01 2.809776e-01
<GCONST> 1.067003e+02
<STATE> 4
<MEAN> 39
 2.636696e-01 -8.358400e-01 8.765248e-01 -3.650840e+00 -3.160150e+00 -4.926502e+00 -4.904837e-01 3.787589e-01 2.256127e+00 -6.984478e-01 -1.400784e+00 -1.285985e+00 9.890891e+00 8.495376e-01 1.700897e-01 1.016506e-01 -8.826165e-01 -6.012242e-01 -1.180670e-01 -7.178767e-01 -1.595352e-01 -2.015996e-01 -1.481331e-02 -5.457123e-01 -2.028286e-01 1.310039e+00 1.472742e-01 1.262144e-01 6.224676e-03 8.226123e-02 7.220862e-02 2.432708e-01 -3.332118e-02 -1.101957e-01 -1.375831e-01 -1.846949e-02 -1.548475e-02 8.344653e-02 -3.986469e-01
<VARIANCE> 39
 3.399049e+01 4.925139e+01 5.125805e+01 4.629541e+01 4.267313e+01 5.393399e+01 7.434437e+01 5.228712e+01 6.616293e+01 4.905720e+01 3.751120e+01 2.546271e+01 5.558701e+01 2.087379e+00 2.249635e+00 2.552778e+00 2.072159e+00 1.580811e+00 1.452184e+00 2.331042e+00 2.864125e+00 2.755227e+00 1.951948e+00 1.540344e+00 1.091434e+00 2.371938e+00 1.225843e-01 1.603394e-01 1.508946e-01 1.636049e-01 1.526920e-01 1.917086e-01 2.985272e-01 1.967033e-01 2.040707e-01 1.568614e-01 1.266971e-01 1.216361e-01 2.521786e-01
<GCONST> 1.078625e+02
<TRANSP> 5
 0.000000e+00 1.000000e+00 0.000000e+00 0.000000e+00 0.000000e+00
 0.000000e+00 7.352457e-01 2.647543e-01 0.000000e+00 0.000000e+00
 0.000000e+00 0.000000e+00 5.972305e-01 4.027694e-01 0.000000e+00
 0.000000e+00 0.000000e+00 0.000000e+00 4.018313e-01 5.981687e-01
 0.000000e+00 0.000000e+00 0.000000e+00 0.000000e+00 0.000000e+00
<ENDHMM>
~h "u"
<BEGINHMM>
<NUMSTATES> 5
<STATE> 2
<MEAN> 39
 6.934551e+00 2.690831e+00 -4.180874e+00 -3.224812e+00 1.066971e+00 -2.078783e+00 -9.025486e+00 -5.080851e+00 -4.257807e-01 3.925539e+00 2.469052e+00 3.114313e-01 5.053150e+00 4.168092e-01 5.900598e-01 -4.641645e-01 -4.458531e-01 2.549702e-01 5.376793e-01 2.917347e-02 -5.299692e-01 -5.735289e-01 4.646543e-02 3.360377e-01 1.136422e-01 -4.866940e-01 -1.599680e-01 -4.413091e-02 1.657909e-01 1.679575e-01 -1.012836e-02 -2.045968e-03 3.493865e-01 1.690336e-01 -1.978711e-02 -2.118196e-01 -7.958265e-02 2.924172e-02 -1.646685e-01
<VARIANCE> 39
 2.154590e+01 2.357830e+01 3.975995e+01 3.609330e+01 3.406299e+01 5.194186e+01 4.983995e+01 3.611063e+01 5.084574e+01 4.337788e+01 4.024252e+01 2.920323e+01 3.610357e+01 6.262890e-01 5.725515e-01 1.010299e+00 1.171771e+00 1.051158e+00 9.933147e-01 1.718880e+00 9.911622e-01 1.322041e+00 1.217116e+00 9.594619e-01 7.331160e-01 5.993040e-01 6.613852e-02 7.622602e-02 1.025041e-01 1.204232e-01 1.308534e-01 1.519697e-01 1.783551e-01 1.144902e-01 1.781420e-01 1.409509e-01 1.336419e-01 1.051861e-01 5.841174e-02
<GCONST> 8.955274e+01
<STATE> 3
<MEAN> 39
 7.325790e+00 5.106424e+00 -5.059965e+00 -2.945291e+00 1.359743e+00 -3.297308e-01 -3.554529e+00 -3.492938e+00 -3.163985e+00 -1.916651e-01 2.802135e+00 9.524707e-01 -1.260146e+00 -4.089426e-01 1.780903e-02 3.574271e-01 5.046029e-01 9.958184e-02 4.613544e-02 5.661503e-01 2.856701e-01 1.299637e-02 -3.234373e-01 3.077571e-03 2.915688e-03 -9.622333e-01 -1.017503e-01 -1.064983e-01 5.596252e-02 9.929523e-02 1.029429e-02 -4.917711e-02 -1.256486e-02 6.514803e-02 7.941896e-02 1.508651e-02 -2.881059e-02 -2.959770e-02 2.314041e-02
<VARIANCE> 39
 3.239104e+01 3.161133e+01 4.404280e+01 5.366970e+01 3.748193e+01 5.049788e+01 4.720648e+01 3.845550e+01 4.728241e+01 4.992883e+01 4.300632e+01 3.012597e+01 6.886302e+01 6.671735e-01 7.264690e-01 6.978295e-01 9.292328e-01 1.004431e+00 1.107621e+00 9.151903e-01 7.763707e-01 9.198201e-01 9.054986e-01 6.901919e-01 6.380041e-01 5.842165e-01 4.364590e-02 5.274479e-02 6.715572e-02 8.633851e-02 9.074407e-02 1.099403e-01 1.063480e-01 9.700063e-02 1.160605e-01 9.852642e-02 7.789451e-02 7.624926e-02 4.440222e-02
<GCONST> 8.454150e+01
<STATE> 4
<MEAN> 39
 6.974352e-01 3.114277e+00 -2.081340e+00 5.573629e-01 2.408237e+00 -2.073256e-01 -7.178257e-01 -3.318089e+00 -3.074076e+00 -1.795666e+00 4.315949e-01 1.829806e+00 -3.991194e+00 -3.718998e-01 -1.064582e-01 7.786138e-02 2.759118e-01 1.629291e-01 4.374528e-02 1.726663e-01 1.367329e-01 5.473917e-02 -9.167371e-02 -3.558331e-02 1.750936e-02 -3.637896e-01 5.482108e-03 -3.765106e-02 5.558171e-03 -3.794533e-02 -1.405053e-02 -1.142105e-02 -4.585712e-02 1.524874e-04 2.381244e-02 4.330967e-02 1.927893e-02 -2.256905e-02 6.451631e-02
<VARIANCE> 39
 2.729422e+01 1.915968e+01 2.019709e+01 2.232309e+01 2.459511e+01 2.782494e+01 2.726920e+01 2.300629e+01 3.794447e+01 3.054656e+01 2.264518e+01 1.871301e+01 3.766964e+01 2.688003e-01 2.675482e-01 3.355034e-01 4.568038e-01 4.023291e-01 4.977040e-01 5.477265e-01 4.345684e-01 5.094330e-01 5.479062e-01 4.394954e-01 3.605917e-01 2.287347e-01 2.256393e-02 2.771337e-02 3.449430e-02 4.600826e-02 4.613233e-02 6.119581e-02 6.198366e-02 5.518209e-02 6.311951e-02 6.850495e-02 5.776826e-02 4.870794e-02 1.992031e-02
<GCONST> 6.100245e+01
<TRANSP> 5
 0.000000e+00 1.000000e+00 0.000000e+00 0.000000e+00 0.000000e+00
 0.000000e+00 7.113876e-01 2.886124e-01 0.000000e+00 0.000000e+00
 0.000000e+00 0.000000e+00 6.546968e-01 3.453032e-01 0.000000e+00
 0.000000e+00 0.000000e+00 0.000000e+00 8.439091e-01 1.560908e-01
 0.000000e+00 0.000000e+00 0.000000e+00 0.000000e+00 0.000000e+00
<ENDHMM>
~h "w"
<BEGINHMM>
<NUMSTATES> 5
<STATE> 2
<MEAN> 39
 7.605188e+00 -7.298356e-01 -7.176606e+00 -2.382089e+00 3.063489e+00 1.140945e+00 -1.987155e+00 -1.299553e+00 3.938256e-01 4.599830e-01 2.342554e-01 -1.340596e+00 4.683984e+00 6.958080e-01 -1.889182e-01 -5.134234e-01 -4.305649e-01 1.334613e-01 4.467786e-01 -2.712421e-01 -9.366213e-02 4.521439e-01 6.496463e-01 -2.436757e-02 -3.678237e-01 2.978628e-01 -1.252916e-01 -1.051043e-01 -1.280255e-02 -1.083358e-01 -2.235202e-02 -4.228828e-02 -4.168622e-02 1.375308e-01 1.461143e-01 -1.545957e-02 -1.853891e-01 6.129931e-03 2.300341e-01
<VARIANCE> 39
 5.109778e+01 6.970358e+01 5.035595e+01 5.998007e+01 4.019724e+01 5.683202e+01 4.967192e+01 4.547118e+01 5.701478e+01 4.896242e+01 5.410355e+01 3.579745e+01 4.412321e+01 9.572585e-01 1.110872e+00 1.135652e+00 1.550981e+00 1.123140e+00 1.491148e+00 1.188685e+00 1.010863e+00 1.623879e+00 1.199951e+00 1.363189e+00 8.863019e-01 1.818759e+00 1.041875e-01 1.323187e-01 1.208163e-01 2.106959e-01 1.811533e-01 1.838203e-01 1.888255e-01 1.605567e-01 2.033246e-01 1.654555e-01 2.009544e-01 1.131107e-01 1.449797e-01
<GCONST> 1.014357e+02
<STATE> 3
<MEAN> 39
 9.219683e+00 -2.700467e+00 -1.067247e+01 -5.970423e+00 5.001931e+00 4.166838e+00 -5.371990e+00 3.694107e-01 3.704111e+00 4.834735e+00 -1.882177e+00 -5.391270e+00 6.966424e+00 6.809520e-02 -1.565200e-01 -1.257747e-01 -1.540323e-01 -5.675923e-03 -1.227678e-01 4.988477e-02 3.149343e-01 3.126310e-01 -1.398734e-01 -3.831558e-01 -1.188262e-02 2.914071e-01 -2.137805e-01 -5.458860e-02 2.625657e-01 1.178527e-01 -1.543781e-01 -1.911624e-01 2.068132e-01 1.112602e-01 -7.912657e-02 -2.970030e-01 -6.429222e-02 2.170238e-01 6.247867e-02
<VARIANCE> 39
 3.620198e+01 4.706492e+01 5.657003e+01 4.538954e+01 3.032878e+01 7.061720e+01 4.679517e+01 3.756878e+01 5.150407e+01 3.621638e+01 5.073135e+01 3.331286e+01 3.972255e+01 9.243658e-01 1.594703e+00 1.061541e+00 1.276321e+00 1.306523e+00 1.606411e+00 1.690901e+00 1.346562e+00 2.015408e+00 1.196269e+00 2.405434e+00 9.322169e-01 1.144246e+00 6.469638e-02 1.165002e-01 9.228673e-02 1.583315e-01 1.404419e-01 1.285796e-01 1.498504e-01 1.231349e-01 1.426506e-01 1.418525e-01 1.658890e-01 1.056878e-01 1.294066e-01
<GCONST> 9.772432e+01
<STATE> 4
<MEAN> 39
 8.033211e+00 1.321364e-01 -8.235709e+00 -8.259081e+00 1.477559e+00 3.431979e+00 -2.050944e+00 -1.177040e+00 2.147717e+00 2.461402e+00 -1.635443e-01 -1.755385e+00 6.138730e+00 -1.548811e-01 -6.644087e-02 3.952621e-01 1.299506e-01 -3.301071e-01 -5.034380e-01 4.136383e-03 2.310826e-01 4.133039e-03 -1.561881e-01 -2.054568e-01 1.829524e-01 8.981280e-02 -6.658447e-02 -2.258523e-02 1.150609e-01 1.105667e-01 -3.475560e-02 -3.755540e-02 1.891650e-02 6.811301e-02 7.723792e-03 1.583663e-02 -2.707227e-02 -1.850925e-02 3.730783e-02
<VARIANCE> 39
 2.722952e+01 4.313087e+01 4.590755e+01 5.051723e+01 4.133331e+01 5.499170e+01 4.084443e+01 2.961989e+01 3.866889e+01 4.708842e+01 4.636307e+01 2.997167e+01 2.704897e+01 6.625556e-01 8.257775e-01 7.477052e-01 9.992129e-01 9.846171e-01 1.014022e+00 1.281037e+00 1.221899e+00 1.208394e+00 1.127667e+00 9.573877e-01 9.894122e-01 9.973571e-01 6.433755e-02 8.199493e-02 7.249030e-02 1.275379e-01 1.264568e-01 1.252430e-01 1.493383e-01 1.207452e-01 1.387711e-01 1.176299e-01 1.303166e-01 1.049086e-01 8.965754e-02
<GCONST> 9.025902e+01
<TRANSP> 5
 0.000000e+00 1.000000e+00 0.000000e+00 0.000000e+00 0.000000e+00
 0.000000e+00 5.342231e-01 4.657769e-01 0.000000e+00 0.000000e+00
 0.000000e+00 0.000000e+00 5.616736e-01 4.383264e-01 0.000000e+00
 0.000000e+00 0.000000e+00 0.000000e+00 6.713747e-01 3.286253e-01
 0.000000e+00 0.000000e+00 0.000000e+00 0.000000e+00 0.000000e+00
<ENDHMM>
~h "y"
<BEGINHMM>
<NUMSTATES> 5
<STATE> 2
<MEAN> 39
 -2.786088e+00 5.610132e+00 1.172397e+01 -6.788697e+00 -4.299946e+00 4.209671e-01 -4.687821e+00 -4.496486e+00 -2.073357e+00 -9.597639e-01 -8.467393e-01 -8.121383e-02 6.832727e+00 1.074289e-01 2.105154e-01 8.490616e-01 -6.492321e-01 -7.482445e-01 8.594705e-02 -2.538699e-01 -1.408945e-01 3.991319e-02 2.938261e-01 1.526536e-01 4.931091e-03 5.445682e-01 1.113599e-01 -2.115871e-01 -2.298176e-01 7.461761e-02 -9.458064e-02 -7.278506e-02 1.716488e-01 1.407951e-01 2.656555e-02 8.112198e-02 -1.030463e-02 -2.230342e-02 3.912328e-02
<VARIANCE> 39
 2.909870e+01 6.130413e+01 6.227719e+01 7.817548e+01 4.741750e+01 3.833410e+01 5.587047e+01 4.282876e+01 5.848914e+01 3.815283e+01 5.975684e+01 3.166095e+01 6.363544e+01 7.553730e-01 1.120910e+00 1.860062e+00 1.171171e+00 1.312211e+00 1.285988e+00 1.194793e+00 1.402543e+00 1.252532e+00 9.799356e-01 1.061785e+00 7.535794e-01 1.149033e+00 6.947406e-02 1.250544e-01 2.118578e-01 1.075912e-01 1.450965e-01 1.327502e-01 1.625069e-01 1.512827e-01 1.423848e-01 1.170362e-01 1.394017e-01 1.011222e-01 6.801786e-02
<GCONST> 9.689477e+01
<STATE> 3
<MEAN> 39
 -1.604762e+00 4.051277e+00 1.215696e+01 -1.097764e+01 -1.148981e+01 6.690699e-01 -7.426981e-01 -5.229801e+00 -1.530801e+00 3.760096e+00 2.869290e-01 -6.738683e-01 1.165135e+01 5.368640e-01 -1.168046e+00 -1.023666e+00 3.498730e-01 -5.929131e-01 -5.021889e-01 9.981567e-01 1.035008e+00 -1.407404e-01 1.283068e-01 1.551451e-01 -1.610299e-01 4.918239e-01 5.970708e-02 -1.271068e-01 -3.080935e-01 2.901991e-01 3.506917e-01 -1.498267e-01 -3.956552e-02 2.674371e-01 3.236057e-03 -2.162008e-01 -8.631668e-02 3.834165e-02 -1.000839e-01
<VARIANCE> 39
 2.651794e+01 4.800296e+01 5.888993e+01 8.039841e+01 4.505120e+01 4.863368e+01 5.875941e+01 6.657788e+01 7.189785e+01 3.484300e+01 6.565388e+01 3.441895e+01 3.988840e+01 4.317226e-01 1.284629e+00 1.124171e+00 1.335552e+00 1.066176e+00 1.631259e+00 1.722229e+00 1.378268e+00 1.790890e+00 1.221454e+00 9.863382e-01 1.044238e+00 6.902629e-01 4.645866e-02 1.096020e-01 1.385288e-01 1.326394e-01 1.782124e-01 1.551834e-01 1.922392e-01 1.452754e-01 1.595502e-01 1.266868e-01 1.374791e-01 1.095514e-01 6.544250e-02
<GCONST> 9.689783e+01
<STATE> 4
<MEAN> 39
 1.400438e+00 -3.404899e+00 5.331355e+00 -4.441094e+00 -8.933505e+00 -4.814477e+00 1.710235e+00 4.184163e+00 -3.492203e+00 -4.613444e-02 1.526278e-01 -6.414230e-03 1.233544e+01 6.193017e-01 -7.712481e-01 -1.638903e+00 9.025279e-01 1.128269e+00 -5.539594e-01 -2.761599e-01 9.819052e-01 4.466400e-01 -5.085465e-01 -4.007684e-01 8.809128e-02 -1.272050e-01 -1.975144e-02 2.363989e-01 6.019549e-02 8.079053e-03 2.559494e-01 2.034953e-01 -2.306447e-01 -3.371855e-01 7.446512e-02 4.341887e-02 -5.555521e-02 -2.985137e-02 -2.269610e-01
<VARIANCE> 39
 2.614572e+01 3.200516e+01 5.269416e+01 5.883050e+01 4.850248e+01 6.142569e+01 6.760004e+01 6.518020e+01 5.626141e+01 3.828696e+01 4.243866e+01 3.193065e+01 4.117180e+01 3.597630e-01 8.993761e-01 1.405628e+00 1.376835e+00 1.240306e+00 1.477310e+00 1.793396e+00 1.791884e+00 1.882857e+00 1.460085e+00 1.399025e+00 9.160280e-01 6.142349e-01 3.223580e-02 8.131608e-02 1.170340e-01 1.088688e-01 1.515938e-01 1.878801e-01 1.887443e-01 1.674178e-01 1.506933e-01 1.344587e-01 1.245802e-01 1.051211e-01 3.883400e-02
<GCONST> 9.471447e+01
<TRANSP> 5
 0.000000e+00 1.000000e+00 0.000000e+00 0.000000e+00 0.000000e+00
 0.000000e+00 7.201832e-01 2.798168e-01 0.000000e+00 0.000000e+00
 0.000000e+00 0.000000e+00 7.025060e-01 2.974940e-01 0.000000e+00
 0.000000e+00 0.000000e+00 0.000000e+00 6.773521e-01 3.226478e-01
 0.000000e+00 0.000000e+00 0.000000e+00 0.000000e+00 0.000000e+00
<ENDHMM>
~h "aa"
<BEGINHMM>
<NUMSTATES> 5
<STATE> 2
<MEAN> 39
 4.632171e+00 -7.933791e+00 -6.752606e+00 -3.159611e+00 1.177352e+00 2.282696e+00 -5.188864e-01 4.119269e+00 4.292337e+00 -1.051012e+00 -5.792894e+00 -1.925525e+00 1.170805e+01 1.780948e-01 -1.109935e+00 -1.006076e+00 -6.063043e-01 6.914407e-01 8.724268e-01 3.057839e-02 1.916943e-01 5.820466e-02 -4.726335e-01 -7.334918e-01 -8.449690e-02 1.206974e+00 -1.104624e-01 1.598648e-01 1.234868e-01 1.961861e-01 1.363928e-01 -4.448162e-02 -2.175082e-02 -1.645380e-01 -1.133793e-01 2.538490e-02 1.632369e-01 1.973166e-02 -2.292824e-01
<VARIANCE> 39
 2.525996e+01 3.770301e+01 5.055432e+01 5.657590e+01 6.828390e+01 6.033461e+01 5.256353e+01 5.457320e+01 9.784068e+01 6.427043e+01 4.407570e+01 3.216479e+01 4.460192e+01 8.256243e-01 1.052531e+00 1.317871e+00 1.326414e+00 1.474184e+00 1.543727e+00 1.402205e+00 1.387080e+00 1.532026e+00 1.412358e+00 1.306331e+00 9.400853e-01 1.244619e+00 7.460502e-02 9.986430e-02 1.245833e-01 1.331741e-01 1.648112e-01 1.881808e-01 1.380938e-01 1.688997e-01 1.585535e-01 1.580533e-01 1.345104e-01 8.856683e-02 9.976277e-02
<GCONST> 9.903119e+01
<STATE> 3
<MEAN> 39
 3.342682e+00 -9.876449e+00 -9.313241e+00 -2.313079e+00 7.022014e+00 4.014625e+00 -1.014210e+00 1.686548e+00 6.114684e-01 -3.704305e+00 -5.962262e+00 -1.808196e+00 1.333957e+01 -1.002475e-01 -7.410720e-02 3.720167e-02 1.263174e-01 1.525751e-01 -7.506931e-02 -2.086993e-02 4.319021e-02 -7.343557e-02 -1.814330e-01 -6.913326e-02 6.772334e-02 3.600799e-03 2.902770e-03 1.393825e-01 1.479039e-01 -3.080830e-04 -2.316118e-01 -1.395219e-01 6.249267e-02 4.310729e-02 5.592140e-03 2.920473e-02 4.608230e-02 3.347057e-02 -8.999573e-02
<VARIANCE> 39
 1.592946e+01 2.503712e+01 2.964371e+01 4.172483e+01 3.613351e+01 3.532460e+01 4.559304e+01 3.429600e+01 5.098122e+01 5.187887e+01 3.353415e+01 3.270391e+01 3.478043e+01 1.836001e-01 3.191979e-01 4.838340e-01 5.142660e-01 1.096855e+00 7.348770e-01 8.090370e-01 7.538022e-01 6.688333e-01 6.304558e-01 6.006612e-01 5.078247e-01 1.419157e-01 1.853452e-02 3.189811e-02 4.152426e-02 5.812579e-02 6.259041e-02 6.478105e-02 7.760266e-02 7.625111e-02 7.790746e-02 6.897943e-02 7.185159e-02 5.833915e-02 1.668353e-02
<GCONST> 6.988879e+01
<STATE> 4
<MEAN> 39
 3.409249e+00 -7.412540e+00 -6.554924e+00 -1.543007e+00 2.418375e+00 1.123451e+00 9.327246e-01 3.285802e+00 1.879380e+00 -3.807565e+00 -6.065748e+00 -8.268654e-01 9.663549e+00 -2.687472e-03 5.445449e-01 6.724676e-01 3.500490e-01 -5.515964e-01 -3.683068e-01 2.147196e-01 -1.845184e-01 -2.403728e-01 1.074648e-02 4.166790e-01 1.767530e-01 -8.397789e-01 1.190308e-02 4.524834e-02 2.864917e-02 3.029790e-02 7.513363e-02 6.118073e-02 -6.380109e-02 -1.042547e-01 -2.247432e-02 9.344915e-02 7.927062e-02 -4.224109e-02 -9.415091e-02
<VARIANCE> 39
 2.122435e+01 3.214029e+01 3.451524e+01 3.932418e+01 4.270369e+01 4.792426e+01 4.532125e+01 5.084942e+01 7.117799e+01 6.110435e+01 3.632367e+01 3.193249e+01 7.035933e+01 5.670272e-01 6.063983e-01 7.860932e-01 7.539080e-01 1.118655e+00 1.156435e+00 1.122964e+00 1.076720e+00 1.028878e+00 1.006816e+00 8.239949e-01 6.749135e-01 5.501433e-01 5.657942e-02 7.071123e-02 6.315540e-02 9.057241e-02 1.106781e-01 1.341005e-01 1.274147e-01 1.342509e-01 1.092846e-01 1.048831e-01 9.369292e-02 7.103595e-02 6.192092e-02
<GCONST> 8.695074e+01
<TRANSP> 5
 0.000000e+00 1.000000e+00 0.000000e+00 0.000000e+00 0.000000e+00
 0.000000e+00 7.311150e-01 2.688850e-01 0.000000e+00 0.000000e+00
 0.000000e+00 0.000000e+00 8.541944e-01 1.458056e-01 0.000000e+00
 0.000000e+00 0.000000e+00 0.000000e+00 8.209629e-01 1.790371e-01
 0.000000e+00 0.000000e+00 0.000000e+00 0.000000e+00 0.000000e+00
<ENDHMM>
~h "ai"
<BEGINHMM>
<NUMSTATES> 5
<STATE> 2
<MEAN> 39
 -6.608316e+00 -3.012341e-01 1.102393e+00 4.438046e+00 3.270186e+00 3.377104e+00 -2.264910e-01 4.439780e+00 5.211836e-01 1.695960e+00 3.152389e+00 -7.794282e-01 -2.119988e+01 4.500655e-02 1.260159e-01 1.717885e-01 -1.917229e-01 -8.102951e-02 1.981205e-01 1.653711e-01 -1.705435e-02 1.268334e-01 1.747082e-01 3.979720e-02 1.200877e-01 -3.146940e-01 8.854801e-02 5.729398e-02 4.732661e-02 1.152501e-02 -3.061687e-02 -4.891310e-02 -2.497645e-02 -1.375386e-01 -3.904363e-02 -1.267449e-02 -4.458285e-02 -1.936022e-02 2.108606e-01
<VARIANCE> 39
 7.296931e+01 3.409060e+01 3.425352e+01 3.709377e+01 5.475210e+01 4.343713e+01 3.316041e+01 4.192111e+01 4.338437e+01 4.023612e+01 3.113909e+01 1.495436e+01 5.411975e+02 1.472942e+00 6.296683e-01 6.923435e-01 6.574124e-01 8.052093e-01 1.335099e+00 6.507350e-01 9.249867e-01 1.555233e+00 7.556937e-01 9.199327e-01 5.349507e-01 4.102226e+00 2.032817e-01 7.092915e-02 5.244672e-02 7.625987e-02 7.672486e-02 1.656275e-01 1.142314e-01 1.747176e-01 1.657523e-01 7.593318e-02 1.262540e-01 6.820659e-02 6.744592e-01
<GCONST> 9.355907e+01
<STATE> 3
<MEAN> 39
 2.669806e+00 -6.248833e+00 -2.085900e-01 4.262055e-01 -6.332829e+00 1.381845e+00 1.824665e+00 3.120897e+00 7.626445e-01 -1.551966e+00 -4.908437e+00 3.754669e-01 1.102838e+01 -1.615803e-01 -9.979711e-02 5.835948e-01 -1.028602e+00 -1.086660e+00 -4.452115e-01 1.531577e-01 -5.737644e-01 -4.249727e-01 2.330651e-01 -2.725560e-01 8.575695e-02 1.682908e+00 -1.325806e-01 2.050944e-01 2.188753e-01 -2.009559e-01 1.260245e-01 -5.914867e-02 -1.835837e-01 -1.132657e-01 6.003022e-02 8.350236e-02 1.077255e-01 -1.664014e-02 -1.551421e-01
<VARIANCE> 39
 2.656824e+01 4.017596e+01 4.819233e+01 5.556381e+01 7.995013e+01 4.208220e+01 4.490085e+01 5.100031e+01 3.851558e+01 4.917252e+01 2.951530e+01 1.858009e+01 1.927308e+02 1.761462e+00 1.712712e+00 2.178415e+00 1.922905e+00 1.178019e+00 8.269439e-01 1.931281e+00 2.890199e+00 2.024287e+00 1.602334e+00 1.236387e+00 5.383477e-01 6.193877e+00 9.524987e-02 1.773083e-01 1.602136e-01 1.719960e-01 1.399742e-01 1.059171e-01 2.728744e-01 2.634322e-01 1.627573e-01 1.751297e-01 1.118724e-01 5.070679e-02 3.162363e-01
<GCONST> 1.039402e+02
<STATE> 4
<MEAN> 39
 -1.537497e-01 8.855863e-02 9.035032e+00 -6.717894e+00 -9.339260e+00 -3.613955e+00 -7.858513e-01 -1.953108e+00 -1.853885e+00 1.305701e+00 -1.994631e+00 9.100088e-01 1.024029e+01 -9.564736e-02 6.156695e-01 1.908658e-01 1.770749e-01 2.551585e-01 -3.990506e-02 -1.601945e-01 -5.009491e-01 -9.535819e-02 6.665979e-02 1.870411e-01 1.621473e-01 -5.949643e-01 4.892098e-02 -7.250065e-02 -1.500971e-01 1.266359e-01 8.584763e-02 5.526963e-02 2.562903e-02 9.219621e-02 4.634607e-02 -5.581885e-02 -1.283915e-02 4.094254e-03 -5.610816e-02
<VARIANCE> 39
 2.322332e+01 3.235983e+01 3.891531e+01 5.308436e+01 3.392688e+01 2.697511e+01 4.367047e+01 6.711232e+01 5.448216e+01 3.997651e+01 4.050811e+01 3.703287e+01 5.380512e+01 4.453426e-01 6.901871e-01 1.176633e+00 1.135733e+00 7.719024e-01 8.151678e-01 1.099213e+00 1.646738e+00 1.410121e+00 7.629839e-01 7.954026e-01 7.988211e-01 6.899292e-01 3.272856e-02 5.026372e-02 7.146163e-02 8.445319e-02 8.729593e-02 8.621013e-02 1.244955e-01 1.740133e-01 1.421755e-01 9.959809e-02 1.018002e-01 9.990235e-02 4.308121e-02
<GCONST> 8.597644e+01
<TRANSP> 5
 0.000000e+00 1.000000e+00 0.000000e+00 0.000000e+00 0.000000e+00
 0.000000e+00 7.253157e-01 2.746843e-01 0.000000e+00 0.000000e+00
 0.000000e+00 0.000000e+00 7.046015e-01 2.953985e-01 0.000000e+00
 0.000000e+00 0.000000e+00 0.000000e+00 9.257103e-01 7.428976e-02
 0.000000e+00 0.000000e+00 0.000000e+00 0.000000e+00 0.000000e+00
<ENDHMM>
~h "bb"
<BEGINHMM>
<NUMSTATES> 5
<STATE> 2
<MEAN> 39
 1.026455e+01 6.056776e+00 -1.070439e+01 -1.403021e+01 -1.704619e+00 -4.102083e-02 -2.992623e+00 -2.185780e+00 -2.313544e+00 1.841415e+00 2.502768e+00 7.125214e-02 2.543500e+00 -3.245096e-02 5.930619e-01 2.965916e-01 3.585788e-01 4.510488e-02 3.646871e-01 2.705237e-01 -2.969423e-01 -4.942022e-01 -2.584572e-01 8.725892e-02 -2.949834e-02 -6.896600e-01 -5.032531e-02 -1.053821e-02 1.396200e-01 2.872282e-01 7.064603e-02 1.945027e-02 1.331278e-02 -1.954140e-03 5.280387e-02 -4.030509e-02 -4.288096e-02 -8.338369e-02 -1.254413e-01
<VARIANCE> 39
 1.617071e+01 2.597595e+01 2.675765e+01 3.050687e+01 3.066346e+01 1.959544e+01 1.441518e+01 2.290873e+01 3.650836e+01 4.804324e+01 2.199571e+01 2.060325e+01 2.738917e+01 2.799838e-01 1.639661e-01 4.716043e-01 1.536043e+00 3.992628e-01 6.062421e-01 3.803624e-01 4.392238e-01 6.869924e-01 5.651971e-01 6.228659e-01 6.007406e-01 5.780318e-01 3.155483e-02 2.989063e-02 6.382108e-02 1.715794e-01 6.580484e-02 5.300851e-02 5.427598e-02 7.547409e-02 7.317554e-02 6.335838e-02 6.446340e-02 6.072481e-02 7.738485e-02
<GCONST> 6.831544e+01
<STATE> 3
<MEAN> 39
 8.635612e+00 3.841667e+00 -6.128522e+00 -8.020996e-01 2.581805e+00 3.990386e+00 -1.915434e+00 -2.788006e+00 -1.320447e+00 4.338172e-01 4.966548e-01 -2.220096e+00 -5.834127e-01 -1.089393e-01 2.596423e-01 5.221825e-01 1.619358e+00 5.570592e-01 2.766830e-01 8.390121e-01 -5.711513e-02 1.291788e-01 -2.560821e-01 2.514029e-01 -1.857296e-01 -1.026256e+00 -1.243730e-01 -1.067509e-01 -2.516537e-02 -1.838208e-01 -5.587107e-02 -5.785836e-02 -3.976547e-02 7.381986e-02 8.644358e-02 3.639887e-02 -4.939629e-02 3.967389e-02 1.433411e-01
<VARIANCE> 39
 2.589957e+01 6.899955e+01 2.178226e+01 6.171862e+01 2.912910e+01 3.738229e+01 5.108290e+01 2.496562e+01 3.352442e+01 2.667710e+01 2.617944e+01 2.097574e+01 4.138047e+01 6.296387e-01 4.537139e-01 5.722359e-01 7.532892e-01 6.774012e-01 1.004101e+00 5.616304e-01 7.509778e-01 9.835524e-01 4.736087e-01 5.423993e-01 7.557936e-01 2.720159e-01 3.642282e-02 5.571051e-02 4.685457e-02 1.098259e-01 3.433260e-02 6.353814e-02 9.563460e-02 6.724911e-02 9.880372e-02 5.427041e-02 4.823622e-02 7.015426e-02 4.386314e-02
<GCONST> 7.435181e+01
<STATE> 4
<MEAN> 39
 3.297974e+00 1.661931e+00 -3.486595e+00 -1.323811e+00 3.329171e+00 4.253813e+00 8.471982e-01 -1.863442e+00 -1.693121e+00 -1.131638e-01 1.346483e+00 -2.002643e+00 -8.311968e-01 -2.697346e-01 -1.941910e-01 4.999646e-02 3.628424e-02 1.871545e-02 -1.097170e-01 -9.234118e-02 1.768811e-01 1.403069e-01 1.145204e-01 2.556647e-02 -4.843897e-02 1.116151e-01 2.667215e-02 -8.619805e-02 -3.790456e-02 -1.443674e-01 -9.281610e-02 -7.460331e-02 -9.224505e-02 3.280032e-02 6.808440e-02 7.316867e-02 -5.999939e-02 -1.240884e-02 1.761576e-01
<VARIANCE> 39
 1.882319e+01 4.174353e+01 1.667258e+01 4.550468e+01 2.803501e+01 3.301935e+01 2.113140e+01 1.812683e+01 3.406332e+01 1.956857e+01 3.059920e+01 2.698732e+01 1.692068e+01 3.147221e-01 5.162411e-01 4.667472e-01 9.673051e-01 5.607061e-01 7.129870e-01 5.451447e-01 4.282162e-01 4.383597e-01 3.669935e-01 6.201606e-01 6.070799e-01 5.277241e-01 4.476531e-02 7.100208e-02 7.307699e-02 1.265587e-01 8.876426e-02 9.377604e-02 5.753955e-02 5.461472e-02 7.442781e-02 7.527340e-02 1.177089e-01 6.953132e-02 8.105888e-02
<GCONST> 7.188516e+01
<TRANSP> 5
 0.000000e+00 1.000000e+00 0.000000e+00 0.000000e+00 0.000000e+00
 0.000000e+00 8.245513e-01 1.754487e-01 0.000000e+00 0.000000e+00
 0.000000e+00 0.000000e+00 7.490221e-01 2.509779e-01 0.000000e+00
 0.000000e+00 0.000000e+00 0.000000e+00 8.763307e-01 1.236692e-01
 0.000000e+00 0.000000e+00 0.000000e+00 0.000000e+00 0.000000e+00
<ENDHMM>
~h "bh"
<BEGINHMM>
<NUMSTATES> 5
<STATE> 2
<MEAN> 39
 -8.790709e+00 -4.451235e+00 -2.669590e+00 3.488065e+00 5.945242e+00 4.221189e+00 3.611453e+00 6.057209e+00 4.562214e+00 3.051206e+00 2.340065e+00 1.825092e+00 -1.756296e+01 9.290227e-02 -2.610542e-01 -2.821223e-01 -5.578913e-03 8.092196e-02 -3.345922e-01 2.348352e-01 3.705882e-02 2.773518e-01 -6.446449e-02 -3.175043e-01 3.232122e-02 1.176152e+00 1.476833e-01 2.924257e-03 4.657995e-02 -1.600828e-01 -1.782313e-01 -1.414370e-01 4.728380e-03 -8.081675e-02 -3.705288e-02 -3.864170e-02 -1.158532e-01 -5.369825e-02 3.147071e-01
<VARIANCE> 39
 1.421915e+02 8.286020e+01 4.673510e+01 5.238979e+01 6.568131e+01 7.159164e+01 5.705094e+01 4.029354e+01 3.731505e+01 3.165145e+01 4.795877e+01 1.842719e+01 4.975727e+02 3.686616e+00 1.838402e+00 1.737980e+00 1.796810e+00 1.700707e+00 3.124482e+00 1.680199e+00 1.053741e+00 9.671822e-01 1.910735e+00 1.421881e+00 4.401991e-01 1.296255e+01 2.556597e-01 2.961933e-01 1.494914e-01 3.174825e-01 2.181826e-01 3.790978e-01 2.443441e-01 1.328807e-01 9.463739e-02 1.703474e-01 1.700719e-01 4.905603e-02 1.100273e+00
<GCONST> 1.127535e+02
<STATE> 3
<MEAN> 39
 6.370674e+00 -6.029571e+00 -3.059657e+00 1.809080e+00 -4.659681e-04 -2.747341e+00 1.192925e+00 4.306297e+00 3.995538e+00 -3.345013e+00 -6.735343e+00 -3.519780e+00 1.099879e+01 3.027624e-02 3.033399e-01 1.450481e+00 -6.548882e-01 -1.250252e+00 -1.892429e-01 -2.356011e-01 -2.896126e-01 -7.434146e-01 4.318070e-01 -4.341636e-05 -1.119573e-01 6.772631e-01 -2.081996e-01 5.985671e-02 1.341327e-01 -1.612556e-01 5.324043e-02 2.108398e-01 -4.918421e-02 -1.391279e-01 -4.922441e-02 1.023009e-01 4.795795e-02 3.321227e-02 -7.657736e-02
<VARIANCE> 39
 2.608744e+01 3.950714e+01 7.976013e+01 5.100111e+01 9.850185e+01 5.122559e+01 2.283528e+01 4.329018e+01 6.168742e+01 9.636099e+01 5.130116e+01 2.095559e+01 7.563737e+01 2.105042e+00 1.743840e+00 1.911759e+00 3.560521e+00 3.557427e+00 2.357512e+00 8.831162e-01 3.603622e+00 2.520701e+00 1.091672e+00 2.026065e+00 6.329427e-01 2.554758e+00 1.121830e-01 1.707821e-01 1.794559e-01 1.995678e-01 5.412002e-01 3.552067e-01 1.519371e-01 3.266554e-01 2.534802e-01 1.639880e-01 1.703998e-01 8.705323e-02 5.926549e-01
<GCONST> 1.111954e+02
<STATE> 4
<MEAN> 39
 4.753052e+00 -7.411785e-01 7.027698e+00 -4.282845e+00 -3.483624e+00 -3.319660e-01 2.802304e+00 -4.170830e+00 -4.291999e+00 2.132565e+00 -7.111111e+00 -4.085414e+00 1.007584e+01 5.259676e-02 1.741422e-01 8.439676e-02 7.514686e-02 2.690113e-01 5.548068e-02 -3.250980e-01 -6.696314e-01 -4.545635e-01 -3.576238e-01 -2.429050e-01 -2.012441e-01 -1.967979e-01 -5.111414e-03 -6.128242e-02 -1.796530e-01 1.517289e-01 9.742194e-02 9.353214e-02 -7.879550e-02 9.743401e-02 1.398301e-01 -1.825220e-01 7.472117e-02 -3.275254e-02 -3.521344e-02
<VARIANCE> 39
 2.749995e+01 1.497399e+01 3.766251e+01 7.676895e+01 2.475028e+01 5.882648e+01 4.433521e+01 6.716578e+01 3.943818e+01 4.752825e+01 6.212452e+01 5.765700e+01 5.863470e+01 9.232888e-01 1.344759e+00 1.521124e+00 3.673853e+00 1.111061e+00 1.780048e+00 6.726074e-01 2.188503e+00 1.158067e+00 2.258904e+00 2.067194e+00 7.802209e-01 1.218544e+00 8.241622e-02 8.108415e-02 1.458551e-01 3.762272e-01 2.110788e-01 2.903838e-01 5.666484e-02 2.371217e-01 1.176952e-01 1.574063e-01 2.058295e-01 1.357900e-01 9.811024e-02
<GCONST> 1.004832e+02
<TRANSP> 5
 0.000000e+00 1.000000e+00 0.000000e+00 0.000000e+00 0.000000e+00
 0.000000e+00 8.704416e-01 1.295584e-01 0.000000e+00 0.000000e+00
 0.000000e+00 0.000000e+00 8.025838e-01 1.974163e-01 0.000000e+00
 0.000000e+00 0.000000e+00 0.000000e+00 7.477987e-01 2.522013e-01
 0.000000e+00 0.000000e+00 0.000000e+00 0.000000e+00 0.000000e+00
<ENDHMM>
~h "dd"
<BEGINHMM>
<NUMSTATES> 5
<STATE> 2
<MEAN> 39
 3.141209e+00 6.312239e+00 8.061594e+00 4.547201e+00 -5.648421e+00 -2.340878e+00 1.344997e+00 -3.475680e+00 -2.109981e+00 9.918157e-01 1.088517e+00 -3.681344e-01 -2.174553e+00 1.066893e-02 5.447881e-01 -5.532424e-01 6.894663e-01 1.151695e+00 6.687039e-01 2.096975e-01 9.309840e-02 2.276884e-01 -4.068895e-01 -3.415796e-01 -2.902903e-01 -9.228117e-01 -1.327572e-01 -7.198568e-02 -2.053379e-02 -1.669360e-01 1.214027e-02 -2.775852e-02 -9.108571e-03 -4.460447e-02 -4.656610e-02 4.599477e-02 3.990555e-02 1.571862e-02 1.175161e-01
<VARIANCE> 39
 9.577567e+00 2.463214e+01 2.345747e+01 1.996964e+01 2.919575e+01 9.362831e+01 2.332083e+01 4.304876e+01 3.483271e+01 2.927894e+01 2.751120e+01 3.010747e+01 2.198890e+01 2.306071e-01 3.894574e-01 6.396332e-01 5.473820e-01 6.713591e-01 8.056593e-01 9.936447e-01 6.897767e-01 7.060176e-01 5.603852e-01 7.296861e-01 4.617068e-01 2.485608e-01 2.893665e-02 3.381722e-02 4.536866e-02 7.417456e-02 6.080613e-02 1.663748e-01 7.368153e-02 8.389444e-02 6.314992e-02 7.228412e-02 6.642957e-02 4.772622e-02 4.521533e-02
<GCONST> 7.045026e+01
<STATE> 3
<MEAN> 39
 7.225249e-01 6.443833e+00 5.472606e+00 6.372448e+00 1.395174e+00 -1.190025e+00 2.056175e+00 -3.606506e+00 -4.100591e+00 -1.118404e+00 1.487688e+00 3.529205e-01 -5.387720e+00 -4.076324e-01 -2.382624e-01 -6.085793e-01 -4.638711e-02 6.776180e-01 1.407609e-01 4.379565e-02 2.209704e-02 1.776132e-01 -1.047492e-01 2.364260e-03 1.292157e-02 -2.187819e-01 -5.483392e-02 -1.698713e-01 -4.715940e-03 -1.687127e-01 -1.954431e-01 -1.885203e-01 -4.942992e-02 1.083895e-01 1.405701e-01 4.092931e-02 5.504161e-02 4.179989e-02 2.754101e-01
<VARIANCE> 39
 1.009604e+01 2.036157e+01 2.136523e+01 1.800254e+01 2.934670e+01 2.966178e+01 2.297666e+01 2.660193e+01 4.445397e+01 3.474527e+01 2.524813e+01 2.554472e+01 1.841131e+01 1.395829e-01 3.015001e-01 2.839728e-01 5.077235e-01 4.914435e-01 6.724301e-01 7.149976e-01 5.703454e-01 8.244041e-01 4.317400e-01 4.713689e-01 3.647867e-01 3.535725e-01 4.437371e-02 5.171324e-02 5.850158e-02 5.442915e-02 8.762912e-02 8.330440e-02 1.256419e-01 8.579659e-02 1.166811e-01 9.046698e-02 7.871363e-02 5.606691e-02 5.387630e-02
<GCONST> 6.775015e+01
<STATE> 4
<MEAN> 39
 -1.485142e+00 4.824927e+00 3.024080e+00 5.824763e+00 2.190140e+00 3.589023e-01 2.321458e+00 -2.214876e+00 1.874665e-02 1.280444e+00 2.608950e+00 -7.392137e-01 -7.974032e+00 -4.567439e-01 -1.148364e+00 -5.937876e-01 -8.964914e-01 -5.278696e-01 -9.893342e-01 -8.799236e-02 9.556440e-01 5.879774e-01 -1.570248e-01 1.560937e-02 2.851451e-01 1.945396e+00 1.280364e-01 -1.335636e-01 9.397696e-02 -2.520087e-01 -3.441931e-01 -1.284968e-01 -3.812797e-02 2.025196e-01 6.684810e-02 5.106825e-02 -1.379879e-01 5.777282e-02 4.337628e-01
<VARIANCE> 39
 3.947366e+01 4.569699e+01 4.386889e+01 3.550779e+01 4.740482e+01 5.835454e+01 3.342492e+01 4.357446e+01 3.324385e+01 4.310392e+01 2.692802e+01 2.746376e+01 2.077611e+02 1.373172e+00 1.290642e+00 1.655968e+00 1.285939e+00 1.834730e+00 2.336220e+00 2.189686e+00 2.315076e+00 1.730637e+00 1.553218e+00 1.062993e+00 1.017774e+00 4.089657e+00 1.547820e-01 1.499777e-01 1.284002e-01 1.681474e-01 1.537347e-01 2.096769e-01 2.150933e-01 2.062917e-01 1.233431e-01 1.683763e-01 1.121770e-01 1.092017e-01 3.611642e-01
<GCONST> 1.043841e+02
<TRANSP> 5
 0.000000e+00 1.000000e+00 0.000000e+00 0.000000e+00 0.000000e+00
 0.000000e+00 7.312011e-01 2.687989e-01 0.000000e+00 0.000000e+00
 0.000000e+00 0.000000e+00 7.595956e-01 2.404043e-01 0.000000e+00
 0.000000e+00 0.000000e+00 0.000000e+00 7.899241e-01 2.100759e-01
 0.000000e+00 0.000000e+00 0.000000e+00 0.000000e+00 0.000000e+00
<ENDHMM>
~h "dh"
<BEGINHMM>
<NUMSTATES> 5
<STATE> 2
<MEAN> 39
 4.639871e+00 1.799399e+00 6.513187e-01 3.917507e+00 2.996590e-01 1.507175e-01 2.997605e+00 -1.363063e+00 -6.378689e+00 -4.180477e+00 -3.049976e+00 -4.848871e+00 3.042616e+00 -6.578572e-01 3.444364e-01 7.197795e-01 1.200885e-01 -1.304331e-01 2.232620e-01 8.795854e-02 -4.272437e-01 3.559743e-02 1.053502e-01 -1.602822e-01 -1.948057e-01 6.442816e-02 -2.572827e-01 -6.665196e-02 3.030066e-03 -4.907520e-01 -1.618571e-01 -3.208931e-01 2.754488e-02 -8.915645e-02 2.813510e-01 6.259310e-02 1.690310e-04 1.885016e-01 2.959518e-01
<VARIANCE> 39
 5.077270e+01 4.895299e+01 2.973853e+01 3.537708e+01 5.269995e+01 2.103913e+01 2.890975e+01 3.490882e+01 4.280122e+01 6.891261e+01 2.282824e+01 3.306911e+01 7.562238e+01 1.643813e+00 7.061703e-01 1.183209e+00 2.866212e+00 1.059956e+00 1.456222e+00 6.107348e-01 1.282367e+00 1.292349e+00 1.249531e+00 6.435857e-01 1.048461e+00 1.189351e+00 1.666047e-01 2.083398e-01 1.456889e-01 1.829574e-01 1.079443e-01 1.277326e-01 1.555571e-01 1.659220e-01 1.767730e-01 1.580278e-01 1.029660e-01 1.446211e-01 1.660124e-01
<GCONST> 9.663592e+01
<STATE> 3
<MEAN> 39
 2.734315e-01 4.102182e+00 3.621480e+00 -5.465823e-01 -3.381963e+00 -2.315897e+00 8.734659e-01 -5.311717e+00 -3.384128e+00 -1.991162e+00 -3.490629e+00 -3.390263e+00 5.829730e+00 -7.847492e-01 -2.630463e-01 7.283998e-02 -8.511297e-01 -5.120912e-01 -2.377531e-01 -1.362808e-01 -4.512282e-01 2.933905e-01 -3.809716e-01 -1.788504e-01 6.055894e-01 9.033953e-01 1.010732e-01 -1.791400e-01 -1.169382e-01 -8.728082e-03 2.456772e-02 -4.297419e-02 -2.203851e-02 1.207080e-01 1.345126e-02 -6.805087e-03 4.979526e-02 5.846284e-02 3.630664e-02
<VARIANCE> 39
 4.624106e+01 4.630626e+01 2.995030e+01 4.337918e+01 5.765396e+01 1.914128e+01 2.505665e+01 5.954441e+01 2.303494e+01 3.025991e+01 3.722748e+01 2.051186e+01 8.152048e+01 5.357713e-01 2.094794e+00 1.035491e+00 1.340685e+00 1.869079e+00 6.760934e-01 1.444635e+00 1.057756e+00 5.244815e-01 1.023918e+00 1.028652e+00 8.360106e-01 1.607148e+00 8.502094e-02 1.936498e-01 8.747039e-02 1.526614e-01 1.604066e-01 1.580806e-01 8.852322e-02 1.186968e-01 9.286667e-02 1.398274e-01 1.258343e-01 5.390402e-02 1.949794e-01
<GCONST> 9.159412e+01
<STATE> 4
<MEAN> 39
 2.943848e+00 -1.279977e+00 2.624736e+00 -8.599653e+00 -8.855225e+00 -9.372076e-01 -2.649826e+00 -2.783098e+00 -5.225053e+00 -5.889325e+00 -3.232311e+00 9.609652e-01 7.440106e+00 -8.901310e-02 2.143015e-02 -3.338058e-03 -2.412373e-01 -1.248204e-01 1.061001e-01 -1.002964e-01 -1.064281e-02 1.556649e-01 -1.006712e-01 2.313907e-02 1.724944e-01 -3.046523e-02 -5.852456e-03 4.741431e-03 1.266208e-02 3.310540e-02 2.153582e-02 -2.229833e-02 6.709553e-03 2.285122e-02 -1.629390e-02 3.010514e-02 3.777394e-02 -1.700067e-02 -2.013808e-02
<VARIANCE> 39
 1.120895e+01 3.403521e+01 2.697032e+01 5.484840e+01 4.188831e+01 2.940215e+01 7.194563e+01 2.160741e+01 3.674463e+01 2.064689e+01 2.801892e+01 1.588085e+01 1.910451e+01 1.636962e-01 6.511338e-01 3.909581e-01 8.972777e-01 1.144207e+00 8.120082e-01 1.320566e+00 6.149257e-01 1.078015e+00 6.804066e-01 9.348810e-01 5.881474e-01 3.222823e-01 1.318901e-02 5.496186e-02 5.319753e-02 8.965013e-02 1.359167e-01 1.028871e-01 1.153052e-01 8.593629e-02 1.132225e-01 8.377253e-02 1.159831e-01 6.294174e-02 3.497164e-02
<GCONST> 7.506631e+01
<TRANSP> 5
 0.000000e+00 1.000000e+00 0.000000e+00 0.000000e+00 0.000000e+00
 0.000000e+00 6.233593e-01 3.766407e-01 0.000000e+00 0.000000e+00
 0.000000e+00 0.000000e+00 6.562565e-01 3.437435e-01 0.000000e+00
 0.000000e+00 0.000000e+00 0.000000e+00 8.679847e-01 1.320154e-01
 0.000000e+00 0.000000e+00 0.000000e+00 0.000000e+00 0.000000e+00
<ENDHMM>
~h "dx"
<BEGINHMM>
<NUMSTATES> 5
<STATE> 2
<MEAN> 39
